{
  "bias": [
    0.011413299165461951,
    0.15336502998201462
  ],
  "intercept": -0.97481696099778647,
  "kernel": {
    "parameters": [
      {
        "name": "gamma",
        "value": 0.0625
      }
    ],
    "type": "rbf"
  },
  "modelName": "puffMarker",
  "modelType": "svc",
  "normparams": [
    {
      "mean": 1832.7517455391776,
      "std": 1631.6211827225395
    },
    {
      "mean": 1726.779286268425,
      "std": 2104.0022618818252
    },
    {
      "mean": 3559.5310318076026,
      "std": 2550.7698297963852
    },
    {
      "mean": 0.82649590136430795,
      "std": 1.7525202040389252
    },
    {
      "mean": 721.04305766275138,
      "std": 587.97749955056997
    },
    {
      "mean": 442.87315748642357,
      "std": 451.59446832072837
    },
    {
      "mean": -460.73700543056634,
      "std": 396.15467221424609
    },
    {
      "mean": 81.415826221877424,
      "std": 1982.5471033895719
    },
    {
      "mean": -61.736229635376262,
      "std": 2019.4124777012466
    },
    {
      "mean": 19.679596586501162,
      "std": 2904.8394044441811
    },
    {
      "mean": -17.969575153839312,
      "std": 646.34465713511213
    },
    {
      "mean": -191.01823118696663,
      "std": 1690.7644123179507
    },
    {
      "mean": -57.38130333591932,
      "std": 2217.7451394514305
    },
    {
      "mean": -248.39953452288597,
      "std": 2918.4094339083604
    },
    {
      "mean": 0.0,
      "std": 1.0
    },
    {
      "mean": 1.0833075142170483,
      "std": 0.71584148904774758
    },
    {
      "mean": 1.0967047186890588,
      "std": 1.6911805936238915
    },
    {
      "mean": 111.35919317300232,
      "std": 127.97571983387456
    },
    {
      "mean": -103.70170674941815,
      "std": 151.80778444580434
    },
    {
      "mean": 91.917198518447648,
      "std": 106.73431999861776
    },
    {
      "mean": 80.174933021629954,
      "std": 99.371011056851913
    },
    {
      "mean": 53.57033394691296,
      "std": 58.695994155353354
    },
    {
      "mean": 69.304382681733159,
      "std": 85.880313195833594
    },
    {
      "mean": 2741.9584949573314,
      "std": 1203.3552163795212
    },
    {
      "mean": -72.563476412507285,
      "std": 22.84194442030763
    },
    {
      "mean": -73.626881609780909,
      "std": 22.909096188153804
    },
    {
      "mean": 8.7502038195909417,
      "std": 18.765455626814475
    },
    {
      "mean": 11.856507328492073,
      "std": 28.114360501033431
    },
    {
      "mean": 34.780573260962854,
      "std": 32.272552906004719
    },
    {
      "mean": 34.814911309264993,
      "std": 32.439057654463468
    },
    {
      "mean": 2.5355196015801709,
      "std": 3.2452064453608291
    },
    {
      "mean": 3.5448736049629961,
      "std": 5.0231226204465704
    },
    {
      "mean": 1390.8603568657875,
      "std": 1004.3369441251032
    },
    {
      "mean": 1390.8603568657875,
      "std": 1004.3369441251032
    },
    {
      "mean": -1351.0981380915439,
      "std": 1028.695895025269
    },
    {
      "mean": -1351.0981380915439,
      "std": 1028.695895025269
    }
  ],
  "probA": -3.2994986174085437,
  "probB": -0.42404811965980443,
  "support": [
    {
      "dualCoef": -0.037115897516266219,
      "supportVector": [
        1.462501394152719,
        -0.018906484555223976,
        0.91990619489948411,
        0.95542022689282302,
        0.61661703485996444,
        -0.737106366081554,
        -0.54085691674881264,
        1.4963499069989998,
        0.26232195526413193,
        1.203619173598512,
        -0.068431639927542143,
        -1.8553630215769643,
        -0.35424210054109601,
        -1.3440884681570988,
        0.0,
        2.5861725961759281,
        0.53342052917876748,
        -0.44820371588814162,
        0.23517704892243999,
        1.4006138939574329,
        0.70431316676887556,
        3.4612414683523332,
        4.1168387664046486,
        -0.46034494837193668,
        0.25056098457218168,
        0.26204392764835088,
        0.37219095468632923,
        -0.06570877997574931,
        0.24396047222464071,
        0.028270538197533238,
        3.731201747673782,
        0.89221134716350547,
        -0.16713549954294851,
        -0.16713549954294851,
        0.37532777175324467,
        0.37532777175324467
      ]
    },
    {
      "dualCoef": -0.042011883570040709,
      "supportVector": [
        1.462501394152719,
        -0.018906484555223976,
        0.91990619489948411,
        0.95542022689282302,
        0.61661703485996444,
        -0.737106366081554,
        -0.54085691674881264,
        1.4963499069989998,
        0.26232195526413193,
        1.203619173598512,
        -0.068431639927542143,
        -1.8553630215769643,
        -0.35424210054109601,
        -1.3440884681570988,
        0.0,
        2.5861725961759281,
        0.53342052917876748,
        -0.44820371588814162,
        0.23517704892243999,
        1.0954253074874405,
        0.94491230627804235,
        2.3361748216169933,
        2.4969387225544577,
        0.36983386034727495,
        0.40750155660586856,
        0.33563795380128181,
        0.61442770275092695,
        0.43116135084063706,
        0.57146156189292641,
        0.56118425984417331,
        3.0276911601449816,
        4.5573680339254778,
        1.4030546734111635,
        1.4030546734111635,
        0.93720422406066051,
        0.93720422406066051
      ]
    },
    {
      "dualCoef": -0.10000000000000001,
      "supportVector": [
        1.3472785703804135,
        -0.37489469500994677,
        0.55256611228811181,
        1.980545191571522,
        1.3407944061462249,
        -0.92311395893882986,
        -0.16221692959026698,
        1.3536042443531271,
        0.0077924791537830095,
        0.9292494446624987,
        0.34713611797820892,
        -1.4951709122782522,
        0.15257898543726242,
        -0.75027185700423848,
        0.0,
        5.1152961495281195,
        -0.26048739745279503,
        -0.46383168033793104,
        0.21541521647786593,
        -0.53243402426265307,
        -0.48566359272540105,
        -0.54069307236131903,
        -0.5114231655760052,
        0.42218747891515312,
        -0.11340535959475551,
        -0.074578852073562629,
        -0.41835597755294712,
        -0.38527279543119053,
        -0.46290531097966858,
        -0.45285307154238735,
        -0.47047840687639209,
        -0.38177713995708312,
        -0.64605843752070868,
        -0.64605843752070868,
        -1.124629608714476,
        -1.124629608714476
      ]
    },
    {
      "dualCoef": -0.052136998770739469,
      "supportVector": [
        0.97403016784140228,
        2.0756730127397871,
        2.3351652111503416,
        -0.15118796563170603,
        2.4864164758935825,
        -0.73489198997611027,
        -2.3255133895560913,
        1.2597855402819882,
        2.3287645696775288,
        2.4787326942747892,
        1.1355699579959706,
        -1.2733777415278138,
        -2.1299195352232805,
        -2.3562836610858637,
        0.0,
        3.1810425156892235,
        1.7351104246155291,
        -0.30755203584003699,
        -0.13371049004294228,
        3.0149329510963998,
        2.904472844795277,
        0.94982804742038807,
        1.1432334152760211,
        -1.8115669133143171,
        0.77045001514005063,
        0.54837157319219743,
        0.10853174059887101,
        0.29404497653133488,
        -0.12403121643833341,
        -0.20352541990545217,
        1.6012037487770332,
        2.2092725113776193,
        -1.0562793324205781,
        -1.0562793324205781,
        1.0878804353195695,
        1.0878804353195695
      ]
    },
    {
      "dualCoef": -0.10000000000000001,
      "supportVector": [
        -0.23213215760486058,
        1.5851792434617178,
        1.1590496851801,
        -0.30770410199485704,
        0.11183581410429982,
        -0.47359560953374658,
        -0.29347879180522951,
        0.21970936934280244,
        1.307180310503113,
        1.0586886141479954,
        0.69184384866101367,
        -0.053811026628069407,
        -0.18515143573514903,
        -0.17187460390208723,
        0.0,
        1.3643355299769362,
        0.76255847644536701,
        -0.48727362701261512,
        0.37350987603445834,
        -0.2863137116217021,
        -0.31454478982011608,
        -0.26111782008226542,
        -0.056856932532960869,
        -1.6029834488613421,
        -0.017406445129800226,
        0.04218436059627366,
        -0.40791424644005803,
        -0.35250182983697098,
        -0.40168354454745403,
        -0.38772404884203571,
        -0.43175458453220533,
        -0.44397051743235194,
        -1.1349381933358444,
        -1.1349381933358444,
        0.76708592102640827,
        0.76708592102640827
      ]
    },
    {
      "dualCoef": -0.10000000000000001,
      "supportVector": [
        1.1462515161393696,
        -0.21900132647970769,
        0.55256611228811181,
        1.1973982378797781,
        0.89247793110851215,
        -0.25437237509481431,
        -0.4853230519655593,
        0.66812242267206334,
        -0.80482010897283685,
        -0.10350988633880567,
        -0.092257937290716213,
        -1.6891660056279691,
        -0.27037313079734632,
        -1.184069796830852,
        0.0,
        3.5428231611462278,
        -0.16450894521657136,
        -0.06531858686830129,
        0.21541521647786593,
        -0.33660777315530377,
        -0.17861322625993026,
        -0.44251980125113272,
        -0.21577763023326241,
        -0.044840039103062002,
        -0.084146428407183491,
        -0.032710755277867848,
        -0.42553347495629851,
        -0.3941936508088591,
        -0.52850058137634615,
        -0.52930879537799325,
        -0.56812112842989937,
        -0.41676618864242421,
        -0.16613981775921097,
        -0.16613981775921097,
        -0.10975241804156589,
        -0.10975241804156589
      ]
    },
    {
      "dualCoef": -0.10000000000000001,
      "supportVector": [
        0.97403016784140228,
        -0.30835484258850326,
        0.36870005172809739,
        1.33972842353801,
        0.57886048802446688,
        -0.44259434405753395,
        0.13312226039339861,
        1.2829880154823774,
        0.0072972856204943934,
        0.88070975610543734,
        -0.26213634316581486,
        -1.5507670670796954,
        -0.058446164240559428,
        -0.94284250643753775,
        0.0,
        1.8835281646659798,
        -0.14952223506115947,
        -0.26066814249066883,
        -0.27204331715496061,
        1.3999289257629244,
        1.6068346389805728,
        0.84089240840300705,
        1.014370148912604,
        -0.097193657670940209,
        -0.10640402479946512,
        -0.025431541050220229,
        -0.29234674904100177,
        -0.31945461782094337,
        -0.43339038445314115,
        -0.43657001452375921,
        -0.034052375427130015,
        -0.087197866401618543,
        0.1136467634710398,
        0.1136467634710398,
        0.22465156049433557,
        0.22465156049433557
      ]
    },
    {
      "dualCoef": -0.10000000000000001,
      "supportVector": [
        1.0598343983101404,
        -0.37489469500994677,
        0.36870005172809739,
        1.6952417760401739,
        0.99588324856789312,
        0.82181441215085305,
        -0.39697372162856531,
        1.3536042443531271,
        -2.1745254220491503,
        -0.58787401257841743,
        -0.62103453666642261,
        -1.439574757476809,
        -0.20679504083031025,
        -0.991156494996426,
        0.0,
        1.2691106892876931,
        -0.33503901011249237,
        0.7785914934203263,
        -0.46307436411917641,
        0.43809796332868045,
        0.40311730225795078,
        0.5079255649176716,
        0.40121309817974921,
        1.5124723608366804,
        -0.82579799872233983,
        -0.67451369273929551,
        0.030599256619498794,
        0.035905427176975681,
        -0.010516157223358247,
        -0.0079337728376901329,
        0.5780642047046779,
        0.88224842249690005,
        2.7332855364845265,
        2.7332855364845265,
        0.89929214509874145,
        0.89929214509874145
      ]
    },
    {
      "dualCoef": -0.10000000000000001,
      "supportVector": [
        -0.49138351109254819,
        -0.62014157964898142,
        -0.82584128414901159,
        0.92246129716236525,
        -0.11946555389694816,
        -0.079436662764757277,
        -0.25813905967043188,
        -0.041066275844180614,
        -0.54979543932919928,
        -0.4102394076461931,
        -1.0804946518928353,
        0.0023765766287083385,
        0.0046810172869941151,
        0.0049340350793760914,
        0.0,
        -0.087464190445122575,
        -0.48718551070387561,
        0.23942671990259201,
        0.044146001958224164,
        0.69068329426454034,
        0.87510062162237545,
        0.15470739419893892,
        0.2873205209910667,
        1.0454448428184651,
        -0.61447599904902939,
        -0.56198088448523953,
        -0.056869167281331866,
        -0.080130402798987366,
        0.03450374292616145,
        0.056255122613954225,
        0.48339111874108714,
        0.40860516815143005,
        0.39940743540371587,
        0.39940743540371587,
        -0.83299823208432955,
        -0.83299823208432955
      ]
    },
    {
      "dualCoef": -0.10000000000000001,
      "supportVector": [
        1.3472785703804135,
        -0.085446336976667495,
        0.79131756406007092,
        1.0152194101689314,
        1.6071311284182501,
        -0.60645817586037221,
        -0.60143931469417999,
        1.8030261009519701,
        0.33214424345782689,
        1.4614647532385043,
        0.54207855094963353,
        -1.7169640830286907,
        -0.29111491901354247,
        -1.2159364701356505,
        0.0,
        1.0308918065509345,
        0.36508383992902355,
        0.60668388447264299,
        -0.17982143241361506,
        0.71903141984011909,
        0.61361954485959336,
        0.0073317959090183739,
        0.035231399256206143,
        0.73381616086680912,
        0.33081317483494493,
        -0.1461975896218341,
        1.2131495842199032,
        -0.12564647656189962,
        -0.13782457082117081,
        -0.26204417004604347,
        2.1424491179313501,
        1.3774262205106158,
        -0.58034343979403058,
        -0.58034343979403058,
        -1.4250099266435272,
        -1.4250099266435272
      ]
    },
    {
      "dualCoef": -0.10000000000000001,
      "supportVector": [
        -0.28974356949101338,
        -0.28601646356130439,
        -0.42125754321524844,
        0.21819605083199808,
        1.4248112265819721,
        -0.46473810511197156,
        0.057394262961689479,
        0.33773935188391274,
        -0.45669905507093933,
        -0.086985737042784811,
        0.54672003744895326,
        0.22357829892381234,
        -0.18560234417463156,
        -0.011513280174713519,
        0.0,
        1.3716378984652171,
        -0.11790381445254543,
        -0.1200164624425642,
        -0.35767792441478152,
        1.1038395262345841,
        1.1951903113112172,
        1.2743258432389493,
        1.8967623806752902,
        0.059036188214156668,
        -0.50341341290997388,
        -0.60434485637134361,
        0.098550611966593232,
        0.16007912887289014,
        -0.09546743962174703,
        -0.086131003747782917,
        1.6402910333692167,
        1.9007264507108779,
        1.2118837709335544,
        1.2118837709335544,
        1.1141272592162828,
        1.1141272592162828
      ]
    },
    {
      "dualCoef": -0.10000000000000001,
      "supportVector": [
        -0.3761606873202426,
        -0.6871567167305781,
        -0.80741547424214455,
        2.003732899830605,
        -0.18035223753257071,
        -0.037363516761325842,
        0.10283106142071496,
        0.38464870391948225,
        -0.94446468536022665,
        -0.394059511460506,
        0.62129325387135514,
        0.1963716699784252,
        0.9349051279394438,
        0.82421592617371475,
        0.0,
        -0.28220103452429296,
        -0.56306835708495051,
        0.38007839995069664,
        -2.0440209596851004,
        0.49429614498078572,
        0.60432607587056497,
        0.35588843205818665,
        0.61564692574015578,
        0.11055879696349713,
        -0.88351474876793734,
        -0.81342782361178545,
        -0.099643940816003321,
        -0.036620105624755817,
        0.1887123320052061,
        0.18802474527967325,
        0.82386724346843909,
        0.238874027413715,
        -0.59328730298261867,
        -0.59328730298261867,
        -0.70856884472213366,
        -0.70856884472213366
      ]
    },
    {
      "dualCoef": -0.10000000000000001,
      "supportVector": [
        1.0028358737844787,
        -0.10778471600386638,
        0.55256611228811181,
        0.84801919080720023,
        0.89792031623795299,
        0.36786731053488225,
        0.032151597151119773,
        1.164958032941267,
        -0.34082376828140309,
        0.55814459172269659,
        -0.20334418084109962,
        -1.3567719737299786,
        -0.33350031232489985,
        -1.0394704835553141,
        0.0,
        0.53263150242439539,
        0.079272735617723841,
        0.3878923821755913,
        -0.33132881448868279,
        0.94337204180714762,
        0.9650707952269485,
        0.59129556809052974,
        0.42501091921861067,
        0.11055879696349713,
        -0.75196008930843383,
        -0.6912093919945973,
        -0.16932765237756103,
        -0.15127705384154891,
        0.015674007943153056,
        0.010635615336188297,
        0.32587024861996144,
        0.50907635264946904,
        -0.048649367278180387,
        -0.048649367278180387,
        -0.17682763466649962,
        -0.17682763466649962
      ]
    },
    {
      "dualCoef": -0.10000000000000001,
      "supportVector": [
        0.68658599577112922,
        -0.37489469500994677,
        0.12994859995613828,
        1.3247731618427521,
        0.8397548251670508,
        -0.79468014482309179,
        0.14321932671762649,
        1.0464236487653658,
        0.17021595807244927,
        0.83251432065870989,
        0.11815611734510705,
        -1.2177815867263706,
        -0.058897072680041955,
        -0.75027185700423848,
        0.0,
        2.1186051659350249,
        0.02770199472628573,
        0.69263768894648459,
        0.34716076610835961,
        -0.11147011026998908,
        -0.15984279320619504,
        0.12451820128324551,
        0.36614348731302082,
        -0.20106988498815889,
        -0.52543913626038108,
        -0.47907173195387281,
        -0.35081085932773559,
        -0.27717586556136031,
        -0.022668694124368376,
        0.013882466308871633,
        0.074879761634260175,
        0.40619076195134096,
        -0.23484186083710171,
        -0.23484186083710171,
        0.0059280280217255971,
        0.0059280280217255971
      ]
    },
    {
      "dualCoef": -0.10000000000000001,
      "supportVector": [
        0.11169765163058323,
        -0.085446336976667495,
        0.00096793060806840984,
        0.27162317783383483,
        0.54586602817722996,
        -0.9253283350442737,
        0.044772930056404626,
        0.57329491533134225,
        -0.8746423971665318,
        -0.21676915963861537,
        -0.0040696938036431998,
        -0.46900784227289022,
        -0.14321695086327418,
        -0.38054991618834916,
        0.0,
        1.3616992583220087,
        -0.16062036960838194,
        -0.42476176921345754,
        0.30763710121921151,
        -0.03943832602502912,
        0.029701587107361548,
        0.13385821990905011,
        0.56179593551850848,
        0.16291241553137534,
        -1.3289767236794645,
        -1.3288896334008371,
        -0.10548045641259078,
        0.021635573134654411,
        0.081548976698049488,
        0.074486658602648179,
        -0.42113452632249498,
        -0.32438367630463277,
        1.2437455880131558,
        1.2437455880131558,
        1.0237215324609372,
        1.0237215324609372
      ]
    },
    {
      "dualCoef": -0.10000000000000001,
      "supportVector": [
        1.175057222082446,
        -0.26367808453410546,
        0.53414030238124477,
        1.3541429058781076,
        0.98329773295606071,
        -0.84118204303741073,
        -0.061246266347988153,
        1.4721386285290285,
        -0.015976810444070587,
        0.9936247762949133,
        -0.20086872137479569,
        -1.6891660056279691,
        -0.10083155755191681,
        -1.05523249400715,
        0.0,
        2.4197611872691609,
        0.081572732740950962,
        -0.45601769811303633,
        0.32081165618226087,
        -0.12073847144392481,
        0.015288379937003455,
        -0.23342117485772373,
        0.095839903658835046,
        0.73381616086680912,
        -0.96366333694506356,
        -0.8226502420097237,
        0.22870004853630002,
        0.48484134399908235,
        0.054966931519784462,
        0.041071800412972308,
        -0.0017192953090008429,
        -0.35560287876161695,
        -0.016787550198578877,
        -0.016787550198578877,
        -0.8747987294013172,
        -0.8747987294013172
      ]
    },
    {
      "dualCoef": -0.016145549866104617,
      "supportVector": [
        -0.60599344750436279,
        -0.13012309503106528,
        -0.49496078284271694,
        -0.1401574312402461,
        -0.52492324604031215,
        -0.12372418487363249,
        0.47137398225503274,
        -1.1759699541240876,
        0.26281714879742057,
        -0.61988955183945793,
        -0.74206604719546498,
        0.11297743777626032,
        -0.18560234417463156,
        -0.075589279185437619,
        0.0,
        0.031804966813185051,
        0.19445190589949579,
        -0.3935058403138787,
        -0.36426520189630618,
        -0.6541036018807137,
        -0.65128343205004446,
        -0.55847947748308135,
        -0.6564549504037579,
        0.73381616086680912,
        3.0169821302596289,
        -1.4603141148253747,
        6.2564655718910513,
        8.1633155831786262,
        1.6174545911401363,
        1.629166052558559,
        -0.2907536960510726,
        -0.17631558646822573,
        -1.3549838675418424,
        -1.3549838675418424,
        -2.1813072967043743,
        -2.1813072967043743
      ]
    },
    {
      "dualCoef": -0.10000000000000001,
      "supportVector": [
        0.97403016784140228,
        -0.30835484258850326,
        0.36870005172809739,
        1.33972842353801,
        1.1799038957571213,
        1.2425458721851674,
        -1.025516100311751,
        0.73924305317760419,
        -2.7781663391279743,
        -1.4268188424618105,
        -1.0771813724463426,
        -0.80199332262621514,
        0.3640550435545668,
        -0.18797926675504997,
        0.0,
        1.6816465756840848,
        -0.44997190859177782,
        -0.1043884979927748,
        -0.087599547672269504,
        -0.74735030688752679,
        -0.68864524405365268,
        -0.80449105894825612,
        -0.70184489304513553,
        0.3183112515979345,
        -1.9318388045686758,
        -1.8755703342089758,
        -0.43839874345842217,
        -0.39449479328832299,
        -0.16727329866719778,
        -0.16759125096176813,
        -0.69256763775044472,
        -0.64048098417198185,
        0.77378378608903364,
        0.77378378608903364,
        0.3831046084633819,
        0.3831046084633819
      ]
    },
    {
      "dualCoef": -0.10000000000000001,
      "supportVector": [
        2.2954153170599705,
        -0.39723307403714569,
        1.1406238752732327,
        3.1006122952691086,
        1.1843258336747924,
        0.14642969999050626,
        -1.0128947674064661,
        2.1813273270452727,
        -1.3851869299870954,
        0.5257847993513225,
        -0.10339750488908332,
        -2.3823435952800063,
        0.17377168209294111,
        -1.248145795841576,
        0.0,
        2.2277803173226176,
        -0.37871976709473554,
        -0.36224991141429991,
        0.070495111884322892,
        -0.64471969098931581,
        -0.60707342250787266,
        -0.68879131053528253,
        -0.62098200163841288,
        -0.045671048921599754,
        -1.8827366619084647,
        -1.8332475620398616,
        -0.40175403662951908,
        -0.35871284247361102,
        -0.25744019702092963,
        -0.25211355308191408,
        -0.52886220337854117,
        -0.4810813039410517,
        -1.3271047775971909,
        -1.3271047775971909,
        -1.242254263955302,
        -1.242254263955302
      ]
    },
    {
      "dualCoef": -0.016438916744461948,
      "supportVector": [
        -0.57718774156128638,
        -0.39723307403714569,
        -0.69686061480094175,
        0.099002623898901632,
        -0.41641569252207966,
        -0.69503322007812263,
        0.2896267884189308,
        0.030054354661360215,
        -0.22445328795857816,
        -0.13552542559984609,
        0.094020387548645015,
        0.16798214412236909,
        0.23689886362049467,
        0.27734269397523525,
        0.0,
        -0.22237554807546261,
        -0.25406141254228592,
        0.33319450660132843,
        0.28787526877463743,
        3.0212743037543612,
        2.0030170422539473,
        5.6142572405424032,
        4.6246741939664036,
        -1.8107359034957795,
        1.011777317381785,
        0.90467452313354024,
        0.49471217067479878,
        0.80202686800410172,
        1.0010790964229848,
        1.1026154194899573,
        1.8698223491653061,
        2.6121900713153052,
        -1.1996575092787849,
        -1.1996575092787849,
        0.94692526994833204,
        0.94692526994833204
      ]
    },
    {
      "dualCoef": -0.10000000000000001,
      "supportVector": [
        0.39914182370085621,
        -0.44190983209154344,
        -0.10919489032447759,
        1.3067990153703792,
        1.9863973421261787,
        0.10214217788163105,
        0.1507921264607974,
        0.73924305317760419,
        -0.1090731947023305,
        0.42870542223719982,
        0.72309652442309935,
        0.05738128297481708,
        1.0828030960897121,
        0.8560825994785134,
        0.0,
        1.6698409895762494,
        -0.35063768712197846,
        -0.1043884979927748,
        0.090256944328896943,
        -0.13372951637841474,
        -0.061121263009174587,
        -0.17698629218444756,
        0.13571005754448595,
        0.0066825696462784563,
        1.2489571796893215,
        1.3197040668010021,
        -0.12943336851523782,
        -0.18757435127319874,
        1.449945316233306,
        1.4312423890601536,
        -0.33236388466331518,
        -0.27205098955330376,
        -0.78246684189275262,
        -0.78246684189275262,
        -0.77175564299199872,
        -0.77175564299199872
      ]
    },
    {
      "dualCoef": -0.10000000000000001,
      "supportVector": [
        1.0892529916137079,
        -0.44190983209154344,
        0.33224047042301985,
        2.1129512007864335,
        0.33395315719961594,
        -0.5555275254351657,
        -0.75541957613865518,
        1.5200567838341801,
        0.030571381685059372,
        1.0586886141479954,
        0.44367903716405732,
        -1.218373035181705,
        0.65985097985510333,
        -0.2044265820091396,
        0.0,
        1.289746654390125,
        -0.40177958797778007,
        -0.45601769811303633,
        -0.0019649404124486174,
        -0.50954228057595863,
        -0.50009989014745937,
        -0.535179608141642,
        -0.60360972301711791,
        -1.1874785395924674,
        -1.5556294386568656,
        -1.5051993876185552,
        -0.43317000979127168,
        -0.38885876400343228,
        -0.24603843716387175,
        -0.24044489836207131,
        -0.60148638359488693,
        -0.5291518060804431,
        -1.2643768252217256,
        -1.2643768252217256,
        0.15466003010310037,
        0.15466003010310037
      ]
    },
    {
      "dualCoef": -0.10000000000000001,
      "supportVector": [
        0.28453188728904161,
        1.1621758959253985,
        1.1406238752732327,
        -0.15744220070381998,
        0.045846894409826214,
        -0.61531568028214723,
        0.19875319150087986,
        0.71553617634242395,
        0.5876641066347531,
        0.8968896522911245,
        0.019756603559530794,
        -0.69139246147866318,
        -0.88315770005409822,
        -1.0716798092612396,
        0.0,
        0.28145106251677354,
        0.1580923028544115,
        -0.44820371588814162,
        0.29446254625616214,
        -0.56428637967194539,
        -0.52542120345364118,
        -0.63283204278390559,
        -0.54009043860121519,
        0.62993993354959044,
        -1.4343371483865364,
        -1.3857416056211354,
        -0.39255817278848881,
        -0.35199716629130551,
        -0.096850150691037765,
        -0.095739288469039799,
        -0.59391659162562771,
        -0.52407363660152073,
        0.77776651322398382,
        0.77776651322398382,
        0.022453806030767239,
        0.022453806030767239
      ]
    },
    {
      "dualCoef": -0.10000000000000001,
      "supportVector": [
        -0.75002197721974484,
        0.2040020210566118,
        -0.31148676079135917,
        -0.31042630358439632,
        -0.099396758732134063,
        -0.36509118036700233,
        0.53448064678145701,
        -0.25392376572601205,
        0.72681348948885427,
        0.33197029823341101,
        -0.25470996476690327,
        0.6955541662807454,
        -0.62929624862543654,
        -0.075246626784310752,
        0.0,
        0.50591502379905595,
        1.1649563735257218,
        0.40352034662538072,
        0.2681134363300634,
        2.3590145646942089,
        2.0381061485310976,
        3.1774056743677419,
        2.6342230358162135,
        0.11055879696349713,
        -0.71372251612059712,
        -0.72105631082825961,
        0.060502356529222687,
        0.0035013610233041652,
        -0.22734556244432011,
        -0.23934605211803878,
        1.5834952493145278,
        0.70332237699772104,
        -0.91787956448105912,
        -0.91787956448105912,
        -1.0254749406602264,
        -1.0254749406602264
      ]
    },
    {
      "dualCoef": -0.072916231349051522,
      "supportVector": [
        -0.14632792713612239,
        -0.48658659014594124,
        -0.49496078284271694,
        0.82220416938519159,
        -0.64431556981742688,
        0.15971595662316881,
        0.34011212004007024,
        0.45576933442502304,
        -0.68894482218330055,
        -0.1678852179712203,
        -0.39488285704635623,
        -0.44120976487216862,
        -0.058897072680041955,
        -0.30036925432466233,
        0.0,
        -0.52278567355820915,
        -0.30401736357660053,
        0.23161273767769733,
        0.16930427410719315,
        2.166814056995837,
        1.4133590259782545,
        4.164196847367486,
        6.4185607427382347,
        -1.4999382313626612,
        -0.69336042301937051,
        -0.62612943429239043,
        -0.23308059387748664,
        -0.21612085334288586,
        -0.07721510670195203,
        -0.040243165258158721,
        0.40510948824758541,
        0.51818376032346825,
        -1.3390529590020415,
        -1.3390529590020415,
        0.44726351132201414,
        0.44726351132201414
      ]
    },
    {
      "dualCoef": -0.007948742263380125,
      "supportVector": [
        -0.43377209920639537,
        1.5186393910402745,
        0.97518362462008545,
        -0.34118310091724136,
        0.032921229727403488,
        0.037925270823762007,
        0.5243835804572291,
        -0.041066275844180614,
        0.86645806587624419,
        0.57432448790838375,
        -0.52608220876045797,
        0.085179360375538707,
        -1.8553162955784228,
        -1.3605357834111884,
        0.0,
        0.97059262297877524,
        1.5299531153521002,
        -0.25285416026577412,
        0.30104982373768679,
        1.0536590285527927,
        0.92616791489370787,
        1.5623507327979178,
        1.3579674356748788,
        0.89004600675190604,
        -0.21129991839730858,
        0.092788702021716504,
        0.89117040302734241,
        0.81866365971924238,
        1.1458918416355175,
        1.1585178223758126,
        0.26688851558609661,
        0.19549954567596955,
        1.0266869591583705,
        1.0266869591583705,
        -0.038788783061563553,
        -0.038788783061563553
      ]
    },
    {
      "dualCoef": -0.053293535773152226,
      "supportVector": [
        0.42794752964393262,
        -0.19666294745250879,
        0.11152279004927115,
        0.62832411684205725,
        2.3173623878103173,
        -0.49131061837729667,
        0.47389824883608972,
        1.0464236487653658,
        0.54161110803891166,
        1.090704153409036,
        0.6717307404972952,
        -0.80199332262621514,
        -0.14366785930275672,
        -0.57380587042390208,
        0.0,
        3.3634357742874839,
        0.23502110589019895,
        0.098775039854487406,
        -0.26545603967343595,
        1.5423857452225442,
        1.8977325461239507,
        0.59492680259519504,
        0.88088708895810586,
        -0.98055709477656783,
        1.2573910095701621,
        0.76565519888084344,
        3.5086937297810947,
        1.2554759931859094,
        1.4881036900819284,
        1.4920851315294346,
        0.50102595019806095,
        0.55336791413230613,
        -0.8760609295640821,
        -0.8760609295640821,
        0.29172677711926931,
        0.29172677711926931
      ]
    },
    {
      "dualCoef": -0.066250119312068603,
      "supportVector": [
        -0.5201892170356246,
        -0.37536997967009994,
        -0.64236726209765393,
        0.1276243112627721,
        0.23871141743439617,
        3.4325638404690459,
        -0.29852732496734341,
        -0.8213756048659655,
        -0.15562138683146046,
        -0.668773493506853,
        -2.6701395390128404,
        0.86175118222974068,
        -0.058446164240559428,
        0.45483663775895228,
        0.0,
        0.0057454026561871204,
        -0.10516443920532249,
        1.1771045868899561,
        -1.6685461432381934,
        1.3328953026381971,
        1.4925676381160105,
        0.97426866143893598,
        0.78609379411453018,
        -0.14871626642028068,
        0.76414512973679893,
        0.051687268478431296,
        1.9294089713356415,
        0.32032004424665095,
        1.0129596739875597,
        0.85060481721563452,
        2.9334400265229434,
        3.5730385612882425,
        0.52486334015464675,
        0.52486334015464675,
        0.68640124015873438,
        0.68640124015873438
      ]
    },
    {
      "dualCoef": -0.0099955119233080467,
      "supportVector": [
        0.25572618134596525,
        0.53812713714428884,
        0.6074515035000565,
        -0.022543217345303256,
        1.135344367509822,
        -0.49352499448274045,
        -1.2627971589311064,
        0.69182929950724359,
        0.0072972856204943934,
        0.47724511079426113,
        0.39695473973757284,
        -0.66300293562260704,
        -0.75600152012002608,
        -0.95860451688937365,
        0.0,
        1.2071129106149976,
        0.33969886301119795,
        -0.46383168033793104,
        0.090256944328896943,
        0.19124148162792237,
        0.33118347401130249,
        -0.55000143538877255,
        -0.29559061686495802,
        -1.5514608401120016,
        0.86848106929663516,
        0.90948909875987716,
        -0.43009436297095699,
        -0.37880275436382754,
        -2.4943653545518938,
        -2.4824429124191054,
        -0.5628891221262794,
        -0.41905357990647873,
        -0.810345931837404,
        -0.810345931837404,
        1.0237215324609372,
        1.0237215324609372
      ]
    },
    {
      "dualCoef": -0.020750185056222767,
      "supportVector": [
        -0.86463191363155945,
        0.1816636420294129,
        -0.40322377181703806,
        -0.35742872935039549,
        -0.55043442633456752,
        -0.19236984414238906,
        0.57234464549731157,
        -0.20651001205565148,
        0.50595717364213133,
        0.21079320339592464,
        0.39386041540469341,
        1.1385490593262879,
        -0.54452546200272178,
        0.24581867307156349,
        0.0,
        -0.68108664027466648,
        0.18594678077814217,
        -0.24504017804087941,
        0.13636788669956973,
        1.6366902317055025,
        2.046364570708163,
        1.2456064099157582,
        1.7328862070864759,
        -0.044840039103062002,
        3.1576267457673461,
        1.3495727373307176,
        4.4020070125961235,
        6.221188320293324,
        1.5174075393957402,
        1.502452304397597,
        0.11141227570300276,
        0.15874678182507398,
        0.16343085265791715,
        0.16343085265791715,
        0.21201420084036254,
        0.21201420084036254
      ]
    },
    {
      "dualCoef": -0.10000000000000001,
      "supportVector": [
        1.4906942127353044,
        -0.12964781037091211,
        0.84659499378067238,
        1.2021496679960391,
        0.0046888568684275971,
        -0.61088692807125977,
        0.23409292363567746,
        1.4953411037294178,
        -0.57257434186047562,
        0.6225199233551113,
        0.33135506388052222,
        -1.8831610989776859,
        0.13138628878158373,
        -0.991156494996426,
        0.0,
        1.3871754038557147,
        -0.27980783253194663,
        -0.5497854848117727,
        0.36692259855293363,
        1.2910118731847859,
        1.0464078721200532,
        1.6856379151491205,
        1.2920891819996048,
        0.57841732480024999,
        0.18137279395347042,
        0.24032368363662565,
        -0.26536510992867435,
        -0.23797831546024972,
        -0.87715484453399273,
        -0.91288415375481347,
        2.4168432194795284,
        2.195351868403514,
        0.91019219046107758,
        0.91019219046107758,
        0.21201420084036254,
        0.21201420084036254
      ]
    },
    {
      "dualCoef": -0.046648977427126592,
      "supportVector": [
        0.34214329917519443,
        -0.39770835869729881,
        -0.10919489032447759,
        1.0613406614552008,
        -0.078987814496729647,
        -0.87882643682995465,
        0.69603370796910313,
        0.55059684176574408,
        -0.15562138683146046,
        0.26759496660099635,
        1.3060672287376451,
        0.55656377927713729,
        0.00513192572647664,
        0.3263419873363772,
        0.0,
        -0.23065107686106595,
        -0.35116288713993604,
        -0.54197150258687798,
        0.38668443099750771,
        0.34555804036350174,
        0.33725365809367941,
        0.32878690112739928,
        0.46863753486353044,
        -0.56422117568915531,
        -0.21077771649238355,
        -0.15590479743851385,
        -0.33924917868743326,
        -0.32400505870128354,
        -0.40894206736870858,
        -0.3971755671012997,
        0.42192778943735199,
        0.39063544149627621,
        -1.0891368312839171,
        -1.0891368312839171,
        -0.40332800384924683,
        -0.40332800384924683
      ]
    },
    {
      "dualCoef": -0.10000000000000001,
      "supportVector": [
        -0.26093786354793702,
        1.1621758959253985,
        0.79170960256872769,
        -0.27916801078191184,
        0.94554118612056282,
        -0.85889705188096088,
        -0.23794492702197612,
        -0.1828031352204712,
        1.6557965579382989,
        1.0263288217766213,
        0.50773155085466815,
        0.14018406672164743,
        -0.92554309336545559,
        -0.62211985898279032,
        0.0,
        0.79594006237029569,
        0.60487018355387079,
        0.098775039854487406,
        0.49866814818342731,
        -0.60487924400236159,
        -0.67873930478260369,
        -0.25036944484256407,
        -0.57552479335548523,
        0.16208140571283758,
        -0.024067804478084459,
        0.022840889115731847,
        -0.43719789815998911,
        -0.38955669779679292,
        0.49740050416534781,
        0.49092427740017736,
        -0.53496565762274428,
        -0.60861983072846315,
        1.2218405887709298,
        1.2218405887709298,
        1.003307336096827,
        1.003307336096827
      ]
    },
    {
      "dualCoef": -0.060032229769991237,
      "supportVector": [
        -0.23274504496535159,
        0.8727275378921191,
        0.57099192219497896,
        -0.23890936418481659,
        1.2649411634046395,
        0.55830365560304562,
        -0.86396303912410488,
        -0.4193675019374829,
        0.44851472378065177,
        0.025585030036357374,
        -1.0372645885521936,
        0.11297743777626032,
        -0.84122321518222343,
        -0.57380587042390208,
        0.0,
        1.3052098181963883,
        0.20352714348517567,
        -0.1434584091172483,
        0.11660605425499568,
        1.1551677184703779,
        0.90597541820591765,
        1.0009685103029267,
        0.25414209754332651,
        -0.61657479425703354,
        1.315181493214775,
        1.3683830665165615,
        -0.29069384937685444,
        -0.26504455768440588,
        -0.41025055120024601,
        -0.41127760451526896,
        0.095201683901288539,
        0.0034904253038822572,
        -0.12929959176092171,
        -0.12929959176092171,
        0.59502340881462179,
        0.59502340881462179
      ]
    },
    {
      "dualCoef": -0.09074444960691784,
      "supportVector": [
        1.2608614525511843,
        -0.44190983209154344,
        0.44201125284690912,
        2.3134153321509938,
        -0.17456970333253954,
        -0.40052119805410252,
        -0.21270226121140642,
        0.95159614142464455,
        -0.17840028936273683,
        0.52544054624098868,
        -0.17178207264572598,
        -1.5773822475697481,
        0.19451347030913727,
        -0.76603386745607438,
        0.0,
        -0.56827538478325867,
        -0.35490523486077247,
        -0.3935058403138787,
        0.20224066151481657,
        0.8613375099288656,
        0.57155367729647433,
        1.2846783525749748,
        1.3716188265665399,
        0.16208140571283758,
        -2.0423121232755732,
        -2.0234214994059121,
        1.0031902260261545,
        0.78982114877039711,
        1.1945323231739049,
        1.1880103606291736,
        0.14998601628765434,
        0.097283173369054218,
        -0.6112095750898946,
        -0.6112095750898946,
        -0.78633721182350602,
        -0.78633721182350602
      ]
    },
    {
      "dualCoef": -0.093080494639117287,
      "supportVector": [
        0.28453188728904161,
        -0.62014157964898142,
        -0.32952053218956956,
        2.6342817903504523,
        0.22374485832843297,
        1.1296126908075357,
        -0.69988571135540179,
        0.88097991255389474,
        -1.1296670668101694,
        -0.18406511415690741,
        -0.97475923702802247,
        -0.46959929072822471,
        0.95609782459512249,
        0.45449398535782543,
        0.0,
        0.09044374429512117,
        -0.53276070997885305,
        1.0833368001912196,
        -0.81878734812150933,
        2.1975608568873897,
        1.7667054220553104,
        2.4900834401326097,
        2.615472552661545,
        0.88921499693336825,
        0.35537207852377567,
        -0.33963739776812174,
        1.5503676200965599,
        1.6121187997284117,
        0.8549473414417772,
        0.8080107103427121,
        0.32243434848283858,
        -0.03612120779039809,
        1.2447412697968934,
        1.2447412697968934,
        0.17507422646721063,
        0.17507422646721063
      ]
    },
    {
      "dualCoef": -0.056988988934213149,
      "supportVector": [
        2.3530267289461233,
        0.0034318944719749184,
        1.5079639578846049,
        1.3948790372350583,
        -0.19701954199148408,
        -0.2720873839383644,
        0.70360650771227407,
        2.2524479575508134,
        0.16972076453916066,
        1.6552792543564157,
        1.37259520189456,
        -2.5763386886297228,
        -0.50214006869136441,
        -1.874171732700362,
        0.0,
        -0.17349510514182928,
        0.10570379318616861,
        -0.52634353813708867,
        0.45255720581275449,
        -0.83829590351337169,
        -0.7843219487777976,
        -0.88856141656031973,
        -0.78147182364838186,
        0.94156861550124649,
        -0.057965587356591554,
        -0.011225919478672693,
        -0.45997165716654836,
        -0.41538130223045938,
        -0.64021021685510471,
        -0.63755211739427764,
        -0.74203213302755378,
        -0.66736153637519768,
        2.0721528320827955,
        2.0721528320827955,
        0.92165055064038603,
        0.92165055064038603
      ]
    },
    {
      "dualCoef": -0.070349368362171968,
      "supportVector": [
        0.57136317199882369,
        -0.35255631598274789,
        0.074671170235536904,
        1.1301499937380879,
        -0.38172048732189245,
        -0.44037996795209017,
        -0.11930439771229849,
        1.0227167719301853,
        -0.10857800116904189,
        0.6225199233551113,
        0.66028174046564014,
        -1.0509931223220408,
        0.19451347030913727,
        -0.4610732304531629,
        0.0,
        -0.3679054723166047,
        -0.29345063524442733,
        -0.30755203584003699,
        0.24176432640396467,
        -0.23926940437018016,
        -0.54334778885842272,
        0.86349492117154159,
        -0.64422155943618753,
        0.0066825696462784563,
        0.49310928446630597,
        0.54875241244275952,
        -0.38485965291336471,
        -0.39359012924886988,
        -0.31491257863798422,
        -0.33853296019195417,
        0.15996595384706438,
        -0.59175083015801522,
        -0.057610503331818316,
        -0.057610503331818316,
        -0.064063502369509598,
        -0.064063502369509598
      ]
    },
    {
      "dualCoef": -0.10000000000000001,
      "supportVector": [
        0.57136317199882369,
        -0.35255631598274789,
        0.074671170235536904,
        1.1301499937380879,
        -0.38172048732189245,
        -0.44037996795209017,
        -0.11930439771229849,
        1.0227167719301853,
        -0.10857800116904189,
        0.6225199233551113,
        0.66028174046564014,
        -1.0509931223220408,
        0.19451347030913727,
        -0.4610732304531629,
        0.0,
        -0.3679054723166047,
        -0.29345063524442733,
        -0.30755203584003699,
        0.24176432640396467,
        0.018425370434585104,
        -0.46393291621489935,
        1.2531904726959613,
        0.26445061602305686,
        0.36983386034727495,
        0.21271420646313952,
        0.26238839837203354,
        -0.17904517573454443,
        -0.39591756508008824,
        0.22895517270673013,
        0.15665298437509736,
        0.69557489114122462,
        -0.43950253655368432,
        0.31676584735349944,
        0.31676584735349944,
        -0.12336188228430607,
        -0.12336188228430607
      ]
    },
    {
      "dualCoef": -0.10000000000000001,
      "supportVector": [
        -0.54838203561820997,
        1.0504840007894038,
        0.51571449247437762,
        -0.33565571655246346,
        1.0645933608270874,
        0.9635344828992537,
        -0.80085637459768066,
        -2.2397530018984533,
        1.4928778854863443,
        -0.49079463546429486,
        1.1748678770235437,
        1.5821354008271649,
        -1.1785027279151523,
        0.021038697932338837,
        0.0,
        -0.16192563451780007,
        0.99352521689758688,
        0.34100848882622314,
        -1.470927818792453,
        0.22539685565043777,
        0.35413412090854124,
        -0.14422083369644736,
        0.12888509398075493,
        -1.2398321581603455,
        -1.3512263590865492,
        -1.3316895160940272,
        -0.35700732019480541,
        -0.27369495055591564,
        0.68224439687961991,
        0.68882375097068083,
        -0.34407585149501729,
        -0.21078175192591905,
        -0.9766247897215744,
        -0.9766247897215744,
        0.49684084534913908,
        0.49684084534913908
      ]
    },
    {
      "dualCoef": -0.04629798936944568,
      "supportVector": [
        -0.80763338910589755,
        -0.53078806354018582,
        -0.95442991498842478,
        0.010137625618645766,
        -0.81439010511246224,
        -0.42709371131942764,
        0.67079104215853347,
        -0.13589378318490172,
        -0.34082376828140309,
        -0.32968417982809134,
        0.9799254440521189,
        0.50155907293102853,
        0.19451347030913727,
        0.43838932250486268,
        0.0,
        -0.81471147083215567,
        -0.24355089816536846,
        -0.57322743148645683,
        0.30104982373768679,
        1.8885584498593777,
        1.7400649014506486,
        1.6604072249733268,
        2.0178687567256182,
        0.058205178395618916,
        2.9913182305719426,
        -1.9360254291321097,
        7.7893728248127125,
        10.191490858556545,
        0.79113231975651566,
        0.73758451879452791,
        1.5894575986940256,
        1.4633413602545056,
        0.98586400602513113,
        0.98586400602513113,
        0.89443162215490568,
        0.89443162215490568
      ]
    },
    {
      "dualCoef": -0.053227290553077303,
      "supportVector": [
        -0.14632792713612239,
        -0.70949509575777703,
        -0.67882684340273136,
        3.4153500181094407,
        -0.12898972787346996,
        -0.068364782237538488,
        -0.42221638743913503,
        0.4320624575898428,
        -0.96773878142479164,
        -0.37787961527481889,
        0.041416873889689253,
        -0.49680591967361182,
        0.3640550435545668,
        -0.011170627773586652,
        0.0,
        -0.2486832262598902,
        -0.55009188385705488,
        0.098775039854487406,
        0.10343149929194631,
        3.4095384403290998,
        4.0744973247064529,
        3.3898664848920004,
        3.7474866959119613,
        -0.87584985764081136,
        -0.89654812058387212,
        -0.93818127761421366,
        0.31000578135528567,
        0.30428397268522478,
        0.21977194622753726,
        0.2753342700955238,
        2.4612671245212496,
        1.5156451845860426,
        -0.5544557134168544,
        -0.5544557134168544,
        0.48323138110639891,
        0.48323138110639891
      ]
    },
    {
      "dualCoef": -0.059436708194516345,
      "supportVector": [
        -0.34735498137716619,
        -0.41957145306434457,
        -0.56827198396152867,
        0.38430603943024949,
        -0.2861385984860827,
        -0.75482137492510415,
        -0.32376999077791313,
        0.26661872137837195,
        -0.24772738402314315,
        0.009749386961004039,
        0.45853179396188015,
        -0.22000804257706463,
        -0.016511679368684574,
        -0.14000793059728861,
        0.0,
        -0.53420667078291428,
        -0.17533024055148183,
        -0.12783044466745891,
        0.03755872447669948,
        1.9433135060337863,
        1.3226275057228918,
        3.2719340752689741,
        3.1678967986963884,
        -0.46117595819047441,
        -1.0768868900667727,
        -1.0403590050275204,
        0.13400896788443936,
        0.19737574999507246,
        0.50078392627317059,
        0.47239738567684636,
        0.40461230418611688,
        0.23026621403201747,
        -0.74164388875951326,
        -0.74164388875951326,
        -0.18460447137663685,
        -0.18460447137663685
      ]
    },
    {
      "dualCoef": -0.10000000000000001,
      "supportVector": [
        -0.3761606873202426,
        1.4963010120130755,
        0.99360943452695261,
        -0.32892323750934771,
        -0.89466528577171889,
        0.15307282830683752,
        -0.9169726373263013,
        -1.4362411976762794,
        0.1236677659433193,
        -0.89425928077547112,
        -0.5734253710535181,
        2.330909145280645,
        -1.5595203592778861,
        0.16529535880674978,
        0.0,
        -1.1588458659935676,
        0.24285781964251602,
        3.4744153610089978,
        -3.4536983407313828,
        0.95148986980847816,
        0.93323739050724752,
        1.0363482497126533,
        0.98589048151651515,
        -0.82432724889147091,
        -0.72578819142558215,
        -0.18370215176817606,
        1.1070962497800674,
        1.565219672950644,
        1.2341191309191122,
        1.2028567176899418,
        0.34004373202770505,
        0.1706975225990614,
        -0.27267776861912851,
        -0.27267776861912851,
        0.69806649522394026,
        0.69806649522394026
      ]
    },
    {
      "dualCoef": -0.020527715570376137,
      "supportVector": [
        -0.77882768316282114,
        0.20447730571676498,
        -0.32952053218956956,
        -0.3229342771418956,
        -0.66574496126460136,
        1.8625711817094204,
        -0.12182866429335545,
        -0.34875127306673315,
        -8.2094490122375223,
        -5.9451409155925177,
        -1.78516277980923,
        0.55656377927713729,
        -0.60855446040924033,
        -0.14000793059728861,
        0.0,
        -0.97922585569066822,
        -0.50006836899231899,
        1.2786863558135872,
        -0.57505808130509606,
        0.66525963495061524,
        0.57721081904015725,
        1.3421585080748726,
        1.6209211610014156,
        -1.3437083854775642,
        -0.30946375157550515,
        -0.36435691390580527,
        -0.17900172322175334,
        -0.21314792003306868,
        0.64962091297976132,
        0.67600272391743454,
        0.48676810254758129,
        -0.29868778093518528,
        -0.28960435894266678,
        -0.28960435894266678,
        1.2891060851943708,
        1.2891060851943708
      ]
    },
    {
      "dualCoef": -0.022718512201942553,
      "supportVector": [
        -0.31916216279458076,
        -0.46424821111874237,
        -0.58708983237705248,
        0.52657734264188161,
        -0.24600100815645437,
        -0.73489198997611027,
        0.39564598482332358,
        0.3372349502491217,
        -0.66616591965202421,
        -0.23294905582430248,
        -0.077405180492893452,
        7.7929356302947763,
        2.4986555960648413,
        6.4135618933551672,
        0.0,
        -0.261264387287994,
        -0.59157756828746666,
        -0.53415752036198327,
        -0.23910692974733722,
        1.3145560866034751,
        0.83840513288069995,
        2.3527677604388471,
        2.5801608282976014,
        -0.72045102157425223,
        -0.3911800131500538,
        -0.32760194157676298,
        0.017405446356046527,
        0.05815968673097436,
        0.87474184821934264,
        0.86817518529320448,
        -0.20667798062654563,
        -0.35332796201722116,
        -0.0098177777124160478,
        -0.0098177777124160478,
        0.83318903306257486,
        0.83318903306257486
      ]
    },
    {
      "dualCoef": -0.024372613358621658,
      "supportVector": [
        0.054086239744430435,
        0.56094080083164088,
        0.49728868256751046,
        -0.094536535174995148,
        -0.17797119403844025,
        -0.46473810511197156,
        0.36283051926958299,
        -9.9480187847755808,
        1.1214827355198818,
        -6.0098605003352663,
        -0.2633740728989668,
        -0.33001745526928211,
        -0.41872200738709714,
        -0.50938721901205108,
        0.0,
        0.46730851435171833,
        0.45444604623779,
        1.0598948535165356,
        -0.29839242708105934,
        -0.35022987364736508,
        -0.28634639574520998,
        -0.43598978020627732,
        -0.32672927250858014,
        -1.6029834488613421,
        1.3504527637810431,
        1.487060570220244,
        -0.18978043788610036,
        -0.11246373253804812,
        1.0716647284165941,
        1.054484084923861,
        -0.25484916358085097,
        -0.10709210403431807,
        -0.65402389179060905,
        -0.65402389179060905,
        1.2366124374009444,
        1.2366124374009444
      ]
    },
    {
      "dualCoef": -0.10000000000000001,
      "supportVector": [
        0.94522446189832587,
        1.0062825273951592,
        1.4346527567657932,
        0.029383840400357301,
        0.9802363913207498,
        0.10657093009251857,
        -0.17736252907660882,
        1.3304017691527379,
        1.7018495565341405,
        2.0911036920389661,
        -0.86552958807736735,
        -1.6063632218811388,
        -0.33350031232489985,
        -1.184069796830852,
        0.0,
        1.2400456919347127,
        0.60280536022687825,
        0.26286866657727614,
        -0.16005959996904101,
        -0.59704370951390529,
        -0.62964153725048255,
        -0.35006871257185967,
        -0.60787305563086069,
        0.26678864284859399,
        0.69056608494573868,
        0.74585425371337921,
        -0.42444233673429532,
        -0.38531871127259387,
        -0.29469346061430873,
        -0.29763894450960859,
        -0.5861515923432562,
        -0.56646637837041025,
        -0.39116390088389663,
        -0.39116390088389663,
        -0.69398727589062625,
        -0.69398727589062625
      ]
    },
    {
      "dualCoef": -0.10000000000000001,
      "supportVector": [
        1.5201128060388718,
        -0.33069322161570214,
        0.69958055303439204,
        1.915425145283739,
        0.26592334308160204,
        0.32357978842600704,
        -0.0057124015647347934,
        1.3778155228230984,
        -2.2210736141782803,
        -0.60370965565377077,
        -0.52670107362703411,
        -0.58079160033111121,
        0.66030188829458591,
        0.16529535880674978,
        0.0,
        1.1968709410044596,
        -0.42899475178014973,
        -0.4716456625628257,
        0.2681134363300634,
        0.039581749065535785,
        0.11516278464947573,
        -0.015400870909606556,
        0.032139090187769545,
        0.059036188214156668,
        -0.079197210964793111,
        -0.043123920230269487,
        -0.32813583202739166,
        -0.34952203696464623,
        -1.7950860888836744,
        -1.7919784778068883,
        -0.18197251470386155,
        -0.14777041599711449,
        0.37252402724280209,
        0.37252402724280209,
        0.29464309088557078,
        0.29464309088557078
      ]
    },
    {
      "dualCoef": -0.059351477569391201,
      "supportVector": [
        0.77300311360035845,
        0.58280389519868669,
        0.97518362462008545,
        0.1262479890122914,
        0.88261360806139977,
        0.29257852294979442,
        -1.3839619548218409,
        0.030054354661360215,
        0.1236677659433193,
        0.10648451096479289,
        -0.17116320777915014,
        -1.1343873545242056,
        -0.10128246599139934,
        -0.73416719415127574,
        0.0,
        1.9618929807527559,
        0.096604914484949067,
        0.48166016887432772,
        -0.35109064693325681,
        0.97299348050647871,
        1.1639655821264159,
        0.6773089072742976,
        0.59210269073431465,
        -0.61657479425703354,
        -0.72399625865024309,
        -0.45883321156789381,
        1.2336715369220737,
        1.7676492760558968,
        1.1674361671880669,
        1.1383692494998365,
        0.022297923172368412,
        -0.0065614193503055222,
        -1.0891368312839171,
        -1.0891368312839171,
        -0.34208541475691606,
        -0.34208541475691606
      ]
    },
    {
      "dualCoef": -0.052864561478032826,
      "supportVector": [
        0.88822593737266409,
        -0.46424821111874237,
        0.18522602967673965,
        2.0253712855665627,
        1.2203816351573396,
        1.6411335711650443,
        -0.96745796894744074,
        0.62121307063649389,
        -0.24772738402314315,
        0.25175932352564306,
        -0.2058196403074033,
        -1.1627768803802618,
        0.46956761839347766,
        -0.31681656957875193,
        0.0,
        0.33658766848445093,
        -0.33568117507019946,
        0.48166016887432772,
        -1.6421970333120948,
        3.1745752863799446,
        3.0873077199676939,
        2.2188804962649327,
        3.2411279192357414,
        1.4094271433379995,
        2.0802521450829943,
        0.72059242928981171,
        4.8293455957926037,
        1.7598992584394044,
        0.76633170863845823,
        0.72626596402348387,
        2.3239344722315947,
        1.8456766485538223,
        -0.95372410869561075,
        -0.95372410869561075,
        -2.5798701780989082,
        -2.5798701780989082
      ]
    },
    {
      "dualCoef": -0.10000000000000001,
      "supportVector": [
        2.0367768509327742,
        0.048583937186525872,
        1.3429157457401144,
        1.1369517364990047,
        1.6588337871479408,
        -0.88104081293539849,
        -0.250566259927261,
        2.062792942869371,
        0.12416295947660792,
        1.4941687987202121,
        0.44182244256432945,
        -2.3545455178792847,
        -0.35514391742006107,
        -1.6339723995104283,
        0.0,
        1.5169046102089396,
        0.33357480450928734,
        -0.06531858686830129,
        0.32739893366378553,
        -0.52995444047880991,
        -0.59040506387726444,
        0.014213829489385954,
        -0.56619312623756335,
        1.2531972974529024,
        0.57056061119276102,
        0.6385136050121093,
        -0.34026414310097841,
        -0.39122362027047369,
        -0.40648422904741621,
        -0.42608240818821058,
        0.90070831281615971,
        -0.32085755679656996,
        -0.11137731965364586,
        -0.11137731965364586,
        -1.5747140333136691,
        -1.5747140333136691
      ]
    },
    {
      "dualCoef": -0.10000000000000001,
      "supportVector": [
        2.0367768509327742,
        0.048583937186525872,
        1.3429157457401144,
        1.1369517364990047,
        1.6588337871479408,
        -0.88104081293539849,
        -0.250566259927261,
        2.062792942869371,
        0.12416295947660792,
        1.4941687987202121,
        0.44182244256432945,
        -2.3545455178792847,
        -0.35514391742006107,
        -1.6339723995104283,
        0.0,
        1.5169046102089396,
        0.33357480450928734,
        -0.06531858686830129,
        0.32739893366378553,
        -0.27945185052989219,
        -0.56205136787260623,
        0.34314038694835886,
        0.19462482797011638,
        1.1493210701356837,
        0.24189204204283218,
        0.22445217591385774,
        -0.26915546383320993,
        -0.26385313951645684,
        0.19973336954272927,
        0.16926597679276803,
        0.65961423702850996,
        -0.49757949369964272,
        -0.23384617905336416,
        -0.23384617905336416,
        -1.5727698241361348,
        -1.5727698241361348
      ]
    },
    {
      "dualCoef": -0.10000000000000001,
      "supportVector": [
        0.48555894153008544,
        0.2040020210566118,
        0.47886287266064337,
        0.22312813585085164,
        0.5584515437890627,
        -0.079436662764757277,
        -0.42978918718230591,
        0.66812242267206334,
        0.63421229876388296,
        0.8968896522911245,
        -0.53010483039320189,
        -0.025421500772013283,
        -0.77719421677570477,
        -0.60532989132757387,
        0.0,
        -0.15053152372160933,
        0.66275117355706914,
        0.63793981337222172,
        -0.5355344164159479,
        0.40247608379349198,
        0.27898766017859417,
        0.7326888315657224,
        0.87546246400663053,
        0.21443502428071579,
        -0.69111981047950433,
        -0.62727084952287393,
        -0.15408625568436354,
        -0.14511302834634329,
        0.017183335318368045,
        -0.0027977924709610452,
        1.8343644780181492,
        1.9132758690757725,
        -0.044666640143230199,
        -0.044666640143230199,
        -0.29445228990732542,
        -0.29445228990732542
      ]
    },
    {
      "dualCoef": -0.079386156626176416,
      "supportVector": [
        -0.34735498137716619,
        -0.73135819012482273,
        -0.82544924564035493,
        3.3708864743541462,
        -0.2408987720976033,
        -0.12372418487363249,
        -0.32376999077791313,
        0.29032559821355219,
        -0.36360267081267944,
        -0.054625944671410603,
        1.2714107962093919,
        0.084587911920204206,
        0.97683961281131859,
        0.79132129566553555,
        0.0,
        -0.65006956216359613,
        -0.56302249535629967,
        0.47384618664943301,
        -0.15347232248751633,
        1.4190542425948682,
        1.165915755574314,
        1.7625939276227931,
        1.2485295051952421,
        1.0977984613863434,
        1.8348435339008125,
        -0.23967590768035352,
        3.288559962376469,
        4.8731130339556028,
        -0.0019069718144258307,
        -0.24444250314733473,
        4.1645154246320066,
        3.2489747371921593,
        -0.43397821758461114,
        -0.43397821758461114,
        -1.7078923619747695,
        -1.7078923619747695
      ]
    },
    {
      "dualCoef": -0.10000000000000001,
      "supportVector": [
        -0.1751336330791988,
        -0.37536997967009994,
        -0.42164958172390515,
        0.47047558755764696,
        -0.3136906732038785,
        -0.78360826429587305,
        -0.70240997793645876,
        0.26661872137837195,
        0.076624380280900725,
        0.23523517422962217,
        0.45327144259598456,
        2.1925102067323716,
        0.0046810172869941151,
        1.2737758764521641,
        0.0,
        -0.36495090742958419,
        -0.12898086827775834,
        0.44259025774985422,
        -0.21275781982123848,
        0.42524009616340525,
        0.47931086473196977,
        0.11279891572051445,
        0.3410597269364356,
        0.16291241553137534,
        -1.0568557832918297,
        -0.96669760866460053,
        -0.25066725041988919,
        -0.25737557333447902,
        -0.026094945467721058,
        -0.038412547034514723,
        1.6984428906684883,
        2.0100933739617006,
        -0.07553277543909416,
        -0.07553277543909416,
        -0.26431704765554359,
        -0.26431704765554359
      ]
    },
    {
      "dualCoef": -0.10000000000000001,
      "supportVector": [
        -0.20393933902227518,
        0.47158728472284533,
        0.25853723079555141,
        -0.15681559127779054,
        0.96901147199127757,
        -0.46473810511197156,
        -0.59891504811312302,
        0.24240744290840058,
        -0.27100148008770814,
        -0.022954658520703934,
        -0.54619531692417644,
        -0.24780611997778623,
        -0.65048894528111523,
        -0.63788186943462621,
        0.0,
        0.55374153553375605,
        -0.14590494313403382,
        0.90361520901864156,
        -0.77267640575083651,
        0.87768039944629794,
        0.93121478016511783,
        0.57490287569209109,
        0.57236238550031326,
        0.73381616086680912,
        -0.88695417946600308,
        -0.79414448799991677,
        -0.16969479902497075,
        -0.17577753182990108,
        0.032404440783379763,
        0.060174735070704616,
        1.3366226725038328,
        1.1707700791279632,
        1.9307660187920634,
        1.9307660187920634,
        1.0266378462272387,
        1.0266378462272387
      ]
    },
    {
      "dualCoef": -0.10000000000000001,
      "supportVector": [
        -0.11752222119304599,
        0.47158728472284533,
        0.31381466051615275,
        -0.12722546138450622,
        0.74349263819006095,
        -0.55995627764605327,
        -0.29347879180522951,
        0.12437746036729026,
        0.30936534092655055,
        0.29995475897237056,
        -0.49575783029823617,
        -0.46959929072822471,
        -0.58736176375356164,
        -0.71840518369943995,
        0.0,
        2.046524737221795,
        0.29130932223977141,
        -0.1590863735670377,
        0.27470071381158806,
        -0.017012266725218026,
        -0.15023741179702829,
        0.24260478878609601,
        0.010261579394970397,
        0.57758631498171231,
        -1.0019084875994908,
        -0.86819950133342294,
        -0.1198984707245736,
        -0.03055444400942264,
        -0.15219948232097544,
        -0.22198876982497764,
        1.3741611902272113,
        0.44433174164836081,
        1.0904105933175736,
        1.0904105933175736,
        0.38893723599598484,
        0.38893723599598484
      ]
    },
    {
      "dualCoef": -0.10000000000000001,
      "supportVector": [
        1.9503597331035449,
        0.40504743230140183,
        1.5816671975120735,
        0.63797053412330129,
        0.37511119474101456,
        -0.93861459167693617,
        -0.083964665577500888,
        2.1339135733749122,
        0.28609124486198556,
        1.6552792543564157,
        -0.29957766759365989,
        -2.2711512856771194,
        -0.62974715706491902,
        -1.7943337232378018,
        0.0,
        3.2943228210427358,
        0.44487985472901542,
        -0.2762961069404582,
        0.32081165618226087,
        -0.26969860960993053,
        -0.38509372182617474,
        -0.10030585772767926,
        0.11005782452713744,
        0.73381616086680912,
        -0.51688289304276969,
        -0.4260557960779468,
        -0.35825924165001238,
        -0.33239210695013405,
        -0.40442588150003322,
        -0.41119701091169558,
        -0.41555818015814244,
        -0.35419497100732544,
        0.35958016405421395,
        0.35958016405421395,
        -0.50734319484733248,
        -0.50734319484733248
      ]
    },
    {
      "dualCoef": -0.016784458162519757,
      "supportVector": [
        -0.69241056533359202,
        -0.21900132647970769,
        -0.62354941368213002,
        -0.1547506508943825,
        -0.7851372850417162,
        0.020210261980211922,
        0.2896267884189308,
        -0.159600660020082,
        -0.29427557615227312,
        -0.31350428364240424,
        0.07205068478519859,
        0.19578022152309071,
        -0.24872952570218509,
        -0.075589279185437619,
        0.0,
        -0.97799570887838261,
        -0.022311973688464146,
        -0.26066814249066883,
        0.024384169513650116,
        0.85558037964079703,
        0.81292989249131764,
        0.639255662775148,
        0.42341883448882778,
        1.7725784340389958,
        1.6405989447520404,
        -1.5620330480928502,
        5.6996840633878509,
        7.9030814527729252,
        1.0583180222641626,
        1.1098882388030058,
        1.7096929533552641,
        2.3327456778535289,
        -1.2882731880314267,
        -1.2882731880314267,
        -3.3313070252159189,
        -3.3313070252159189
      ]
    },
    {
      "dualCoef": -0.096679088357463333,
      "supportVector": [
        -0.40496639326331901,
        -0.33021793695554896,
        -0.53142036414779437,
        0.17641052733763943,
        -0.31301037506269824,
        -0.40052119805410252,
        0.33001505371584233,
        -0.27712624092640126,
        -0.20117919189401318,
        -0.32899567360742382,
        -0.33485296498848915,
        -0.22000804257706463,
        0.0042301088475115893,
        -0.12424592014545273,
        0.0,
        0.44942356455422461,
        -0.1429133541941506,
        -0.36224991141429991,
        0.28787526877463743,
        -0.60420630727046287,
        -0.57845161254244903,
        -0.64201493745425631,
        -0.54291397216850357,
        0.26678864284859399,
        -1.1410012177011426,
        -1.1144524502361626,
        -0.38451445922494698,
        -0.31156682753305853,
        -0.046728662458242844,
        -0.043462673726715965,
        -0.43519232733879137,
        -0.41024678814122145,
        1.214870816284767,
        1.214870816284767,
        0.87401742579079533,
        0.87401742579079533
      ]
    },
    {
      "dualCoef": -0.026141922494946179,
      "supportVector": [
        -0.23274504496535159,
        -0.48658659014594124,
        -0.55023821256331829,
        0.70775813356749595,
        -0.44941015236931658,
        -0.43152246353031515,
        0.32244225397267146,
        0.21920496770801137,
        -1.176710452472588,
        -0.66842924039651919,
        -0.11175218058785871,
        -0.21941659412173012,
        0.59672379832754985,
        0.3263419873363772,
        0.0,
        0.62876064411697041,
        -0.4819605239745629,
        0.090961057629592709,
        0.2285897714409153,
        -0.67121496385590429,
        -0.66117193048558387,
        -0.6259083431872251,
        -0.57643801057323418,
        1.1493210701356837,
        -2.1373642478450461,
        -2.1020599677588199,
        -0.40292696710452702,
        -0.37237080243620241,
        0.79290223436085139,
        0.7895910587262801,
        -0.66082438724790693,
        -0.60917550175470203,
        2.6317259945432969,
        2.6317259945432969,
        1.2249471823357385,
        1.2249471823357385
      ]
    },
    {
      "dualCoef": -0.10000000000000001,
      "supportVector": [
        0.083504833047997815,
        -0.19666294745250879,
        -0.10880285181582083,
        0.38408874817698874,
        0.02135616132734117,
        -0.6352450652311411,
        0.55467477942991272,
        0.69182929950724359,
        0.19349005413701423,
        0.60668428027975796,
        0.7107192270915802,
        0.63936656302396766,
        0.93445421949996121,
        1.0805199222166113,
        0.0,
        1.2216746754359986,
        -0.11406326883437946,
        -0.38569185808898399,
        0.37350987603445834,
        -0.54937728978844813,
        -0.52371239173224715,
        -0.55454339509251205,
        -0.57229378028894506,
        0.42218747891515312,
        -1.198979700005167,
        -1.1826217053006847,
        -0.34841385799562319,
        -0.28130979418175356,
        -0.012198513335357137,
        -0.0079693091771887246,
        -0.33813756529826688,
        -0.38597035487293546,
        0.063862674284162438,
        0.063862674284162438,
        -0.43151903692349436,
        -0.43151903692349436
      ]
    },
    {
      "dualCoef": -0.10000000000000001,
      "supportVector": [
        0.11231053899107422,
        -0.13012309503106528,
        -0.035491650697009089,
        0.32009804433131567,
        -0.073205280296698483,
        -0.75703575103054788,
        0.51428651413300119,
        -0.46627685397305241,
        0.19299486060372562,
        -0.18406511415690741,
        -0.1529066942151594,
        -0.49680591967361182,
        -0.10128246599139934,
        -0.36478790573651332,
        0.0,
        2.3034581360419621,
        -0.14627038216470001,
        -0.51852955591219396,
        -0.5355344164159479,
        -0.62973676073844398,
        -0.58890713837260678,
        -0.72027827022365309,
        -0.67463807444741475,
        -1.1359559308431268,
        -1.182663231655718,
        -1.1414155546656968,
        -0.39948048007043335,
        -0.35941387950940162,
        -0.023649142491560714,
        -0.03371697057435951,
        -0.38582574527178132,
        -0.50048150892339993,
        -0.060597548683030952,
        -0.060597548683030952,
        1.2696639934190277,
        1.2696639934190277
      ]
    },
    {
      "dualCoef": -0.10000000000000001,
      "supportVector": [
        0.025893421161845023,
        2.0086578756581903,
        1.6734042085377523,
        -0.29188174651495241,
        0.24483410070501749,
        -0.51345437943173422,
        0.60263584446999519,
        -0.32504439623155285,
        2.1658458972255739,
        1.28383014830628,
        -0.036869531732168677,
        -0.46959929072822471,
        -2.0875341419119233,
        -1.8584097222485261,
        0.0,
        1.8018043940063604,
        1.7546736678218307,
        -0.5497854848117727,
        0.30104982373768679,
        -0.67804474465987286,
        -0.65688441630661765,
        -0.65150437293313213,
        -0.62901714279619858,
        0.88921499693336825,
        -1.6929331909398198,
        -1.6838275417280759,
        -0.36272454214521349,
        -0.28975396669512227,
        0.38872091188718338,
        0.40557685591178594,
        -0.1689801101467848,
        -0.0071423169498661277,
        -0.97762047150531195,
        -0.97762047150531195,
        -1.9946632156610804,
        -1.9946632156610804
      ]
    },
    {
      "dualCoef": -0.10000000000000001,
      "supportVector": [
        0.25572618134596525,
        0.84991387420476705,
        0.86462876517888265,
        -0.10635090136263751,
        -0.8028250367123998,
        1.6522054516922631,
        0.029627330570062799,
        0.50267868646059255,
        -1.455504411714079,
        -0.668773493506853,
        0.99075557921719781,
        0.36256868592742042,
        -0.48094737203568566,
        -0.1554272886479976,
        0.0,
        -1.1854750066443509,
        0.10627871352799877,
        0.55979999112327472,
        -2.7686214826528155,
        2.0989315323473585,
        1.7074957401243351,
        2.6230700120904564,
        2.1719485908146758,
        -0.82432724889147091,
        0.9757199628960973,
        1.1657531443745235,
        0.069252781298830335,
        0.075373548935266516,
        0.21336195423642312,
        0.22501495721865705,
        2.4096083328881748,
        1.5182300917132292,
        -0.8979659288063081,
        -0.8979659288063081,
        0.087584813478166657,
        0.087584813478166657
      ]
    },
    {
      "dualCoef": -0.10000000000000001,
      "supportVector": [
        -0.23274504496535159,
        -0.46424821111874237,
        -0.53181240265645113,
        0.63385142688166851,
        -0.091573330108562209,
        -0.82568141029930442,
        -0.72007984400385761,
        0.029549953026569147,
        -0.038755712975346954,
        -0.0067747623350168313,
        0.12063157681141089,
        0.25196782477986845,
        0.11019359212590503,
        0.22971401021860074,
        0.0,
        0.34667346598137511,
        -0.21823760553967964,
        -0.52634353813708867,
        0.16930427410719315,
        -0.3872593882564348,
        -0.40346198987747067,
        -0.41881631064969649,
        -0.18891547181615118,
        -1.5514608401120016,
        -1.1169776629201265,
        -1.0569545969985124,
        -0.39627799658813584,
        -0.37349743352943954,
        -0.16424235094177983,
        -0.16230992533256255,
        -0.56678757372650634,
        -0.49249660903820108,
        -1.3201350051110281,
        -1.3201350051110281,
        0.52600398301215379,
        0.52600398301215379
      ]
    },
    {
      "dualCoef": -0.071789731403111817,
      "supportVector": [
        0.74419740765728204,
        -0.26415336919425864,
        0.25814519228689464,
        1.0131430295979769,
        -0.20960505760331685,
        -0.57545691038415958,
        0.43855851670129209,
        1.0938374024357262,
        -0.20216957896059043,
        0.60599577405909044,
        0.019137738692954966,
        -0.57783435805443872,
        -0.18515143573514903,
        -0.47546463130049127,
        0.0,
        0.71122899392367023,
        -0.020015703371046134,
        -0.49508760923750983,
        0.380097153515983,
        -0.75119405391300709,
        -0.70278437496886947,
        -0.76891246669235469,
        -0.69815759161072566,
        -1.0320797035259082,
        -1.6375497293186576,
        -1.5855021131908786,
        -0.44311653984665561,
        -0.40154365500041284,
        0.44968167684600763,
        0.44553682100244646,
        -0.66216708939350732,
        -0.59254363593108905,
        -1.2106100088998979,
        -1.2106100088998979,
        0.025370119797068706,
        0.025370119797068706
      ]
    },
    {
      "dualCoef": -0.10000000000000001,
      "supportVector": [
        1.0622859477521045,
        -0.66481833770337928,
        0.13112471548210852,
        5.7320054256702697,
        -0.27831516986251104,
        -0.47359560953374658,
        -0.29095452522417253,
        0.52840316983493707,
        -1.5248315063744853,
        -0.69941202032655836,
        1.2014790662863093,
        -1.1089550709448219,
        0.49076031504915635,
        -0.2695305382232443,
        0.0,
        -0.878907328847918,
        -0.55282631347430822,
        -0.1434584091172483,
        -0.25228148471038658,
        -0.61396602556862934,
        -0.67580806416477257,
        -0.19366171757884976,
        -0.65848301803267906,
        1.5648259794045585,
        1.361166498162121,
        1.387740687758829,
        -0.42559302142378125,
        -0.37064436435494624,
        -0.34588476075090446,
        -0.34628828254678062,
        -0.42233609425892127,
        -0.62333976837404415,
        1.0007992327811943,
        1.0007992327811943,
        -0.85341242844843979,
        -0.85341242844843979
      ]
    },
    {
      "dualCoef": -0.023012043972000674,
      "supportVector": [
        -0.6347991534474392,
        0.048108652526372704,
        -0.36637215200330381,
        -0.22282212600571505,
        -0.74772088727680841,
        -0.51566875553717806,
        -0.36920678923693862,
        -0.087975627879750093,
        0.16972076453916066,
        0.057944822407731578,
        2.7894863139201993,
        0.91675588857584933,
        2.6258117759989137,
        2.5265130549719896,
        0.0,
        -1.2804184635178602,
        -0.37067148624324742,
        -0.018434693518933093,
        -0.054663160264646085,
        3.008674054578063,
        3.021080818130053,
        3.1908186336686395,
        3.3030480306273553,
        0.8376923881840278,
        0.1379493092718696,
        0.16055495067658898,
        -0.11900037263950693,
        -0.096005367690995533,
        -0.27889795554703556,
        -0.50748923617085051,
        5.3513343330912733,
        5.7508267485205327,
        -0.47380548893411306,
        -0.47380548893411306,
        -1.4425078092413359,
        -1.4425078092413359
      ]
    },
    {
      "dualCoef": -0.10000000000000001,
      "supportVector": [
        -0.28974356949101338,
        0.0927854105807705,
        -0.10880285181582083,
        -0.067844951052833571,
        -0.17593029961489975,
        -0.94082896778238001,
        0.13564652697445559,
        0.47947621126020334,
        -0.085303905104476899,
        0.26793921971133017,
        0.13641263090909764,
        -0.24780611997778623,
        -0.43946379560329329,
        -0.4775205457072525,
        0.0,
        1.8873784366295838,
        0.14653747820164184,
        -0.63573928928561441,
        0.380097153515983,
        -0.79892410850095064,
        -0.75263165201878546,
        -0.84904486740802387,
        -0.73902149781216564,
        0.8376923881840278,
        0.28634762581236151,
        0.33256942559395342,
        -0.45139064207714502,
        -0.40965193583566334,
        -1.3642686883874371,
        -1.3563442608500726,
        -0.65266828504858765,
        -0.5584844830570237,
        0.60053515571870042,
        0.60053515571870042,
        -0.3936069579615753,
        -0.3936069579615753
      ]
    },
    {
      "dualCoef": -0.10000000000000001,
      "supportVector": [
        -0.261550750908428,
        0.22634040008381068,
        0.019393740514935531,
        -0.10743116836481534,
        0.8564221296259642,
        -0.56659940596238456,
        -0.23289639385986219,
        0.26611431974358085,
        -1.0375610696184867,
        -0.53967857713168998,
        -0.12846153198540941,
        -0.21941659412173012,
        0.68104367651078201,
        0.39041798634710129,
        0.0,
        2.4094217161139402,
        -0.22902234565529905,
        -0.47945964478772041,
        0.21541521647786593,
        -0.59690334828166713,
        -0.61013883315779416,
        -0.59875465703442021,
        -0.55701295841808285,
        0.26595763303005626,
        0.15982058232929006,
        0.20596400335565979,
        -0.41583688088434734,
        -0.3811454852287155,
        -1.3057604661292443,
        -1.3008167103494868,
        -0.47018101929125417,
        -0.37951501719523123,
        -1.3589665946767926,
        -1.3589665946767926,
        -1.6379008315835342,
        -1.6379008315835342
      ]
    },
    {
      "dualCoef": -0.091591451558525869,
      "supportVector": [
        -0.57718774156128638,
        -0.53126334820033905,
        -0.80741547424214455,
        0.36322450626290859,
        -0.32627618881571091,
        0.45865673085807646,
        0.51933504729511515,
        0.053761231496540496,
        -1.083614068214328,
        -0.71662467584324674,
        -0.49297293839864459,
        0.47316954707497244,
        0.32212055868269196,
        0.51891263676967636,
        0.0,
        -0.38837078299802535,
        -0.44634970575308613,
        1.6225015737089541,
        -0.0019649404124486174,
        1.6981475957710861,
        1.869123645441559,
        0.86275092097058059,
        0.45503716496995622,
        -0.044840039103062002,
        0.26948040612640511,
        0.33104049323846541,
        -0.28723069002857216,
        -0.26074822444327428,
        -1.2148486831338021,
        -1.2476315558912248,
        0.4908256735246751,
        0.50648615548472298,
        -0.33241867564338134,
        -0.33241867564338134,
        -0.27209388436568083,
        -0.27209388436568083
      ]
    },
    {
      "dualCoef": -0.017987842715287909,
      "supportVector": [
        -0.261550750908428,
        -0.28601646356130439,
        -0.40322377181703806,
        0.24152753014656167,
        1.0737773857330195,
        0.84174379709984692,
        -3.9233741353651537,
        0.10067058353210999,
        -0.20167438542730182,
        -0.071494347077765238,
        -0.7324736417635378,
        0.47376099553030693,
        1.6532022720351065,
        1.5307651772973143,
        0.0,
        -0.70009124151876956,
        -0.42501420134636991,
        0.7707775111954317,
        -0.39061431182240491,
        3.5511326751132102,
        3.6614723634204247,
        2.8542104452841555,
        2.4896536336597568,
        -0.87668086745934914,
        2.1705940584328944,
        0.17893159537400194,
        3.5544775960232435,
        4.7579514263463274,
        1.1219393629768788,
        1.1464302652964571,
        2.0195950320159,
        2.7045689338999885,
        -0.30155254034751738,
        -0.30155254034751738,
        0.73111805124202356,
        0.73111805124202356
      ]
    },
    {
      "dualCoef": -0.017468541884177218,
      "supportVector": [
        6.6910434665013314,
        -3.9618680251859058,
        1.0120352444338196,
        -1.5724117568762122,
        -0.15824254794421611,
        -0.60645817586037221,
        0.81214997069772377,
        3.3162310053251796,
        -1.1994893550038643,
        1.4294492139774637,
        0.45884122639516794,
        -2.2439446567317325,
        2.6258117759989137,
        0.69537862335001288,
        0.0,
        0.63477826029954709,
        1.6202647507975241,
        -0.60448336038603567,
        0.4196208184051311,
        -0.80512628434858846,
        -0.75551121710017544,
        -0.85165464077740538,
        -0.75993812305846076,
        0.47454109748303136,
        1.167224200587573,
        1.210237573111095,
        -0.4555994851555763,
        -0.41629253420160212,
        -2.1735565560864902,
        -2.1674907752971695,
        -0.63864316045807556,
        -0.6586068482005113,
        -0.1143643650048585,
        -0.1143643650048585,
        -0.6667683474051459,
        -0.6667683474051459
      ]
    },
    {
      "dualCoef": -0.02616872500527298,
      "supportVector": [
        1.9221669145209594,
        -0.13012309503106528,
        1.1221980653663657,
        1.4797690506135872,
        0.34279703303495762,
        -0.37616306089422114,
        -0.43988625350653382,
        2.2287410807156331,
        0.56439001057018812,
        1.9134690871067417,
        -0.514014343862227,
        0.44537146967425079,
        -0.33350031232489985,
        0.0045913826782492248,
        0.0,
        0.014623934981521924,
        0.22442679110901326,
        2.0053867027287944,
        -0.23251965226581253,
        1.1417905080772934,
        0.61626978854070469,
        1.7731101520468837,
        1.8580678338743528,
        -0.66809740300637399,
        0.36186323583706287,
        0.25761815771324237,
        0.37368795197302607,
        -0.24132414779138145,
        0.29413848962818401,
        0.28515368767377208,
        0.36724688120327631,
        0.17145018361414668,
        -1.0244175153409767,
        -1.0244175153409767,
        -0.21862813198348729,
        -0.21862813198348729
      ]
    },
    {
      "dualCoef": -0.087518045785734369,
      "supportVector": [
        0.16930906351673602,
        -0.41957145306434457,
        -0.2377835211638907,
        0.95423679604855804,
        0.10333208733954806,
        1.7252798631719073,
        -1.5707576818200568,
        0.4315580559550517,
        -1.0370658760851981,
        -0.4264193038318802,
        -0.89863885843918034,
        -0.3306089037246166,
        -0.080089769335720651,
        -0.25239791816690094,
        0.0,
        -0.31816995478551319,
        -0.3645651011257286,
        0.028449199830435107,
        -1.1810876096053669,
        0.54988270393687722,
        -0.0064914748459847368,
        1.3329664531759307,
        0.98228941216392007,
        0.78533876961614957,
        1.4568577327117636,
        1.2705727816339596,
        0.12658261966268333,
        -0.10192185587013597,
        -0.93869033678709934,
        -1.0660004661729858,
        1.7521908628952954,
        0.91259147555768616,
        0.0021304036924345176,
        0.0021304036924345176,
        -0.91659922671830485,
        -0.91659922671830485
      ]
    },
    {
      "dualCoef": -0.066407569576890244,
      "supportVector": [
        -0.46257780514947178,
        -0.44190983209154344,
        -0.66040103349586432,
        0.30018269858976415,
        0.2461946969873777,
        -0.71274822892167267,
        -1.5303694165231452,
        0.077468108331720784,
        0.23954305273285559,
        0.21939953115426883,
        -0.35001515421959978,
        0.0023765766287083385,
        0.089000895470226341,
        0.069010034090100203,
        0.0,
        -0.28940636142388659,
        -0.21602915519735347,
        1.0130109601671673,
        -0.23251965226581253,
        2.1211204163853581,
        0.72626885256359108,
        3.8426439533063945,
        5.6272317192459402,
        -1.7068596761785608,
        0.69932081065058505,
        0.71506928101661205,
        0.056742755047582659,
        0.085545797737830748,
        -0.0094816439707473364,
        -0.084365250582697671,
        0.86067311710768324,
        1.1990077826835095,
        -1.087145467716442,
        -1.087145467716442,
        0.93526001488312616,
        0.93526001488312616
      ]
    },
    {
      "dualCoef": -0.10000000000000001,
      "supportVector": [
        0.083504833047997815,
        -0.35303160064290107,
        -0.2377835211638907,
        0.67018933995251462,
        0.88057271363785927,
        -0.68396133955090377,
        0.21642305756827865,
        0.62121307063649389,
        -0.13234729076689547,
        0.33197029823341101,
        0.31866833411571521,
        -0.55240207447505507,
        0.047066410598351489,
        -0.28426459147169958,
        0.0,
        1.3745266667500839,
        -0.035535454116695842,
        -0.45601769811303633,
        0.28128799129311277,
        -0.37829566833817324,
        -0.57254161915927615,
        -0.042325160736659241,
        0.14591999431911865,
        0.57841732480024999,
        0.17479127342768275,
        0.20782668382221395,
        -0.30441682895973377,
        -0.29961581896894179,
        0.80035389447237981,
        0.79079150306327139,
        -0.2611692300391214,
        -0.20155448225223957,
        -0.18107504451527417,
        -0.18107504451527417,
        -0.85341242844843979,
        -0.85341242844843979
      ]
    },
    {
      "dualCoef": -0.10000000000000001,
      "supportVector": [
        -0.43377209920639537,
        -0.018431199895070808,
        -0.29266891237583531,
        -0.091312332196061483,
        1.1819447901806619,
        0.56494678391937692,
        -0.53075985042458473,
        -0.27712624092640126,
        0.49506291590978174,
        0.1550241995218542,
        -0.70524358763419581,
        -0.24780611997778623,
        -0.14321695086327418,
        -0.25239791816690094,
        0.0,
        1.1396854319934813,
        0.247694262708577,
        4.9200020726145182,
        -7.050351845643859,
        1.110012811798903,
        1.4397491411353509,
        1.2628820003296937,
        1.7388091917912774,
        -1.6029834488613421,
        0.54469915062422491,
        0.57882959180167837,
        -0.27428366721256425,
        -0.22805873609229993,
        -0.14327072098469745,
        -0.22000448343789594,
        1.9545663422185646,
        1.420020076602162,
        -0.85913433924054383,
        -0.85913433924054383,
        1.0363588921149103,
        1.0363588921149103
      ]
    },
    {
      "dualCoef": -0.10000000000000001,
      "supportVector": [
        0.74419740765728204,
        -0.44190983209154344,
        0.11152279004927115,
        1.7098751080784065,
        0.32000704530542318,
        -0.66181757849646616,
        -0.40454652137173619,
        0.9046867893890751,
        -0.038755712975346954,
        0.5905043840940708,
        0.057816792853951825,
        -0.91318563222910165,
        0.17377168209294111,
        -0.39699723144243876,
        0.0,
        0.72337179656040096,
        -0.15188993900609343,
        0.73952158229585285,
        -0.094186825153794188,
        1.3882925423398793,
        1.4830143482541578,
        1.0942997968145352,
        1.0098571626108668,
        0.3183112515979345,
        0.51131008092243624,
        0.57523539729284345,
        -0.23692164936174087,
        -0.23013290888623361,
        0.1433660047688653,
        0.1007988845210854,
        0.80534374108608231,
        0.66524846298199958,
        -0.12332550105849643,
        -0.12332550105849643,
        -0.49276162601582513,
        -0.49276162601582513
      ]
    },
    {
      "dualCoef": -0.10000000000000001,
      "supportVector": [
        -0.49138351109254819,
        -0.30835484258850326,
        -0.56866402247018544,
        0.074124589520472392,
        0.36116508284682175,
        -0.53781251659161566,
        -0.3439641234263689,
        -0.11218690634972144,
        -0.57306953539376426,
        -0.47495899238894151,
        0.25306865825866437,
        -0.27501274892317334,
        -0.10083155755191681,
        -0.23595060291281134,
        0.0,
        1.5601363680483207,
        -0.099099181802482908,
        -0.073132569093196001,
        0.12978060921804505,
        -0.65025943151956955,
        -0.60455439811333,
        -0.63912368362365024,
        -0.48381487009489327,
        -0.14871626642028068,
        0.11297814021537261,
        0.17224603244008863,
        -0.42450460119758193,
        -0.38874350180437778,
        -1.2478484491913546,
        -1.2456360528161841,
        -0.56381519701071159,
        -0.6121888998696654,
        0.66724583522911607,
        0.66724583522911607,
        0.82541219635243757,
        0.82541219635243757
      ]
    },
    {
      "dualCoef": -0.10000000000000001,
      "supportVector": [
        0.45675323558700903,
        0.56046551617148777,
        0.75446594424633673,
        0.034598274074894665,
        0.3958602880470089,
        0.10878530619796233,
        0.067491329285917362,
        0.809859282048354,
        0.12317257241003068,
        0.63835556643046465,
        0.3604417126095919,
        -0.74639716782477195,
        -0.73480882346434739,
        -0.99081384259529903,
        0.0,
        0.3512302754645667,
        0.3421905766289795,
        0.42696229330006485,
        0.22200249395939062,
        -0.45471574038103496,
        -0.59936398211211384,
        0.044023550723630775,
        -0.42478603971518719,
        0.89004600675190604,
        0.090537000102817858,
        0.14303445769366746,
        -0.41110952411397128,
        -0.40459249499271566,
        -1.3554519548472546,
        -1.3694224756671098,
        -0.12704374984412534,
        -0.38257589026402483,
        1.1342205918020256,
        1.1342205918020256,
        0.06619851252528923,
        0.06619851252528923
      ]
    },
    {
      "dualCoef": -0.012258176216540391,
      "supportVector": [
        -0.40496639326331901,
        -0.26367808453410546,
        -0.47653497293584979,
        0.099002623898901632,
        -0.32321484718040033,
        0.55830365560304562,
        -1.4824083514830628,
        -1.388827444005919,
        -1.0603399721497631,
        -1.6850086752121365,
        -1.5391639953452902,
        -0.19220996517634301,
        -0.37588570563625723,
        -0.39699723144243876,
        0.0,
        -0.72974555653036666,
        -0.29648112879125232,
        0.20817079100301322,
        0.0046223370690760658,
        2.2919380882476044,
        2.3692011817042462,
        1.4191747366474099,
        1.3204196456353561,
        0.3183112515979345,
        1.076136333820352,
        0.33934826465474022,
        4.4341454847372015,
        6.3121909077824352,
        1.2207234703355947,
        1.4127319877434019,
        2.8960397228439669,
        2.9462032528595055,
        0.0031260854761720651,
        0.0031260854761720651,
        -0.36930434324239642,
        -0.36930434324239642
      ]
    },
    {
      "dualCoef": -0.10000000000000001,
      "supportVector": [
        0.74419740765728204,
        -0.44190983209154344,
        0.11152279004927115,
        1.7098751080784065,
        0.32000704530542318,
        -0.66181757849646616,
        -0.40454652137173619,
        0.9046867893890751,
        -0.038755712975346954,
        0.5905043840940708,
        0.057816792853951825,
        -0.91318563222910165,
        0.17377168209294111,
        -0.39699723144243876,
        0.0,
        0.72337179656040096,
        -0.15188993900609343,
        0.73952158229585285,
        -0.094186825153794188,
        1.4648159547073811,
        1.6624008683769325,
        0.8069974035376748,
        1.1203166330814529,
        1.0454448428184651,
        0.22698236066408653,
        0.37183265008001848,
        0.093166093078676709,
        -0.12372139675544679,
        1.0528658362246406,
        1.0554653013735606,
        0.79427649497559083,
        0.30225413285999814,
        0.0031260854761720651,
        0.0031260854761720651,
        -1.2198958584136574,
        -1.2198958584136574
      ]
    },
    {
      "dualCoef": -0.094702521815167279,
      "supportVector": [
        -0.69241056533359202,
        -0.085446336976667495,
        -0.51338659274958409,
        -0.21230452892392654,
        -0.12796928066169971,
        0.033496518612874483,
        -2.4189112530551991,
        -0.23021688889083175,
        0.33214424345782689,
        0.073780465483084909,
        -1.7034726174212049,
        1.3325441526760047,
        -0.03725346758488074,
        0.74369261190890112,
        0.0,
        -0.77703152975950396,
        0.12426766393980269,
        0.53635804444859059,
        -0.10736138011684354,
        1.1285376383388921,
        1.17284423466572,
        1.0823156017442155,
        1.5075544495385997,
        -0.51269856693981486,
        0.10231614411036333,
        0.29044465283835758,
        0.15636418077156947,
        0.02140669364331314,
        1.0545792930781959,
        1.016292725985684,
        0.7257633902472056,
        0.39528703917187136,
        -1.0234218335572391,
        -1.0234218335572391,
        -0.39943958549417818,
        -0.39943958549417818
      ]
    },
    {
      "dualCoef": -0.10000000000000001,
      "supportVector": [
        3.2435520637395281,
        -0.063107957949468593,
        2.0227105197509143,
        2.0789438927870885,
        3.5401982965816208,
        0.36122418221855096,
        -2.5451245821080475,
        2.8910204271963078,
