{
  "bias": [
    0.10352923484969265,
    0.57770448342798919
  ],
  "intercept": -0.96383577723702796,
  "kernel": {
    "parameters": [
      {
        "name": "gamma",
        "value": 0.011048543456039806
      }
    ],
    "type": "rbf"
  },
  "modelName": "cStress",
  "modelType": "svc",
  "normparams": [
    {
      "mean": -0.20650372937474318,
      "std": 0.9258213522025005
    },
    {
      "mean": -0.40661262940585174,
      "std": 0.80625141631807562
    },
    {
      "mean": 0.58231815652329078,
      "std": 0.30133048264069573
    },
    {
      "mean": 0.1875136125023201,
      "std": 0.50571253830625551
    },
    {
      "mean": 0.13452165496572951,
      "std": 0.56234887506300801
    },
    {
      "mean": 0.902420189199584,
      "std": 0.71332474904231036
    },
    {
      "mean": 0.58800444421067299,
      "std": 0.43477448390819817
    },
    {
      "mean": 0.063473455323235325,
      "std": 0.49902223152260311
    },
    {
      "mean": -0.022929202422712111,
      "std": 0.45940716059126735
    },
    {
      "mean": 0.80629242745352514,
      "std": 1.0066970800218171
    },
    {
      "mean": 0.61209941038616134,
      "std": 0.40285066777137551
    },
    {
      "mean": 0.17232694712200361,
      "std": 0.49180668549719675
    },
    {
      "mean": 0.16249070391421455,
      "std": 0.46613943745193087
    },
    {
      "mean": 0.92160312526593124,
      "std": 0.87294717495778407
    },
    {
      "mean": 0.34262650936149569,
      "std": 0.2037780206789887
    },
    {
      "mean": 0.073558119581617482,
      "std": 0.35279710179966328
    },
    {
      "mean": -0.10820180910361199,
      "std": 0.31333126636828623
    },
    {
      "mean": 0.47252798741625096,
      "std": 0.55972888891986672
    },
    {
      "mean": 0.32806388096880912,
      "std": 0.31267631264201884
    },
    {
      "mean": -0.25355977632295029,
      "std": 0.41580380404739936
    },
    {
      "mean": -0.32857429892433698,
      "std": 0.39635838865187972
    },
    {
      "mean": 0.14237355155007561,
      "std": 0.73822831445207648
    }
  ],
  "probA": -24.84162206509852,
  "probB": 23.308907526887637,
  "support": [
    {
      "dualCoef": -0.061871843353822918,
      "supportVector": [
        1.0202162556775565,
        -0.24470724656901424,
        0.69963076865258833,
        -0.89830877161001277,
        -0.84387392873128841,
        -0.7777502625984033,
        0.38731196145770569,
        0.066094552047082575,
        0.37855137220022683,
        -0.14368606675513662,
        0.34521626319023935,
        -0.57560833672757006,
        -0.57778344481725974,
        -0.36409944098833802,
        -0.79088567815484556,
        -1.0758412265924997,
        -0.45330803203131614,
        -0.87419110314826087,
        0.12550553056605071,
        -0.4616964327038855,
        -0.27815374709516305,
        -0.52424590706635199
      ]
    },
    {
      "dualCoef": -0.061871843353822918,
      "supportVector": [
        -0.56284609933471941,
        2.048172525970116,
        -0.30290019264417539,
        -0.27115148025989672,
        0.012328488937327322,
        -0.47932368521922225,
        -0.47349743208757128,
        0.71503853054344313,
        0.61128322103228883,
        0.020594958699636987,
        -0.5060541719258258,
        0.38366879771256551,
        0.26122492134723102,
        -0.080864570731938132,
        -0.46440621159165568,
        -0.70355481293822841,
        -0.090887076245005277,
        -0.7354074854053706,
        0.39837054494255103,
        2.3349640449750892,
        2.8287876722092857,
        1.5084582433144136
      ]
    },
    {
      "dualCoef": -0.061871843353822918,
      "supportVector": [
        1.1252923791934426,
        0.90944470056675852,
        0.54513426845389157,
        -1.398545782653476,
        -1.4497579519322474,
        -1.056698123301173,
        0.53991885926355332,
        -0.049890269791073458,
        -0.24771764747757216,
        0.33579780439117385,
        0.28086035545190124,
        -1.0443409153019514,
        -1.139207071557506,
        -0.32555411760026493,
        -0.44929219924101571,
        -0.82814520232311539,
        -1.2258967414945394,
        -0.84448055860872329,
        0.97272995507173654,
        1.1169577579433687,
        -0.19578100339480492,
        1.343135478531589
      ]
    },
    {
      "dualCoef": -0.061871843353822918,
      "supportVector": [
        1.4100595882722595,
        -1.1816435398408021,
        -0.16994551818189824,
        -1.4514300854424178,
        -2.1553098705024563,
        -1.0747540980938746,
        0.05923422151722943,
        -0.14738067019949211,
        -0.13747927204180582,
        0.14601936201306986,
        0.047842579706825476,
        -1.1616964694581748,
        -1.3578782835027536,
        -0.44172404394146669,
        0.50404011085133194,
        -0.52362845320931384,
        -1.0209593376189876,
        -0.10928349636613988,
        -0.52310029365207023,
        -1.0917537189468187,
        -1.2912901951462246,
        -0.8561252477602318
      ]
    },
    {
      "dualCoef": -0.061871843353822918,
      "supportVector": [
        -0.17832154681125123,
        1.9915988136551717,
        0.29602556820134379,
        -0.76661852995514079,
        -0.90179123677979978,
        -0.46602324592412064,
        1.1512182230864569,
        0.79989818188251882,
        0.52911836882661012,
        0.92922348456799264,
        0.59425777189016415,
        0.02718282821082842,
        -0.4653986965302559,
        0.50845954976832053,
        -0.79737232248709111,
        -0.98144349714433465,
        -0.62541101098697471,
        -1.0571789744372864,
        0.95192294028682012,
        1.6766050420663687,
        1.5478352698772935,
        1.0332627905778731
      ]
    },
    {
      "dualCoef": -0.061871843353822918,
      "supportVector": [
        -1.693227748275089,
        1.2628388761525038,
        1.388759746789257,
        0.14801785712241605,
        -1.4935958119564086,
        1.2274889357773684,
        0.74462282844588834,
        1.282046061167011,
        0.72640334864452616,
        0.62392964327942579,
        1.6046419513917549,
        0.98683173840944327,
        -0.0052411519538319989,
        1.5363750088592671,
        -0.25923035199797484,
        -0.44005616815165249,
        -1.4200950412619444,
        -0.20666661216046339,
        1.4620297354725322,
        1.9809616624804356,
        1.4588494286835538,
        2.1776730307125565
      ]
    },
    {
      "dualCoef": -0.061871843353822918,
      "supportVector": [
        1.7688839024004266,
        0.044428299590809878,
        -0.30373412677666234,
        -1.9325319475857972,
        -1.7396691645042173,
        -1.0801956861647914,
        -0.36649838597463408,
        0.22439321936635881,
        0.74262459379079093,
        0.088476027478690891,
        0.09793232130290512,
        -1.3481581026451319,
        -0.89241274713669938,
        -0.75216574083999443,
        -0.50791778786640018,
        -1.0512659417271779,
        -1.0998647983391714,
        -1.0626649717984551,
        0.65709495964070486,
        0.36876590034889739,
        0.14929498010288489,
        0.47863282653249345
      ]
    },
    {
      "dualCoef": -0.061871843353822918,
      "supportVector": [
        0.30176905413418181,
        0.57844076281489054,
        -0.71548148753639773,
        -1.0492908907311411,
        -1.2625023516033873,
        -0.85215014136735545,
        0.56589599472915564,
        -0.28659410036804578,
        -0.40860329328411255,
        0.068242513383560688,
        -0.55308394731302002,
        -0.99226038580825648,
        -0.93065067680931146,
        -0.80193800360173784,
        1.8920518356572242,
        0.4950716215527145,
        -0.78239337497205419,
        1.1200354027738251,
        0.14435895267805982,
        0.65623233046751395,
        0.20928402286651843,
        0.33881182706571028
      ]
    },
    {
      "dualCoef": -0.061871843353822918,
      "supportVector": [
        -0.52997175853971701,
        0.40305499130570627,
        -0.28540107308663981,
        -0.32255783354323114,
        -0.12902930681463831,
        -0.48265673242549195,
        0.24991194114337811,
        0.60006500697110365,
        0.52821010456947759,
        0.46965677509256271,
        0.1273056404142652,
        0.22108596068072495,
        -0.43670790021014017,
        0.42718788205384434,
        -0.72751776487579201,
        -0.80212708450488324,
        -0.76302936272391331,
        -0.85744623524744379,
        -0.31589302677551317,
        0.68534918429321501,
        0.58144006661244396,
        0.10853449788066268
      ]
    },
    {
      "dualCoef": -0.061871843353822918,
      "supportVector": [
        0.60009106567004544,
        0.6380627092758181,
        -0.04402463962714278,
        -0.83945050040935965,
        -1.119955245314141,
        -0.41829416225246996,
        -0.076872131533171198,
        0.30862399017085418,
        0.68337166724405352,
        0.15841804799091011,
        0.68745015350741812,
        -0.38111790607965346,
        -0.55642130341076601,
        0.21538462150667481,
        -0.40704873263685803,
        -1.0584056648857845,
        -0.90098197172388828,
        -0.82466121671667603,
        -0.25154045394384406,
        0.80732236091553911,
        0.9897922715555969,
        0.40558365896569881
      ]
    },
    {
      "dualCoef": -0.061871843353822918,
      "supportVector": [
        -0.51220177782863252,
        2.8842638682095245,
        0.59737582129261446,
        -1.0217157329118676,
        -0.79084292279647739,
        -0.64155322838259221,
        0.49069189491767617,
        1.2712103215570032,
        2.4148520091023129,
        0.55022571957904676,
        0.82242096121402486,
        0.21319671477878258,
        1.0108514981040126,
        0.44346766773545898,
        -0.31141297190860789,
        -1.1212443779148398,
        -1.1957460626623844,
        -0.94221030343625278,
        4.0817972325131953,
        3.3122296958122206,
        5.0873032612492262,
        3.4193713017061036
      ]
    },
    {
      "dualCoef": -0.061871843353822918,
      "supportVector": [
        -0.50947769029331924,
        2.0946153789147721,
        -0.25757701215724377,
        -0.015972347657621851,
        -0.20499084211533275,
        -0.61414440792955438,
        0.58547859333741159,
        0.66755304331270049,
        0.026872901910862453,
        0.60556323531035627,
        0.67255916225467693,
        0.46346221854053149,
        -0.064508430744657647,
        0.69858320876813118,
        -0.2090204083972271,
        -0.26945956167628787,
        -0.92679586237452283,
        -0.60296436617592719,
        1.524272241268843,
        1.4404430815689808,
        2.6889186842040034,
        1.4092784673300345
      ]
    },
    {
      "dualCoef": -0.061871843353822918,
      "supportVector": [
        0.98521304875939353,
        0.34315721271986965,
        1.0247101905485592,
        -1.4435915603889846,
        -1.5226464728999474,
        -0.80652877681640966,
        -0.001106210163744181,
        -0.14802900904695196,
        -0.12970562176839029,
        -0.10711561000933995,
        0.25020647680320585,
        -1.1548432898515162,
        -1.9814901212813922,
        -0.57255906212782304,
        0.48399090857907345,
        -1.2924474361256082,
        -1.0723179808851957,
        -0.1303128902801384,
        0.98529535910444499,
        0.38977856753829776,
        0.78916340708550747,
        0.64847892062315393
      ]
    },
    {
      "dualCoef": -0.061871843353822918,
      "supportVector": [
        1.0036654930993534,
        0.73142861974810158,
        0.30931806717329996,
        -0.65175444776135871,
        -0.93841467321768879,
        -0.3229886234016161,
        0.54547226781933544,
        -0.65417161889764719,
        -1.0776204841433021,
        0.23891706296266041,
        -0.02343517512206705,
        -0.91414765996075775,
        -1.4560399770994701,
        -0.48036944962096773,
        1.0013654255940203,
        0.42420660485169948,
        -0.25103590400678599,
        0.38985293594017095,
        -0.081453074806049908,
        0.55996404484973072,
        0.68827089861738988,
        0.33339476027779952
      ]
    },
    {
      "dualCoef": -0.061871843353822918,
      "supportVector": [
        0.052599560846099361,
        -0.93152909831458097,
        -1.0864756748743185,
        -0.74045856745648997,
        -0.9723927878131895,
        -0.6985275978728287,
        0.76817954965415269,
        0.51192269392647027,
        0.29560399799145115,
        0.53685126661512528,
        0.40610193629798119,
        -0.10451735382312476,
        -0.7867689491594787,
        0.019769646798183507,
        -0.47010220751905096,
        -1.4508621747101349,
        -1.3638599110678638,
        -1.1594021706055313,
        -0.70231106650316732,
        -1.3344690522400564,
        -1.1118039995780806,
        -1.1342676441681772
      ]
    },
    {
      "dualCoef": -0.061871843353822918,
      "supportVector": [
        0.71068330380742961,
        1.2793231651875119,
        -0.24770067576225865,
        -0.23288807540602327,
        0.055564983474437737,
        -0.54202515782529004,
        0.10187174069238271,
        -0.24003844081361678,
        -0.69952244180946543,
        0.32355390886078345,
        0.73358232971238413,
        -0.35044142764951181,
        -0.89070066872468479,
        0.24406413205422603,
        -0.45974640807670736,
        0.20223497804464871,
        -0.25404203667312214,
        -0.48971551970276922,
        1.3858278476684724,
        1.2095552399052625,
        2.1560685950683047,
        1.2205484266297355
      ]
    },
    {
      "dualCoef": -0.061871843353822918,
      "supportVector": [
        -0.52141727139020322,
        0.19662120962150997,
        -0.031580705464462552,
        -0.6322423535662639,
        -0.94914279084731368,
        -0.26362351976243736,
        0.81615936036206349,
        0.59255190432093674,
        1.3737692430918591,
        0.52972771169224608,
        0.66435205042541357,
        -0.0032955969182835504,
        0.68641990891220794,
        0.34907846560345956,
        -0.67294099485692338,
        -0.89677830171903561,
        -1.0915179042358658,
        -0.87822694786893718,
        0.61109750277839681,
        0.56700688778336172,
        0.17123345781499347,
        0.95876682437541672
      ]
    },
    {
      "dualCoef": -0.061871843353822918,
      "supportVector": [
        -0.51636482052597443,
        -0.63409113423550945,
        -0.56851248049728442,
        -0.63119448311627269,
        -0.48639644707967178,
        -0.31474643189945378,
        0.19344184496861733,
        0.92995406172503436,
        0.89124878766565696,
        0.51213974471266788,
        -0.37565407398275907,
        0.23333391372855963,
        0.2799986592509055,
        0.048452305596986107,
        -1.0517848423591323,
        -1.3251164937499571,
        -0.9285254174419213,
        -1.314936905154213,
        -0.54071871138026484,
        -0.45755419119071483,
        -0.16907993085547507,
        -0.40002997186204453
      ]
    },
    {
      "dualCoef": -0.061871843353822918,
      "supportVector": [
        -0.45635337776616364,
        0.15876532406114163,
        -0.5294157625241741,
        -0.62597345894065382,
        -0.71600750407978608,
        -0.65404312989246305,
        0.6019095402499246,
        0.69657499288762281,
        0.91127428881948569,
        0.59843777832931822,
        0.45423212079322145,
        0.092983657923201207,
        -0.20175709893067573,
        0.28702579255372102,
        -0.66260234679970242,
        -1.0601695309228085,
        -0.91730376026372107,
        -0.94807834794137591,
        -0.034087254567021018,
        0.15401958708158692,
        -0.3088399669251688,
        0.32089206376129314
      ]
    },
    {
      "dualCoef": -0.061871843353822918,
      "supportVector": [
        1.8486443241464963,
        1.6095515993958402,
        0.077176931344573818,
        -1.0424119802364746,
        -0.83422573508841524,
        -0.91791218802005947,
        0.27482947632308147,
        -0.4443178032214698,
        0.082121070295208917,
        -0.25955585230153511,
        -0.023602808617782484,
        -1.0181866170460749,
        -0.60124457072727588,
        -0.6906255185635074,
        0.33587486081198903,
        0.4076782415283795,
        -0.35431374512359681,
        0.099981853563393536,
        2.6223621212591786,
        1.4100001578445833,
        0.51533391630022607,
        2.642490420872786
      ]
    },
    {
      "dualCoef": -0.061871843353822918,
      "supportVector": [
        0.02514456729438376,
        3.9023358573421225,
        0.033556989402287754,
        -0.12661856920876005,
        -0.44388613717473518,
        -0.029661141466028971,
        -0.23210098854737513,
        -0.34626833702118004,
        -0.31890387567541734,
        -0.48677941964728627,
        0.25288979005157558,
        -0.33667195646064124,
        -0.78625209389124984,
        -0.10395617768661962,
        -0.83054686450064019,
        -0.12028822532077611,
        0.025768837884250717,
        -0.66263304998165873,
        1.6543957316607567,
        3.7454252286326222,
        1.3277126802612418,
        5.2127346414696429
      ]
    },
    {
      "dualCoef": -0.061871843353822918,
      "supportVector": [
        0.65329356461672805,
        0.97501358329883236,
        0.15253222192349361,
        -0.89260997495216232,
        -1.5860786868970278,
        -0.1717540023380062,
        0.20481068851073178,
        0.11874782446810221,
        -0.097327736701371376,
        0.088698352578931938,
        0.58804555886359133,
        -0.48999967990688054,
        -0.98351398061969342,
        0.153465666184808,
        -0.60596673965737125,
        -1.0966520466335246,
        -0.95223169060508128,
        -0.98045429401910411,
        0.98088088837856813,
        1.0067176213497562,
        0.81527351006433657,
        0.98466523123527838
      ]
    },
    {
      "dualCoef": -0.061871843353822918,
      "supportVector": [
        0.093325649544678368,
        0.64500418646171664,
        0.4119109607278798,
        -0.71993854891962683,
        -0.37033243171024582,
        -0.17822179851721323,
        0.34555429991652536,
        0.4763258507074406,
        1.1197970874758234,
        0.43917144986242607,
        0.34836413950763584,
        -0.14508055635435052,
        0.20325038990778252,
        -0.090263551591570887,
        -0.78423381118113589,
        -0.85308512596921326,
        -1.0019112598627806,
        -0.82421063604999734,
        1.1177439439903654,
        0.77280160608759862,
        1.5120207592703123,
        0.77688591242973704
      ]
    },
    {
      "dualCoef": -0.061871843353822918,
      "supportVector": [
        0.05586364565686322,
        0.84950843815767951,
        0.89928938840395634,
        -0.7656158869418439,
        -0.52778630725474851,
        -0.34623352915839739,
        0.27529994415926146,
        0.25945386806518195,
        1.0400750997335102,
        0.12253355055037846,
        0.052469606755307915,
        -0.32498611232730162,
        -0.47318237192855689,
        0.042287246048947159,
        -1.0850999075837948,
        -0.63845576880658383,
        -0.86827245514318863,
        -1.1428085807058239,
        1.387003075302631,
        1.1564685999813993,
        1.7419697908066964,
        1.227224851224425
      ]
    },
    {
      "dualCoef": -0.061871843353822918,
      "supportVector": [
        0.59623314179697839,
        1.471418666992736,
        0.30115977369374058,
        -0.27306079096182895,
        -0.41405645074863984,
        -0.064063154135759179,
        -0.15951642159248203,
        -0.38439850677096965,
        -0.24541254364240389,
        -0.19604643525304769,
        0.037005385005986415,
        -0.46685258020748166,
        0.33036496994082565,
        -0.39236703367644482,
        -0.83445513291515194,
        -0.70894128623062569,
        -0.61039999760783836,
        -0.71361813306588062,
        0.28287827205848931,
        1.0143371603410323,
        1.2910100095869019,
        0.80937601665424497
      ]
    },
    {
      "dualCoef": -0.061871843353822918,
      "supportVector": [
        1.6761623620423531,
        1.5778686250935721,
        -0.24716586075689131,
        -1.7401557683775046,
        -1.5241520375846074,
        -1.6708899509096409,
        -0.016909149415498211,
        -0.61344413430508404,
        -0.86545443179357495,
        -0.41865025404894046,
        0.17611293829847835,
        -1.4975768331514958,
        -2.1188226161486394,
        -0.6944610233426961,
        -0.64722943120790755,
        -1.1239256335938219,
        -0.67789258093851301,
        -1.1224634679669085,
        2.0190804283930173,
        2.2273534520017488,
        1.4812333598519754,
        2.1383680606484026
      ]
    },
    {
      "dualCoef": -0.061871843353822918,
      "supportVector": [
        3.2719216143667182,
        -0.44456498994814797,
        0.1682900909827148,
        -1.9527742903559353,
        -1.8571078727934145,
        -1.4379118363167895,
        0.44514858975962351,
        -0.83059723103496574,
        -0.7425662279848998,
        -0.10055209521596327,
        0.014630546570233003,
        -1.879502595631529,
        -2.1002992709207486,
        -1.1583942495319979,
        0.33364288603611081,
        -0.59786353357201161,
        -0.41323490961235626,
        -0.48060549341347092,
        0.28880179595077959,
        -0.42703025769897296,
        0.0066738769440324603,
        -0.29258713616362503
      ]
    },
    {
      "dualCoef": -0.061871843353822918,
      "supportVector": [
        1.3641902584394918,
        0.042285744755305991,
        -0.27581431673006979,
        -0.96396887259792774,
        -0.50848553913719186,
        -0.64435327381598972,
        -0.0018773312019024859,
        -0.49575553055775801,
        -0.34711687332145508,
        -0.53196041245859627,
        -0.2786475759365179,
        -0.98703382467761391,
        -1.193076108236913,
        -0.56946258239847281,
        -0.21897336092257649,
        -0.64153851245511484,
        -0.21668010236094648,
        -0.52794546196855752,
        -0.69578189105625843,
        -0.021471230913266626,
        0.12017551291437427,
        -0.1141699109252754
      ]
    },
    {
      "dualCoef": -0.061871843353822918,
      "supportVector": [
        1.3477704822774472,
        0.77930118709633922,
        -0.58269737663120913,
        -0.87019320797747335,
        -0.78929079950773251,
        -0.93767334531195523,
        -0.24479646475255437,
        -0.79036592048328624,
        -0.59519233784676329,
        -0.8867526883117085,
        -0.52569017639669158,
        -1.1025547526096355,
        -1.4166562836076073,
        -0.49928557121935202,
        -0.53261444427022964,
        0.1039230707435614,
        -0.064050518073419674,
        -0.13063885572663969,
        -0.3912397590221996,
        0.6812872699340019,
        0.79524104981992072,
        0.41594869207149465
      ]
    },
    {
      "dualCoef": -0.061871843353822918,
      "supportVector": [
        -0.61081195517601283,
        -0.02120614297099405,
        -0.1167658099352451,
        -0.93888768158209435,
        -0.33580389313371173,
        -0.66074210338438311,
        0.44733461970446187,
        1.7460096407576355,
        1.4519266595872695,
        1.0338084121818751,
        0.23473319036264875,
        0.44428482000607722,
        0.58652188524655702,
        0.13446534280916611,
        -0.68692659734828609,
        -1.5608747002976928,
        -1.1373575463722274,
        -1.3055947337497216,
        0.44292184861362915,
        0.77182175454301238,
        0.72821857135705315,
        1.0595874596672983
      ]
    },
    {
      "dualCoef": -0.061871843353822918,
      "supportVector": [
        -1.0865854809055098,
        0.18322627543039699,
        -0.74677235346631854,
        -0.35316615282749048,
        -0.45219534541971479,
        0.2730683109387092,
        -0.43094088230873739,
        1.9141404903402881,
        2.9278299387402464,
        1.107825465503302,
        -0.52842845050315268,
        0.97064196146816106,
        1.2126470953588075,
        0.7375294105776522,
        -0.99856165889448911,
        -1.2285045191078874,
        -1.0468369515293048,
        -1.2471879372461916,
        -0.33846772633843109,
        0.67635700610213412,
        1.1129340556449636,
        0.32754185382718226
      ]
    },
    {
      "dualCoef": -0.061871843353822918,
      "supportVector": [
        -0.15276048480035195,
        1.1265358713027096,
        -0.53325205446238477,
        -0.85437342248730763,
        -1.0541904939954567,
        -0.29762760402954824,
        0.86097882779136337,
        1.1941210522313135,
        0.23665758934873063,
        0.86064521134420269,
        -0.18941606613660972,
        0.17048226462194313,
        0.029083017724061459,
        -0.1176017145487516,
        -0.56049788828675529,
        -0.99919557518529367,
        -0.77888439364210971,
        -0.63208815441967237,
        -0.095381540888623301,
        2.2849358561038393,
        1.5449655881626114,
        0.99399259830145992
      ]
    },
    {
      "dualCoef": -0.061871843353822918,
      "supportVector": [
        -0.63167143775878387,
        -0.47287639212863858,
        -0.060725107237025386,
        -0.9460112913083113,
        -0.55232526455084197,
        -0.6308750483684421,
        1.3341503436636775,
        1.6473658988680291,
        2.5046664349289922,
        1.3811727813112022,
        0.10258708770172457,
        0.41180102959679321,
        1.0984207568193927,
        0.60342512818467831,
        -1.3746393311190299,
        -0.8137871714501439,
        -1.0448578370982207,
        -1.3579165424097626,
        0.081718360047590727,
        0.20384117157039766,
        0.51471570415614742,
        0.2346097601832009
      ]
    },
    {
      "dualCoef": -0.061871843353822918,
      "supportVector": [
        0.45593187510399269,
        -0.5815807284836052,
        -0.50094284026022173,
        -0.94752507701787592,
        -0.56053133326249105,
        -0.67120872961964684,
        0.55119595452689929,
        0.19031506344279983,
        0.77681268502857659,
        0.59084593371700411,
        0.11705923456505633,
        -0.52845501286944763,
        0.00027645413283724921,
        -0.39008288463620167,
        -0.83046670262893429,
        -0.56281405568133447,
        -0.63656500896178492,
        -0.77885218019187552,
        0.19052462598712461,
        -0.50847955767871444,
        -0.056467501180792447,
        -0.3445446600578273
      ]
    },
    {
      "dualCoef": -0.049047282530042403,
      "supportVector": [
        -1.2839912326029532,
        -0.53904358170789468,
        2.0265208090274021,
        0.033090329637808717,
        -0.43549311885773934,
        1.2962573746683597,
        2.8875507102724671,
        2.2427223282322721,
        4.28226687768153,
        2.3965666243960846,
        3.2950931588458605,
        1.4434110545566914,
        0.97495040846077441,
        2.4604737670443901,
        0.22501862762313729,
        -0.5292928202837005,
        -0.89260063697089553,
        0.25877340042688363,
        -0.2527183520765004,
        0.080640839993776345,
        -0.32960551420345996,
        -0.26022738583130151
      ]
    },
    {
      "dualCoef": -0.01299140169642491,
      "supportVector": [
        -0.77560142819807043,
        4.5353120055710807,
        1.3719665241022647,
        0.27062516884293497,
        -0.44917033069649942,
        0.75692207204697926,
        0.85748633465056345,
        1.003569430902709,
        0.11841691918124654,
        0.4746228569276823,
        1.0063554016370422,
        0.84779608437272935,
        -0.039414719742101104,
        1.4845997044658263,
        -0.22895368493839674,
        1.5050150257058552,
        -0.99543730398563213,
        1.453487039731528,
        5.2801488591943606,
        2.9712478809692184,
        4.1045246832672815,
        3.8034503233193204
      ]
    },
    {
      "dualCoef": -0.061871843353822918,
      "supportVector": [
        0.0071998392717187694,
        0.96391026425715209,
        0.46792694677098362,
        -0.24807386092970871,
        -0.17224480726945393,
        -0.37040997071553544,
        -0.084638810809477022,
        -0.34480255919901226,
        -0.49093307552029297,
        -0.41243442643222566,
        -0.10498790389316194,
        -0.41086049896358395,
        -0.26474788878236177,
        -0.6730392799351238,
        -0.5911703560284961,
        -0.53765916233734135,
        -0.34612054179049428,
        -0.43291632926744328,
        2.5981315644402465,
        0.86189004627836685,
        -0.341413050416769,
        1.8188922252382387
      ]
    },
    {
      "dualCoef": -0.026516504294495528,
      "supportVector": [
        1.3735528588961194,
        -1.9409410873764077,
        0.49422972793142134,
        -1.198890402603608,
        -1.3776698283737137,
        -0.57658959026330425,
        -0.033113366063365006,
        -0.37571641662054761,
        -0.30607383777528618,
        -0.22635717970281419,
        -0.30177389969780738,
        -1.1096312607295988,
        -1.0269236554095773,
        -0.74052078178945135,
        0.16528618907070897,
        -0.69021353932793061,
        -0.69161338649973259,
        -0.51488236380196128,
        0.11478889356077557,
        -0.89553061320192584,
        -1.1672411300269749,
        -0.60753669665228849
      ]
    },
    {
      "dualCoef": -0.061871843353822918,
      "supportVector": [
        0.59582330472966805,
        -1.0184351393434559,
        0.25832559286676926,
        -0.97661167157950635,
        -1.0371753330199065,
        -0.82814915033071679,
        -0.18814725031513446,
        0.54185800521030081,
        0.18899794886234614,
        0.48214903682074967,
        -0.1405257209346025,
        -0.33215395303397316,
        -0.015573530857541854,
        0.072221786025516849,
        -0.72235287441300666,
        -0.66712232969305441,
        -1.2266022675760142,
        -1.1910622491526348,
        0.48578705220334617,
        -0.17544757268240527,
        -0.56099096571628781,
        -0.22083910966132561
      ]
    },
    {
      "dualCoef": -0.061871843353822918,
      "supportVector": [
        0.64084440299368661,
        0.012146811815026616,
        -0.91327843661187402,
        -1.0902945374751061,
        -0.96976593143228662,
        -1.1516823783762835,
        -0.33473387762403539,
        0.6147543843428086,
        0.62148677295094745,
        0.26776721986027135,
        -0.57319771173405487,
        -0.34008190405718425,
        -0.1293759803403754,
        -0.5579543480561322,
        -0.67068161384039038,
        -0.96576448420142191,
        -0.47900803446283025,
        -0.89707417248078969,
        0.79324082597788703,
        0.21924531683973109,
        -0.45684699118972544,
        0.82821563278365973
      ]
    },
    {
      "dualCoef": -0.061871843353822918,
      "supportVector": [
        0.20187422792885365,
        -0.75947231230351719,
        -0.86691003553103896,
        -1.2053696437956705,
        -1.0831246606638631,
        -1.2048763773297659,
        -0.43820824246056755,
        0.76478831051288754,
        0.58516262952759024,
        0.16416187986037634,
        -0.79096533631414856,
        -0.31514941453273193,
        -0.42925305231093769,
        -0.65703930544219147,
        -0.86757216871535814,
        -1.2842028903600078,
        -0.91435457493665151,
        -1.2274471231019195,
        -0.61580205678976396,
        -0.95165796211792153,
        -0.7916390556641083,
        -0.78483230557820782
      ]
    },
    {
      "dualCoef": -0.061871843353822918,
      "supportVector": [
        2.6663927899940854,
        2.1790560396327394,
        -0.76587566185920042,
        -1.4024662190639243,
        -1.3741529104450105,
        -1.3310600281830616,
        -0.090629601296804307,
        -0.73771805301261051,
        -0.79050027056547589,
        -0.49130226278152078,
        -0.21400415547793755,
        -1.5278381326836286,
        -1.5925838018282974,
        -1.2953507651757543,
        0.95340498102391458,
        1.0626752608562167,
        -0.29115672458537378,
        0.60134495941346722,
        0.57702985297061926,
        2.7778428475702213,
        2.2937780935762611,
        1.6966177631733219
      ]
    },
    {
      "dualCoef": -0.061871843353822918,
      "supportVector": [
        -0.29393434392968509,
        1.2768718277137512,
        -0.76537672508089383,
        -1.1286540380364136,
        -1.1501602420602608,
        -1.0355598153910806,
        -0.039635344599429204,
        1.0269989983628365,
        1.2816403382371493,
        0.34528563455377131,
        -0.11900858346595364,
        -0.066846324160012821,
        0.025558121495723667,
        0.013151776175382419,
        -1.0262175978306838,
        -1.2701700455267919,
        -1.021165662462016,
        -1.0994973102658065,
        2.1379951440636948,
        3.0305211532699676,
        2.7721727386380217,
        3.0894970340428114
      ]
    },
    {
      "dualCoef": -0.061871843353822918,
      "supportVector": [
        0.98710799321075038,
        1.633416655136261,
        -0.91206153320862715,
        -1.2469122602747749,
        -1.1194103241539011,
        -1.4478891239247873,
        0.14068136615754329,
        0.35489212250020036,
        1.2369236456338077,
        -0.014725754538671535,
        0.39236910248306361,
        -0.63526090594924389,
        -0.13011233586837892,
        -0.20407607989616069,
        -0.84233844540723202,
        -1.0924682194816677,
        -1.1371307434600437,
        -0.95640970378102841,
        3.168439937222626,
        2.8630697121844069,
        2.511387768723027,
        3.0986231688892891
      ]
    },
    {
      "dualCoef": -0.061871843353822918,
      "supportVector": [
        -0.72813143511633072,
        1.1507848604883393,
        0.34265764535661475,
        -0.54690201545509842,
        -0.6031062094348757,
        -0.34620007905886496,
        -0.070876192050901218,
        0.59997157561700953,
        0.36699374854318184,
        0.23323093377280263,
        0.21029412893085511,
        0.045087304834940847,
        0.57515087451054048,
        0.046618121004057933,
        -0.067214841710290907,
        -0.79451712074004988,
        -0.41550958416694672,
        -0.5749016998892118,
        2.5687059882367,
        2.7805333666061109,
        3.0362198057924985,
        2.5843184024334453
      ]
    },
    {
      "dualCoef": -0.061871843353822918,
      "supportVector": [
        -0.57742451423271191,
        2.5132775216956817,
        -0.91140129668272984,
        -0.61447702486809408,
        -0.40120339545581207,
        -0.87877329076164334,
        0.50034096021386554,
        1.6083522383607973,
        1.3702336563429451,
        0.98300772778240519,
        0.54169740165854174,
        0.560729134435757,
        0.74550422816420792,
        0.51142141840593003,
        -0.69480693287823048,
        -1.2208659779196689,
        -1.0332994829956632,
        -1.144638164960579,
        3.9030654977076487,
        4.3784568830296688,
        4.536662852868024,
        4.4126872070012109
      ]
    },
    {
      "dualCoef": -0.061871843353822918,
      "supportVector": [
        -1.3322176438474145,
        1.4874733720591906,
        -0.77259204958455607,
        -0.062305708043014225,
        0.25466554882479753,
        -0.37535035019501994,
        0.84833097903838317,
        1.3232076563030408,
        1.3451836021316517,
        1.0433517937353163,
        -0.19424010249724083,
        0.81069894362329353,
        0.89823492860987075,
        0.55036266440372794,
        -0.068041972284073132,
        0.39547797746350616,
        -1.055884991090994,
        0.076231480280775948,
        3.0848504705014785,
        3.1702169238095208,
        4.3397954664566294,
        3.1067485195803415
      ]
    },
    {
      "dualCoef": -0.061871843353822918,
      "supportVector": [
        0.083532231648328958,
        0.014913965084586391,
        -1.2205459803850818,
        -0.69593302081108988,
        -0.70457505704765222,
        -1.073407045261604,
        0.33360283143347086,
        0.59439555909932651,
        0.71237163597848818,
        0.59795176940473538,
        -0.10796610876049505,
        -0.14382112961588239,
        -0.72508534345070419,
        -0.0704834865690106,
        0.74763237629085622,
        -0.53425094711379539,
        -0.56019972074390401,
        0.13327435356764336,
        0.33303752293402838,
        0.068718936838867165,
        -0.74923025913359709,
        0.52142935066187013
      ]
    },
    {
      "dualCoef": -0.061871843353822918,
      "supportVector": [
        0.3816740342284678,
        -0.22942951383962781,
        -0.86341877937080624,
        -0.49785252679501041,
        -0.56572631868569523,
        -0.94298186618697299,
        -0.68483244679541766,
        0.47293679649353149,
        0.63440639057693116,
        -0.2267620239770608,
        -0.7126681786736202,
        -0.058318490937856807,
        -0.1200301989792128,
        -0.23274561681600739,
        -1.0244653902042911,
        -0.84162798864915545,
        -0.47725617964397049,
        -1.0431482221967974,
        0.90473774999876899,
        0.090407347804116758,
        -0.59055224230846337,
        0.52086260436960263
      ]
    },
    {
      "dualCoef": -0.061871843353822918,
      "supportVector": [
        0.3945116196933689,
        -0.28765976281197386,
        -0.88087302112644661,
        -0.69665847160089456,
        -0.44684076416149537,
        -0.97018796566645127,
        -0.35021954313168252,
        0.17924752633417862,
        0.5541921998637267,
        -0.032741287061249819,
        -0.58276983863751952,
        -0.39319719011989557,
        -0.28755042025026717,
        -0.49631574343960738,
        -0.79750004331947411,
        -0.64083974813688593,
        -0.72529035612374126,
        -0.90291589130190653,
        0.64522249910005913,
        -0.31493689871716418,
        -0.61222739872728271,
        0.22460348565592317
      ]
    },
    {
      "dualCoef": -0.061871843353822918,
      "supportVector": [
        1.9699516385235605,
        0.94611191375880332,
        -0.36786899207228929,
        -0.89753928590908638,
        -1.0526544160933913,
        -1.0101445440844599,
        -0.34773612206725973,
        -1.1816479210747022,
        -1.4207856872170028,
        -0.81662847328836363,
        -0.23186808531210712,
        -1.4241056535453032,
        -1.6529852240310763,
        -1.0818227890444447,
        1.1641956219943754,
        0.65792527456590355,
        0.020315576592093584,
        0.67257711554496979,
        1.4435290566144494,
        0.85009984911282843,
        -0.016162513277807475,
        1.1529167090884807
      ]
    },
    {
      "dualCoef": -0.061871843353822918,
      "supportVector": [
        0.7516535098220829,
        0.89213441429459051,
        -0.98518411217261148,
        -0.70318903422538781,
        -0.78785655621983774,
        -1.0226243024090336,
        -0.038206684177937163,
        -0.29024197490340042,
        0.014104714925728944,
        -0.25900846277160716,
        -0.3405487031352788,
        -0.70139690809293376,
        -0.76962138425573956,
        -0.66122562433146503,
        -0.68747254217079223,
        -0.42943039190283011,
        -0.31777296338201322,
        -0.24168422327246461,
        1.4715962341966646,
        1.1428139716659893,
        1.5373437034283961,
        1.2724484449803406
      ]
    },
    {
      "dualCoef": -0.061871843353822918,
      "supportVector": [
        -0.83018722780810061,
        1.1053806411921463,
        -0.27309286517320264,
        -0.28983060268743455,
        -0.7286137772041178,
        0.20362693290637818,
        0.31937262927808657,
        1.0537711292948504,
        1.9170173603220837,
        0.76066628427339178,
        -0.33891213017622424,
        0.4779832339750954,
        0.97078853484725114,
        0.27794908829612691,
        -0.45944879963268564,
        -0.21029110649200838,
        -0.77160360069298228,
        -0.66432122223239665,
        2.9256100329348778,
        1.6073407454416289,
        2.7857631672261252,
        1.8926563917899186
      ]
    },
    {
      "dualCoef": -0.061871843353822918,
      "supportVector": [
        0.78876097074192608,
        1.5637511604093024,
        -0.20155026771237872,
        -0.47430936221355385,
        -0.18610068852749484,
        -0.56241682855907027,
        0.15457809246288232,
        0.035215928108831153,
        0.25264085471282505,
        0.091030168985247892,
        -0.094337341351777945,
        -0.31922241864129947,
        -0.37882995552049187,
        -0.10271464271429503,
        -0.075022526987761268,
        -0.21004201812241516,
        0.19358651409057273,
        -0.19521095403460992,
        0.83134631998465225,
        1.7204548046376642,
        1.6254364474288048,
        1.2816030327853627
      ]
    },
    {
      "dualCoef": -0.061871843353822918,
      "supportVector": [
        0.79786271177968804,
        -0.73196587077212349,
        -1.0023160014117833,
        -1.0585672438392071,
        -0.83487986426616889,
        -1.4389161007944573,
        -0.57580930944501008,
        0.32985596950650531,
        0.54173638251218481,
        -0.17723978862147052,
        -1.1111916307988947,
        -0.5447229573093898,
        -0.53720636675920785,
        -0.87132945162479902,
        -1.0972349685286806,
        -1.2324457929876782,
        -0.88215277052463281,
        -1.3275948958189239,
        -0.58697668637080147,
        -0.55091796916863212,
        -0.58315646521510134,
        -0.59169827249971529
      ]
    },
    {
      "dualCoef": -0.061871843353822918,
      "supportVector": [
        0.062593103628546504,
        0.38431140412634751,
        -1.451118614847966,
        -0.53247775665141506,
        -0.47318224393556346,
        -0.66948458365064467,
        -0.13120717565796902,
        0.24218965772428214,
        0.45795164983455228,
        -0.016735431521689045,
        -0.8341717522515889,
        -0.2219073422327526,
        -0.18007846991213619,
        -0.50588006675338293,
        -0.89197720536814673,
        -0.80429542105469776,
        -0.67956706078256557,
        -0.70722983389595939,
        1.2070993284134841,
        1.125481122485025,
        -0.58203567832889724,
        1.8542348884687982
      ]
    },
    {
      "dualCoef": -0.011779024063587358,
      "supportVector": [
        -0.34322253344778653,
        -0.087578958880253729,
        -0.31394536413881929,
        -0.23873980462583613,
        -0.37593074496839846,
        -0.31391613672963337,
        0.49458981629504101,
        0.98857199266049911,
        0.65539759954517185,
        0.71025164405655727,
        0.059681061426540345,
        0.48572059750188512,
        0.53754945666198295,
        0.32629270476014194,
        -0.48688714007844358,
        -0.97100293568286544,
        -0.79619842084875969,
        -0.84560682911756635,
        -0.74528253547298384,
        0.15392485344009538,
        0.31433869153481975,
        -0.015145073777826824
      ]
    },
    {
      "dualCoef": -0.061871843353822918,
      "supportVector": [
        0.061942347517698046,
        1.0803385076008583,
        -0.31190669784797814,
        -0.071641665219792136,
        -0.078020093700123389,
        0.028376163379254842,
        0.7088787433509518,
        0.83993840166004208,
        1.43016425161432,
        0.57856986894626716,
        -0.35343413637629667,
        0.46238583717709442,
        0.31177463928051763,
        0.052398103515738835,
        0.10422500013480369,
        -0.75088595265887514,
        -0.51377244440051673,
        -0.60367834542362797,
        0.050087283714873199,
        1.0863241841996543,
        0.98252270515661533,
        0.93561954109573753
      ]
    },
    {
      "dualCoef": -0.033252524586233442,
      "supportVector": [
        -1.5916313528091504,
        1.2698137811822825,
        7.3504658333256998,
        3.4691949887833222,
        2.0284403499625685,
        6.1517867738161769,
        5.2198938834970852,
        5.0341613392453626,
        0.53448005016175748,
        8.2020529044593946,
        7.2970811709449093,
        5.4396493903299241,
        1.6301281545137916,
        9.343671684135618,
        0.95722233031995807,
        -0.11855763591492256,
        0.64024501113352472,
        0.50100719061016952,
        1.7315624534754182,
        1.7889638049165464,
        2.1434232041058006,
        1.839863119005505
      ]
    },
    {
      "dualCoef": -0.061871843353822918,
      "supportVector": [
        0.82264704808049771,
        1.4120405769039479,
        -0.21261606369247887,
        -1.1582486604999409,
        -1.2508564850544228,
        -0.77033144611477844,
        -0.43597354805052135,
        0.45937037446450263,
        0.40715730418185114,
        -0.1107948356644901,
        -0.55024992065107636,
        -0.44832593430329526,
        -0.85176575820795053,
        -0.56428778175719596,
        0.38272093070586355,
        -0.39957411425976724,
        -1.9959333018979566,
        -0.38624959311507867,
        1.7512385569323241,
        2.7416448711807719,
        2.6544201247094552,
        2.4199433778930497
      ]
    },
    {
      "dualCoef": -0.061871843353822918,
      "supportVector": [
        -0.79072900561075798,
        2.1364431316239787,
        0.23211734381783569,
        0.56536436731590245,
        -0.96512849302287718,
        2.3944591767866692,
        1.5008243100179899,
        2.9033876526425209,
        0.88095339255729477,
        3.7794479629872746,
        3.7606299850416463,
        2.202430281856091,
        0.87132485192884201,
        3.8615839655518225,
        -0.21668999155892738,
        0.53813014133111259,
        -1.8663325176257706,
        3.2673457660696448,
        4.3089886992942708,
        4.1498188076750013,
        2.7539982871381739,
        4.852115466106576
      ]
    },
    {
      "dualCoef": -0.036491802708669904,
      "supportVector": [
        -1.6343945755181792,
        1.6381105384340835,
        -0.11983268371789992,
        7.9503513455930204,
        7.243873861197943,
        5.3999173644024374,
        15.182877215958259,
        17.723789156562056,
        19.440200849710973,
        15.189154907951561,
        9.6544045748714087,
        16.485537010541705,
        17.41438914367928,
        13.585935344293459,
        1.180010884313621,
        -1.2436184839621685,
        -0.82017052169653903,
        -0.45491322319588678,
        2.2965079891731843,
        6.6327234879776462,
        7.1473854501542462,
        4.6166013872396334
      ]
    },
    {
      "dualCoef": -0.061871843353822918,
      "supportVector": [
        0.98619482407930703,
        -0.12707443949425845,
        -0.64658431498858437,
        -0.84776015619696232,
        -0.94704813679183197,
        -0.78339641834699014,
        -0.86996434750258655,
        -0.29811286003753246,
        -0.091329288101459669,
        -0.73010810590731767,
        -1.0324402661026628,
        -0.7377750482232126,
        -0.84343757515337625,
        -0.86368753509556606,
        -0.24610641731026728,
        -0.99742702368001535,
        -1.0565440446209171,
        -0.83602319905298073,
        0.0013830150683760744,
        -0.32234122613657262,
        -0.09250926363418796,
        -0.24038776640771295
      ]
    },
    {
      "dualCoef": -0.061871843353822918,
      "supportVector": [
        0.83469475386388381,
        1.251868128133357,
        -1.3523144718226368,
        -0.8714767041269651,
        -0.62337112643110493,
        -1.3517911529457587,
        -1.0660156225474542,
        0.057861724473475526,
        0.060804292951236905,
        -0.3475991581366436,
        -1.3015589364341611,
        -0.501178343556133,
        -0.68876973261543251,
        -0.86761433501893404,
        -0.034546012972817369,
        -1.2318185472707524,
        -0.71711860549254791,
        -0.94032785823374054,
        1.9667618355731959,
        1.9048610348663564,
        1.128124183217293,
        2.0033556985647145
      ]
    },
    {
      "dualCoef": -0.0010677134389365565,
      "supportVector": [
        -0.97652172030044893,
        2.97039051034543,
        2.2148843536528164,
        1.5925995524449159,
        0.08107366195216148,
        4.2212194762603756,
        0.88781046085481541,
        1.9438341971202526,
        2.3288119371536697,
        1.3751412379983212,
        1.4948959071505044,
        2.1828216118116446,
        0.97699789322648256,
        3.1312999277288318,
        0.12232346166645472,
        -1.2847346680237191,
        -1.2781482878632291,
        -0.60359362130026506,
        2.4986913330471965,
        2.3763209307929443,
        1.4345128554904938,
        3.981552246951205
      ]
    },
    {
      "dualCoef": -0.061871843353822918,
      "supportVector": [
        0.73894161037893413,
        0.64853901632865918,
        -0.76313423868553532,
        -0.43458561993567535,
        -0.50422679858705466,
        -0.77645768006926674,
        -0.95699007902561961,
        -0.43491613128329881,
        -0.47136949788697502,
        -0.61065906991669927,
        -0.50711533067394754,
        -0.59427938969352234,
        -0.77897560550279499,
        -0.49543560277567111,
        -0.61356121339973113,
        -0.28300890774825621,
        -0.48644232112716806,
        -0.22910842740606382,
        0.56535282554689281,
        0.67522015391827817,
        0.46224600678805577,
        1.3188823430140222
      ]
    },
    {
      "dualCoef": -0.033673951111027819,
      "supportVector": [
        1.2553708912450356,
        0.35882936862822751,
        -1.4223564412124938,
        -0.69745236406469791,
        -0.43395484682453922,
        -1.2246959584908037,
        -0.88485987216573547,
        -0.52475110624293431,
        -0.42392790385638135,
        -0.74755209919319987,
        -1.1755505749718116,
        -0.80604037168821707,
        -0.88160193110682672,
        -1.1494092928413753,
        -0.44069834187395851,
        -0.55838723034781879,
        -0.31473701943389076,
        -0.63338584177978374,
        -0.69642998792678168,
        0.18793254136230761,
        0.39859584902622769,
        -0.26129389791322855
      ]
    },
    {
      "dualCoef": -0.061871843353822918,
      "supportVector": [
        1.6031155668473722,
        0.18728543189051827,
        -0.65408698663722831,
        -1.0125934120840741,
        -0.53474321178777084,
        -1.1910138513043993,
        -0.80139149878540294,
        -0.54233844404778886,
        -0.49175216979419512,
        -0.73733294734391031,
        -1.0277440102967514,
        -1.0004472086191947,
        -1.0267395526221674,
        -1.09235261469974,
        0.094784238090382583,
        -0.58295879473255197,
        -0.19789850473405593,
        -0.171911562921606,
        0.01848383858593821,
        0.39896850187721133,
        -0.27385495464990522,
        0.052641049007491315
      ]
    },
    {
      "dualCoef": -0.061871843353822918,
      "supportVector": [
        0.99135969207357644,
        1.4810156211307568,
        -0.25466424674514709,
        -0.59265011283809788,
        -0.14226606416065826,
        -0.68462372841650021,
        -0.67893162754588898,
        -0.45327288982074776,
        -0.54054596056078907,
        -0.57933190687573755,
        -0.79035988431204462,
        -0.69608844978708551,
        -0.50815815184692936,
        -0.84312542766391374,
        -0.28409584330534965,
        -0.43688698225200545,
        -0.27620676040902331,
        -0.23819942587008366,
        0.35395494839399222,
        2.0375084967616592,
        0.91049076962559017,
        1.5070576753486178
      ]
    },
    {
      "dualCoef": -0.061871843353822918,
      "supportVector": [
        -0.05416791820635182,
        3.2461843767484431,
        0.15795909258802024,
        -0.15255589017179585,
        -0.86231612957209369,
        -0.35507647051013425,
        1.4521876245774801,
        0.47639302140262363,
        1.3511774167832116,
        1.2216432968766395,
        0.021514408113452493,
        0.14782803992403107,
        -0.29033116682265647,
        -0.02996027223354885,
        0.043714195396604587,
        0.31099343900541865,
        -0.5061675762950737,
        0.42023695157704299,
        3.0606757140496121,
        2.6386669413907304,
        1.4358883912279321,
        3.3565452067935424
      ]
    },
    {
      "dualCoef": -0.061871843353822918,
      "supportVector": [
        0.45603044159003281,
        -0.42057798978305444,
        -1.1284575445447609,
        -0.58335076287817655,
        -0.38297900328355783,
        -1.1428464149078608,
        -0.064594425288707319,
        0.69905249261060043,
        1.400099727435361,
        0.048635108891761196,
        -0.44203763064030244,
        0.022618570036438756,
        0.38561154237649659,
        -0.4062341604028884,
        -1.3835205318682318,
        -1.0617986509041868,
        -0.75254954276121766,
        -1.271308003449515,
        -0.51977638783828484,
        0.016837048020636868,
        0.15113383417059273,
        -0.26268378386415087
      ]
    },
    {
      "dualCoef": -0.061871843353822918,
      "supportVector": [
        0.88209646589988988,
        -0.47905800965043877,
        -1.3323135970019697,
        -0.92839816315396784,
        -0.79400742355746978,
        -0.82893255229824347,
        -0.091412772736492495,
        -0.10841748608324689,
        0.37724808971729562,
        -0.21569426612506748,
        -0.32974747484471761,
        -0.68764095857797036,
        -0.14534600501741099,
        -0.72261967335908994,
        -0.94522271651174894,
        -0.97507795014295207,
        -0.84040869703566101,
        -0.92161224784216556,
        -0.67917108976038798,
        -0.1598362718426139,
        0.11095497444053835,
        -0.33034020383815854
      ]
    },
    {
      "dualCoef": -0.061871843353822918,
      "supportVector": [
        0.65944752132858286,
        1.1914531218268516,
        -0.29607021544617124,
        -0.99239922533998626,
        -1.5302342859678335,
        -0.61362575272441588,
        0.46634875097031087,
        -0.59730984056625369,
        -0.29309624484928326,
        -0.10196309821512686,
        1.0801389286707028,
        -1.2089288467791268,
        -2.1184447829237905,
        -0.60580885395154871,
        0.8676666230435871,
        0.16279768279127074,
        -0.20804364971867398,
        0.79299454964979632,
        3.3223560179456286,
        -0.087191747428428668,
        -1.8663778875247921,
        1.513456434937311
      ]
    },
    {
      "dualCoef": -0.061871843353822918,
      "supportVector": [
        1.986881040120853,
        -0.94044728781043163,
        -0.098660504133995325,
        -1.3149455149293423,
        -1.2764387383192908,
        -0.86807210123779377,
        0.44145438807106813,
        -0.28162425965292953,
        0.67263082233697269,
        0.082863061247710701,
        -0.058466880260422328,
        -1.2194678280225912,
        -0.94969211492795846,
        -0.49870065893562276,
        -0.62484830587245865,
        0.31127483319953708,
        -0.44009619792816407,
        -0.87841868892013786,
        0.28666678931782302,
        -0.27741792024580625,
        0.011423179978827544,
        -0.0010746550696234276
      ]
    },
    {
      "dualCoef": -0.061871843353822918,
      "supportVector": [
        -0.51831094046335091,
        2.8123220985879431,
        2.0766227517295555,
        -0.15403684851462571,
        -0.73240457328739783,
        0.51688624897008772,
        0.84502631263761496,
        0.20214025365937119,
        0.44397476677177711,
        0.39272566943138393,
        0.77985908707003548,
        0.0312905337059435,
        0.34066529756555303,
        0.15825325669823606,
        0.718119421743182,
        -0.15065202378365322,
        -0.61612255233436364,
        0.0042306201727571784,
        2.1241878345142675,
        2.4713102611598612,
        2.2213505101670745,
        2.3678367792097026
      ]
    },
    {
      "dualCoef": -0.061871843353822918,
      "supportVector": [
        1.0501391481355586,
        -0.52740005972591164,
        0.34616788537286725,
        -1.0558175429145278,
        -0.24956143501319894,
        -0.85789032862458858,
        0.35022962167603805,
        0.40287826498200013,
        0.35901191437983987,
        0.42039532944476377,
        0.62630993806187518,
        -0.53066367978199158,
        -0.70145107707054566,
        0.05265785626682009,
        -0.48477499361371457,
        -0.5426571038727015,
        -1.1701545394670658,
        -0.85540076656630393,
        1.4198604451620989,
        -0.25184980151248249,
        0.77109194679190174,
        0.16756469587207787
      ]
    },
    {
      "dualCoef": -0.061871843353822918,
      "supportVector": [
        2.0029513236938632,
        0.47993752765144548,
        -0.14782785162598014,
        -0.98929377794079132,
        -1.1248781592606352,
        -0.90087200780803867,
        -0.46110782110365062,
        -0.41153646858687504,
        -0.29550147645353347,
        -0.41586703504854616,
        -0.35651430155824915,
        -1.0030018962171388,
        -0.69288486648810788,
        -0.90363605298258109,
        -0.64593408347745707,
        -0.56945516743668578,
        -0.61331098410175489,
        -0.82858285491826655,
        0.075508858591216255,
        0.56318613091529235,
        0.37798897816198934,
        0.22091827316671378
      ]
    },
    {
      "dualCoef": -0.061871843353822918,
      "supportVector": [
        1.4109339292467231,
        0.23346264951633358,
        -0.14693402439944125,
        -1.4280221643249671,
        -1.2698795890472021,
        -1.1479308785096387,
        0.53340230301232039,
        0.43681353511634458,
        0.52367727290842625,
        0.42732458861831712,
        0.40835029735744544,
        -0.77869600622717516,
        -0.95982700723300429,
        -0.30985195339587385,
        -0.706121281432456,
        -0.79860543264572947,
        -1.1200923011907231,
        -1.144105564709178,
        0.8876167967433447,
        1.1114560363153021,
        0.72698132725629305,
        0.92680225783406089
      ]
    },
    {
      "dualCoef": -0.061871843353822918,
      "supportVector": [
        -0.1478408390682279,
        -1.6618378917672081,
        -0.37729465016788483,
        -1.078551115534967,
        -1.3773619365371546,
        -0.9547540054948167,
        1.1636456526470742,
        0.68599327290914902,
        -0.25668405936038408,
        1.0505603681900577,
        -0.11660852717861334,
        -0.3490667470665697,
        0.1130500026655122,
        -0.32445237784412062,
        -0.50528824065639533,
        -1.1507128869277532,
        -0.98810121942845097,
        -0.84747082259449136,
        -0.34669268714860324,
        -0.46760682075334786,
        -0.4304603729282328,
        -0.40342487242785235
      ]
    },
    {
      "dualCoef": -0.061871843353822918,
      "supportVector": [
        1.5988900840391969,
        0.51314991635438123,
        -0.23359614480962429,
        -0.92103690229895063,
        -1.3912584224907241,
        -0.94038604657254188,
        0.86105762814052444,
        -0.23417052974161892,
        -0.8451056284040851,
        0.14245067890637303,
        0.42638391708756507,
        -0.84110365267387022,
        -1.4973072247396675,
        -0.5476302698956157,
        -0.11746152375793205,
        -0.56527209099829623,
        -0.57236432696536665,
        -0.18245499919264793,
        0.12827702659175749,
        0.53638204277721258,
        -0.04027582416852156,
        0.80294711661921314
      ]
    },
    {
      "dualCoef": -0.061871843353822918,
      "supportVector": [
        0.49892294687718158,
        -0.98525514226745969,
        -0.76240313911816193,
        -1.318284804624912,
        -1.2990194245716111,
        -1.1316670024714703,
        0.58474322605947349,
        -0.45884382551899727,
        -0.97287538363874471,
        -0.043191635747891359,
        -0.22396094320069276,
        -1.2319531192862405,
        -1.8136710289816298,
        -0.78246550901260159,
        0.46041714763992603,
        -0.38598788231433562,
        -0.42066563615960817,
        0.55561949834568558,
        0.32718502946422146,
        -0.52977531930249289,
        -0.60765704349725191,
        -0.33153033078398364
      ]
    },
    {
      "dualCoef": -0.061871843353822918,
      "supportVector": [
        1.161058141955019,
        -0.20063112531355645,
        0.08958136389790837,
        -1.1394579649147718,
        -1.1020715298872044,
        -0.76973002237374322,
        -0.63148535366820313,
        -0.38353741144561793,
        -0.15452723279007702,
        -0.38206720288093099,
        0.18567081024271304,
        -1.0492666617731607,
        -1.2935476886771136,
        -0.43650714744425978,
        -0.77335831744787975,
        -1.0518079111304628,
        -0.88337896403125127,
        -0.98615853341832194,
        -0.32945774138055017,
        -0.026345724041294281,
        0.098763855494156033,
        -0.1980016528899399
      ]
    },
    {
      "dualCoef": -0.061871843353822918,
      "supportVector": [
        1.1233196390895572,
        -0.031738033686000804,
        -0.93816570668468557,
        -0.90207384330873508,
        -0.55031954662123905,
        -1.0768341381362616,
        -0.44567378518168466,
        0.051516623355719694,
        0.22665636581662393,
        -0.20576843075288265,
        -0.84463547436985764,
        -0.62695787790533597,
        -0.48933559022926826,
        -0.71534720581992506,
        -0.93130051190802532,
        -1.2539884423747929,
        -1.0230807086475857,
        -1.0931386896262461,
        -0.076696957072341906,
        -0.051645931131331618,
        0.043708963481020276,
        -0.015049812411050514
      ]
    },
    {
      "dualCoef": -0.061871843353822918,
      "supportVector": [
        2.0295990504847463,
        2.7576813508012554,
        -0.81165076235865774,
        -1.1165311024694275,
        -0.94247964962826047,
        -1.1454390582759191,
        -0.65738548829524723,
        -0.49205436681779635,
        -0.45717544236428892,
        -0.73845544921403283,
        -0.58096476019951115,
        -1.0974678515486931,
        -1.3359883701962523,
        -0.74060246905689853,
        -0.40885491332021368,
        -0.86338928877769594,
        -0.58176716514605575,
        -0.72169421160716429,
        0.44983376256270385,
        2.5998222454745692,
        1.540028166175516,
        1.6444120036886531
      ]
    },
    {
      "dualCoef": -0.061871843353822918,
      "supportVector": [
        -0.049931374495412552,
        1.1071582293410123,
        -0.74294999440508191,
        -0.45720398661576672,
        -0.47913761818687162,
        -1.0270587978444352,
        0.060496368315462117,
        0.79685044812928019,
        0.42823631084921138,
        0.50531041660770859,
        -0.28551581401426557,
        0.13192834693978592,
        -0.010284078064621413,
        -0.094435770529279123,
        -0.094181618708357923,
        -0.97778559118019037,
        -1.528515998063815,
        -0.42398514813617799,
        0.62344805644832391,
        1.5451332735580334,
        1.9103711811389354,
        1.3029222056580054
      ]
    },
    {
      "dualCoef": -0.061871843353822918,
      "supportVector": [
        0.55906660643498118,
        -0.19146306616098779,
        -0.63992990224968482,
        -1.0705188743223049,
        -0.96499389690852477,
        -0.94140545781369822,
        -0.16274362772139153,
        -0.16168050374399362,
        0.14387272640669668,
        -0.29101704169476084,
        -0.60789709621043653,
        -0.88650663837749732,
        -0.85151919306387158,
        -0.8445815333033122,
        -0.89058439514155086,
        -0.9968999915684662,
        -0.90593123121753527,
        -1.1180220199970157,
        0.61061258828213705,
        0.022457150088816488,
        0.57288395334472397,
        0.11427565067240232
      ]
    },
    {
      "dualCoef": -0.061871843353822918,
      "supportVector": [
        0.52842404322382264,
        -1.0167692030846314,
        0.65278495756898558,
        -1.2104460500603715,
        -1.1064178027278404,
        -0.83469757912803577,
        0.17331681612098165,
        0.26166783992653564,
        0.24535584315432676,
        0.32331857891756888,
        0.98443756699414731,
        -0.68063701019691814,
        -0.80323992634380526,
        0.047118488435833168,
        0.058347145593057773,
        -1.1820552453368471,
        -1.4036421408570974,
        -0.52927573419151219,
        0.45479640991503978,
        -0.57254007043974531,
        -0.93960495576035652,
        -0.29112832830927332
      ]
    },
    {
      "dualCoef": -0.061871843353822918,
      "supportVector": [
        1.203654382812545,
        -0.34247347992205379,
        0.069596695107021836,
        -1.4918784660674858,
        -1.7816219602996393,
        -0.90663640879100404,
        0.79349535142243166,
        -0.15832216983058298,
        -0.94462600458033208,
        0.43732632741847949,
        0.3210781481464387,
        -1.1229875040572446,
        -1.2719187510019303,
        -0.52016171406067868,
        1.1233042167901088,
        0.30897483175984547,
        -1.4786114101747065,
        -0.18073278472436058,
        0.74932611232067114,
        0.058722968680715824,
        -0.84225216547593118,
        0.54962845009079619
      ]
    },
    {
      "dualCoef": -0.061871843353822918,
      "supportVector": [
        0.12022651695006306,
        0.21528365803429711,
        -0.39823519726802903,
        -0.58040156147843647,
        -1.0372403074657277,
        -0.7678496121675823,
        1.3543838831585793,
        0.35184901445814198,
        -0.2767729862722737,
        0.84598974932874438,
        0.77960549249570688,
        -0.17296006805794117,
        -0.58028510400721167,
        0.22494049577526284,
        -0.15563493458364328,
        0.0072829968829807318,
        -0.71173252204336868,
        -0.58906868164331339,
        -0.11599753689551558,
        0.14670629482647488,
        0.076412700931992927,
        0.14063063552170074
      ]
    },
    {
      "dualCoef": -0.061871843353822918,
      "supportVector": [
        -0.075604600605161415,
        -0.0053115985404563835,
        -0.30187327813532339,
        -0.92401909600838739,
        -0.30596406864624026,
        -0.90040630711415859,
        0.10332871933668956,
        0.71720354747536685,
        0.74117350386816305,
        0.65221121357481904,
        0.040297350914174621,
        -0.14374395128382089,
        -0.2837625236385532,
        0.22962534229618051,
        -0.53525161658614384,
        -1.0251821417023772,
        -0.92352306293106645,
        -1.0488661174175331,
        0.2220433347458742,
        0.024450541596037909,
        -0.1628138825294391,
        0.07121370721744974
      ]
    },
    {
      "dualCoef": -0.061871843353822918,
      "supportVector": [
        0.33794466836820475,
        -1.3956446912551874,
        0.035265356185884618,
        -0.9445130998058805,
        -0.45805709766640895,
        -0.89719092612775575,
        -0.3138151019849304,
        0.097530468757200561,
        0.61466351719347956,
        0.018295992046009207,
        -0.088752961982774187,
        -0.54539643057816378,
        -0.65866577763471612,
        -0.27229245042627143,
        -1.1246346135158845,
        -0.66045538240920421,
        -0.70793510553371186,
        -1.1579472243993829,
        -0.41846175572905003,
        -0.28678897877362425,
        0.19158096906277927,
        -0.35607571864721016
      ]
    },
    {
      "dualCoef": -0.061871843353822918,
      "supportVector": [
        0.48499472428962609,
        -0.54894109650429102,
        -1.0460538578861838,
        -0.89024829729318977,
        -0.75142509791245204,
        -1.1844426627764686,
        -0.83869190861999465,
        0.052410196550974918,
        0.011708964372379796,
        -0.37112044237832276,
        -1.0716110309774609,
        -0.55171417749863538,
        -0.84055918414817943,
        -0.70858930609505422,
        -1.1984497823841647,
        -1.0454503366965808,
        -0.62455024561175987,
        -1.1873195895162758,
        -0.76311244202915518,
        0.15823445257576826,
        0.357142179310728,
        -0.31655351313262392
      ]
    },
    {
      "dualCoef": -0.061871843353822918,
      "supportVector": [
        -0.19555568270593426,
        -1.193705698923841,
        -0.98820918373277689,
        -0.87601226365230311,
        -0.6209220982258542,
        -0.93981817895853059,
        -0.39210635571920877,
        0.43222271171284776,
        0.99120562021438829,
        0.30475401751818421,
        0.56093114994852622,
        -0.28604700469769351,
        0.35024973755058847,
        -0.014284794269090307,
        -0.86519237045879394,
        -0.73905813415788724,
        -0.76463567154167889,
        -1.1297610221809353,
        0.52734912580393623,
        -0.43228551839068369,
        0.099629597435963432,
        -0.20317907963300152
      ]
    },
    {
      "dualCoef": -0.061871843353822918,
      "supportVector": [
        1.7021888886725454,
        0.068166312550000954,
        0.34795455306880635,
        -0.75345542190401116,
        -0.61741949942520247,
        -0.243814883259792,
        -0.34369296141948125,
        -0.48929298559960682,
        -0.099319812952042105,
        -0.39013879714451788,
        -0.20254269331307384,
        -0.84774360164664331,
        -1.1336264254605799,
        -0.58830887279319932,
        -0.65913118621056521,
        -0.037449831047724209,
        -0.51126120475743153,
        -0.88954632688664925,
        0.51757515451597358,
        -0.035988229370812523,
        0.14517518520397124,
        0.10531357441248577
      ]
    },
    {
      "dualCoef": -0.061871843353822918,
      "supportVector": [
        2.482914086113345,
        2.059444481466207,
        0.99249052011896111,
        -0.41423881928459017,
        -0.48662216920475582,
        0.019935457038113408,
        0.62157960389069389,
        -0.96382979845778938,
        -0.51218965087425639,
        -0.2469327140217408,
        0.85608760321580235,
        -0.96081007138096941,
        -0.83211104519618306,
        -0.38139301882820698,
        1.3028413711200486,
        0.74275266453612609,
        0.077658334220057551,
        1.4752907417618999,
        1.1844860220557893,
        0.43029028464681401,
        1.6844021876999848,
        0.58211411913052935
      ]
    },
    {
      "dualCoef": -0.061871843353822918,
      "supportVector": [
        -0.18881038502195849,
        1.9208336208218488,
        -0.55540700010124278,
        -0.22068916746982922,
        -0.11170110941277195,
        -0.27998927341385965,
        -0.59493018898015571,
        -0.26495289902034735,
        -0.30996068208723732,
        -0.16410033731638274,
        -0.38286948923696179,
        -0.34711074412077314,
        -0.4927240022793955,
        -0.12128045288637113,
        -0.77158870823836512,
        -0.30335898359435715,
        -0.23937088468282716,
        -0.59425917297631436,
        1.8768978441361659,
        1.4492924757874011,
        1.5629885882494174,
        1.6479279209596691
      ]
    },
    {
      "dualCoef": -0.061871843353822918,
      "supportVector": [
        0.88526941510234014,
        2.7471918637776631,
        -0.19986898560384678,
        -0.3176686904674168,
        -0.94962031586552387,
        -0.61454294531867115,
        -0.43853187424538842,
        -0.58432540704500846,
        -0.56362291033544276,
        -0.50848440887491198,
        -0.039423861277863029,
        -0.63162386066073439,
        -0.96609209016271957,
        -0.32841332688520164,
        -0.74751923864226799,
        -0.39555510955535123,
        -0.46983896040122491,
        -0.57381374046301059,
        2.3337793578318506,
        1.3504805262658972,
        1.5661604923531069,
        1.60108752779764
      ]
    },
    {
      "dualCoef": -0.061871843353822918,
      "supportVector": [
        -1.830271795075795,
        -0.68369367017566041,
        0.83592354723120976,
        -0.27696051351385048,
        -0.27919788905875509,
        0.013972075244071722,
        1.6373690014373505,
        2.1057828765623428,
        1.9638823332031743,
        1.8551781402288039,
        0.95622727344210801,
        1.1112970202420314,
        0.2729846247154627,
        1.3508235921558596,
        -0.16930786259769998,
        -1.346235630910104,
        -1.1372560288364062,
        -0.93156817402081005,
        -0.29457244685981943,
        -0.45428768323419277,
        -0.82986516426289647,
        -0.37246148042884136
      ]
    },
    {
      "dualCoef": -0.026516504294495528,
      "supportVector": [
        -2.6005234944442819,
        0.47265374800054905,
        10.704198834486416,
        7.7014244210066325,
        6.0246544588273823,
        10.998269087776952,
        9.0710216266594834,
        5.9543226124034208,
        2.1215580582552755,
        9.9143397851456907,
        11.20912662332667,
        8.7005189795936584,
        5.7640401378266564,
        12.72012661672869,
        0.61523525981613381,
        0.57725085188003089,
        1.2473480068368197,
        0.65840929611091603,
        1.6402303119559367,
        0.82600956285908111,
        0.63803485506488933,
        1.4513250237804016
      ]
    },
    {
      "dualCoef": -0.016044456329360773,
      "supportVector": [
        -1.6376889387371651,
        0.011915440238037497,
        7.8648300471619201,
        5.0411368464683095,
        5.1220149483164921,
        6.9274329327510022,
        6.6156265328308335,
        4.0734412729329073,
        2.7556040538440327,
        5.8097821307165303,
        7.7695182919020587,
        5.4219669828387653,
        5.0200047805802201,
        7.3715257546204338,
        -0.06868188543565748,
        0.16511231528170986,
        -0.074246851854919249,
        0.56294242380137449,
        -0.25906663380744976,
        -0.24107853189549058,
        -0.21495579174083707,
        -0.096964430649420327
      ]
    },
    {
      "dualCoef": -0.061871843353822918,
      "supportVector": [
        -0.17646066365997215,
        1.1432169932141081,
        -0.20681965245165346,
        0.20871907484634006,
        -0.18719473895780886,
        -0.38493253374539349,
        0.55460230025414403,
        1.1131584607177614,
        0.55189861030809073,
        1.0744038796595878,
        -0.028795589705804918,
        0.68066989690137447,
        -0.10847538150789796,
        0.13081447262975252,
        0.64849626741183641,
        -0.44169325072023669,
        -0.39678124352179484,
        -0.32784359761838494,
        1.4242613863146754,
        1.9088358187866827,
        0.56850421612399826,
        1.9880648571804238
      ]
    },
    {
      "dualCoef": -0.061871843353822918,
      "supportVector": [
        1.9006216616730973,
        6.1557303478233436,
        -0.6392006763908652,
        -1.2910230561045308,
        -1.381188535800612,
        -1.2561175768906272,
        -0.21776877300312225,
        -0.83820645238250868,
        -1.0557230450502533,
        -0.49633379991374327,
        -0.88942236947096853,
        -1.3332724986941327,
        -1.5640072179261846,
        -1.3601901146766258,
        0.95784109565553177,
        0.18536454375425532,
        -1.2031849215933328,
        0.14831286822917955,
        1.967972721392351,
        8.0923133574170087,
        9.8444614607914911,
        5.3862944862904065
      ]
    },
    {
      "dualCoef": -0.061871843353822918,
      "supportVector": [
        0.35797662498850874,
        0.22218349913169091,
        -0.21664376296027069,
        -1.0137039403224715,
        -0.74276906038508983,
        -0.83684807170994713,
        -0.40550931019077452,
        0.6293190253905161,
        0.98709725729577413,
        -0.0080921254657463585,
        -0.26632002849141867,
        -0.32735932565353892,
        -0.13785970353670091,
        -0.39541012764356359,
        -0.69281657952058706,
        -1.0084554741603913,
        -0.78679031924215992,
        -1.0759924329512427,
        0.11046205884719767,
        0.1543036894732821,
        0.20897986857324391,
        0.26653412335685162
      ]
    },
    {
      "dualCoef": -0.035461547421342998,
      "supportVector": [
        -2.6902370527396462,
        -0.47491201393510674,
        7.2497092508729066,
        3.1149137826643902,
        -0.027180191466194482,
        6.5036795814496466,
        17.580999597296806,
        12.450372061719721,
        0.53499392836743376,
        17.25414833708173,
        15.992755465731847,
        10.345592547068334,
        -0.93388234749002486,
        15.856583267633299,
        0.158248440417039,
        -1.1266175602678052,
        -1.3406775206048673,
        -0.41434999863737576,
        -0.29714561353791707,
        -0.46242230278940594,
        -0.07312595858140554,
        -0.41098123096317529
      ]
    },
    {
      "dualCoef": -0.061871843353822918,
      "supportVector": [
        2.1718770094739797,
        0.057411874579120017,
        -0.17485034634335467,
        -1.2886573318478824,
        -1.447565554303387,
        -1.0931943174821883,
        -0.22489439610599132,
        -1.0290727413353229,
        -1.4219498484161521,
        -0.58025097202873566,
        -0.34712858160725985,
        -1.5526577184310741,
        -1.2644631550604011,
        -1.0785525114721044,
        -0.29627607367761388,
        0.35123086386435826,
        0.079838025803022364,
        0.15334875784740817,
        -0.012545881910227747,
        0.091139913550926224,
        -0.29150443713853091,
        -0.028887778421956656
      ]
    },
    {
      "dualCoef": 0.026516504294495528,
      "supportVector": [
        1.2946907711425868,
        1.8259092399834811,
        -0.49837039740485606,
        -1.5367776957596757,
        -1.4245803475349819,
        -1.3243403779810292,
        0.17110166947399297,
        0.17859390706553557,
        0.92145828262803209,
        0.085637002510768515,
        -0.19611662593600862,
        -1.055952429998001,
        -0.56673942749121131,
        -0.72990091047269001,
        0.25841503320816173,
        -0.68432301978882593,
        -0.76378030409586506,
        -0.31986423979124262,
        2.5704500224455593,
        3.541695068186109,
        1.5424277381698328,
        4.3095712141366107
      ]
    },
    {
      "dualCoef": 0.026516504294495528,
      "supportVector": [
        -0.5017959711252109,
        0.10620642447839472,
        -0.47968478443302126,
        -0.027586096629996622,
        0.0059177492923297888,
        -0.13812167848781945,
        -0.37564170831550131,
        -0.036319934253697846,
        -0.32937550149531919,
        -0.27012136348813537,
        -0.31403138080151133,
        -0.01467384491114832,
        0.18228905350529867,
        -0.19396855704074628,
        1.0376300562520471,
        -0.070644934898957332,
        0.19058763247597577,
        0.32323809068203818,
        -0.2513310469432164,
        0.21658464882991391,
        0.48158576962878752,
        -0.023331693461699762
      ]
    },
    {
      "dualCoef": 0.026516504294495528,
      "supportVector": [
        -1.3604114893707941,
        0.46149508539563205,
        -0.99672259708612099,
        -0.31412293969043337,
        -0.25955797998628344,
        -0.83585344982546461,
        -0.23814355837091064,
        1.148131422324866,
        1.9496024617217598,
        0.37456035430472712,
        -0.47777978209468469,
        0.60070139840900083,
        1.0140903278869275,
        -0.11645512461684904,
        -0.75713023084374387,
        -1.0481047089286399,
        -0.87662048556436756,
        -0.88364180636690604,
        -0.68547113992382658,
        1.3264243046920525,
        1.6559604940798476,
        0.41035250863962286
      ]
    },
    {
      "dualCoef": 0.026516504294495528,
      "supportVector": [
        -0.88412199826383009,
        0.31863391738407282,
        -0.60223642636178421,
        -0.40266488205291573,
        -0.59490837248117601,
        -0.60287950282409541,
        0.41390353962222498,
        1.446743090734061,
        1.3229672629239726,
        1.0704065096468618,
        -0.0911453335469007,
        0.75241440767436685,
        0.98769575129864673,
        0.56210329637424261,
        -0.65384386301977993,
        -0.83810956005359405,
        -1.0067207600164281,
        -0.86709915918371561,
        0.079589301715621105,
        0.90283963358524399,
        0.69371665573382313,
        0.52513235056839302
      ]
    },
    {
      "dualCoef": 0.026516504294495528,
      "supportVector": [
        -1.7087045728653338,
        1.1380522847751458,
        -0.88945055618289437,
        0.020484050931721568,
        0.019051045088081611,
        -0.27830645313243446,
        0.16866194354686315,
        1.3061614678796247,
        1.6060044906479782,
        0.76188307079587347,
        -0.280033595426318,
        0.97884717457939807,
        1.1410649257524328,
        0.48943766424418139,
        -0.5265781040337133,
        -1.0260868356237989,
        -0.86055929860172731,
        -0.82783071297539212,
        -0.18696505369464358,
        1.8403478279476333,
        2.1734353751766742,
        1.1064857349523689
      ]
    },
    {
      "dualCoef": 0.026516504294495528,
      "supportVector": [
        -1.2297738246660195,
        0.40642574101629758,
        -0.4749741165010965,
        -0.58413930620256993,
        -0.52042934324537948,
        -0.019051231881953713,
        0.23484490013674444,
        1.7368807279174159,
        2.6713738923536314,
        0.98299714130935023,
        0.35846690081945926,
        0.82023432258096296,
        1.2733438555540424,
        0.5595799060142107,
        -0.95625414100045725,
        -1.4821009565461871,
        -1.2806651230680646,
        -1.3206387042507073,
        -0.23640388553821251,
        1.4436531109169715,
        1.5932044538606573,
        0.53761215094894843
      ]
    },
    {
      "dualCoef": 0.026516504294495528,
      "supportVector": [
        0.97137750839744808,
        2.2351482511814957,
        -0.84198614204765165,
        -1.5150114376526524,
        -1.4651333805941007,
        -1.7911608085956865,
        0.77658662053650529,
        0.75485953996684096,
        0.92073985098051758,
        0.78862715963817898,
        -0.02941198059357367,
        -0.60578354142485646,
        -0.6127364230677842,
        -0.36939212738584271,
        0.17216336428118681,
        -0.98621978700735013,
        -1.2407000718171171,
        -0.57751156105346935,
        3.2671526729804898,
        3.3121411514886523,
        4.1382517302060284,
        2.9312609105474485
      ]
    },
    {
      "dualCoef": 0.026516504294495528,
      "supportVector": [
        1.3869434929905622,
        2.9325490611463074,
        -0.30211925447289911,
        -1.5584049980956294,
        -1.5387544483175153,
        -1.5024466641098331,
        -0.099581532300718464,
        0.33331325486903629,
        0.33484349826654269,
        0.12449990730407751,
        -0.096489612721791934,
        -0.94445016073029053,
        -1.5090248548542287,
        -0.72575274834345449,
        0.15723793492695751,
        -1.0949670690248239,
        -1.2892810491012623,
        -0.44144525599147033,
        2.6503579773777308,
        3.5047562180098262,
        3.7360918416795914,
        2.9893969583894435
      ]
    },
    {
      "dualCoef": 0.026516504294495528,
      "supportVector": [
        0.07876165174720047,
        2.5737086047755731,
        -0.90033256033535902,
        -1.3692666882085671,
        -1.4675053162664276,
        -0.99674972933863559,
        0.92047374463131104,
        1.1979571290341342,
        1.2354462401172912,
        0.94959887545845401,
        0.9578181421429055,
        -0.17552484157299364,
        -0.29407081913617811,
        0.10884184065398218,
        -0.27491681203842305,
        -1.534278311229478,
        -1.4797096847898825,
        -0.95490193712661864,
        2.0650164492543737,
        4.0695778601392902,
        4.7979516595912042,
        3.3023343402735166
      ]
    },
    {
      "dualCoef": 0.026516504294495528,
      "supportVector": [
        0.97128990281232441,
        0.18126977863893537,
        -0.20857995455417944,
        -1.4363426334719334,
        -1.1296078238487068,
        -1.2424214602306518,
        0.12055725612372817,
        0.64506025853130267,
        0.52951709909948164,
        0.38572376013081849,
        -0.65329518422625354,
        -0.62417164784731183,
        -0.8861699829499855,
        -0.74086438630506679,
        -0.096945059883420504,
        -1.0983258318984717,
        -1.1869827716727135,
        -0.40164833966436914,
        0.17209045259650302,
        1.0776336396578921,
        1.6356825426882906,
        0.7045752412226256
      ]
    },
    {
      "dualCoef": 0.026516504294495528,
      "supportVector": [
        0.48800658672353847,
        0.079522071907917657,
        0.02111476164681296,
        -0.68537834168698586,
        -0.71958850039077815,
        -0.33666358403263963,
        -0.085745174284474882,
        0.14406767516375188,
        0.87515114155515783,
        -0.14703106552313711,
        -0.58455896560720844,
        -0.39807946840439795,
        -0.57464648759596548,
        -0.6241790149136841,
        0.68892035264558071,
        -0.30931967012163059,
        -0.44806071549435739,
        0.75599741416435828,
        -0.32813705218720157,
        0.22564641368643837,
        0.48288402823835896,
        -0.09856551911365978
      ]
    },
    {
      "dualCoef": 0.026516504294495528,
      "supportVector": [
        -0.0022601984987531054,
        -0.03022292049271047,
        -0.53325402249798337,
        -0.87862506809794938,
        -0.54938209662882986,
        -0.94470039278406481,
        0.058895599411725133,
        0.92262978302183896,
        0.92436071768484751,
        0.63263691441422953,
        -0.61117001414089034,
        0.085443303941017471,
        -0.063514957099614272,
        0.01297895313222266,
        -0.57959093687689123,
        -0.89422682100851625,
        -0.65277780424924514,
        -0.84287247364459539,
        -0.15380808442799104,
        0.47553341490681761,
        1.0560378921085971,
        0.062900839574371842
      ]
    },
    {
      "dualCoef": 0.026516504294495528,
      "supportVector": [
        0.92746838293056533,
        0.079149915356716269,
        -0.7769389508908231,
        -1.2819622453571669,
        -1.079514504259105,
        -1.1896240089482917,
        -0.43313461585737234,
        0.60531377275540654,
        0.6485500936427756,
        0.12421193803484559,
        -0.35497601908045578,
        -0.52119257034176358,
        -0.059813427541050741,
        -0.60986438021266742,
        -0.63732019850011035,
        -1.0999754077953556,
        -0.8265465848130964,
        -1.0229635430913484,
        -0.21174663115588044,
        0.6375850831817097,
        0.83407398978232083,
        0.3080147012996593
      ]
    },
    {
      "dualCoef": 0.026516504294495528,
      "supportVector": [
        1.1676375465300306,
        0.63189659747370974,
        -0.74904843140711164,
        -0.2629118081682093,
        0.24358694226679498,
        -0.52500544583299291,
        -0.73799734456832711,
        -0.77197260339755236,
        -0.54956715328108363,
        -0.6794913784325094,
        -0.80131764228145153,
        -0.73170010202319447,
        -0.80470936640974045,
        -0.82868304150371941,
        -1.0242093274273558,
        -0.17041658290942532,
        0.14804486051288482,
        -0.29433804819624498,
        -0.74752730213293583,
        0.5503844077556026,
        0.29960966344317147,
        -0.0084527174513311359
      ]
    },
    {
      "dualCoef": 0.026516504294495528,
      "supportVector": [
        0.78551402746338983,
        0.19043600448560549,
        -0.93622334277981956,
        -0.39834323380527548,
        -0.42855917617500811,
        -0.73643317018714161,
        -0.47211640179644426,
        -0.074912588741692224,
        -0.12817546770935245,
        -0.35169482552467624,
        -0.89522719527751349,
        -0.3331443238005079,
        -0.49381593823385295,
        -0.79761974613917896,
        -0.95177032639559089,
        -0.7966845139312515,
        -0.51493763966737893,
        -0.93961824256314597,
        -0.69206248004380877,
        -0.015438304331764529,
        0.049758055453906692,
        -0.39454291491139731
      ]
    },
    {
      "dualCoef": 0.026516504294495528,
      "supportVector": [
        0.015041306395883631,
        1.3821341400546823,
        -0.44149567486821067,
        -0.71877050347734217,
        -0.7009429128870035,
        -0.73266727566812373,
        -0.58248450440940092,
        0.6133597066661427,
        0.87027790363985191,
        0.010952481800582581,
        -0.46869936284353125,
        -0.076084979499707356,
        0.24725236453204544,
        -0.42073339674815247,
        -1.2009798752672953,
        -1.1280801525801745,
        -0.84734276718003521,
        -1.1041048019080293,
        -0.082092687405280959,
        2.2315414964316291,
        2.4171808347705976,
        1.1916757092340746
      ]
    },
    {
      "dualCoef": 0.026516504294495528,
      "supportVector": [
        1.150031957514472,
        1.0811218671737299,
        -0.45943863927544853,
        -1.3492813970955726,
        -1.3317258157063343,
        -1.2898404894903783,
        -0.1751870301910366,
        -0.059755198794332574,
        0.025936452379618155,
        -0.1168989897310833,
        -0.44850475345594298,
        -1.0131235749698142,
        -1.1896373588375566,
        -0.86521443358218342,
        -0.79922057962440007,
        -0.80145055607334625,
        -1.1032460728676998,
        -0.87806954402751947,
        0.62419032434162169,
        1.7144873163193848,
        1.6968005469071117,
        1.0690701014488022
      ]
    },
    {
      "dualCoef": 0.026516504294495528,
      "supportVector": [
        0.38285938830891197,
        2.0941974192265622,
        -0.1342332705309886,
        -0.91379631918048698,
        -1.0569838372869604,
        -0.43075446722012051,
        0.019927267721184975,
        0.4655564817904479,
        1.2249054967417998,
        -0.0017141404979909489,
        -0.37780847926066996,
        -0.32369279369401505,
        -0.2868986276157674,
        -0.20782064422620586,
        -1.091294830554183,
        -1.0535447971622118,
        -0.8940067610464536,
        -1.1035225143911063,
        0.44568174241852371,
        2.682579364063415,
        2.7946476170631578,
        1.9232126345465936
      ]
    },
    {
      "dualCoef": 0.026516504294495528,
      "supportVector": [
        1.1320432331371173,
        2.8564222984933596,
        0.041468274096145362,
        -1.3035441713615075,
        -1.6207255897975761,
        -0.84847062420200581,
        0.66846690942806752,
        0.55967460597322471,
        0.36944764396450386,
        0.94644835914191872,
        0.56434648178127478,
        -0.53982105910766653,
        -0.3813078340324248,
        -0.16476877771636592,
        -0.10021913073794526,
        -0.75779760197941781,
        -1.119599492018776,
        -0.65973702626710351,
        4.0442718546382288,
        3.0203492884468743,
        1.8956725462909698,
        3.6942903643750946
      ]
    },
    {
      "dualCoef": 0.026516504294495528,
      "supportVector": [
        1.8676409709096937,
        2.0943666473730054,
        -0.68175792619550868,
        -1.0752299165996644,
        -1.0915554080006116,
        -0.89724399225511708,
        0.55137754634393676,
        -0.60231630900024058,
        -0.54822700989676365,
        -0.08451604490983966,
        -0.13326933284946929,
        -1.2025603851416853,
        -1.5989575344201745,
        -0.69991721313322275,
        -0.50395989076128234,
        -0.18062086908326336,
        -0.54197324608157482,
        -0.48939777279322799,
        3.1292218987694214,
        2.1423739279404548,
        1.1106882552382489,
        2.8305610743256753
      ]
    },
    {
      "dualCoef": 0.026516504294495528,
      "supportVector": [
        1.4641112465535617,
        1.382516954339422,
        -0.17173201029710145,
        -1.2623852773780833,
        -1.5198188452573158,
        -1.1319758968304254,
        0.6197194381083948,
        -0.013317605891307403,
        -0.57262890280894729,
        0.12421218404487529,
        -0.1826013875565814,
        -0.91309682151984539,
        -1.0864883036747344,
        -0.96254635761427432,
        -0.0050748161181074477,
        -0.49059441961572053,
        -0.88110456402694226,
        -0.21501279285239558,
        0.42346131832879397,
        1.2409360182050115,
        0.50361884677117164,
        1.4392777079947234
      ]
    },
    {
      "dualCoef": 0.026516504294495528,
      "supportVector": [
        1.7815303497673904,
        1.1458364275253299,
        -0.45802921275319802,
        -1.442256209205437,
        -1.4534205202183703,
        -1.3747427489957529,
        0.2207024382397528,
        -0.20543231776951348,
        0.12313750129448635,
        0.093248268620845898,
        0.25666912406199904,
        -1.167591631526667,
        -1.4684413345056571,
        -0.47514252898556103,
        -0.36535692765307859,
        -0.7935406095012727,
        -0.6202457510450865,
        -0.55674122472271514,
        1.5483814944574414,
        1.571436650277831,
        0.42009032969212229,
        1.5053808280637211
      ]
    },
    {
      "dualCoef": 0.026516504294495528,
      "supportVector": [
        0.25430700696557196,
        0.49593492487453977,
        -0.82757685188595254,
        -1.0160299168846467,
        -0.89125995795756141,
        -1.1283478854355191,
        0.081726417918796868,
        0.20809504444253171,
        0.24364369189316223,
        0.056828041034003185,
        -0.12686616412148041,
        -0.57337356375518589,
        -0.82803178872976446,
        -0.32185900706099713,
        -0.66146865656505482,
        -0.17273756641020954,
        -0.64716174693101425,
        -0.75456648172801588,
        0.71401056886007819,
        0.89242458830098659,
        1.1911900138670231,
        0.90981400139262125
      ]
    },
    {
      "dualCoef": 0.026516504294495528,
      "supportVector": [
        1.0152835634550941,
        0.43062988124253559,
        0.18673219620201686,
        -1.3997469593068421,
        -1.3345268694645069,
        -1.1502390631415309,
        0.73564502002793786,
        0.35087951395404243,
        0.97116354584852216,
        0.41285231562996616,
        0.05405781473835844,
        -0.7455638325098437,
        -0.5290980694129529,
        -0.29204408533974952,
        -0.57594521456128644,
        -0.76999989365746291,
        -1.151763040281049,
        -0.89943309882578582,
        0.14578190245115336,
        0.48112127265084387,
        0.33724551050949586,
        0.22754346770631709
      ]
    },
    {
      "dualCoef": 0.026516504294495528,
      "supportVector": [
        -0.20708649133619003,
        -0.0089432084712579955,
        -0.69445421012516939,
        -0.7955774454526513,
        -0.71590514197950839,
        -0.93855073206779849,
        -0.31135482023201555,
        0.97615406225438028,
        0.99092426958286761,
        0.11645677314165237,
        -0.14917805961798788,
        0.1229265456784548,
        0.0005533909305201727,
        -0.34816806435325648,
        -1.073531741539183,
        -1.2079922990715741,
        -0.87876802633255569,
        -1.0917742832076456,
        0.33219998904675863,
        0.19067162113440514,
        0.37927734789788403,
        0.30339197075562352
      ]
    },
    {
      "dualCoef": 0.026516504294495528,
      "supportVector": [
        0.15867067182861933,
        0.013492844047688307,
        0.46822207470315608,
        -1.0685192045125338,
        -0.95671988478924963,
        -0.81560519674323706,
        0.3640180687265856,
        0.35936205307867652,
        0.45609103188821826,
        0.47431210823270931,
        0.6924881068096479,
        -0.50196618771211921,
        -0.08327852439774748,
        -0.041656090221146323,
        -1.0779634078819147,
        -0.92604419364374035,
        -1.000904591851153,
        -0.99081626989160443,
        0.445284601367614,
        0.0013665054486846908,
        0.0028290480289371433,
        0.074469209348206847
      ]
    },
    {
      "dualCoef": 0.026516504294495528,
      "supportVector": [
        -0.93052003494722557,
        0.19237450705054443,
        -0.26553930014393395,
        -0.57048520854786255,
        -0.24840487420102045,
        -0.42691020525643342,
        1.3980205130169683,
        2.2851460083081871,
        3.1083186708651609,
        1.4760709194299679,
        0.62305187661874184,
        1.2100805379428559,
        1.5297731355613606,
        0.98706766821278369,
        -0.86084697741046623,
        -1.3252808296670548,
        -1.0766065256636674,
        -1.1096936603235676,
        -0.40131933807045583,
        0.6927270785756604,
        0.96762339257500263,
        0.24465960373698692
      ]
    },
    {
      "dualCoef": 0.026516504294495528,
      "supportVector": [
        0.93977683253300848,
        1.5116852419963938,
        -0.41282928944976599,
        -1.1308759929496712,
        -0.78170282208214159,
        -0.97702269179433943,
        -0.19862073500914559,
        0.23719495696573537,
        0.038414970310976328,
        -0.18175445458464107,
        -0.060443333943090212,
        -0.68741164974870161,
        -0.54876690357613778,
        -0.54411030064688259,
        -0.75137224082725174,
        -0.8519355224117855,
        -0.48554853868080766,
        -0.75415784824263743,
        0.56137345079563639,
        2.2192395469123083,
        1.152136298658436,
        1.412385735648521
      ]
    },
    {
      "dualCoef": 0.026516504294495528,
      "supportVector": [
        0.51795112307519031,
        1.3508021185445538,
        -0.87974858196012751,
        -1.405541762743949,
        -1.1309178677761427,
        -1.3020656076427415,
        -0.1854683354541691,
        0.83373470552378903,
        0.86241338959201264,
        0.37746002013994601,
        -0.3914374607109527,
        -0.45965794271125654,
        -0.63402330268217033,
        -0.38757699279455687,
        -1.2133605822241087,
        -1.4235693345795135,
        -1.023904757402885,
        -1.3716464459789046,
        0.54585558336371875,
        2.0262060260967929,
        2.3789295866150608,
        1.5320382101865786
      ]
    },
    {
