{
  "bias": [
    0.22483999536694399,
    0.83023166548216476
  ],
  "intercept": -0.4692394679412224,
  "kernel": {
    "parameters": [
      {
        "name": "gamma",
        "value": 0.0013810679320049757
      }
    ],
    "type": "rbf"
  },
  "modelName": "cStress",
  "modelType": "svc",
  "normparams": [
    {
      "mean": -0.20650372937474318,
      "std": 0.9258213522025005
    },
    {
      "mean": -0.40661262940585174,
      "std": 0.80625141631807562
    },
    {
      "mean": 0.58231815652329078,
      "std": 0.30133048264069573
    },
    {
      "mean": 0.1875136125023201,
      "std": 0.50571253830625551
    },
    {
      "mean": 0.13452165496572951,
      "std": 0.56234887506300801
    },
    {
      "mean": 0.902420189199584,
      "std": 0.71332474904231036
    },
    {
      "mean": 0.58800444421067299,
      "std": 0.43477448390819817
    },
    {
      "mean": 0.063473455323235325,
      "std": 0.49902223152260311
    },
    {
      "mean": -0.022929202422712111,
      "std": 0.45940716059126735
    },
    {
      "mean": 0.80629242745352514,
      "std": 1.0066970800218171
    },
    {
      "mean": 0.61209941038616134,
      "std": 0.40285066777137551
    },
    {
      "mean": 0.17232694712200361,
      "std": 0.49180668549719675
    },
    {
      "mean": 0.16249070391421455,
      "std": 0.46613943745193087
    },
    {
      "mean": 0.92160312526593124,
      "std": 0.87294717495778407
    },
    {
      "mean": 0.34262650936149569,
      "std": 0.2037780206789887
    },
    {
      "mean": 0.073558119581617482,
      "std": 0.35279710179966328
    },
    {
      "mean": -0.10820180910361199,
      "std": 0.31333126636828623
    },
    {
      "mean": 0.47252798741625096,
      "std": 0.55972888891986672
    },
    {
      "mean": 0.32806388096880912,
      "std": 0.31267631264201884
    },
    {
      "mean": -0.25355977632295029,
      "std": 0.41580380404739936
    },
    {
      "mean": -0.32857429892433698,
      "std": 0.39635838865187972
    },
    {
      "mean": 0.14237355155007561,
      "std": 0.73822831445207648
    }
  ],
  "probA": -11.464415304800381,
  "probB": 5.698044371373082,
  "support": [
    {
      "dualCoef": -0.012500000000000001,
      "supportVector": [
        1.5316428229289933,
        -1.165619721616441,
        0.54927676995462349,
        -0.6179173788478679,
        -0.40134801282734267,
        -0.26676988355908404,
        0.43347152824624574,
        -0.95604308320131914,
        -1.4367707060242527,
        -0.28615286007355012,
        0.88457843360071209,
        -1.062001604659395,
        -1.1711919815610345,
        -0.29307579387542831,
        -0.15029775304101886,
        1.632368458412669,
        0.089356567521481814,
        -0.031190641713773535,
        -0.051945039319930261,
        -1.3484956914781017,
        -1.2076206860908432,
        -0.86867229555681025
      ]
    },
    {
      "dualCoef": -0.012500000000000001,
      "supportVector": [
        -0.79367343259893153,
        -0.5439780448123287,
        0.83329935353057749,
        0.15571226473956101,
        0.38335673676156035,
        0.56145091028034277,
        -0.4679662376896026,
        0.53647551247870962,
        0.47815968373269013,
        0.41932091086261963,
        0.35051360168736528,
        0.43335495562701193,
        0.84310916894393817,
        0.63873931676153051,
        -0.28950592268735914,
        -0.74827334550600355,
        -0.16525812807779677,
        -0.55231629440824836,
        -0.22641621648502294,
        -0.65864855197765215,
        -0.41897657000182031,
        -0.42615425721415379
      ]
    },
    {
      "dualCoef": -0.012500000000000001,
      "supportVector": [
        -0.76001598829565886,
        -1.1056427674438634,
        1.0878007295090322,
        -0.37197687291352727,
        -0.2765050013387666,
        0.71894972593843709,
        0.38486186564544556,
        0.1353660571803941,
        0.58106245939226753,
        0.39483428941303805,
        0.66575678671092664,
        -0.1789637573705353,
        -0.18226988516590578,
        0.3907252091243521,
        -0.51988622985733279,
        -0.74127309901453831,
        -0.23107918215449741,
        -0.62056296035409175,
        0.050368834787725116,
        -1.0322774715903689,
        -0.51209621388720616,
        -0.67982154042077059
      ]
    },
    {
      "dualCoef": -0.012500000000000001,
      "supportVector": [
        0.20819081265442968,
        -0.65632987990505021,
        -0.11276174378161981,
        0.17241744014410584,
        -0.26704761972944557,
        0.21288827516968342,
        0.50571730352744859,
        -0.49087927111085483,
        -0.72948521483938855,
        -0.38143330136540371,
        0.010808354457591519,
        -0.23018474119036042,
        -0.18193302596325642,
        -0.31855460435901056,
        0.034385529961044506,
        0.55068783710595248,
        0.4102338258099083,
        1.1550437200326047,
        -0.1306641318643931,
        -0.86640089302365908,
        -0.61059393428411035,
        -0.50522221998750749
      ]
    },
    {
      "dualCoef": -0.012500000000000001,
      "supportVector": [
        1.4873931918881369,
        -0.43466814604203241,
        0.57638470178471557,
        -0.090111717919509282,
        -0.49363951997893069,
        0.3635518386621906,
        -0.07681751248869835,
        -1.5449181176674105,
        -1.3176923209021836,
        -0.8356108838512406,
        0.47028184547719565,
        -1.0751573522660862,
        -1.4005853657813778,
        -0.61400293740153988,
        0.86507174451731761,
        1.6650169098928669,
        1.2445233794452166,
        1.4819903120160387,
        -0.27585098693392712,
        -0.91209658742526145,
        -0.60777405230833981,
        -0.73885390026509823
      ]
    },
    {
      "dualCoef": -0.012500000000000001,
      "supportVector": [
        0.57464867352953697,
        -0.50973174784622521,
        1.2086193834973873,
        -0.38955887357618851,
        -0.21918485151685707,
        0.2985306176656955,
        0.32640703872455756,
        -0.40695487838900707,
        0.0098809294310130899,
        -0.27390903712305714,
        0.87890270669782289,
        -0.54152516375328275,
        0.067914953123974359,
        -0.10355977038711163,
        -0.25988634332241917,
        -0.55241666742150464,
        0.14264393220762323,
        -0.39663375167601111,
        -0.067834823262333116,
        -0.70002405384237065,
        -0.27581857355760026,
        -0.60197786805569409
      ]
    },
    {
      "dualCoef": -0.012500000000000001,
      "supportVector": [
        -0.34748369812925756,
        -0.66889251149351947,
        0.35020736187037999,
        -0.34872547244050622,
        -0.14553643233990801,
        -0.49932094299502033,
        -0.062078006248420442,
        -0.038225308013766203,
        -0.13139719552908002,
        -0.16713844510872061,
        0.092861915171510712,
        -0.27938893062617165,
        -0.45945541078567231,
        -0.31873839165860662,
        -0.48782573692156328,
        -0.7416157137389412,
        -0.32903196983428917,
        -0.76019274677689286,
        0.18853606871641038,
        -0.72116391421735548,
        -0.38478738015104419,
        -0.47434866579874285
      ]
    },
    {
      "dualCoef": -0.012500000000000001,
      "supportVector": [
        1.0202162556775565,
        -0.24470724656901424,
        0.69963076865258833,
        -0.89830877161001277,
        -0.84387392873128841,
        -0.7777502625984033,
        0.38731196145770569,
        0.066094552047082575,
        0.37855137220022683,
        -0.14368606675513662,
        0.34521626319023935,
        -0.57560833672757006,
        -0.57778344481725974,
        -0.36409944098833802,
        -0.79088567815484556,
        -1.0758412265924997,
        -0.45330803203131614,
        -0.87419110314826087,
        0.12550553056605071,
        -0.4616964327038855,
        -0.27815374709516305,
        -0.52424590706635199
      ]
    },
    {
      "dualCoef": -0.012500000000000001,
      "supportVector": [
        1.0050022653472861,
        -0.052056035284965635,
        1.7548147893086365,
        0.084705970028566696,
        -0.57328642111848782,
        1.1910694977472605,
        -0.13702374604341866,
        -0.76410573211653521,
        -0.17712243637465577,
        -0.57607040832334722,
        0.27658768218842511,
        -0.4467750253397012,
        -0.35965478869452977,
        0.19269035190362993,
        0.77471705930501289,
        0.47930215913862217,
        0.037069388810418047,
        0.36493676391789637,
        -0.025004372164441232,
        -0.47863573779604629,
        -0.22892259083314043,
        -0.22906899289876417
      ]
    },
    {
      "dualCoef": -0.012500000000000001,
      "supportVector": [
        2.2770686379742533,
        -0.84928511850495636,
        -0.2518499726474509,
        -0.92157582724127551,
        -0.69780931751958852,
        -0.83644335675676595,
        0.049564947002589607,
        -0.89623399426687489,
        -0.84807272976715642,
        -0.70769410753298567,
        0.19698725574170403,
        -1.2008005878932493,
        -1.4691860149367086,
        -0.81985665286906817,
        0.57466786550631954,
        0.074038930558484359,
        0.2456655717482702,
        0.64064485937316795,
        -0.42477087231693744,
        -0.99902588852698671,
        -0.75120162504885846,
        -0.7415304456762426
      ]
    },
    {
      "dualCoef": -0.012500000000000001,
      "supportVector": [
        1.3727163647279037,
        -0.66960056262045919,
        -0.21909202423199711,
        -0.70679210703357331,
        -0.73057899941394044,
        -0.80075200213955289,
        0.093563466880763779,
        -0.94077801359817304,
        -1.1005086227346381,
        -0.62746370483805802,
        -0.36113779696578924,
        -1.0868575842807902,
        -1.4738142309338409,
        -0.720736317841706,
        0.71037816400444176,
        1.0359998609475645,
        0.10514496330899667,
        0.88750385028683065,
        -0.44189929223381486,
        -0.77701774004370705,
        -0.45529502587565462,
        -0.72808611546342716
      ]
    },
    {
      "dualCoef": -0.012500000000000001,
      "supportVector": [
        1.3451900628078703,
        -0.21500268061473815,
        0.51718612287007826,
        -0.26437223039293928,
        -0.79760929699005134,
        0.56604619621807772,
        -0.065972771703879524,
        -0.99848358513075142,
        -1.0226622156186307,
        -0.61031440889659883,
        0.35377168683077814,
        -0.82007026870152822,
        -1.4048483855640188,
        0.04856394374455178,
        -0.086681508526587681,
        -0.037856758508573236,
        0.1734731327338723,
        -0.13966543580930232,
        -0.18505510787388144,
        -0.67112713159263171,
        -0.50074672224590622,
        -0.51209803980046931
      ]
    },
    {
      "dualCoef": -0.012500000000000001,
      "supportVector": [
        0.027344216245606245,
        0.34592916731442341,
        0.35738369109567342,
        -0.38281943130322538,
        -0.78498380108019084,
        0.074668356029841065,
        -0.12529067154318635,
        0.073107242721389659,
        -0.085099175488521861,
        -0.38306328537377837,
        0.17899620879001188,
        -0.1942591098522107,
        -1.3239698987054684,
        -0.23724679736664081,
        -0.21579437661415402,
        0.20258983624859167,
        0.31572258531770675,
        0.32740083167008466,
        -0.1308289601652059,
        0.23512786109042427,
        0.28515797979498436,
        -0.27372478867099637
      ]
    },
    {
      "dualCoef": -0.012500000000000001,
      "supportVector": [
        0.48243327930997415,
        -0.78355485865540486,
        -1.1940001644933402,
        -0.23765009037625606,
        -0.4166487024187121,
        -0.97556305427828371,
        -0.25414891557127917,
        -0.62806504046520895,
        -0.81974059812206235,
        -0.39424587589704257,
        0.11923490360620362,
        -0.6512848122124385,
        -0.87406405140550969,
        -0.0067797867744502447,
        1.4050065628130826,
        1.2850549251392791,
        1.1885555194210258,
        1.1943826303789269,
        -0.32171809858008876,
        -0.81457671453779124,
        -0.53146968649855908,
        -0.66369654004381384
      ]
    },
    {
      "dualCoef": -0.012500000000000001,
      "supportVector": [
        0.019662171489853608,
        -0.076118169496896759,
        1.382407985197861,
        0.087953986932784445,
        0.28186404566870904,
        0.61571565749423696,
        -0.076163991812112558,
        -0.23617965365255203,
        -0.033823935742792702,
        -0.16646919921239753,
        0.28429677382862478,
        -0.053210517221478251,
        0.16759301544428262,
        -0.17352328545418355,
        0.26614871298360737,
        1.1997732338163782,
        0.53738594052263489,
        0.71995366080324086,
        0.20792913643534811,
        -0.61638298765754529,
        -0.73602048016464927,
        -0.33628818595789223
      ]
    },
    {
      "dualCoef": -0.012500000000000001,
      "supportVector": [
        0.02087628596391735,
        -0.72952902915853346,
        -0.18579509844853703,
        -0.29894306026080214,
        -0.36449518575332895,
        -0.20216027539777248,
        -0.19049950472334043,
        -0.28918961950455296,
        -0.34788340269808843,
        -0.20549371699781568,
        0.59080076410133664,
        -0.42178324856004629,
        -0.39610737920752459,
        0.20441883817192166,
        -0.15362762984872846,
        0.16035268315519724,
        0.31858435837114729,
        0.039821078331280839,
        -0.31201972182579396,
        -0.74610483263958871,
        -0.38897791367436135,
        -0.6098070990652894
      ]
    },
    {
      "dualCoef": -0.012500000000000001,
      "supportVector": [
        -0.44371121165475852,
        -0.13128754601124071,
        0.23138040811392485,
        0.34074243999624043,
        0.22146279496741259,
        0.38184247846243408,
        0.17354920362221718,
        -0.058200686850116076,
        -0.303365094911765,
        0.00045078797846688566,
        0.58332372448320924,
        0.30002277716800035,
        0.52902642653449339,
        0.31143128769007811,
        0.18756143423076796,
        0.5153042573135016,
        0.53433391342554926,
        0.5501505579786129,
        -0.13334663754235315,
        -0.50381681308910753,
        -0.7237450062700842,
        -0.44172324431803478
      ]
    },
    {
      "dualCoef": -0.012500000000000001,
      "supportVector": [
        0.47592133669503867,
        -0.59540303975287767,
        -0.41617732431040111,
        -0.037565038018010671,
        -0.19109433821100458,
        0.49279961211843842,
        0.1517973980573315,
        -0.73779310599465686,
        -1.2077586681129435,
        -0.40921081566262163,
        0.57953479543495701,
        -0.56346797261511017,
        -1.3297187466946123,
        0.58459754006627274,
        0.052489581286792757,
        0.93083546470557865,
        1.2884875392908535,
        0.8055941531426154,
        -0.25573112379255802,
        -0.78693678032599057,
        -0.41505377954863298,
        -0.67339842205274458
      ]
    },
    {
      "dualCoef": -0.012500000000000001,
      "supportVector": [
        -0.015851630561777959,
        -0.24931746506438729,
        0.313340344517405,
        0.31437428489987856,
        0.38306101313135604,
        0.42188024382367628,
        -0.67102031824395747,
        -0.32249269412508175,
        -0.62854693349081769,
        -0.39670222622022072,
        -0.056440198322020942,
        0.055467274149141481,
        0.72108923728041652,
        -0.19989335869107006,
        0.11228961065346942,
        0.56855285663862842,
        1.0381018609710839,
        0.70748934790690843,
        -0.47434524469273737,
        -0.44765757037445736,
        -0.26427181720648846,
        -0.23131658597323834
      ]
    },
    {
      "dualCoef": -0.012500000000000001,
      "supportVector": [
        0.92171061152573774,
        -0.79978133336422996,
        0.47509774627419554,
        -0.24065981919146257,
        -0.54294101912239168,
        0.15719349225750034,
        -0.74913380780546235,
        -0.98308192047964005,
        -0.98483654789433517,
        -0.71973744394599592,
        0.78040326708937635,
        -0.91707927028078917,
        -1.396411558367388,
        -0.20672702286670344,
        -0.18397063198960345,
        0.97865588544325588,
        1.5125383040970775,
        0.73675519276956336,
        -0.34703086743504663,
        -0.93849833119719972,
        -0.7072756153017602,
        -0.80178234233927448
      ]
    },
    {
      "dualCoef": -0.012500000000000001,
      "supportVector": [
        0.4229171987228767,
        0.51331082555711394,
        1.4584640964115574,
        -0.32645486566018816,
        -0.85949245154687393,
        0.51248794780945606,
        -0.3013982513678235,
        -0.22009969984843658,
        -0.3929807320158194,
        -0.076934370717815004,
        0.38877671589905349,
        -0.38701161214468038,
        -0.014877757596247879,
        -0.23523152783004583,
        1.1579102464190221,
        0.30412840040092082,
        0.27758834058924198,
        0.76866755410096888,
        0.73207372521820391,
        0.46408136630715613,
        0.2491004468987528,
        0.59254488713759645
      ]
    },
    {
      "dualCoef": -0.012500000000000001,
      "supportVector": [
        -0.56284609933471941,
        2.048172525970116,
        -0.30290019264417539,
        -0.27115148025989672,
        0.012328488937327322,
        -0.47932368521922225,
        -0.47349743208757128,
        0.71503853054344313,
        0.61128322103228883,
        0.020594958699636987,
        -0.5060541719258258,
        0.38366879771256551,
        0.26122492134723102,
        -0.080864570731938132,
        -0.46440621159165568,
        -0.70355481293822841,
        -0.090887076245005277,
        -0.7354074854053706,
        0.39837054494255103,
        2.3349640449750892,
        2.8287876722092857,
        1.5084582433144136
      ]
    },
    {
      "dualCoef": -0.012500000000000001,
      "supportVector": [
        -0.53646523211149877,
        1.0126128238002721,
        1.7464879227661614,
        0.8469102577273302,
        0.66362098516369827,
        1.2289167505731764,
        -0.68370101240555714,
        -0.55706100905948031,
        -0.57217595965210222,
        -0.6605032453809202,
        0.94654197793222428,
        0.31209897871456527,
        0.29938572959752657,
        0.65952885553097973,
        0.44498681959349012,
        0.91603330689955986,
        1.3192866347484626,
        0.91951905711852544,
        1.0360644129467125,
        -0.039488160388219617,
        -0.043795201952287942,
        0.6647768772756224
      ]
    },
    {
      "dualCoef": -0.012500000000000001,
      "supportVector": [
        -0.050302840756928896,
        -0.77188126093128095,
        -0.1562169337208742,
        -0.57472364543645837,
        -0.67867620960905117,
        -0.67006842426343427,
        -0.16622812305413842,
        -0.098545705621783428,
        -0.59823951195382297,
        -0.42061343789817379,
        -0.71539719737300733,
        -0.49419708855164723,
        -1.2147115409899711,
        -0.3771230789348739,
        -0.0010336219387429573,
        -0.033737556161287673,
        0.27789834982766481,
        -0.046156250872860662,
        -0.082623826603006822,
        -0.67412347046588406,
        -0.53994661316838677,
        -0.55586622114909823
      ]
    },
    {
      "dualCoef": -0.012500000000000001,
      "supportVector": [
        0.90842442049996963,
        -0.20784261309974814,
        -0.23660567450901443,
        -0.39227262067452479,
        -0.0046045731257986612,
        -0.4060830914183623,
        -0.2273733491709049,
        -0.65453637428936484,
        -1.1113505849105496,
        -0.35307443232424146,
        -0.42694174570433019,
        -0.77194616483287337,
        -1.1335996567017839,
        -0.57625512443637206,
        1.672851218332194,
        1.3437202131823678,
        1.2993046079042898,
        1.6459475970130051,
        0.27872305373102413,
        -0.22667705991394177,
        -0.63164151661303591,
        -0.042858601511392216
      ]
    },
    {
      "dualCoef": -0.012500000000000001,
      "supportVector": [
        0.87277613326836279,
        -0.65549679301178532,
        0.27812145044808029,
        -0.49910123794636613,
        -0.64253322254932654,
        -0.018382338717224601,
        -0.053212054344672216,
        -0.44130271762019035,
        -0.47152833046703013,
        -0.29975631675438769,
        0.35561213727710206,
        -0.69263300685087015,
        -1.1883344323820042,
        -0.24133263883952522,
        0.94319828471676348,
        1.0153322639241302,
        0.67398465287716491,
        0.41973468778919748,
        -0.29787643765307131,
        -0.51979776875641925,
        -0.54971517954076687,
        -0.36906215917001656
      ]
    },
    {
      "dualCoef": -0.012500000000000001,
      "supportVector": [
        1.1252923791934426,
        0.90944470056675852,
        0.54513426845389157,
        -1.398545782653476,
        -1.4497579519322474,
        -1.056698123301173,
        0.53991885926355332,
        -0.049890269791073458,
        -0.24771764747757216,
        0.33579780439117385,
        0.28086035545190124,
        -1.0443409153019514,
        -1.139207071557506,
        -0.32555411760026493,
        -0.44929219924101571,
        -0.82814520232311539,
        -1.2258967414945394,
        -0.84448055860872329,
        0.97272995507173654,
        1.1169577579433687,
        -0.19578100339480492,
        1.343135478531589
      ]
    },
    {
      "dualCoef": -0.012500000000000001,
      "supportVector": [
        1.4100595882722595,
        -1.1816435398408021,
        -0.16994551818189824,
        -1.4514300854424178,
        -2.1553098705024563,
        -1.0747540980938746,
        0.05923422151722943,
        -0.14738067019949211,
        -0.13747927204180582,
        0.14601936201306986,
        0.047842579706825476,
        -1.1616964694581748,
        -1.3578782835027536,
        -0.44172404394146669,
        0.50404011085133194,
        -0.52362845320931384,
        -1.0209593376189876,
        -0.10928349636613988,
        -0.52310029365207023,
        -1.0917537189468187,
        -1.2912901951462246,
        -0.8561252477602318
      ]
    },
    {
      "dualCoef": -0.012500000000000001,
      "supportVector": [
        0.093264016882063719,
        -0.75562120166375457,
        0.64480735112099286,
        0.28200026997144484,
        -0.61388817889977187,
        0.57477802343673212,
        1.0672433437521101,
        0.33613121836389043,
        -0.34233732117057092,
        0.541178752637966,
        0.19365205905843991,
        0.46254343811178061,
        0.18979970169425797,
        0.23519318771425463,
        0.86041885475625135,
        0.74235401880554841,
        -0.8277036126176226,
        1.2793520545818411,
        -0.45862670575163045,
        -0.89237998524868245,
        -1.2135309005613824,
        -0.87589018166831301
      ]
    },
    {
      "dualCoef": -0.012500000000000001,
      "supportVector": [
        -0.82031622490082878,
        -1.0390246398692187,
        -0.37885685440877598,
        0.098200313573123782,
        0.24407238504845449,
        -0.15733623447890108,
        -0.55709427298878134,
        1.5439907102209509,
        2.2658149145716866,
        0.44515207386888933,
        -0.49250276621757055,
        1.1898466558206593,
        1.6091648843940674,
        0.51867015829162633,
        -0.91179995318095408,
        0.75437976911937688,
        -1.0322556261942988,
        1.3010998929963848,
        -0.81108165683181466,
        -1.0067223493761059,
        -0.79795207638397114,
        -0.99385560607552637
      ]
    },
    {
      "dualCoef": -0.012500000000000001,
      "supportVector": [
        -0.4743962415493147,
        -1.0443399910934172,
        0.40526271728532853,
        -0.28045747998891168,
        0.035664355238343722,
        -0.19224219226154265,
        0.27023011317662243,
        0.6075411627159184,
        0.98026208052683916,
        0.64820797956258991,
        0.23266984921895259,
        0.24835013426013475,
        0.33077071452362294,
        0.23179990102437759,
        -0.95349223845425812,
        2.7947922516927441,
        -0.73513067381644381,
        -1.0665003547700223,
        -0.77121470686474392,
        -1.0960650246509045,
        -0.94425264653758356,
        -1.0021725162671988
      ]
    },
    {
      "dualCoef": -0.012500000000000001,
      "supportVector": [
        -0.13449578248879579,
        -0.48371352041812449,
        -0.126401667163585,
        -0.055682504279860108,
        -0.30627816245114675,
        0.087815926890819351,
        -0.13324910525510333,
        0.68097061738880682,
        0.72008331375306645,
        0.24979798574942225,
        -0.52342732039591988,
        0.45912284136398374,
        0.75883329291463253,
        -0.0014060967605836077,
        -0.90317302168037883,
        -0.86114458646361758,
        -0.54207852836807924,
        -0.93183707098998214,
        -0.83894809191422892,
        -0.49438853283147172,
        -0.68652604849390864,
        -0.70361146515230411
      ]
    },
    {
      "dualCoef": -0.012500000000000001,
      "supportVector": [
        0.20448001503229402,
        -1.0384932128237272,
        0.37514561453892314,
        -0.72462380027716122,
        -0.5737957269024585,
        -0.20592231683552684,
        0.28637815994495469,
        0.55528862316527006,
        0.49907638163560947,
        0.48846016538382614,
        0.48952883351476323,
        -0.093220615123131303,
        0.18350634876210833,
        0.048208841651513533,
        -0.74269304588114105,
        0.14279482122690368,
        -0.66098052236587324,
        -0.76631118737277848,
        -0.80088187411397815,
        -1.1285591798243431,
        -0.95899085307075882,
        -1.0667704986715452
      ]
    },
    {
      "dualCoef": -0.012500000000000001,
      "supportVector": [
        -0.79962601899788299,
        -0.47919016914485951,
        0.078916188990209427,
        0.51809670635486538,
        0.23121467511023461,
        0.16851251617167765,
        -0.13300652082268413,
        0.30127076355242233,
        0.10397086927295419,
        0.18126116546852988,
        -0.31045777530500557,
        0.57737188423414765,
        -0.20105806211861149,
        -0.054553218569437165,
        -0.58424368069675303,
        -0.45850863541193254,
        -0.26735687354541243,
        -0.47628316420920297,
        -0.75147473339754678,
        -0.65289033506719141,
        -0.80558884403586273,
        -1.0083423581945021
      ]
    },
    {
      "dualCoef": -0.012500000000000001,
      "supportVector": [
        -0.44373286700248071,
        -0.79336300346081989,
        -0.079594553149125127,
        0.6731628199081553,
        1.3388380673012366,
        0.19062166278569981,
        -0.4211150091612747,
        0.43612369337742213,
        0.62234028151915644,
        0.24115230917542593,
        -0.74793701312026462,
        0.78311164470671468,
        1.4063907504012461,
        -0.006373234129006978,
        -0.9004594452451089,
        -0.58526041984000654,
        -0.034615674086875804,
        -0.92144226632833115,
        -0.89772485054854967,
        -0.94816290380462109,
        -0.82386166944709005,
        -0.98073169699048524
      ]
    },
    {
      "dualCoef": -0.012500000000000001,
      "supportVector": [
        -0.76692003047885327,
        -0.95424065437033834,
        -1.1734077736558002,
        -0.38063815200831086,
        -0.55228628630447274,
        -0.39164237855651901,
        -0.29566532674832507,
        0.71090812836041528,
        0.60656005407843638,
        0.16087473540816458,
        -0.49619678583898613,
        0.25737230730843158,
        -0.032669553913195301,
        -0.26897483617568041,
        -1.3760362368113215,
        -1.0668707003238014,
        -0.69983457042508757,
        -1.2377053778026768,
        -0.90629201748779487,
        -0.99709922956542174,
        -0.8821580272530436,
        -1.023769377069325
      ]
    },
    {
      "dualCoef": -0.012500000000000001,
      "supportVector": [
        -0.068400796698261518,
        -0.89218946513063979,
        -0.18599042533671484,
        -0.56284402291607138,
        -0.67907867165970459,
        0.062025327945096971,
        -0.1806109992903413,
        1.141682226099062,
        1.8396933794402153,
        0.42583400898625295,
        -0.090803991566573608,
        0.44954820008262147,
        0.60872682845118775,
        0.1677157989989366,
        -1.1978024475331528,
        -1.0679026809304786,
        -0.82794949426455455,
        -1.1787348543388858,
        -0.90703106458835192,
        -0.99821280755493491,
        -0.81772528466179895,
        -1.0155027510893111
      ]
    },
    {
      "dualCoef": -0.012500000000000001,
      "supportVector": [
        -0.44243541929067282,
        -0.90655303953305655,
        -1.0774397980027048,
        -0.63369109942449298,
        -0.67774050667870467,
        -0.92024112543418557,
        -0.35949485520033897,
        1.1216813593865185,
        0.71364893494664217,
        0.30141799730953195,
        -0.44545966323915215,
        0.39655569903605076,
        0.42268375706164862,
        -0.10270880076630781,
        -1.3511362817118313,
        -1.2248246586537423,
        -0.79350884460247506,
        -1.3964669940410894,
        -0.95345274239587929,
        -0.98131922585953058,
        -0.84683010929838431,
        -1.0469283533067126
      ]
    },
    {
      "dualCoef": -0.012500000000000001,
      "supportVector": [
        0.99049160147664062,
        -0.25156073934265172,
        0.94841746829054419,
        -0.3280798172515107,
        -0.066890251803476991,
        0.0015493325268636246,
        0.40325117100335245,
        -1.0413458592022793,
        -0.69631987535134621,
        -0.25524052417935744,
        0.22891549848141396,
        -1.0007664015325415,
        -0.60889841113140108,
        -0.40677191380591149,
        0.70194318238733378,
        1.5967903973195325,
        0.82420953379627282,
        0.92769904074388754,
        -0.73262154897933829,
        -0.46080082858440924,
        -0.85313254317964005,
        -0.89089363542598188
      ]
    },
    {
      "dualCoef": -0.012500000000000001,
      "supportVector": [
        -0.45324123114621195,
        1.6303747985884665,
        1.6346573700488971,
        0.91989038093067466,
        0.3601055822937379,
        1.3048592395667302,
        0.61630711770394553,
        -0.16425410257137088,
        -0.040243343124329117,
        0.37871000514341563,
        -0.40728139416971304,
        0.51215663949294499,
        0.56215796459876577,
        0.0066492187191235386,
        0.14995320797546557,
        0.47849271640119656,
        0.050302176251398135,
        -0.02459959545674242,
        0.42999419700583197,
        1.8078575499179588,
        -0.33188224014050649,
        2.1994119490534523
      ]
    },
    {
      "dualCoef": -0.012500000000000001,
      "supportVector": [
        -0.08372731987774111,
        -0.22305889977141416,
        0.97444348596391428,
        0.011475168765663147,
        -0.16507731859790198,
        0.5193992009141194,
        0.018865895788661699,
        0.13638527164489064,
        0.12619473082282967,
        0.1279121057078868,
        -0.028148381244309982,
        0.10696878207813913,
        -0.024483425975089387,
        0.072470585651634362,
        -0.39296661427424401,
        -0.46798452229882426,
        -0.21671903463433351,
        -0.5296519216497384,
        -0.64555549493843223,
        -0.33354269799312009,
        -0.098758612956056369,
        -0.52073356765604029
      ]
    },
    {
      "dualCoef": -0.012500000000000001,
      "supportVector": [
        -1.1533860729567205,
        1.3431964585331044,
        -0.011981673748902995,
        0.60704744543381728,
        0.66547768911679284,
        0.55786702743945649,
        0.050239892447851056,
        0.93750343738576702,
        1.3415981357518401,
        0.30955307624174316,
        0.2376928212376673,
        1.1028186001625717,
        1.5094923652176826,
        0.80782989954058582,
        -1.2389537405636215,
        -0.81135336177822404,
        -0.34641306987397619,
        -1.0712868949854559,
        1.2115963354195449,
        1.9596622882972792,
        1.0466028689397731,
        2.1963537704631078
      ]
    },
    {
      "dualCoef": -0.012500000000000001,
      "supportVector": [
        -0.41050633693849492,
        0.44941686165289674,
        -0.24000208466680722,
        1.1743654987043763,
        1.4799982396199665,
        0.62122144551298064,
        -0.87504054416435206,
        -0.63321057208697729,
        -0.68779261348949905,
        -0.72992375555964206,
        -0.3112974994772395,
        0.33894143829150286,
        0.70068372106824073,
        -0.038350524146665725,
        -0.96876822836410148,
        0.10250575917823278,
        0.49418377065038294,
        -0.20019196739541464,
        -0.64612356646144753,
        0.12101920649660501,
        0.47791597874156982,
        -0.25477301702359317
      ]
    },
    {
      "dualCoef": -0.012500000000000001,
      "supportVector": [
        -0.40207770777474661,
        0.40902216669295482,
        -0.54379558067405342,
        0.61074105707255777,
        0.32105778138777052,
        0.090019294501555602,
        -0.98798590629699778,
        -0.20853655219323602,
        -0.25003034492930404,
        -0.55373104704868958,
        -0.53055055566868392,
        0.26564778455827009,
        0.44988850480454318,
        -0.20605630548051124,
        -1.0472128399725307,
        -0.49718311005811677,
        0.0019037661045640899,
        -0.73351312605769925,
        -0.62480492302116653,
        0.2974254451417318,
        0.28298396750646804,
        -0.065252377779315321
      ]
    },
    {
      "dualCoef": -0.012500000000000001,
      "supportVector": [
        -0.39397834263985471,
        0.34208966720306067,
        -0.66683743079930891,
        0.42259388010092208,
        0.26805001811636914,
        0.053242963356742126,
        -0.48199554450265486,
        -0.20715252318636412,
        -0.052592413010398339,
        -0.31652518321006184,
        -0.5033481623086633,
        0.13785668627093814,
        0.50039757988068356,
        -0.27263956773735049,
        -1.0250761699693611,
        -0.51354752282559146,
        0.076837459358630081,
        -0.79479969246110105,
        -0.57767462316164808,
        0.31166126532149863,
        0.42759561459587775,
        -0.11748590537551515
      ]
    },
    {
      "dualCoef": -0.012500000000000001,
      "supportVector": [
        -0.41341876670211997,
        0.95004576161898047,
        3.739968067615159,
        0.28665633619508418,
        -1.11311182853593,
        2.4268108403093631,
        0.89304186898501525,
        0.28415517957948033,
        -0.57256828901483203,
        0.8524603675712441,
        2.0103871635203188,
        0.40603075583532666,
        -0.37087160264896246,
        0.85991429466215485,
        0.27338304910928524,
        -0.46033843570953703,
        -0.55668894074920261,
        -0.078296515183608278,
        0.5744311213245169,
        1.1968753695074104,
        0.84787801193488976,
        1.1619063706578698
      ]
    },
    {
      "dualCoef": -0.012500000000000001,
      "supportVector": [
        -1.5001730432494089,
        0.18061036091235369,
        0.88698121846983713,
        1.3252863687051664,
        1.5289780744745816,
        1.3494168765342645,
        0.84364092017181991,
        0.69579558232880134,
        0.60390789246579613,
        0.40256146337572901,
        0.99482080218068392,
        1.4241864518348042,
        1.4483089335492907,
        1.5508615462846658,
        0.46629961643118434,
        0.46284037120120836,
        0.042274581653956797,
        1.4046002487707707,
        0.25732250532882062,
        0.18869401843732295,
        0.36045015073400583,
        0.12580852863806027
      ]
    },
    {
      "dualCoef": -0.012500000000000001,
      "supportVector": [
        -0.36501436114825692,
        0.091845920861070074,
        -0.62914469345336699,
        0.46185736830856278,
        0.1881272172024222,
        0.21456373378867977,
        -0.10477955311735597,
        0.16682254385567416,
        -0.017115675652719896,
        0.010259502821585817,
        -0.23613306620168059,
        0.44048801071466148,
        0.86754730771863986,
        -0.016960101783990246,
        -1.1332765832695642,
        -0.69769567447847913,
        -0.078978718525823971,
        -0.9467969696463262,
        -0.7209368874251868,
        -0.028611155728004947,
        0.19050177891425943,
        -0.35535520197204185
      ]
    },
    {
      "dualCoef": -0.012500000000000001,
      "supportVector": [
        -0.72839346574525865,
        0.39842759159878388,
        -0.54527492809649225,
        0.49357865573871884,
        1.0055699744924727,
        0.062907490445038489,
        -0.32987088199379239,
        0.20342847263337679,
        0.20119574529075504,
        -0.10215334305894684,
        -0.9590856633400382,
        0.48776307770722371,
        0.56364759806612841,
        -0.098786732696309873,
        -0.79471960923409812,
        -0.58550440050047203,
        0.080489327987128684,
        -0.7332124076719283,
        -0.64342803336530807,
        0.43964956201552891,
        0.77788484955376913,
        -0.12019105277482008
      ]
    },
    {
      "dualCoef": -0.012500000000000001,
      "supportVector": [
        0.070988541789633694,
        0.20687158981058529,
        -0.20369605878162889,
        0.12973701735464541,
        0.87170385039141141,
        -0.029389672239554469,
        -0.26218630002627458,
        -0.35548369227241222,
        -0.44308381787063189,
        -0.087238140546487986,
        -0.7802369199906346,
        -0.1546404258362819,
        0.44740180499205429,
        -0.37617457712079644,
        -0.85026189636039684,
        -0.059471360486367343,
        0.32467742697818563,
        -0.67342351298470859,
        -0.63000400169815807,
        0.030812679847025404,
        0.28022790566887629,
        -0.26375459509033367
      ]
    },
    {
      "dualCoef": -0.012500000000000001,
      "supportVector": [
        -1.0417685904827019,
        -0.12401788121751604,
        -0.59769478543380994,
        1.0768598910569935,
        1.4183213563476875,
        0.24975668471152676,
        -0.17658525684522108,
        0.49946528767493081,
        0.31187045195609253,
        0.096349799464512345,
        -0.54466158370979056,
        1.117921970224304,
        1.1435808472066336,
        0.78829399369982711,
        -0.86953861333755778,
        -0.51314669099962351,
        -0.044506672041364694,
        -0.70070534471134416,
        -0.55909910265883722,
        -0.20219467636595859,
        -0.18998302623227864,
        -0.36353436805717204
      ]
    },
    {
      "dualCoef": -0.012500000000000001,
      "supportVector": [
        -1.5723547757999132,
        -0.29909441749333154,
        -0.26798183521860691,
        1.5077283977553011,
        0.53007804538637338,
        0.55539600142011947,
        0.11821729154853837,
        0.71294909619574953,
        0.14476194701832673,
        0.55145884182431526,
        -0.35079506535046612,
        1.5774157466666494,
        0.73337814308376126,
        0.4696395870853195,
        -0.68515437701957738,
        -0.27765828379530078,
        0.30456800688890578,
        -0.63074621208551485,
        -0.82595857981517662,
        -0.440477198118705,
        -0.23932649973407405,
        -0.62561046622143202
      ]
    },
    {
      "dualCoef": -0.012500000000000001,
      "supportVector": [
        0.67693642218989347,
        -0.49616928019934359,
        -0.20408348763015835,
        -0.33370810418086971,
        -0.12890012996098535,
        -0.17068707614254286,
        -0.55637911194999012,
        -0.36747234020643038,
        -0.25378685206722329,
        0.024301397856326831,
        0.36568554403785541,
        -0.49275930013639935,
        -0.49671075106238927,
        -0.21916264889744919,
        -1.0272263773207682,
        -0.43565234889923027,
        -0.22417735720411061,
        -0.8082217716560528,
        -0.83466088981487474,
        -0.5951624104643003,
        -0.43568920605924838,
        -0.74737402526164554
      ]
    },
    {
      "dualCoef": -0.012500000000000001,
      "supportVector": [
        -0.075939529200368616,
        0.27987663461311341,
        1.3890153129836127,
        0.3325406159643442,
        -0.38079331073042705,
        1.0941678553241008,
        0.085726720810483312,
        0.092600595544313255,
        1.1032138281182611,
        0.025425122781897132,
        0.96345400124590996,
        0.30395210821111696,
        0.65723190066972648,
        0.47160064754349745,
        -0.25623170738785872,
        0.1524901113697906,
        -0.62769830353426981,
        -0.27431741691513584,
        -0.40030106476526567,
        -0.1611810068691911,
        -0.50596298715141796,
        -0.4691767989216189
      ]
    },
    {
      "dualCoef": -0.012500000000000001,
      "supportVector": [
        0.28797765585897939,
        0.18537046375262881,
        -0.34147952381694369,
        -0.43879560004681772,
        -0.26153790178499164,
        -0.36618110330325443,
        -0.45984493547322541,
        -0.081125004682205432,
        -0.012316073038968737,
        -0.31528435125868037,
        -0.63030805694727055,
        -0.36651833222465924,
        -0.33993322441813772,
        -0.559274505383488,
        -0.80276535641165225,
        -0.74702691795026877,
        -0.39097061801254235,
        -0.52468091499747993,
        -0.14878371826557085,
        0.54806802328257143,
        -0.32013706488024124,
        0.6985409621064792
      ]
    },
    {
      "dualCoef": -0.012500000000000001,
      "supportVector": [
        0.9654545124211168,
        -1.1636856701252252,
        0.18725799432458726,
        -1.1394386163792187,
        -1.4166535201484689,
        -0.96722555040245972,
        0.50347335047511532,
        -0.18687415837072155,
        0.44748116014210465,
        -0.24788315306132017,
        0.42399209348195632,
        -0.93544928086111567,
        -1.566941901544155,
        -0.058823610546045714,
        -0.83186701087991999,
        0.1114887961830185,
        -0.89232572241408914,
        -0.68542318569759286,
        -0.82619989617908274,
        -1.1192051739904232,
        -1.2450190624780311,
        -1.072957958684253
      ]
    },
    {
      "dualCoef": -0.012500000000000001,
      "supportVector": [
        -0.55462732372837809,
        2.049701355355904,
        0.81599422588962245,
        0.91027324702513512,
        0.82727305725229761,
        0.97734889406192915,
        -0.55057129363188761,
        -0.15331953820164407,
        -0.3926322545016222,
        -0.35966134495091368,
        0.089770906858287272,
        0.53828327526430164,
        0.47646428730304369,
        0.75516949653324095,
        -0.57507730067870078,
        -0.081932500554994736,
        0.30348889825365993,
        -0.35901807719396406,
        0.21587758038199703,
        1.5947702965732578,
        1.3367557419692822,
        1.4289572423894574
      ]
    },
    {
      "dualCoef": -0.012500000000000001,
      "supportVector": [
        -0.17832154681125123,
        1.9915988136551717,
        0.29602556820134379,
        -0.76661852995514079,
        -0.90179123677979978,
        -0.46602324592412064,
        1.1512182230864569,
        0.79989818188251882,
        0.52911836882661012,
        0.92922348456799264,
        0.59425777189016415,
        0.02718282821082842,
        -0.4653986965302559,
        0.50845954976832053,
        -0.79737232248709111,
        -0.98144349714433465,
        -0.62541101098697471,
        -1.0571789744372864,
        0.95192294028682012,
        1.6766050420663687,
        1.5478352698772935,
        1.0332627905778731
      ]
    },
    {
      "dualCoef": -0.012500000000000001,
      "supportVector": [
        -0.90435803789765679,
        0.62979243158767884,
        1.0848247595480891,
        0.96137000363466107,
        0.66475099674923577,
        1.1254342552582786,
        -0.71666706300617822,
        -0.25266923926460366,
        -0.46723322267432954,
        -0.47170779938082846,
        0.4852565825681307,
        0.50111756703289234,
        -0.12811823678746156,
        0.85927524916366782,
        -0.30551419081709036,
        -0.11007726378584869,
        -0.085309309488800583,
        0.12307648685240816,
        -0.61517801751640389,
        0.42425091615255656,
        0.81619396940111899,
        -0.060667763498487105
      ]
    },
    {
      "dualCoef": -0.012500000000000001,
      "supportVector": [
        -1.2521860892567653,
        1.3581298559459516,
        0.60310563370813208,
        0.99822149423691375,
        1.3136989761610729,
        0.67756780802022865,
        -0.33622029565059497,
        0.38284457136499389,
        -0.3974249562075598,
        0.12297027308718585,
        -0.048665682432663553,
        0.97618090755327758,
        1.1617047849722828,
        0.75536972929330248,
        -0.11978818732770692,
        -0.18626001422057439,
        0.32637936281735169,
        -0.10384706887084043,
        0.20694680340908839,
        1.4402837535402717,
        1.223062003212428,
        0.87640873323317492
      ]
    },
    {
      "dualCoef": -0.012500000000000001,
      "supportVector": [
        -0.87436283417896365,
        0.32336229504938302,
        -1.2378899113992217,
        1.0791475827697996,
        1.097544329936881,
        0.10158455322733705,
        -0.58523893091233958,
        -0.0966213649950797,
        -0.42442681538639693,
        0.1388541985197892,
        -0.6260016013274593,
        0.69595523983805807,
        0.40186668197147785,
        0.11774357089333609,
        -0.92373464972684738,
        -0.12001095070360365,
        0.57413382626281551,
        -0.4597862032897474,
        -0.79785981630248781,
        0.23588351844216521,
        0.44859004490573268,
        -0.27824256552403748
      ]
    },
    {
      "dualCoef": -0.012500000000000001,
      "supportVector": [
        0.64591443203428622,
        0.42751470263841862,
        0.79021182867534767,
        -0.20043315913772164,
        0.41344835779922884,
        0.0063920879356886093,
        -0.19995191119644923,
        -0.64494141129060778,
        -0.92770274292379507,
        -0.36187485500960886,
        -0.23643806934176054,
        -0.59769146459310873,
        -0.34801419997885658,
        -0.61793723949091517,
        -0.69307738380256889,
        -0.30960540539962061,
        0.13842415539983854,
        -0.31308656613352248,
        -0.52512339951357978,
        0.34074845450846369,
        0.30673667225295642,
        -0.13616636472518398
      ]
    },
    {
      "dualCoef": -0.012500000000000001,
      "supportVector": [
        0.64382338228185354,
        0.40290347574443303,
        -0.14620118637610549,
        -0.76729989701599044,
        -1.1245405970432538,
        -0.025080613858556002,
        -0.14263583135218336,
        -0.58055808936458231,
        -1.2190575827408199,
        -0.54113518135061245,
        0.13799465848673687,
        -0.94763021270515468,
        -1.6391634596281153,
        -0.46932376606603782,
        -0.35796040723015671,
        0.12712079961863046,
        -0.17349493634145385,
        -0.62037441236467483,
        -0.10808922801407103,
        0.23967633695776855,
        0.13331564740175314,
        0.22840997703478191
      ]
    },
    {
      "dualCoef": -0.012500000000000001,
      "supportVector": [
        -0.047287625975045669,
        1.6276903782212278,
        -0.59110698251222049,
        0.34539187512704667,
        0.36875573319584548,
        -0.015838005024934699,
        -0.53621734561260925,
        -0.33391627774386529,
        -0.17463591166550613,
        -0.43978974989359548,
        -0.035932546986791832,
        0.0041823536245160949,
        0.030917086523920848,
        -0.060873060984882973,
        -0.62670827090454861,
        -0.28401778394689131,
        0.19746049152507608,
        -0.37902200537759123,
        -0.59095530058731727,
        1.493918133562177,
        0.84866762249081662,
        0.92261325827351981
      ]
    },
    {
      "dualCoef": -0.012500000000000001,
      "supportVector": [
        -0.39470633778122949,
        0.35063076720712633,
        1.3599836650919064,
        1.1382824769873776,
        1.2803234350250139,
        1.1301040286677848,
        -0.58593879565184914,
        -1.1737142413120496,
        -1.2339717279619438,
        -0.88727889084018097,
        0.44809680638941224,
        -0.024267398388862518,
        -0.26077666849893094,
        0.040473472613758124,
        0.024963130037359386,
        0.69112452490525822,
        1.4556962160738034,
        0.53970904245833407,
        -0.60170172368181485,
        0.077291717848066849,
        -0.15876490043580446,
        -0.10353942416271486
      ]
    },
    {
      "dualCoef": -0.012500000000000001,
      "supportVector": [
        -1.0812394360988944,
        0.41685647789992103,
        -0.10947874572853633,
        1.5098037868970087,
        1.6173989111739209,
        0.84882601173030992,
        -0.70434932986951559,
        -0.31090988332460845,
        0.043587246988791635,
        -0.57608903780000609,
        -0.26199828196198649,
        0.84736670921546775,
        1.3719853693452613,
        0.23750728062171306,
        -0.57039150020094698,
        0.37030305068720054,
        0.52804428770348766,
        0.092071779969418982,
        -0.52603361688986705,
        0.19388511251863355,
        0.72753079082188654,
        -0.14270491198545746
      ]
    },
    {
      "dualCoef": -0.012500000000000001,
      "supportVector": [
        -1.0478854108976372,
        0.18729070330469477,
        -1.3744563897345508,
        1.8722875488278583,
        1.8929161684463012,
        0.62519730017431219,
        -0.75332612707227342,
        -0.69882905802162354,
        -0.63218071546464016,
        -0.82499309652542496,
        -0.73634536481117341,
        0.85222902825301716,
        0.97738235642787574,
        -0.040998864385913728,
        -0.55327830584561899,
        0.62042763537953838,
        1.1749278165781289,
        0.11098357819417388,
        -0.77251338023889538,
        -0.0054077650975248026,
        0.25172668287485628,
        -0.40388675293892162
      ]
    },
    {
      "dualCoef": -0.012500000000000001,
      "supportVector": [
        -0.3511280473864285,
        -0.097146235565147773,
        -0.43096921426749252,
        1.2376760481094562,
        1.1342176650520257,
        0.75611480235386019,
        -0.68625662296724055,
        -0.73486040049183854,
        -0.95644260281059335,
        -0.63432036846793427,
        -0.63528594912824932,
        0.37750942901514517,
        0.4465415422347036,
        -0.16130558758725064,
        -0.47872733402854206,
        0.3986703434495058,
        0.93604332448130212,
        -0.0018906103297873364,
        -0.37918719760819125,
        -0.3662233869601475,
        -0.40362069654813265,
        -0.41408075993241239
      ]
    },
    {
      "dualCoef": -0.012500000000000001,
      "supportVector": [
        -0.34817119527837609,
        0.34863417603363428,
        0.90270294487610669,
        0.37389138252037818,
        0.70349341742867455,
        0.45196818613521145,
        0.21399160585445015,
        -0.13101816976056552,
        -0.978145892927623,
        0.52733780511104145,
        -0.56238674124736543,
        0.17896556335187649,
        0.49404016055526534,
        -0.093961157105100779,
        0.50611756606130842,
        0.59303320702044704,
        1.2492848288547145,
        -0.018551241199424393,
        -0.42259868659817573,
        0.64541372559784038,
        0.35149459533482497,
        0.30131525980032453
      ]
    },
    {
      "dualCoef": -0.012500000000000001,
      "supportVector": [
        -0.34525964000683662,
        0.10298051613992402,
        -0.20347610090218496,
        1.1803318699754024,
        1.4211612700021139,
        0.75627515245682275,
        -0.8728442400192602,
        -0.91932450510699293,
        -0.8986772605186395,
        -0.91655425534745127,
        -0.73681396407897271,
        0.21024389702792035,
        0.20182402709971259,
        0.017522895335597321,
        -0.71365198272159103,
        0.43126649990673827,
        0.94690592262628948,
        0.049547294079555708,
        -0.52871936885835902,
        -0.14410437133826207,
        -0.091774144054969545,
        -0.30699167877903888
      ]
    },
    {
      "dualCoef": -0.012500000000000001,
      "supportVector": [
        0.35410135315019042,
        -0.47890764735563712,
        0.35573710056527202,
        0.1669065194557916,
        0.52782895959589815,
        0.17405349676614768,
        -0.69195338543326046,
        -0.66528165773247816,
        -0.66952595238518009,
        -0.68848966817747803,
        -0.066568806329396907,
        -0.33865721106084523,
        -0.44502758731152919,
        0.040558050806693426,
        -0.74765085338378801,
        -0.16165539919210328,
        0.56970345047322812,
        -0.44054767797578964,
        -0.52794031697530142,
        -0.62180395929643872,
        -0.47198939004744123,
        -0.65588776081029665
      ]
    },
    {
      "dualCoef": -0.012500000000000001,
      "supportVector": [
        0.0036683503653504317,
        -0.39797767577407617,
        -0.076548216676136441,
        0.62053899436268567,
        0.70603996463707064,
        0.51589008323524843,
        -0.96361001838581595,
        -0.93465458631513887,
        -0.74230990876781644,
        -0.96745684081326422,
        -0.59210261902334616,
        -0.19972002234382952,
        0.015393995940184308,
        -0.33665293906980231,
        -0.53965514441017093,
        0.40312079035705345,
        0.69469930207746311,
        0.078358002501900517,
        -0.85368465389223691,
        -0.51561225617170992,
        -0.29407552045442636,
        -0.68017479298120442
      ]
    },
    {
      "dualCoef": -0.012500000000000001,
      "supportVector": [
        -0.34615762732967437,
        -0.5701424557206618,
        -0.82206460231179102,
        0.39863378745731387,
        0.57920003323297631,
        0.066446310990282642,
        -0.76261635482380774,
        -0.4979277229063272,
        -0.66499695373577128,
        -0.60466070943176042,
        -0.31636487907557509,
        -0.055659651118785042,
        -0.10641749326800025,
        -0.16805699828185749,
        -0.46786008648373045,
        -0.20765441303806229,
        0.49040608033062844,
        -0.32656070595429221,
        -0.92514174385849446,
        -0.55024674078233093,
        -0.40170286644685355,
        -0.74426495919583413
      ]
    },
    {
      "dualCoef": -0.012500000000000001,
      "supportVector": [
        -1.693227748275089,
        1.2628388761525038,
        1.388759746789257,
        0.14801785712241605,
        -1.4935958119564086,
        1.2274889357773684,
        0.74462282844588834,
        1.282046061167011,
        0.72640334864452616,
        0.62392964327942579,
        1.6046419513917549,
        0.98683173840944327,
        -0.0052411519538319989,
        1.5363750088592671,
        -0.25923035199797484,
        -0.44005616815165249,
        -1.4200950412619444,
        -0.20666661216046339,
        1.4620297354725322,
        1.9809616624804356,
        1.4588494286835538,
        2.1776730307125565
      ]
    },
    {
      "dualCoef": -0.012500000000000001,
      "supportVector": [
        -0.64260004499406476,
        -0.17369409836374175,
        0.15060049313747748,
        0.53590473572267316,
        0.28151591662217895,
        0.38073125877099634,
        0.48854794113265587,
        0.38802786199107409,
        0.41798749594962548,
        0.40346071188443494,
        -0.18385500647063605,
        0.66060091497254092,
        0.73975713373450624,
        0.80425750464076229,
        0.3050116751756507,
        0.4375278747547594,
        -0.078504619237510523,
        0.23241917191703623,
        -0.76383083898241555,
        -0.27320316003681078,
        -0.27934189386394387,
        -0.63361168350321462
      ]
    },
    {
      "dualCoef": -0.012500000000000001,
      "supportVector": [
        -0.63731323869073897,
        -0.60674828988274077,
        0.44154901799352853,
        0.49540957308877026,
        1.0186803285577026,
        0.54941494343187824,
        -0.1243973559016136,
        0.052857157518501501,
        -0.13953421581606745,
        0.23392492998564807,
        0.37692891188171618,
        0.40229860948405971,
        1.4043453728715625,
        0.49380768889815918,
        -0.51913748836248452,
        -0.42452093349498232,
        -0.32390445300513676,
        -0.47876929099766896,
        -0.73387684336549841,
        -0.58494960668394003,
        -0.39114108789999352,
        -0.71680545116446992
      ]
    },
    {
      "dualCoef": -0.012500000000000001,
      "supportVector": [
        -0.28564730621166601,
        -0.4319719224991736,
        -0.82554771311625119,
        0.59491258716328854,
        0.46619294839224396,
        0.21950044840757515,
        -0.87152272973165557,
        -0.7210654404748934,
        -0.84788239256776798,
        -0.67676907323703883,
        -0.39451875972766287,
        -0.051482282217187578,
        -0.32007034038404658,
        -0.089947136568901812,
        -1.0095390904671158,
        0.025275277202569252,
        0.50642952025925236,
        -0.34522370979841988,
        -0.76119415393175582,
        -0.36025686002140794,
        -0.56562335006587194,
        -0.73516255484532289
      ]
    },
    {
      "dualCoef": -0.012500000000000001,
      "supportVector": [
        0.071839828900452554,
        0.14591046193414367,
        0.79976262973606127,
        0.31635845817069391,
        1.2320041639251249,
        0.41905176837853125,
        -0.48083610700826152,
        -0.9526260628345391,
        -1.0491888982635937,
        -0.70051482557759814,
        0.40501966738713291,
        -0.40841534096039578,
        0.48468488292313067,
        -0.21337065010404299,
        0.94455819466379098,
        1.114087415470741,
        0.55474901478438587,
        0.73344637971089277,
        -0.67071053752072929,
        -0.0075012802620050643,
        -0.2509788674707622,
        -0.58359161991856512
      ]
    },
    {
      "dualCoef": -0.012500000000000001,
      "supportVector": [
        1.127542786392252,
        -0.63721222372945041,
        -0.24250403277076377,
        -0.56456598993462426,
        -1.028343049592217,
        -0.096735048202053767,
        -0.049535280868361196,
        -0.56401059944698984,
        -0.89306189472510666,
        -0.18424808062092751,
        0.041142879462204955,
        -0.78567446484164694,
        -0.956485841968438,
        -0.35698323184828273,
        1.3000271223412838,
        0.22315472837813716,
        0.2508108952788986,
        0.7129106533032401,
        -0.61624799553012688,
        -0.5589579228252356,
        -0.72846003751798916,
        -0.80929001158111191
      ]
    },
    {
      "dualCoef": -0.012500000000000001,
      "supportVector": [
        0.062623355578386927,
        -0.62758097972783677,
        -1.2734706620337506,
        0.78435819209349822,
        1.0368888336833062,
        0.080936608807282526,
        -0.86786849557991197,
        -1.2708644295426057,
        -1.2874165108331899,
        -1.0906768932448743,
        -0.89993960197354517,
        -0.28395261422022194,
        0.095136067932650226,
        -0.60153875120434896,
        -0.31745032849397647,
        1.1348602890072148,
        1.3586526010374702,
        0.39827577651133228,
        -0.94601103026756883,
        -0.72452776908405303,
        -0.55108826270531897,
        -0.8959967049866121
      ]
    },
    {
      "dualCoef": -0.012500000000000001,
      "supportVector": [
        -0.28819300288864336,
        -0.69089132238686202,
        -0.69387436695975035,
        0.10138830231450294,
        0.37737754930046613,
        -0.19330135369863724,
        -0.42836189021872995,
        0.2201835467053532,
        0.27119587822562674,
        -0.095895094306878967,
        -0.46476034570369029,
        0.22802711943204801,
        -0.062687821578243583,
        0.24253565336099397,
        -0.86837067757289654,
        -0.64558483591184501,
        -0.22931049505434148,
        -0.67221638311838783,
        -0.74802012725768385,
        -0.50501772792214916,
        -0.51086959010045441,
        -0.74612153752024302
      ]
    },
    {
      "dualCoef": -0.012500000000000001,
      "supportVector": [
        -0.2860581191681692,
        -0.65852341729469521,
        -0.6924296746429337,
        0.54520087152263541,
        0.50934559426876502,
        0.064773408050880915,
        -0.78992331008885253,
        -0.43448633138066961,
        -0.49550625731497772,
        -0.66771579173833728,
        -0.81455337294522223,
        0.10889619398932797,
        0.22042067525294334,
        -0.35361701284044772,
        -0.72841071224273746,
        -0.1624445254670325,
        0.18957013866371708,
        -0.49624020201627828,
        -0.83578732025184033,
        -0.62856835613715112,
        -0.48439299772187699,
        -0.77622287778075139
      ]
    },
    {
      "dualCoef": -0.012500000000000001,
      "supportVector": [
        -0.2839497942999854,
        -0.61485099423711753,
        0.47484922175445654,
        0.45590129013534075,
        0.66463601198737599,
        0.19799799424977652,
        -0.10611448061733564,
        -0.020098854317702908,
        -0.44752225452594524,
        0.32820004331247765,
        -0.47800263869844445,
        0.32404387465581258,
        0.33336465113368335,
        -0.12522362339468027,
        -0.51828535291254862,
        -0.32435109836496467,
        0.3258189552263453,
        -0.47609038987030483,
        -0.89163785727814104,
        -0.65079409292673263,
        -0.45032214306884172,
        -0.8275116610858152
      ]
    },
    {
      "dualCoef": -0.012500000000000001,
      "supportVector": [
        0.078337711654414152,
        -0.43483841184352245,
        -1.1579557571352996,
        0.31376690438995941,
        0.54376343558128226,
        -0.28050460438486435,
        -0.84967912141582325,
        -0.52535188659185106,
        -0.4722576266202092,
        -0.83215661587799761,
        -1.1188839698240829,
        -0.12050665307505745,
        -0.15572274044877474,
        -0.76473778830818306,
        -0.67507484077008573,
        -0.19009559626035036,
        0.16727743784028387,
        -0.27127849325219056,
        -0.98710448316843191,
        -0.48470884118423896,
        -0.28803095095821513,
        -0.76259996445615452
      ]
    },
    {
      "dualCoef": -0.012500000000000001,
      "supportVector": [
        -0.94653414193512375,
        -0.78660346362446676,
        0.32371351018068339,
        0.68008192742207552,
        0.85322482156872348,
        0.53248462842351829,
        0.33443923224473721,
        0.51151840485061773,
        -0.076459798108703569,
        0.40510369123124718,
        0.26911650919587465,
        1.1101433048676441,
        1.1227189429815669,
        1.454967355174924,
        -0.28136389098969516,
        0.20399389380420263,
        0.73041943006367815,
        -0.012890939065561657,
        -0.53621330589223659,
        -0.95935785883585945,
        -0.89313625461224522,
        -0.80954641173549691
      ]
    },
    {
      "dualCoef": -0.012500000000000001,
      "supportVector": [
        -0.89480055750722665,
        -0.59721738684346282,
        0.69060391751749906,
        0.7933391655521006,
        1.1530559527947009,
        0.75452759451480733,
        0.19130621480504273,
        0.50981130763866633,
        0.24913740291369596,
        0.92765339124753188,
        0.78524972779611624,
        1.184919871782089,
        1.9489419624205204,
        1.0522029506396653,
        -0.20072706530889506,
        0.46449936109468898,
        0.98676455040464894,
        0.038126019971428594,
        -0.35767880170778538,
        -0.85655350099294536,
        -0.61984919200799937,
        -0.69179217408417515
      ]
    },
    {
      "dualCoef": -0.012500000000000001,
      "supportVector": [
        -1.1665655688986318,
        -0.52907107055133995,
        -0.18093497412338352,
        1.1405487524964304,
        1.598502035451228,
        0.64485767346773581,
        0.3719502096862255,
        0.955756153680969,
        2.350085893946928,
        0.38597314197351423,
        0.16022363480324667,
        1.8285071720718435,
        1.6039812290333844,
        1.5078180906761525,
        0.12202867556867304,
        0.26366363306496177,
        0.56091868843943182,
        0.39539073537415004,
        -0.56742750490355565,
        -0.73285909910170444,
        -0.79799431320662606,
        -0.56312405237460339
      ]
    },
    {
      "dualCoef": -0.012500000000000001,
      "supportVector": [
        -0.061873912382757676,
        -0.71655338689652159,
        0.21517741678818175,
        -0.58851016770133269,
        -0.568098274025859,
        -0.19079663677912001,
        0.40462391969270706,
        0.38785290600801348,
        0.25635868850917631,
        0.42072738489730999,
        -0.21445754244724977,
        -0.099572961882719399,
        0.13854963414447757,
        -0.13941469492203398,
        0.31051945472915415,
        -0.27178339950646224,
        -0.019076315806338548,
        0.2536123170707853,
        -0.42804097447071648,
        -0.79992670679068556,
        -0.7541126948541873,
        -0.58223604386612926
      ]
    },
    {
      "dualCoef": -0.012500000000000001,
      "supportVector": [
        -0.23136776990124583,
        -0.22169847829033318,
        0.60629441680179097,
        -0.30910682133441769,
        0.51777721280227917,
        -0.015951450084685351,
        -0.54091626048368668,
        -0.066312977589816927,
        0.26531613727434922,
        -0.22655235696002635,
        0.20525608538367471,
        -0.24954092102132672,
        0.80529574185844355,
        -0.014923332067533841,
        -0.60402549554894081,
        -0.19937367050276017,
        0.53485271878508234,
        -0.34626114907548872,
        -0.71537217296010602,
        -0.36576019698490975,
        0.028510691293014485,
        -0.46947100254745294
      ]
    },
    {
      "dualCoef": -0.012500000000000001,
      "supportVector": [
        -0.54510382389303536,
        -0.93292709401776974,
        -0.94881491002702678,
        0.45230198775418018,
        0.43703294902954731,
        -0.0018002005489378245,
        -0.61686790083184739,
        -0.13800881397819226,
        -0.35273232244924552,
        -0.51439336685463311,
        -0.86047431445583178,
        0.33704668485317191,
        -0.061037076078742529,
        -0.31922307078504358,
        -0.43515436196124085,
        0.40257352348245806,
        1.182548696371748,
        0.10970658117060389,
        -0.80158680637342783,
        -1.1870925638583787,
        -1.0775925447898609,
        -1.1129414469257193
      ]
    },
    {
      "dualCoef": -0.012500000000000001,
      "supportVector": [
        -1.1952119131985919,
        -1.1046045796417079,
        0.17113398391157619,
        -0.61341098555639262,
        -0.75840304727370556,
        -0.46731843814837881,
        0.011850075490680557,
        1.8815760923152491,
        2.373540359141447,
        0.84251272106216557,
        0.23768863540758356,
        1.0286697623163561,
        1.3198851806609795,
        0.69769838250242366,
        -1.1116590042269352,
        -1.2647938116804545,
        -1.0649636713043704,
        -1.2775841134139205,
        -0.63721494159211856,
        -0.94860908025867485,
        -0.77047744824300901,
        -0.83305575454085834
      ]
    },
    {
      "dualCoef": -0.012500000000000001,
      "supportVector": [
        -0.49168621762326609,
        -0.52289799730798303,
        0.12634762641739875,
        -0.036250031385537625,
        0.21594701084946646,
        0.13366754110287613,
        -0.21026158217292276,
        0.96057694455965215,
        1.6805966859588037,
        0.42513486377292709,
        -0.21211631065845193,
        0.78412885933019849,
        0.70856122715886471,
        0.39897286029109347,
        0.1861709462345251,
        0.4257566231195859,
        -0.67276862720404185,
        -0.14899715216973583,
        -0.58272568291975102,
        -0.65644924441801311,
        -0.62407136831350984,
        -0.64323603131346596
      ]
    },
    {
      "dualCoef": -0.012500000000000001,
      "supportVector": [
        -0.12483871176794124,
        -0.48211506254742398,
        0.47082393397079958,
        -1.0879145941641746,
        -0.76834663453436325,
        -0.88323415585966158,
        0.74894880940543807,
        0.66644764986059746,
        1.142998970827581,
        0.51571520818638272,
        0.76906127421089188,
        -0.3118928379113885,
        -0.43752345053474562,
        0.39288699090091322,
        0.27634347682346871,
        0.76329672208634358,
        -0.60343166675316995,
        0.0011129464818868376,
        0.18593283617243433,
        -0.30317111791814688,
        -0.28319762516402053,
        -0.51199296280491868
      ]
    },
    {
      "dualCoef": -0.012500000000000001,
      "supportVector": [
        0.98557290734549674,
        -1.1225854618831601,
        0.99091928337176916,
        -0.52442769627777919,
        -0.98362299660473229,
        0.37049495567644775,
        -0.50447852581344177,
        -1.0211635240407528,
        -1.2900148864304932,
        -0.78416737537488412,
        0.41819669665137127,
        -1.1806179851531153,
        -1.1566824530889908,
        -0.52564724546669728,
        1.6179744942807295,
        1.0816995542709293,
        0.47880080453420865,
        1.3475456123922129,
        -0.69974850311233328,
        -1.5748634183183687,
        -1.3841109299527317,
        -1.2774340536723434
      ]
    },
    {
      "dualCoef": -0.012500000000000001,
      "supportVector": [
        0.60382470885166506,
        -0.65404367427151455,
        1.2664011090916836,
        -0.24716515536035974,
        0.10487989218008871,
        0.40038049495302269,
        -0.47854374730761395,
        -0.63089568198059998,
        -0.41228868182095885,
        -0.45835560553206611,
        0.3761543470076541,
        -0.64312093065049092,
        -0.59576963947798123,
        -0.19553428085394306,
        0.11719291942005905,
        0.23054453844269601,
        0.8814437265453321,
        0.23052136412617283,
        -0.75672902253130847,
        -1.0106195657400914,
        -0.91914844143361485,
        -0.9383643531218071
      ]
    },
    {
      "dualCoef": -0.012500000000000001,
      "supportVector": [
        -0.52596564694157166,
        -0.42936752113470839,
        0.44076736849676534,
        -0.17944325520152504,
        -0.21418670306757773,
        -0.051767333082073555,
        -0.3358198879931098,
        1.1692125705591312,
        1.644430602055722,
        0.39716476179839183,
        0.035539058770457772,
        0.81707168626525417,
        0.82535322055766946,
        0.71145803048318546,
        -0.91788471883132117,
        -0.96197709741939474,
        -0.46102544813410939,
        -0.91292333499637901,
        -0.61798667737270152,
        -0.5357326632503101,
        -0.3716403633843392,
        -0.66829146771515469
      ]
    },
    {
      "dualCoef": -0.012500000000000001,
      "supportVector": [
        -0.51403266756003818,
        -0.27160483387422174,
        -1.0517460642423648,
        0.29020893799843278,
        0.1352505631644873,
        -0.40091804777343681,
        -0.63820601897114415,
        -0.057762196965848153,
        -0.115900234002227,
        -0.44955067743841026,
        -0.76578472358824423,
        0.24189057686835813,
        -0.098145188324078161,
        -0.2886469660494847,
        -0.97376610491148363,
        0.033892926686436807,
        0.61072915596977928,
        -0.17455561948492376,
        -0.79372306844156704,
        -0.47997586192844055,
        -0.35512216574578415,
        -0.68244856430750989
      ]
    },
    {
      "dualCoef": -0.012500000000000001,
      "supportVector": [
        -0.12465870358665306,
        -0.82287331927354801,
        1.0678710140711885,
        -0.024442709119252049,
        0.6523534403334903,
        0.22929518444219171,
        0.76231517161564022,
        -0.48012151841847439,
        -1.149562749041986,
        0.34540908264418124,
        -0.27293322544687926,
        -0.34386237318227675,
        -0.096123466117600143,
        -0.34266840642154367,
        2.2537545070280873,
        0.78554691430318191,
        1.4397261833881521,
        1.2278680606317001,
        -0.80701665959428337,
        -1.1716690642401588,
        -0.94194548822017443,
        -1.0703854707139091
      ]
    },
    {
      "dualCoef": -0.012500000000000001,
      "supportVector": [
        1.7688839024004266,
        0.044428299590809878,
        -0.30373412677666234,
        -1.9325319475857972,
        -1.7396691645042173,
        -1.0801956861647914,
        -0.36649838597463408,
        0.22439321936635881,
        0.74262459379079093,
        0.088476027478690891,
        0.09793232130290512,
        -1.3481581026451319,
        -0.89241274713669938,
        -0.75216574083999443,
        -0.50791778786640018,
        -1.0512659417271779,
        -1.0998647983391714,
        -1.0626649717984551,
        0.65709495964070486,
        0.36876590034889739,
        0.14929498010288489,
        0.47863282653249345
      ]
    },
    {
      "dualCoef": -0.012500000000000001,
      "supportVector": [
        0.74113999257418961,
        0.3574675191800627,
        0.43124273181423284,
        -0.57601314935688019,
        -1.2706722948930944,
        -0.28789195787716354,
        0.42562327285144425,
        -0.3431300943395198,
        -0.64945113410770383,
        -0.061065726681955923,
        -0.019755342843041049,
        -0.67276536428913092,
        -0.55707654882110447,
        -0.53191171738884302,
        0.88386145237664027,
        -0.09106072347199072,
        -0.30398829962909646,
        0.30567200615840978,
        -0.28489780297767592,
        0.28308731907124768,
        0.40068979808701555,
        0.070035117971615865
      ]
    },
    {
      "dualCoef": -0.012500000000000001,
      "supportVector": [
        -0.027941046453609241,
        0.030831990398870166,
        0.74827968022938396,
        0.043954086290260999,
        0.33834682016517159,
        0.30915455456039387,
        -0.27394316822926756,
        -0.62106658484274624,
        -1.0532852687258141,
        -0.16175606088136057,
        0.46485518573441981,
        -0.39140658369443443,
        -0.091040222421228931,
        -0.27403007272274582,
        0.76030537811455745,
        0.66689705437929236,
        0.95391789103689417,
        0.79591343954136695,
        0.38117972756362828,
        -0.18287647737617452,
        -0.76105057819682431,
        -0.063488625523463474
      ]
    },
    {
      "dualCoef": -0.012500000000000001,
      "supportVector": [
        -0.88629252053581697,
        0.29440889273467635,
        0.12682828366467505,
        0.71733791134871316,
        0.87842096274702608,
        0.46065939578382498,
        -0.62075149804698238,
        0.039042995185937679,
        -0.41313503826966613,
        -0.31951921696597185,
        0.12502071051590533,
        0.61216377433556668,
        0.3339274651308245,
        0.24621369866132053,
        -0.12382850353601425,
        0.093253107773800609,
        0.50560780914489223,
        0.12111337419960209,
        -0.66435557891623909,
        0.19659548247359707,
        0.44254727270316913,
        -0.2056068712559172
      ]
    },
    {
      "dualCoef": -0.012500000000000001,
      "supportVector": [
        0.30176905413418181,
        0.57844076281489054,
        -0.71548148753639773,
        -1.0492908907311411,
        -1.2625023516033873,
        -0.85215014136735545,
        0.56589599472915564,
        -0.28659410036804578,
        -0.40860329328411255,
        0.068242513383560688,
        -0.55308394731302002,
        -0.99226038580825648,
        -0.93065067680931146,
        -0.80193800360173784,
        1.8920518356572242,
        0.4950716215527145,
        -0.78239337497205419,
        1.1200354027738251,
        0.14435895267805982,
        0.65623233046751395,
        0.20928402286651843,
        0.33881182706571028
      ]
    },
    {
      "dualCoef": -0.012500000000000001,
      "supportVector": [
        -0.52997175853971701,
        0.40305499130570627,
        -0.28540107308663981,
        -0.32255783354323114,
        -0.12902930681463831,
        -0.48265673242549195,
        0.24991194114337811,
        0.60006500697110365,
        0.52821010456947759,
        0.46965677509256271,
        0.1273056404142652,
        0.22108596068072495,
        -0.43670790021014017,
        0.42718788205384434,
        -0.72751776487579201,
        -0.80212708450488324,
        -0.76302936272391331,
        -0.85744623524744379,
        -0.31589302677551317,
        0.68534918429321501,
        0.58144006661244396,
        0.10853449788066268
      ]
    },
    {
      "dualCoef": -0.012500000000000001,
      "supportVector": [
        -0.13014089782858346,
        0.061758998436741361,
        0.17729742125519912,
        0.34732562594034505,
        0.20205564880227203,
        0.24314733822516438,
        -0.76794444075992085,
        -0.18505187470814116,
        -0.26926814390400361,
        -0.58236931414560389,
        -0.35437049797284509,
        0.15967344690583021,
        0.20263544029785335,
        -0.048246803429027853,
        -0.069633329818384923,
        0.028652119529575928,
        0.41919588514923645,
        0.10928269316670235,
        -0.56256805633773099,
        -0.14461293769548036,
        -0.2205914125163437,
        -0.4036613062844473
      ]
    },
    {
      "dualCoef": -0.012500000000000001,
      "supportVector": [
        -0.91538855857139889,
        -0.12621685965167587,
        0.14916456587910798,
        0.046676333720029009,
        -0.35097260659097301,
        -0.12517555722999135,
        -0.099675644584331258,
        0.54079600292450647,
        0.17716898345489382,
        0.04829247301594923,
        -0.42250390760387085,
        0.459587091553739,
        -0.31869428648418791,
        0.062030725671137765,
        -0.20579152769663545,
        -0.55719380739634494,
        -0.21046496371118886,
        -0.36475280592021975,
        -0.38331150167210709,
        0.056377308563296369,
        0.22743119544365314,
        -0.1113165423446434
      ]
    },
    {
      "dualCoef": -0.012500000000000001,
      "supportVector": [
        0.60009106567004544,
        0.6380627092758181,
        -0.04402463962714278,
        -0.83945050040935965,
        -1.119955245314141,
        -0.41829416225246996,
        -0.076872131533171198,
        0.30862399017085418,
        0.68337166724405352,
        0.15841804799091011,
        0.68745015350741812,
        -0.38111790607965346,
        -0.55642130341076601,
        0.21538462150667481,
        -0.40704873263685803,
        -1.0584056648857845,
        -0.90098197172388828,
        -0.82466121671667603,
        -0.25154045394384406,
        0.80732236091553911,
        0.9897922715555969,
        0.40558365896569881
      ]
    },
    {
      "dualCoef": -0.012500000000000001,
      "supportVector": [
        1.7435824266436208,
        0.85745782595883679,
        0.82869270461620947,
        -0.77929119260723168,
        -1.0460571549348705,
        -0.068020668480624144,
        -0.18507869847499084,
        -1.0253108975538101,
        -1.082391842488486,
        -0.72295365076653506,
        -0.59462724578851356,
        -1.3082832508858362,
        -1.5942034823121045,
        -1.0146445867111802,
        1.8975254868225069,
        0.54103228912003043,
        1.7216241592940731,
        1.030956541793205,
        0.47417009511215485,
        0.64913138497119183,
        -0.14331980364556557,
        0.49880010341251652
      ]
    },
    {
      "dualCoef": -0.012500000000000001,
      "supportVector": [
        -0.59710661570647761,
        1.0023351607327831,
        -0.54253361534164413,
        0.80205229809411605,
        0.60561842925365406,
        0.3954493089026862,
        -0.10085080043477289,
        -0.31346261316776558,
        -0.081327409417246227,
        -0.43793734269574991,
        -0.099249799217913492,
        0.38671936724931744,
        -0.41102304271083978,
        0.18990947837840783,
        -0.33440212384231682,
        0.38456688732726413,
        0.93940590981931471,
        0.31868007533239656,
        0.36519872814400495,
        0.53614226637536566,
        0.4013267109432973,
        0.59889407785254112
      ]
    },
    {
      "dualCoef": -0.012500000000000001,
      "supportVector": [
        -1.7295799435438202,
        0.43002544030114109,
        -0.54258960037448223,
        1.7801499504635103,
        1.6526817947235155,
        1.0784701595148252,
        0.69589335249269324,
        0.9058341282831065,
        -0.21918776678569679,
        0.85601873412637364,
        0.16601344907830698,
        1.989351188335047,
        0.93661143691787974,
        1.2774873682185102,
        1.3197350971314961,
        0.67083441550434064,
        1.3700416221894312,
        0.92320522813680139,
        -0.28418886957215378,
        0.21594480938345731,
        0.23756463432854205,
        0.015278086919284546
      ]
    },
    {
      "dualCoef": -0.012500000000000001,
      "supportVector": [
        0.20747456112728199,
        0.04445018195676665,
        -0.51931480491189197,
        0.65728835872345104,
        0.6671851060833851,
        0.19551843606254876,
        -0.54821596825410412,
        -0.77897978343226093,
        -0.87238239831861009,
        -0.69341856413493774,
        -0.80148841400360216,
        -0.062038972914065606,
        -0.20874891368349324,
        -0.40387753434951995,
        -0.34303441455962946,
        0.73614639480012578,
        1.214781851422863,
        0.51809424791335712,
        -0.76276890159963129,
        -0.43288008055691413,
        -0.27990081459546556,
        -0.61604337401401121
      ]
    },
    {
      "dualCoef": -0.012500000000000001,
      "supportVector": [
        0.59478199381797581,
        1.2417704968144514,
        0.6217579291498716,
        0.19689911054085465,
        0.00035934903604360605,
        0.37899927768617248,
        0.20863554005410273,
        -0.64598256163552903,
        -0.94220798691658403,
        -0.2451627042044501,
        0.78223921588825818,
        -0.30534363352974614,
        -1.3924239578138669,
        0.68561685470822209,
        1.7838289486308005,
        1.9061221874034671,
        0.68717377984150918,
        1.9168078493624883,
        0.60799771990496332,
        0.54952513379279344,
        -0.40585143921888228,
        1.5341904907494561
      ]
    },
    {
      "dualCoef": -0.012500000000000001,
      "supportVector": [
        -0.57243390014623519,
        0.11459052046833776,
        0.35662863193101874,
        0.97915022438696719,
        0.81483213205955762,
        0.75827919711346725,
        1.3619620910479779,
        0.10823846560824041,
        0.60341649238727835,
        0.57113040669096826,
        0.13987079510990494,
        0.820283264138576,
        0.32770630203285778,
        0.45713891382285249,
        1.5419067497630876,
        0.80213882284999949,
        0.97581717160913084,
        1.1359335227905387,
        -0.29349490320282207,
        -0.30424558259641626,
        0.074248779700438111,
        -0.22802871794932988
      ]
    },
    {
      "dualCoef": -0.012500000000000001,
      "supportVector": [
        -0.56650427442577367,
        0.051961637859889387,
        -0.94206072832992438,
        0.56597775160786656,
        0.76681212870591742,
        -0.077357613667193834,
        -0.49209867883259661,
        0.00098509084621124939,
        -0.13317399430910243,
        -0.0019377795908827721,
        -0.49487665676999615,
        0.43670629961285395,
        0.14058650976895545,
        -0.069803387186680527,
        0.31958646647367006,
        0.063087696741669252,
        0.81637906764925605,
        0.068470564410891985,
        -0.46002092325821964,
        -0.062373340129126487,
        0.030374669650574108,
        -0.16483634702633732
      ]
    },
    {
      "dualCoef": -0.012500000000000001,
      "supportVector": [
        0.2192531541754113,
        0.79848975057017169,
        -0.22990867221053904,
        -0.41144477092513176,
        -0.41930789819103775,
        -0.29058440212612069,
        -0.22732401676081562,
        -0.08799412735501011,
        0.024506241816396823,
        -0.3469039548262246,
        -0.026790583250107008,
        -0.35222276704046596,
        -0.56040161490807971,
        -0.1495846835603494,
        -0.91448947100504374,
        -0.58826990342530228,
        -0.37397840999026588,
        -0.77429873095669066,
        -0.043045371548148074,
        0.37590051791225809,
        -0.1648342562615244,
        -0.088626987767993812
      ]
    },
    {
      "dualCoef": -0.012500000000000001,
      "supportVector": [
        -0.5588716742395835,
        1.7523243742433234,
        0.66316379242216594,
        1.5440171344775873,
        1.1154473597889196,
        1.5291542107426361,
        -0.85156218283902929,
        -0.34713809724435313,
        -0.38989090038705582,
        -0.34526095920135103,
        0.25304610819205814,
        0.92047742779688824,
        1.1210761779100693,
        0.5405701456359101,
        1.2182118102366568,
        1.0744730018195421,
        1.4453619786470853,
        0.90926002935407024,
        1.2071651872258897,
        0.96996059314362526,
        0.47308014681973387,
        1.2231066687081349
      ]
    },
    {
      "dualCoef": -0.012500000000000001,
      "supportVector": [
        -0.14143621267617021,
        -0.24129009212378855,
        -0.46417454709284256,
        0.50599728098793051,
        0.91631250105870599,
        -0.02751588818358738,
        -0.11090087363674271,
        -0.24881084033847653,
        -0.22508149534259153,
        -0.17562982156629159,
        -0.46333097938986795,
        0.21796127821016573,
        0.39987130668133469,
        -0.24883005178983456,
        -0.34850809701710639,
        0.23694929938560644,
        0.67978607294012483,
        0.1016929751862909,
        -0.49259113190920145,
        -0.50565022726086606,
        -0.47660245155756614,
        -0.58174514795017807
      ]
    },
    {
      "dualCoef": -0.012500000000000001,
      "supportVector": [
        -0.53721249591536613,
        -0.5761177105219415,
        -1.1816351874442272,
        0.61726607515063026,
        0.82670484848692538,
        -0.12360931090947086,
        -0.39658273020853269,
        -0.67374467457285192,
        -0.85995261966322745,
        -0.59451176417551432,
        -0.31370608901200242,
        -0.0038012436005315764,
        -0.2334993588558382,
        -0.20411897744554008,
        -0.37990262446603695,
        0.59843110766563201,
        1.1284223373222584,
        0.3702891194996093,
        -0.8538618733050114,
        -0.69252824097155108,
        -0.58124633421031802,
        -0.82473588573426304
      ]
    },
    {
      "dualCoef": -0.012500000000000001,
      "supportVector": [
        -0.13359387113851803,
        0.15187037882221907,
        0.54615742498532416,
        0.34997502607336806,
        0.73736079013660971,
        0.11833883373052609,
        0.17226236105960258,
        -0.44729216848896886,
        -1.2300813325657245,
        0.058336920897782349,
        -0.61094195789720218,
        -0.041368065681278099,
        -0.25537978197229705,
        -0.29733892619220553,
        0.02841600215310609,
        0.53332063642020155,
        1.5858435074285706,
        0.43060316669344978,
        -0.36323688540883953,
        -0.12309111698057133,
        -0.2271196893841835,
        -0.29015763809158684
      ]
    },
    {
      "dualCoef": -0.012500000000000001,
      "supportVector": [
        -0.53206045782782407,
        0.42300542491624721,
        -0.55100860411636232,
        1.05569949999754,
        1.0260743779622765,
        0.34505123699330231,
        -0.76026881238625066,
        -0.77193980610940605,
        -0.85409383146348439,
        -0.7596781531367347,
        -0.76375263403615767,
        0.25536484052507752,
        0.28083486546994429,
        -0.33425334320965588,
        -0.12741726761809818,
        1.008009560608861,
        1.7688064817722049,
        0.72702442358115571,
        -0.54305558853377189,
        0.053061879813242833,
        0.16113333329422974,
        -0.26737321792687846
      ]
    },
    {
      "dualCoef": -0.012500000000000001,
      "supportVector": [
        -0.50964983446690204,
        1.155393612511145,
        -0.86263711253992803,
        1.1923353439260147,
        0.77678082019267858,
        -0.025637194922924766,
        -0.89881006991332768,
        -1.3421225696705459,
        -1.7801164969858232,
        -1.1592634261135277,
        -0.74805047197278929,
        -0.0068472341743807189,
        -0.54153694316791512,
        -0.45921309460236442,
        0.95707543228475878,
        3.0891090808555219,
        2.2009307358064332,
        1.1209881726315076,
        -0.12305186152592201,
        0.19978266504939129,
        0.20688789636320781,
        -0.036272267759077478
      ]
    },
    {
      "dualCoef": -0.012500000000000001,
      "supportVector": [
        0.29301830009363067,
        -0.17889463440874373,
        1.3025497508891006,
        0.58142704460138783,
        0.19279497493305786,
        0.67710005858473021,
        -0.3257905441840715,
        -0.96613494116978305,
        -1.5063599215126826,
        -0.51478825362894731,
        0.83253496641790947,
        -0.20645168738424366,
        -0.76484874501552513,
        0.47401380068857257,
        1.3103608047792219,
        1.0588342755675628,
        0.1975413225459445,
        1.1488916093229575,
        -0.31733687730385929,
        -0.6060942195018566,
        -0.32363334267505162,
        -0.52437565189650659
      ]
    },
    {
      "dualCoef": -0.012500000000000001,
      "supportVector": [
        1.0933957204108677,
        -0.72785316425461188,
        0.01305087937792068,
        -0.74484790326241834,
        -0.17203499464357189,
        -0.59754183920808879,
        -0.52449593007805384,
        -0.34464978297061127,
        -0.42699413507333323,
        -0.17870360403299407,
        -0.38535122245478981,
        -0.79212332559500676,
        -0.53840340645776297,
        -0.52376155623020793,
        0.27863155878778362,
        -0.33488977319037255,
        0.21026594474754834,
        -0.3538559117624212,
        -0.63851443437661171,
        -0.66075431653108685,
        -0.79191958473519242,
        -0.61951222730977462
      ]
    },
    {
      "dualCoef": -0.012499999999999789,
      "supportVector": [
        -1.699187093418369,
        0.0015091455022102477,
        -0.060440891767198406,
        1.9100721626455517,
        1.3158844553190059,
        0.73358545022038535,
        0.51196142578122483,
        1.0249885856972401,
        -0.953762582876994,
        0.14545524740811885,
        -0.19663893658957565,
        2.1808440614862148,
        0.46010855073162471,
        0.76734653147999399,
        0.97380515306987114,
        0.78622363068129208,
        0.98411065362043748,
        1.0659035480446544,
        -0.21181706350586504,
        -0.31441457192500777,
        -0.33294755153427252,
        -0.29442429212985105
      ]
    },
    {
      "dualCoef": -0.012500000000000001,
      "supportVector": [
        0.30978544323642948,
        -0.13644232409707349,
        -0.17555053648551658,
        0.032333459100692692,
        0.32987547492050584,
        -0.16627000704317851,
        -0.50880447206461865,
        -0.85232784396424499,
        -1.159730285761416,
        -0.53724212818322881,
        -0.26009691863492196,
        -0.5501913899234373,
        -0.59229254982904211,
        -0.61276686538019831,
        0.19883847917636352,
        0.43219602503913002,
        0.9187605859409218,
        0.15096534654261076,
        -0.56048214154747367,
        -0.40257673555834567,
        -0.12543946294958155,
        -0.42811590058056681
      ]
    },
    {
      "dualCoef": -0.012500000000000001,
      "supportVector": [
        0.51915886438012093,
        -0.28588371159192227,
        0.39867342548297247,
        0.12657056979677445,
        0.67260653042948915,
        0.11639619802081883,
        -0.47204576272448084,
        -0.56507867744309648,
        -0.22416322292203245,
        -0.44940919726155987,
        0.4118812419613625,
        -0.3445435188122179,
        -0.13850058964214809,
        0.045764893956784056,
        -0.65378806748759821,
        -0.20471438922861185,
        0.19239020191333822,
        -0.30536391474228114,
        -0.74763858761998248,
        -0.34737694906332783,
        -0.48968211621436813,
        -0.74142888886494041
      ]
    },
    {
      "dualCoef": -0.012500000000000001,
      "supportVector": [
        -0.26160976063786212,
        -0.74245274898166136,
        -0.59945043258485042,
        0.73806078839574096,
        0.88275451820154904,
        0.48234742689024351,
        -0.98199168044546803,
        0.045880057631788734,
        0.22938581428601271,
        -0.51361760827046288,
        -0.17041708767507988,
        0.52508017645879457,
        0.95363696960130939,
        0.1682155307031564,
        -0.40188616090400781,
        -0.035846884522249441,
        0.87949875209168016,
        -0.3368145195028604,
        -0.72286839671928349,
        -0.72013459442863448,
        -0.34195414305056065,
        -0.71246380396779208
      ]
    },
    {
      "dualCoef": -0.012500000000000001,
      "supportVector": [
        -0.74182620943402711,
        -0.60766299711413696,
        -0.15748660211732171,
        1.4653865369501171,
        0.97412634060423975,
        0.99232451692106005,
        -0.058750452221755914,
        0.20960193822825032,
        0.4064718989134109,
        -0.11660756279271405,
        0.03879648905467914,
        1.1365846060751659,
        1.2430420904804493,
        0.60606999137439055,
        -0.82447162302120014,
        0.18733731001830778,
        0.84570621295940751,
        -0.099467079979325732,
        -0.77894012618786201,
        -0.53878573437121746,
        -0.40247224050513719,
        -0.6889012916801488
      ]
    },
    {
      "dualCoef": -0.012500000000000001,
      "supportVector": [
        -0.060526323971924603,
        -0.26455500571973461,
        0.032902674618980624,
        0.88642661316920024,
        1.1094993272217279,
        0.55547758097569289,
        -0.38160940125005782,
        0.071040791525180239,
        -0.059574672846325928,
        0.10439758479416547,
        -0.27378837513579224,
        0.66299796283028378,
        1.167748394189986,
        0.14612697025808427,
        -0.14388366821559992,
        0.26775579792306481,
        1.0369826433949141,
        -0.063821968737213353,
        -0.70445205192212057,
        -0.46828108996241558,
        -0.13256441138886071,
        -0.58698466407629746
      ]
    },
    {
      "dualCoef": -0.012500000000000001,
      "supportVector": [
        -0.043285991577626831,
        -0.39880252201747268,
        1.5506053334937435,
        -0.12698047234373125,
        0.26848418330520962,
        0.57420978068930151,
        -0.21745021057312097,
        0.013143840373247338,
        -0.13128270998944225,
        -0.27549018208660642,
        0.19897078063521934,
        -0.081496844971626028,
        -0.18505651616654062,
        0.056143321214834063,
        1.6900635402064197,
        -0.46245794386479416,
        -0.42957881761681826,
        0.21734482800645755,
        -0.72078538871028575,
        -0.23655629623218105,
        -0.099005686440357843,
        -0.42401809971756593
      ]
    },
    {
      "dualCoef": -0.012500000000000001,
      "supportVector": [
        -0.64773295168174816,
        -0.39678115140783499,
        0.89495286654990758,
        0.48995094674015538,
        0.91226357237114752,
        1.0326799523574095,
        -0.19263865228831126,
        0.80561320069446452,
        0.46143586723168967,
        -0.048482640519716916,
        0.18083296790898185,
        0.89978467171353915,
        0.55028341427517036,
        0.81149270213258162,
        1.0956186020365788,
        -0.17712783990347788,
        0.85843297579158484,
        0.49937141477308639,
        -0.28923874800552002,
        -0.15257985477797545,
        0.15767036437623089,
        -0.2581850985497095
      ]
    },
    {
      "dualCoef": -0.012500000000000001,
      "supportVector": [
        0.33707411084778266,
        -0.13221451672550039,
        0.60027357453539454,
        0.054083225789768638,
        0.91536409348412373,
        0.14137097050478545,
        -0.63344168747603569,
        -0.50402218140184341,
        -0.4875235125565785,
        -0.80699446252870455,
        -0.12439374758517606,
        -0.29951705694585246,
        0.24323157542062199,
        -0.41929059504209426,
        0.97448660118282182,
        0.15970535643118716,
        0.98275866176340221,
        0.31439886301874831,
        -0.59383822525231167,
        -0.32883265113860993,
        -0.08082333898032526,
        -0.43937185350239916
      ]
    },
    {
      "dualCoef": -0.012500000000000001,
      "supportVector": [
        -0.70134564904803121,
        -0.18491671957162562,
        -0.73721066930650525,
        1.1122316596162261,
        1.2826077916371983,
        0.42071272582069924,
        -0.88921762392947723,
        -0.20309676830075343,
        -0.16373907699094431,
        -0.5796158057689742,
        -0.89644936331489844,
        0.65910196504400731,
        1.0712342046643395,
        -0.082277168255135424,
        -0.047141910296868983,
        0.48026330795356531,
        0.85453161748640571,
        0.30453564298285929,
        -0.58754476789812315,
        -0.22841795952772401,
        0.061080942573609985,
        -0.45673326026726535
      ]
    },
    {
      "dualCoef": -0.012500000000000001,
      "supportVector": [
        -0.99875633839793521,
        -0.04788101106629248,
        0.46224725949932349,
        1.1940290092677122,
        1.3474319334714182,
        1.0049682020439132,
