{
  "bias": [
    0.051681153284302769,
    0.19420700578124905
  ],
  "intercept": 0.99969489561271274,
  "kernel": {
    "parameters": [
      {
        "name": "gamma",
        "value": 0.000244140625
      }
    ],
    "type": "rbf"
  },
  "modelName": "cStress",
  "modelType": "svc",
  "normparams": [
    {
      "mean": 0.7921504976641941,
      "std": 2.6647880323884174
    },
    {
      "mean": -0.055341221349967891,
      "std": 1.0033923627404242
    },
    {
      "mean": 0.19538142522505728,
      "std": 1.187515164005714
    },
    {
      "mean": 0.077933967320120812,
      "std": 1.032880384067608
    },
    {
      "mean": -0.010169332560320142,
      "std": 1.0198624831814689
    },
    {
      "mean": 0.15401292499855698,
      "std": 0.34678663983635916
    },
    {
      "mean": 0.076833114543166575,
      "std": 0.32946048977794373
    },
    {
      "mean": 0.18459198453139838,
      "std": 0.12420021976823974
    },
    {
      "mean": 0.30195296026059509,
      "std": 0.39035359696341554
    },
    {
      "mean": -0.1541947720885169,
      "std": 0.32015152976279099
    },
    {
      "mean": -0.43039327348755241,
      "std": 0.78384973746726927
    },
    {
      "mean": -0.21133053682802716,
      "std": 0.92350529508883528
    },
    {
      "mean": -0.41114675706366527,
      "std": 0.80482057367249438
    },
    {
      "mean": 0.5819768801786287,
      "std": 0.30175452132436326
    },
    {
      "mean": 0.18963879249168056,
      "std": 0.50576390084501499
    },
    {
      "mean": 0.1370116115701685,
      "std": 0.56203347110922075
    },
    {
      "mean": 0.90390264245942409,
      "std": 0.71422340566186282
    },
    {
      "mean": 0.58743890483094419,
      "std": 0.4352666004020605
    },
    {
      "mean": 0.063807799468975107,
      "std": 0.49971189261985854
    },
    {
      "mean": -0.022777797005534391,
      "std": 0.4594852335218495
    },
    {
      "mean": 0.80582783066741381,
      "std": 1.008201051958183
    },
    {
      "mean": 0.61130659910410612,
      "std": 0.40346357811385963
    },
    {
      "mean": 0.17422796603957669,
      "std": 0.49201848308255813
    },
    {
      "mean": 0.16424346064747969,
      "std": 0.46571748532414392
    },
    {
      "mean": 0.92271194808106816,
      "std": 0.87438485446961745
    },
    {
      "mean": 0.34173454893450972,
      "std": 0.20372471801907649
    },
    {
      "mean": 0.073880413031810963,
      "std": 0.35358509872035698
    },
    {
      "mean": -0.10730262773097624,
      "std": 0.31320376023100288
    },
    {
      "mean": 0.47229952088269628,
      "std": 0.56054839537183165
    },
    {
      "mean": 0.32635248282514212,
      "std": 0.31118689365253888
    },
    {
      "mean": -0.25575180678624665,
      "std": 0.4155672359419002
    },
    {
      "mean": -0.32889674212324144,
      "std": 0.39676314589184575
    },
    {
      "mean": 0.13817887115569258,
      "std": 0.73624492025883304
    },
    {
      "mean": 0.65016096082750008,
      "std": 0.48855730976288997
    },
    {
      "mean": 0.13749901500296022,
      "std": 0.6695562557581225
    },
    {
      "mean": 0.074070251876408436,
      "std": 0.69069771427584581
    },
    {
      "mean": 0.91670816894580454,
      "std": 1.1254932417360286
    }
  ],
  "probA": -20040.040235465589,
  "probB": -20037.766199334881,
  "support": [
    {
      "dualCoef": -3.4526698300124397e-05,
      "supportVector": [
        -0.15316485609989128,
        0.6263092486393006,
        -0.88453009087956069,
        1.0333921710501495,
        -0.71585217864412132,
        0.7019532551301122,
        0.92768245982653785,
        0.087814592115563139,
        0.71247091205912561,
        0.65197098650921437,
        -0.99089646919042729,
        1.5407106428467097,
        -1.1620582951999729,
        0.5496358755802353,
        -0.62205654769827734,
        -0.40600350665294249,
        -0.26850984157254465,
        0.4342807355016009,
        -0.95539270529187925,
        -1.4368560896551545,
        -0.28526517734852763,
        0.88519966442539932,
        -1.0654081627454965,
        -1.1760166741112141,
        -0.29386203090521418,
        -0.14595881388054208,
        1.6278190733433273,
        0.086522029835167311,
        -0.030737465025056872,
        -0.046694078405364513,
        -1.3439885522469632,
        -1.2055760495787775,
        -0.86531504209463994,
        0.16151607830432868,
        -0.30465269308778309,
        -0.52591943226361759,
        0.14874815597269148
      ]
    },
    {
      "dualCoef": -3.4526698300124397e-05,
      "supportVector": [
        -0.18658522639355962,
        1.0296433514697647,
        0.30192743591828491,
        -0.083340621213143923,
        -1.031966758379534,
        -0.30998643255308495,
        -0.26557332291892771,
        0.40373193768085575,
        0.051957939982499923,
        -0.44218143241271951,
        0.10940597442726264,
        -0.79043726874618536,
        -0.53931143861972353,
        0.8332593381688953,
        0.15149453041129157,
        0.37914160635433053,
        0.55866886082471623,
        -0.46613785645582212,
        0.53506603944689146,
        0.4777489268003588,
        0.4191562114747,
        0.3519461420745339,
        0.42930469629875639,
        0.84010948551032127,
        0.63642097234615624,
        -0.28520340603759098,
        -0.7475172513072661,
        -0.16819632012735231,
        -0.55110124624118362,
        -0.22200031864569314,
        -0.65374870654457784,
        -0.41773646742656012,
        -0.42160488998181905,
        -0.57829890884337687,
        -0.20182178038352239,
        -0.24180396117219977,
        -0.35267798700240188
      ]
    },
    {
      "dualCoef": -3.4526698300124397e-05,
      "supportVector": [
        -0.27552903180791583,
        -0.70440124829060502,
        -0.093012756876580005,
        2.5934896062340935,
        0.036912122914083884,
        0.467511400647183,
        0.71728323068083266,
        0.019151005636935194,
        0.72285344196753742,
        0.81650648837531692,
        -0.89277636306082531,
        -0.75669541500452508,
        -1.1019747115666316,
        1.0874030776553172,
        -0.37614101809923356,
        -0.28109043531659877,
        0.71596950690149919,
        0.38572603144047463,
        0.13451016230260035,
        0.58063421784742919,
        0.39470611765163205,
        0.66671043428352739,
        -0.18275043386736556,
        -0.18619858863270586,
        0.38881465402437254,
        -0.5156439900521369,
        -0.7405326055090975,
        -0.23404417014146778,
        -0.61924813742443829,
        0.056109495718877536,
        -1.0275903202246508,
        -0.51076111546760927,
        -0.67595553575255507,
        -0.45966224920916071,
        0.53539091533818772,
        0.61083610246146858,
        0.0043134791682371207
      ]
    },
    {
      "dualCoef": -3.4526698300124397e-05,
      "supportVector": [
        0.68255240942528839,
        0.770051977617906,
        0.57736602453389996,
        0.84473743964281622,
        -1.0971600105143016,
        0.37710861835173382,
        -0.21597908140501071,
        0.38193662339006129,
        0.091714808876655576,
        0.073822349895393061,
        -0.12798834489321115,
        0.21393954987788144,
        -0.65186301735993468,
        -0.11147231260970027,
        0.16819800933212581,
        -0.27162774638003589,
        0.21054479733868828,
        0.50644482903282595,
        -0.49087087389026346,
        -0.72969077611045463,
        -0.38040348517453215,
        0.012756948512842422,
        -0.23394936875800226,
        -0.18586142422687688,
        -0.31929894866429315,
        0.038772789768721318,
        0.54854907681081189,
        0.40752991816365541,
        1.1537626544667361,
        -0.12578994038858546,
        -0.86161931383845891,
        -0.60915835358468584,
        -0.50088585651780793,
        -0.87481897598525127,
        0.27705742231232866,
        0.360409898997543,
        -0.32958160429877131
      ]
    },
    {
      "dualCoef": -3.4526698300124397e-05,
      "supportVector": [
        0.12561450463724386,
        -0.26148818415862934,
        -0.30397953757967339,
        0.013137910501901044,
        -0.78399281829017053,
        0.71659375383380308,
        0.54148895393489971,
        0.058852566259330774,
        0.39808548460208304,
        0.51322334148095938,
        -0.49746738984206745,
        1.4963500382431738,
        -0.4298072042796604,
        0.5767057141559836,
        -0.094304487745930629,
        -0.49834680628265304,
        0.36101879156255401,
        -0.075431367665997368,
        -1.5434550230537771,
        -1.3177979376065709,
        -0.83390355364978697,
        0.47153244330671601,
        -1.0785582472405923,
        -1.4056178946907714,
        -0.61426150017361159,
        0.86967634557459228,
        1.660394764745895,
        1.2421591134376253,
        1.480231259457806,
        -0.27167169637899469,
        -0.90734102122404814,
        -0.60634134830665642,
        -0.73514692479560029,
        0.060837231696105297,
        0.34573398967797703,
        0.67307009695356634,
        0.041916917506376009
      ]
    },
    {
      "dualCoef": -3.4526698300124397e-05,
      "supportVector": [
        -0.13581032000665422,
        -0.41445376194102207,
        -0.62983458877477194,
        0.073928031978963069,
        0.6584876613812346,
        0.075122797198399774,
        0.10962749818930004,
        0.13751340879021531,
        0.038011103476334518,
        0.19773801639423608,
        -0.20001793067359525,
        0.58131644970171148,
        -0.50500425719843178,
        1.208051951973844,
        -0.39372123323273983,
        -0.22373811836797022,
        0.29607938215357715,
        0.32733729409422219,
        -0.40706230668633081,
        0.0095497395707234058,
        -0.27303961897539808,
        0.87953255964333743,
        -0.54515576962866807,
        0.064212923613345324,
        -0.10465761311631062,
        -0.25557607698777735,
        -0.55209705784778806,
        0.13983108795829724,
        -0.3956463071365382,
        -0.062659914862912724,
        -0.69514776205656115,
        -0.27472451336586229,
        -0.59790215778068756,
        2.8940693797805923,
        0.89418275165641747,
        -0.64801988965898238,
        2.1665490822314699
      ]
    },
    {
      "dualCoef": -3.4526698300124397e-05,
      "supportVector": [
        -0.2726508694251133,
        0.289143794797454,
        -1.2785392861322307,
        2.1748311226577006,
        -1.2444147296924388,
        0.10373460311789903,
        0.49271314570888092,
        0.22695997857860503,
        0.21126434891083798,
        0.33540510562999626,
        -0.41840444125813836,
        -0.34312853591877762,
        -0.66444798330416655,
        0.35084620855634785,
        -0.35289197890774332,
        -0.15004836890769704,
        -0.50076829851563431,
        -0.060708526049482299,
        -0.038841626421273805,
        -0.13170438027138531,
        -0.16642830072268563,
        0.094685859868734512,
        -0.28313237742749986,
        -0.46363525153207358,
        -0.31948243377746199,
        -0.48357510878937299,
        -0.74087445668506813,
        -0.33203683467836997,
        -0.75867378891115766,
        0.19493803289051714,
        -0.71629965662550288,
        -0.38358215561892872,
        -0.46992913105489542,
        -0.012787309136841703,
        0.82095967480105081,
        0.88766393234347796,
        0.36817916283769231
      ]
    },
    {
      "dualCoef": -3.4526698300124397e-05,
      "supportVector": [
        -0.21372754547877504,
        1.2024647228077876,
        -1.1612979119111073,
        -1.258426917187637,
        -0.82666384840463958,
        -1.2895455438568326,
        -1.2126742058752555,
        1.6903056174507163,
        -0.30746186537961201,
        -1.6439976314049356,
        1.2246475419973173,
        1.0280014699128805,
        -0.239508584618006,
        0.6997785902470206,
        -0.90241946548671503,
        -0.84877776083335055,
        -0.77884729026759769,
        0.38817335715146895,
        0.065334259981517914,
        0.3781575401051358,
        -0.14301090717576923,
        0.34665685088013531,
        -0.57922427093108608,
        -0.58207049383328768,
        -0.3647688996432607,
        -0.78671434281116748,
        -1.0743551172360295,
        -0.45636349001206888,
        -0.8725054827974823,
        0.1316058146811537,
        -0.45668446921697797,
        -0.27705730468016238,
        -0.51996079212747159,
        0.41287997282172101,
        -0.14189150491284838,
        -0.045715485912509818,
        -0.019846417786984847
      ]
    },
    {
      "dualCoef": -3.4526698300124397e-05,
      "supportVector": [
        0.027826732009555946,
        -0.70658389708270786,
        0.12891972329186469,
        -0.68322570069083632,
        1.4052892130576284,
        0.16027373405057624,
        0.3029969700871617,
        0.82543568370769826,
        0.043839427628319799,
        -0.53058828706108607,
        0.038407360710354749,
        1.0127493244461763,
        -0.046514870199910692,
        1.753479820053135,
        0.080495446700446102,
        -0.57803840395509953,
        1.1874952439100146,
        -0.13556953148934331,
        -0.76372025029243651,
        -0.17742185176270558,
        -0.5747502445415148,
        0.2781325250561556,
        -0.4504464179969222,
        -0.36374420748733716,
        0.19110540932472703,
        0.77929801990714709,
        0.47732248839398445,
        0.034213564865656403,
        0.36481081315321989,
        -0.019624466419392205,
        -0.47363341727173913,
        -0.22787637149741335,
        -0.22398869124764983,
        0.71197739034362195,
        1.7653302116416223,
        1.9471403069306719,
        1.3889439340794214
      ]
    },
    {
      "dualCoef": -3.4526698300124397e-05,
      "supportVector": [
        -0.28384203634389932,
        -0.92462474841783604,
        0.51152512666576788,
        2.3692840292424306,
        1.9046941732233065,
        0.52770230909856719,
        0.93135026974086688,
        -0.60795065279592053,
        0.41151247516401862,
        1.230581216715497,
        -0.77103410595628319,
        2.288005909827791,
        -0.84516129960597564,
        -0.25036508859806311,
        -0.92568415824659711,
        -0.70263118056063778,
        -0.83746653507130575,
        0.050808202633257242,
        -0.89566615992405718,
        -0.84825814137040856,
        -0.70617759566226024,
        0.19865302135756316,
        -1.2041473976355177,
        -1.4742806978145291,
        -0.81977674721084903,
        0.57919648511494826,
        0.072962426201081967,
        0.24289466789999409,
        0.640115830899323,
        -0.42130434990785209,
        -0.9943198081809983,
        -0.74962260365585842,
        -0.73783068063968671,
        -1.3307772657071506,
        -1.4714321080719759,
        -1.334560388292046,
        -1.5676822049186685
      ]
    },
    {
      "dualCoef": -3.4526698300124397e-05,
      "supportVector": [
        -0.16579946351028776,
        0.10499622425879708,
        -1.141969963503277,
        0.8023150249027311,
        -0.58229098840225479,
        0.7937437282040235,
        0.9209892042252158,
        -0.37759424748305248,
        0.67890851577995737,
        0.98415725489398376,
        -0.78873295611512195,
        -0.84598268989048409,
        0.352892053746788,
        3.5233319544555624,
        1.2085508476129736,
        0.34498058981351198,
        2.4357473626807802,
        -0.326430739165879,
        -0.73544985264384866,
        -0.89151313420727618,
        -0.81133086082550976,
        1.5073523292882243,
        0.33309964815148241,
        0.00057701238343718186,
        0.92462653455650712,
        0.78859831374181832,
        2.7021562824226963,
        1.7442761674377207,
        1.1101434538962374,
        0.11551170262627281,
        -0.34536049536270458,
        -0.21840695660923179,
        -0.14141572038428785,
        0.67817270870519619,
        0.5240626263226722,
        0.44623203876532552,
        0.63290254451996519
      ]
    },
    {
      "dualCoef": -3.4526698300124397e-05,
      "supportVector": [
        -0.1932457052149045,
        2.438679686179265,
        0.093160824538887618,
        3.6440569836110508,
        -1.6191170137207815,
        0.25464445870101637,
        0.68385724930621661,
        -0.3117438641653788,
        0.37416698040966551,
        0.73455542552052533,
        -0.60295524510312581,
        1.3813856132935944,
        -0.66515729323310591,
        -0.21765317308798141,
        -0.71092225026617262,
        -0.73541925226229699,
        -0.80182008835242435,
        0.094756977372894305,
        -0.94014870327749311,
        -1.1006511419694085,
        -0.62606687571698072,
        -0.3586241713800089,
        -1.0902534426947319,
        -1.478913107095464,
        -0.72081938764463127,
        0.71494229093863104,
        1.0327795381608289,
        0.1023168531232948,
        0.88661392070712297,
        -0.43851475076417251,
        -0.77218527810997628,
        -0.45401787309018327,
        -0.72435013230740786,
        -0.48264583196795235,
        -0.24803202525694576,
        -0.14860716763802734,
        -0.47172183430448755
      ]
    },
    {
      "dualCoef": -3.4526698300124397e-05,
      "supportVector": [
        -0.285480450563039,
        -0.71245074973745948,
        0.59558655994429111,
        3.5059301998868571,
        -0.031485825249181747,
        0.90027553247059766,
        1.3364587692197396,
        -0.56928452685127151,
        0.92811799175854359,
        1.4003059279985233,
        -1.0069343251126699,
        1.3537902782151008,
        -0.20975120868206915,
        0.51759032367997448,
        -0.26854730330127058,
        -0.80248716614057802,
        0.56325836484030478,
        -0.06459888804665033,
        -0.99777463434449798,
        -1.0228179620404694,
        -0.60894316203391552,
        0.3551992777895735,
        -0.82358097017764664,
        -1.4098847768799674,
        0.047215976432392399,
        -0.082325924772959844,
        -0.038683893029003304,
        0.17067283913933967,
        -0.13905367193280524,
        -0.18044124533279862,
        -0.66623438978487604,
        -0.49942320199066076,
        -0.50778019932592477,
        0.012286326126193915,
        0.69536011041303147,
        0.76590882541560434,
        0.30434398053522982
      ]
    },
    {
      "dualCoef": -3.4526698300124397e-05,
      "supportVector": [
        -0.12725512000565231,
        0.96500213381167843,
        -1.0291460815213576,
        -0.78401475844412005,
        -0.93385042359851578,
        -0.98883182382652135,
        -1.3004741029382298,
        1.7825333435249835,
        0.17895642044630197,
        -1.7257894598512742,
        0.96984528627997257,
        0.032639408645522935,
        0.35217788662810723,
        0.3580124532891707,
        -0.38698247537965003,
        -0.7898545850097598,
        0.072498790512982303,
        -0.12384972251299899,
        0.072337272319134227,
        -0.085414226908232666,
        -0.38203103767363539,
        0.1806893049986357,
        -0.19803920220874083,
        -1.3289330120134024,
        -0.2381248294498709,
        -0.21147257403035613,
        0.20122684437176952,
        0.31298020187794445,
        0.32732975741368397,
        -0.12595555759923427,
        0.24053650263274939,
        0.28567976072194773,
        -0.26876478672395082,
        2.5168593667130001,
        1.7121125189636315,
        1.7515396182088605,
        2.150871199475163
      ]
    },
    {
      "dualCoef": -3.4526698300124397e-05,
      "supportVector": [
        -0.16885323901293961,
        -0.69597202704801409,
        -0.70764704643515219,
        -0.11808949088449035,
        1.0243322808948268,
        -0.32123350723960442,
        0.024048405965131563,
        0.30365876729860963,
        -0.16554707470366828,
        -0.40633813072201191,
        0.2776383793225245,
        0.48886978867630859,
        -0.77931418183557266,
        -1.191191329686184,
        -0.2418278770349164,
        -0.42131278274002942,
        -0.97641118815141092,
        -0.25256227820388011,
        -0.62786731077201063,
        -0.81993082374845561,
        -0.39319694670039629,
        0.12101878452010055,
        -0.65486817021134536,
        -0.8786195383400428,
        -0.0080367569163488726,
        1.4097524327466833,
        1.2812795602300773,
        1.1861684687392069,
        1.193044052400021,
        -0.31775833959435756,
        -0.80976563363382426,
        -0.53011482426424317,
        -0.6597870957113865,
        1.0693453012495671,
        0.50004258956235825,
        -0.26180056144618002,
        0.90424811537576533
      ]
    },
    {
      "dualCoef": -3.4526698300124397e-05,
      "supportVector": [
        -0.26328370181732069,
        -0.27888927065256081,
        0.57403422967035034,
        1.3167108355449699,
        -0.24803809974597854,
        1.2351688625040687,
        1.6888164736278588,
        -0.030417517880235213,
        1.2479242170851754,
        1.7445386832421652,
        -0.9990212216983726,
        0.024938098104832544,
        -0.070619783049590892,
        1.3815963383115186,
        0.083743133754324878,
        0.27759195923003854,
        0.61286533055861536,
        -0.07477858586600751,
        -0.2365227718156068,
        -0.034147699538748043,
        -0.16576005316597411,
        0.28582990564669991,
        -0.057051326303832681,
        0.16398129684491444,
        -0.17450609289694818,
        0.27059661145234087,
        1.1961879270018112,
        0.53473379686217348,
        0.71930868502670775,
        0.21442392072467831,
        -0.61145908189532494,
        -0.7344569457904575,
        -0.33149672558644738,
        -0.60063806952273857,
        -0.31226153487435199,
        -0.21087068622183963,
        -0.56115039450270843
      ]
    },
    {
      "dualCoef": -3.4526698300124397e-05,
      "supportVector": [
        -0.27694686188184942,
        -0.77727743000599947,
        2.875307365615809,
        0.77925636487394934,
        0.55441412664104395,
        0.54000226443332744,
        0.98772904267583417,
        -0.26462372019039665,
        0.64562876002378078,
        1.0195481573360345,
        -0.54773629101890398,
        0.026155257454198479,
        -0.72519230302866167,
        -0.18440303760452223,
        -0.30311462234998227,
        -0.3691299983776038,
        -0.20398152709553491,
        -0.18898482997580229,
        -0.28945957768931846,
        -0.34815380342343027,
        -0.20472635659080865,
        0.59186827900665595,
        -0.42546539934558536,
        -0.40022982499333742,
        0.20281461140216556,
        -0.14928956191925771,
        0.15908382065966661,
        0.31584313996729502,
        0.040170437823797263,
        -0.3080135439618914,
        -0.74125477305304122,
        -0.38776841417668911,
        -0.60575248021094286,
        -0.61907281527854929,
        -0.46554107311984816,
        -0.69506930823080126,
        -0.557359078642503
      ]
    },
    {
      "dualCoef": -3.4526698300124397e-05,
      "supportVector": [
        -0.13692364025012171,
        0.43306098647085217,
        -0.47620729386386296,
        0.050497115666335864,
        -1.1777459302141611,
        0.57725859776773569,
        0.97849690504532649,
        0.44481773308397859,
        0.83999150462519034,
        0.30309451893827105,
        -0.36152688681937917,
        -0.43959737823623707,
        -0.12588724191822487,
        0.23218623564523005,
        0.33650591504346733,
        0.21715681233881007,
        0.37928641754890952,
        0.1746522814914728,
        -0.05878943688894999,
        -0.30364305991665252,
        0.00091093311791244842,
        0.58440259792288385,
        0.29602991290602704,
        0.52574217598532447,
        0.30965110910071197,
        0.19198877107578921,
        0.51324435258105439,
        0.53168052727621817,
        0.54975382970305808,
        -0.12848528521555097,
        -0.49882882728313549,
        -0.7221939946994449,
        -0.43721581888762867,
        -0.084120944132294359,
        -0.28103076906672736,
        -0.66395750933886033,
        0.12257878899515982
      ]
    },
    {
      "dualCoef": -3.4526698300124397e-05,
      "supportVector": [
        1.4885162707551178,
        -0.49615786861239186,
        4.0425463261580532,
        1.8535350700521709,
        -0.62674098835073888,
        2.4750858198066585,
        1.0814209115332458,
        0.0062591545978943185,
        0.90830334309443461,
        1.1367101397666024,
        -0.70659807129071273,
        0.48234151477329357,
        -0.59082785900119272,
        -0.41446152026159155,
        -0.041763144189866347,
        -0.19563184112737717,
        0.4901039417187838,
        0.15292506872162326,
        -0.73744393868472302,
        -1.2078829640736306,
        -0.40813956269494461,
        0.58061942471958661,
        -0.56708913284141371,
        -1.3346870686080159,
        0.58236821654677884,
        0.056881577849539018,
        0.92784951045050712,
        1.286141171217172,
        0.80482397330412969,
        -0.25145553449613056,
        -0.78210996496004714,
        -0.41381767880129766,
        -0.66951511393655516,
        -0.98485377831735554,
        -0.58184460042004382,
        -0.47220212579640686,
        -0.88830688677267255
      ]
    },
    {
      "dualCoef": -3.4526698300124397e-05,
      "supportVector": [
        -0.27892711483072863,
        -0.55541127133868018,
        1.5301178964231179,
        -0.77523328576960149,
        0.75450160078805262,
        0.91771030415470156,
        1.3144172493170034,
        -0.29080931899188889,
        0.900754204221201,
        1.3591689812585761,
        -0.84001640317506732,
        -0.010664768941133536,
        -0.24412699934673146,
        0.31403099835257642,
        0.31014043774871586,
        0.37884571676888157,
        0.41927380623166605,
        -0.66896236216548521,
        -0.32271669015580612,
        -0.62876964557948989,
        -0.39564963279217458,
        -0.054389445519979561,
        0.051579682893787171,
        0.71797900062210807,
        -0.20083280797887074,
        0.11669725333249979,
        0.56637428250396005,
        1.0356535601790657,
        0.70686259461557399,
        -0.47111599773809487,
        -0.44263761504705479,
        -0.26318953641835596,
        -0.22624233918638184,
        0.81655004571908152,
        -0.31739643077127117,
        -0.22673649475358726,
        0.054312829674770691
      ]
    },
    {
      "dualCoef": -3.4526698300124397e-05,
      "supportVector": [
        -0.27437788092713833,
        -0.70019868898624626,
        0.83254408269293556,
        -0.61944888397971243,
        0.6510922169812049,
        0.18513828046205047,
        0.68525847798464867,
        -0.098555218475720324,
        0.3481686268289142,
        0.35011755533772121,
        -0.38753131746948738,
        0.92924878364978525,
        -0.79556950462900233,
        0.47556109151623172,
        -0.24483730019898278,
        -0.54767597261776158,
        0.15492009121892308,
        -0.74698753588430677,
        -0.98239422579935431,
        -0.98499872142310785,
        -0.71820296657131644,
        0.7811827526871048,
        -0.92054821260964126,
        -1.4014403056989477,
        -0.20765523611933515,
        -0.17964050302178428,
        0.97556335898131263,
        1.5102831477239027,
        0.73608565361195022,
        -0.34319226174779266,
        -0.93375779459881791,
        -0.70574140495195314,
        -0.79824489185143066,
        0.089980125165335281,
        -0.29807041846983084,
        -0.18613080836158444,
        -0.25629267332851924
      ]
    },
    {
      "dualCoef": -3.4526698300124397e-05,
      "supportVector": [
        0.80586245785263833,
        4.9758691460367102,
        -0.42475723551850864,
        -1.1405030969585745,
        -1.7171893492629264,
        0.45409441285080776,
        0.6562852308364836,
        2.0545550749327863,
        0.6653635991543273,
        -1.0498237001738135,
        0.067568064881866147,
        0.42920444782773315,
        0.51985712276894824,
        1.4575455721430886,
        -0.33062363380506188,
        -0.86440504850743927,
        0.50976750497437517,
        -0.29975819345897231,
        -0.22046501023614748,
        -0.39324347007780586,
        -0.07635878718763936,
        0.39015112995287221,
        -0.39070873096269193,
        -0.018654799451387306,
        -0.23611287345617274,
        1.162591465921166,
        0.30253912049280646,
        0.27483043259051543,
        0.76795135994224528,
        0.74107719775787551,
        0.4696203431894504,
        0.24965901185580106,
        0.59983856120583978,
        -0.94195760059929501,
        -0.089963378125424473,
        -0.18872930653022965,
        -0.54126430321488128
      ]
    },
    {
      "dualCoef": -3.4526698300124397e-05,
      "supportVector": [
        -0.27719100105614974,
        0.10030460529430903,
        1.0987225796175546,
        1.1457104205061566,
        0.094033900414890959,
        0.25196061643878237,
        0.38597121838561943,
        -0.1452614966732966,
        0.43615218702271852,
        0.68642055229221155,
        -0.43207781670060386,
        -0.55903104406675563,
        2.0574475625405864,
        -0.30134357058737232,
        -0.27532586470571918,
        0.007905143570764963,
        -0.48079620186999616,
        -0.47166279723361526,
        0.71338261957651372,
        0.61084984455981084,
        0.021025054011831169,
        -0.50332040070652007,
        0.37963992662201651,
        0.2576980356845025,
        -0.081999729321989956,
        -0.46014945596052415,
        -0.70289837810321676,
        -0.093794991628859528,
        -0.73392476291516284,
        0.40577682986381547,
        2.341568050889089,
        2.8267145736862362,
        1.5182193262328487,
        -1.3068364278391491,
        -0.85345124547779805,
        -0.73549520545363456,
        -1.1896529035834398
      ]
    },
    {
      "dualCoef": -3.4526698300124397e-05,
      "supportVector": [
        -0.28052702564846332,
        -0.089316346243201811,
        -0.45766817227624379,
        0.38596235263619044,
        -0.39172214091540269,
        0.25560607028156196,
        0.55231367972961853,
        -0.41470691328731968,
        0.27063839223327385,
        0.67296242050040567,
        -0.43983460066697422,
        -0.5325840163184985,
        1.0200468003477008,
        1.7451646547886133,
        0.84262232921626923,
        0.65956313444993009,
        1.2252948762238973,
        -0.68162871941553504,
        -0.55696127326823253,
        -0.57240824995310047,
        -0.65905712991792686,
        0.94706907858200129,
        0.30810091604965412,
        0.29589341861740437,
        0.65717632857710839,
        0.44948150937389486,
        0.91308034061488907,
        1.3169528050737158,
        0.9185823221803936,
        1.0465228616186162,
        -0.034235848282679067,
        -0.042937840003496597,
        0.67226513945695709,
        0.15457093880010869,
        0.80376914542248357,
        0.87099958519520182,
        0.43059985652851335
      ]
    },
    {
      "dualCoef": -3.4526698300124397e-05,
      "supportVector": [
        -0.28123747504399066,
        -0.30115916917212826,
        -0.92348409776023044,
        0.042058616201440545,
        -0.20968621996372053,
        0.57753282597283662,
        0.94956702446381269,
        -0.41515167571597833,
        0.56552579027577077,
        1.2028519622877094,
        -0.66736534495294852,
        -0.045202379258591489,
        -0.76761983031613401,
        -0.15486643741077716,
        -0.57886720079963161,
        -0.68348733546416163,
        -0.6713009403471194,
        -0.16474088975797105,
        -0.099078774796651933,
        -0.59846737369485647,
        -0.41952517520430183,
        -0.7123454085868538,
        -0.4978480675885949,
        -1.2195756633903929,
        -0.37777112388695216,
        0.0033443707803525046,
        -0.034573870703096247,
        0.27514056803457665,
        -0.045681194872090443,
        -0.077519702105030813,
        -0.66923243437058444,
        -0.53858310321192782,
        -0.55166628920518945,
        -0.94535238137975597,
        -0.10582045904416816,
        -0.14706152549164675,
        -0.54614652557274024
      ]
    },
    {
      "dualCoef": -3.4526698300124397e-05,
      "supportVector": [
        -0.24020467433729178,
        0.12147690067334135,
        -0.86565327367107114,
        -0.98318161843605167,
        -0.66780371294298879,
        -0.3209596264708513,
        0.11110584452378644,
        1.0155225344995085,
        0.18816921441905743,
        -0.84500663571082069,
        0.11562981241422211,
        0.91592927221166831,
        -0.20257841170876154,
        -0.23514221241575067,
        -0.39643470473817538,
        -0.009037421048701472,
        -0.40764776151008669,
        -0.2258169845095806,
        -0.65430211104673408,
        -1.1114912619451827,
        -0.35208692013920501,
        -0.42432815590134171,
        -0.77547758213440787,
        -1.1383902896300626,
        -0.5765757528504083,
        1.6776671673053989,
        1.3398141072818266,
        1.2969626434898576,
        1.6439488433798766,
        0.28555667557074804,
        -0.22153130799770707,
        -0.63018446425874719,
        -0.037276661616214388,
        -0.57904249614079151,
        -0.29067371771712547,
        -0.17850856786227676,
        -0.54244229311026337
      ]
    },
    {
      "dualCoef": -3.4526698300124397e-05,
      "supportVector": [
        -0.15473766851340512,
        0.96515817634604517,
        -0.57183362286204265,
        -0.90955653093654942,
        -1.134126058386951,
        0.30870762189717182,
        0.68367909276819594,
        0.11335861244548635,
        0.67170442407204689,
        0.099570801818188379,
        -0.24581460036630887,
        0.88019158271060849,
        -0.65102844937101501,
        0.27886159541735583,
        -0.50325247309615373,
        -0.6473240655536705,
        -0.020434825149128266,
        -0.051852598073969303,
        -0.44136274186561464,
        -0.47177772219979014,
        -0.29884834123454435,
        0.35703693236738648,
        -0.69619856582782047,
        -1.1931746564375005,
        -0.24220395290774838,
        0.94782332684983328,
        1.012158000778685,
        0.67138811893913253,
        0.41952862395571627,
        -0.29380256646258546,
        -0.51481888035774803,
        -0.54834170419814676,
        -0.36435898967348274,
        2.0185784624389647,
        0.26315638109886202,
        -1.2324852112956635,
        1.4027554800228437
      ]
    },
    {
      "dualCoef": -3.4526698300124397e-05,
      "supportVector": [
        -0.14145330689052815,
        1.020959279195903,
        -0.52058204221112714,
        -0.51606830538066706,
        -0.61257214241971136,
        -0.76902527349056893,
        -0.89079525961595352,
        -0.23225682254758837,
        -0.86733016154570874,
        -0.75742319894916699,
        0.78564925361238502,
        1.133341113632321,
        0.91669526064197449,
        0.5454991953042384,
        -1.402605675271279,
        -1.455001796197779,
        -1.0574441706754858,
        0.54060771616978254,
        -0.050490489181412176,
        -0.24800506775758849,
        0.33575769960462581,
        0.28239870760826324,
        -1.047755075727173,
        -1.144002784949165,
        -0.32628695317832251,
        -0.44503148917044227,
        -0.82721110634361927,
        -1.2292667225256531,
        -0.84283837426301145,
        0.98288526904815166,
        1.1228683948549827,
        -0.19476859339242578,
        1.3524511930642349,
        -0.53733573370142385,
        -0.67338643402390685,
        -1.0099275705767214,
        -0.57712217078514227
      ]
    },
    {
      "dualCoef": -3.4526698300124397e-05,
      "supportVector": [
        -0.16576596946244559,
        1.4170135838759084,
        -0.6191649557568224,
        0.19909478099730038,
        -0.46693336917494566,
        -0.4926778752919318,
        -0.49312123448697881,
        -0.5771513643622358,
        -0.63690479060355243,
        -0.33746008599258626,
        0.19850154278000817,
        1.4188224898348494,
        -1.1781106012180242,
        -0.16857572986299244,
        -1.4554846074277039,
        -2.1609496589175063,
        -1.0754774269166232,
        0.060466544975596365,
        -0.14784634138813596,
        -0.13778542335473681,
        0.14626235696234291,
        0.049734914260816672,
        -1.1650601122222644,
        -1.3628721186872885,
        -0.44226587080964302,
        0.50855025137100496,
        -0.52337300081935179,
        -1.0242458880529277,
        -0.10871615005573065,
        -0.52010440066327357,
        -1.087100425358958,
        -1.289160203328594,
        -0.85273419339695211,
        -1.0211912613927439,
        -0.83434164916144893,
        -0.70784627343038309,
        -1.0150950232842737
      ]
    },
    {
      "dualCoef": -3.4526698300124397e-05,
      "supportVector": [
        -0.28480810482715491,
        -1.348238545603387,
        0.33115058551969917,
        -0.097962412060867601,
        3.2739710735293222,
        -0.81169619676832161,
        -0.61665844942227432,
        -0.55965464169354229,
        -0.62848753101131205,
        -0.34616789819449656,
        0.25269332656748245,
        0.098724529420378501,
        -0.75133086325601295,
        0.64503221298545066,
        0.27776971054325678,
        -0.61866294677605327,
        0.57197920542050884,
        1.0673360026587808,
        0.33499824398609412,
        -0.34260866425228581,
        0.54083227326290961,
        0.19532289124449836,
        0.45848061411304381,
        0.18620810292892986,
        0.23353836119817303,
        0.86502223842860126,
        0.73978811279208723,
        -0.83091148809892301,
        1.2778892536242787,
        -0.45532222590362614,
        -0.88761319506535419,
        -1.2114802347542035,
        -0.8725523727048512,
        -0.26276708138304289,
        -0.2007533913473156,
        0.13586748222028164,
        -0.24078402735667997
      ]
    },
    {
      "dualCoef": -3.4526698300124397e-05,
      "supportVector": [
        -0.23465565657386897,
        -1.0029143196960317,
        -0.32335221239863932,
        -0.027253149541999894,
        1.2336451229829437,
        -0.1934425826680668,
        -0.064956659268500569,
        -0.51472941666801575,
        -0.42107290251104595,
        0.10467343991501805,
        -0.39816604383193688,
        -0.81714687845450884,
        -1.035238147583897,
        -0.37719349472057279,
        0.093988419835327464,
        0.23977909055049124,
        -0.15921388508597886,
        -0.55516512276377628,
        1.5411907478951248,
        2.26510041015726,
        0.44494884115056932,
        -0.48978958123495214,
        1.185470751987256,
        1.6068592673189694,
        0.516549233774656,
        -0.90766025392219929,
        0.75178706261502792,
        -1.0355467753792911,
        1.2996052972927417,
        -0.80946411530860107,
        -1.0020206503600315,
        -0.79632536259855635,
        -0.99083558801470406,
        -0.70506301812991612,
        0.57177684404747897,
        0.64610829995877406,
        -0.028554011200313475
      ]
    },
    {
      "dualCoef": -3.4526698300124397e-05,
      "supportVector": [
        -0.12987670457115441,
        -0.84629835570992062,
        0.50600992302222958,
        -0.37790076212944745,
        -0.19328267806130706,
        0.65074295414235639,
        0.39817747392347985,
        -0.34814835488645074,
        0.27524256175680761,
        0.6233303064496224,
        -1.0109869293664104,
        -0.47035936305692982,
        -1.0405629486550014,
        0.40582419777198797,
        -0.28463091936971274,
        0.031254105576707741,
        -0.19407592317938244,
        0.27122388270430214,
        0.60603361074092588,
        0.97976600941526948,
        0.64770184061035607,
        0.23428140862692773,
        0.24437951335155855,
        0.32730683915433229,
        0.23015065381210811,
        -0.94936344759054003,
        2.7876522982624596,
        -0.7383008625923394,
        -1.0645335835431053,
        -0.76940635206004326,
        -1.0914141853407984,
        -0.94247668447748911,
        -0.9991749034018842,
        -0.89990811295282469,
        0.15880355423805975,
        0.055294094917329013,
        -0.35237384487486367
      ]
    },
    {
      "dualCoef": -3.4526698300124397e-05,
      "supportVector": [
        -0.24951245712849274,
        0.59450933187618116,
        -0.17867824012489003,
        0.39667113731356829,
        -0.96716059926579045,
        -0.27525152418765697,
        -0.091265940606312823,
        -0.49602173858179627,
        -0.29845262146132384,
        0.11277729460895923,
        -0.36192336364969735,
        -0.12960646830347919,
        -0.47893977351075667,
        -0.12509306857329233,
        -0.059878770543684498,
        -0.31088030463803468,
        0.085629818718691117,
        -0.13179915834524561,
        0.67936172414291729,
        0.71963145063190725,
        0.2498861701701891,
        -0.52066715724694201,
        0.45506148981832867,
        0.7557572533502448,
        -0.0026719024215290121,
        -0.89903106526598608,
        -0.86013694832077348,
        -0.54517012506914708,
        -0.93006717380786108,
        -0.83746392618038012,
        -0.48939517983048098,
        -0.68501300577894519,
        -0.69980954893790581,
        -0.27454683244301614,
        0.37418214070322536,
        0.34273582710555195,
        0.11950979076571872
      ]
    },
    {
      "dualCoef": -3.4526698300124397e-05,
      "supportVector": [
        -0.15871482500268821,
        -0.94212878196105088,
        0.1242172996100936,
        1.303483647830054,
        1.2537728448113024,
        -0.11006816609708167,
        -0.10847273901306066,
        -0.4868505441686683,
        -0.35027802626263099,
        0.098550178811693645,
        -0.38468547797521568,
        0.2102194459536858,
        -1.0347057757458586,
        0.37574941689883373,
        -0.72875213262323058,
        -0.57854799555311187,
        -0.20773883502355789,
        0.28735367233976222,
        0.55385318583132004,
        0.49866207066544571,
        0.48819232833472359,
        0.4907501928239566,
        -0.097044201189649917,
        0.17990904805570151,
        0.04686145820468663,
        -0.73850910138765846,
        0.14156508804192244,
        -0.66412052440523828,
        -0.76478328451391564,
        -0.79921551385714062,
        -1.123926838316913,
        -0.95719985585465206,
        -1.0639469084170095,
        -0.24688404112214188,
        -0.24552762280121021,
        -0.58989884363478973,
        -0.19623706880587888
      ]
    },
    {
      "dualCoef": -3.4526698300124397e-05,
      "supportVector": [
        -0.24728818009741657,
        0.97332368983604867,
        -0.8446242824021083,
        -0.50373818212778343,
        -0.68777434474007026,
        -0.5337069828145321,
        -0.29073044894505096,
        -0.13693741491562147,
        -0.34221340771253983,
        -0.29639737364745594,
        0.10350925167158342,
        -0.79640478362486222,
        -0.47440838044020867,
        0.079936265926958072,
        0.51384217029974832,
        0.22691416507661441,
        0.16622487320867352,
        -0.13155684818105706,
        0.30018590069622708,
        0.10362369222351056,
        0.1814515888763619,
        -0.30802113884815335,
        0.57325963041019956,
        -0.20500378816131273,
        -0.055731638764192341,
        -0.58001827941438477,
        -0.45839830852665442,
        -0.27033663028322857,
        -0.47517927440290725,
        -0.74957189809918279,
        -0.64798721167967854,
        -0.80395433961508012,
        -1.0053613664675005,
        0.61154137742597103,
        -0.37933972082436007,
        -0.43868905727690088,
        0.21121912385290514
      ]
    },
    {
      "dualCoef": -3.4526698300124397e-05,
      "supportVector": [
        -0.25058402342543346,
        0.042253090767795251,
        -0.1321240119017541,
        1.6403263818427849,
        -0.084305101599487203,
        -0.14951461765526194,
        0.020458571632458861,
        -0.63576582088562783,
        -0.27912638495503905,
        0.2181591691542771,
        -0.51878391945570668,
        -0.43961908789336318,
        -0.78913976395847274,
        -0.078351729967684178,
        0.66889253621020661,
        1.3351591373249658,
        0.1883062014527013,
        -0.4193395983651414,
        0.43485271764113581,
        0.62190502629834699,
        0.24125339068146456,
        -0.74483579238858755,
        0.77891082676174417,
        1.4039014146984508,
        -0.0076308727321739442,
        -0.89631677884891681,
        -0.58486761494255191,
        -0.037500681223640656,
        -0.91968756606686408,
        -0.89652200521165748,
        -0.94342786891434927,
        -0.82220852403493405,
        -0.97767632400312199,
        -0.23244374153514877,
        0.36384418738283936,
        0.32501807619554868,
        0.25027814114759361
      ]
    },
    {
      "dualCoef": -3.4526698300124397e-05,
      "supportVector": [
        -0.23210061838262855,
        -0.20708422769447868,
        0.19032369851690736,
        1.3545242496273906,
        -0.88022518445952724,
        -0.27865591494856184,
        -0.2392418984011484,
        -0.4606414852303774,
        -0.44880003562185289,
        0.07326918946362633,
        -0.20392645763604275,
        -0.76361677182153531,
        -0.95030342967821391,
        -1.1706278761791136,
        -0.38480141760319925,
        -0.5570264842103092,
        -0.39322521837231217,
        -0.29403175053772668,
        0.70925791783356684,
        0.60612748013770223,
        0.16109557003073785,
        -0.49347798919039804,
        0.25339780265456524,
        -0.036462715597522288,
        -0.26980070043931337,
        -1.3720180006179512,
        -1.0654045826103682,
        -0.70299039005739028,
        -1.2354883095057081,
        -0.9051301767734804,
        -0.99239205243888595,
        -0.88044541091187145,
        -1.0208299446914115,
        -1.1035269495573516,
        -0.80697097273732288,
        -0.58327565902938228,
        -1.106630440208229
      ]
    },
    {
      "dualCoef": -3.4526698300124397e-05,
      "supportVector": [
        -0.28379909673783965,
        -0.7830854404137142,
        0.23418457036818482,
        2.2575918522668439,
        -0.55018814372935554,
        -0.39798966360298282,
        -0.17747332359882351,
        -0.35218319911740792,
        -0.33900507102339777,
        0.066527851864652793,
        -0.26022895735212653,
        -0.06334572302804338,
        -0.88814192331855391,
        -0.18459809001079275,
        -0.56698878470692982,
        -0.68389002336990834,
        0.059871670253142113,
        -0.17910750457963284,
        1.1394374967278489,
        1.839051279000073,
        0.42565959376161833,
        -0.088701035974914813,
        0.44549097010144784,
        0.60551478853450313,
        0.16617192003503656,
        -1.193737578142068,
        -1.0664342633533259,
        -0.83115746984496941,
        -1.1766039993374204,
        -0.90587276113993176,
        -0.9935062643499708,
        -0.81607839927201353,
        -1.012541048978167,
        0.015640369687498202,
        -0.07165397929218055,
        0.02575836702713542,
        0.0040074109017214981
      ]
    },
    {
      "dualCoef": -3.4526698300124397e-05,
      "supportVector": [
        -0.24452480809700516,
        -0.70924161407337594,
        0.34261354858330273,
        0.69730964829265352,
        0.45119830840897934,
        -0.043255913658053945,
        0.030025822397668406,
        -0.59368141004780606,
        -0.11896745787066125,
        0.35934328204453503,
        -0.58119677417505511,
        -0.43831838631499004,
        -0.90253103386588329,
        -1.0747947589330824,
        -0.63782866638450819,
        -0.68255110743269765,
        -0.92115886696392002,
        -0.35778911272723002,
        1.1194642335602416,
        0.71319816511591594,
        0.30142917819157949,
        -0.44281794246277711,
        0.39252128056328556,
        0.41930315729418188,
        -0.10380804267526475,
        -1.3471115306789694,
        -1.2230065260131364,
        -0.79670279929693133,
        -1.3940178205951166,
        -0.95251662481023291,
        -0.97660306572071998,
        -0.84515353267187088,
        -1.0440513096498982,
        -0.85230736227941317,
        -0.28352087534515358,
        0.056829865522992365,
        -0.664091519158446
      ]
    },
    {
      "dualCoef": -3.4526698300124397e-05,
      "supportVector": [
        -0.11577526607422228,
        0.21176589291546913,
        -0.62413407410868782,
        -0.87576080112841459,
        -0.10921311212069849,
        -0.49568330960401025,
        -0.51751880515416671,
        0.23520008553690913,
        -0.43811504009527918,
        -0.7913162182073582,
        0.44814630001267514,
        0.998202269310142,
        -0.2463742618089565,
        0.94821568390669508,
        -0.33224842037543501,
        -0.071358053426344492,
        -0.00052823251232208992,
        0.40409454567756287,
        -1.0405777534441241,
        -0.69653107187477448,
        -0.25439895456399902,
        0.23053276120567628,
        -1.0041993193360264,
        -0.61321365111439063,
        -0.40737120960339729,
        0.70650510238777009,
        1.5923203012323541,
        0.82167415683245981,
        0.9267503468929954,
        -0.73062847758344762,
        -0.45578835526094225,
        -0.85144953713605698,
        -0.8875962447557304,
        -0.84681081146006354,
        -1.0628137675311244,
        -0.93844938275111223,
        -1.1145134997540267
      ]
    },
    {
      "dualCoef": -3.4526698300124397e-05,
      "supportVector": [
        -0.20103996419656298,
        1.0391777496196002,
        -0.99230878212757823,
        -1.1957960101672349,
        -0.72481043874693452,
        -1.2524515597788668,
        -1.4580103021921953,
        1.438377156659107,
        -0.61618759036044746,
        -1.7699564589605838,
        1.7540399317038451,
        -0.44915129804483422,
        1.6389070574204945,
        1.6334912512671915,
        0.9155950409685385,
        0.35587740372047127,
        1.3011418121735456,
        0.61690960932995065,
        -0.16469648644175011,
        -0.040566016173704776,
        0.37860588659142497,
        -0.40469767083657737,
        0.50807245866186168,
        0.55890373208289734,
        0.0053701683616725502,
        0.15437070498115127,
        0.47651484957416407,
        0.047451739411857853,
        -0.024156054697728583,
        0.4375518407049257,
        1.8141614922702838,
        -0.33073098669585826,
        2.2110344146857823,
        -0.26189848159748835,
        -1.2386304175035845,
        -1.5764616883900635,
        -0.64469695317366482
      ]
    },
    {
      "dualCoef": -3.4526698300124397e-05,
      "supportVector": [
        -0.23782394243588248,
        -0.71024351887373316,
        -0.85727174053095934,
        0.79098979895171095,
        0.84019432540249617,
        0.12547253725929405,
        0.32438949832382152,
        -0.011210492681479471,
        0.28428856888956017,
        0.45116945429419569,
        -0.67726797796314631,
        -0.078710683564868253,
        -0.21782175051178385,
        0.9742051286789305,
        0.0072720823460723331,
        -0.16960022119014168,
        0.51667006213978095,
        0.020143860054070303,
        0.13552797013144083,
        0.12584377763027313,
        0.12818211194154078,
        -0.026140607160138656,
        0.10305902113730168,
        -0.028269170815061875,
        0.071083310603195171,
        -0.38869116714314578,
        -0.4678530775278808,
        -0.21967817656460339,
        -0.52847000817694578,
        -0.64314570344001554,
        -0.3284577810016745,
        -0.097845180178188912,
        -0.51643899071151556,
        -0.4869457855867852,
        0.24227663207156985,
        0.09517864709048994,
        -0.014962902886508892
      ]
    },
    {
      "dualCoef": -3.4526698300124397e-05,
      "supportVector": [
        -0.20146684422271377,
        2.1197699581597043,
        -0.72329550335430226,
        -0.76511523092675238,
        -0.5699664870758322,
        -0.43681683846814023,
        -0.50554780481124406,
        0.19203517250115926,
        -0.29898733486229734,
        -0.38043913316495764,
        0.17529135084810074,
        -1.1510520317274249,
        1.3512181600691586,
        -0.010833863150054041,
        0.60278387604165107,
        0.66142088035479074,
        0.55508948732924368,
        0.051482384978878692,
        0.93554049872143918,
        1.3410406686199019,
        0.30955212171648244,
        0.23929675013903096,
        1.0984801590113253,
        1.5070964422535562,
        0.80523353330763014,
        -1.2348996380220318,
        -0.81045668796015391,
        -0.34942501061307868,
        -1.0693131259674091,
        1.2228949241613671,
        1.9660526478554334,
        1.0463478631744552,
        2.2079679975684328,
        -0.37086705397533487,
        -0.19359658231672339,
        -0.24289849651393727,
        -0.061696889146519149
      ]
    },
    {
      "dualCoef": -3.4526698300124397e-05,
      "supportVector": [
        -0.24589301273948863,
        1.8137459069615773,
        0.1390293416573537,
        0.83039421172342398,
        -1.0903750597900022,
        -0.21135352661594631,
        -0.092233227814462193,
        -0.5041466151797187,
        -0.29142868523778953,
        0.18768464129016404,
        -0.28952651856274764,
        -0.40630922907996325,
        0.4558495655852598,
        -0.23853384978907557,
        1.1700443156797398,
        1.4763985264141466,
        0.61836419103506668,
        -0.87275192090819087,
        -0.63300574095585727,
        -0.68800525891329412,
        -0.72837408287568162,
        -0.30885958737703828,
        0.33493182084090983,
        0.69755499648268959,
        -0.039555585106856216,
        -0.96464343431973298,
        0.10136581387443457,
        0.49151403926428699,
        -0.19949171538201549,
        -0.64371649389667185,
        0.12636288991445929,
        0.47824111792788054,
        -0.24976196028105388,
        -1.0656054954709304,
        -0.47863635341201044,
        -0.26181985307078159,
        -0.89581606379894629
      ]
    },
    {
      "dualCoef": -3.4526698300124397e-05,
      "supportVector": [
        0.028837277519869111,
        1.0881900242402029,
        0.4265617096035067,
        1.2495264875640957,
        -0.88869586361606434,
        -0.080538822570072444,
        -0.52182074789197475,
        -0.45170111230231869,
        -0.5425174508581494,
        -0.11404708730930752,
        0.090732725688789054,
        -0.3978594617737084,
        0.41538305529890268,
        -0.54190044185603181,
        0.60647711257795611,
        0.3168076898299122,
        0.087830413988346137,
        -0.98556958595689004,
        -0.2089178210826704,
        -0.25031737224986395,
        -0.55244420774352598,
        -0.52777957145726706,
        0.26166971758680896,
        0.44653255324453645,
        -0.20698562153889194,
        -1.0431085702243554,
        -0.49698659354821656,
        -0.00096637386473404346,
        -0.73203317306914484,
        -0.62229581404991752,
        0.30286955055166137,
        0.28350796624832336,
        -0.059730765208092375,
        -0.84249714768156914,
        -0.83291431720793419,
        -0.58189160428464026,
        -0.93074806736438609
      ]
    },
    {
      "dualCoef": -3.4526698300124397e-05,
      "supportVector": [
        -0.28027386525773446,
        0.5165435147891615,
        -0.68223999863845841,
        -0.038683208208934797,
        -0.59102100521794942,
        -0.68189987908331307,
        -0.51925936163460806,
        -0.16113258311986556,
        -0.535328695742053,
        -0.26549339805299671,
        0.23089097702944528,
        -0.38973978425692046,
        0.3483315604977823,
        -0.66476938817877207,
        0.41834904277599694,
        0.26377017947230214,
        0.05110035589082311,
        -0.4801513016032336,
        -0.20753570219836634,
        -0.052912987781079425,
        -0.31559219293298829,
        -0.50061850184772883,
        0.1339336291151213,
        0.4970873908534838,
        -0.27345940638256655,
        -1.0209661083692976,
        -0.51331453671638849,
        0.073997825107948334,
        -0.79323014018548943,
        -0.57493993668369003,
        0.31711347469323964,
        0.42797208801500869,
        -0.11210500640716568,
        -0.45529368441319668,
        -0.19406240533367722,
        0.11088230302082697,
        -0.45952672210694223
      ]
    },
    {
      "dualCoef": -3.4526698300124397e-05,
      "supportVector": [
        -0.20191782527741842,
        0.17826753867947687,
        -1.0133695682661308,
        -1.2649350395558927,
        0.1347616046274541,
        -1.6165963587885903,
        -1.7064009166357379,
        0.97999586042496667,
        -0.8193924830433359,
        -2.0477126554620799,
        2.0484849690769944,
        -0.40922896292046579,
        0.9573685039066171,
        3.7358434739347546,
        0.28242530392298321,
        -1.1181667525257051,
        2.4216817408471423,
        0.89333148171012489,
        0.28309393823919704,
        -0.57280051265361598,
        0.85164953754682371,
        2.0092981536896972,
        0.40199225866588584,
        -0.37497118416630609,
        0.85723229031759451,
        0.2778328403741504,
        -0.46022403094596254,
        -0.55978648539050424,
        -0.077774470993793213,
        0.58268007658669507,
        1.2028315007610431,
        0.84782573499019631,
        1.1707338661885058,
        0.16927275843799292,
        1.4736114717158846,
        1.5203388122860892,
        0.83547105832209856
      ]
    },
    {
      "dualCoef": -3.4526698300124397e-05,
      "supportVector": [
        -0.23613061829195731,
        -0.3431115123066622,
        -1.0399143420525927,
        -0.96045360186074269,
        0.71073096921520595,
        -0.78456371579900497,
        -0.62598871197355699,
        0.045571260630519736,
        -0.59660668180202736,
        -0.81633090012074705,
        0.50584463834280757,
        -1.4987087083810231,
        0.18656516974952311,
        0.88686576699788311,
        1.3209498590053319,
        1.5254058479476931,
        1.3456433854289487,
        0.84398638607220411,
        0.69416622889027202,
        0.60347576916419976,
        0.40242176469440488,
        0.99527456141301951,
        1.4197096725167262,
        1.4458575768082687,
        1.5470434738776981,
        0.47079988250479821,
        0.46089738706539751,
        0.039420876757934556,
        1.4029543383723784,
        0.26405369874425777,
        0.19407622679330075,
        0.36089512248245581,
        0.13184484641391922,
        0.6639521543972462,
        0.97275456457111809,
        0.76084176679547244,
        1.5582659479209213
      ]
    },
    {
      "dualCoef": -3.4526698300124397e-05,
      "supportVector": [
        -0.27620151406763155,
        0.47674979378059673,
        -0.80097920931120281,
        0.22263589769771705,
        -0.94856102641741891,
        -0.39743214427697449,
        -0.052447906887962824,
        -0.13820776460712877,
        -0.12516961985471314,
        -0.22474350672808457,
        -0.13682946413500816,
        -0.36070316405309177,
        0.097642920677954437,
        -0.62712961831997127,
        0.457608543604484,
        0.18380252719504364,
        0.21221814784701951,
        -0.10336179414970866,
        0.16592323533206435,
        -0.017442278414402514,
        0.01070501592724485,
        -0.23380933803539705,
        0.43643468084353865,
        0.86456976587295997,
        -0.01820033326643199,
        -1.1291948312918605,
        -0.6970522972725387,
        -0.081881785983545285,
        -0.94500520150075096,
        -0.71888789029090749,
        -0.023352651718571538,
        0.19112012320153196,
        -0.35061510685664748,
        -0.4268275023997441,
        -0.37709155933156313,
        -0.45455639292909311,
        -0.3250741106305024
      ]
    },
    {
      "dualCoef": -3.4526698300124397e-05,
      "supportVector": [
        -0.28622410786979441,
        2.3785894736526236,
        -0.68408418280408967,
        1.2144908113632582,
        -0.52592615414410837,
        -0.99377361225439698,
        -0.77298494920315741,
        -0.4997503846113942,
        -0.87947611851057994,
        -0.67453840559321754,
        0.59892752547795036,
        -0.72499358639200018,
        0.40476964473959531,
        -0.54337771043461125,
        0.48932660959900098,
        1.0017040199357341,
        0.060752722790621182,
        -0.32819863266216315,
        0.20247864362910656,
        0.20083204838290811,
        -0.10154013942651939,
        -0.95566368207744468,
        0.4836893974928087,
        0.5603947151968397,
        -0.099892423341060244,
        -0.790549277002494,
        -0.5851110518696705,
        0.077651180422501867,
        -0.73173289432544475,
        -0.6410080592990165,
        0.44517463071364666,
        0.77790397601313477,
        -0.114817441291241,
        -0.57133829274024095,
        -0.31821205755277587,
        -0.26460163018459559,
        -0.30668951700603819
      ]
    },
    {
      "dualCoef": -3.4526698300124397e-05,
      "supportVector": [
        -0.21206665139106987,
        -0.96653686313421383,
        -0.94385686846612959,
        -0.86541163040308589,
        2.3477796171267697,
        -0.61999087260475616,
        -0.62166185086915615,
        0.098869447529938842,
        -0.47697032869685135,
        -0.67946235185104964,
        0.38986662504031977,
        -1.782785371337319,
        0.3290992447767575,
        0.52896602618870359,
        2.6918179632109598,
        1.8859287645602398,
        1.828966884885231,
        0.62460619266682027,
        0.076362543760963464,
        -0.12552364863947943,
        0.48290462627300251,
        0.8770097174660072,
        1.9773635524005182,
        1.8205935173557186,
        1.5928050198131172,
        1.0769470439525659,
        1.8571937798936522,
        0.20043913067300109,
        1.6092678474767137,
        -0.31706214475141309,
        0.0189516703781498,
        0.32632340232854984,
        -0.26642366524115713,
        2.0940723073264689,
        0.5673799169782644,
        -0.95842438904892879,
        1.6229066335081215
      ]
    },
    {
      "dualCoef": -3.4526698300124397e-05,
      "supportVector": [
        -0.28736450221934512,
        0.11879243599149202,
        -0.75051186731836594,
        2.2326278994869373,
        -0.28516141493441366,
        -0.71188399942886571,
        -0.47623745436090298,
        -0.49590677637694808,
        -0.67163431172419397,
        -0.3792341821077026,
        0.22548244038587065,
        0.076393189707764431,
        0.2128730869251946,
        -0.2022788427232938,
        0.12552192092648781,
        0.86776277236429245,
        -0.031428308924929177,
        -0.2605905755167558,
        -0.35566215685127833,
        -0.44333804272161936,
        -0.086647186490135045,
        -0.77708663176425419,
        -0.15843757271799408,
        0.44404360041748381,
        -0.37682418161684217,
        -0.84610609624679112,
        -0.060250324877846387,
        0.32193868907980916,
        -0.67203140937011718,
        -0.62751977682925164,
        0.036105011798095298,
        0.28075471600246865,
        -0.2587677341137597,
        -0.46283172104272124,
        -0.23408238021345362,
        0.061373601097474667,
        -0.48085293048724825
      ]
    },
    {
      "dualCoef": -3.4526698300124397e-05,
      "supportVector": [
        -0.27188742304120989,
        0.097554909343654461,
        -0.8714460194926591,
        0.27006851966704259,
        -0.36424318292676833,
        -0.38226803358358169,
        -0.031310926028139695,
        -0.14488748443011373,
        -0.095824015542300453,
        -0.26297433741400272,
        -0.11275708286588167,
        -1.0391546239885832,
        -0.11860465281969711,
        -0.59572390509007156,
        1.0725486101537691,
        1.4146870310878863,
        0.24736681797752941,
        -0.17508631367661454,
        0.49810689309976902,
        0.31148794987658762,
        0.096666888393373604,
        -0.54186916312716549,
        1.1135770275748011,
        1.1408533989112237,
        0.78572974875926205,
        -0.86538785679598029,
        -0.51291459818101959,
        -0.04739570583139234,
        -0.69927335580351857,
        -0.55627550905290979,
        -0.19703498747251988,
        -0.18897653102631642,
        -0.35881630706394596,
        -0.39405494383789103,
        -0.076114374293857659,
        -0.2664493729580894,
        0.070568929651076043
      ]
    },
    {
      "dualCoef": -3.4526698300124397e-05,
      "supportVector": [
        6.8022021243308881,
        0.29546448881429349,
        -0.34877942968260972,
        -0.16161650815134712,
        -0.76440660276637973,
        2.7567213579536762,
        -0.2503474609555707,
        -0.49026862575527297,
        -0.36547741835135517,
        0.015293009365285153,
        -0.041434521359412065,
        -1.57107146535666,
        -0.29399244725980256,
        -0.2664742819686392,
        1.5033733602685433,
        0.52594525256795965,
        0.55262157042656646,
        0.11938292819566311,
        0.71129606889360009,
        0.14440783899755075,
        0.55109702724839826,
        -0.34829715163440694,
        1.5728730072357546,
        0.73027904049302661,
        0.46759927952702185,
        -0.68095537807355733,
        -0.27795099855599698,
        0.30182108238869315,
        -0.62941650151981643,
        -0.82441224299900062,
        -0.43545315525283834,
        -0.23826966686859957,
        -0.62159842057307813,
        -0.80459260753080197,
        -0.17685267611864439,
        -0.079606536086338595,
        -0.56912879153364015
      ]
    },
    {
      "dualCoef": -3.4526698300124397e-05,
      "supportVector": [
        -0.28309236985926595,
        0.48478249152915381,
        -0.43590245413165091,
        -0.0062215145406542445,
        -0.63561665463855543,
        -0.3617863940298035,
        0.00030056516433985979,
        -0.47305703603801269,
        -0.30209657264035172,
        -0.064186738143712202,
        -0.19392401751042976,
        0.68386072560580491,
        -0.49141767764670669,
        -0.20266572713981865,
        -0.33787613572761133,
        -0.13340273050909504,
        -0.17254792833312729,
        -0.55445077029275158,
        -0.36763425904321811,
        -0.25407324110498403,
        0.024725964131961608,
        0.36709503639569346,
        -0.49641089809341826,
        -0.50092434611391445,
        -0.22007041526714388,
        -1.0231168783022722,
        -0.43559295935111847,
        -0.22713953543860871,
        -0.80663259666705933,
        -0.83315620445006189,
        -0.59022642455882035,
        -0.43443205411709712,
        -0.74369000243464323,
        -0.2697610960193374,
        -0.4965929210393849,
        -0.44835467054633887,
        -0.46817741105516414
      ]
    },
    {
      "dualCoef": -3.4526698300124397e-05,
      "supportVector": [
        -0.23468008804587612,
        1.2726140028810964,
        -0.91023479488039993,
        -0.6468578203321369,
        -0.89016226868568593,
        -0.69650358446654947,
        -0.50961850995389013,
        -0.46192213014693551,
        -0.57779616837249959,
        -0.48403543473089072,
        0.54591770236221582,
        -0.070903361902569101,
        0.28600792305620398,
        1.3881943811905699,
        0.32830492394271549,
        -0.38543726959477709,
        1.0907155259459509,
        0.086929091601097186,
        0.091803722025891099,
        1.1026968657950609,
        0.02584801275423013,
        0.96395541047132161,
        0.29995755250287559,
        0.65406380760725291,
        0.4695571155738576,
        -0.25192048485203417,
        0.15123877133880406,
        -0.63082475628814649,
        -0.2735087955180443,
        -0.39671742368319063,
        -0.15599797030718457,
        -0.50463414553251285,
        -0.46474333151698149,
        1.2957966132769971,
        2.1395227354789212,
        2.1658673021259616,
        1.7206265433959558
      ]
    },
    {
      "dualCoef": -3.4526698300124397e-05,
      "supportVector": [
        -0.21166010897020399,
        4.5073588433404099,
        -0.98254176539445226,
        -0.89588213374013603,
        -1.1727364646356855,
        -0.89759942310845042,
        -0.76561480514505342,
        -0.46164800742712675,
        -0.85527360755478765,
        -0.77665338272102824,
        0.97798025832721658,
        0.29392649034961904,
        0.19133373529361575,
        -0.3398686883924818,
        -0.44295295949819913,
        -0.2661149364723569,
        -0.3677959792345924,
        -0.45802573625977139,
        -0.081682116470232422,
        -0.01264349131987667,
        -0.31435321197792249,
        -0.62738552893465149,
        -0.3702242727177753,
        -0.3440047749619059,
        -0.55962305364081255,
        -0.79859712927426418,
        -0.74627360153000499,
        -0.39400069825560796,
        -0.5235062690007124,
        -0.14399625170208416,
        0.55365481087420332,
        -0.31899779325590688,
        0.7061201824566935,
        -1.0395315304183868,
        -1.4489491609293896,
        -1.191583608619128,
        -1.4650660735788283
      ]
    },
    {
      "dualCoef": -3.4526698300124397e-05,
      "supportVector": [
        -0.12176360179549338,
        0.57071419688652603,
        -0.73739015482934078,
        -0.078739369025548497,
        -0.65493046556852796,
        0.56239936574670335,
        0.58338430811920539,
        0.26298106867006804,
        0.47222960580705287,
        0.50938966199181779,
        -0.82148421241190062,
        0.97310238978820629,
        -1.1601208052736041,
        0.18812582460627827,
        -1.1435248224643304,
        -1.4218787867505529,
        -0.968084174764962,
        0.50420341301482396,
        -0.18728532390763114,
        0.44707561591753398,
        -0.24705255871688164,
        0.42531301108577096,
        -0.93891031551166348,
        -1.572125153792157,
        -0.059995009284492626,
        -0.82770639791721856,
        0.11032883135485723,
        -0.89555990573919431,
        -0.68401353888906702,
        -0.82465471436391158,
        -1.114567507569844,
        -1.2429362740767025,
        -1.0701510370299647,
        -0.5144407465455807,
        -0.31019721119641908,
        -0.20886954910512173,
        -0.52250554845470887
      ]
    },
    {
      "dualCoef": -3.4526698300124397e-05,
      "supportVector": [
        -0.15774178147688803,
        0.21139970552026721,
        -0.56478982185807203,
        -0.96592556352052006,
        -0.01195403989996653,
        0.23944969612686642,
        0.58036254593780312,
        -0.068871063094106066,
        0.35870253363232318,
        0.22527401684777038,
        -0.3668003803612353,
        -0.55079165660923168,
        2.0589791099412396,
        0.81597852845203755,
        0.9059788837250583,
        0.82330704539374988,
        0.97404354969154494,
        -0.5486495183484188,
        -0.15377701305499292,
        -0.39289505177478407,
        -0.35866400681725458,
        0.091599547173818768,
        0.53418784778586614,
        0.4731324140916629,
        0.75265971549455246,
        -0.5708495010990543,
        -0.082661408229509736,
        0.30074153444526763,
        -0.35808562574373654,
        0.22241040792955061,
        1.6009529356959968,
        1.3362047372502517,
        1.4385041549696631,
        3.5506551511054516,
        2.618451376379197,
        1.0753377352399349,
        4.4191710870544325
      ]
    },
    {
      "dualCoef": -3.4526698300124397e-05,
      "supportVector": [
        0.066613455155720286,
        -0.24384990575806259,
        -0.64510607028570754,
        0.24176485573090284,
        -0.35866705016473532,
        0.99491923932430038,
        0.28682882828788342,
        1.3141200771297692,
        1.1777828348279706,
        -0.10434513361105169,
        -0.34014124412154018,
        -0.17354214317410435,
        2.0007732711862301,
        0.2967405535193538,
        -0.77074259755252561,
        -0.90672757112397073,
        -0.46751249757366492,
        1.1512159392082866,
        0.79812515463094713,
        0.52869895330507155,
        0.92829814407615419,
        0.59532003517937049,
        0.023307412468303406,
        -0.4695839220477791,
        0.50635541371995441,
        -0.79320268431300622,
        -0.98016776181209486,
        -0.62853653257758135,
        -1.0552258308139577,
        0.96197866664059695,
        1.6828342668894016,
        1.5470689327413945,
        1.0417437289741809,
        1.3490329530059124,
        1.9578937539115757,
        2.7805726154274528,
        1.7113319513526173
      ]
    },
    {
      "dualCoef": -3.4526698300124397e-05,
      "supportVector": [
        -0.18903621982761068,
        -0.63295170474995677,
        -0.66294218541348704,
        1.1104260952508231,
        0.030330533379454357,
        0.7645441166093041,
        0.95886553562882615,
        -0.03807351450221752,
        0.62331306153419574,
        0.86340950598922162,
        -1.027073529732103,
        -0.90139945974890023,
        0.63654581452120851,
        1.0844312896578434,
        0.95707045123520917,
        0.66069378017941138,
        1.121942585588215,
        -0.71455749829068238,
        -0.25298959986300079,
        -0.46748334420562943,
        -0.4705433172804927,
        0.48648443194714186,
        0.49703813815518488,
        -0.13199787745551242,
        0.8565942955493614,
        -0.30121586258039357,
        -0.11074344826631555,
        -0.088214954148021052,
        0.12330412921040529,
        -0.61262283174641685,
        0.42976721893227654,
        0.81617401487784935,
        -0.055133800285388543,
        -0.12270957609109878,
        1.009983668830756,
        1.5243172773394662,
        0.29378730292034549
      ]
    },
    {
      "dualCoef": -3.4526698300124397e-05,
      "supportVector": [
        -0.17021785321866695,
        1.1988350578426694,
        -0.85875180305769849,
        -0.89333080647123309,
        -0.71462273844094026,
        0.44335028767100365,
        0.4106753987952162,
        1.4290279228092233,
        1.0411464680373921,
        0.15836697550423515,
        -0.55591675686635311,
        -1.2500998283940783,
        1.3661781066813683,
        0.60338909665429319,
        0.9939181994072267,
        1.31000593853971,
        0.67463965691353811,
        -0.33454086761243512,
        0.38164712707410758,
        -0.39768693913405656,
        0.123247651240916,
        -0.046626740067684844,
        0.97189697971490996,
        1.1589937574348328,
        0.75285961902826104,
        -0.11544126562578355,
        -0.18675641843323643,
        0.3236413177818725,
        -0.10328767046902361,
        0.21343688600469965,
        1.446378448798217,
        1.2226269829651841,
        0.88446711737075201,
        0.83605734493748263,
        0.52227678016460022,
        0.78390352705630595,
        0.50195632960534464
      ]
    },
    {
      "dualCoef": -3.4526698300124397e-05,
      "supportVector": [
        -0.08323573818369745,
        -0.067789900241451484,
        1.6263910451378973,
        -0.48788311560530806,
        -0.52072073617426573,
        0.97783761021017768,
        1.0735353722050454,
        0.51309028386993727,
        0.91371934106694463,
        0.85232851889223127,
        -1.0900911264215072,
        -0.87132903111778059,
        0.32957089406262902,
        -1.2350194007953854,
        1.0748360695414645,
        1.0937299898779356,
        0.099381120969913694,
        -0.58327796007356469,
        -0.097157089986004835,
        -0.4246842103215428,
        0.13910788201654237,
        -0.62308561534572482,
        0.69179193982530895,
        0.39846722139374435,
        0.11628185717754258,
        -0.91959807306940156,
        -0.12065499704892099,
        0.57149664277065038,
        -0.45870643158997543,
        -0.79617899171446038,
        0.24129259015417803,
        0.44894510089294015,
        -0.27329473416334188,
        -0.17816769888573972,
        0.36389880110366774,
        0.22097199872456016,
        0.19602576903962365
      ]
    },
    {
      "dualCoef": -3.4526698300124397e-05,
      "supportVector": [
        -0.27515982208864143,
        -0.90608356831702952,
        3.8046548334843275,
        -0.93428786581025014,
        1.2747607509530618,
        0.14545070864988879,
        0.27876251750378805,
        -0.61194570230209944,
        0.088232230140391291,
        0.69281831309200714,
        -0.78837196517733099,
        0.65276093546208491,
        0.43390846802451022,
        0.79023236179274681,
        -0.204614725338714,
        0.40925011431553476,
        0.0043084296010850827,
        -0.19842654946964872,
        -0.64472039022373384,
        -0.92787462428051071,
        -0.3608742148986282,
        -0.2341138778385386,
        -0.60129789274488099,
        -0.35209307209619645,
        -0.61818933341179583,
        -0.68888045783689289,
        -0.30982692306083404,
        0.13560959326743044,
        -0.31222126529860905,
        -0.52213718961989197,
        0.34621722221456103,
        0.30723643971397213,
        -0.13083578965528428,
        -0.064209357528908037,
        -0.0003456165217076379,
        0.036486893904606812,
        -0.026026068303790766
      ]
    },
    {
      "dualCoef": -3.4526698300124397e-05,
      "supportVector": [
        -0.23610911950596192,
        -0.89623344337716615,
        0.12169685785250611,
        -1.032100975905736,
        2.2533789908150257,
        0.012815690398900461,
        0.17500020861501497,
        -0.57208913265342887,
        -0.083566539901734668,
        0.480521987034571,
        -0.46421919200650291,
        0.65066464157008985,
        0.40925348629354363,
        -0.14486476463331363,
        -0.77142389541756673,
        -1.1296019346702222,
        -0.027124672326257399,
        -0.14117527172191136,
        -0.58042592484305033,
        -1.2191799588587939,
        -0.53986713177839696,
        0.13975004104684807,
        -0.95108600386985631,
        -1.6444121464820016,
        -0.46982021296814092,
        -0.3536758010536219,
        0.12592599743274083,
        -0.17643648161896702,
        -0.61905986508703492,
        -0.10310698735249695,
        0.24508756779064833,
        0.13399233002260075,
        0.23472269619741973,
        -0.79649595682149232,
        -0.6396938245508752,
        -0.5282806520561345,
        -0.84095850771615543
      ]
    },
    {
      "dualCoef": -3.4526698300124397e-05,
      "supportVector": [
        0.144797475748242,
        0.91275910001791605,
        -0.48297677118224674,
        -0.46326119644581482,
        -0.94859225060388097,
        -0.28579197902843123,
        -0.6447334269213516,
        0.0044351071067170941,
        -0.41114911068348292,
        -0.57150532338270632,
        0.6170949978363558,
        -0.042179602625485597,
        1.6362178645818928,
        -0.58914535963798698,
        0.3411548780037772,
        0.36453240894520489,
        -0.01789369281134005,
        -0.53431179903716852,
        -0.33412450788762665,
        -0.17493574954868057,
        -0.43867288116422287,
        -0.033912947806254978,
        0.00031683882097415601,
        0.027181535986000763,
        -0.062041089979570752,
        -0.62249398008355272,
        -0.2842963259764551,
        0.19466996325220126,
        -0.37806030873043428,
        -0.58828417878240435,
        1.5000433610242374,
        0.84861454002627434,
        0.93079611428743181,
        -0.56432665465357268,
        -1.0061632911167075,
        -1.0731338823384207,
        -0.88510499728966163
      ]
    },
    {
      "dualCoef": -3.4526698300124397e-05,
      "supportVector": [
        -0.22867793114027238,
        -0.23803621126302682,
        0.50660003838930934,
        0.71923344731676686,
        1.5305328965010698,
        0.43074990316050144,
        0.52591733815786756,
        -0.33136809456639527,
        0.25893248426056076,
        0.67675501060899768,
        -0.91174542750470555,
        -0.39046960513587886,
        0.35688784521571559,
        1.3592035298433618,
        1.1339649583515958,
        1.2766116675980874,
        1.1266064833532758,
        -0.58397703353944685,
        -1.1727634516414316,
        -1.234091569959255,
        -0.8854944855033976,
        0.449381105996845,
        -0.028120666520810307,
        -0.26477650114880219,
        0.039138807801666495,
        0.029347924562553186,
        0.68867278853183045,
        1.4534179191257084,
        0.53932757939343323,
        -0.59908203696929319,
        0.082610508713638051,
        -0.15779025234710889,
        -0.098120954313952499,
        2.5672052798768323,
        2.563422239290158,
        2.5767917321961411,
        2.5247011737837131
      ]
    },
    {
      "dualCoef": -3.4526698300124397e-05,
      "supportVector": [
        -0.23479254155188251,
        -0.37675745940145927,
        -0.30463150245195336,
        1.7533953635165125,
        -0.27360843248686056,
        0.40881442422466385,
        0.46848139289872709,
        -0.26025811425131029,
        0.34418239594504874,
        0.69753681218401886,
        -0.93892101303104991,
        -1.0787244584608848,
        0.42323129466195791,
        -0.10819392796942269,
        1.5054485386453957,
        1.6138763049684643,
        0.84568237858089046,
        -0.70225369169843632,
        -0.31114986499450603,
        0.043250329956443123,
        -0.57476884622787339,
        -0.25963526138094722,
        0.84313823160327317,
        1.3694648614743568,
        0.23584864923190277,
        -0.56616247462559555,
        0.36856629448316108,
        0.52538834102972287,
        0.092344750362500477,
        -0.52305176352620175,
        0.19927027598556832,
        0.72760128588754658,
        -0.13739195132118748,
        -0.73982770436198864,
        0.20133317816842733,
        0.20458064193771533,
        -0.18235259073927845
      ]
    },
    {
      "dualCoef": -3.4526698300124397e-05,
      "supportVector": [
        -0.037910868689194646,
        -0.86905582165464756,
        -0.075525822593211792,
        0.89068529648427774,
        -0.24653782861112522,
        0.92463200131507806,
        0.87164454851731588,
        -0.11970348045274229,
        0.48785041175999871,
        0.7690279581003725,
        -1.1809211039768772,
        -1.4062635838219688,
        1.2558742750641654,
        2.3610341949408236,
        2.938251504443695,
        1.925004662730238,
        3.6743080308736547,
        -0.46249093909468131,
        -0.044881446191945208,
        0.14382813453380078,
        -0.28107061721193949,
        1.4730066585446902,
        2.0569041932745216,
        1.3181904199418659,
        1.9757165702591493,
        1.0659595103223605,
        1.313292807473819,
        1.0228816038591744,
        1.5979094069064064,
        -0.12001408027268422,
        0.29722321209035918,
        -0.10159175982871713,
        0.31617384537196419,
        -0.035721001203031913,
        1.8152479307603178,
        1.8515181742853954,
        0.94972641219832765
      ]
    },
    {
      "dualCoef": -3.4526698300124397e-05,
      "supportVector": [
        -0.23913838230678175,
        -0.72774000742043765,
        0.063878334524835614,
        0.53269703982929839,
        0.087804172811952186,
        0.56597018482485906,
        0.7608571389477975,
        -0.2478473835131795,
        0.41756785727760481,
        0.76181371352738581,
        -1.1071821186241426,
        -1.0452867847654095,
        0.19325738872540932,
        -1.3713939699276569,
        1.8678954887629848,
        1.8895481780008436,
        0.62233504316066302,
        -0.75117511527570169,
        -0.69853366567377395,
        -0.63240281012322519,
        -0.82330160528201779,
        -0.73326175320587228,
        0.84799845757426751,
        0.97450432798671449,
        -0.042199570896821532,
        -0.54904480276362222,
        0.61813345352820581,
        1.1725352180199109,
        0.11122890005451243,
        -0.77071124121263546,
        -0.00013605219747669415,
        0.25228256868179649,
        -0.39927739855086963,
        -0.16685939035941483,
        0.67043789508789342,
        0.94168992376341853,
        0.25505967498012555
      ]
    },
    {
      "dualCoef": -3.4526698300124397e-05,
      "supportVector": [
        -0.26468196083375173,
        1.7945276968163388,
        1.41387979243993,
        0.24367468545077373,
        -0.83252378975610841,
        0.43226100885387692,
        0.65750968388396624,
        -0.52606145687969486,
        0.32578128449736654,
        0.865135384801898,
        -1.0667401129816991,
        -0.34678202483228471,
        -0.091685233666235405,
        -0.42923262400637091,
        1.2333484356213045,
        1.1304239054664655,
        0.75308782113904893,
        -0.68418144057998886,
        -0.73451528065991134,
        -0.95660960086546998,
        -0.63291331100038162,
        -0.63235585909078595,
        0.37348320932787127,
        0.44318255823974978,
        -0.16230848359149397,
        -0.47447432538465018,
        0.39687036812388576,
        0.93355347537021183,
        -0.0014802694871103759,
        -0.375502500230602,
        -0.36115707395863828,
        -0.40239625924072991,
        -0.40949886751213838,
        0.67312389245200543,
        0.374560857764757,
        0.17261774516215925,
        0.71437419613406283
      ]
    },
    {
      "dualCoef": -3.4526698300124397e-05,
      "supportVector": [
        -0.28666833629686539,
        -0.66517987664906963,
        0.1317898590749812,
        0.50112913259979075,
        0.29195308786777702,
        -0.39712632506199891,
        -0.12285227290067915,
        -0.64823939339076764,
        -0.26672992544513069,
        0.090822888619982597,
        -0.10270598076031068,
        -0.34381775724064456,
        0.35488770442148782,
        0.90256540054489398,
        0.36965149114733981,
        0.699457942469074,
        0.44932389102087333,
        0.21504895916507547,
        -0.1315064231214034,
        -0.978309203291712,
        0.52701197280495293,
        -0.55956739399039768,
        0.17502481019234833,
        0.49072421154117202,
        -0.095074782049175785,
        0.51062825012763413,
        0.59080007617287367,
        1.2469225012466549,
        -0.018116542969224422,
        -0.41912176756016994,
        0.65105592874292184,
        0.35194870307769199,
        0.3078243808810131,
        -0.3551295452570038,
        0.3279544358893034,
        -0.00019020932428981827,
        0.041755660354605914
      ]
    },
    {
      "dualCoef": -3.4526698300124397e-05,
      "supportVector": [
        -0.26548816874855374,
        -0.63248427268559992,
        0.49342730526189321,
        1.0020884362585001,
        -0.25234760962577724,
        0.22345997731210021,
        0.55126128579114952,
        -0.51909926681151919,
        0.063593516936404137,
        0.64591325070763461,
        -0.79403350265537387,
        -0.34089890008536455,
        0.10879731149172318,
        -0.20205919393830601,
        1.1760100810396377,
        1.4175285384552161,
        0.75324796948485773,
        -0.87055809992512978,
        -0.91872480314749982,
        -0.89885407370843196,
        -0.91472617883361418,
        -0.73372964061427881,
        0.20628967958651154,
        0.19824332268525149,
        0.016225966280900041,
        -0.70946043990656882,
        0.42939388104775739,
        0.9444204957096497,
        0.049882434110158178,
        -0.52575037018126469,
        -0.13891161363616927,
        -0.0908678364710227,
        -0.30212129559180007,
        2.7849026720377172,
        1.4459213621325027,
        1.2518722045160136,
        2.0285387473685836
      ]
    },
    {
      "dualCoef": -3.4526698300124397e-05,
      "supportVector": [
        -0.28933041359693079,
        -0.02345872356210359,
        0.46790617836447651,
        2.1631766821033209,
        -0.4307865702454276,
        -0.067270300854399945,
        0.13481184986921596,
        -0.51553819673511203,
        -0.10590241464903663,
        0.52868713454886607,
        -0.56868922065135341,
        0.36021601913124773,
        -0.47412535637229514,
        0.35636817661997666,
        0.16268764830193858,
        0.52369490462747537,
        0.17175888198053094,
        -0.68987176223302538,
        -0.66503256473678563,
        -0.66974170156870527,
        -0.6870018043009084,
        -0.064502666937488587,
        -0.34237514483956105,
        -0.44919435607543867,
        0.039223246929595681,
        -0.74346820605409492,
        -0.16220663705286717,
        0.56706446336253924,
        -0.43949603247484592,
        -0.52496758955932987,
        -0.61688313950654639,
        -0.47069520653511149,
        -0.65195728015291554,
        -0.41187736938607339,
        0.73059780013350595,
        0.87033534350144415,
        0.19939943477465871
      ]
    },
    {
      "dualCoef": -3.4526698300124397e-05,
      "supportVector": [
        -0.26602118616879433,
        -0.50631029466875754,
        2.8679334890556198,
        2.206653918496571,
        -0.35870306088669163,
        0.11590920049442784,
        0.23265560211289649,
        -0.63743164390248974,
        0.064275722656715398,
        0.52429780895446276,
        -0.67511134066057765,
        0.0089041661077798717,
        -0.39305150420612617,
        -0.075309674340272692,
        0.61627405484464926,
        0.70200591875794183,
        0.51316535973462674,
        -0.96122125765281463,
        -0.93403372704323606,
        -0.74251329094504948,
        -0.96555283097255706,
        -0.58923812972676726,
        -0.20349776395924044,
        0.011644381079347338,
        -0.33736752576334328,
        -0.53541807695587817,
        0.4013108968010794,
        0.69211120113175117,
        0.078651022063275469,
        -0.85227102106223906,
        -0.51063098510497196,
        -0.29296283546975421,
        -0.67630973995157784,
        -0.53524354402324115,
        0.54834199452755383,
        0.18125999488519773,
        0.33810351768006697
      ]
    },
    {
      "dualCoef": -3.4526698300124397e-05,
      "supportVector": [
        -0.27379660743976308,
        -0.68713958617807047,
        2.624038960215398,
        2.294013955887777,
        -0.65994184030594694,
        0.040284595165566629,
        0.17970534757854045,
        -0.5090015395491978,
        -0.1083968716163209,
        0.52743717054459205,
        -0.60238384739210626,
        -0.3417991394688436,
        -0.56552236567854874,
        -0.81977842766397357,
        0.39439138338471263,
        0.57509480686741854,
        0.064287090689139986,
        -0.7604548394087548,
        -0.49790959799449802,
        -0.66521347245914531,
        -0.60329789640805731,
        -0.3139192690082373,
        -0.059499405930490065,
        -0.11027747249925487,
        -0.16904879349360427,
        -0.46360423452653965,
        -0.20810313786477366,
        0.48773481103611083,
        -0.3256757062947831,
        -0.92407012269061894,
        -0.54528518593405451,
        -0.40048038561052574,
        -0.74057256075439748,
        -1.0652493398377081,
        0.62221964055235979,
        0.6950071007796037,
        -0.2069070549606766
      ]
    },
    {
      "dualCoef": -3.4526698300124397e-05,
      "supportVector": [
        -0.27421393274057837,
        0.35177705174739266,
        -0.75340450005085313,
        -0.0066975184330836015,
        -0.55448562409917945,
        -0.16515915121567665,
        0.22134811719261707,
        -0.2990450155931928,
        -0.028638345099662017,
        0.29220399634585537,
        -0.36985663524953555,
        -1.0188011250032381,
        -0.26035977397804433,
        -0.63079051826674004,
        1.4757932383924348,
        1.76528667643107,
        0.94062639361624378,
        -0.88729746442464374,
        -0.50810339822706985,
        -0.58651536560605499,
        -0.78820657336808309,
        -0.85862956601834317,
        0.72272987814570055,
        0.84560469086296686,
        0.076968466964266583,
        -0.23611084185356385,
        0.42770721711985338,
        1.4016683841408344,
        0.15132332430333237,
        -0.90962487794244373,
        -0.32310698482287953,
        -0.14554515553286837,
        -0.65523317190738062,
        0.21113290502659415,
        0.27739274967268729,
        0.11836764488992703,
        0.21637949379207783
      ]
    },
    {
      "dualCoef": -3.4526698300124397e-05,
      "supportVector": [
        -0.2090395369813319,
        1.2929936441959959,
        -0.83745969613943805,
        -1.176911541212883,
        -0.79654417283354484,
        -0.89720401748638567,
        -1.0510110993131276,
        0.77830562338875153,
        -0.29310058104869996,
        -1.2332044181627917,
        1.5306910612524953,
        -1.692247574921834,
        1.2707177147206772,
        1.3879391741290359,
        0.14380090419493227,
        -1.4988642573090425,
        1.2238688579461079,
        0.74508024512789484,
        1.2796076132192788,
        0.72595041166155527,
        0.62345972124678406,
        1.6041693179837331,
        0.98254322574279174,
        -0.0090094627941746941,
        1.5325807554811259,
        -0.25491991402936137,
        -0.43998696428720563,
        -1.4235440809705533,
        -0.20595689439316514,
        1.4745269616545784,
        1.9873641470382599,
        1.4581738703002947,
        2.1892369331640507,
        -0.81657786018865164,
        -1.4564173361134745,
        -1.3200052011446028,
        -1.3355447712612314
      ]
    },
    {
      "dualCoef": -3.4526698300124397e-05,
      "supportVector": [
        -0.25154554105867305,
        0.86735982761021435,
        -0.78635530720373215,
        -0.77753337254416932,
        -0.74766399948974893,
        -0.43359583016596043,
        -0.092982100974946677,
        0.35521882947424688,
        -0.20493253059388369,
        -0.47203050878511255,
        0.17185331896082234,
        -0.63898500448959994,
        -0.16836918635877998,
        0.15151983614706965,
        0.53164839118419638,
        0.27724363481920483,
        0.37817659602634107,
        0.48929487847991532,
        0.38682326415040563,
        0.41758696310872745,
        0.40331967175983591,
        -0.18161069504785127,
        0.65645283382025355,
        0.73666381067484565,
        0.80166701220460146,
        0.30946974177359815,
        0.43564130184591221,
        -0.081407493688069668,
        0.23248695825434812,
        -0.7619871431229851,
        -0.26808389382592135,
        -0.27824423936306331,
        -0.62962119259494631,
        0.21627459812172839,
        0.25226424281004145,
        0.49438366796212796,
        0.22481682942710438
      ]
    },
    {
      "dualCoef": -3.4526698300124397e-05,
      "supportVector": [
        -0.021230670745484459,
        0.19115136360801976,
        -0.21161569063156055,
        0.91440576599305468,
        -0.7373504378525273,
        0.16948462584909349,
        -0.090609212650696491,
        -0.49666976678661939,
        -0.29499641417059491,
        0.18319595483345638,
        -0.18103067771213863,
        -0.63368493941514148,
        -0.60219327917670529,
        0.44205950737947491,
        0.49115734101137826,
        1.0148217313163559,
        0.54664803797908801,
        -0.12295741686245483,
        0.0521151346119667,
        -0.13984001796547599,
        0.23403679284869261,
        0.37832132419364756,
        0.39826171887943834,
        1.4018541840036445,
        0.49172764370644001,
        -0.51489505265610558,
        -0.42448635133013762,
        -0.32690723042260345,
        -0.47766176654187575,
        -0.73188978012526684,
        -0.58000780698123733,
        -0.38992938164386048,
        -0.7130390786591313,
        -0.30506744336701458,
        0.33873360846944789,
        0.1134724939586364,
        0.27080489172072575
      ]
    },
    {
      "dualCoef": -3.4526698300124397e-05,
      "supportVector": [
        -0.26739191850278199,
        1.0348510226819982,
        1.2422846108168788,
        -1.0364929101027136,
        -1.0931028686575965,
        -0.19975618457151936,
        0.010992276111436629,
        -0.3384748854287179,
        -0.15006966705892907,
        0.18164776245879508,
        -0.22364310556960726,
        -0.28113706463548482,
        -0.42710618728127453,
        -0.82325664384841579,
        0.59065025011911554,
        0.46202430430657349,
        0.21714865094829178,
        -0.86923808374942968,
        -0.7207393593078496,
        -0.84806783651195705,
        -0.67529869341866744,
        -0.3919544243915391,
        -0.055323835247205418,
        -0.32412389463940755,
        -0.091067361438690833,
        -1.0054249637360617,
        0.024307447132701315,
        0.50376477415248255,
        -0.34431142533676062,
        -0.75933783823240342,
        -0.35518715048174015,
        -0.5642336460304882,
        -0.73144563514005601,
        -0.077294148879940447,
        -0.092287414250031813,
        0.30185664940320728,
        -0.032381749344387818
      ]
    },
    {
      "dualCoef": -3.4526698300124397e-05,
      "supportVector": [
        -0.20152172836162086,
        7.9817288921306826,
        -0.78951135152560714,
        -1.1361749402844294,
        -1.3246155610906607,
        -0.29604165543917205,
        0.39992468600782333,
        2.2744208398199528,
        0.3008393685739153,
        -1.2440693620684162,
        0.28756699812049535,
        0.077246611759854616,
        0.15180357988407742,
        0.79976974164905901,
        0.31212440951804726,
        1.228265280516798,
        0.41644888965642346,
        -0.47899317497972738,
        -0.95198040081449531,
        -1.0493401374331823,
        -0.69900902331540093,
        0.40636940641822455,
        -0.41210324618534772,
        0.48136045778471881,
        -0.21428793978370272,
        0.94918359260453167,
        1.1106930673850564,
        0.5521039396806009,
        0.73278167794764615,
        -0.66842114440305256,
        -0.0022307591279901277,
        -0.24991014746240914,
        -0.57946637833028591,
        -0.20953807256142329,
        0.11003348572479552,
        0.11563759447073954,
        -0.0021347271206267281
      ]
    },
    {
      "dualCoef": -3.4526698300124397e-05,
      "supportVector": [
        -0.23887683981732899,
        0.42855045403725606,
        -0.62182798650787541,
        -0.58680093047142712,
        -0.83723461752221051,
