svm_type c_svc
kernel_type rbf
gamma 0.000345267
nr_class 2
total_sv 283
rho 2.11936
label 1 0
probA -1.66554
probB 0.015283
nr_sv 136 147
SV
90.5097 0:1.1357027 1:0.57250553 2:-0.68647546 3:-0.71008601 4:-0.68329712 5:-0.38182931 6:-0.15203697 7:1.0812807 8:-0.019643346 9:-0.36143108 10:-0.23489352 11:1.408371 12:0.99389259 13:-0.1352795 14:-0.39566809 15:-0.49854267 16:-0.22432601 17:-0.056352325 18:-0.065112416 19:-0.00020973225 20:-0.054408062 21:-0.047113791 22:-0.26387438 23:-0.19253585 24:-0.2331905 25:-0.46044479 26:-0.56559684 27:-0.71641524 28:-0.47846651 29:1.5512925 30:1.6798399 31:1.1482554 32:1.501472 33:0.088367073 34:-0.70882879 35:-1.3071923 36:-0.75657182
90.5097 0:1.3081691 1:0.77070596 2:-0.97231241 3:-1.079594 4:-0.82149116 5:-0.94155016 6:-1.2556406 7:0.40435286 8:-0.38781735 9:-1.4498128 10:0.49873947 11:0.70184999 12:-0.12178052 13:-0.17569166 14:-0.29239988 15:-0.21538882 16:-0.25657776 17:-0.12023578 18:-0.099584936 19:-0.022878536 20:-0.15320314 21:-0.068136408 22:-0.22727149 23:-0.1954303 24:-0.16092625 25:-0.38568032 26:-0.44530653 27:-0.47654322 28:-0.34691238 29:-0.15838429 30:-0.20258312 31:-0.13112637 32:-0.16419364 33:-0.2788363 34:-0.61483049 35:-0.78807225 36:-0.74278236
90.5097 0:1.2412723 1:-0.044983504 2:-0.3654327 3:-0.72366379 4:-0.76984803 5:-0.64861582 6:-0.51990483 7:0.83874505 8:-0.20784731 9:-0.9958354 10:0.17268058 11:1.0551105 12:0.5192954 13:-0.13502128 14:-0.28441902 15:-0.22358355 16:-0.19291023 17:-0.23386989 18:-0.17551865 19:-0.12452642 20:-0.180039 21:-0.13847327 22:-0.27770053 23:-0.17001342 24:-0.25951499 25:-0.32932954 26:-0.34152817 27:-0.32288293 28:-0.30311011 29:0.67325004 30:-0.065382599 31:-0.085008235 32:0.15837266 33:0.064419026 34:0.35021877 35:-0.26895225 36:-0.10157241
90.5097 0:0.26804443 1:-0.27331437 2:0.0616274 3:-0.81742477 4:-0.37152986 5:-0.90629381 6:-0.70977212 7:0.40073293 8:-0.73128959 9:-0.91435228 10:-0.47943769 11:0.34858946 12:0.67297784 13:-0.3569654 14:-0.31955229 15:-0.32157152 16:-0.29951322 17:-0.19040954 18:-0.00041414057 19:0.15811016 20:-0.083465438 21:-0.28897847 22:-0.17139908 23:-0.098013999 24:-0.2365573 25:-0.53030764 26:-0.5328062 27:-0.74937391 28:-0.51895553 29:0.3428239 30:0.74123857 31:0.97570898 32:0.62507418 33:1.3576135 34:0.48142473 35:0.30207976 36:0.73728647
90.5097 0:1.8163826 1:-0.57513536 2:-0.046312166 3:-0.86736828 4:-0.79704455 5:-0.38267797 6:-0.60890512 7:0.61792902 8:0.34500184 9:-0.90271183 10:-0.071863586 11:-0.3579316 12:0.23022893 13:-0.11281395 14:-0.2491003 15:-0.28617728 16:-0.17864857 17:0.016435596 18:-0.023278791 19:0.14677576 20:-0.060699384 21:-0.24954799 22:-0.14595285 23:-0.086617107 24:-0.1587915 25:-0.4971962 26:-0.46413319 27:-0.4961725 28:-0.47773084 29:0.042098987 30:0.94816374 31:0.67978425 32:0.47723129 33:1.9882454 34:1.6670306 35:0.83850376 36:1.71404
90.5097 0:-0.52595464 1:-0.30175288 2:0.60452898 3:-0.93179172 4:-0.67251089 5:-0.74691068 6:-0.70383876 7:-0.27981483 8:-0.77834058 9:-0.52439733 10:0.41722475 11:2.4681526 12:0.28644786 13:-0.2722677 14:-0.47953247 15:-0.45233838 16:-0.39292458 17:-0.19040954 18:-0.081645989 19:-0.0096148742 20:-0.12066243 21:-0.22988505 22:-0.32596654 23:-0.27177139 24:-0.29586669 25:-0.53829376 26:-0.71054411 27:-0.76556012 28:-0.56590551 29:-0.27347654 30:-0.044652154 31:0.17248471 32:-0.065013774 33:-0.86955478 34:-1.1403258 35:-0.82268025 36:-1.1587644
90.5097 0:-0.41629572 1:0.44891435 2:-0.89786243 3:-1.1504257 4:-0.78698075 5:-0.95176697 6:-0.88777269 7:-0.26533509 8:-0.93713768 9:-0.91435228 10:0.33571002 11:1.0551105 12:0.095072884 13:-0.19970656 14:-0.38762183 15:-0.34877102 16:-0.30392714 17:-0.1801163 18:-0.084013473 19:-0.0378303 20:-0.13560877 21:-0.3035165 22:-0.27280876 23:-0.23088729 24:-0.29757449 25:-0.36345701 26:-0.55400416 27:-0.54143181 28:-0.40927033 29:-0.27718919 30:0.045760455 31:0.27625053 32:-0.0084719806 33:-0.94139892 34:-1.3209782 35:-1.3244963 36:-1.5264834
64.35270164516996 0:-0.64457331 1:-0.010011278 2:-0.57054138 3:-0.79707115 4:-0.65313933 5:-1.1454538 6:-1.0717066 7:-0.7431665 8:-1.3017829 9:-0.91435228 10:0.2541953 11:2.1148921 12:0.66347454 13:-0.25716155 14:-0.45628874 15:-0.42775421 16:-0.37643924 17:-0.28631641 18:-0.084443771 19:-0.026495898 20:-0.16123613 21:-0.27982684 22:-0.31412165 23:-0.25766095 24:-0.33243797 25:-0.45848323 26:-0.66235953 27:-0.69488066 28:-0.45513236 29:0.014254087 30:0.18863557 31:0.50684123 32:0.13844399 33:-1.0212257 34:-1.3360339 35:-0.78807225 36:-1.5264834
90.5097 0:0.0034320419 1:-0.10194786 2:-0.13972964 3:-0.82846673 4:-0.76564381 5:0.039344558 6:-0.051169974 7:-0.17121679 8:0.34500184 9:-0.058779476 10:-0.44891153 11:1.0551105 12:0.86099704 13:-0.246187 14:-0.37472325 15:-0.35417605 16:-0.32340526 17:-0.20576771 18:-0.064045108 19:0.0017195277 20:-0.078738061 21:-0.17769457 22:-0.25059269 23:-0.17281741 24:-0.24133914 25:-0.53287718 26:-0.63311667 27:-0.65255841 28:-0.49821147 29:-0.33659165 30:0.41448134 31:0.59523433 32:0.20008381 33:-0.52629945 34:-0.7760898 35:-0.75346425 36:-0.63016842
90.5097 0:-0.26199203 1:0.052092865 2:-0.64165122 3:-0.58929022 4:-0.70237442 5:-0.98529797 6:-0.93415246 7:-0.024815511 8:-1.0221066 9:-0.73501058 10:0.82479884 11:1.8996278 12:0.73341991 13:-0.14982788 14:-0.2900535 15:-0.18127074 16:-0.2370592 17:-0.26001708 18:-0.22696626 19:-0.15576094 20:-0.25895232 21:-0.26261478 22:-0.32109526 23:-0.27280729 24:-0.32470191 25:-0.35572711 26:-0.23774542 27:-0.13869382 28:-0.24186127 29:-0.47834245 30:-0.25624472 31:-0.39554895 32:-0.28608679 33:-0.99703105 34:-1.374061 35:-1.1904714 36:-1.4023841
90.5097 0:-0.6641755 1:1.3388047 2:-0.67857355 3:-0.67957621 4:-0.17567519 5:-1.3281655 6:-1.2760726 7:-0.872695 8:-1.5359603 9:-1.217555 10:1.6399466 11:0.8011227 12:0.42012472 13:-0.32317659 14:-0.36126363 15:-0.32389454 16:-0.34864743 17:-0.044916826 18:-0.0069375957 19:0.05783567 20:-0.055637401 21:-0.19838677 22:-0.18562596 23:-0.15008061 24:-0.22645282 25:-0.38066752 26:-0.59539009 27:-0.61623501 28:-0.46153856 29:-0.44101518 30:0.43526375 31:0.76567209 32:0.22696319 33:-0.77724252 34:-1.3802902 35:-1.3910751 36:-1.2192111
90.5097 0:-0.53298843 1:-0.6223977 2:0.99440954 3:0.77069052 4:-0.28232701 5:0.52791821 6:0.52728037 7:-0.24014998 8:0.50852138 9:0.61741218 10:-0.071863586 11:-0.077681377 12:0.035790968 13:-0.34320433 14:-0.21023902 15:-0.20963343 16:-0.23490281 17:0.34924068 18:0.071764418 19:0.05783567 20:0.17479401 21:0.0977668 22:-0.044575082 23:-0.060690523 24:-0.052072832 25:-0.37311076 26:-0.51417503 27:-0.44160222 28:-0.40785785 29:-0.35929252 30:0.26168209 31:0.41588221 32:0.073353644 33:0.35640354 34:-0.41349819 35:-0.58866008 36:0.021369212
90.5097 0:0.49318654 1:0.55494209 2:-0.60794814 3:-0.87659437 4:-0.83108068 5:-0.13175307 6:-0.073837284 7:0.79614717 8:0.17724975 9:-0.38879036 10:0.49873947 11:-0.73678443 12:0.82834197 13:-0.053664732 14:0.14695393 15:-0.086660923 16:0.029245012 17:0.060742392 18:0.052209724 19:0.029242204 20:0.010449603 21:0.11122105 22:0.12745907 23:0.060466289 24:0.080026052 25:-0.30133029 26:-0.21411286 27:-0.35517281 28:-0.22931289 29:0.79471395 30:0.68096366 31:0.14133784 32:0.63921798 33:0.62246333 34:0.27261811 35:-0.036999742 36:0.67080053
90.5097 0:-0.67051645 1:-0.39349459 2:0.54609493 3:-0.23462874 4:-0.46924905 5:-0.20965426 6:-0.1565599 7:-1.0745711 8:-0.34425707 9:-0.053389509 10:0.58025468 11:-0.077681377 12:0.36070713 13:0.012944377 14:-0.12371865 15:-0.13386454 16:-0.081624418 17:-0.13930779 18:-0.011925126 19:0.022293194 20:-0.10997113 21:-0.010614623 22:-0.064920451 23:-0.002882471 24:-0.038435773 25:-0.25186108 26:-0.47293816 27:-0.63522841 28:-0.28179665 29:-0.060866396 30:0.25220488 31:0.36707432 32:0.067799978 33:-0.083173504 34:-0.70166704 35:0.16360402 36:-0.62806211
90.5097 0:0.32617937 1:-0.27986849 2:0.17389083 3:0.27913077 4:-0.29761565 5:-1.2460507 6:-1.2810013 7:-0.36199987 8:-1.3454401 9:-1.084494 10:1.4768071 11:2.468735 12:1.5438534 13:-0.32936782 14:-0.48318896 15:-0.47353248 16:-0.41503811 17:-0.14765042 18:-0.12926122 19:-0.0300215 20:-0.17995817 21:-0.12156951 22:-0.3464564 23:-0.23098992 24:-0.30307045 25:-0.40884299 26:-0.60614908 27:-0.64553824 28:-0.46118138 29:0.069975003 30:0.62688021 31:0.20147666 32:0.095681168 33:-0.19610608 34:-0.76723496 35:-0.85730253 36:-0.58707888
90.5097 0:-0.871059 1:1.0832659 2:-0.94130109 3:-0.43431233 4:-0.40368247 5:-1.530034 6:-1.6179094 7:-1.2629826 8:-1.7016605 9:-1.2497361 10:2.6179951 11:0.81761473 12:-0.46399587 13:-0.30359674 14:-0.41945918 15:-0.41001082 16:-0.35311039 17:-0.17175292 18:-0.087070944 19:-0.038153049 20:-0.13128749 21:-0.25538895 22:-0.2784377 23:-0.20493369 24:-0.30627274 25:-0.50532252 26:-0.64714332 27:-0.5455665 28:-0.5172973 29:-0.64283696 30:-0.18750044 31:-0.0086293149 32:-0.37939022 33:-1.0477134 34:-1.5494212 35:-1.254548 36:-1.3396911
90.5097 0:0.29011114 1:0.31296749 2:-0.84746846 3:1.9140572 4:-0.20259947 5:-0.57090976 6:-0.75317878 7:-0.83818464 8:-0.65526322 9:-0.5557191 10:0.41713233 11:0.26724132 12:-0.58268325 13:-0.35689033 14:-0.32345725 15:-0.31180001 16:-0.34455672 17:-0.085930787 18:-0.0085920424 19:0.10872305 20:-0.052991172 21:-0.18893481 22:-0.16401687 23:-0.073391756 24:-0.21687779 25:-0.51135167 26:-0.55394433 27:-0.68574981 28:-0.50254879 29:-0.28280651 30:-0.35853389 31:-0.14869996 32:-0.31091962 33:1.1405941 34:0.012129766 35:-0.67036351 36:0.57675444
90.5097 0:-0.49060318 1:-0.30193845 2:0.23387211 3:2.9585786 4:-0.12265143 5:-0.6976363 6:-0.75317878 7:-0.8518878 8:-0.83337339 9:-0.5557191 10:1.6486427 11:0.26724132 12:-0.97518471 13:-0.25664167 14:-0.38510138 15:-0.41001082 16:-0.32023492 17:-0.26721605 18:0.030086858 19:0.088902397 20:-0.077466965 21:-0.28758336 22:-0.16611753 23:-0.093144059 24:-0.24256697 25:-0.54500645 26:-0.72821997 27:-0.72621242 28:-0.56164572 29:-0.56793129 30:-0.2820563 31:-0.15870501 32:-0.46957838 33:-0.32007424 34:-0.032388427 35:0.24096423 36:-0.19913444
90.5097 0:-0.11418177 1:0.15682535 2:0.25417598 3:-0.80362013 4:-0.62960219 5:-1.3334125 6:-1.4494554 7:-0.63263726 8:-1.1784618 9:-1.4149783 10:2.1574473 11:1.3679881 12:0.18114322 13:-0.32678237 14:-0.42304879 15:-0.41721895 16:-0.36397528 17:-0.03591809 18:-0.069753948 19:0.017497236 20:-0.10443341 21:-0.24494095 22:-0.26648909 23:-0.14567678 24:-0.30080334 25:-0.40869444 26:-0.56856432 27:-0.72757651 28:-0.43142385 29:0.3164388 30:0.046974481 31:0.086418624 32:0.19823626 33:-0.40092304 34:-1.2461156 35:-1.3947522 36:-0.74225665
90.5097 0:0.45871067 1:-0.40253469 2:1.3860123 3:-0.58626117 4:-0.46622446 5:-1.461672 6:-1.492283 7:-0.12948138 8:-1.2292466 9:-1.6150538 10:0.33571002 11:-0.86137274 12:0.51638315 13:-0.28536308 14:-0.19054916 15:-0.12552165 16:-0.24250303 17:-0.067252823 18:0.05171044 19:0.062950606 20:0.047034416 21:-0.24351569 22:-0.054180357 23:0.021563099 24:-0.10581629 25:-0.45253088 26:-0.46271061 27:-0.55500232 28:-0.49413734 29:-0.4458448 30:1.9595792 31:1.0994146 32:0.84486338 33:0.0050138939 34:-0.049797273 35:-0.10486491 36:0.17169444
90.5097 0:0.75734287 1:0.12178573 2:-1.3137951 3:-0.82790681 4:0.076901281 5:-0.65745081 6:-0.76394256 7:0.21081968 8:-0.41224398 9:-0.8662343 10:-1.1315559 11:1.1591777 12:1.8523025 13:-0.31105035 14:-0.18802337 15:-0.12075755 16:-0.24495855 17:-0.35395276 18:-0.19046762 19:-0.14124522 20:-0.22871895 21:-0.32317261 22:-0.2506433 23:-0.21084602 24:-0.28996472 25:-0.35253005 26:-0.18566928 27:0.066938332 28:-0.27885741 29:-0.25484424 30:0.38167401 31:0.75452739 32:0.17475099 33:-0.63984017 34:-0.92942462 35:-0.97851824 36:-0.89002498
90.5097 0:1.7719357 1:0.48994878 2:-0.87415364 3:-0.80740622 4:-0.68488944 5:-0.82507203 6:-1.3355515 7:-0.4022847 8:-0.32725377 9:-1.0452998 10:-0.56095241 11:0.35095752 12:1.0653634 13:-0.33673763 14:-0.18362016 15:-0.074307586 16:-0.21923267 17:-0.21444296 18:-0.13742723 19:-0.16363071 20:-0.21270842 21:-0.39528309 22:-0.20529971 23:-0.1579104 24:-0.30321598 25:-0.16936982 26:-0.15962918 27:0.40125244 28:-0.1972102 29:-0.43866433 30:0.48628724 31:0.68911774 32:0.25542263 33:-0.55923341 34:-0.52649554 35:-0.96759757 36:-0.50710978
50.39605436361614 0:-0.36526702 1:-0.39457481 2:0.91208261 3:0.64683455 4:-0.73125888 5:-0.96045577 6:-0.91145454 7:-0.30666292 8:-1.0108309 9:-0.76946657 10:0.17268058 11:-0.45726265 12:-0.8726099 13:-0.31413724 14:-0.43584774 15:-0.47449192 16:-0.37558663 17:-0.087182795 18:0.15685382 19:0.29814173 20:0.12114393 21:-0.16937885 22:-0.082967377 23:0.042229745 24:-0.071571656 25:-0.56423756 26:-0.78055169 27:-0.98248616 28:-0.62008285 29:1.0204076 30:0.73760027 31:0.82588337 32:0.44975163 33:-0.025213641 34:-0.29071432 35:-0.11578558 36:0.060010843
90.5097 0:0.094571739 1:-0.42695446 2:-0.23585007 3:-0.28642286 4:0.68086262 5:-0.29471333 6:-0.26147987 7:0.47518579 8:-0.078680258 9:-0.36249946 10:-0.88701178 11:0.75506761 12:-0.92616273 13:-0.27499997 14:-0.4495484 15:-0.57215595 16:-0.42369773 17:0.02393895 18:-0.030187654 19:-0.0044928511 20:-0.00015117686 21:0.066587323 22:-0.24201348 23:-0.24855358 24:-0.097666685 25:-0.3162222 26:-0.6309394 27:-0.91059392 28:-0.44560909 29:0.20614206 30:-0.38762636 31:-0.3425708 32:-0.29601282 33:0.31736508 34:-0.71200789 35:-0.95667691 36:-0.10823978
90.5097 0:-0.48178547 1:-0.42553178 2:-0.035222887 3:1.3209938 4:-0.52345913 5:-0.35235432 6:-0.33062611 7:-0.47540724 8:-0.36198095 9:-0.33989017 10:-0.64246713 11:2.371508 12:-0.91098324 13:-0.24391065 14:-0.57557746 15:-0.59508318 16:-0.42935114 17:0.027049969 18:-0.062927955 19:-0.0065018051 20:-0.085723974 21:-0.13003951 22:-0.32760951 23:-0.22583236 24:-0.25524741 25:-0.46024369 26:-0.75102929 27:-0.77101211 28:-0.56638558 29:-0.2648969 30:-0.6624413 31:-0.38716829 32:-0.49177599 33:-0.32748898 34:-1.0394559 35:-0.95667691 36:-0.75658484
90.5097 0:-0.55330084 1:-0.56505445 2:0.79938968 3:-0.25640985 4:2.176874 5:-0.84346961 6:-0.81119969 7:-0.60383817 8:-1.0086015 9:-0.77182391 10:-0.071948176 11:0.31750242 12:0.19885902 13:-0.26855301 14:-0.29258554 15:-0.22130208 16:-0.26111209 17:-0.19418203 18:-0.060757914 19:0.0060135392 20:-0.13411994 21:-0.36853335 22:-0.20216844 23:-0.1081513 24:-0.29772951 25:-0.40170417 26:-0.52474104 27:-0.51900621 28:-0.3770868 29:-0.32110331 30:0.10841183 31:0.19810256 32:0.042273277 33:-0.5708914 34:-0.14231329 35:0.60592905 36:-0.36447285
90.5097 0:-0.066581039 1:-0.047017272 2:-0.3488309 3:-0.18972577 4:-0.73323655 5:-1.2600914 6:-1.13629 7:0.021731939 8:-1.0764996 9:-1.3634232 10:1.7214613 11:0.55901169 12:1.4413496 13:-0.22760792 14:-0.21854988 15:-0.25256752 16:-0.23666942 17:-0.23964592 18:-0.13617673 19:-0.030140949 20:-0.19010074 21:-0.18236055 22:-0.2211669 23:-0.19388267 24:-0.23856385 25:-0.38148386 26:-0.40401491 27:-0.33296075 28:-0.34139458 29:0.50147708 30:0.65702695 31:0.53141863 32:0.763665 33:-0.35025191 34:-0.44396714 35:-0.75457059 36:-0.4241215
90.5097 0:-0.32354789 1:-0.45496586 2:1.1437637 3:-0.81552275 4:-0.48894192 5:-0.42643687 6:-0.47063112 7:0.021731939 8:-0.43729174 9:-0.40437788 10:1.3138877 11:-0.53233992 12:0.35486413 13:0.02426601 14:-0.19050811 15:-0.4157374 16:-0.15307554 17:0.071664017 18:0.021684562 19:0.07311282 20:0.011267206 21:-0.0035133942 22:-0.072771096 23:0.029637534 24:-0.0092522667 25:-0.24787372 26:-0.58239122 27:-0.69112407 28:-0.40691915 29:0.46518306 30:0.47459677 31:0.95564661 32:0.42235607 33:1.2956338 34:-0.57618937 35:0.084905647 36:0.12987253
90.5097 0:-0.4842809 1:-0.6071209 2:2.0135177 3:-0.18051986 4:-0.39707691 5:-0.30273051 6:-0.47063112 7:-0.38438617 8:-0.43729174 9:-0.098299603 10:0.58025468 11:0.19522782 12:-0.36939307 13:-0.10131869 14:-0.3808 15:-0.39337884 16:-0.25402683 17:0.031922322 18:-0.019925534 19:0.089063984 20:0.0056044832 21:-0.15996555 22:-0.18031294 23:-0.14184908 24:-0.18131937 25:-0.34614473 26:-0.63802781 27:-0.59176534 28:-0.48553809 29:-0.39982449 30:-0.068861158 31:0.24181651 32:-0.20306234 33:0.18224051 34:-0.9665905 35:-1.5415796 36:-0.4241215
90.5097 0:-0.084121778 1:-0.6443541 2:2.5497864 3:-0.52002833 4:-0.30920629 5:-0.6563005 6:-0.63704585 7:1.5954396 8:-0.65379763 9:-0.73086138 10:1.8844912 11:-0.53233992 12:0.50688326 13:0.1851659 14:-0.18265448 15:-0.43809595 16:-0.043685031 17:0.051676966 18:-0.020689092 19:0.078429874 20:0.010142246 21:-0.14114659 22:-0.10684977 23:-0.013813989 24:-0.14103969 25:-0.16093453 26:-0.25436039 27:-0.82857332 28:-0.2870954 29:0.94078599 30:0.59099789 31:0.62600907 32:0.69174094 33:1.924943 34:0.70964964 35:0.4521765 36:1.7709492
90.5097 0:0.009704033 1:-0.23231515 2:0.95818522 3:-0.81991087 4:-0.65317413 5:-0.55547743 6:-0.47063112 7:-0.0036504424 8:-0.43729174 9:-0.4247831 10:1.8410717 11:-0.53233992 12:0.46112331 13:0.56068704 14:0.0079448089 15:-0.28206178 16:0.33078815 17:-0.12332594 18:-0.12441919 19:-0.047464255 20:-0.14292824 21:-0.054516796 22:-0.12615953 23:-0.076749113 24:-0.082272866 25:0.51805849 26:0.24717608 27:0.047465406 28:0.2087569 29:0.40922977 30:0.22198643 31:0.22929317 32:0.28681414 33:-0.71331492 34:-0.2076236 35:0.032438382 36:-0.47638509
90.5097 0:-0.39169054 1:-0.60500696 2:2.8463152 3:-0.21090828 4:-0.57240027 5:-0.34208789 6:-0.47063112 7:-0.79050428 8:-0.43729174 9:-0.098299603 10:1.8844912 11:-1.6236915 12:-0.23104274 13:0.65553607 14:0.12847424 15:-0.08511622 16:0.38199368 17:0.31232206 18:0.10148616 19:0.14806614 20:0.18142698 21:0.45328219 22:0.11627983 23:0.204758 24:0.20234377 25:-0.30313899 26:-0.43080602 27:-0.34371312 28:-0.35987765 29:0.65875118 30:0.30731065 31:0.26529776 32:0.46615235 33:1.1504086 34:-0.027896017 35:-0.72833696 36:0.39467472
90.5097 0:-0.39263547 1:0.006620691 2:-0.13931353 3:-0.89510926 4:0.29037146 5:-0.18051823 6:-0.15860351 7:-0.79050428 8:-0.12593566 9:-0.098299603 10:1.5584318 11:0.55901169 12:-0.24476378 13:0.1547825 14:-0.24564528 15:-0.18929757 16:-0.076210233 17:0.023671854 18:-0.094170946 19:-0.065044839 20:-0.067871877 21:-0.18638361 22:-0.19460833 23:-0.086413598 24:-0.22204741 25:-0.17907647 26:-0.10057372 27:-0.50238862 28:-0.19627733 29:0.031167034 30:-0.40397195 31:-0.23563564 32:-0.2882008 33:-0.35025191 34:-1.1409439 35:-1.5678132 36:-0.78996662
90.5097 0:-0.10644135 1:0.51311986 2:-0.34979141 3:0.14841616 4:-0.32774681 5:-1.3710862 6:-1.4483177 7:0.40246767 8:-1.3857937 9:-1.3634232 10:2.4550943 11:1.6503633 12:0.42627121 13:-0.23033803 14:-0.51154249 15:-0.57938298 16:-0.37835704 17:-0.055346721 18:-0.095755248 19:-0.031341574 20:-0.038761941 21:-0.12644008 22:-0.29546981 23:-0.26277111 24:-0.21567649 25:-0.27783406 26:-0.52215411 27:-0.84665989 28:-0.3723791 29:2.0326312 30:0.65220607 31:0.96816995 32:1.1079944 33:0.32746572 34:-0.34647521 35:0.032438382 36:-0.37185791
90.5097 0:0.27654792 1:-0.59623604 2:3.3369971 3:-0.22606182 4:0.2077692 5:-0.70247866 6:-0.49143297 7:-0.0036504424 8:-0.75689567 9:-0.73086138 10:1.802976 11:0.19522782 12:3.2241425 13:-0.18753707 14:-0.28012081 15:-0.49756019 16:-0.12219257 17:-0.034488141 18:-0.068563083 19:-0.01539041 20:-0.09317717 21:0.041723628 22:-0.18513574 23:-0.10071704 24:-0.099884146 25:0.13458295 26:-0.25242759 27:-0.70358608 28:-0.087655898 29:4.1497825 30:2.3240305 31:3.1628844 32:3.1335723 33:2.651069 34:1.0057446 35:0.058672015 36:1.9695508
90.5097 0:1.3104811 1:3.6192445 2:-1.4012048 3:-1.2194308 4:-0.70587143 5:-0.69596995 6:-0.29748438 7:1.4051801 8:-0.45374331 9:-0.91302285 10:-0.64246713 11:1.115398 12:1.2511382 13:-0.10670147 14:-0.26105106 15:-0.1792286 16:-0.19826548 17:-0.19655407 18:-0.15985612 19:-0.10426659 20:-0.18241004 21:-0.21434197 22:-0.24661471 23:-0.08628283 24:-0.26781418 25:-0.26812894 26:-0.27370622 27:-0.28843918 28:-0.2509472 29:1.1533034 30:1.0997704 31:0.42415723 32:1.1682636 33:-0.43779379 34:-0.47064564 35:-0.48615615 36:-0.6617825
90.5097 0:-0.57988575 1:1.8410862 2:-0.91758288 3:-0.80504172 4:-0.66896281 5:-0.3826246 6:-0.47031224 7:-0.78801714 8:-0.41948054 9:-0.24393416 10:-1.1315559 11:0.41740222 12:1.371143 13:-0.092687458 14:-0.074490346 15:0.091066816 16:-0.099953614 17:-0.38678401 18:-0.21431476 19:-0.16457147 20:-0.26788932 21:-0.20772626 22:-0.19583096 23:-0.10796877 24:-0.24805115 25:0.033750638 26:0.38766423 27:0.43709667 28:0.12125708 29:-0.25329681 30:0.71937243 31:-0.042394569 32:1.1945401 33:-0.7156047 34:-1.3489188 35:-1.2978287 36:-1.1451567
90.5097 0:0.82798585 1:2.5318175 2:-1.2291628 3:-0.88166457 4:-0.72133642 5:-1.1929136 6:-1.0118395 7:1.1942958 8:-0.89344877 9:-1.5346424 10:-0.39792296 11:0.7664001 12:2.582819 13:-0.030309874 14:-0.26182118 15:-0.26932707 16:-0.17228701 17:-0.0075556216 18:-0.10267367 19:-0.060855639 20:-0.1151014 21:-0.070183367 22:-0.19919181 23:-0.14100523 24:-0.1676674 25:-0.17225278 26:-0.33119709 27:-0.49045967 28:-0.26544888 29:2.4887124 30:2.049254 31:0.16781009 32:2.0553269 33:1.5189613 34:0.32268433 35:-0.43379019 36:0.91700809
90.5097 0:0.70022516 1:-0.19474193 2:0.2426242 3:-0.45535017 4:-0.87230962 5:-0.50399036 6:-0.47031224 7:1.6160645 8:-0.35666548 9:-0.46545677 10:-0.80549657 11:-0.97858927 12:-0.20909742 13:0.069082979 14:-0.092665041 15:0.061856809 16:-0.048253089 17:-0.047180823 18:-0.043647745 19:-0.109292 20:-0.12131063 21:0.059249933 22:-0.062489661 23:-0.15410907 24:-0.050856448 25:-0.15892912 26:-0.26975133 27:-0.24126964 28:-0.11704156 29:0.12311733 30:0.13741676 31:-0.029577212 32:0.35493035 33:1.3015441 34:0.76431713 35:0.29933337 36:1.1882541
90.5097 0:-0.64500058 1:-0.10830461 2:-0.50348924 3:-0.55380409 4:-0.60244575 5:-1.5163735 6:-1.3690171 7:-0.78801714 8:-1.7671492 9:-1.2012283 10:-0.88701178 11:0.7664001 12:1.7316156 13:-0.16633718 14:-0.2087485 15:-0.26274454 16:-0.20566255 17:-0.1378769 18:-0.10505381 19:-0.037546309 20:-0.17582258 21:-0.16258999 22:-0.17377939 23:-0.22184303 24:-0.20813929 25:-0.059708079 26:-0.29696435 27:-0.29140669 28:-0.1854468 29:0.20731523 30:0.58991012 31:0.15242926 32:0.13760868 33:0.14198551 34:-0.76458861 35:-1.2716457 36:-0.24795853
29.79910088600578 0:-0.82183418 1:-0.68051605 2:1.4772325 3:-0.54053651 4:-0.16418124 5:-0.95385002 6:-1.0060786 7:-0.78801714 8:-1.0761835 9:-0.65307285 10:-0.39792296 11:1.115398 12:0.25173493 13:-0.28766501 14:-0.44344595 15:-0.37835034 16:-0.36622808 17:-0.2123462 18:-0.056443101 19:0.044357118 20:-0.12701555 21:-0.25104853 22:-0.25430796 23:-0.18290062 24:-0.28542418 25:-0.51790206 26:-0.6748033 27:-0.77287709 28:-0.55431854 29:0.43514483 30:0.61502477 31:0.79073364 32:0.52526354 33:0.37148148 34:-0.49875903 35:-0.48615615 36:-0.22361595
90.5097 0:-0.77699178 1:-0.1894232 2:-0.71023437 3:-0.46361915 4:-0.69414256 5:-1.1804721 6:-1.1846674 7:-0.35218948 8:-1.2589182 9:-0.65307285 10:-1.1315559 11:2.5113895 12:0.36641465 13:-0.29482434 14:-0.48222319 15:-0.56163285 16:-0.40013621 17:-0.17409737 18:-0.12018142 19:-0.062459492 20:-0.15240403 21:-0.17582143 22:-0.32763279 23:-0.27508894 24:-0.27000454 25:-0.36004049 26:-0.61813039 27:-0.77727213 28:-0.45528951 29:0.051301472 30:0.00080081822 31:-0.037267626 32:-0.052199993 33:-0.73976217 34:-1.963473 35:-2.1095012 36:-1.3259874
90.5097 0:0.44226157 1:0.92410528 2:-0.90038076 3:-0.38848297 4:-0.1039596 5:-0.58807338 6:-0.47031224 7:0.30858149 8:-0.36466012 9:-0.88476741 10:-0.56095241 11:-0.97858927 12:-0.31004253 13:-0.34006523 14:-0.27919523 15:-0.21440403 16:-0.30150873 17:0.056844386 18:0.1300741 19:0.14122984 20:0.11054247 21:-0.2544631 22:-0.013520234 23:0.047893166 24:-0.11736377 25:-0.44492319 26:-0.65606598 27:-0.72336721 28:-0.51832165 29:-0.43159824 30:1.1526575 31:1.2624124 32:0.5391746 33:1.0478907 34:2.5897929 35:2.7867169 36:2.3219231
90.5097 0:-0.63292491 1:0.4785485 2:-0.5744324 3:0.1892221 4:-0.49381734 5:-1.2952291 6:-1.1686578 7:-0.94993809 8:-1.5533114 9:-1.0818201 10:1.7273474 11:1.955814 12:1.8803642 13:-0.32336369 14:-0.36252746 15:-0.34025649 16:-0.3130057 17:-0.32790685 18:-0.16810438 19:-0.073021196 20:-0.23791606 21:-0.39866394 22:-0.3091051 23:-0.23865372 24:-0.36552597 25:-0.53564768 26:-0.50078814 27:-0.38883921 28:-0.46768153 29:-0.52502851 30:0.38531656 31:0.53692056 32:-0.021996341 33:-0.96096098 34:-1.3670096 35:-1.1479558 36:-1.4277779
90.5097 0:-0.11852284 1:0.61356509 2:0.22570722 3:-0.99067411 4:-0.84869992 5:-1.6660587 6:-2.0095365 7:-0.94993809 8:-1.7549675 9:-1.494243 10:2.0475207 11:0.34434714 12:0.69098675 13:-0.101325 14:-0.22147717 15:-0.24000313 16:-0.16371507 17:-0.0046533149 18:-0.055487134 19:0.048341417 20:-0.079286049 21:-0.15791692 22:-0.15694979 23:-0.11226735 24:-0.16618975 25:-0.038998385 26:-0.32730803 27:-0.23838705 28:-0.1624043 29:-0.10051718 30:0.5132172 31:0.55036411 32:0.21814189 33:0.14601035 34:-0.55879497 35:-0.63943697 36:-0.28805204
90.5097 0:-0.57749167 1:-0.3732169 2:0.31285876 3:-0.76685279 4:-0.45826382 5:-0.71665513 6:-0.53121758 7:0.57670881 8:-0.92145537 9:-0.45653374 10:0.49873947 11:3.2449874 12:1.4131339 13:-0.384868 14:-0.49696694 15:-0.52887184 16:-0.44026237 17:-0.30597223 18:-0.19751366 19:-0.12796738 20:-0.25472662 21:-0.38674788 22:-0.39403988 23:-0.3467851 24:-0.44089253 25:-0.4633531 26:-0.63935753 27:-0.62667526 28:-0.50141732 29:0.74607044 30:0.23252371 31:0.26636926 32:0.3482421 33:-0.63106886 34:-1.4487951 35:-1.1479558 36:-1.4277779
90.5097 0:-0.43821862 1:-0.5167294 2:0.36497551 3:-0.72776895 4:-0.76355453 5:-0.13201557 6:-0.11077826 7:-0.4493303 8:-0.087943193 9:-0.04411082 10:1.1508577 11:1.6335206 12:0.7520864 13:-0.32675049 14:-0.36470979 15:-0.34281771 16:-0.32456651 17:-0.27106486 18:-0.16099622 19:-0.084676447 20:-0.22541381 21:-0.28503577 22:-0.30463484 23:-0.20884214 24:-0.33435487 25:-0.36218113 26:-0.46456282 27:-0.45285415 28:-0.38123277 29:-0.36297294 30:0.11673566 31:0.30165856 32:-0.04712473 33:-0.65306167 34:-0.95619412 35:-0.6712194 36:-1.1111874
90.5097 0:-0.33250537 1:-0.13841161 2:-0.16681703 3:-0.42611642 4:-0.45231644 5:0.036508285 6:0.10622268 7:-0.18868327 8:0.11371298 9:-0.030806855 10:0.6617694 11:2.2781073 12:0.98619195 13:-0.31293234 14:-0.41832888 15:-0.35452613 16:-0.35968753 17:-0.18476783 18:-0.1584576 19:-0.061550949 20:-0.18189451 21:-0.2337967 22:-0.32750809 23:-0.22488887 24:-0.33978499 25:-0.51066644 26:-0.53956742 27:-0.57872328 28:-0.4240236 29:-0.034770679 30:-0.063658079 31:-0.014264691 32:-0.057257145 33:-0.72637103 34:-0.92512764 35:-1.1161734 36:-1.0900813
90.5097 0:1.4571463 1:4.3306891 2:-1.2255661 3:-1.0380241 4:-0.84188386 5:-1.6637312 6:-1.534813 7:0.93310174 8:-1.0247916 9:-2.276569 10:0.49864608 11:0.64514974 12:0.33677864 13:-0.21811696 14:-0.23297152 15:-0.20690145 16:-0.21318243 17:-0.31948956 18:-0.13391443 19:-0.064800669 20:-0.20202788 21:-0.25234168 22:-0.2153676 23:-0.1525339 24:-0.22661087 25:-0.51652871 26:-0.33764479 27:-0.35423938 28:-0.39450264 29:-0.19916084 30:0.17355922 31:0.21175026 32:-0.0025811001 33:0.75208321 34:-0.17018513 35:-0.60895961 36:0.63962459
90.5097 0:-0.88489288 1:-0.17123492 2:0.46232967 3:-0.37972433 4:-0.71068222 5:-1.5977996 6:-1.534813 7:-0.96404389 8:-1.7652586 9:-1.1896881 10:1.1507531 11:0.64514974 12:0.13304002 13:-0.30701128 14:-0.26455579 15:-0.25517885 16:-0.2817529 17:-0.32330755 18:-0.13490729 19:-0.0059422378 20:-0.21382238 21:-0.47490789 22:-0.23213433 23:-0.13823412 24:-0.31858239 25:-0.41130971 26:-0.40786679 27:-0.43878353 28:-0.36392754 29:-0.30590073 30:-0.1117994 31:-0.061231276 32:-0.2353686 33:0.12538772 34:-0.61265927 35:-0.21708948 36:-0.59214304
90.5097 0:1.0335555 1:1.1035615 2:-1.0305987 3:-0.98571149 4:-0.84393325 5:-1.6410204 6:-1.534813 7:0.64598583 8:-1.0330584 9:-2.1012656 10:-0.071948176 11:0.30072637 12:0.57822011 13:-0.11173208 14:-0.19015085 15:0.012682858 16:-0.20566581 17:-0.035770871 18:-0.076407566 19:-0.070686512 20:-0.10176539 21:-0.031940754 22:-0.14331909 23:-0.099306963 24:-0.12046633 25:-0.16055356 26:-0.36961492 27:-0.25036223 28:-0.26646477 29:0.53546078 30:0.53432916 31:0.010263889 32:0.22393602 33:-0.031286152 34:-0.3402845 35:-0.26933883 36:-0.068208075
90.5097 0:3.7503721 1:-0.27996671 2:-1.0281762 3:-0.68626303 4:-0.48800116 5:-0.2086963 6:-0.022361823 7:1.9765563 8:0.12739252 9:-0.27262315 10:-1.9467037 11:0.24083816 12:-1.0200745 13:-0.2242921 14:-0.37552009 15:-0.48504885 16:-0.30210319 17:0.57979887 18:0.23507771 19:0.24952087 20:0.36395712 21:0.21738227 22:-0.10359097 23:-0.1239702 24:-0.039830929 25:-0.46845426 26:-0.65423248 27:-0.82639298 28:-0.55488844 29:-0.54895525 30:-0.65761892 31:-0.5048059 32:-0.64652136 33:-0.020050746 34:2.6125544 35:3.104222 36:1.7626905
90.5097 0:6.6046057 1:-0.58538144 2:0.2261349 3:-0.97372425 4:-0.36719534 5:-0.064875516 6:-0.41531702 7:2.5319579 8:1.466018 9:-0.66708012 10:-2.1097331 11:-1.3392759 12:-1.7023444 13:-0.38590791 14:-0.42629367 15:-0.51793207 16:-0.45083167 17:1.367579 18:0.66361776 19:0.36657634 20:1.1460694 21:0.52387352 22:0.11241191 23:0.045841104 24:0.28056005 25:-0.60334365 26:-0.70087324 27:-0.92909727 28:-0.64567752 29:0.59202096 30:-0.39655099 31:-0.75037892 32:0.051245378 33:0.84512262 34:2.9860137 35:2.5815612 36:2.3751985
90.5097 0:1.4386905 1:-0.69327906 2:0.19657344 3:-0.0014085312 4:0.1592115 5:-0.94550658 6:-0.83446923 7:1.2253655 8:-1.0216701 9:-0.92534022 10:-1.7021595 11:-0.075184645 12:-1.0314994 13:-0.32882853 14:-0.46814094 15:-0.53720235 16:-0.43631992 17:0.38508493 18:0.2242658 19:0.083517651 20:0.31462558 21:0.12288464 22:-0.16307998 23:-0.25126237 24:-0.024547534 25:-0.54200843 26:-0.73137005 27:-0.82308407 28:-0.59587463 29:3.1789868 30:0.62475893 31:-0.58535025 32:1.8935301 33:1.6464717 34:1.9288561 35:2.5508165 36:1.1910163
90.5097 0:1.16725 1:0.4894717 2:-1.0629808 3:-0.6158276 4:-0.75649294 5:-0.82739588 6:-0.61442315 7:1.3923477 8:-0.56549789 9:-1.1209038 10:-0.56095241 11:0.54707366 12:0.28828664 13:-0.24396563 14:-0.22681783 15:-0.21779318 16:-0.21858736 17:-0.21453028 18:-0.10839235 19:-0.018108527 20:-0.1715325 21:-0.31059769 22:-0.1980867 23:-0.11627197 24:-0.25492281 25:-0.24794602 26:-0.36369437 27:-0.49890148 28:-0.25920563 29:-0.35598304 30:0.011797501 31:-0.26405806 32:-0.2482765 33:0.68370085 34:-0.43283556 35:-0.44038072 36:0.040009951
90.5097 0:-0.69315946 1:0.27598167 2:-0.62014151 3:1.5931617 4:-0.38677114 5:-1.401184 6:-1.2858305 7:-0.70375244 8:-1.500831 9:-1.1292105 10:0.55796111 11:0.87775043 12:0.27787007 13:-0.32315709 14:-0.31300997 15:-0.24701017 16:-0.29963882 17:-0.13705365 18:-0.093346736 19:-0.079264766 20:-0.10521532 21:-0.29874431 22:-0.23389157 23:-0.14654111 24:-0.26289731 25:-0.42178839 26:-0.52082849 27:-0.49153577 28:-0.42843124 29:0.11614209 30:0.29973827 31:0.40027924 32:0.24882365 33:-0.94924385 34:-0.87397146 35:-0.48864966 36:-1.2549867
90.5097 0:-0.43336512 1:-0.3589657 2:-0.43581522 3:1.8876907 4:-0.47859588 5:-0.94133324 6:-0.90476145 7:-0.0099728167 8:-0.93723285 9:-0.74947385 10:-0.3228977 11:0.21639688 12:-0.059555244 13:-0.21158174 14:-0.2299356 15:-0.22378641 16:-0.19631751 17:-0.08395441 18:-0.046303153 19:0.1062227 20:-0.095273872 21:-0.28597521 22:-0.15519275 23:-0.05027821 24:-0.1904148 25:-0.29671071 26:-0.45246628 27:-0.44960284 28:-0.2912557 29:0.050386499 30:0.072133997 31:0.24780838 32:0.10993768 33:-0.95666633 34:0.10233812 35:0.058398286 36:-0.45149041
90.5097 0:-0.50044265 1:-0.59620816 2:1.3165354 3:-0.28371344 4:-0.28164526 5:-0.88211159 6:-0.7172513 7:-0.23139185 8:-0.9492243 9:-0.74947385 10:0.17268058 11:-0.11427989 12:0.39351673 13:-0.0055591338 14:-0.19469389 15:-0.21479656 16:-0.16431359 17:-0.10672272 18:-0.044852101 19:-0.042214773 20:-0.088500384 21:0.067794896 22:-0.13509428 23:-0.09832167 24:-0.094269853 25:-0.4349066 26:-0.39417522 27:-0.52698927 28:-0.38528296 29:-0.34809237 30:0.41889308 31:4.3241318e-05 32:-0.1865494 33:0.83215037 34:-0.76007176 35:-0.92307008 36:-0.083933619
90.5097 0:-0.41315182 1:-0.41484097 2:0.32795486 3:-0.0088424756 4:-0.19901043 5:-1.0021723 6:-0.89871273 7:-0.23139185 8:-0.94802516 9:-0.93934219 10:-0.058685672 11:-0.11427989 12:0.2520839 13:-0.11193365 14:-0.16405234 15:-0.24082965 16:-0.17196436 17:-0.22740282 18:-0.10486632 19:-0.034971024 20:-0.16729688 21:-0.22146838 22:-0.16161518 23:-0.094186061 24:-0.20294616 25:-0.24056185 26:-0.26488863 27:-0.40584249 28:-0.11693729 29:0.63298102 30:0.17456891 31:0.016379404 32:0.20712502 33:-0.088236646 34:-0.6138473 35:-0.44038072 36:-0.41088821
90.5097 0:0.87096332 1:-0.60572885 2:2.6933178 3:-0.86946375 4:-0.65255477 5:0.10585189 6:0.41990704 7:1.1561674 8:0.45977113 9:-0.19173561 10:0.17268058 11:-0.77563344 12:-0.83948314 13:-0.23536691 14:-0.43615317 15:-0.48973594 16:-0.36077313 17:0.5896819 18:0.23294067 19:0.19896643 20:0.38786663 21:0.50967686 22:-0.066206697 23:-0.062509054 24:0.074796677 25:-0.48055792 26:-0.7788557 27:-0.8364706 28:-0.56498641 29:0.80131532 30:1.0404172 31:0.93937262 32:0.87266136 33:1.5892429 34:0.82324046 35:0.57326694 36:1.3969783
90.5097 0:0.061605467 1:-0.67225137 2:2.0712294 3:-0.19093833 4:-0.52124305 5:-0.065528849 6:0.038838026 7:0.56571666 8:-0.0054971502 9:-0.010174013 10:0.091165857 11:-1.1063102 12:-0.73651405 13:-0.16914288 14:-0.31318873 15:-0.38148324 16:-0.20894308 17:0.7730352 18:0.1967208 19:0.18768519 20:0.39390501 21:0.012750424 22:-0.025720618 23:0.19451466 24:-0.045141234 25:-0.21205742 26:-0.57122433 27:-0.55236503 28:-0.38329459 29:0.82498734 30:1.1524948 31:0.58542242 32:1.0637527 33:-0.7191471 34:-0.13725713 35:0.058398286 36:-0.33395772
90.5097 0:0.41682922 1:-0.44206311 2:0.98958618 3:-0.48983503 4:-0.27514642 5:-0.22892049 6:0.04488674 7:0.46238778 8:-0.01269202 9:-0.55960551 10:0.33571002 11:-1.436987 12:-1.2271417 13:-0.20291367 14:-0.29942711 15:-0.40508158 16:-0.33108599 17:0.26288019 18:0.34444956 19:0.20086643 20:0.26323094 21:0.051820807 22:0.087789654 23:0.00066897607 24:-0.036893797 25:-0.57961186 26:-0.7962401 27:-0.80450686 28:-0.62426905 29:0.63035079 30:0.47488011 31:0.038160955 32:0.75577387 33:-0.028856839 34:1.4588452 35:1.3294803 36:1.364924
90.5097 0:0.32747097 1:-0.31891821 2:0.52288932 3:-0.92675916 4:-0.77904696 5:-0.77396501 6:-0.70515387 7:1.1561674 8:-0.56549789 9:-0.75540723 10:0.58025468 11:-1.1063102 12:-0.73259361 13:-0.16713189 14:-0.43691445 15:-0.60398187 16:-0.33413912 17:0.46369188 18:0.33428677 19:0.38077265 20:0.45467388 21:0.20693226 22:0.0061478401 23:0.092620288 24:0.062027983 25:-0.49414684 26:-0.83826926 27:-0.98776859 28:-0.59595204 29:1.4641317 30:2.1390598 31:1.4675752 32:1.6373551 33:1.8119172 34:0.56184457 35:0.79852197 36:0.8691497
12.56680610680967 0:0.10322388 1:-0.61659384 2:1.8753372 3:-0.53875854 4:-0.60336988 5:-1.1079406 6:-0.97752341 7:0.12134278 8:-0.80155901 9:-1.3226631 10:-0.071948176 11:-0.85901403 12:2.3655298 13:-0.31662975 14:-0.32573843 15:-0.58263616 16:-0.44168037 17:0.24430241 18:0.15435624 19:0.082658199 20:0.15588179 21:0.036507774 22:0.023047719 23:-0.21730717 24:-0.078510807 25:-0.52806786 26:-0.76774708 27:-0.97392316 28:-0.55100561 29:2.10316 30:2.1645562 31:2.855859 32:1.9810002 33:0.21679525 34:1.0155954 35:1.3354309 36:0.91600902
90.5097 0:-0.29188454 1:-0.54796336 2:1.361299 3:-0.83951889 4:-0.21350298 5:-0.91459485 6:-0.72178556 7:0.49580401 8:-0.92830775 9:-0.79585336 10:0.17259208 11:0.62543162 12:0.6456203 13:-0.25756523 14:-0.57613231 15:-0.69887828 16:-0.45486673 17:0.44056145 18:0.066308234 19:0.15055038 20:0.18614573 21:0.082921879 22:-0.18574265 23:-0.15497243 24:-0.09136137 25:-0.48931406 26:-0.76861683 27:-0.9194545 28:-0.59972282 29:2.24286 30:0.97628554 31:1.7890395 32:1.1663999 33:1.4276839 34:0.0022456109 35:0.16317487 36:0.61477488
90.5097 0:-0.45971109 1:0.2884037 2:0.75487229 3:0.68358483 4:-0.66335165 5:-0.99406547 6:-1.0031113 7:-0.83072265 8:-1.0648235 9:-0.81955151 10:0.6617694 11:-0.62018786 12:-0.32506316 13:-0.14008199 14:-0.25716383 15:-0.29588693 16:-0.16375671 17:0.1536053 18:0.097723441 19:0.089230279 20:0.12823519 21:0.015004639 22:-0.084067349 23:-0.10855732 24:-0.069590369 25:-0.3256663 26:-0.54495518 27:-0.73628088 28:-0.33302621 29:0.67195672 30:1.2587727 31:1.0301339 32:1.5185821 33:-0.52721812 34:-0.68585797 35:-0.55640795 36:-0.82677574
90.5097 0:-0.82043314 1:-0.35137069 2:0.62365962 3:0.35984045 4:-0.39629864 5:-1.4050511 6:-1.4005071 7:-0.78855727 8:-1.5957516 9:-1.0822554 10:0.74328412 11:0.27102976 12:1.9384651 13:-0.2305692 14:-0.19983825 15:-0.2559759 16:-0.22155509 17:-0.28637486 18:-0.059402161 19:0.013430239 20:-0.15147483 21:-0.334655 22:-0.15202099 23:-0.1622182 24:-0.24825786 25:-0.46133053 26:-0.50455001 27:-0.53176282 28:-0.45394667 29:-0.25509624 30:0.87201858 31:0.64151723 32:0.35104341 33:-0.94716469 34:-1.4137508 35:-1.0971892 36:-1.270889
90.5097 0:0.31833358 1:-0.19185051 2:-0.43606759 3:-0.11913039 4:-0.67387083 5:-0.61839743 6:-0.72666205 7:-0.30102008 8:-0.46110686 9:-0.74751978 10:0.18791701 11:0.86517484 12:0.195744 13:-0.13222174 14:-0.37977182 15:-0.38080401 16:-0.27699202 17:-0.14741505 18:-0.061466994 19:-0.013191575 20:-0.079532276 21:-0.094597765 22:-0.26063185 23:-0.17312632 24:-0.23100803 25:-0.38521909 26:-0.61628782 27:-0.71993589 28:-0.40314015 29:-0.086541159 30:0.22944093 31:0.31634819 32:0.1054849 33:-0.34427109 34:-1.1037099 35:-1.2413975 36:-0.87465857
90.5097 0:-0.67002518 1:-0.57017546 2:1.610354 3:0.025409283 4:-0.74479142 5:-1.0758569 6:-1.1240578 7:-1.1258803 8:-1.1333304 9:-0.95090348 10:0.22702585 11:0.27102976 12:1.1997379 13:-0.0380245 14:-0.20819129 15:-0.15543408 16:-0.15740524 17:-0.031200583 18:-0.059402161 19:0.076902937 20:-0.10075552 21:-0.10426109 22:-0.15700072 23:-0.038534258 24:-0.15740556 25:-0.38263678 26:-0.46631315 27:-0.52217454 28:-0.36939038 29:-0.1336926 30:0.60562676 31:0.54238032 32:0.2599071 33:-1.3671113 34:-1.2475501 35:-1.0881761 36:-1.2265974
90.5097 0:0.33876441 1:-0.38848479 2:-0.44254233 3:-0.46650662 4:0.53038505 5:-0.26578495 6:-0.32062724 7:0.028396936 8:-0.16395837 9:-0.383124 10:-1.4520388 11:0.27102976 12:-0.88176733 13:-0.1753588 14:-0.34817371 15:-0.41799769 16:-0.27114541 17:0.3021608 18:0.033626102 19:-0.019355246 20:0.14101166 21:0.042112798 22:-0.17998565 23:-0.06870751 24:-0.14556558 25:-0.43513596 26:-0.59262523 27:-0.76178627 28:-0.43750028 29:-0.53857525 30:-0.44835346 31:-0.28640416 32:-0.47625206 33:-0.55216544 34:-0.33895901 35:0.30884198 36:-0.61489419
90.5097 0:0.096664394 1:-0.64321351 2:1.5556885 3:-0.34274118 4:-0.23348681 5:-0.29024298 6:-0.38542003 7:-0.13499391 8:-0.1956428 9:-0.35346387 10:-0.15854317 11:1.7563925 12:0.12317804 13:-0.19183389 14:-0.40022323 15:-0.43413194 16:-0.31311397 17:-0.097570772 18:-0.11993155 19:-0.050042459 20:-0.11697256 21:-0.19702897 22:-0.31082499 23:-0.22115721 24:-0.29438398 25:-0.38192101 26:-0.5276687 27:-0.63932534 28:-0.40130436 29:-0.29053112 30:-0.45177918 31:-0.15950893 32:-0.32370451 33:0.9529896 34:-0.36258801 35:-0.24996526 36:0.26136171
90.5097 0:0.36148895 1:-0.69577368 2:2.4193813 3:0.48767998 4:-0.45849587 5:-0.28122645 6:-0.45885186 7:-0.13499391 8:-0.2461666 9:-0.43396992 10:-0.071863586 11:-0.026042784 12:-0.65118893 13:-0.24842769 14:-0.28486781 15:-0.31728604 16:-0.26761139 17:0.007715271 18:-0.010042465 19:0.072706395 20:0.017151403 21:-0.047756088 22:-0.17062912 23:-0.1414576 24:-0.14405889 25:-0.5118012 26:-0.56894042 27:-0.5406357 28:-0.50726351 29:-0.59507951 30:-0.30637081 31:-0.10795774 32:-0.38515391 33:0.84488454 34:0.1226589 35:0.29081594 36:0.32720061
90.5097 0:0.6093367 1:-0.48831566 2:1.0704285 3:-0.88676982 4:-0.59621474 5:-0.80269172 6:-0.86488667 7:0.20232912 8:-0.61524728 9:-0.98734305 10:0.2541953 11:-0.62018786 12:0.033243289 13:-0.053367709 14:-0.35408669 15:-0.60906113 16:-0.12579446 17:0.31317807 18:0.17689871 19:0.20411062 20:0.18970142 21:0.097804043 22:-0.090386189 23:-0.1004642 24:-0.065355024 25:-0.29311006 26:-0.61112043 27:-0.85422785 28:-0.48110378 29:3.260618 30:1.8765561 31:1.8946076 32:3.010344 33:-0.60206008 34:-0.24017301 35:-0.11476996 36:-0.36949465
90.5097 0:1.7559884 1:-0.31030683 2:0.19418854 3:-0.38125059 4:0.11751972 5:-1.5206253 6:-1.8129894 7:0.12823354 8:-1.9178153 9:-1.5727758 10:1.3952938 11:0.29751927 12:2.1635655 13:0.097207574 14:0.15237137 15:0.0033860787 16:-0.034557452 17:0.11955485 18:0.038173565 19:0.043924561 20:0.060515829 21:0.15653188 22:0.097254768 23:0.032566738 24:0.0052971645 25:0.050105635 26:0.0030510605 27:-0.48444551 28:0.30650877 29:0.48258846 30:0.69998393 31:-0.0928655 32:1.0706215 33:2.5131617 34:2.3118486 35:0.82256844 36:4.3987449
90.5097 0:-0.9710943 1:-0.35001556 2:-0.12620764 3:1.0534877 4:2.2465383 5:-1.8162395 6:-1.8129894 7:-1.0387206 8:-1.9483955 9:-1.5727758 10:1.6398341 11:-0.42249164 12:3.8369595 13:-0.19357474 14:0.98331756 15:-0.42869317 16:0.70830974 17:0.48833068 18:0.54772185 19:0.035819334 20:0.79888987 21:0.11349318 22:0.87675246 23:-0.18151429 24:0.93948222 25:-0.30374005 26:-0.5924356 27:-0.56303369 28:-0.41277911 29:-0.083949111 30:0.38711805 31:0.04113679 32:0.49630803 33:-0.19969791 34:-0.7104867 35:-1.2321149 36:-0.44277603
90.5097 0:-1.0456706 1:0.050787451 2:-0.50575659 3:1.3249151 4:1.1751165 5:-2.0551214 6:-1.8438399 7:-1.5657322 8:-2.4070983 9:-1.5727758 10:1.7213473 11:-1.6825107 12:-1.6418212 13:1.7916273 14:1.104391 15:1.4089772 16:1.2849095 17:0.19703381 18:-0.06827218 19:-0.21544269 20:0.11578608 21:1.3776471 22:0.46544875 23:0.5436181 24:0.75751343 25:2.1770935 26:1.7799184 27:0.83132143 28:2.0776851 29:-0.10997119 30:-0.67765152 31:-0.45846925 32:-0.52416272 33:1.1403894 34:-0.43951871 35:-0.16934765 36:0.197114
90.5097 0:0.84692834 1:-0.57317699 2:1.8640383 3:-0.45499341 4:-0.50247102 5:-2.3087075 6:-2.3065966 7:0.75876523 8:-2.4070983 9:-2.0569716 10:1.3137801 11:0.29751927 12:1.5064435 13:0.0028536971 14:0.12850731 15:0.10182838 16:0.097972846 17:-0.12575229 18:-0.10854245 19:-0.090824831 20:-0.072199984 21:-0.011485676 22:-0.025571619 23:-0.12565842 24:-0.055488666 25:-0.046004508 26:0.13624958 27:0.92169389 28:0.026488093 29:0.02085267 30:0.48745091 31:0.21121805 32:0.36032608 33:-0.6082611 34:0.74602978 35:-0.2401988 36:-0.36749485
90.5097 0:-0.21910512 1:-0.19931936 2:0.63979755 3:0.18110551 4:0.31832096 5:-0.63288385 6:-0.85662546 7:-0.96343327 8:-0.96982946 9:-0.60438432 10:1.0692398 11:-1.1425026 12:0.63812542 13:0.84225308 14:1.2521005 15:0.18523761 16:1.0108043 17:0.17300933 18:0.81488376 19:0.16626282 20:0.58826184 21:0.4097649 22:1.2067167 23:0.27487386 24:0.82352671 25:-0.30140057 26:-0.3971664 27:-0.41430396 28:-0.29387193 29:0.60311315 30:0.55768913 31:0.38621775 32:0.61834792 33:-1.1148795 34:0.027830255 35:-0.16934765 36:-0.25927815
59.89129324776282 0:-0.63027138 1:0.49809714 2:-0.7058148 3:-0.21900142 4:0.16630403 5:-1.1358574 6:-1.3193822 7:-1.0010769 8:-1.0004096 9:-1.0885801 10:1.3137801 11:-2.0425162 12:-1.505422 13:1.9975719 14:1.7194885 15:2.2583451 16:1.6300928 17:6.3563968 18:2.982326 19:3.182167 20:3.9760056 21:2.4903325 22:3.0754165 23:3.3888881 24:2.9059273 25:0.37297145 26:-0.33694581 27:-0.13699145 28:-0.091709615 29:4.4861079 30:3.9922141 31:4.6590157 32:4.0106211 33:0.12715264 34:1.7777925 35:1.9916124 36:1.0487323
90.5097 0:0.74833287 1:-0.23895 2:0.23465307 3:-0.91655555 4:0.20376242 5:-1.4953775 6:-1.8129894 7:-0.96343327 8:-1.6884639 9:-1.5576447 10:1.3952938 11:-1.8625135 12:-0.69506817 13:6.0067588 14:2.8225442 15:0.64738298 16:4.4964907 17:1.7429236 18:0.37003743 19:-0.22532093 20:1.0301439 21:5.1359194 22:1.6093361 23:0.054432024 24:3.3670417 25:0.55459123 26:0.4411894 27:1.2175334 28:0.40141416 29:4.7145563 30:2.277069 31:1.7463398 32:3.5114862 33:-0.7880289 34:2.3593823 35:2.5584216 36:1.0957831
90.5097 0:0.76112344 1:0.17381095 2:-0.12244931 3:-0.57353223 4:-0.33796131 5:-1.4249126 6:-1.8129894 7:0.16587723 8:-1.4591125 9:-1.5727758 10:1.5583203 11:0.65752472 12:1.8496056 13:0.30198511 14:-0.088775297 15:-0.36807599 16:0.066026069 17:0.14254971 18:-0.12435677 19:-0.11843326 20:-0.054635205 21:0.26346781 22:-0.14010586 23:-0.12565842 24:-0.044511026 25:0.18860106 26:0.42973341 27:-0.60609089 28:0.32329527 29:1.2741476 30:1.1275834 31:0.77905406 32:0.96513041 33:0.094467587 34:-0.13509279 35:-0.80700799 36:-0.40984051
90.5097 0:1.1111134 1:1.7722232 2:-0.92083276 3:-0.55775098 4:-0.39729836 5:-1.1675121 6:-1.3502327 7:-0.39877802 8:-1.4591125 9:-1.1188423 10:1.3137801 11:1.0175302 12:0.50569587 13:-0.26494613 14:-0.24798932 15:-0.46651829 16:-0.41205954 17:0.079142235 18:-0.10408078 19:-0.14629498 20:-0.031377272 21:-0.11796192 22:-0.19980048 23:-0.27493869 24:-0.16078822 25:-0.020117286 26:-0.13250387 27:-0.59745144 28:-0.22937958 29:0.62811662 30:-0.0052672995 31:0.5940156 32:0.23855242 33:-0.91876912 34:-0.35826719 35:-0.2401988 36:-1.0920762
90.5097 0:-0.76639201 1:1.3293809 2:-0.90094364 3:1.1882787 4:-0.41518786 5:-1.1072599 6:-1.1225829 7:-1.0187059 8:-1.1845738 9:-0.97098779 10:0.41722475 11:1.7305412 12:-0.59258379 13:-0.3052211 14:-0.35598564 15:-0.2894034 16:-0.34742397 17:-0.17356862 18:-0.11678816 19:-0.025818035 20:-0.14453255 21:-0.39547294 22:-0.26508173 23:-0.17742557 24:-0.3020194 25:-0.4486093 26:-0.46750228 27:-0.50194117 28:-0.43279342 29:-0.53283382 30:-0.49399281 31:-0.37710949 32:-0.46270565 33:-0.2744947 34:-1.2249628 35:-0.92247194 36:-1.0309936
90.5097 0:-0.7145085 1:-0.37434829 2:-0.053263139 3:1.5024389 4:-0.51631591 5:-1.0050881 6:-1.1225829 7:0.37361081 8:-1.148088 9:-0.70018915 10:0.58025468 11:1.2001649 12:-0.69255653 13:-0.069330329 14:-0.40549347 15:-0.48614651 16:-0.25809177 17:-0.10930879 18:-0.061834125 19:0.078165266 20:-0.10109753 21:-0.16628414 22:-0.24568883 23:-0.14588609 24:-0.23041221 25:-0.32524292 26:-0.63930515 27:-0.66684267 28:-0.44529006 29:-0.70863759 30:-0.27749057 31:0.078770799 32:-0.3576313 33:-0.22033383 34:-0.94792699 35:-0.92247194 36:-0.99201083
90.5097 0:-0.29420655 1:-0.21266035 2:-0.054131564 3:-0.46077109 4:-0.2811746 5:-1.4838826 6:-1.3986451 7:1.0922259 8:-1.704497 9:-0.97098779 10:0.90631357 11:-0.92134035 12:1.6402841 13:-0.3031198 14:-0.09704671 15:-0.26607168 16:-0.24605853 17:-0.14262304 18:-0.0249419 19:0.079856968 20:-0.059358031 21:-0.27781154 22:-0.05221675 23:-0.023779114 24:-0.092622015 25:-0.2444443 26:-0.39446158 27:-0.36078662 28:-0.33112899 29:1.5217617 30:4.0565296 31:3.4464026 32:4.2492358 33:-0.16617296 34:-0.60995393 35:-1.8030028 36:-0.14608443
90.5097 0:1.5790662 1:-0.065621571 2:0.34638118 3:-0.80308532 4:-0.60051038 5:-1.9774216 6:-1.4170492 7:1.4515334 8:-1.5767966 9:-2.5235666 10:0.98782829 11:-2.5124693 12:2.7828006 13:-0.2164994 14:0.11361334 15:-0.24946623 16:-0.17127909 17:0.15109249 18:0.032809279 19:0.15395353 20:0.029274001 21:-0.13382967 22:0.10689666 23:0.012390013 24:-0.017984035 25:-0.37524986 26:0.054852061 27:-0.52972643 28:-0.3981209 29:3.3312975 30:5.3296757 31:3.3287561 32:3.9599074 33:4.5458226 34:2.2155131 35:1.8365246 36:3.459823
90.5097 0:-0.55391362 1:0.49674902 2:-0.73675518 3:-0.39200576 4:-0.58403511 5:-1.4645528 6:-1.3986451 7:0.37361081 8:-1.4490961 9:-0.97098779 10:0.2541953 11:1.2001649 12:1.6667015 13:-0.2884885 14:-0.30402954 15:-0.33858918 16:-0.25079523 17:-0.080579073 18:-0.10872297 19:-0.048712407 20:-0.1194822 21:-0.075500844 22:-0.23095865 23:-0.18195876 24:-0.17126636 25:-0.3352513 26:-0.43326294 27:-0.58819169 28:-0.39602288 29:1.1950153 30:2.1775333 31:2.494201 32:1.9433638 33:-0.82964361 34:-1.835869 35:-1.8617048 36:-1.6157354
90.5097 0:-0.76228978 1:-0.26172533 2:0.7575598 3:0.67607103 4:1.2873549 5:-0.39330629 6:-0.5336501 7:-1.0187059 8:-0.57343596 9:-0.14053864 10:0.33571002 11:0.66978857 12:-0.8345028 13:-0.27728155 14:-0.46331857 15:-0.44662973 16:-0.38364463 17:0.010041796 18:-0.0044379148 19:0.058767079 20:-0.021059419 21:-0.060890755 22:-0.22866474 23:-0.16546564 24:-0.16720796 25:-0.52902112 26:-0.73033442 27:-0.76263372 28:-0.55483696 29:-0.3392721 30:0.013789944 31:0.10818243 32:-0.068566018 33:0.29419442 34:-1.0351268 35:-0.92247194 36:-0.30981212
90.5097 0:-0.81287498 1:-0.55508328 2:1.7908501 3:-0.26103055 4:1.0333835 5:-0.78655971 6:-0.82811648 7:-1.3555567 8:-0.94741583 9:-0.41133727 10:0.49873947 11:-0.39096404 12:-0.93384344 13:-0.36989456 14:-0.3454847 15:-0.36801657 16:-0.37084546 17:0.11380498 18:0.059375038 19:0.10117242 20:0.093902909 21:-0.031168704 22:-0.11355236 23:-0.026769095 24:-0.094651211 25:-0.34073054 26:-0.63515048 27:-0.88164719 28:-0.41764343 29:-0.033835246 30:-0.041442865 31:0.23318187 32:-0.017580577 33:0.64624007 34:-0.59389184 35:-0.86376988 36:-0.40726908
90.5097 0:-0.8616178 1:-0.61936608 2:2.4317076 3:1.052318 4:1.3841719 5:-0.73311287 6:-0.82811648 7:-1.6924075 8:-0.86532269 9:-0.41133727 10:0.6617694 11:0.13941226 12:-0.76676569 13:-0.29315807 14:-0.38389394 15:-0.4239286 16:-0.38150808 17:-0.049557089 18:0.017388351 19:0.085270415 20:-0.011069199 21:-0.21502162 22:-0.16863112 23:-0.1186869 24:-0.18025465 25:-0.45496828 26:-0.63344464 27:-0.73275535 28:-0.51245238 29:-0.35703006 30:-0.090937337 31:0.24788768 32:-0.14703926 33:-1.0056664 34:-0.50454649 35:-0.041941113 36:-0.80489347
90.5097 0:2.3459523 1:-0.27178222 2:0.90353204 3:-0.34959659 4:-0.56410102 5:-1.3237878 6:-1.4170492 7:1.2606513 8:-0.29979215 9:-1.84657 10:0.74328412 11:-0.39096404 12:-0.84921521 13:-0.37113977 14:-0.5124445 15:-0.47984064 16:-0.44955535 17:0.1615605 18:0.17802135 19:0.2245539 20:0.19904124 21:-0.029663084 22:-0.10340869 23:-0.023875565 24:-0.089578222 25:-0.60473203 26:-0.88397116 27:-0.97219031 28:-0.66208716 29:-0.080005933 30:1.1966411 31:1.5493524 32:0.84030489 33:3.9500531 34:3.08576 35:2.7170555 36:4.075751
32.59076512299627 0:1.3221918 1:-0.42530833 2:0.79290838 3:-0.070555548 4:-0.25667224 5:-1.1118632 6:-1.1225829 7:0.64870563 8:-0.57343596 9:-1.5306383 10:0.6617694 11:0.66978857 12:-0.10332047 13:-0.3102798 14:-0.47208364 15:-0.48614651 16:-0.40238988 17:0.14268752 18:0.05379322 19:0.13635982 20:0.053725936 21:-0.035462509 22:-0.18503867 23:-0.16855207 24:-0.14614856 25:-0.47578071 26:-0.73325958 27:-0.92321404 28:-0.53778269 29:0.56815948 30:1.2832719 31:1.578764 32:1.4259724 33:-0.59945992 34:2.3753354 35:2.247439 36:1.2027199
90.5097 0:2.9062751 1:-0.3920651 2:0.74329202 3:-0.63144636 4:-0.49437713 5:-1.0698397 6:-0.84652063 7:2.4845425 8:-0.21222614 9:-1.5486915 10:0.6617694 11:1.2001649 12:-0.52564227 13:-0.36133369 14:-0.55265794 15:-0.57148594 16:-0.46559968 17:0.22047171 18:0.011723876 19:-0.025818035 20:0.12664955 21:-0.051187872 22:-0.26245457 23:-0.27397302 24:-0.14803467 25:-0.5094613 26:-0.77826081 27:-0.86435675 28:-0.59113275 29:0.88247531 30:1.4030625 31:1.5272937 32:1.1054292 33:3.3542835 34:2.7807997 35:2.7757575 36:2.8166071
90.5097 0:-0.040436629 1:0.50090401 2:-0.91142838 3:-1.0683257 4:-0.58313766 5:-1.0625829 6:-1.2362803 7:0.31152976 8:-0.9041108 9:-0.99855574 10:0.17259208 11:1.5401221 12:1.3912911 13:-0.25241167 14:-0.30516455 15:-0.32314563 16:-0.29463774 17:-0.30107753 18:-0.15500751 19:-0.039531548 20:-0.23035236 21:-0.23661459 22:-0.26682979 23:-0.22616359 24:-0.30057139 25:-0.43715459 26:-0.46703535 27:-0.50014873 28:-0.43350231 29:-0.38605748 30:0.24589631 31:0.39321734 32:-0.024772121 33:-0.58252736 34:-1.1886408 35:-1.0342986 36:-1.0222471
90.5097 0:-0.60662131 1:-0.35669615 2:-0.041540912 3:-0.65110373 4:-0.46430074 5:-1.1582633 6:-1.1655606 7:-0.26785989 8:-1.2145543 9:-0.91431917 10:0.58015933 11:1.0656458 12:-0.28039831 13:-0.3013583 14:-0.40052757 15:-0.42073395 16:-0.33679692 17:-0.086174644 18:-0.065936211 19:0.065244972 20:-0.10228191 21:-0.13642583 22:-0.24278191 23:-0.13158426 24:-0.22333466 25:-0.49273239 26:-0.61960588 27:-0.77269642 28:-0.4777442 29:-0.22439528 30:0.22862452 31:0.39945383 32:-0.026777646 33:-0.35807394 34:-0.55957554 35:-0.51531615 36:-0.61082691
90.5097 0:-0.22437901 1:0.20401208 2:-0.743773 3:-1.1097865 4:-0.78711469 5:-1.6748921 6:-1.5595703 7:-0.07062086 8:-1.6702053 9:-1.7715502 10:-0.071948176 11:1.0656458 12:2.054385 13:-0.059083652 14:-0.2022732 15:-0.30745101 16:-0.11795508 17:-0.18955841 18:-0.18779268 19:-0.14398927 20:-0.20947455 21:-0.045098727 22:-0.24071974 23:-0.19785291 24:-0.2259003 25:-0.066968435 26:0.10549343 27:-0.30586626 28:-0.14990183 29:-0.063737204 30:0.59035033 31:0.42232095 32:0.16825959 33:-1.0015071 34:-1.2313384 35:-1.0342986 36:-1.3604301
90.5097 0:0.60351123 1:1.2030679 2:-0.99243588 3:-1.180051 4:-0.96427476 5:-1.1116607 6:-1.3979253 7:0.37008509 8:-0.59366728 9:-1.3057715 10:0.49864608 11:-3.2046412 12:-0.23321086 13:0.19719703 14:0.34041814 15:0.13562008 16:0.26257734 17:0.58790767 18:0.25489473 19:0.10009964 20:0.34257378 21:0.5983612 22:0.40311582 23:0.086876886 24:0.31667797 25:-0.46926747 26:-0.37201209 27:-0.34079468 28:-0.31872596 29:1.3179223 30:1.6699269 31:1.2496948 32:1.2953642 33:1.1532458 34:1.2098215 35:0.49021225 36:1.7779948
90.5097 0:-1.0975172 1:-0.022869575 2:0.50956805 3:0.47757772 4:0.024104218 5:-0.2111735 6:-0.27513775 7:-1.5870414 8:-0.5111698 9:0.22902304 10:0.2541953 11:1.0861201 12:-0.31893702 13:-0.047923466 14:-0.42181961 15:-0.5149167 16:-0.27310277 17:0.025828519 18:-0.015395341 19:0.087315017 20:-0.026275376 21:0.025127226 22:-0.24503333 23:-0.18276677 24:-0.13372101 25:-0.24800608 26:-0.59625445 27:-0.84523203 28:-0.41782056 29:-0.38224054 30:-0.31401072 31:-0.16310288 32:-0.25188581 33:-0.4908805 34:-1.1605839 35:-0.87755045 36:-1.0601479
90.5097 0:-0.89099156 1:-0.38264201 2:-0.025299538 3:0.5359464 4:-0.31782751 5:-0.18919305 6:-0.16509512 7:-1.0037892 8:-0.40209118 9:0.05226395 10:0.091165857 11:0.5277244 12:-0.52566433 13:-0.30036576 14:-0.47305778 15:-0.47052533 16:-0.40022462 17:0.011618447 18:0.12494333 19:0.093634166 20:0.13136551 21:-0.13108309 22:-0.16852512 23:-0.042867858 24:-0.23011887 25:-0.58482358 26:-0.78792733 27:-0.85566553 28:-0.60493409 29:0.47309259 30:0.11587294 31:-0.040298319 32:0.50414838 33:-0.97285626 34:-0.24345819 35:0.21365924 36:-0.62227485
90.5097 0:-0.85825766 1:-0.53772372 2:2.0579761 3:-0.014757554 4:-0.22728202 5:-0.10959304 6:-0.11351263 7:-0.94084826 8:-0.29778476 9:0.12310252 10:0.2541953 11:-1.9850562 12:0.87783095 13:0.55030998 14:0.96997411 15:0.29721777 16:0.7680667 17:0.73460136 18:0.39609145 19:0.23426886 20:0.57099632 21:0.21543356 22:1.0010192 23:0.65498852 24:0.65550431 25:-0.0820552 26:-0.34924544 27:-0.16410831 28:-0.18562235 29:0.98986808 30:0.944157 31:0.68533117 32:0.94942822 33:-0.046391743 34:1.2909481 35:0.58513488 36:1.1523445
88.99299007103241 0:2.2195581 1:-0.18083176 2:-1.3376538 3:-1.1251946 4:-0.91534946 5:-0.89953814 6:-0.16853395 7:0.90541776 8:-0.5623004 9:-2.1066258 10:-3.4954848 11:-2.5434519 12:2.3962598 13:5.6658136 14:3.8988202 15:0.077916802 16:5.8517767 17:2.5336328 18:1.2742555 19:0.80164785 20:1.8500772 21:6.9211116 22:3.6328095 23:0.31381429 24:6.2315428 25:-0.29876695 26:-0.49226865 27:-0.60344936 28:-0.2800237 29:4.0409817 30:2.5730244 31:1.4723724 32:3.3296087 33:1.351338 34:0.020179264 35:-1.9455429 36:1.5362544
90.5097 0:-0.051191975 1:-0.59174971 2:1.5280474 3:-0.33863961 4:0.14548713 5:-1.1606682 6:-1.2568465 7:-0.18756376 8:-1.0152758 9:-1.175732 10:-0.96852651 11:0.32226808 12:-0.12671374 13:-0.019877683 14:-0.16228408 15:-0.16456922 16:-0.11706773 17:-0.065514009 18:-0.10225632 19:-0.060605295 20:-0.065128275 21:-0.19137166 22:-0.16535837 23:-0.01083247 24:-0.21676895 25:-0.08296586 26:-0.20311634 27:-0.34074766 28:-0.20475865 29:0.44041214 30:-0.39491276 31:-0.16455745 32:-0.14241756 33:-0.18398378 34:-0.51969994 35:-0.70478491 36:-0.33710705
90.5097 0:0.55146802 1:-0.46380342 2:0.39674406 3:-0.20106628 4:-0.55737012 5:-0.57269589 6:-0.54310246 7:0.48159843 8:-0.41033823 9:-0.85521132 10:-1.5318201 11:-0.35633368 12:0.56984252 13:-0.025566336 14:0.099625378 15:0.29728594 16:0.056447425 17:-0.1807491 18:-0.17450024 19:-0.10848356 20:-0.23727815 21:-0.10726147 22:-0.10439768 23:-0.044268691 24:-0.14510992 25:0.0082189374 26:0.32121323 27:0.50741622 28:0.19225062 29:0.022334873 30:-0.14476373 31:0.15825053 32:-0.11290063 33:-0.40531758 34:0.11434953 35:0.34474179 36:-0.29927163
90.5097 0:1.4210455 1:0.95075547 2:-0.70241323 3:-0.6858031 4:-0.39511843 5:-0.29114904 6:-0.029075805 7:1.472358 8:0.19849374 9:-0.97661092 10:-1.3761001 11:-0.69563456 12:-1.3900405 13:-0.36481688 14:-0.47797271 15:-0.51002943 16:-0.39244183 17:0.45311796 18:0.24824874 19:0.13243813 20:0.36858952 21:0.31339714 22:-0.021349488 23:-0.18546455 24:0.096420608 25:-0.58768659 26:-0.80882279 27:-0.94443569 28:-0.65644395 29:0.72998205 30:0.65719131 31:0.26467074 32:0.69945659 33:-0.15631705 34:0.091273206 35:-0.12754523 36:-0.23256181
90.5097 0:0.38152844 1:-0.60396389 2:0.3286227 3:-0.25135973 4:0.34177843 5:-0.15963559 6:-0.084734741 7:0.47360844 8:0.16928538 9:-0.27647565 10:-1.3545356 11:-1.0349354 12:-1.6324099 13:-0.33258118 14:-0.44809156 15:-0.45578938 16:-0.36246231 17:0.15221811 18:0.1731189 19:0.23147399 20:0.23905419 21:-0.076999039 22:-0.069617296 23:0.038623334 24:-0.037954219 25:-0.53210199 26:-0.79935895 27:-0.94462253 28:-0.61665631 29:0.12514076 30:-0.056182205 31:0.23274467 32:-0.063277964 33:-1.0278189 34:1.0802585 35:1.5292076 36:0.32103016
90.5097 0:0.36217309 1:-0.61162476 2:-0.18152358 3:0.9926322 4:-0.52741943 5:-0.75657003 6:-0.74936793 7:0.16998858 8:-0.44084474 9:-0.94770625 10:-1.4647297 11:-1.7135372 12:-1.4142941 13:-0.42428915 14:-0.42284516 15:-0.48139627 16:-0.44581566 17:0.31884983 18:0.32216773 19:0.41249319 20:0.29086833 21:-0.016581864 22:0.065063973 23:0.11872125 24:0.021834917 25:-0.54750381 26:-0.80042183 27:-1.005376 28:-0.60256415 29:1.6398141 30:1.7766498 31:2.1908766 32:1.7282713 33:2.1953546 34:1.1264112 35:1.6341603 36:1.4859629
90.5097 0:-0.24345319 1:-0.50443867 2:0.33891177 3:-0.76656048 4:0.53536083 5:-0.79441552 6:-0.74936793 7:0.098078611 8:-0.77511815 9:-0.74665824 10:-0.72398185 11:-0.35633368 12:1.7100809 13:0.092861063 14:-0.20456494 15:-0.42296601 16:0.02997258 17:-0.0073039947 18:-0.016803578 19:-0.034917184 20:-0.008512958 21:0.28130388 22:-0.1142778 23:-0.21312627 24:0.10797649 25:-0.28100331 26:-0.54771737 27:-0.57168864 28:-0.39141809 29:2.4115962 30:1.8026791 31:1.5291116 32:2.541901 33:0.14110025 34:-0.59405699 35:-0.35994042 36:-0.31121966
90.5097 0:-0.82834865 1:-0.6122145 2:0.24136196 3:0.96862351 4:-0.0064534304 5:-0.76554968 6:-0.74609387 7:-0.89268093 8:-0.97633128 9:-0.41586038 10:-1.1315559 11:-1.0349354 12:-1.3561421 13:-0.37567703 14:-0.50132394 15:-0.53237726 16:-0.4151218 17:0.19843064 18:0.16536827 19:0.12894017 20:0.2085715 21:0.094452194 22:-0.10052904 23:-0.086552938 24:-0.050929466 25:-0.58823248 26:-0.82658423 27:-0.89561276 28:-0.61524168 29:0.66800101 30:0.99442868 31:1.3359675 32:0.81595971 33:0.3658924 34:-0.62389304 35:-0.35994042 36:-0.31918501
49.7948810596022 0:0.33835664 1:-0.69231026 2:2.3834439 3:-0.60205943 4:-0.26338937 5:-0.95601811 6:-0.9556334 7:0.26387103 8:-0.64205786 9:-1.1468273 10:-0.80549657 11:-1.7135372 12:0.40129943 13:-0.24638948 14:-0.24047449 15:-0.32100403 16:-0.22194026 17:0.72143206 18:0.27239934 19:0.13746644 20:0.57547549 21:0.26127252 22:0.10795407 23:0.16677999 24:0.22504261 25:0.018099761 26:-0.52217638 27:-0.76283499 28:-0.16976755 29:1.1874682 30:3.6257984 31:3.1770372 32:2.8858482 33:0.63218463 34:1.4963316 35:2.683687 36:1.097652
90.5097 0:0.17772237 1:-0.37649304 2:-0.12836576 3:-0.41552792 4:-0.01592589 5:-0.58098154 6:-0.65070594 7:0.0047584736 8:-0.33548414 9:-0.6644159 10:-0.88708219 11:0.68424437 12:0.36131653 13:-0.28266217 14:-0.32782127 15:-0.22989142 16:-0.3105849 17:-0.15296374 18:-0.049265873 19:0.026170276 20:-0.090637814 21:-0.26256544 22:-0.20115006 23:-0.10309463 24:-0.25629734 25:-0.52843719 26:-0.59299812 27:-0.62684916 28:-0.47036595 29:-0.07514676 30:0.48064857 31:0.84335558 32:0.2961729 33:1.3578856 34:0.03214231 35:0.057995907 36:0.35278989
90.5097 0:-0.38541593 1:-0.54745507 2:0.96527507 3:-0.56868664 4:-0.25680474 5:-0.95241417 6:-1.0400549 7:-0.64376765 8:-1.1110359 9:-0.78505581 10:-0.3920716 11:1.8562855 12:1.0132396 13:-0.38349404 14:-0.37583433 15:-0.38637598 16:-0.40122638 17:-0.22167459 18:-0.17196136 19:-0.095998407 20:-0.21398899 21:-0.32617812 22:-0.32117978 23:-0.24964823 24:-0.36825684 25:-0.40430123 26:-0.47115505 27:-0.47919983 28:-0.37037144 29:-0.5287 30:0.29252672 31:0.55790991 32:0.040185704 33:-0.58479047 34:-1.1651467 35:-1.0691787 36:-1.1442754
90.5097 0:-0.3698144 1:-0.52478873 2:1.7971713 3:-0.087527769 4:-0.37511848 5:-0.79288217 6:-0.98752365 7:-0.70786616 8:-0.92112982 9:-0.66077852 10:-0.48482063 11:0.68424437 12:1.2473387 13:-0.12398877 14:-0.14778251 15:-0.39455645 16:-0.19797893 17:-0.3028614 18:-0.12390557 19:-0.046663697 20:-0.210809 21:-0.18190327 22:-0.17222388 23:-0.23557372 24:-0.24450182 25:-0.45927039 26:-0.18456669 27:-0.53552589 28:-0.4330983 29:0.61993942 30:0.7808951 31:0.9880886 32:0.68694124 33:0.18063224 34:-0.25456558 35:-0.2215434 36:-0.049621262
90.5097 0:-0.19536433 1:-0.12207295 2:-0.39867695 3:-0.84923552 4:-0.5613505 5:-0.68511607 6:-0.60435487 7:-0.41753761 8:-0.54131777 9:-0.75474427 10:-1.0501092 11:1.1865477 12:0.57643792 13:-0.37137859 14:-0.37347454 15:-0.33702925 16:-0.36084006 17:-0.25668175 18:-0.11475096 19:-0.031547212 20:-0.18453865 21:-0.29001254 22:-0.27496981 23:-0.20429704 24:-0.31092129 25:-0.47936562 26:-0.56489105 27:-0.53293076 28:-0.46578302 29:-0.25877459 30:0.3860009 31:0.6679388 32:0.2321761 33:-0.14800034 34:-1.0438454 35:-1.0781961 36:-0.57059998
90.5097 0:-0.31863247 1:-0.56039003 2:0.72279503 3:-0.41748523 4:0.33507402 5:-0.74035258 6:-0.98752365 7:-0.76442367 8:-0.64300938 9:-0.75171312 10:-0.80556894 11:0.85167882 12:0.66002854 13:-0.22169407 14:-0.17677329 15:-0.20112782 16:-0.17505286 17:-0.29429582 18:-0.15252879 19:-0.083218106 20:-0.21030264 21:-0.26547161 22:-0.20889243 23:-0.17100971 24:-0.26075644 25:-0.29343965 26:-0.27433033 27:-0.2114841 28:-0.26721113 29:-0.016035916 30:0.17255533 31:0.5277572 32:0.10321286 33:0.10575393 34:0.12781876 35:0.32851782 36:-0.034051783
90.5097 0:-0.62115915 1:-0.43083313 2:-0.16997252 3:0.41587808 4:0.50391427 5:-0.20661995 6:-0.11612369 7:-0.64376765 8:-0.34161014 9:-0.090921693 10:-0.88708219 11:1.0191133 12:-0.0069628392 13:-0.28578874 14:-0.41957907 15:-0.39455645 16:-0.37040524 17:0.0048477752 18:-0.058553663 19:-0.059581421 20:-0.029266045 21:-0.24964916 22:-0.25316941 23:-0.17279695 24:-0.2635735 25:-0.26276748 26:-0.54833583 27:-0.75446216 28:-0.38940926 29:-0.3121771 30:-0.17497685 31:0.023201824 32:-0.23422481 33:-0.085601747 34:-0.2175554 35:-0.2215434 36:-0.42089345
90.5097 0:-0.19178561 1:-0.53338068 2:0.39596594 3:-0.32765431 4:-0.4634253 5:0.055202616 6:0.12181176 7:0.64197309 8:-0.057363696 9:0.39103169 10:-1.2131357 11:1.8562855 12:0.13702662 13:-0.34363028 14:-0.45268077 15:-0.45683361 16:-0.41954699 17:-0.1633914 18:-0.12383922 19:-0.13049148 20:-0.12328841 21:-0.18487401 22:-0.32071692 23:-0.28796217 24:-0.31861925 25:-0.42954492 26:-0.59022134 27:-0.5143463 28:-0.4814135 29:-0.36169579 30:-0.36693678 31:-0.26827439 32:-0.36076394 33:-0.59727019 34:-0.98999156 35:-0.78963942 36:-1.1275083
90.5097 0:0.012096753 1:0.24866992 2:-0.57099499 3:-0.35937087 4:-0.56191483 5:0.024440259 6:0.06928056 7:-0.18376656 8:0.12335333 9:-0.27521582 10:-1.620703 11:-0.48779678 12:0.16786384 13:0.0042005857 14:0.30344833 15:-0.015351884 16:0.30816592 17:0.20027336 18:0.051654432 19:-0.038143497 20:0.10686586 21:-0.0074043177 22:0.18588942 23:0.0052567431 24:0.46937556 25:-0.12267214 26:-0.11944431 27:-0.060547981 28:-0.14476582 29:0.61314274 30:0.25162719 31:0.19004683 32:0.51846481 33:1.8570744 34:1.7244506 35:2.2943104 36:1.0917413
90.5097 0:-0.12670119 1:-0.5377406 2:1.3870254 3:-0.7391332 4:-0.78300427 5:-0.98687077 6:-0.99595302 7:-0.41825605 8:-0.85501734 9:-0.97570169 10:0.6617694 11:0.54303405 12:1.6555108 13:-0.12287395 14:-0.25983264 15:-0.42204685 16:-0.062224836 17:-0.15511749 18:-0.038501516 19:-0.019320729 20:-0.069883038 21:-0.060025325 22:-0.16179827 23:-0.20865244 24:-0.13993176 25:-0.47520462 26:-0.5972297 27:-0.67210462 28:-0.45917589 29:0.28089965 30:1.1622351 31:1.4511093 32:1.0458936 33:1.4505094 34:-0.13821028 35:-0.34245192 36:0.28802946
90.5097 0:0.12789288 1:-0.52984535 2:1.4374166 3:-0.86994951 4:-0.81377376 5:-0.76083079 6:-0.82881874 7:0.0032138533 8:-0.74677953 9:-0.80628919 10:0.98782829 11:-0.3200065 12:0.20481754 13:-0.019349677 14:-0.10572029 15:-0.18859243 16:-0.048871013 17:-0.075267174 18:0.018680635 19:0.0997276 20:-0.032293762 21:-0.23829394 22:-0.060119577 23:0.019207413 24:-0.12247522 25:-0.26060044 26:-0.46576767 27:-0.55583821 28:-0.34680842 29:0.020308613 30:0.69056227 31:1.2546875 32:0.40413556 33:0.61305188 34:0.093174196 35:-0.35709184 36:0.1985865
90.5097 0:-0.67468183 1:-0.17428346 2:-0.35717784 3:-0.26934463 4:-0.6165907 5:-1.3253632 6:-1.3413639 7:-0.64938471 8:-1.4315493 9:-1.0576755 10:1.3954024 11:1.1183944 12:2.6267695 13:-0.047693217 14:-0.3040839 15:-0.33680884 16:-0.17249149 17:-0.34394001 18:-0.13071819 19:-0.087461537 20:-0.22505741 21:-0.27236758 22:-0.2531623 23:-0.2611323 24:-0.30315722 25:-0.40951182 26:-0.47322409 27:-0.53832231 28:-0.37550445 29:0.97918245 30:1.1375075 31:1.6344363 32:1.112217 33:-0.4067553 34:-1.0962498 35:-1.2208473 36:-0.71528721
90.5097 0:-0.18435896 1:-0.29124838 2:0.67135109 3:-0.71992883 4:-0.75452452 5:-1.1515163 6:-1.1742296 7:-0.43185186 8:-0.91244964 9:-1.1473002 10:0.90631357 11:1.1183944 12:1.2729219 13:-0.33826475 14:-0.39988329 15:-0.40521641 16:-0.40026138 17:-0.24301994 18:-0.089523767 19:-0.022490069 20:-0.14913437 21:-0.23344705 22:-0.25342652 23:-0.22173049 24:-0.28603986 25:-0.46355201 26:-0.58607177 27:-0.72748608 28:-0.47522384 29:0.32583574 30:1.4228441 31:1.6082743 32:1.0332606 33:0.20783049 34:-0.71561251 35:-1.0158884 36:-0.62778866
90.5097 0:1.4486702 1:-0.55947444 2:2.2297415 3:-1.0485565 4:-0.71876556 5:-0.27875447 6:-0.12685476 7:1.0636865 8:0.29141985 9:-0.71885048 10:0.58025468 11:-1.4707272 12:-1.7066654 13:-0.20790457 14:-0.33189452 15:-0.28631753 16:-0.27546951 17:0.24332889 18:0.35169452 19:0.47578959 20:0.34888339 21:0.0073464472 22:0.13262224 23:0.24321092 24:0.11378733 25:-0.55811284 26:-0.77517452 27:-1.0018811 28:-0.62040315 29:1.1942333 30:1.6476749 31:1.6868155 32:1.9965293 33:0.64006664 34:2.5764737 35:2.1902548 36:1.9582795
90.5097 0:0.46876436 1:-0.72701209 2:4.7920601 3:-0.78715325 4:-0.69631014 5:-0.416724 6:-0.65054217 7:0.62862081 8:-0.05096505 9:-0.60955209 10:0.41722475 11:-1.183047 12:-1.1300495 13:-0.26941608 14:-0.27135533 15:-0.24396999 16:-0.30920549 17:0.89333732 18:0.30354384 19:0.28077614 20:0.4722346 21:0.51302249 22:0.11464795 23:0.37818309 24:0.18740102 25:-0.36887718 26:-0.7191179 27:-0.81478793 28:-0.4952581 29:0.48456547 30:1.5657843 31:2.1739415 32:1.3525605 33:2.4027797 34:0.97243061 35:1.004421 36:1.8085598
90.5097 0:-0.73084016 1:-0.63169613 2:2.0400086 3:0.40826086 4:-0.41645766 5:0.019947903 6:0.040279526 7:-0.63578891 8:-0.05096505 9:0.21565074 10:0.2541953 11:-0.032326314 12:1.4523659 13:0.1768439 14:-0.1137132 15:-0.27763086 16:0.082454596 17:0.0008925843 18:-0.01949861 19:0.039312058 20:-0.011535723 21:-0.034336808 22:-0.094274823 23:0.029770453 24:-0.069088048 25:-0.30756563 26:-0.37375875 27:-0.56939814 28:-0.28530274 29:1.6053599 30:1.9197659 31:2.0744212 32:2.1386509 33:-1.0145874 34:-0.1424517 35:0.12602562 36:-0.45279157
90.5097 0:0.241543 1:-0.58760228 2:2.0235234 3:-0.62805631 4:-0.5846359 5:-1.1540659 6:-1.1742296 7:-0.01038195 8:-0.91244964 9:-1.1505791 10:0.98782829 11:-0.89536686 12:-0.82160045 13:-0.25192751 14:-0.36868964 15:-0.36286887 16:-0.33401288 17:0.95621106 18:0.23903082 19:0.011580335 20:0.59869514 21:0.57065201 22:0.027138038 23:-0.048865509 24:0.28086815 25:-0.034452826 26:-0.23619825 27:-0.76881294 28:-0.15573257 29:3.119571 30:2.3696894 31:3.6981746 32:2.4964815 33:2.3149817 34:1.1794568 35:-0.078933302 36:1.9582795
90.5097 0:-1.0812099 1:-0.3090942 2:-0.22761006 3:2.43502 4:-0.056145764 5:-1.5383126 6:-1.5082917 7:-1.6210228 8:-1.8679523 9:-1.024344 10:2.4550943 11:1.3957865 12:0.98249183 13:-0.195822 14:-0.21819068 15:-0.18082173 16:-0.20889925 17:-0.30784376 18:-0.18352626 19:-0.10463346 20:-0.2594612 21:-0.35818896 22:-0.2603751 23:-0.22044193 24:-0.32846955 25:-0.26376642 26:-0.26288255 27:-0.14997898 28:-0.22660155 29:-0.14147575 30:0.23141516 31:0.16630436 32:0.11317649 33:-0.73413803 34:-1.175502 35:-1.2960705 36:-0.79321595
90.5097 0:-0.23299788 1:0.942888 2:-0.51351631 3:0.81822817 4:-0.49334898 5:-1.2145356 6:-1.2690785 7:-0.19807101 8:-1.1862395 9:-1.024344 10:2.4550943 11:0.64501544 12:0.60448124 13:-0.25717297 14:-0.17195869 15:-0.081304225 16:-0.20612567 17:-0.26402568 18:-0.10500691 19:-0.032950046 20:-0.17544582 21:-0.28396787 22:-0.18087378 23:-0.093151194 24:-0.23060171 25:-0.34181428 26:-0.36138764 27:-0.27403597 28:-0.27061827 29:0.29744138 30:0.40330669 31:0.72359671 32:0.33719352 33:1.5466452 34:0.45039421 35:0.31611535 36:0.90906712
90.5097 0:-0.90643125 1:-0.2265904 2:2.3722558 3:0.52764462 4:-0.37199971 5:-1.1319243 6:-1.2690785 7:-1.0737337 8:-1.4085371 9:-0.78969187 10:2.3735795 11:1.020401 12:0.93366936 13:-0.30826853 14:-0.2913117 15:-0.18866547 16:-0.28630082 17:-0.21032324 18:-0.098378463 19:-0.022151582 20:-0.14650945 21:-0.34533094 22:-0.22648467 23:-0.1186455 24:-0.28268735 25:-0.29142012 26:-0.45227968 27:-0.53966421 28:-0.32631511 29:-0.1833486 30:0.83962252 31:1.0765485 32:0.56046383 33:-0.17633777 34:-0.51906282 35:-0.4899776 36:-0.24720062
90.5097 0:-0.7760757 1:-0.42778698 2:1.124748 3:1.7127153 4:-0.035306331 5:-1.3741409 6:-1.5082917 7:-1.3473782 8:-1.6456546 9:-1.024344 10:2.2105501 11:1.020401 12:1.1437077 13:-0.24855116 14:-0.22187156 15:-0.15042722 16:-0.22333124 17:-0.19086583 18:-0.15123308 19:-0.036626118 20:-0.18799225 21:-0.3164788 22:-0.23731212 23:-0.12153847 24:-0.29324591 25:-0.3889606 26:-0.30009388 27:-0.33111125 28:-0.30671035 29:0.51142029 30:1.027645 31:1.0827407 32:1.0520321 33:-0.37466675 34:0.04547488 35:0.31611535 36:-0.025939512
90.5097 0:0.14902384 1:0.27206686 2:-0.19613008 3:-0.83546064 4:-0.69098962 5:-1.1720557 6:-1.0298654 7:0.95123622 8:-0.94912196 9:-1.0140779 10:1.8844912 11:0.45732266 12:-0.077679059 13:-0.26243681 14:-0.36337712 15:-0.32642122 16:-0.29208302 17:0.14115537 18:0.013239894 19:-0.0061836415 20:0.10027089 21:-0.079807624 22:-0.17196072 23:-0.1101474 24:-0.16109324 25:-0.36009987 26:-0.59152814 27:-0.65569863 28:-0.46391699 29:0.2697754 30:0.034541741 31:-0.10924575 32:0.11168304 33:-0.89528032 34:-0.61930494 35:-1.2960705 36:-1.2178945
90.5097 0:-0.85377854 1:1.2158874 2:-0.7099499 3:-0.76491708 4:-0.71920153 5:-0.99422661 6:-1.0448163 7:-1.0554907 8:-1.1714196 9:-0.78969187 10:2.2920648 11:1.020401 12:0.13924888 13:-0.11214508 14:-0.29396861 15:-0.21905998 16:-0.22114529 17:-0.040265496 18:-0.1008717 19:-0.043978264 20:-0.10209746 21:-0.23593324 22:-0.22951378 23:-0.1101474 24:-0.25092633 25:-0.087538549 26:-0.32380373 27:-0.12375033 28:-0.21683354 29:-0.0091276557 30:-0.22776395 31:0.023885204 32:-0.1317488 33:-0.75892915 34:-1.5790808 35:-1.3229403 36:-1.3285251
90.5097 0:-0.92430658 1:0.50049298 2:-0.55228723 3:-0.78631373 4:0.041040512 5:-0.78199748 6:-0.80560315 7:-0.76360314 8:-0.94912196 9:-0.33505342 10:0.58025468 11:0.83270821 12:-0.12432971 13:-0.32469534 14:-0.43032008 15:-0.38402372 16:-0.40514149 17:0.00012808246 18:-0.0023738578 19:0.0064528583 20:-0.045172895 21:-0.18925759 22:-0.21228452 23:-0.21049734 24:-0.23054075 25:-0.49752733 26:-0.67140556 27:-0.72133421 28:-0.51735261 29:-0.45552209 30:-0.33447415 31:-0.2145026 32:-0.4182982 33:-0.90767588 34:-1.2647777 35:-1.2960705 36:-1.2428756
90.5097 0:-1.161574 1:0.4855765 2:-0.4476463 3:0.32076301 4:0.12140869 5:-0.67393475 6:-0.58134086 7:-1.8262563 8:-0.94912196 9:-0.32038766 10:2.1290354 11:1.5834793 12:0.17341349 13:-0.25989565 14:-0.37048988 15:-0.34161848 16:-0.3059509 17:-0.22620048 18:-0.14563385 19:-0.12990646 20:-0.18223546 21:-0.29065822 22:-0.296131 23:-0.23870381 24:-0.33150544 25:-0.41477429 26:-0.44618684 27:-0.51626558 28:-0.37006615 29:-0.70825461 30:-0.35288381 31:-0.27798149 32:-0.53049912 33:-0.37466675 34:-1.633982 35:-1.3498101 36:-1.3285251
90.5097 0:-0.61330696 1:-0.50654428 2:1.8290697 3:-0.34732833 4:0.090678034 5:-0.66827315 6:-0.58134086 7:-0.49908005 8:-0.71200446 9:-0.56970552 10:0.74328412 11:-0.66883397 12:-0.32646453 13:0.03251979 14:-0.097343323 15:-0.32642122 16:0.05256904 17:0.27486668 18:0.22113155 19:0.29548407 20:0.24551149 21:0.56215249 22:0.099500971 23:0.043722508 24:0.27122241 25:-0.39506864 26:-0.62774763 27:-0.5900399 28:-0.45330259 29:-0.13925037 30:-0.47756558 31:-0.25950964 32:-0.40691639 33:0.80291156 34:0.45378005 35:0.77290135 36:0.94118567
90.5097 0:-0.9271276 1:-0.58071027 2:0.35744721 3:-0.2449951 4:-0.36258798 5:0.015681115 6:0.12134765 7:-0.48995856 8:-0.25258931 9:0.35423713 10:-0.80549657 11:-1.4196051 12:-0.45537493 13:0.76982053 14:0.37955472 15:-0.21905998 16:0.8321554 17:0.1265234 18:0.59480222 19:0.090887653 20:0.25528111 21:1.0111378 22:0.58689137 23:0.19361458 24:0.79580961 25:0.35574311 26:-0.018297575 27:-0.69648054 28:0.43033237 29:-0.37775823 30:-0.57438722 31:-0.35228713 32:-0.54599363 33:-1.1060049 34:0.18956328 35:0.34298512 36:-0.27575045
90.5097 0:-1.0446743 1:-0.32078295 2:-0.32218398 3:0.85122252 4:0.47143486 5:-0.28653057 6:-0.34212775 7:-1.6210228 8:-0.48970681 9:0.11958503 10:0.0096511354 11:0.26962989 12:-0.28633491 13:-0.0016951754 14:-0.18168642 15:-0.25729823 16:-0.10284523 17:-0.060656859 18:-0.023865206 19:-0.043748509 20:0.067761916 21:-0.11974066 22:-0.12312772 23:-0.11304037 24:-0.15587492 25:-0.26690901 26:-0.27144128 27:-0.61305235 28:-0.030870977 29:-0.73218195 30:-0.86119179 31:-0.7749005 32:-0.85215024 33:-0.32508451 34:-0.76115759 35:-0.54371713 36:-0.4898741
-90.5097 0:0.60490614 1:-0.48997045 2:0.65542408 3:-1.1032803 4:-0.92579005 5:-1.1883866 6:-1.2556406 7:0.40073293 8:-0.76069646 9:-1.4614533 10:0.17268058 11:2.1148921 12:1.5546702 13:-0.19486485 14:-0.38121445 15:-0.30814612 16:-0.31349065 17:-0.21328341 18:-0.15561002 19:-0.094502309 20:-0.18695235 21:-0.21048358 22:-0.32102473 23:-0.23215362 24:-0.31510382 25:-0.44184185 26:-0.49112641 27:-0.459208 28:-0.37373887 29:0.14976593 30:0.24282465 31:0.17632789 32:0.1296383 33:1.7407823 34:0.68025726 35:1.3230158 36:1.0130757
-90.5097 0:0.88136891 1:0.69718815 2:-0.81730167 3:-0.96838551 4:-0.70580253 5:-0.98874575 6:-0.88777269 7:0.63240876 8:-0.57131622 9:-1.088959 10:-0.071863586 11:0.34858946 12:2.3257602 13:-0.13954021 14:-0.23800304 15:-0.23997299 16:-0.1932279 17:-0.15479166 18:-0.10498446 19:-0.030233839 20:-0.13002833 21:-0.20697981 22:-0.19871662 23:-0.078205115 24:-0.24279077 25:-0.36619172 26:-0.42294459 27:-0.39947765 28:-0.40438321 29:0.12749001 30:1.2019811 31:1.406145 32:0.82992231 33:0.23205535 34:-0.023685599 35:-0.23434425 36:-0.046414569
-8.667321978085994 0:0.35188358 1:-0.33909843 2:-0.014966622 3:-0.36083071 4:-0.099812614 5:0.49583404 6:0.44455776 7:0.5841773 8:0.53585402 9:0.26470033 10:-0.47943769 11:-2.9337946 12:-1.6801177 13:0.77819903 14:0.15041255 15:0.32824467 16:0.30992515 17:15.489767 18:6.0705125 19:6.3802954 20:8.8165597 21:9.6497473 22:4.8565333 23:5.2924644 24:6.277079 25:-0.24635444 26:-0.69415897 27:-0.67492604 28:-0.4632434 29:-0.85750895 30:-1.003079 31:-0.85108925 32:-0.97939095 33:0.25229319 34:4.3147008 35:4.4640472 36:2.7356591
-22.85469662833265 0:-0.90828453 1:-0.21395991 2:-0.4850358 3:0.72786545 4:-0.16707769 5:-0.73750605 6:-0.7631924 7:-1.2899055 8:-0.90730951 9:-0.51321325 10:0.90631357 11:-2.4943926 12:-0.82153623 13:5.8389911 14:2.9927382 15:0.78731501 16:4.8035853 17:10.229497 18:3.663338 19:0.23224443 20:7.7710888 21:11.401362 22:4.4569127 23:3.3199724 24:7.3922416 25:1.7501525 26:0.76384628 27:-0.19610466 28:1.3380327 29:1.0736862 30:0.35661726 31:0.72703251 32:0.54774205 33:1.3801553 34:0.87125458 35:1.3672266 36:1.0887679
-17.48812612469138 0:-0.58614887 1:0.13238862 2:-0.6553947 3:1.2083512 4:-0.43373696 5:-0.44044431 6:-0.41575742 7:-0.45548446 8:-0.68318184 9:-0.22649962 10:0.82479884 11:1.0208237 12:-0.049498746 13:-0.18988336 14:-0.24156422 15:-0.11785988 16:-0.22431514 17:-0.17064281 18:-0.16158656 19:-0.088207454 20:-0.1911527 21:-0.22396052 22:-0.24430186 23:-0.23245247 24:-0.22518252 25:-0.2659573 26:-0.24077932 27:-0.30468774 28:-0.20042417 29:-0.60014723 30:-0.53891012 31:-0.44232318 32:-0.57719116 33:-0.81772988 34:-0.80611921 35:-0.58866008 36:-0.89449547
-90.5097 0:0.86743915 1:-0.11125598 2:0.27223454 3:-0.94013727 4:-0.90507807 5:-0.95577067 6:-1.1051125 7:-0.05173232 8:-0.68318184 9:-1.2381119 10:1.3954024 11:-0.95648545 12:-0.12692496 13:0.015269695 14:0.17192786 15:0.068726082 16:0.14089152 17:0.23833323 18:0.14884317 19:-0.034665903 20:0.16166392 21:-0.093956199 22:0.21646482 23:0.1038685 24:0.11295426 25:0.010525461 26:-0.19167685 27:0.033277227 28:-0.16981415 29:-0.18758266 30:0.56989474 31:0.33860306 32:0.54259193 33:-0.18728386 34:0.50324675 35:0.53973607 36:-0.10685184
-90.5097 0:-0.87642918 1:-0.090886619 2:0.24075304 3:1.0953142 4:-0.47174007 5:-0.75875069 6:-0.76870724 7:-0.67081893 8:-1.0221066 9:-0.39960974 10:1.2323729 11:1.2405247 12:-0.59956357 13:0.056675358 14:-0.29171811 15:-0.16546867 16:-0.17263954 17:0.011501646 18:-0.12855242 19:-0.15587486 20:-0.092005402 21:-0.37014196 22:-0.2446664 23:-0.12422397 24:-0.27487372 25:0.34238783 26:-0.21059333 27:-0.44611969 28:0.0080235226 29:-0.76124388 30:-0.68237069 31:-0.79618038 32:-0.87687905 33:-1.1705483 34:-1.2299766 35:-1.1904714 36:-1.4107101
-16.51007041661626 0:0.65046475 1:0.52153355 2:-0.32155166 3:-0.27698225 4:-0.72261274 5:0.044582939 6:0.10263762 7:0.5942711 8:0.34452553 9:-0.30764499 10:0.17268058 11:-0.077681377 12:-0.36779251 13:-0.33982887 14:-0.5913678 15:-0.63385819 16:-0.48677283 17:0.072087831 18:0.053152075 19:-0.034665903 20:0.097390281 21:-0.16234861 22:-0.25914615 23:-0.36930795 24:-0.20382402 25:-0.53608773 26:-0.77882261 27:-0.96255396 28:-0.58852027 29:9.5734987 30:5.3151301 31:3.9097136 32:7.0719623 33:0.090343751 34:-0.95981829 35:-0.80180158 36:-0.62806211
-90.5097 0:0.46880647 1:-0.5216476 2:3.6705069 3:-0.41718507 4:-0.52468525 5:-0.34545843 6:-0.6577215 7:-0.6189341 8:-0.31017477 9:-0.39047695 10:0.90621284 11:-1.1086922 12:-0.54964781 13:0.064370884 14:0.10923569 15:0.25854346 16:0.047313757 17:-0.06122572 18:-0.045929681 19:-0.016299512 20:-0.074245973 21:-0.12825137 22:0.038352504 23:0.071073226 24:0.043924793 25:-0.34699629 26:-0.11078657 27:0.079526839 28:-0.23209795 29:-0.30455332 30:-0.35303287 31:-0.2437479 32:-0.3338437 33:0.45068431 34:0.68880629 35:1.1406083 36:0.36260911
-90.5097 0:-0.11341432 1:-0.44211333 2:2.3901911 3:0.96372113 4:-0.27282012 5:-0.52721816 6:-0.74194851 7:-0.83818464 8:-0.53837843 9:-0.5557191 10:1.3137801 11:-0.5583188 12:-0.38804859 13:-0.20201366 14:-0.11768651 15:0.033289322 16:-0.14421505 17:-0.018013373 18:0.010059711 19:0.15446301 20:-0.065350792 21:-0.12241993 22:-0.038605649 23:0.075906237 24:-0.085314605 25:-0.4665747 26:-0.39359365 27:-0.41418418 28:-0.40245894 29:-0.13541149 30:-0.039988183 31:0.23719926 32:-0.1055078 33:0.11650927 34:0.44454338 35:0.41621957 36:0.26329533
-90.5097 0:-0.97437563 1:0.15874248 2:-0.048937937 3:0.54205934 4:-0.27573061 5:-1.2478547 6:-1.2810013 7:-1.8933279 8:-1.5235503 9:-0.90272761 10:0.98772658 11:0.81761473 12:0.0041181142 13:-0.3555559 14:-0.42130782 15:-0.39649557 16:-0.39307073 17:-0.15703318 18:-0.040180887 19:0.092968172 20:-0.11108138 21:-0.21754532 22:-0.24185834 23:-0.12928657 24:-0.25033182 25:-0.47538452 26:-0.68017512 27:-0.73306545 28:-0.49204674 29:0.43725438 30:0.26508359 31:0.36655992 32:0.29777503 33:-0.88601583 34:-1.5916469 35:-1.6050586 36:-1.3629678
-90.5097 0:0.42627377 1:-0.65350444 2:2.9821829 3:0.04729371 4:0.46002364 5:-0.17071827 6:-0.39381022 7:-0.19756196 8:0.040479618 9:-0.38496888 10:0.98772658 11:1.0928014 12:2.5646879 13:-0.31660738 14:-0.30978192 15:-0.40302794 16:-0.24497989 17:-0.045386932 18:-0.14534652 19:-0.10561949 20:-0.15160596 21:-0.16251109 22:-0.26625323 23:-0.16868611 24:-0.28929776 25:-0.37215972 26:-0.38511481 27:-0.55391199 28:-0.28711865 29:0.90843517 30:1.3320937 31:1.2795204 32:0.88324396 33:1.4639892 34:0.309974 35:-0.29648546 36:0.83279777
-90.5097 0:-0.43055332 1:-0.64006202 2:0.66717438 3:0.84693128 4:0.57861371 5:-0.33447718 6:-0.33062611 7:-0.30666292 8:-0.37111969 9:-0.20423447 10:-0.76000781 11:0.35095752 12:-0.1403319 13:-0.14557138 14:-0.17401416 15:-0.25117477 16:-0.16740973 17:-0.1855688 18:-0.12901131 19:-0.042519481 20:-0.16306943 21:-0.17238345 22:-0.19394383 23:-0.15041723 24:-0.22321947 25:-0.33047708 26:-0.31214831 27:-0.36011405 28:-0.28977867 29:-0.55786016 30:-0.39410947 31:-0.13147603 32:-0.4362022 33:-0.62976433 34:-0.26410139 35:0.069865754 36:-0.51001065
-90.5097 0:0.41940048 1:-0.65830003 2:-0.088666128 3:-0.99812091 4:0.42685393 5:-0.51438646 6:-0.61643057 7:-0.2982257 8:-0.26602427 9:-0.62928901 10:-0.31640824 11:0.35095752 12:-0.58796834 13:-0.35404622 14:-0.19437277 15:-0.13028575 16:-0.24287421 17:-0.26460815 18:-0.14107365 19:-0.082985555 20:-0.19566154 21:-0.35182116 22:-0.21329882 23:-0.1579104 24:-0.29573464 25:-0.459243 26:-0.3221417 27:-0.15827534 28:-0.35238047 29:-0.40132587 30:-0.80919821 31:-0.71421653 32:-0.63626785 33:-0.62976433 34:-0.41319605 35:-0.27959558 36:-0.36206614
-90.5097 0:-0.0098545635 1:-0.46071259 2:0.36164885 3:-0.35950633 4:0.4887118 5:-0.32207973 6:-0.47813809 7:0.042075354 8:-0.21119187 9:-0.34893389 10:-0.47943769 11:0.35095752 12:-0.6236012 13:-0.083392732 14:-0.19001567 15:-0.09276847 16:-0.16746684 17:-0.24040053 18:-0.13650834 19:-0.11885973 20:-0.16837807 21:-0.10712067 22:-0.20753755 23:-0.15041723 24:-0.18193358 25:-0.29226642 26:-0.3002643 27:-0.29445301 28:-0.26247532 29:-0.30079926 30:-0.6820897 31:-0.58339723 32:-0.55487914 33:-0.64991602 34:0.068638044 35:0.069865754 36:-0.28374258
-90.5097 0:0.37372503 1:-0.37162336 2:0.10769826 3:-0.15683868 4:-0.73307695 5:-1.8320432 6:-1.9163799 7:-0.82414551 8:-1.9347568 9:-2.0256384 10:0.0096511354 11:0.75506761 12:2.6632333 13:-0.2161287 14:-0.35427318 15:-0.44650283 16:-0.30777424 17:-0.17983286 18:-0.071507359 19:0.024780479 20:-0.12736827 21:-0.049264591 22:-0.23122539 23:-0.20323199 24:-0.20841979 25:-0.42805961 26:-0.59316553 27:-0.72679066 28:-0.4397409 29:3.1903462 30:2.83012 31:2.5681585 32:3.1405989 33:0.44835107 34:-0.6011985 35:-0.96759757 36:-0.17350941
-90.5097 0:-0.4149973 1:-0.55586614 2:0.76468054 3:-0.28403671 4:1.8401041 5:-0.64486747 6:-0.76394256 7:-0.65540119 8:-0.65442038 9:-0.55241744 10:0.17268058 11:0.75506761 12:0.74308716 13:-0.15086318 14:-0.23353315 15:-0.09276847 16:-0.19827508 17:-0.079502465 18:-0.12199998 19:-0.15014202 20:-0.12578203 21:-0.23065878 22:-0.21602709 23:-0.18244449 24:-0.2020631 25:-0.14260014 26:-0.31955398 27:-0.29788826 28:-0.2288021 29:-0.23904721 30:0.34983001 31:0.49883513 32:0.22566376 33:-0.38794405 34:-0.38455991 35:-0.61813624 36:-0.34756178
-90.5097 0:0.35073313 1:-0.40399032 2:0.42942377 3:-0.97519954 4:-0.41381527 5:-1.1563392 6:-1.123503 7:-0.13791859 8:-0.94685981 9:-1.4703544 10:-0.071863586 11:1.9673979 12:2.5995722 13:-0.1198841 14:-0.44980309 15:-0.5120092 16:-0.3206229 17:0.19232291 18:-0.12661355 19:-0.029317783 20:-0.051080316 21:-0.087276316 22:-0.32082619 23:-0.29399603 24:-0.32810486 25:-0.16320064 26:-0.43598838 27:-0.60261684 28:-0.27507181 29:2.7078185 30:1.8799043 31:0.67722508 32:2.1517439 33:0.15111364 34:-0.85387027 35:-1.2952176 36:-0.47810105
-90.5097 0:0.546741 1:-0.5798098 2:1.3942852 3:-0.60750212 4:-0.14012942 5:-1.2120932 6:-1.4830635 7:-0.48665686 8:-1.0400749 9:-1.3346987 10:-0.15337831 11:-1.2654828 12:1.0714778 13:-0.22009755 14:-0.26563044 15:-0.25117477 16:-0.24738552 17:0.17861497 18:0.18460461 19:0.12795462 20:0.27236625 21:-0.057998903 22:0.019199923 23:0.015882793 24:0.10102064 25:-0.40708716 26:-0.62680943 27:-0.59092293 28:-0.48258527 29:1.4182057 30:4.037022 31:4.6434283 32:3.3109056 33:0.61964043 34:0.74398837 35:1.4131077 36:0.55170878
-90.5097 0:1.8033857 1:-0.027424746 2:-0.33012077 3:-0.056902549 4:-0.079784185 5:-0.46836977 6:-0.61643057 7:0.7958 8:0.15435741 9:-0.86894741 10:-1.1315559 11:-1.2654828 12:0.28779779 13:-0.25273031 14:-0.21670184 15:-0.24224208 16:-0.28536046 17:0.59694994 18:0.14678595 19:0.047309464 20:0.31889619 21:0.49750334 22:0.01119367 23:0.087672193 24:0.14299109 25:-0.45029685 26:-0.45981179 27:-0.65797646 28:-0.48382991 29:0.66141572 30:1.6569429 31:2.0448814 32:1.3843607 33:2.5793922 34:1.1462761 35:2.0901891 36:1.3117374
-90.5097 0:-0.54859439 1:-0.41510576 2:-0.053064985 3:-0.45225767 4:0.55093958 5:-1.0058986 6:-0.95045645 7:-0.72331383 8:-1.0086015 9:-0.78036151 10:-0.15346143 11:0.31750242 12:-0.16266263 13:-0.34944297 14:-0.31857977 15:-0.22080329 16:-0.30533127 17:-0.016041306 18:-0.057995941 19:-0.084136424 20:-0.098428264 21:-0.11475263 22:-0.2151842 23:-0.14371107 24:-0.25705114 25:-0.21640893 26:-0.42310752 27:-0.4951706 28:-0.28258906 29:-0.18009778 30:0.089706238 31:0.333143 32:-0.035319122 33:-0.59175678 34:-0.41063619 35:-0.057440379 36:-0.040082945
-90.5097 0:-0.66265297 1:-0.5946873 2:-0.3482645 3:2.7406648 4:0.27799766 5:-0.58268505 6:-0.54138972 7:-0.94368004 8:-0.74115518 9:-0.50715833 10:-0.35826258 11:-0.12605247 12:-0.57204965 13:-0.21841232 14:-0.15439666 15:0.024352801 16:-0.16808201 17:-0.21573218 18:-0.13422007 19:-0.13128933 20:-0.1971399 21:-0.33426822 22:-0.1779074 23:-0.13980202 24:-0.26082647 25:-0.15111226 26:-0.21701545 27:-0.36322901 28:-0.19663744 29:-0.5455611 30:-0.56374022 31:-0.26262367 32:-0.59858246 33:-0.167494 34:-0.035318324 35:0.18378487 36:-0.23031159
-90.5097 0:-0.78235259 1:-0.52770878 2:0.20630182 3:-0.59931652 4:2.315222 5:-1.3950531 6:-1.4900764 7:-0.78437916 8:-1.4218492 9:-1.1730911 10:0.35278934 11:1.2046122 12:0.35628245 13:-0.30945969 14:-0.2868995 15:-0.17441567 16:-0.29825237 17:-0.2070688 18:-0.15630128 19:-0.11386673 20:-0.20114491 21:-0.27521553 22:-0.27189573 23:-0.19869 24:-0.31684426 25:-0.40507113 26:-0.38597195 27:-0.30165385 28:-0.35417704 29:-0.48608938 30:-0.22575868 31:-0.083893671 32:-0.35622595 33:-0.5708914 34:-0.3784302 35:-0.26851247 36:-0.36447285
-90.5097 0:-0.80563064 1:-0.51774652 2:1.3217209 3:-0.17917923 4:-0.23644293 5:-1.2798557 6:-1.2202664 7:-0.77375911 8:-1.4201237 9:-0.9084255 10:0.25410582 11:-0.12605247 12:-0.52660633 13:-0.24685308 14:-0.43351091 15:-0.43154276 16:-0.32360247 17:0.31230074 18:0.20609468 19:0.17848129 20:0.17838838 21:-0.12488636 22:-0.080188444 23:-0.070826159 24:-0.015225712 25:-0.46892137 26:-0.76666144 27:-0.82952675 28:-0.56888637 29:0.80885938 30:0.69714405 31:0.58137912 32:0.69773746 33:-0.15358375 34:-0.51858051 35:-0.78111612 36:-0.27035973
-90.5097 0:-0.37564058 1:0.44517733 2:-0.84142403 3:-0.65625742 4:-0.85542353 5:-1.9667196 6:-1.7642381 7:-0.4445373 8:-1.94984 9:-1.962819 10:-0.39800169 11:-1.900272 12:-1.1893675 13:-0.028191642 14:-0.46192759 15:-0.47817978 16:-0.28366411 17:0.6098878 18:0.3002087 19:0.41312694 20:0.34139216 21:0.44901821 22:-0.02478166 23:0.086796919 24:0.087796682 25:-0.49523106 26:-0.82238946 27:-0.94381496 28:-0.62092843 29:1.5532151 30:1.0982504 31:0.81174224 32:1.08546 33:0.53497389 34:-0.72928615 35:-0.78111612 36:-0.020058877
-90.5097 0:-0.8387899 1:-0.24399397 2:0.50106639 3:-0.11534413 4:-0.6268044 5:-2.0515551 6:-2.0383999 7:-1.1029809 8:-2.2250509 9:-1.7109599 10:-0.071948176 11:-0.56960736 12:0.31229853 13:-0.066974498 14:-0.36553785 15:-0.54102752 16:-0.15655489 17:0.20725728 18:0.12955443 19:0.11598371 20:0.1252867 21:0.11752125 22:-0.09914184 23:-0.057207525 24:-0.10474534 25:-0.483099 26:-0.66202108 27:-0.86496842 28:-0.56462068 29:0.72157024 30:0.9677423 31:1.0004017 32:0.90560845 33:0.062025211 34:-1.2076578 35:-1.715864 36:0.17417458
-90.5097 0:-0.42774916 1:-0.37292444 2:1.7143117 3:-0.31669663 4:0.091374652 5:0.067698273 6:0.018212141 7:-0.38438617 8:-0.01458978 9:0.22818389 10:1.069343 11:-0.16855605 12:-0.89952239 13:-0.35724374 14:-0.32819526 15:-0.37886957 16:-0.35210423 17:-0.30123393 18:0.029672621 19:0.11865082 20:-0.046257465 21:-0.15035491 22:-0.11730439 23:-0.064533204 24:-0.14212411 25:-0.51102782 26:-0.73045839 27:-0.83532921 28:-0.54771125 29:-0.52685357 30:-0.41897449 31:-0.21998147 32:-0.43978878 33:-0.44706871 34:0.10592353 35:0.4521765 36:-0.033886709
-31.91809702310031 0:0.03276306 1:0.10540825 2:0.25896266 3:-0.66042155 4:-0.48456657 5:-0.41566357 6:-0.47063112 7:0.80858577 8:-0.43729174 9:-0.40437788 10:0.82469959 11:-0.16855605 12:-0.46873551 13:0.011936517 14:-0.150271 15:-0.10723692 16:-0.070416824 17:-0.05441709 18:-0.1045637 19:-0.06495908 20:-0.13732871 21:-0.11960089 22:-0.16800583 23:-0.088733074 24:-0.14543991 25:-0.297347 26:-0.24518623 27:-0.30300865 28:-0.15561613 29:-0.27581991 30:-0.31659229 31:-0.19806564 32:-0.3063234 33:0.40007832 34:-0.54651085 35:-0.33483247 36:-0.33353128
-90.5097 0:0.34876811 1:-0.25039767 2:0.71756569 3:-0.65189029 4:-0.76541234 5:-1.1083939 6:-1.1154882 7:0.40246767 8:-0.76720547 9:-1.0879527 10:1.9658876 11:-0.53233992 12:0.24876291 13:0.35460836 14:0.045636287 15:-0.17788043 16:0.20438236 17:0.057370951 18:-0.073484169 19:-0.055525596 20:-0.066734276 21:0.32758406 22:-0.067562469 23:0.02484395 24:0.071515627 25:-0.20719916 26:-0.18719248 27:-0.034797451 28:-0.12997067 29:0.091657072 30:-0.10966017 31:0.20111567 32:-0.094704307 33:0.35166992 34:0.14886371 35:0.47841013 36:0.6594769
-90.5097 0:0.29623863 1:-0.10386659 2:0.085587891 3:-0.36138905 4:-0.56369001 5:-2.1444371 6:-2.0931747 7:0.021731939 8:-2.0456212 9:-2.3224684 10:2.8626684 11:0.19522782 12:0.39230815 13:-0.28273837 14:-0.32003154 15:-0.39385456 16:-0.31640862 17:-0.23232509 18:-0.028350154 19:0.054245852 20:-0.079273163 21:-0.19000436 22:-0.16493784 23:-0.12020064 24:-0.15118521 25:-0.5169847 26:-0.67558312 27:-0.70369005 28:-0.53086662 29:0.21944228 30:0.78195075 31:1.1603631 32:0.5142905 33:1.4650632 34:0.32023989 35:0.084905647 36:0.67341385
-90.5097 0:0.018522172 1:0.27756194 2:0.059361591 3:-0.49493944 4:-0.79467202 5:-0.53853054 6:-0.47063112 7:0.40246767 8:-0.43729174 9:-0.4247831 10:1.5584318 11:0.55901169 12:0.93584685 13:-0.13443218 14:-0.27593122 15:-0.2449561 16:-0.24700176 17:-0.15946531 18:-0.10093038 19:0.0020186554 20:-0.14698568 21:-0.20319104 22:-0.21184382 23:-0.11409268 24:-0.2254362 25:-0.2510827 26:-0.37151603 27:-0.4163021 28:-0.30013927 29:0.04175279 30:0.47377802 31:0.788147 32:0.35420755 33:0.14593421 34:-0.45857961 35:-0.75457059 36:-0.38927911
-90.5097 0:0.35565042 1:0.25597351 2:0.71049215 3:-0.89829331 4:-0.59553 5:-0.34725294 6:-0.47063112 7:0.19940861 8:-0.10737802 9:-0.40437788 10:1.7214613 11:0.19522782 12:-0.078105548 13:-0.25622996 14:-0.24632045 15:-0.32677889 16:-0.17921431 17:-0.18241556 18:-0.087521238 19:0.016683435 20:-0.13754359 21:-0.3309454 22:-0.18905186 23:-0.14664267 24:-0.25545566 25:-0.39082573 26:-0.45214161 27:-0.63038675 28:-0.40634311 29:-0.56239147 30:-0.088518074 31:-0.57220027 32:-0.43148259 33:-0.39866031 34:-0.94002235 35:-0.75457059 36:-0.9572101
-90.5097 0:-0.30911811 1:-0.22179458 2:-0.16809664 3:-0.95216317 4:-0.28891048 5:-0.43484681 6:-0.28596252 7:0.96935247 8:-0.71071403 9:0.047661917 10:-0.39792296 11:0.7664001 12:-0.057457311 13:0.0099042455 14:-0.24281007 15:-0.30141694 16:-0.15601347 17:-0.04920917 18:-0.10508641 19:0.076220331 20:-0.14080508 21:-0.19246743 22:-0.19139358 23:-0.12660945 24:-0.1607354 25:-0.29891361 26:-0.31612756 27:-0.14828483 28:-0.37654254 29:-0.79439212 30:0.073545883 31:-0.068029284 32:-0.48467937 33:-0.35324264 34:-0.46116361 35:-0.48615615 36:-0.7174227
-89.60149661553966 0:-0.47754346 1:-0.55398361 2:0.59707427 3:-0.18198191 4:-0.74389813 5:-0.57351514 6:-0.46455131 7:0.083638185 8:-0.72213495 9:-0.52648851 10:-1.3761001 11:-0.97858927 12:1.0056324 13:0.15012052 14:0.043577486 15:-0.03770406 16:-0.071884233 17:-0.015596567 18:-0.096422134 19:-0.11100278 20:-0.058588 21:-0.15416029 22:-0.036278066 23:-0.06182847 24:-0.16692068 25:0.091650071 26:-0.17584509 27:-0.13936684 28:-0.057746747 29:1.841745 30:1.0286804 31:0.36007044 32:1.4848175 33:-0.01503805 34:0.35034025 35:-0.067228408 36:-0.084515454
-90.5097 0:2.414625 1:-0.22392923 2:-0.44491318 3:-0.83935215 4:-0.69223654 5:-0.65885513 6:-0.55672617 7:1.4051801 8:0.11730275 9:-1.3617191 10:-0.7021528 11:1.115398 12:1.0971837 13:-0.26633934 14:-0.38230762 15:-0.42339958 16:-0.34472729 17:-0.14932257 18:-0.096771701 19:-0.010708502 20:-0.1430114 21:-0.16931242 22:-0.25646656 23:-0.14109751 24:-0.25032863 25:-0.46706099 26:-0.58255963 27:-0.71113853 28:-0.41543928 29:0.91556813 30:1.3682218 31:0.79329712 32:1.6814271 33:3.0529607 34:1.5962397 35:1.5561166 36:2.6453317
-90.5097 0:-0.63654271 1:-0.50238283 2:-0.26935658 3:-0.51144173 4:0.5143016 5:-0.89996032 6:-0.82748982 7:-0.57713279 8:-0.9905266 9:-0.73783915 10:-0.64246713 11:1.8133937 12:1.2997543 13:-0.1545319 14:-0.31440419 15:-0.30779377 16:-0.19374835 17:-0.25117455 18:-0.1747041 19:-0.092611928 20:-0.19987151 21:-0.18425113 22:-0.28657945 23:-0.21898234 24:-0.27432303 25:-0.21345551 26:-0.33421728 27:-0.48721469 28:-0.29380594 29:0.24198495 30:0.37612117 31:0.2831663 32:0.23869572 33:-0.039195521 34:-0.43587819 35:0.29933337 36:-0.27925614
-90.5097 0:-1.1277762 1:-0.60770811 2:0.7740198 3:0.09594635 4:0.75215062 5:-0.44143613 6:-0.47031224 7:-1.8846158 8:-0.84205462 9:-0.12187069 10:-0.15337831 11:1.115398 12:-0.84411277 13:0.012265302 14:-0.23370938 15:0.035938071 16:-0.18297823 17:-0.2171273 18:-0.18754719 19:-0.13260133 20:-0.19958784 21:-0.24763397 22:-0.25565493 23:-0.14395821 24:-0.28436634 25:0.23881034 26:-0.13031395 27:-0.12487288 28:0.028702482 29:-0.72381447 30:-0.94203179 31:-0.80118211 32:-0.91530395 33:-0.89678573 34:-0.97003263 35:-1.2716457 36:-0.76958538
-90.5097 0:-0.85622099 1:-0.66155248 2:0.89870243 3:0.51356893 4:-0.20486746 5:-0.21041335 6:-0.19954859 7:-0.8020761 8:-0.53940021 9:0.05896409 10:-0.23489352 11:0.41740222 12:-0.70223228 13:-0.097257244 14:-0.19156809 15:-0.22098657 16:-0.16778959 17:0.02526013 18:-0.11998067 19:-0.032520902 20:-0.12205132 21:0.035561398 22:-0.1773917 23:-0.14395821 24:-0.1282409 25:-0.29749598 26:-0.19184073 27:-0.35644359 28:-0.20625163 29:-0.65942785 30:-0.76128254 31:-0.5961044 32:-0.74404335 33:-0.027116785 34:0.31004162 35:0.29933337 36:0.27714583
-37.94130636693924 0:-0.96362494 1:-0.50276424 2:-0.12823104 3:-0.10062412 4:0.52158387 5:0.009904959 6:0.071215061 7:-0.57713279 8:-0.35666548 9:0.3980293 10:-0.72398185 11:0.06840435 12:-1.0998815 13:0.0027449136 14:-0.2531471 15:-0.24340834 16:-0.13295437 17:-0.13439973 18:-0.078820549 19:0.079428037 20:-0.12748834 21:0.070027149 22:-0.17476526 23:-0.12660945 24:-0.13233538 25:-0.30317922 26:-0.43580008 27:-0.42935951 28:-0.28891994 29:-0.80429776 30:-0.83127121 31:-0.66275465 32:-0.82349095 33:-1.8268484 34:-0.65040915 35:-0.48615615 36:-1.1347242
-28.92562425372724 0:2.313247 1:5.6415923 2:-1.4529994 3:-1.106065 4:-0.91520445 5:-1.0439266 6:-0.83901168 7:1.3489443 8:-0.4114859 9:-2.0149848 10:-0.31640824 11:-1.676585 12:0.4386042 13:0.088580734 14:-0.05302021 15:-0.28187503 16:-0.053342267 17:-0.17641548 18:0.096518552 19:0.13620443 20:0.028829695 21:0.090727941 22:0.075198306 23:0.19203547 24:0.075151526 25:-0.3157974 26:-0.45822923 27:-0.68404803 28:-0.36602449 29:2.6366722 30:1.1093321 31:0.1755005 32:2.5912104 33:1.1445205 34:0.76675947 35:1.1633718 36:0.91353058
-90.5097 0:3.4999062 1:1.2671111 2:-1.2451815 3:-1.0941417 4:-0.8979049 5:-0.94041732 6:-1.0060786 7:1.8410078 8:0.17440736 9:-1.7154772 10:-0.20800228 11:-0.97858927 12:0.75305527 13:-0.068619917 14:-0.20716801 15:-0.27220693 16:-0.15759151 17:0.020913673 18:0.045499377 19:0.094504255 20:0.082033614 21:0.032360245 22:-0.04705874 23:-0.053154093 24:-0.0029671952 25:-0.23405923 26:-0.48318445 27:-0.71174176 28:-0.35351005 29:2.6094317 30:2.4560699 31:1.5879733 32:2.7451595 33:1.1445205 34:0.85887063 35:-0.093411392 36:0.70835736
-90.5097 0:-0.93136815 1:-0.51985501 2:2.7274937 3:-0.7577428 4:-0.52286445 5:-0.44081483 6:-0.53121758 7:-0.96648711 8:-0.70635545 9:-0.04411082 10:1.1508577 11:0.022053771 12:-0.43019561 13:0.0088137789 14:-0.11643945 15:0.002946624 16:-0.07738614 17:-0.032228257 18:-0.037375174 19:-0.10336185 20:-0.014307052 21:0.013631829 22:-0.094341819 23:-0.023642314 24:-0.08942346 25:-0.013079145 26:-0.21914339 27:-0.16731417 28:-0.12463959 29:-0.66100298 30:-0.55314668 31:-0.45117983 32:-0.58842688 33:-0.52110482 34:-0.77135321 35:-1.1161734 36:-1.0900813
-90.5097 0:-1.0645616 1:-0.42426665 2:2.6931936 3:-0.53298248 4:-0.10016627 5:-0.92172411 6:-0.95165689 7:-1.4629576 8:-1.1365553 9:-0.45653374 10:0.6617694 11:0.022053771 12:-0.26806024 13:0.13561562 14:-0.23665132 15:-0.23725897 16:-0.050299802 17:-0.024206456 18:-0.056490093 19:0.11189029 20:-0.090247676 21:-0.23388182 22:-0.1647502 23:-0.060446731 24:-0.20356529 25:0.0041216102 26:-0.33624428 27:-0.616225 28:-0.051346145 29:0.13243646 30:-0.020276362 31:-0.12517392 32:0.12249189 33:-0.77035664 34:-1.5713733 35:-1.1479558 36:-1.4467733
-90.5097 0:-0.61270997 1:-0.39375748 2:2.4881631 3:-0.49724467 4:-0.49055752 5:-0.45022529 6:-0.53121758 7:-0.96648711 8:-0.70635545 9:-0.25564387 10:1.2323729 11:-0.30023959 12:-0.58156387 13:0.11556576 14:-0.10609902 15:-0.29744757 16:-0.048563049 17:-0.036113817 18:-0.039013399 19:0.094592413 20:-0.075414032 21:-0.045522911 22:-0.090816405 23:0.0050651312 24:-0.12134902 25:-0.081393324 26:-0.25852468 27:-0.37068261 28:-0.21554792 29:-0.65715137 30:-0.53965644 31:-0.28649643 32:-0.55467603 33:0.17533409 34:-0.25960795 35:-0.1309181 36:0.15306407
-90.5097 0:-0.38125758 1:2.6715996 2:-1.3472977 3:-1.0506659 4:-0.88513921 5:-1.0368778 6:-0.98676649 7:-0.26987758 8:-1.0247916 9:-1.0026978 10:0.091078823 11:2.3672666 12:0.93396919 13:-0.17477497 14:-0.34718041 15:-0.33200741 16:-0.2364043 17:-0.083622947 18:-0.19776317 19:-0.17638123 20:-0.19661976 21:-0.054643558 22:-0.32891143 23:-0.22323833 24:-0.28503245 25:-0.20618486 26:-0.1328863 27:-0.12146575 28:-0.15885684 29:-0.31531895 30:-0.22101544 31:-0.093729078 32:-0.23771998 33:0.72797953 34:-0.34659178 35:-0.26933883 36:0.44878735
-90.5097 0:-0.53565879 1:0.46343058 2:-0.82042284 3:-0.98771957 4:-0.66222329 5:-1.5253479 6:-1.4454576 7:-0.037277347 8:-1.5881134 9:-1.1885194 10:1.2322668 11:0.64514974 12:0.82151918 13:-0.21196643 14:-0.33045633 15:-0.23908639 16:-0.27580432 17:-0.18289055 18:-0.074469926 19:-0.084336659 20:-0.15311485 21:-0.090338141 22:-0.21222663 23:-0.19497925 24:-0.21586632 25:-0.39248235 26:-0.47392846 27:-0.43396037 28:-0.37256361 29:1.7912242 30:1.0855787 31:0.36124015 32:1.4388203 33:0.10128405 34:-0.39821186 35:-1.0530791 36:-0.61296164
-90.5097 0:-0.25520266 1:-0.38660562 2:0.34600499 3:0.11136507 4:-0.50284941 5:-0.26749561 6:-0.23618109 7:0.18078537 8:-0.41659297 9:-0.091120195 10:0.25410582 11:-0.38812038 12:-0.044747882 13:-0.2887519 14:-0.21719187 15:-0.21079479 16:-0.18976144 17:-0.19493841 18:0.0092615403 19:0.13869923 20:-0.076607482 21:-0.16540175 22:-0.081698333 23:0.024851382 24:-0.08244715 25:-0.41485511 26:-0.56902004 27:-0.58895284 28:-0.43261527 29:-0.39694358 30:0.26819326 31:0.54972741 32:0.0080001497 33:1.0895346 34:1.177036 35:1.4548897 36:1.0039502
-90.5097 0:-0.26865931 1:-0.31736956 2:0.22277261 3:-0.71483119 4:-0.85528987 5:-0.69520574 6:-0.60551676 7:0.18078537 8:-0.84410344 9:-0.45341385 10:0.41713233 11:-0.043697008 12:0.1439584 13:0.02973001 14:-0.35568168 15:-0.44154 16:-0.21036992 17:0.15657072 18:0.055711217 19:0.11903801 20:0.1151316 21:0.010840252 22:-0.11060446 23:-0.02814857 24:-0.087390868 25:-0.30397351 26:-0.54092438 27:-0.79347196 28:-0.46281478 29:0.29058691 30:1.6265943 31:1.1281883 32:1.7217707 33:1.5234007 34:0.97911895 35:0.59277545 36:1.3613363
-90.5097 0:-0.44685631 1:-0.57370463 2:1.6002424 3:-0.66562294 4:-0.75036202 5:0.010279274 6:-0.04555623 7:-0.50247781 8:-0.11190318 9:0.084183187 10:-0.23497469 11:-0.38812038 12:-0.31329099 13:-0.084439124 14:-0.23444162 15:-0.17419741 16:-0.18353908 17:-0.064957244 18:0.021747114 19:0.12317062 20:-0.021271154 21:-0.20437708 22:-0.079415263 23:-0.0088552254 24:-0.11950208 25:-0.29261544 26:-0.56851382 27:-0.69394796 28:-0.33151727 29:-0.12695444 30:-0.079682469 31:0.13700532 32:-0.080176932 33:0.72797953 34:0.66414932 35:1.0107702 36:0.99007115
