{
    "bias": 0.42562155013621256, 
    "intercept": -0.047391745054468658, 
    "kernel": {
        "parameters": [
            {
                "name": "gamma", 
                "value": 0.0009765625
            }
        ], 
        "type": "rbf"
    }, 
    "modelName": "cStress", 
    "modelType": "svc", 
    "normparams": [
        {
            "mean": 0.68687481729349553, 
            "std": 1.3397364157911702
        }, 
        {
            "mean": -0.061217862437702775, 
            "std": 1.0115662738931166
        }, 
        {
            "mean": 0.27298722585097024, 
            "std": 1.2311770481628233
        }, 
        {
            "mean": 0.16936063370814061, 
            "std": 1.072381714621681
        }, 
        {
            "mean": 0.1458732251961834, 
            "std": 1.0478944959141259
        }, 
        {
            "mean": 0.042967773955176314, 
            "std": 0.43438546079368212
        }, 
        {
            "mean": -0.04432690945043908, 
            "std": 0.59552808181654915
        }, 
        {
            "mean": 0.45071000077153311, 
            "std": 0.30848574740795842
        }, 
        {
            "mean": 0.57435877804612534, 
            "std": 0.61965061898835438
        }, 
        {
            "mean": -0.51316729268936845, 
            "std": 0.37896578379795937
        }, 
        {
            "mean": 0.064884078413807333, 
            "std": 0.59203281030032195
        }, 
        {
            "mean": -0.094668306613330644, 
            "std": 0.80065419642295921
        }, 
        {
            "mean": -0.34432647206729639, 
            "std": 0.75864035319699719
        }, 
        {
            "mean": 0.58337640206250208, 
            "std": 0.29782022387066037
        }, 
        {
            "mean": 0.18119108304661607, 
            "std": 0.48963486227123565
        }, 
        {
            "mean": 0.12904849560898826, 
            "std": 0.54852654157284586
        }, 
        {
            "mean": 0.89632881002405329, 
            "std": 0.69716508356347218
        }, 
        {
            "mean": 0.58222251531481717, 
            "std": 0.39366651949169318
        }, 
        {
            "mean": 0.04995716240453027, 
            "std": 0.4332413263476243
        }, 
        {
            "mean": -0.040278471999067311, 
            "std": 0.39125353346944247
        }, 
        {
            "mean": 0.78728352570405513, 
            "std": 0.90596170119113772
        }, 
        {
            "mean": 0.61106518882935101, 
            "std": 0.38545168895934495
        }, 
        {
            "mean": 0.16048160994632799, 
            "std": 0.43051239620358567
        }, 
        {
            "mean": 0.14387596965826954, 
            "std": 0.40774606208555575
        }, 
        {
            "mean": 0.91202748853627258, 
            "std": 0.79702006991378038
        }, 
        {
            "mean": 0.34920530261287414, 
            "std": 0.20309716892098845
        }, 
        {
            "mean": 0.079431571190811276, 
            "std": 0.35515346283654303
        }, 
        {
            "mean": -0.10300279287482692, 
            "std": 0.32147106245742546
        }, 
        {
            "mean": 0.48448930348512104, 
            "std": 0.55211134343700619
        }, 
        {
            "mean": 0.3198453253503532, 
            "std": 0.30001112375454375
        }, 
        {
            "mean": -0.26213249072260819, 
            "std": 0.40394463784129669
        }, 
        {
            "mean": -0.33976775639034318, 
            "std": 0.37992867802044655
        }, 
        {
            "mean": 0.12326625168826524, 
            "std": 0.7191234514990833
        }, 
        {
            "mean": 0.67483969216347406, 
            "std": 0.44300004082046085
        }, 
        {
            "mean": 0.13091224243106306, 
            "std": 0.62636885503635709
        }, 
        {
            "mean": 0.060840206734764403, 
            "std": 0.67307107129305144
        }, 
        {
            "mean": 0.97795910074532899, 
            "std": 1.0396170544802603
        }
    ], 
    "probA": -1.5007014751122794, 
    "probB": -0.89305451989396567, 
    "support": [
        {
            "dualCoef": -19.200000000000003, 
            "supportVector": [
                -0.34347314909143989, 
                0.24908984744815862, 
                1.4548236520365243, 
                0.45312922769502773, 
                -0.38554485976644504, 
                -1.2424052390980422, 
                -0.94038269552530185, 
                -0.48318407836652816, 
                -1.1053202265603981, 
                -0.90262759078157306, 
                0.93091550824983427, 
                1.041195537256506, 
                -0.36219516042972427, 
                0.71463630650416787, 
                -0.91645502021705338, 
                -0.85707233215177137, 
                -0.78472488316051181, 
                0.44573050931649244, 
                0.11211771699840847, 
                0.49437721859531697, 
                -0.13532310349902568, 
                0.36343796182788846, 
                -0.62688869999402153, 
                -0.61154157760329475, 
                -0.38508543817328822, 
                -0.81899154192938395, 
                -1.0930958599558449, 
                -0.46533362666485911, 
                -0.90890226275421027, 
                0.16512225090970159, 
                -0.4644080824227762, 
                -0.27165595732690273, 
                -0.51585359666176145, 
                0.63596635913762989, 
                0.44317445785171095, 
                0.17713941271568553, 
                0.75689255460752602
            ]
        }, 
        {
            "dualCoef": -19.200000000000003, 
            "supportVector": [
                -0.39097000417516387, 
                1.5394136259183544, 
                -0.73148352041600906, 
                -0.62973618807370368, 
                -0.90288546562470562, 
                0.12169028033913763, 
                -0.025033241180865636, 
                -0.46717183088470093, 
                -0.13804389127585906, 
                0.729924509793341, 
                -1.0017437746204454, 
                -0.12806572257713528, 
                1.1406479347557297, 
                -0.75394474257570498, 
                -0.29600100043207567, 
                -0.21183833895738502, 
                -0.26794041779547872, 
                -0.070669137393476217, 
                0.21836066197866877, 
                0.32308938773117396, 
                -0.058512570419510801, 
                -0.021485574753194441, 
                -0.039713942233078482, 
                -0.082834881235299265, 
                -0.072064145935507251, 
                -0.033329849042675129, 
                -0.15095125225372355, 
                0.13936920541241749, 
                -0.31359755395891614, 
                0.4754258239395987, 
                1.5445148813350613, 
                1.6727851261259123, 
                1.016411210078167, 
                -0.84948642879065273, 
                0.3738349229820831, 
                0.4520036610587449, 
                -0.30239128412312472
            ]
        }, 
        {
            "dualCoef": -19.200000000000003, 
            "supportVector": [
                -0.28158768020518821, 
                2.8714027716095929, 
                -0.69626006021324127, 
                -0.89926171147624923, 
                -1.1147415602096331, 
                0.34969192612318462, 
                0.043296943639893642, 
                0.16757110837981468, 
                0.40171578421963378, 
                0.68968298852708676, 
                -0.50100107032046315, 
                0.34823244625548727, 
                0.45834724670783211, 
                1.4810045430516918, 
                -0.32355408372719169, 
                -0.8722976461687898, 
                0.53823767474895601, 
                -0.3157562149060506, 
                -0.22280570490856302, 
                -0.41846970716734921, 
                -0.062949393462036332, 
                0.40887614401635342, 
                -0.41426738863080997, 
                0.028965046918521573, 
                -0.245509041153948, 
                1.1386525481390335, 
                0.28439725701738622, 
                0.25104667471314096, 
                0.76109906353300671, 
                0.79444097762655874, 
                0.49588452125169047, 
                0.28512199416835526, 
                0.63509871864082812, 
                -0.59420789971350541, 
                -1.0923112895753742, 
                -1.2119380823762784, 
                -0.83977177499655276
            ]
        }, 
        {
            "dualCoef": -19.200000000000003, 
            "supportVector": [
                -0.45541167915703329, 
                0.44456461235332312, 
                -0.5725637851778308, 
                -0.79439539513311574, 
                -0.96276639231723171, 
                -0.19537998433340878, 
                -0.31612119620378887, 
                -0.64539691335773486, 
                -0.41406315931211685, 
                0.73634159289704559, 
                0.62410245294453315, 
                -0.79646997544666176, 
                2.0954523812973727, 
                -0.30604692198473399, 
                -0.26628779116864359, 
                0.023780251314723066, 
                -0.47933171502327521, 
                -0.50640635948049084, 
                0.85626724496730933, 
                0.76293742513860652, 
                0.045421328968097356, 
                -0.52630576152744946, 
                0.46598420298716448, 
                0.34448987077577031, 
                -0.076511999120129515, 
                -0.49464642836866929, 
                -0.71936879013645882, 
                -0.10875690037866177, 
                -0.76845983910281146, 
                0.44555416118054969, 
                2.4251947000414411, 
                2.981455075047116, 
                1.5768359012545337, 
                -0.24815833967445741, 
                0.34763799198016981, 
                0.72790026805803176, 
                -0.10496201484269643
            ]
        }, 
        {
            "dualCoef": -19.200000000000003, 
            "supportVector": [
                -0.027486774239986494, 
                0.039883042777337292, 
                -0.79906738387318654, 
                -0.79080488274545868, 
                -0.47911687002056286, 
                0.68706619784936884, 
                0.88201493409940235, 
                0.31725285061114017, 
                0.66676121480181294, 
                -0.35955385892495312, 
                -0.77183026085902939, 
                1.0016896935365427, 
                0.94880624726149232, 
                0.54800619164419595, 
                -1.431555761728434, 
                -1.4763125075114838, 
                -1.0724540888079193, 
                0.61098635615504981, 
                -0.026267256034046664, 
                -0.24652554732058365, 
                0.39411773195086724, 
                0.29622130755057485, 
                -1.1655146549387692, 
                -1.2567003261790264, 
                -0.34455331915929427, 
                -0.48319072511247202, 
                -0.83918843555033884, 
                -1.2110290478465162, 
                -0.87779663760640381, 
                1.0411886307998672, 
                1.1709723432412569, 
                -0.17478539897068157, 
                1.4053886549690078, 
                0.58274536057757376, 
                -0.37832610307289993, 
                -0.46211240715984925, 
                -0.073066948286714131
            ]
        }, 
        {
            "dualCoef": -19.200000000000003, 
            "supportVector": [
                0.16549064318780121, 
                1.2860014365752963, 
                -0.52731754304721767, 
                -0.48316705641204322, 
                -1.0952450777172913, 
                0.81878134007263137, 
                1.3764377354983319, 
                1.2779387449422852, 
                0.73387543869558847, 
                -0.63411121256408431, 
                -1.1125620630131439, 
                1.2305810998934916, 
                -1.1831142432559372, 
                -0.17550188458083119, 
                -1.4861765762592778, 
                -2.199643645816689, 
                -1.0909285850088548, 
                0.080107033299230537, 
                -0.13856004576852698, 
                -0.11708441844936052, 
                0.18323751091951604, 
                0.052685297071695864, 
                -1.2995787298021684, 
                -1.5066874755379371, 
                -0.47179002604118797, 
                0.47333748368556938, 
                -0.53669208459613427, 
                -1.0112807538890798, 
                -0.13245597457193298, 
                -0.51778918527609452, 
                -1.1025833574657045, 
                -1.3176690061211462, 
                -0.8522995564592204, 
                -1.523340022528288, 
                -1.0667994742176448, 
                -0.88866979288487258, 
                -1.4575143962897832
            ]
        }, 
        {
            "dualCoef": -19.200000000000003, 
            "supportVector": [
                -0.11142767458829531, 
                -0.57384889325824362, 
                -0.59768422862087811, 
                0.10629121265552573, 
                0.21821771435492496, 
                1.4293099818263015, 
                1.6529188552704495, 
                0.1972608911063681, 
                1.1400857188420843, 
                1.4586752866673001, 
                -1.3299866875583748, 
                0.0050046757007098375, 
                -0.96075856260948744, 
                -0.1917359050716132, 
                -0.56841285514820306, 
                -0.68621286155282857, 
                0.07220037528119895, 
                -0.1847836214333716, 
                1.3462268477323616, 
                2.204497870562744, 
                0.49416521093694582, 
                -0.092219668768502239, 
                0.54106722473884239, 
                0.74155545264012401, 
                0.19570732977708352, 
                -1.2342102379164603, 
                -1.0773551787714293, 
                -0.82315800909988412, 
                -1.2166626793744488, 
                -0.91792787434810585, 
                -1.0062962350554108, 
                -0.82362516131410213, 
                -1.0159112220208681, 
                -0.32314144780662851, 
                0.044813709450239221, 
                0.22104486134779114, 
                -0.30069476498364844
            ]
        }, 
        {
            "dualCoef": -19.200000000000003, 
            "supportVector": [
                0.053474746435196265, 
                0.7884066272847936, 
                -0.91276077081450568, 
                -1.1682371950069168, 
                -0.93626723684393554, 
                -0.1902104852616763, 
                -0.69019757661100734, 
                1.3998562167252395, 
                0.91051916424184176, 
                -0.68865307848600754, 
                -0.31049777653126615, 
                -0.31757084008998282, 
                -0.98397026301588875, 
                -1.0936923478679461, 
                -0.64158626997911739, 
                -0.68484097612034434, 
                -0.93283413931044445, 
                -0.3823471232348471, 
                1.3231891628849335, 
                0.88230436509561638, 
                0.35591517730060207, 
                -0.46288421183468437, 
                0.48052990566105297, 
                0.52886912479239578, 
                -0.10047892614705646, 
                -1.3880580999918155, 
                -1.2332360154871302, 
                -0.78958941262755056, 
                -1.4373988951511216, 
                -0.96630927721698434, 
                -0.98890668491687184, 
                -0.8539886007234615, 
                -1.0481717042888736, 
                0.72640111239816496, 
                -0.20969224245453053, 
                -0.59273156099426094, 
                0.46281848505418094
            ]
        }, 
        {
            "dualCoef": -19.200000000000003, 
            "supportVector": [
                -0.14909055238634844, 
                -0.63177615486472016, 
                -0.85408506453822108, 
                -0.56957019267801356, 
                0.6088701108607838, 
                0.64600360004621693, 
                0.94904224157600892, 
                -0.24064969620582144, 
                0.50677643985290077, 
                0.050801777792283953, 
                -0.674089818902324, 
                -0.32187690171291733, 
                0.95768458432285986, 
                3.7804959069033042, 
                0.30898174233901199, 
                -1.1311832303694798, 
                2.4917995088522042, 
                1.0009836424520835, 
                0.3584977592985637, 
                -0.62796289696317953, 
                0.96822885941477566, 
                2.1038175628424929, 
                0.4913539755843403, 
                -0.37833141828692068, 
                0.95384723629738122, 
                0.24190717991943844, 
                -0.47382198171599488, 
                -0.55876589834813284, 
                -0.10104146234636051, 
                0.6260753206427746, 
                1.2532362076071628, 
                0.91400581250986845, 
                1.2193448560129667, 
                0.43805189809995843, 
                0.057990377519803189, 
                -0.11370302846214811, 
                0.22988094407159507
            ]
        }, 
        {
            "dualCoef": -19.200000000000003, 
            "supportVector": [
                0.69822023055810134, 
                0.17233955056338177, 
                -0.52586640997557377, 
                -0.16485114408047799, 
                -0.66326667662158778, 
                0.47034694203795385, 
                0.4063762690288778, 
                0.79611647961688026, 
                0.54814415672165595, 
                -0.54961233053363079, 
                -0.14643166600556065, 
                1.4045938498684991, 
                0.18054008709923811, 
                0.79398714383373126, 
                -0.87456451686445369, 
                -0.67477691349115598, 
                -0.22832657799326206, 
                -0.63374871939280364, 
                -1.0330658746608761, 
                -0.8661485076440929, 
                -0.78702414119071107, 
                0.5365544419876197, 
                -1.4093676233864214, 
                -1.4856591283928327, 
                -0.47635482597350437, 
                -0.19468869391407037, 
                -0.14390920258325471, 
                0.051661207903620672, 
                -0.29901068411489906, 
                -0.22979959282518328, 
                0.29327037554757596, 
                0.014692174309523911, 
                0.075148603522407889, 
                2.0105298289469395, 
                -0.13867813222600392, 
                -0.74416614296906569, 
                0.84034453014143373
            ]
        }, 
        {
            "dualCoef": -19.200000000000003, 
            "supportVector": [
                -0.25797388124809922, 
                -0.64677783213855811, 
                -0.66877198765937651, 
                0.24041531175629927, 
                0.69764714098005975, 
                -0.76378901470714844, 
                -0.24091405284850895, 
                -0.16920613208521862, 
                -0.70290650083607054, 
                -0.74646936461711588, 
                0.34941411771353392, 
                0.25988043641172848, 
                0.14502203328257166, 
                -0.34905767617726469, 
                -0.44029117175518728, 
                -0.25815047179369072, 
                -0.36593149952134113, 
                -0.49317609191911693, 
                -0.062244495873543984, 
                0.029881333794518374, 
                -0.32935932462366391, 
                -0.6560765131651779, 
                -0.39118694480066468, 
                -0.34296235021934768, 
                -0.60053878294751961, 
                -0.83784884621807765, 
                -0.7586083522220467, 
                -0.39724364024323089, 
                -0.55358468050157339, 
                -0.12767056204665903, 
                0.58538091908078294, 
                -0.30451913848798368, 
                0.74366927650403714, 
                1.2938372225537949, 
                -0.12826196951684923, 
                -0.85476821445864526, 
                0.58016527905580995
            ]
        }, 
        {
            "dualCoef": -19.200000000000003, 
            "supportVector": [
                -0.18457546169534692, 
                -0.98219180299598152, 
                -0.46278412558005122, 
                0.48027148858582752, 
                1.1066362048169627, 
                -1.4399079851604284, 
                -1.2322040740828708, 
                -0.70965653262451311, 
                -1.5134922276770029, 
                -1.2721111564843341, 
                1.7250210495766689, 
                -0.22115103697180205, 
                2.043680966135764, 
                0.30363147468004226, 
                -0.78224797857658879, 
                -0.91861457159001314, 
                -0.4666964291609762, 
                1.2902720475704417, 
                0.96043786860354419, 
                0.67343543127875949, 
                1.0594205418161096, 
                0.62674910323360045, 
                0.062024804026618398, 
                -0.48354093011802685, 
                0.57277844705931646, 
                -0.83514175009257352, 
                -0.99469868007406614, 
                -0.62901682408389747, 
                -1.096354326508332, 
                1.0257377093482178, 
                1.7636698444970871, 
                1.6606543002859451, 
                1.0985380038358665, 
                1.0521731606343916, 
                0.80751653554625547, 
                0.85559351463881217, 
                0.76923400910662443
            ]
        }, 
        {
            "dualCoef": -19.200000000000003, 
            "supportVector": [
                -0.04400642275573427, 
                0.72195523431590236, 
                -0.85204466983083116, 
                -0.87490473307639882, 
                -0.93498317369605088, 
                0.47960696372074813, 
                0.55714955635485686, 
                0.97603635901962638, 
                0.68655973867620501, 
                -0.1783950839543943, 
                -0.98242808429905593, 
                0.59025717548715395, 
                0.37373325395109902, 
                -0.14586227263020365, 
                -0.78304299941877531, 
                -1.1476734116671587, 
                -0.014519510912149982, 
                -0.14111226709348837, 
                -0.63263945876634275, 
                -1.3828553721780434, 
                -0.57729697771338928, 
                0.14886919966788728, 
                -1.0536068655048028, 
                -1.8276033169454582, 
                -0.50010259198342966, 
                -0.39510660763450434, 
                0.10370701104004031, 
                -0.18959999727511354, 
                -0.65451237320692757, 
                -0.082317407406237816, 
                0.27897763817786897, 
                0.17932165512744391, 
                0.26918923742238221, 
                1.9484051030432021, 
                -0.12983080388285798, 
                -1.5400633534679766, 
                1.0795085312114763
            ]
        }, 
        {
            "dualCoef": -19.200000000000003, 
            "supportVector": [
                0.44109696789347075, 
                -0.66078735958122947, 
                -0.43935341434362807, 
                -0.6821901523647983, 
                -0.16198922602660387, 
                1.2330450527344408, 
                1.0171829447604102, 
                -0.71054753835014495, 
                0.47662741636185818, 
                2.2088645262340387, 
                -1.0650533116132548, 
                -0.11070924909432735, 
                1.6592847769272223, 
                -0.59743546983489237, 
                0.36971818984333937, 
                0.38797619605920464, 
                -0.0050736419471949599, 
                -0.57634162499572883, 
                -0.34820262728363205, 
                -0.15493823951170835, 
                -0.46453910256745007, 
                -0.03310966269780212, 
                0.034916036953320372, 
                0.083774713040158072, 
                -0.052251052049912955, 
                -0.66400548620999478, 
                -0.30358457241235759, 
                0.17102220438217158, 
                -0.41045419419358536, 
                -0.58710569430492743, 
                1.5736863105384105, 
                0.92766241686672912, 
                0.98380643678236379, 
                -0.85732232632691996, 
                -1.3757953600877679, 
                -1.2346731468495495, 
                -1.1694188658867475
            ]
        }, 
        {
            "dualCoef": -19.200000000000003, 
            "supportVector": [
                -0.17936630451627661, 
                0.70798597188781109, 
                -0.96438714010715432, 
                -1.076272217750434, 
                -0.92517523915376321, 
                0.55512364411974813, 
                0.5814916712247008, 
                -0.046346908721428499, 
                0.4395650929388264, 
                0.18071725838494918, 
                -0.60039506110911023, 
                -1.8144301554650406, 
                1.2749928042128071, 
                1.4088387431529412, 
                0.16420354443094448, 
                -1.5264856338514796, 
                1.268262801024244, 
                0.84020174178979679, 
                1.5154308822363125, 
                0.90425854546855255, 
                0.71898009351824976, 
                1.6824443100068351, 
                1.1574906994335847, 
                0.041448428783607591, 
                1.6978356545682574, 
                -0.29578131810893021, 
                -0.45824804311376854, 
                -1.4019820384401067, 
                -0.23595601623802301, 
                1.5594507200224663, 
                2.0763943306603903, 
                1.5657881901298634, 
                2.276321068455625, 
                1.3305147730441125, 
                -0.41422394386005196, 
                -0.65605679159974495, 
                0.66562405942266656
            ]
        }, 
        {
            "dualCoef": -19.200000000000003, 
            "supportVector": [
                -0.28516162314943916, 
                -0.45987998546595799, 
                0.47701326321450871, 
                -0.19361395812366303, 
                -0.38154125374488845, 
                0.33596355702849179, 
                0.5275531019065226, 
                -0.36796516991933564, 
                -0.12541238673289223, 
                0.57303942902302929, 
                -1.0205746190189691, 
                -0.85680125111834238, 
                -1.1381358189708142, 
                0.17240201902500471, 
                -0.60503064259016071, 
                -0.75400901609916793, 
                -0.45714280208559477, 
                0.030907462469907575, 
                2.2215086583063681, 
                2.8572029619892803, 
                0.96969258870356889, 
                0.24569275350336636, 
                1.2268795349208472, 
                1.5794317442568748, 
                0.78612073782966485, 
                -1.1451716496157973, 
                -1.2816055767214314, 
                -1.0647263521429846, 
                -1.3213757404001951, 
                -0.70093697068655292, 
                -0.85261051305119995, 
                -0.6707460642921047, 
                -0.80744364836699334, 
                0.99330385744288507, 
                0.27441123663236028, 
                0.59540473643171721, 
                0.39431352926914648
            ]
        }, 
        {
            "dualCoef": -19.200000000000003, 
            "supportVector": [
                -0.39121605321216135, 
                -0.66439538348711791, 
                0.48528027285021125, 
                -0.32684332105264147, 
                1.3813071977324805, 
                -0.27340552800418605, 
                0.083229781110261233, 
                -0.56490622583523731, 
                -0.63905878002897554, 
                0.13988414636550961, 
                0.021397163474300873, 
                1.5909411540178988, 
                -0.0086846877865707373, 
                -0.30951351625270479, 
                -1.972167226773226, 
                -1.7638725560202604, 
                -1.0877487537044028, 
                -0.38871316731792166, 
                0.30486353289587309, 
                0.93361918012751399, 
                0.1275643601789456, 
                0.1009300984557223, 
                -1.4875823330276501, 
                -0.94957393839864279, 
                -0.80060188808712318, 
                -0.53789783753381815, 
                -1.0657304226892235, 
                -1.0952940425169269, 
                -1.1010362771383517, 
                0.46217333396142368, 
                0.31984663182707856, 
                0.16173836901482097, 
                0.3559123077839767, 
                0.93620190286873617, 
                -0.51993417809904119, 
                -1.1212372666845152, 
                0.22506727448244468
            ]
        }, 
        {
            "dualCoef": -19.200000000000003, 
            "supportVector": [
                -0.43966674884969043, 
                -0.53257739224809486, 
                0.63533669033204432, 
                -0.24499633398879928, 
                0.31652815054732797, 
                -0.81448265864984337, 
                -0.52905987564274592, 
                -0.9272096174776856, 
                -1.1243461420047993, 
                -0.026017566415487907, 
                0.98131700127892862, 
                0.65946324858575633, 
                0.31084624758706053, 
                0.43328024585877833, 
                -0.54944716727795351, 
                -1.2638277750256408, 
                -0.26271098557765971, 
                0.48437482794614622, 
                -0.32165791676268679, 
                -0.67121201327469637, 
                -0.026792934891701089, 
                -0.030114335521350528, 
                -0.67898787945144612, 
                -0.52685686111834429, 
                -0.54304356733761794, 
                0.86778255296631979, 
                -0.12050420837640584, 
                -0.33134035560700459, 
                0.28519176512999689, 
                -0.3540057644409515, 
                0.2742977957547062, 
                0.41619793466022531, 
                0.0282860155245638, 
                -0.15055454606657845, 
                1.2775655700138651, 
                1.551840787338103, 
                0.56776104037900688
            ]
        }, 
        {
            "dualCoef": -19.200000000000003, 
            "supportVector": [
                -0.32645066915885929, 
                0.11120137517501696, 
                -0.56911022368078712, 
                -0.68994623049330406, 
                -0.61415115134438758, 
                -0.43799782562340012, 
                -0.56006307921336063, 
                -0.24794136302197833, 
                -0.27262797894911178, 
                -0.061081915696581612, 
                0.24201209620351496, 
                0.27643784372126379, 
                0.53201096022081484, 
                -0.72749615096305498, 
                -1.0442887580206315, 
                -1.2606343926026853, 
                -0.84454349026614617, 
                0.63887379507234099, 
                -0.2632677081580645, 
                -0.39584122704081948, 
                0.11345849328316433, 
                -0.58159144116961636, 
                -1.053054423014945, 
                -0.96302496103927915, 
                -0.8418647599811353, 
                1.8814407035449088, 
                0.46679633958467653, 
                -0.7961514831241705, 
                1.1150252869177133, 
                0.05187229885211922, 
                0.62392796945021034, 
                0.24101809780278993, 
                0.2809403412692969, 
                0.59994949660491492, 
                -0.021631794110160786, 
                0.26218189222372656, 
                0.14983923117954445
            ]
        }, 
        {
            "dualCoef": -19.200000000000003, 
            "supportVector": [
                -0.30891637979919773, 
                -0.73809548076415099, 
                0.39200601969195253, 
                0.54789497036713142, 
                0.25373693160733662, 
                0.50557895148807286, 
                0.77450241905111794, 
                -0.64672502346631966, 
                0.070572618790308086, 
                0.084056409538539351, 
                -1.2855255490132023, 
                -0.46886622171244152, 
                0.35324450024594128, 
                -0.2922805757624824, 
                -0.29763464928839617, 
                -0.10212589849678833, 
                -0.4692157454221334, 
                0.28929770487569934, 
                0.75419652516153579, 
                0.70009064360999973, 
                0.55727979401497607, 
                0.12626064710735443, 
                0.31918114418373467, 
                -0.40796005612350261, 
                0.49401949034539405, 
                -0.75923413819744345, 
                -0.82685784730373013, 
                -0.77620827811118465, 
                -0.89844396613495459, 
                -0.37249268385859141, 
                0.6582091242931688, 
                0.59475244168905816, 
                0.074953756545008271, 
                0.98889968206214962, 
                0.68346075189139144, 
                1.0487258700537776, 
                0.65073264288910659
            ]
        }, 
        {
            "dualCoef": -19.200000000000003, 
            "supportVector": [
                -0.4141116826925848, 
                -0.25426379865731996, 
                -0.33053618606188118, 
                -0.57400313340317666, 
                -0.13046082307653828, 
                -0.67724119259076743, 
                -0.57690547657315683, 
                -0.72039129107102184, 
                -0.91963304382131961, 
                -0.017890847569779936, 
                0.71131968887136432, 
                0.53880124447699718, 
                0.59193830603409414, 
                -0.048067833469447679, 
                -0.83483310337704841, 
                -1.1210061224923271, 
                -0.40570119753579165, 
                -0.070839325709296033, 
                0.41492681937024689, 
                0.87794550908325764, 
                0.2101541288707417, 
                0.7119557066037141, 
                -0.37145357155818376, 
                -0.55120848036806913, 
                0.26195102754629462, 
                -0.4377971186044225, 
                -1.0812489168801427, 
                -0.90972904584378245, 
                -0.8649525968507521, 
                -0.30656617125740143, 
                0.77888867705243681, 
                0.98824253021523856, 
                0.35852737174507582, 
                0.65296052616190992, 
                0.49960506595062076, 
                1.3587979708008802, 
                0.34593323766081163
            ]
        }, 
        {
            "dualCoef": -19.200000000000003, 
            "supportVector": [
                -0.28010492904348305, 
                0.33230593306474321, 
                -0.6533586221162746, 
                -0.70811708265584006, 
                -0.81881190446099705, 
                -0.13595654189507178, 
                -0.19277453155087881, 
                0.14488348109637042, 
                0.037512533025518581, 
                -0.11381210922898594, 
                -0.63139742446696701, 
                1.5860253880333961, 
                0.81566837994340491, 
                0.83504213957900542, 
                -0.7733558590769366, 
                -1.0458474238514741, 
                -0.047715041748283581, 
                -0.19019846930357215, 
                -1.1219476897208265, 
                -1.1956950563409621, 
                -0.76926014670364129, 
                -0.62245566904270544, 
                -1.4278466507168037, 
                -1.7344593647569426, 
                -1.080536585272309, 
                1.8800301182946582, 
                0.51197033725597663, 
                1.6532220018778188, 
                1.021149226459853, 
                0.38717967601144215, 
                0.63161680812438403, 
                -0.091993005745333256, 
                0.44797648058688011, 
                -0.46853548035835341, 
                -0.74650079503308409, 
                -0.17501758841558579, 
                -0.82952139208497599
            ]
        }, 
        {
            "dualCoef": -19.200000000000003, 
            "supportVector": [
                -0.458347195440717, 
                -0.83834351075429825, 
                0.90824714476939516, 
                1.2365462874559141, 
                2.1741085694807989, 
                -0.83899376071748777, 
                -0.69299740025129009, 
                -0.7597885710139356, 
                -0.96486706223657326, 
                -0.026200402478259156, 
                0.78733825823049752, 
                0.18648788437787947, 
                0.75550669142618698, 
                -0.23645468208383102, 
                -0.39350164471022947, 
                -0.40332193125548249, 
                -0.27572962881427993, 
                -0.23682204570368665, 
                -0.044402924577675175, 
                0.10166403023086604, 
                -0.35235297090831691, 
                -0.03101023032545544, 
                -0.34138164646791003, 
                -0.55878491256664198, 
                -0.13736541127684157, 
                -0.94810531836584189, 
                -0.61091072550744474, 
                -0.3924168407916383, 
                -0.81233237607771824, 
                -0.1040767328561919, 
                0.37561860414049492, 
                -0.11261050410458494, 
                -0.10269710046157783, 
                -0.080547997086221387, 
                -0.58165847708854679, 
                -0.49903397803203126, 
                -0.48329977270146651
            ]
        }, 
        {
            "dualCoef": -19.200000000000003, 
            "supportVector": [
                -0.48348904650344954, 
                -0.77182139684622619, 
                1.5248736231383904, 
                3.0512427268622777, 
                1.2391569779482179, 
                -0.3307485133354689, 
                -0.12978793821903445, 
                -1.0471666668093504, 
                -0.87768140521602611, 
                0.67479603319859427, 
                0.52467827015883961, 
                0.33348793590793224, 
                0.069123105778759422, 
                1.5653282437600839, 
                -0.11823726615386075, 
                0.28522765254351384, 
                0.59625680729536978, 
                -0.22546970541566372, 
                0.046337595819363787, 
                -0.10980845865760155, 
                -0.28514037601385606, 
                0.21063530327730304, 
                -0.065585465778196017, 
                -0.16590572509942933, 
                0.073506041552043183, 
                1.6633368726327846, 
                -0.47592742742513477, 
                -0.43487426236433901, 
                0.19867887941008955, 
                -0.72381970112343763, 
                -0.22227871107506389, 
                -0.073825111136670424, 
                -0.40871267176333481, 
                -0.70669165741897499, 
                -0.32172952314145581, 
                -0.15427655229567477, 
                -0.50213184188772542
            ]
        }, 
        {
            "dualCoef": -19.200000000000003, 
            "supportVector": [
                -0.14694049707699108, 
                0.37291251128323499, 
                -0.81820770871452941, 
                -0.84520088668457816, 
                -0.82926230919284283, 
                0.58970383415995531, 
                0.8830398448163318, 
                0.47814891671088827, 
                0.41739482536472006, 
                0.15834928313519647, 
                -0.98200224362973032, 
                1.3542555229023596, 
                0.74862731348355216, 
                1.1121455690489213, 
                -0.77528745002017108, 
                -0.16868391708781916, 
                0.13106186794196459, 
                0.49098790165929568, 
                -1.0707353731762457, 
                -1.4553735254726168, 
                -0.28534411681778438, 
                0.3328459179560479, 
                -1.3529334994759936, 
                -1.0875133414923781, 
                -0.64246734151595364, 
                1.471755652064958, 
                1.3817584319054381, 
                -0.61259949531391855, 
                0.66548758932047525, 
                1.1740443624177157, 
                0.15951111109946745, 
                -0.6617930032161855, 
                0.53131866383111603, 
                -0.78673292196105171, 
                -1.3593772114722698, 
                -1.1609465109159114, 
                -1.319910465390306
            ]
        }, 
        {
            "dualCoef": -13.2511558660263, 
            "supportVector": [
                -0.34144703653759895, 
                1.2493720038027067, 
                -0.63701705388078222, 
                -0.52353241856130728, 
                -0.55164014093597002, 
                -0.020921446503102889, 
                0.051861198603107804, 
                -0.080989317816051856, 
                -0.18859837754172679, 
                0.15550028577399147, 
                -0.032935609231627971, 
                1.2981637329420499, 
                2.980828354435082, 
                1.5771234257810545, 
                -0.83416714839996109, 
                -0.39238752395977711, 
                0.043236140397785575, 
                0.56902461081188016, 
                -0.44219287309573679, 
                0.28195250351614748, 
                0.21089047665289912, 
                -0.12576329998868435, 
                -0.9494655260054925, 
                -0.96683470723364939, 
                -0.58770401191720567, 
                1.5498339068499341, 
                4.0416734066442537, 
                -0.081366994282865923, 
                1.255758331567564, 
                1.9951384627968363, 
                2.282312459494328, 
                1.1397626417219013, 
                2.1620663285013095, 
                -0.95465661103095389, 
                0.23463991608067172, 
                0.57199658506014861, 
                -0.51184668184785564
            ]
        }, 
        {
            "dualCoef": -19.200000000000003, 
            "supportVector": [
                -0.26454608924580331, 
                -0.63559897309443436, 
                -0.53204672781506046, 
                -0.62263334874023835, 
                -0.086865749454448998, 
                0.66890230627672742, 
                0.89012158044811029, 
                0.045113780470046362, 
                0.35203071744657105, 
                0.65633953737916684, 
                -1.1139996793289344, 
                -0.30974144971261397, 
                2.7785910906350546, 
                0.60086348966848424, 
                -1.0423521006963545, 
                -0.80079346273723484, 
                -0.64768650510974113, 
                0.55661894882388796, 
                1.4954217543799246, 
                2.879845107939889, 
                0.63238824141168637, 
                0.8622275229052393, 
                0.27106514901544898, 
                1.2012684571968189, 
                0.49772835018741984, 
                -0.34484927905579321, 
                -1.1303429659405555, 
                -1.1816417981571563, 
                -0.97687477127814526, 
                4.28150745598355, 
                3.4306939416326734, 
                5.3367616028424321, 
                3.5367835760385518, 
                1.8929344981676881, 
                0.76177724539608926, 
                0.65988238047960657, 
                1.881290986874296
            ]
        }, 
        {
            "dualCoef": -19.200000000000003, 
            "supportVector": [
                -0.13692772590350008, 
                0.0072778712717356175, 
                -0.74763108434047421, 
                -0.42343217365411223, 
                -0.51074198415000815, 
                0.16026472249790175, 
                0.32728078844565994, 
                0.40209114310034128, 
                0.19827483780044258, 
                -0.3048037975573617, 
                -0.8279444043627191, 
                -0.33512453625143213, 
                2.0518403427670822, 
                -0.26416624736629324, 
                -0.0035840728595174479, 
                -0.2001784814098202, 
                -0.61964237261923194, 
                0.66130358885884455, 
                0.80010857960992476, 
                0.075896753894479183, 
                0.6938788269730044, 
                0.70560108303365288, 
                0.55696225438276536, 
                -0.028093930088942988, 
                0.77714714933559004, 
                -0.24211346035654691, 
                -0.28420954483907607, 
                -0.91950154141986051, 
                -0.63294821771156895, 
                1.6160146777679036, 
                1.5039546767507295, 
                2.834660810456322, 
                1.4732888562928748, 
                0.85327575402707811, 
                -0.92430881130748399, 
                -1.0618562670396872, 
                0.095384054861144499
            ]
        }, 
        {
            "dualCoef": -19.200000000000003, 
            "supportVector": [
                0.22438273731681452, 
                0.93688185237123056, 
                -0.76600571463520284, 
                -0.75506238944082482, 
                -0.86644622266071747, 
                0.39947757209053025, 
                0.21302475996142967, 
                0.83561981564171084, 
                0.74893785805354363, 
                -0.25445685301812671, 
                -0.67727822967283069, 
                0.42266539813129628, 
                -0.18421538603040574, 
                0.49358637260297533, 
                -0.6252422876645537, 
                -0.40495563620925484, 
                -0.48933122566244147, 
                -0.87026125323670023, 
                -0.75090158078232927, 
                -0.082915854507606149, 
                -0.65335231209134836, 
                -0.21890778103484507, 
                -1.0156557893701472, 
                -0.36677189535539123, 
                -0.64541419152955093, 
                -0.28547565496622129, 
                0.0933108584460276, 
                0.26687565105415462, 
                -0.47424800064548833, 
                0.38054903670013068, 
                -0.0082904545344394415, 
                0.34363425354087213, 
                0.11219390322354363, 
                -0.35509163535490779, 
                -1.8628932774577154, 
                -1.5903947247746753, 
                -1.290638042084141
            ]
        }, 
        {
            "dualCoef": -16.852131773405258, 
            "supportVector": [
                -0.50203281056292393, 
                2.2390941977564385, 
                -0.62826868522964363, 
                -0.55936434612252961, 
                -0.55403856373788063, 
                -0.10039059651571422, 
                0.16863639551494203, 
                -1.0568282641271158, 
                -0.74243230158766815, 
                0.98514087158521557, 
                -0.65942844439378168, 
                -0.38053613914835427, 
                -1.044373888659218, 
                -0.71365344560685062, 
                -0.24559388772645216, 
                0.055203800183907047, 
                -0.46627164786768138, 
                0.1669465969727511, 
                -0.3028715662650957, 
                -0.059695109263576067, 
                0.036830444282038396, 
                -0.62447680224439772, 
                -0.41189218860900956, 
                -0.088232935347198491, 
                -0.58051531899969211, 
                0.71157789482907596, 
                -0.30150405319504286, 
                -0.21980511271869618, 
                0.20365839202401348, 
                -0.18165537898143475, 
                -0.63430125017427974, 
                -0.1793726820409732, 
                -0.2192175395188998, 
                -0.40076227239483558, 
                -1.2762997833231551, 
                -1.0888185037864007, 
                -1.1037086963312701
            ]
        }, 
        {
            "dualCoef": -19.200000000000003, 
            "supportVector": [
                -0.43825686613879306, 
                0.41553996424913386, 
                -0.34373675130271314, 
                -0.72749652165015022, 
                -0.62890001970242415, 
                -0.17138725711947606, 
                -0.1922290602813104, 
                -1.0394030920612347, 
                -0.61505634925958397, 
                0.8300731166753057, 
                -0.41575203172821346, 
                -0.99493621488548356, 
                -0.8396279786753521, 
                -0.57569113438120212, 
                -1.6958116249486801, 
                -1.251459062110748, 
                -1.5433329715712647, 
                1.8002153450784419, 
                2.4017196255712796, 
                2.8811168766444362, 
                1.6776810724615603, 
                1.5266356068008291, 
                0.24399447584120762, 
                0.35827444448688212, 
                0.44764482153812057, 
                0.0033641502664503481, 
                -2.2057133660854382, 
                -2.0928681563402933, 
                -1.3537371616086502, 
                2.4118391057789101, 
                0.75764368821121453, 
                0.78555327086985804, 
                1.1964375864530954, 
                -0.42500445211166615, 
                1.0551601930720027, 
                1.1978624300199943, 
                0.37260629839145626
            ]
        }, 
        {
            "dualCoef": -19.200000000000003, 
            "supportVector": [
                -0.34497526024136926, 
                -0.59983967365426727, 
                -0.26344574408130017, 
                0.12317620998600487, 
                -0.36765462374441865, 
                0.36750977393733097, 
                0.40598323458104801, 
                -1.1492974190172018, 
                -0.47944695403258941, 
                0.92954686859510993, 
                -1.8608393347555285, 
                0.0094450597113335064, 
                1.4875790903839219, 
                0.0092203177182000936, 
                -1.4219713984255686, 
                -2.1456112410117916, 
                -0.97586140555023115, 
                2.1770880604978884, 
                1.5187437647431345, 
                2.2586916935329686, 
                1.8529547397981865, 
                2.4902131635152971, 
                -0.12547795054844754, 
                -0.61860074229644868, 
                1.3747057776465044, 
                2.4087319274239509, 
                -1.5695961228195086, 
                -1.779375106955247, 
                0.089119397066313083, 
                1.9788577495304349, 
                1.5705062499895872, 
                0.51486645204150461, 
                1.8290689274997129, 
                0.50420514707980946, 
                0.022662900755362057, 
                0.12519832524126978, 
                0.062860713474982538
            ]
        }, 
        {
            "dualCoef": -19.200000000000003, 
            "supportVector": [
                -0.47615084280703374, 
                -0.47309008988084106, 
                -0.59937945741492915, 
                -0.47354747621589555, 
                -0.19183925277972186, 
                0.12882104085080057, 
                0.40588373198593003, 
                -0.80155484179695313, 
                -0.50098572770595518, 
                0.82112552273783423, 
                -1.8058913000554913, 
                1.0116506564240197, 
                0.25417169480506557, 
                1.0389758960228199, 
                -1.482176881577089, 
                -1.555321079981796, 
                -0.81696938352025528, 
                0.020689777912407201, 
                -0.13723170645817342, 
                -0.10655109678743577, 
                -0.09326425230841888, 
                0.27041488584971718, 
                -1.2949756003412758, 
                -2.2260329879948073, 
                -0.6133759566350705, 
                0.46369615797361563, 
                -1.301911030312831, 
                -1.0639236869785542, 
                -0.14791202594043651, 
                1.0231787475173073, 
                0.39327886965270697, 
                0.81881993211506154, 
                0.66135802316290604, 
                -1.3598421883435687, 
                -2.8001176584179035, 
                -2.5017186561578968, 
                -2.4321684526720078
            ]
        }, 
        {
            "dualCoef": -19.200000000000003, 
            "supportVector": [
                -0.44125105485606947, 
                2.3648605617023994, 
                -0.62159724966977759, 
                -0.90116339422745773, 
                -1.0113434386562472, 
                0.15913746725824524, 
                0.0080274668157779075, 
                -0.45764439911225463, 
                -0.14918208840814645, 
                0.87664537052021629, 
                -0.46183141668646605, 
                0.4976150129603002, 
                -1.1061441638487504, 
                1.8083890624006356, 
                -1.0262142553217608, 
                -1.7537499714258429, 
                0.57529972145701003, 
                0.41937115564644417, 
                -0.090437345965025687, 
                -0.32356211765560788, 
                0.41640855228645085, 
                0.91693300673933775, 
                -0.8949290910984381, 
                -1.1808398083403002, 
                0.80808669314543735, 
                0.57458722994973299, 
                -0.88801326425516114, 
                -0.68170854339332998, 
                -0.55340869152845207, 
                0.48387325717331076, 
                -0.92227372888760883, 
                -0.51371035500699991, 
                -0.39040530261990886, 
                -0.60363336043485383, 
                -0.48200255475720438, 
                -0.21680857037509091, 
                -0.71702675068981503
            ]
        }, 
        {
            "dualCoef": -19.200000000000003, 
            "supportVector": [
                -0.45376686130198873, 
                -0.77760369779027472, 
                -0.14001495267453262, 
                -0.50241146586255958, 
                1.1045494918739216, 
                -0.30868533779580365, 
                -0.220203770625505, 
                -1.2764732457539687, 
                -1.0176661471705961, 
                0.85280854301161835, 
                0.84856222801220116, 
                1.0314156854122178, 
                0.66606840754870633, 
                0.31355966360535892, 
                -0.66196267788429985, 
                -0.95445654778367417, 
                -0.32080972553305664, 
                0.62582087073157411, 
                -0.72371362968110486, 
                -1.2252635695995759, 
                0.29178976343102259, 
                -0.017211744478833609, 
                -1.0189251353929516, 
                -1.6228900237774662, 
                -0.51239654027632775, 
                0.98387620024028821, 
                0.41169008595069745, 
                -0.25877193286248185, 
                0.38159663026523294, 
                -0.070784168797303593, 
                0.56907672381162622, 
                0.71835769454646825, 
                0.34528928412353582, 
                -1.1475858028423898, 
                -0.70613422898992684, 
                -0.66016085625346377, 
                -1.0203311805012039
            ]
        }, 
        {
            "dualCoef": -19.200000000000003, 
            "supportVector": [
                -0.28371677454374983, 
                -0.62735561100510051, 
                -0.1157519110429806, 
                0.071534590797336386, 
                -0.072288307447784597, 
                1.5381986825557805, 
                1.5411049594054786, 
                -1.0239322471196137, 
                0.80044620140420564, 
                2.9473074322183739, 
                -1.4256904165582638, 
                -0.094195170383011756, 
                -0.6653714499930784, 
                2.0659786833253251, 
                -0.24950526570482853, 
                -0.75337617768319221, 
                0.96047105696493196, 
                0.85937735634165968, 
                0.59672531320769162, 
                0.57099911767297185, 
                0.58422740717091237, 
                0.62797260336242644, 
                0.20491303873378669, 
                0.63194158231817521, 
                0.38487300169470939, 
                0.54928365189229844, 
                -0.58412129309216898, 
                -1.3110407711682488, 
                -0.47903784831458773, 
                -0.40133979047135682, 
                -1.0973723831093489, 
                -0.67876584832299502, 
                -0.76820999674738155, 
                -1.1174983070417259, 
                -1.0558316240842363, 
                -0.79832823568257893, 
                -1.226088618712571
            ]
        }, 
        {
            "dualCoef": -19.200000000000003, 
            "supportVector": [
                1.5850791139719924, 
                -0.81192184156054903, 
                -0.52538156269058589, 
                -0.64338205125156644, 
                0.9334066058575089, 
                2.0598810016006639, 
                1.5774549092854737, 
                -1.1434603899261366, 
                0.72616469790223093, 
                3.3750373739266228, 
                -1.5018330641265838, 
                0.35120173680277911, 
                -0.83683070208781074, 
                -1.1028347261235878, 
                -0.75185956019487532, 
                -0.98691820716116363, 
                -0.70598148972189767, 
                0.86308278535925143, 
                0.62084820087807502, 
                0.39143892604613229, 
                0.61752666091885644, 
                0.42711619249141508, 
                -0.091883524223320315, 
                -0.85378948684206624, 
                0.033667275223006679, 
                -0.5040704957155816, 
                -1.4577738249337289, 
                -1.3454989261122103, 
                -1.1970632603178775, 
                -0.70456547190022878, 
                -1.3524244233684335, 
                -1.130421074137407, 
                -1.1378313271862961, 
                -1.2286889450230811, 
                -0.78845461358702473, 
                -0.62401714288720767, 
                -1.1624358044207532
            ]
        }, 
        {
            "dualCoef": -19.200000000000003, 
            "supportVector": [
                -0.145849875587135, 
                -0.60260366979945912, 
                -0.31807303680235754, 
                -0.090813839835658508, 
                -0.23845391269534144, 
                1.9692062526424872, 
                1.8104314103669092, 
                -0.92189489834431748, 
                1.016711996818467, 
                3.3810822515188188, 
                -1.5703330578952244, 
                0.34539671995254662, 
                -0.46779618996966083, 
                0.23016830288577048, 
                -0.34008293750343255, 
                -0.41982856063795365, 
                -0.048356830266663646, 
                0.36413743098214674, 
                0.24556158802229833, 
                1.2202238228337869, 
                0.3545104341197185, 
                0.42397072010329795, 
                -0.099931240074888322, 
                0.43812143775165296, 
                -0.041594581933346753, 
                -0.17046039873242294, 
                -0.10837032663695666, 
                -0.89947429216648067, 
                -0.49072267724064689, 
                -0.56242171192669121, 
                -0.92903330693045028, 
                -0.67114038056013836, 
                -0.80882291519172844, 
                -0.57497230923798015, 
                -0.75452011588574608, 
                -0.81337678839780869, 
                -0.61684700017973615
            ]
        }, 
        {
            "dualCoef": -19.200000000000003, 
            "supportVector": [
                -0.44485395676487516, 
                -0.77067313371728519, 
                2.5441543428949021, 
                2.0934715971200144, 
                0.70124903194555488, 
                -1.1302125256009505, 
                -0.72220758817165831, 
                -0.59765383937358041, 
                -1.1492345625068654, 
                -0.76362630617876737, 
                1.2341904439205142, 
                -0.5750405101225371, 
                -0.6080131971344247, 
                0.38835786289439717, 
                -0.17500325240488784, 
                -0.27886806411345544, 
                0.077603146381269611, 
                0.9179247443947649, 
                2.0127915750542971, 
                2.936079396210006, 
                1.2958251034746351, 
                0.73706445348787475, 
                1.2515034522673594, 
                2.7516907664311376, 
                0.99488579459018134, 
                -0.68959828161637449, 
                -1.7123780234521109, 
                -1.4331870133708817, 
                -1.3590720806716872, 
                -0.80270973948703028, 
                -0.8600853824947271, 
                -0.68925867445503808, 
                -0.8045030599428723, 
                -1.279335669336475, 
                1.1185391972911358, 
                1.1450353237381659, 
                -0.036873965662820044
            ]
        }, 
        {
            "dualCoef": -19.200000000000003, 
            "supportVector": [
                -0.23282435938261445, 
                -0.63098634712485158, 
                -0.12985777762728301, 
                -0.77511328817398706, 
                0.2755651536264675, 
                1.6210484968051746, 
                1.6362080489488695, 
                -0.95326468179479251, 
                0.77761404032372072, 
                2.863611200521766, 
                -1.5848018105606561, 
                -0.31154279008021257, 
                0.33811099389817589, 
                0.63953874973763603, 
                0.57676739825650258, 
                0.52409094664864142, 
                0.70437499635748246, 
                0.67743726536964322, 
                0.70682976956421717, 
                0.79679221382583199, 
                0.4637176678687443, 
                0.060041775490528845, 
                0.78887566557362632, 
                1.2735126738633011, 
                0.55724245588459309, 
                0.15886232218168247, 
                0.18313382493685254, 
                -0.3241421529702499, 
                -0.38114358355155725, 
                -0.15530690716563678, 
                0.28594054749510933, 
                0.45754533739506126, 
                0.27332913966353578, 
                -1.2181391932511807, 
                -1.0795811756965166, 
                -1.1693842753377042, 
                -1.2093194937365084
            ]
        }, 
        {
            "dualCoef": -14.537080687643146, 
            "supportVector": [
                -0.29723343719328227, 
                -0.61469706288198889, 
                -0.35753994096559033, 
                -0.39905433334464963, 
                0.060045012741136383, 
                1.3250826684724284, 
                1.2927435480577596, 
                -1.0414238079136611, 
                0.54903691845397695, 
                2.7589942440492385, 
                -1.2606655041755497, 
                -0.27909136327042927, 
                -0.27106433256362356, 
                0.13504477983467986, 
                0.10005795572254517, 
                -0.090823915187934479, 
                -0.26782004031597356, 
                1.4263442789575771, 
                0.85731362246556486, 
                -0.044134634308365749, 
                1.1052565583198382, 
                1.1685999197145536, 
                0.6002822889020204, 
                0.15297669284394033, 
                0.88615038035512272, 
                0.72309435498131158, 
                -0.069518268860811944, 
                -0.66745595394084833, 
                -0.12639795903639045, 
                -0.34323694792445525, 
                -0.43746555115966945, 
                -0.48723086309370517, 
                -0.28680330401331089, 
                -0.6692331771071014, 
                -0.65551181217647436, 
                -0.79297723532147424, 
                -0.58093081362642152
            ]
        }, 
        {
            "dualCoef": -19.200000000000003, 
            "supportVector": [
                -0.10079778211984362, 
                -0.8098733353294828, 
                -0.57578300456626075, 
                -0.35302853671817869, 
                2.1874215820755674, 
                1.7891010756505288, 
                1.4893236514030377, 
                -0.94485277756600716, 
                0.64375609963623881, 
                3.071185396891928, 
                -1.520124942712977, 
                -0.5187818692179228, 
                0.038818346295290317, 
                1.3778299364360902, 
                0.59692323046869411, 
                0.64215825873165233, 
                1.015590977758065, 
                0.0080865419310057075, 
                1.2282165055340513, 
                1.9420980835379917, 
                0.44105861539631191, 
                -0.45704477858920756, 
                1.1686352403150493, 
                1.1056098478129288, 
                0.92514497657147499, 
                0.038661056975412139, 
                -1.0549529956957084, 
                -0.63526825720740987, 
                -0.48476071545640709, 
                -0.2986125012307127, 
                0.0054890762564579441, 
                0.2785890654623524, 
                -0.10744058610014871, 
                -1.0134531673583584, 
                -1.1710888395447074, 
                -1.1647073422989358, 
                -1.105292930661903
            ]
        }, 
        {
            "dualCoef": -6.9241641722352565, 
            "supportVector": [
                -0.30997928104093675, 
                -0.73304807804425598, 
                -0.077694366440979296, 
                -0.47807613651717829, 
                0.45194473065859392, 
                -1.1859178906820922, 
                -0.85338376276142758, 
                -0.83457316555002647, 
                -1.3010183671575095, 
                -0.77660614519768534, 
                1.4104483968146697, 
                -0.26098942110342122, 
                0.13358814071737299, 
                0.30027066513185657, 
                -0.208604335236934, 
                -0.83108761446419788, 
                1.2397013648864808, 
                0.23813740353952506, 
                0.085500598991693585, 
                -0.59129657380464973, 
                0.10060231630600917, 
                0.23450309582364079, 
                -0.13157300033692326, 
                -0.34521215392044874, 
                0.2335336325893492, 
                0.14334020817940446, 
                -0.6948860585088521, 
                -0.93021223118971008, 
                0.0078975194500824856, 
                0.69093833240070734, 
                -0.001371503532597139, 
                0.15529521268178029, 
                0.33415406160766659, 
                -0.3607987506873791, 
                -0.44870870123187856, 
                -0.034906444082090732, 
                -0.65867696423818956
            ]
        }, 
        {
            "dualCoef": -19.200000000000003, 
            "supportVector": [
                -0.29561314760479501, 
                -0.68911953156072114, 
                -0.68682062792981435, 
                0.37263650927224262, 
                0.99045280669268221, 
                0.6690955744113487, 
                0.68552362449783877, 
                -0.99055707150946937, 
                -0.057335712994223957, 
                1.8627048733822789, 
                -0.97788647045745136, 
                0.65334865045124579, 
                1.3470741814139371, 
                -0.25062779453333717, 
                -0.22448515385437978, 
                0.070107713676031108, 
                -0.54231727881928471, 
                0.12713360461196827, 
                -0.24999695454691201, 
                -0.78221858790326337, 
                0.37820810534623656, 
                0.77237811689437963, 
                -0.37430447526754507, 
                -0.9749608376870651, 
                0.28034103106618696, 
                -0.49433470083304948, 
                0.18122619646450672, 
                -0.26668641266864423, 
                -0.52020154834852728, 
                1.4852917893470798, 
                1.2948523141805195, 
                2.3130296344251255, 
                1.3014921355634976, 
                -0.73847551548792034, 
                -1.0643143169704548, 
                -0.76637721731173625, 
                -1.0072131120195333
            ]
        }, 
        {
            "dualCoef": -19.200000000000003, 
            "supportVector": [
                -0.16045894997264151, 
                -0.62749775339863689, 
                -0.337616228376307, 
                0.051740517348523592, 
                -0.23295922258917817, 
                1.4777929245041455, 
                1.3126821397123469, 
                -1.0134672442720856, 
                0.54810314605217458, 
                2.9529959160820689, 
                -1.367544400402074, 
                -0.28840511074679087, 
                1.2478847036045748, 
                0.36033280721594257, 
                0.25905368679090357, 
                -0.0071125651258999037, 
                0.46951757186734799, 
                0.40490274248565344, 
                0.03109502958274216, 
                -0.40924453472014383, 
                0.48410172852009481, 
                0.8221510024925951, 
                0.13604630112313079, 
                0.1734706299406997, 
                0.66320483054012636, 
                -0.54380974784839109, 
                -0.60308569994480976, 
                -0.047606155734172394, 
                -0.52336234590247166, 
                1.2789419876519861, 
                1.3495650962106214, 
                1.3876669750895803, 
                1.038957821117606, 
                0.091647914604493494, 
                -0.22399732492407676, 
                -0.55666535549220864, 
                0.050325366235716741
            ]
        }, 
        {
            "dualCoef": -19.200000000000003, 
            "supportVector": [
                -0.2947551199200657, 
                -0.70290214636618564, 
                1.1453483635348001, 
                1.0675351951285128, 
                0.25874764256911115, 
                1.5559451096730419, 
                1.304752613424389, 
                -1.1060845829991861, 
                0.44967063423519982, 
                2.9779927059731928, 
                -1.4968917012738607, 
                0.66146199435114328, 
                1.375849159573469, 
                0.42981282371570179, 
                -0.19308755065554509, 
                0.052866863160739262, 
                0.052890424448401419, 
                -0.072095865144815599, 
                -0.62540277238356179, 
                -1.1007800117260802, 
                0.016688543039027153, 
                0.60280209307012256, 
                -0.60920077505709058, 
                -0.28269375534989105, 
                -0.18633402394912696, 
                0.41982062536485965, 
                0.59548815824939416, 
                -0.1221419071435005, 
                0.51308577064827554, 
                0.32798406317061879, 
                1.0412776361252944, 
                0.70811887429452447, 
                1.0083227979159619, 
                -0.73134616764013405, 
                -1.3062515799280667, 
                -1.1024414891145575, 
                -1.1997389670959202
            ]
        }, 
        {
            "dualCoef": -19.200000000000003, 
            "supportVector": [
                0.40656988898551583, 
                -0.32239409246317641, 
                -0.60415125631024302, 
                -0.65280690031931077, 
                -0.23675798270293577, 
                1.343731336221047, 
                1.2796559121401854, 
                -0.96711819352120376, 
                0.51413656496705396, 
                0.82046093035975731, 
                -1.3360492691959778, 
                -0.60891194413614658, 
                -0.38514320576182065, 
                0.4352198126842548, 
                -0.053498648252089102, 
                -0.48833402789321645, 
                0.3942803545668514, 
                0.031285846852869767, 
                0.53642641849948158, 
                0.45938567855082385, 
                0.65081507303730435, 
                0.60343740840595228, 
                0.28126565584734015, 
                -0.3958422330757681, 
                0.87577373166740757, 
                -0.87636440448783803, 
                -0.3726709771415388, 
                -0.82107126976336109, 
                -0.45929708083132165, 
                -0.26521761526359605, 
                -0.30381537729165475, 
                -0.074735287288157842, 
                -0.17827237144800573, 
                -1.2471075712781861, 
                -1.0399296930220394, 
                -0.75760864095043623, 
                -1.3579490391337039
            ]
        }, 
        {
            "dualCoef": -1.2607234028146843, 
            "supportVector": [
                0.10244379503762277, 
                0.67403052513842365, 
                -0.69129974293128016, 
                -1.001026509729696, 
                -0.89048665438160512, 
                0.52898373603972382, 
                0.68449897833036666, 
                0.99309636066049189, 
                0.6614953969889108, 
                -0.29995893371388821, 
                -0.43984141888630673, 
                -0.92179897077273842, 
                -0.5068845688262954, 
                -0.44297447406437085, 
                0.16224804793942951, 
                -0.36536062367271055, 
                0.044420973406913922, 
                0.3264332261035946, 
                1.5145186612041965, 
                3.1032324131096733, 
                0.69525591455083957, 
                -0.51875879841478456, 
                1.0972720972382792, 
                1.3937212773478096, 
                0.29270622004026731, 
                0.3276919293677592, 
                -0.83603651912847743, 
                -1.2154665273480645, 
                -0.12059388123551805, 
                -0.57477152890902228, 
                -0.15413307820015085, 
                0.23800330837696806, 
                -0.29842906684330706, 
                2.6419773394257513, 
                1.8179866575484331, 
                0.65690872345834195, 
                3.382157192448993
            ]
        }, 
        {
            "dualCoef": -19.200000000000003, 
            "supportVector": [
                -0.10806667851338428, 
                -0.13255639163084049, 
                -0.53952005841623996, 
                -0.45429340647550359, 
                -0.83074146339116994, 
                1.1782981096812533, 
                1.464268806939893, 
                -0.042752329871232342, 
                0.69185643077119774, 
                0.27896505050282455, 
                -1.1937176958548723, 
                -0.27590249969705866, 
                0.22489798494043195, 
                -0.031152668464452589, 
                -0.63734545654143415, 
                -0.9617343443586519, 
                -0.25632046763182387, 
                0.91589015875683988, 
                0.70984786204463135, 
                1.6530771322863358, 
                0.60767694522705862, 
                0.69986981455988007, 
                0.023788750395726536, 
                0.831369698240227, 
                0.39602010730041265, 
                -0.70795476269489988, 
                -0.9095278172947433, 
                -1.0822078470046317, 
                -0.91354555269301074, 
                0.67222028265731171, 
                0.62791863438000983, 
                0.22966947620336914, 
                1.0292838127230555, 
                -1.1868332621773272, 
                -1.0276012678870474, 
                -0.90078642797016462, 
                -1.2257676956331178
            ]
        }, 
        {
            "dualCoef": -19.200000000000003, 
            "supportVector": [
                2.0180203970086721, 
                -0.42323168220937352, 
                -0.76004231460743621, 
                -0.8770734226394461, 
                -0.34410533249091629, 
                1.3795738871028191, 
                1.3498605296980242, 
                0.97328848378078503, 
                0.94879381526733819, 
                -0.29767001428747281, 
                -0.71263652341296813, 
                0.047749189618348724, 
                -0.51295774253884152, 
                0.070653526236384906, 
                -0.58005613498663089, 
                -0.61783643816451617, 
                -0.26697702541461532, 
                0.51583720646808118, 
                0.36564397321523007, 
                1.0778048199138317, 
                0.44712782450094002, 
                0.043246872336108771, 
                -0.17654537124236461, 
                0.077941451148858518, 
                -0.069928065884903412, 
                -0.92250750109619128, 
                -1.0153887925652372, 
                -0.52998179555168956, 
                -0.95039273461005869, 
                -0.092396495978026211, 
                -0.53119455393223214, 
                -0.14060485146740181, 
                -0.34266534034195828, 
                -0.44722947352329157, 
                -0.14412872166712185, 
                -0.03751510393047388, 
                -0.44062885397281443
            ]
        }, 
        {
            "dualCoef": -19.200000000000003, 
            "supportVector": [
                -0.4360771950036747, 
                -0.88334913434072448, 
                1.6324863599689996, 
                0.65843267938061534, 
                0.55012770207621353, 
                -1.0131233090997993, 
                -0.78001142713227589, 
                -0.70905287822106722, 
                -1.1850396405528265, 
                -0.30200800445407538, 
                1.3375285479203112, 
                -0.27509533255700336, 
                -0.63448404714785001, 
                -0.57579177722627439, 
                -0.63636037472055096, 
                -0.4863408961157375, 
                -0.30894219174929421, 
                0.2281893974726063, 
                1.0988010132428534, 
                1.0869393088365362, 
                0.58829801758587541, 
                -0.38850925438675943, 
                0.29456071548259211, 
                0.36628608318301609, 
                0.066355347480794524, 
                -1.0880277339523292, 
                -1.3350070596174479, 
                -0.92354832016061583, 
                -1.3562449046832914, 
                -0.53375793244337322, 
                -0.43216588932222594, 
                -0.12764512222189867, 
                -0.3723749043104353, 
                -0.98039161775007344, 
                1.1955116833030186, 
                1.0000021155513463, 
                0.21704385311684399
            ]
        }, 
        {
            "dualCoef": -19.200000000000003, 
            "supportVector": [
                -0.45801855059146745, 
                -0.81098285004348536, 
                3.1657629109696033, 
                1.4419823331896466, 
                1.020253837996431, 
                -1.1928722514724959, 
                -0.77348621619895674, 
                -0.60894287859438034, 
                -1.2724829372285273, 
                -0.59817635823903936, 
                1.1949796063823515, 
                -0.91940073455422677, 
                -0.53167282155332785, 
                -0.35320636355031448, 
                -0.20640356066083215, 
                -0.57336077145261533, 
                -0.50449019935749684, 
                -0.060462367418251853, 
                1.791728083578213, 
                1.6703411602771769, 
                1.064006086741812, 
                -0.24803153416095572, 
                1.0546486614917181, 
                1.2736838243502802, 
                0.26991086123145663, 
                -0.81966058874852799, 
                -1.2804794040245864, 
                -1.0391982426642068, 
                -1.0979995316642301, 
                -0.75917312296146222, 
                -0.060360411864427234, 
                0.037964585580997932, 
                -0.41052845414818845, 
                -0.47646519654101305, 
                0.19585987684597403, 
                0.27734127759294375, 
                -0.24920733728227082
            ]
        }, 
        {
            "dualCoef": -19.200000000000003, 
            "supportVector": [
                -0.46501963961506498, 
                -0.82841951500486344, 
                3.0852147338776925, 
                1.9327837538592512, 
                0.51464104999224591, 
                -1.1379514630556959, 
                -0.76242056095301758, 
                -0.69898806222868981, 
                -1.2577184620675683, 
                -0.42743765177350707, 
                1.3035488406444848, 
                0.71925229257491652, 
                -0.4680219172108423, 
                -0.70375785906930921, 
                -0.8470699601417252, 
                -0.57536904650453202, 
                -0.83115684477338603, 
                0.93557279771497548, 
                -0.3440346335052521, 
                -0.92096890113045438, 
                0.4360035379422012, 
                0.45830861044745774, 
                -0.83910583697350327, 
                -1.0609095132499164, 
                -0.25078959051587191, 
                -0.4035137242379242, 
                -0.35196782676321181, 
                -0.20952353414215494, 
                -0.66050726600986764, 
                0.11596894270722752, 
                -0.50435422370342065, 
                -0.23240708326524032, 
                -0.44598921632780852, 
                -1.2634661306358776, 
                0.38022207853112061, 
                0.45794763262255594, 
                -0.47494742749821722
            ]
        }, 
        {
            "dualCoef": -19.200000000000003, 
            "supportVector": [
                -0.46415649150372862, 
                -0.82711536646240491, 
                0.75341977034144714, 
                2.7486415284236729, 
                1.735662347512307, 
                -1.2750594084543465, 
                -0.86307481342207559, 
                -0.66417650543054929, 
                -1.3234516798094127, 
                -0.60986547478099518, 
                1.2307080897345999, 
                -0.62717957032522353, 
                0.089691461925130472, 
                -0.85479130083258092, 
                0.23644817588129499, 
                0.58642327844887832, 
                -0.17054663782622723, 
                -0.23565573264058257, 
                1.0387163571000759, 
                1.3795236450825699, 
                0.16282530430360637, 
                -0.83973400207395488, 
                0.89180176959090851, 
                0.90341956446080018, 
                0.25259263292675377, 
                -0.82902208031695424, 
                -0.84852343809464692, 
                -0.33155024438617225, 
                -0.84018869584953959, 
                0.046526575648317324, 
                0.51971068343764282, 
                0.011588504534257936, 
                0.18288819404709197, 
                -0.95851676341438552, 
                0.082460322234399072, 
                0.18884130312474753, 
                -0.52699217844175372
            ]
        }, 
        {
            "dualCoef": -19.200000000000003, 
            "supportVector": [
                -0.087227984447795365, 
                1.5641591895095868, 
                -0.63843187474740681, 
                -0.61452860941927534, 
                -1.0174133302986106, 
                0.042959981099505155, 
                -0.033492462044919485, 
                0.74875951911431848, 
                0.26776908576191455, 
                -0.44696326280426174, 
                -0.48300892135461715, 
                -0.27959865010906809, 
                0.16337868617398263, 
                -0.53555342336643275, 
                -0.63015769727817394, 
                -0.72163885262630256, 
                -0.65595099755278086, 
                0.68099071217715401, 
                0.83113908862371166, 
                1.111671339818145, 
                0.68560024598100133, 
                0.47943378299062656, 
                0.13487935647412258, 
                -0.18414998838315327, 
                0.32816972433972663, 
                -0.69730714130437998, 
                -1.0724160018494182, 
                -0.91325341092714796, 
                -0.98462718750419298, 
                -0.0040847074625570525, 
                0.19436543723340674, 
                -0.2798417105654844, 
                0.36721521027562021, 
                -0.098198044849984539, 
                0.12891878888339622, 
                0.90782211646350364, 
                -0.1791984451855706
            ]
        }, 
        {
            "dualCoef": -19.200000000000003, 
            "supportVector": [
                -0.45904332811493292, 
                -0.73568481873466451, 
                1.8234344779527574, 
                1.1633829460567426, 
                1.0453190966195924, 
                -1.2725600076277457, 
                -0.85953235201488021, 
                -0.65518793056228053, 
                -1.3238366509113668, 
                -0.66983056443402966, 
                1.1134018634813985, 
                -0.62286489277378809, 
                -0.53600336063618303, 
                -0.84249920601967987, 
                -0.6435468787670694, 
                -0.54248146703181321, 
                -0.47801082430148617, 
                0.47566581510513112, 
                0.6429868091466816, 
                0.8720047415982628, 
                0.2994168108856754, 
                0.53198140974274544, 
                -0.011104983745036802, 
                0.2733792046803265, 
                0.048541143464117739, 
                -0.59215368765775556, 
                -1.0015058962698342, 
                -0.76190223805133594, 
                -0.67642255842595733, 
                -0.6406297869004689, 
                -0.22428165153664306, 
                -0.079242224549744625, 
                -0.41914928418827158, 
                -0.11306098708916217, 
                -0.0057625884408357272, 
                0.57129025466562056, 
                -0.2937781716283388
            ]
        }, 
        {
            "dualCoef": -0.31323784716406244, 
            "supportVector": [
                -0.21402517949744293, 
                0.88357728477006681, 
                0.051623249920271973, 
                0.85599117623096954, 
                -0.92622057194089358, 
                0.19386516407151994, 
                -0.30605622506115016, 
                0.37844863240034127, 
                0.5338632970336239, 
                0.62310314670660194, 
                -1.417584377541476, 
                1.0126248843502332, 
                -1.4794218087639559, 
                0.81002762546960627, 
                -0.75136839042699533, 
                -0.61455007011990848, 
                0.13715071217585542, 
                0.79394457358028958, 
                -0.24810692492367353, 
                0.053480199552803621, 
                -0.06512243793088579, 
                1.2275939174158712, 
                -0.72546282565237263, 
                -0.1904459079689107, 
                -0.11638926976930096, 
                0.25448206216792185, 
                -0.5494154067984609, 
                -0.080689371731302001, 
                -0.12083671305686078, 
                -0.058722810262692236, 
                -1.1618473880204745, 
                -0.93061148472638244, 
                -0.84127705699041888, 
                1.3161799191932519, 
                -0.32509103825480168, 
                -1.3977064281640517, 
                1.0309335419664749
            ]
        }, 
        {
            "dualCoef": -1.4737756211709072, 
            "supportVector": [
                18.144634036931969, 
                -0.71440458698799725, 
                -0.42470708347426317, 
                -0.21219956904231868, 
                0.012906893618934118, 
                1.0577695166503518, 
                -0.22224589526318364, 
                -0.80558570178875788, 
                -0.55941648674870048, 
                0.56640807028779305, 
                0.50650682368412936, 
                -2.1760460442536065, 
                -1.4653679300446074, 
                1.1492518548054762, 
                0.64579687840885014, 
                -0.069305022226598845, 
                0.42310559823959482, 
                -0.23551325706435502, 
                2.7848339429865927, 
                0.21102484110171882, 
                0.010793530558010496, 
                0.031534195218810374, 
                2.0863416660351048, 
                -0.13041027065542729, 
                0.025638502125139014, 
                0.18751983979450432, 
                -0.034828209321248471, 
                -0.27661020541693798, 
                -0.36752600774564381, 
                -0.7567954126168307, 
                -1.034367600426654, 
                -1.0391732365332047, 
                -0.91100682976770442, 
                0.75805114603483437, 
                -0.10547418642093076, 
                0.0059522544985219101, 
                0.093826641917713213
            ]
        }, 
        {
            "dualCoef": -19.200000000000003, 
            "supportVector": [
                0.51029899488774622, 
                -0.68046666895970154, 
                -0.92064409652449364, 
                -0.28056338813406401, 
                0.23605184005843463, 
                1.5387921399674964, 
                1.8730157850552709, 
                1.7538222174685716, 
                1.8812592511019259, 
                0.14406456480609325, 
                -2.2160173701385117, 
                1.2483480995914944, 
                0.74362472330940843, 
                0.028690944152110254, 
                -0.50938534999675189, 
                -0.49808863808874043, 
                -0.68099911097086152, 
                0.13874877361320589, 
                -0.5212530765302007, 
                -0.40042123060189155, 
                -0.3285827085290583, 
                -0.38707064189731999, 
                -0.74924341077001999, 
                -1.4125157561921382, 
                -0.6489259182506727, 
                2.7955203143181828, 
                1.1717828291547039, 
                -0.10957319035389106, 
                2.3069404114628287, 
                0.10910848129751209, 
                0.60112322731370305, 
                0.51237953294856053, 
                0.30143773052721118, 
                1.5956521020647112, 
                0.30362805393031844, 
                -0.089036665595758901, 
                0.85121875495204935
            ]
        }, 
        {
            "dualCoef": -19.200000000000003, 
            "supportVector": [
                -0.4486383596527253, 
                -0.73354373917071192, 
                1.3414174033616708, 
                0.57986508101471335, 
                0.61949259914649757, 
                -0.78697767541434205, 
                -0.53049292456475916, 
                -0.9386021210520693, 
                -0.91063152747928677, 
                -0.03805076155793935, 
                0.83336734773514187, 
                1.9786967802536604, 
                1.5652090829436898, 
                0.081092603979940101, 
                -1.0495405067862897, 
                -0.8325756080808514, 
                -0.91776957062994191, 
                0.32446169696049471, 
                -0.4834893051180244, 
                0.1390871515464504, 
                -0.26612649461234783, 
                -0.017633115964907853, 
                -1.1267172422564844, 
                -0.63084057630734391, 
                -0.73732464987128399, 
                0.31488404330561859, 
                0.40571431437309885, 
                -0.34932092842271983, 
                0.093672114768840298, 
                2.616007628033505, 
                1.3833590823398514, 
                0.5175920768390937, 
                2.5967129094200998, 
                0.38586130550946435, 
                0.41651465202923027, 
                0.97287888585782223, 
                0.30118278063578641
            ]
        }, 
        {
            "dualCoef": -19.200000000000003, 
            "supportVector": [
                -0.25837183381801626, 
                -0.68254164939967943, 
                -0.7724026790327877, 
                -0.4576811519805708, 
                -0.038283557043828492, 
                -0.29180520016673672, 
                -0.52662446097056648, 
                -0.55004985859666444, 
                -0.26759712464477936, 
                0.17694275758742103, 
                0.21960322421116613, 
                1.9426355728927376, 
                1.0777697472445178, 
                -0.13042255780977161, 
                -1.0059475493542038, 
                -1.0979826415314655, 
                -0.96768616173106048, 
                0.4045550354717819, 
                -0.62628028139076397, 
                0.12219141958058836, 
                -0.32046557879862425, 
                0.43509586142272427, 
                -1.1908888557498867, 
                -1.1473929122824684, 
                -0.62596282934396152, 
                0.79336770655723876, 
                0.36140426375897589, 
                -0.31485359298865645, 
                0.73259716464937774, 
                0.52683684126318631, 
                1.0736743313165915, 
                0.68806855001435208, 
                0.54239352181939238, 
                -0.98203216467846, 
                -0.16692139488581384, 
                -0.058428836660875373, 
                -0.68234702281555581
            ]
        }, 
        {
            "dualCoef": -19.200000000000003, 
            "supportVector": [
                -0.37752503948866267, 
                -0.40790289359038984, 
                -0.073190274475976577, 
                -0.5630090749501695, 
                -0.37474325085430227, 
                -0.5153505663574548, 
                -0.57671506904334358, 
                -0.83697899742894899, 
                -0.82661994245460635, 
                0.20910781835884254, 
                0.64114850498807074, 
                -0.61055299002361085, 
                -0.92993862680414174, 
                -0.8796296602941196, 
                -0.29331489786977949, 
                -0.23813339675193826, 
                -0.65818312158197834, 
                -0.46024819527688293, 
                1.3528602936995024, 
                1.3383829778759551, 
                0.46292491640842037, 
                -1.1369865634344027, 
                0.67795906270521789, 
                0.65468780406813221, 
                -0.35779193903456508, 
                -0.82068492651645597, 
                -1.3843867911966672, 
                -1.1519006789799331, 
                -1.1684416651545682, 
                -0.66302938135013689, 
                -0.34264594752494143, 
                -0.25080818661797277, 
                -0.56496753078279205, 
                -0.50834319494029689, 
                -0.078582967230709247, 
                0.56541580460265983, 
                -0.51610722464424263
            ]
        }, 
        {
            "dualCoef": -1.1249258752124991, 
            "supportVector": [
                -0.38764614759918958, 
                -0.75993864446396153, 
                2.8263281459540379, 
                1.2083477772523266, 
                -0.012288300603397031, 
                -0.71751122498342879, 
                -0.50000318568685942, 
                -1.0124753349433435, 
                -0.95633470653032138, 
                0.2183560525657243, 
                1.3688265939547557, 
                0.87077892242161214, 
                -0.45732757752093173, 
                0.75894287857954068, 
                -0.71113673364354091, 
                -1.6059078214668245, 
                -0.14719126842728128, 
                0.13689122572454807, 
                -0.68715025067615132, 
                0.12096153807169417, 
                -0.57383578550334291, 
                0.44269320165184062, 
                -1.0133335019211014, 
