{
    "bias": 0.28312359657936914, 
    "intercept": -0.1750105725609469, 
    "kernel": {
        "parameters": [
            {
                "name": "gamma", 
                "value": 0.00390625
            }
        ], 
        "type": "rbf"
    }, 
    "modelName": "cStress", 
    "modelType": "svc", 
    "normparams": [
        {
            "mean": 0.7921504976641941, 
            "std": 2.6647880323884174
        }, 
        {
            "mean": -0.055341221349967891, 
            "std": 1.0033923627404242
        }, 
        {
            "mean": 0.19538142522505728, 
            "std": 1.187515164005714
        }, 
        {
            "mean": 0.077933967320120812, 
            "std": 1.032880384067608
        }, 
        {
            "mean": -0.010169332560320142, 
            "std": 1.0198624831814689
        }, 
        {
            "mean": 0.15401292499855698, 
            "std": 0.34678663983635916
        }, 
        {
            "mean": 0.076833114543166575, 
            "std": 0.32946048977794373
        }, 
        {
            "mean": 0.18459198453139838, 
            "std": 0.12420021976823974
        }, 
        {
            "mean": 0.30195296026059509, 
            "std": 0.39035359696341554
        }, 
        {
            "mean": -0.1541947720885169, 
            "std": 0.32015152976279099
        }, 
        {
            "mean": -0.43039327348755241, 
            "std": 0.78384973746726927
        }, 
        {
            "mean": -0.21133053682802716, 
            "std": 0.92350529508883528
        }, 
        {
            "mean": -0.41114675706366527, 
            "std": 0.80482057367249438
        }, 
        {
            "mean": 0.5819768801786287, 
            "std": 0.30175452132436326
        }, 
        {
            "mean": 0.18963879249168056, 
            "std": 0.50576390084501499
        }, 
        {
            "mean": 0.1370116115701685, 
            "std": 0.56203347110922075
        }, 
        {
            "mean": 0.90390264245942409, 
            "std": 0.71422340566186282
        }, 
        {
            "mean": 0.58743890483094419, 
            "std": 0.4352666004020605
        }, 
        {
            "mean": 0.063807799468975107, 
            "std": 0.49971189261985854
        }, 
        {
            "mean": -0.022777797005534391, 
            "std": 0.4594852335218495
        }, 
        {
            "mean": 0.80582783066741381, 
            "std": 1.008201051958183
        }, 
        {
            "mean": 0.61130659910410612, 
            "std": 0.40346357811385963
        }, 
        {
            "mean": 0.17422796603957669, 
            "std": 0.49201848308255813
        }, 
        {
            "mean": 0.16424346064747969, 
            "std": 0.46571748532414392
        }, 
        {
            "mean": 0.92271194808106816, 
            "std": 0.87438485446961745
        }, 
        {
            "mean": 0.34173454893450972, 
            "std": 0.20372471801907649
        }, 
        {
            "mean": 0.073880413031810963, 
            "std": 0.35358509872035698
        }, 
        {
            "mean": -0.10730262773097624, 
            "std": 0.31320376023100288
        }, 
        {
            "mean": 0.47229952088269628, 
            "std": 0.56054839537183165
        }, 
        {
            "mean": 0.32635248282514212, 
            "std": 0.31118689365253888
        }, 
        {
            "mean": -0.25575180678624665, 
            "std": 0.4155672359419002
        }, 
        {
            "mean": -0.32889674212324144, 
            "std": 0.39676314589184575
        }, 
        {
            "mean": 0.13817887115569258, 
            "std": 0.73624492025883304
        }, 
        {
            "mean": 0.65016096082750008, 
            "std": 0.48855730976288997
        }, 
        {
            "mean": 0.13749901500296022, 
            "std": 0.6695562557581225
        }, 
        {
            "mean": 0.074070251876408436, 
            "std": 0.69069771427584581
        }, 
        {
            "mean": 0.91670816894580454, 
            "std": 1.1254932417360286
        }
    ], 
    "probA": -1.9200523555875599, 
    "probB": -0.37273669756120392, 
    "support": [
        {
            "dualCoef": -4.525483399593905, 
            "supportVector": [
                -0.21372754547877504, 
                1.2024647228077876, 
                -1.1612979119111073, 
                -1.258426917187637, 
                -0.82666384840463958, 
                -1.2895455438568326, 
                -1.2126742058752555, 
                1.6903056174507163, 
                -0.30746186537961201, 
                -1.6439976314049356, 
                1.2246475419973173, 
                1.0280014699128805, 
                -0.239508584618006, 
                0.6997785902470206, 
                -0.90241946548671503, 
                -0.84877776083335055, 
                -0.77884729026759769, 
                0.38817335715146895, 
                0.065334259981517914, 
                0.3781575401051358, 
                -0.14301090717576923, 
                0.34665685088013531, 
                -0.57922427093108608, 
                -0.58207049383328768, 
                -0.3647688996432607, 
                -0.78671434281116748, 
                -1.0743551172360295, 
                -0.45636349001206888, 
                -0.8725054827974823, 
                0.1316058146811537, 
                -0.45668446921697797, 
                -0.27705730468016238, 
                -0.51996079212747159, 
                0.41287997282172101, 
                -0.14189150491284838, 
                -0.045715485912509818, 
                -0.019846417786984847
            ]
        }, 
        {
            "dualCoef": -2.6694404817264608, 
            "supportVector": [
                -0.12725512000565231, 
                0.96500213381167843, 
                -1.0291460815213576, 
                -0.78401475844412005, 
                -0.93385042359851578, 
                -0.98883182382652135, 
                -1.3004741029382298, 
                1.7825333435249835, 
                0.17895642044630197, 
                -1.7257894598512742, 
                0.96984528627997257, 
                0.032639408645522935, 
                0.35217788662810723, 
                0.3580124532891707, 
                -0.38698247537965003, 
                -0.7898545850097598, 
                0.072498790512982303, 
                -0.12384972251299899, 
                0.072337272319134227, 
                -0.085414226908232666, 
                -0.38203103767363539, 
                0.1806893049986357, 
                -0.19803920220874083, 
                -1.3289330120134024, 
                -0.2381248294498709, 
                -0.21147257403035613, 
                0.20122684437176952, 
                0.31298020187794445, 
                0.32732975741368397, 
                -0.12595555759923427, 
                0.24053650263274939, 
                0.28567976072194773, 
                -0.26876478672395082, 
                2.5168593667130001, 
                1.7121125189636315, 
                1.7515396182088605, 
                2.150871199475163
            ]
        }, 
        {
            "dualCoef": -4.525483399593905, 
            "supportVector": [
                -0.14145330689052815, 
                1.020959279195903, 
                -0.52058204221112714, 
                -0.51606830538066706, 
                -0.61257214241971136, 
                -0.76902527349056893, 
                -0.89079525961595352, 
                -0.23225682254758837, 
                -0.86733016154570874, 
                -0.75742319894916699, 
                0.78564925361238502, 
                1.133341113632321, 
                0.91669526064197449, 
                0.5454991953042384, 
                -1.402605675271279, 
                -1.455001796197779, 
                -1.0574441706754858, 
                0.54060771616978254, 
                -0.050490489181412176, 
                -0.24800506775758849, 
                0.33575769960462581, 
                0.28239870760826324, 
                -1.047755075727173, 
                -1.144002784949165, 
                -0.32628695317832251, 
                -0.44503148917044227, 
                -0.82721110634361927, 
                -1.2292667225256531, 
                -0.84283837426301145, 
                0.98288526904815166, 
                1.1228683948549827, 
                -0.19476859339242578, 
                1.3524511930642349, 
                -0.53733573370142385, 
                -0.67338643402390685, 
                -1.0099275705767214, 
                -0.57712217078514227
            ]
        }, 
        {
            "dualCoef": -4.525483399593905, 
            "supportVector": [
                -0.16576596946244559, 
                1.4170135838759084, 
                -0.6191649557568224, 
                0.19909478099730038, 
                -0.46693336917494566, 
                -0.4926778752919318, 
                -0.49312123448697881, 
                -0.5771513643622358, 
                -0.63690479060355243, 
                -0.33746008599258626, 
                0.19850154278000817, 
                1.4188224898348494, 
                -1.1781106012180242, 
                -0.16857572986299244, 
                -1.4554846074277039, 
                -2.1609496589175063, 
                -1.0754774269166232, 
                0.060466544975596365, 
                -0.14784634138813596, 
                -0.13778542335473681, 
                0.14626235696234291, 
                0.049734914260816672, 
                -1.1650601122222644, 
                -1.3628721186872885, 
                -0.44226587080964302, 
                0.50855025137100496, 
                -0.52337300081935179, 
                -1.0242458880529277, 
                -0.10871615005573065, 
                -0.52010440066327357, 
                -1.087100425358958, 
                -1.289160203328594, 
                -0.85273419339695211, 
                -1.0211912613927439, 
                -0.83434164916144893, 
                -0.70784627343038309, 
                -1.0150950232842737
            ]
        }, 
        {
            "dualCoef": -2.5309332828732622, 
            "supportVector": [
                -0.20103996419656298, 
                1.0391777496196002, 
                -0.99230878212757823, 
                -1.1957960101672349, 
                -0.72481043874693452, 
                -1.2524515597788668, 
                -1.4580103021921953, 
                1.438377156659107, 
                -0.61618759036044746, 
                -1.7699564589605838, 
                1.7540399317038451, 
                -0.44915129804483422, 
                1.6389070574204945, 
                1.6334912512671915, 
                0.9155950409685385, 
                0.35587740372047127, 
                1.3011418121735456, 
                0.61690960932995065, 
                -0.16469648644175011, 
                -0.040566016173704776, 
                0.37860588659142497, 
                -0.40469767083657737, 
                0.50807245866186168, 
                0.55890373208289734, 
                0.0053701683616725502, 
                0.15437070498115127, 
                0.47651484957416407, 
                0.047451739411857853, 
                -0.024156054697728583, 
                0.4375518407049257, 
                1.8141614922702838, 
                -0.33073098669585826, 
                2.2110344146857823, 
                -0.26189848159748835, 
                -1.2386304175035845, 
                -1.5764616883900635, 
                -0.64469695317366482
            ]
        }, 
        {
            "dualCoef": -4.525483399593905, 
            "supportVector": [
                -0.20191782527741842, 
                0.17826753867947687, 
                -1.0133695682661308, 
                -1.2649350395558927, 
                0.1347616046274541, 
                -1.6165963587885903, 
                -1.7064009166357379, 
                0.97999586042496667, 
                -0.8193924830433359, 
                -2.0477126554620799, 
                2.0484849690769944, 
                -0.40922896292046579, 
                0.9573685039066171, 
                3.7358434739347546, 
                0.28242530392298321, 
                -1.1181667525257051, 
                2.4216817408471423, 
                0.89333148171012489, 
                0.28309393823919704, 
                -0.57280051265361598, 
                0.85164953754682371, 
                2.0092981536896972, 
                0.40199225866588584, 
                -0.37497118416630609, 
                0.85723229031759451, 
                0.2778328403741504, 
                -0.46022403094596254, 
                -0.55978648539050424, 
                -0.077774470993793213, 
                0.58268007658669507, 
                1.2028315007610431, 
                0.84782573499019631, 
                1.1707338661885058, 
                0.16927275843799292, 
                1.4736114717158846, 
                1.5203388122860892, 
                0.83547105832209856
            ]
        }, 
        {
            "dualCoef": -4.525483399593905, 
            "supportVector": [
                -0.21166010897020399, 
                4.5073588433404099, 
                -0.98254176539445226, 
                -0.89588213374013603, 
                -1.1727364646356855, 
                -0.89759942310845042, 
                -0.76561480514505342, 
                -0.46164800742712675, 
                -0.85527360755478765, 
                -0.77665338272102824, 
                0.97798025832721658, 
                0.29392649034961904, 
                0.19133373529361575, 
                -0.3398686883924818, 
                -0.44295295949819913, 
                -0.2661149364723569, 
                -0.3677959792345924, 
                -0.45802573625977139, 
                -0.081682116470232422, 
                -0.01264349131987667, 
                -0.31435321197792249, 
                -0.62738552893465149, 
                -0.3702242727177753, 
                -0.3440047749619059, 
                -0.55962305364081255, 
                -0.79859712927426418, 
                -0.74627360153000499, 
                -0.39400069825560796, 
                -0.5235062690007124, 
                -0.14399625170208416, 
                0.55365481087420332, 
                -0.31899779325590688, 
                0.7061201824566935, 
                -1.0395315304183868, 
                -1.4489491609293896, 
                -1.191583608619128, 
                -1.4650660735788283
            ]
        }, 
        {
            "dualCoef": -4.525483399593905, 
            "supportVector": [
                0.066613455155720286, 
                -0.24384990575806259, 
                -0.64510607028570754, 
                0.24176485573090284, 
                -0.35866705016473532, 
                0.99491923932430038, 
                0.28682882828788342, 
                1.3141200771297692, 
                1.1777828348279706, 
                -0.10434513361105169, 
                -0.34014124412154018, 
                -0.17354214317410435, 
                2.0007732711862301, 
                0.2967405535193538, 
                -0.77074259755252561, 
                -0.90672757112397073, 
                -0.46751249757366492, 
                1.1512159392082866, 
                0.79812515463094713, 
                0.52869895330507155, 
                0.92829814407615419, 
                0.59532003517937049, 
                0.023307412468303406, 
                -0.4695839220477791, 
                0.50635541371995441, 
                -0.79320268431300622, 
                -0.98016776181209486, 
                -0.62853653257758135, 
                -1.0552258308139577, 
                0.96197866664059695, 
                1.6828342668894016, 
                1.5470689327413945, 
                1.0417437289741809, 
                1.3490329530059124, 
                1.9578937539115757, 
                2.7805726154274528, 
                1.7113319513526173
            ]
        }, 
        {
            "dualCoef": -4.525483399593905, 
            "supportVector": [
                -0.2090395369813319, 
                1.2929936441959959, 
                -0.83745969613943805, 
                -1.176911541212883, 
                -0.79654417283354484, 
                -0.89720401748638567, 
                -1.0510110993131276, 
                0.77830562338875153, 
                -0.29310058104869996, 
                -1.2332044181627917, 
                1.5306910612524953, 
                -1.692247574921834, 
                1.2707177147206772, 
                1.3879391741290359, 
                0.14380090419493227, 
                -1.4988642573090425, 
                1.2238688579461079, 
                0.74508024512789484, 
                1.2796076132192788, 
                0.72595041166155527, 
                0.62345972124678406, 
                1.6041693179837331, 
                0.98254322574279174, 
                -0.0090094627941746941, 
                1.5325807554811259, 
                -0.25491991402936137, 
                -0.43998696428720563, 
                -1.4235440809705533, 
                -0.20595689439316514, 
                1.4745269616545784, 
                1.9873641470382599, 
                1.4581738703002947, 
                2.1892369331640507, 
                -0.81657786018865164, 
                -1.4564173361134745, 
                -1.3200052011446028, 
                -1.3355447712612314
            ]
        }, 
        {
            "dualCoef": -4.525483399593905, 
            "supportVector": [
                0.66433163263514294, 
                3.3400177720427791, 
                -0.75703287617845094, 
                -1.7584311975625515, 
                -1.4497725250489821, 
                -0.3604024701587682, 
                -1.91195277913831, 
                1.3180939895523238, 
                0.036692184799701023, 
                -1.785534457707356, 
                1.1115228987288881, 
                1.7785466987548622, 
                0.050140998438155268, 
                -0.30217633283905282, 
                -1.9365376115703437, 
                -1.7450757021810719, 
                -1.0809121682234855, 
                -0.36478472524405692, 
                0.2234144565495276, 
                0.74216890059270391, 
                0.08880486201332892, 
                0.099748563435319834, 
                -1.3514414798805279, 
                -0.89698485846574172, 
                -0.75219713381288034, 
                -0.50367241663071649, 
                -1.0498346006538426, 
                -1.1031834714095055, 
                -1.0607038077967432, 
                0.6657395648902148, 
                0.37425061742133098, 
                0.14995536143499746, 
                0.48561962918698909, 
                -0.57125849039985677, 
                -1.5489689521499348, 
                -1.4097239192131952, 
                -1.2841148242011127
            ]
        }, 
        {
            "dualCoef": -4.525483399593905, 
            "supportVector": [
                -0.18366977853669686, 
                0.3487414727517405, 
                -1.024938169866606, 
                -1.2133840865101033, 
                -0.077299565912971713, 
                -0.32847106810921411, 
                -0.54815465931207907, 
                1.3052806599851605, 
                0.42423537637149555, 
                -0.65832754823043382, 
                0.11825018614548835, 
                0.30775247604543776, 
                0.58510285066973389, 
                -0.71334508815455544, 
                -1.0533862517125292, 
                -1.2676411111012875, 
                -0.85315355694960393, 
                0.56655548164280078, 
                -0.28686764067403359, 
                -0.40886337685569885, 
                0.068601531022366311, 
                -0.55027873213370615, 
                -0.99569696516847828, 
                -0.93525743269497019, 
                -0.80188756011317963, 
                1.896925136414108, 
                0.4930568071103692, 
                -0.78558280452736273, 
                1.1188055184121182, 
                0.15054947402835198, 
                0.66188069227150015, 
                0.2098832064799703, 
                0.34542196137139269, 
                0.70672345836825068, 
                0.27660285708680354, 
                0.64242195584266693, 
                0.44973040707784484
            ]
        }, 
        {
            "dualCoef": -4.525483399593905, 
            "supportVector": [
                -0.26165771691433909, 
                -0.60197040544243929, 
                0.097715393910236467, 
                0.086325877572295873, 
                -0.22684684250476742, 
                -0.31976232616707179, 
                -0.36517090944670455, 
                -0.17027758518182942, 
                -0.20493479774655016, 
                -0.099341105161023374, 
                -0.14108582864994049, 
                0.60682264876744185, 
                0.64483079544432231, 
                -0.042831800847731104, 
                -0.84356717160122974, 
                -1.1250140097170236, 
                -0.41984346802044087, 
                -0.075485924957667136, 
                0.30752897899837323, 
                0.6829260419421328, 
                0.1586425473477393, 
                0.68837084621223366, 
                -0.38481756194201666, 
                -0.5606889977722993, 
                0.21376236459612774, 
                -0.40277696995982715, 
                -1.0569584122825688, 
                -0.90421967903258826, 
                -0.82304800770777431, 
                -0.24724480704416071, 
                0.81305673306676041, 
                0.98959522102335973, 
                0.41237367208618664, 
                0.35590437446701312, 
                1.567472233228131, 
                2.1099169249123682, 
                0.96576578279306236
            ]
        }, 
        {
            "dualCoef": -1.6482071397177029, 
            "supportVector": [
                1.0484420460234873, 
                0.41481901571583485, 
                -0.88501794213694207, 
                -0.98848918114340334, 
                0.036386566642028481, 
                -0.49253975164816505, 
                -1.3406085971440522, 
                1.3065561841922142, 
                -0.38121854373619157, 
                -1.7073212001760807, 
                0.94088780930184601, 
                -0.99603450156138795, 
                -0.042332423453914275, 
                0.46272866280880004, 
                1.1897058293274756, 
                1.3437578262317063, 
                1.0016281062585672, 
                0.41184315902065916, 
                0.81815213993613511, 
                0.63784067207069084, 
                0.70845653391893637, 
                0.10806524441652697, 
                1.3755384396763717, 
                1.5080365385410515, 
                0.8029551454519962, 
                1.1764048127763853, 
                -0.031386121053457013, 
                -0.098796789529353335, 
                0.28482381610114255, 
                -0.16302108657129927, 
                0.13538355761842191, 
                0.014497051539005042, 
                0.521978326747087, 
                2.9715790517112328, 
                3.3799806595064354, 
                3.8979667869590369, 
                3.0234968517305063
            ]
        }, 
        {
            "dualCoef": -4.525483399593905, 
            "supportVector": [
                -0.20879554200913911, 
                -0.07979458874025859, 
                -0.24209180850245185, 
                -1.1182976055635392, 
                -0.11883947446040147, 
                -0.88373386133248222, 
                -0.96237143828768512, 
                0.53116681278533562, 
                -0.47704428382924463, 
                -0.97960207663807997, 
                0.83189782511101695, 
                0.66413132041185774, 
                -0.23850640357450964, 
                -0.53825660701985834, 
                -0.15013174050850772, 
                0.27392137875844963, 
                -0.4124819824603348, 
                -0.48975765759767664, 
                0.01435237702695639, 
                0.20010582868621202, 
                -0.22298411710497409, 
                -0.83183004187248277, 
                -0.11064676315310121, 
                0.14388967600351579, 
                -0.38937016166463684, 
                0.062553669136120968, 
                -0.28277546156887384, 
                -0.24901756568303565, 
                -0.36336571259179384, 
                -0.6856449407922508, 
                -0.31871574151252885, 
                -0.086843208084895082, 
                -0.45137129816338428, 
                0.49012622232459446, 
                -0.85463005110167256, 
                -1.5649959698715799, 
                -0.024845080753824699
            ]
        }, 
        {
            "dualCoef": -1.355087423295779, 
            "supportVector": [
                -0.16425560801555145, 
                1.1535381272280443, 
                -0.9663254728090801, 
                -1.009799845638554, 
                -0.76174297733016183, 
                -1.1097137005321107, 
                -1.1591433195403542, 
                1.5609820296603329, 
                -0.48900608152032488, 
                -1.7654163228715103, 
                1.4914522166642945, 
                0.25112245412964773, 
                0.59491991453430859, 
                1.2353741208637732, 
                -0.3103192611902364, 
                0.15682855852907479, 
                0.5261239697617045, 
                0.57550146168693328, 
                -0.040780596885461588, 
                0.23151773007059789, 
                0.4044229358620392, 
                -0.1919476340519824, 
                -0.25657313936083931, 
                0.7251479751105403, 
                -0.26025724957338703, 
                3.8400523987289876, 
                1.3183429032707696, 
                0.47308654557682855, 
                2.5564900343218246, 
                -0.18145394719989991, 
                0.21539512782924955, 
                -0.41915585087738749, 
                0.47007259249372096, 
                0.5880022120117866, 
                -0.34334659884653274, 
                -0.24100427232330285, 
                -0.063674551542101693
            ]
        }, 
        {
            "dualCoef": -4.525483399593905, 
            "supportVector": [
                -0.16786496584173069, 
                -0.46603161760812262, 
                -0.48362819749696745, 
                -0.82097404425800047, 
                1.0692659616737676, 
                -0.80331885992662211, 
                -1.1469323494280517, 
                1.1731118119246382, 
                0.023329965096520019, 
                -1.3169277938305195, 
                0.8108243671825538, 
                -0.50825971176634555, 
                2.8950253418657397, 
                0.59766733602240296, 
                -1.0258138942712778, 
                -0.79571699476892988, 
                -0.64282162311339675, 
                0.49143640829071222, 
                1.2687868282024666, 
                2.414112181213079, 
                0.54986574449858294, 
                0.82313661681397077, 
                0.20924122624758515, 
                1.0080037935737856, 
                0.4414703925238932, 
                -0.30711618703260624, 
                -1.1196570834587678, 
                -1.199103769266807, 
                -0.94042524087146784, 
                4.1068333269371395, 
                3.3193900253811979, 
                5.0829261419376897, 
                3.4342802556108332, 
                1.4562884395718267, 
                1.1665208263950433, 
                1.1003905057912859, 
                1.2489678926482568
            ]
        }, 
        {
            "dualCoef": -4.525483399593905, 
            "supportVector": [
                -0.080558912217005882, 
                0.21596935096681064, 
                -0.60436656498154584, 
                0.55587128219382331, 
                0.40332799951389087, 
                -0.43809431554683398, 
                -0.91667395608390034, 
                1.6222474039152976, 
                0.27548420733212664, 
                -1.1368244631451281, 
                0.54831611605722708, 
                -0.50552879249725879, 
                2.1039729834721324, 
                -0.25608408022083712, 
                -0.020172646661733254, 
                -0.20953614352147606, 
                -0.61544728923380221, 
                0.58611593998171618, 
                0.66596266789477632, 
                0.026538824878165279, 
                0.60512071114850996, 
                0.67350247618986814, 
                0.4593989990373919, 
                -0.068330439277661636, 
                0.69616646793497083, 
                -0.20469683346823894, 
                -0.26977054804347089, 
                -0.93004407859117033, 
                -0.60167527191054893, 
                1.5370673757882158, 
                1.4465378675268821, 
                2.6869882727881813, 
                1.4187723666165533, 
                0.67481425528138061, 
                1.7017505219053364, 
                1.7414947899010067, 
                1.1906379372380429
            ]
        }, 
        {
            "dualCoef": -4.525483399593905, 
            "supportVector": [
                -0.28965332600293986, 
                -0.31959517354108202, 
                -0.69946882414829215, 
                -0.29262387031586717, 
                1.0500907933686783, 
                -0.87406861293119897, 
                -0.75199783605686843, 
                -1.1234940908022533, 
                -1.0959797805868157, 
                -0.19296943650021053, 
                1.0669042553638779, 
                0.99291047852091452, 
                0.34940100394029244, 
                1.0244011962863702, 
                -1.4476468784108132, 
                -1.5279312210064078, 
                -0.80758959452371004, 
                0.00019433475165517809, 
                -0.14849378545184633, 
                -0.1300130939325998, 
                -0.10649500397416788, 
                0.25179139593681243, 
                -1.1582098826813914, 
                -1.9870489649746386, 
                -0.57288576767486088, 
                0.48849580341319282, 
                -1.2904785999044228, 
                -1.0756254395681755, 
                -0.12971479956989551, 
                0.99551081427497379, 
                0.39527524639799116, 
                0.78917102774383141, 
                0.65592327720772758, 
                -1.3307772657071484, 
                -2.7873367782098959, 
                -2.6101867377956394, 
                -2.3505142746280816
            ]
        }, 
        {
            "dualCoef": -2.392681242820804, 
            "supportVector": [
                -0.17744452394573124, 
                -0.51234549438653365, 
                -0.66155998961221962, 
                0.22757388717687668, 
                0.49796924107895651, 
                -0.44915460400903562, 
                -0.65035164679526192, 
                -0.75089101235204891, 
                -0.78393676586911343, 
                -0.3732893881787141, 
                0.13425462788350562, 
                0.49465897613625809, 
                -1.2862949895557363, 
                -0.11757543542024849, 
                -0.6489497613108941, 
                -0.79366282990121695, 
                -0.021215149118448164, 
                0.80446996889370781, 
                -0.18980762205857676, 
                -0.30866939463168336, 
                0.54470566103831186, 
                1.3287978998632834, 
                -0.5619236517938474, 
                -1.2736113014313706, 
                0.53310103102079909, 
                -0.79037632824501047, 
                0.38967268355509155, 
                -0.89022523646007201, 
                -0.78724510486372656, 
                0.97030256541951143, 
                -0.80944638264155933, 
                -1.0398509375029639, 
                0.0098968832155168027, 
                -1.1708878054589646, 
                -0.67213550055961779, 
                -0.59245498357824466, 
                -1.0177543425226312
            ]
        }, 
        {
            "dualCoef": -4.525483399593905, 
            "supportVector": [
                -0.21642412396364819, 
                -1.0315149984573764, 
                0.99343890895384512, 
                2.8562092395410708, 
                2.1411997238836471, 
                -0.18882438279518116, 
                -0.21085112741972672, 
                -1.0821371309803549, 
                -0.50580913744955669, 
                0.34281083566278087, 
                -0.439222776991752, 
                0.36161655492641076, 
                -1.5230696743878247, 
                -0.26009680725923701, 
                -0.84096250637236458, 
                -0.85321705141487381, 
                -0.38216971529550336, 
                0.29538137617133892, 
                0.38287456919703144, 
                0.4485730357560892, 
                0.22064455172642283, 
                0.38189225101197199, 
                -0.25779458385691117, 
                0.15870526415557987, 
                -0.024395836034943899, 
                -0.40362931749911685, 
                -1.3506527974792812, 
                -0.84892120819693517, 
                -1.1118422727480974, 
                -0.53347472590060707, 
                -1.8578224933127083, 
                -1.6216899304743613, 
                -1.4248895975357179, 
                -1.2583354019990136, 
                -0.82322013983263276, 
                -0.73807269228016004, 
                -1.1121812273739533
            ]
        }, 
        {
            "dualCoef": -4.525483399593905, 
            "supportVector": [
                0.77825945597538604, 
                -0.79733862819423151, 
                -0.34780096422061368, 
                0.059196099091580731, 
                1.3314107323160245, 
                -0.17268204300442197, 
                -0.73186438059614889, 
                -1.0283642396946073, 
                -0.98042907708873239, 
                -0.28353851974530819, 
                0.44626181656355102, 
                0.05795809107508005, 
                -0.92755149609730969, 
                -1.0838179381943418, 
                -0.74458529171261523, 
                -0.97736874258832063, 
                -0.69972430579824252, 
                0.76861033288659708, 
                0.51054710666770164, 
                0.29522425980866923, 
                0.53651124271590955, 
                0.40745003123070855, 
                -0.1083360770195249, 
                -0.79124534446593509, 
                0.018469023593788377, 
                -0.46584694219178013, 
                -1.4485402966705898, 
                -1.3672860572958023, 
                -1.157299579459933, 
                -0.70017292149042076, 
                -1.3299539281266073, 
                -1.1098571102937431, 
                -1.1316258866743909, 
                -0.89776690746392851, 
                -0.6016183795011093, 
                -0.51419935085115454, 
                -0.81907107614489316
            ]
        }, 
        {
            "dualCoef": -4.525483399593905, 
            "supportVector": [
                -0.29125535725344776, 
                0.053805156890928484, 
                -0.57189610815516911, 
                -0.73295522476693531, 
                1.7425516477127445, 
                -0.75987869370613415, 
                -0.64708499295057997, 
                -0.79114290285498301, 
                -0.83110339666880595, 
                -0.13935241396589304, 
                0.24322358267411817, 
                -1.6387504309176464, 
                -0.67176216890038809, 
                0.38793237310662632, 
                -0.18612519137106012, 
                -0.2863346384101334, 
                0.065145403003414704, 
                0.81821083776263004, 
                1.7173372642268379, 
                2.4619959049601672, 
                1.1460249996591227, 
                0.70356122235632157, 
                1.0671172162272848, 
                2.365433160263521, 
                0.89463979392712323, 
                -0.6508032324201567, 
                -1.7042738190497106, 
                -1.4572887525224294, 
                -1.3168699362617811, 
                -0.79479249773022087, 
                -0.85138464171475514, 
                -0.68741301728985404, 
                -0.80604921045361644, 
                -0.87492797386355969, 
                -0.40339878877986862, 
                -0.31043363510732214, 
                -0.60882404487238995
            ]
        }, 
        {
            "dualCoef": -2.6523132124774551, 
            "supportVector": [
                0.339895347698912, 
                -0.74688238127918505, 
                -0.4083026750326999, 
                -0.71482918278488827, 
                1.0101140778909998, 
                -0.087555786422012935, 
                -0.66620086207639007, 
                -1.0273970863731645, 
                -0.84699777168797796, 
                -0.30216364394045769, 
                0.38690468656084809, 
                -1.0417575986142782, 
                -0.48797602197736345, 
                0.50228542353617633, 
                0.10701822176047145, 
                -0.65276440054021978, 
                0.28485940205938254, 
                0.46483606595113641, 
                0.58718154800329558, 
                0.74566563405353392, 
                0.18899411311588393, 
                1.1389089394925567, 
                0.42287475207634567, 
                1.472987989763149, 
                0.42749485641439289, 
                -0.39696281638218656, 
                -0.50365365491940084, 
                -0.73047273320708883, 
                -0.62907221658398094, 
                -0.51231232949894323, 
                -0.76141193949861807, 
                -0.57923459635259622, 
                -0.69618126946956749, 
                -0.92403143531553311, 
                -0.35505474987232111, 
                -0.29263304687562802, 
                -0.59633217625040891
            ]
        }, 
        {
            "dualCoef": -4.525483399593905, 
            "supportVector": [
                -0.25897240379680242, 
                0.96918288841883959, 
                -0.89140501414131457, 
                -1.0818218701282469, 
                -0.24035862959626564, 
                -1.1589463213465092, 
                -0.99044076651607149, 
                -0.78437798455357943, 
                -1.1180581155118989, 
                -0.83060011269589318, 
                1.1313562087520173, 
                -0.85337821815936743, 
                -0.31881391069341303, 
                0.13792200449604955, 
                0.080164190952625725, 
                -0.10280961370020465, 
                -0.27202778805909372, 
                1.2780387878696435, 
                0.71555842298201555, 
                -0.07566838731370798, 
                0.97478157254046005, 
                1.1158315816302173, 
                0.49730369673831226, 
                0.090200936045035388, 
                0.79552519122932441, 
                0.75753777714575354, 
                -0.054126986195351993, 
                -0.67134551528266029, 
                -0.10274931628454181, 
                -0.35182092231020745, 
                -0.4405846556998434, 
                -0.49395714799196094, 
                -0.30038862784013548, 
                -0.99342983119145178, 
                -0.45379593638480253, 
                -0.5096772434599065, 
                -0.65051162241658367
            ]
        }, 
        {
            "dualCoef": -4.525483399593905, 
            "supportVector": [
                -0.12371236156414958, 
                -0.68011210355987195, 
                -0.65019180683096978, 
                -1.0685921404207637, 
                0.75687898863552017, 
                -0.61286031637398353, 
                -0.72074015539790426, 
                -0.78683571074810021, 
                -0.96248231579041976, 
                -0.46459636927907522, 
                0.63046530907059306, 
                -1.1930256019422592, 
                -0.010320097092016967, 
                1.3645036375987671, 
                0.56118420831887317, 
                0.61255734852209376, 
                0.98073058217761711, 
                -0.0046706747026931273, 
                1.0371246281893602, 
                1.6156167997934991, 
                0.37793841597964928, 
                -0.43723919997118388, 
                0.99460816682495101, 
                0.92425254413613323, 
                0.83106958068637671, 
                0.075212792274567578, 
                -1.0439327130243237, 
                -0.63830819459620514, 
                -0.4557182026794428, 
                -0.30879908985969684, 
                -0.010018597848377509, 
                0.23936941237694973, 
                -0.12519701262243835, 
                -1.0200754494393016, 
                -0.63786013773551442, 
                -0.61676636954260111, 
                -0.86996618478926402
            ]
        }, 
        {
            "dualCoef": -4.525483399593905, 
            "supportVector": [
                -0.088851509783011776, 
                -0.33842624822453526, 
                -1.0645291691959462, 
                -0.93562324631410054, 
                0.12799639371703012, 
                -0.94685240151797245, 
                -0.97581487664977185, 
                -0.33485846824426224, 
                -1.095809246921547, 
                -1.0018827136066033, 
                1.2132625781153765, 
                -0.77209222709998959, 
                0.084164711020607796, 
                0.30099366265204741, 
                -0.21865472053900525, 
                -0.82528310983300202, 
                1.1994883763513282, 
                0.20339335298019517, 
                0.046410253965831441, 
                -0.54157899028792711, 
                0.072007007451539318, 
                0.22343579189500398, 
                -0.14306406398188348, 
                -0.34597452836068615, 
                0.20065138563637247, 
                0.17956949214537965, 
                -0.68226866084095439, 
                -0.94103748689963396, 
                0.029524823926846536, 
                0.64521363903591644, 
                -0.016687300716614624, 
                0.1213068579789684, 
                0.3061282956887203, 
                -0.44902601176252138, 
                -0.19397649097677741, 
                -0.50147761158168047, 
                -0.30061601330961746
            ]
        }, 
        {
            "dualCoef": -0.51611902626451256, 
            "supportVector": [
                0.095444548950273697, 
                -0.70733755775564233, 
                -0.23968091034781408, 
                -1.1508181748466644, 
                0.5933593023821635, 
                0.27064213581299024, 
                -0.38672005528868209, 
                -0.66679884088734886, 
                -0.4892500984050614, 
                0.008785763392412653, 
                -0.078400162716410135, 
                0.72190572967164945, 
                -0.49502344423071648, 
                0.25460844584893166, 
                -0.58781099850605523, 
                -0.63171502214412023, 
                -0.32853336491833163, 
                0.32376630037634085, 
                -0.15435847255268167, 
                -0.79965241042356905, 
                0.51852586595487116, 
                0.80318771501355724, 
                -0.49532082393186222, 
                -0.14751720210017852, 
                -0.2464462376937937, 
                -0.58831224771883484, 
                -0.41423703338018369, 
                -0.57342368037434921, 
                -0.68896849331836041, 
                0.31321218129217809, 
                -0.85382930518688283, 
                -0.47971249764411167, 
                -0.42510111130650213, 
                -0.3344844795877715, 
                0.18859286542374715, 
                -0.087228341384183561, 
                0.1913065423328896
            ]
        }, 
        {
            "dualCoef": -4.525483399593905, 
            "supportVector": [
                -0.24166276956495047, 
                0.1359465022249309, 
                -0.62697677760900106, 
                -1.0864180402780657, 
                -1.0366326419418241, 
                -1.436262010400255, 
                -1.4434999956403978, 
                -0.65433813115985795, 
                -1.4051351913925976, 
                -1.2453879958480913, 
                1.932311981411424, 
                0.71769224096139317, 
                1.2872313101930517, 
                -0.24622162248677812, 
                -0.23706634566815565, 
                0.051165901718542538, 
                -0.54341878166330193, 
                0.10305585777235056, 
                -0.24037623339721889, 
                -0.69973309417231899, 
                0.32353206875986901, 
                0.73443294201973353, 
                -0.35415428871509863, 
                -0.89527122886625488, 
                0.24239471976980342, 
                -0.45548843325173222, 
                0.20087277700197936, 
                -0.25701637290316121, 
                -0.48859199215942356, 
                1.3979603523887714, 
                1.2155185893721194, 
                2.154681769753227, 
                1.2295338999067627, 
                -0.41687737876844977, 
                -0.26049833381585824, 
                0.061219268230617983, 
                -0.5157202950585833
            ]
        }, 
        {
            "dualCoef": -3.3078810924541084, 
            "supportVector": [
                -0.14280274341960594, 
                -0.70871658575005614, 
                -0.67760790456139341, 
                0.55729172809866889, 
                -0.32981731401232145, 
                -0.19143207249086763, 
                -0.49583087167845963, 
                -0.67125045269127237, 
                -0.70187366758342296, 
                -0.11516452073394676, 
                0.10568396518388978, 
                -0.55562189330247869, 
                1.1946119722292419, 
                0.354819334139719, 
                0.22951384780754333, 
                -0.024452292150444685, 
                0.44140494301384575, 
                0.3545363162191959, 
                0.003218125955991023, 
                -0.38234277184160093, 
                0.41880143360991923, 
                0.78188566259460313, 
                0.091434666549103316, 
                0.10850888152460079, 
                0.59069342242908485, 
                -0.5052265341675326, 
                -0.58777434520729122, 
                -0.032541978185134206, 
                -0.49217708614335659, 
                1.2010699479446025, 
                1.2697935633807489, 
                1.2746280495946749, 
                0.97559419299771089, 
                0.17974443871511475, 
                0.22820389105188862, 
                -0.24707968335562808, 
                0.44475783347786635
            ]
        }, 
        {
            "dualCoef": -4.525483399593905, 
            "supportVector": [
                -0.20621697923401877, 
                -0.19741873208187707, 
                -0.99707597067889187, 
                -0.60199815069565377, 
                -0.61799574892224618, 
                -0.2134586233885308, 
                -0.19922169687046767, 
                -0.85772362135294355, 
                -0.48104957098090789, 
                0.02894618150132881, 
                -0.22229149793931363, 
                -0.51749831684609882, 
                0.20260448319463972, 
                -0.030405353446935433, 
                -0.63638006765276467, 
                -0.95410569810597912, 
                -0.26536743662215106, 
                0.81653589717128139, 
                0.59106503928284615, 
                1.373206309641426, 
                0.52939831427142003, 
                0.66530783196361754, 
                -0.0071578927129409163, 
                0.68327826094267563, 
                0.3472363868381152, 
                -0.66873880039411904, 
                -0.89569125056360765, 
                -1.0948331792619852, 
                -0.8765354272233491, 
                0.61952195259361331, 
                0.57260445661785342, 
                0.17187145864685102, 
                0.9670470756597046, 
                -0.58338963167045532, 
                -0.53574384288999954, 
                -0.23599923675524986, 
                -0.71232223400432348
            ]
        }, 
        {
            "dualCoef": -4.525483399593905, 
            "supportVector": [
                -0.29409873151605948, 
                -0.69835138618917536, 
                0.21562589398137669, 
                0.35195155522533028, 
                1.1940474264088423, 
                -0.56989088577843605, 
                -0.37816463045929755, 
                -1.0606492236497833, 
                -0.63351692199296705, 
                0.13639597424674915, 
                -0.17032099589958277, 
                -1.3566489705183442, 
                -0.52800952949082547, 
                -0.34728747472780014, 
                -0.21998068201871873, 
                -0.57586926194794974, 
                -0.506857290739124, 
                -0.066615335013684995, 
                1.5284735148029525, 
                1.3872346241750175, 
                0.93913697485505276, 
                -0.23904172458621881, 
                0.89350018255884167, 
                1.0698355460268179, 
                0.23235740481264452, 
                -0.77994978750547306, 
                -1.2682005860412553, 
                -1.0504633698561441, 
                -1.0580422150821016, 
                -0.75413677856872652, 
                -0.092589938627901852, 
                -0.010053142926709295, 
                -0.43240726536820884, 
                -0.77385962465430935, 
                -0.34075432523803839, 
                -0.53747371214055562, 
                -0.4363395818450761
            ]
        }, 
        {
            "dualCoef": -4.525483399593905, 
            "supportVector": [
                -0.29410811409956344, 
                -0.16517186577793108, 
                0.44126432239358898, 
                0.20727557871986593, 
                1.135461192340218, 
                -0.39588935406502723, 
                -0.21904122878117721, 
                -0.85562222034648816, 
                -0.49689536352728947, 
                0.17348682478921923, 
                -0.45125161240559059, 
                0.81062352113170433, 
                -0.46352016540865165, 
                -0.69241691313438858, 
                -0.83887243361048858, 
                -0.57777848054042635, 
                -0.82494472777280248, 
                0.8341635524005685, 
                -0.32345218545210347, 
                -0.81953463601177112, 
                0.37464837150775498, 
                0.43509142015462127, 
                -0.76168673658386221, 
                -0.97188550610184932, 
                -0.2417130228414277, 
                -0.36501192779745834, 
                -0.33515449715254253, 
                -0.19848437547684769, 
                -0.6269999977047741, 
                0.085898571093298487, 
                -0.52170743548192278, 
                -0.26723106820860126, 
                -0.4665607134094315, 
                -1.0539020283162532, 
                -0.73242977521577912, 
                -0.56730933387693916, 
                -0.97820623087573944
            ]
        }, 
        {
            "dualCoef": -4.525483399593905, 
            "supportVector": [
                -0.15591616940282144, 
                0.42366766050080978, 
                -0.86951201370626374, 
                -0.90665976262046299, 
                0.099970883351142958, 
                -0.63499836511380792, 
                -0.7484936227585175, 
                -0.59074785414454734, 
                -0.7764590365345454, 
                -0.40724444921055653, 
                0.50667767103622552, 
                -0.45227124961117465, 
                0.16468129590613728, 
                -0.52754083085709391, 
                -0.63011180966085401, 
                -0.7208395796442667, 
                -0.65529580946666488, 
                0.60252830991180528, 
                0.69494456377098957, 
                0.91078993969304212, 
                0.59800588348323425, 
                0.45550710011040629, 
                0.089079917112966256, 
                -0.20570345831886977, 
                0.28528574192420497, 
                -0.6583974473266927, 
                -1.058718347381862, 
                -0.92054811221873267, 
                -0.94628470645571261, 
                -0.028750821788878882, 
                0.15938205647879794, 
                -0.30771222001585713, 
                0.32745392343240187, 
                -0.59067224670521867, 
                -0.80829135919900974, 
                -0.60446677531068571, 
                -0.87868492914054097
            ]
        }, 
        {
            "dualCoef": -4.525483399593905, 
            "supportVector": [
                -0.28657810114689802, 
                2.6706389198751062, 
                -0.92836802273331265, 
                -0.77444545849101776, 
                -0.99884023303228087, 
                -0.81170313475003963, 
                -0.57241160905918032, 
                -0.81923854398555596, 
                -0.77378494748640414, 
                -0.21619837256439212, 
                0.3926193929841576, 
                -0.8819677043167774, 
                -0.50901906873495661, 
                -0.82967412852044975, 
                -0.64299912803917725, 
                -0.54640123988163725, 
                -0.48199347985090407, 
                0.41696882251988898, 
                0.53185308037127632, 
                0.7067676714336748, 
                0.25119450567092139, 
                0.50569338618531012, 
                -0.038555321734154574, 
                0.19446011934121926, 
                0.030648344334111916, 
                -0.55350778678513235, 
                -0.98745141615118515, 
                -0.76515778904346143, 
                -0.64263803121483465, 
                -0.64008476999765074, 
                -0.24587169537364101, 
                -0.11621728176256629, 
                -0.43761404148552602, 
                -0.123907428660462, 
                -0.092492957072771262, 
                -0.58570145337552282, 
                0.11158446809451346
            ]
        }, 
        {
            "dualCoef": -2.1919961377116106, 
            "supportVector": [
                9.8866433016276485, 
                -0.55880801144005998, 
                -0.9928931940590362, 
                -1.1702627023872376, 
                -0.099602982585171515, 
                2.0081366054115057, 
                -0.14885803535669986, 
                -0.96264506409637662, 
                -0.50584689306718134, 
                0.32364063553811273, 
                -0.36459391415070025, 
                -1.7506592407449824, 
                -1.3446269275973066, 
                1.1213787550094405, 
                0.55958285600911439, 
                -0.12169573692730119, 
                0.36220557362798961, 
                -0.23458242834736637, 
                2.3635880218294516, 
                0.13902464094492048, 
                -0.016254965037037342, 
                0.017709287088617673, 
                1.7548788895887473, 
                -0.187135410206547, 
                -0.011780955398113665, 
                0.20248730085615349, 
                -0.058997485303302843, 
                -0.30582879435038063, 
                -0.36955190808836247, 
                -0.71973663413848765, 
                -1.0466031954360868, 
                -1.0637287946001905, 
                -0.90387517630334113, 
                -0.36001629959714537, 
                -0.69744139080717271, 
                -0.58426063207134105, 
                -0.68584421970074116
            ]
        }, 
        {
            "dualCoef": -4.525483399593905, 
            "supportVector": [
                -0.26381771027041817, 
                -0.10344631879914376, 
                -0.89950167202387898, 
                -0.64629064095510469, 
                -0.51960609180057493, 
                -1.085010144461654, 
                -1.0059853650889954, 
                0.11942106669633415, 
                -0.76814144757654401, 
                -1.0425475113695348, 
                1.3327715948390431, 
                1.858507151505796, 
                1.6180468379001118, 
                0.078199452362423164, 
                -1.0465080398013447, 
                -0.83912415278265606, 
                -0.91883285988644647, 
                0.27581804576772345, 
                -0.44437366629467701, 
                0.081777605830445646, 
                -0.25870784534673996, 
                -0.021601939812368503, 
                -1.0216120360264278, 
                -0.60555287613223041, 
                -0.69075809709132185, 
                0.3403410024727162, 
                0.4058581912732056, 
                -0.3573289022499555, 
                0.10024325964481291, 
                2.6404129910063969, 
                1.4160776136951796, 
                0.51562088364197844, 
                2.6553065100452944, 
                0.97887254219081965, 
                -0.46701520003202818, 
                -0.59017944785192122, 
                0.10278151366915024
            ]
        }, 
        {
            "dualCoef": -4.525483399593905, 
            "supportVector": [
                -0.27481899641185403, 
                -0.033627265088284036, 
                0.94890892697561424, 
                0.035509412251442898, 
                -0.40258168389141447, 
                -0.38454402326141257, 
                -0.2373512754040249, 
                -0.9073961953111418, 
                -0.58768112793458904, 
                0.25370976428586167, 
                -0.17065855140053104, 
                -0.39267926810592285, 
                -0.7919005693175083, 
                -0.86610519295628285, 
                -0.31274100102323193, 
                -0.25727809082341724, 
                -0.6629771208644446, 
                -0.43048196841221298, 
                1.1431760003896865, 
                1.100169094128592, 
                0.39521561161809071, 
                -1.0876702720850442, 
                0.55624873152749477, 
                0.52010491179850027, 
                -0.34382396258425058, 
                -0.78494631243057933, 
                -1.3814556694474982, 
                -1.1753070485998534, 
                -1.1350231768113592, 
                -0.64886875008618006, 
                -0.33260647291874251, 
                -0.25352647767916708, 
                -0.55853474068532416, 
                -0.17732048102191234, 
                -0.80135394932859849, 
                -0.98640220644252197, 
                -0.3845227828171241
            ]
        }, 
        {
            "dualCoef": -4.525483399593905, 
            "supportVector": [
                0.059832447938086633, 
                -0.28611015652619454, 
                -0.66834688510347617, 
                -0.77267512791778092, 
                0.091123826182723106, 
                0.12857453090554441, 
                0.039785587809810979, 
                0.84859904619362914, 
                0.3454498024190365, 
                -0.56005784067739284, 
                0.17642186858403722, 
                0.66015857415662083, 
                0.98238071439211772, 
                0.1534488503830998, 
                -0.89672124756661897, 
                -1.5913990321202449, 
                -0.17361351209108364, 
                0.20587842185246782, 
                0.11791486470307258, 
                -0.097640710318486909, 
                0.089026855462744109, 
                0.58911725926142466, 
                -0.49365246578858374, 
                -0.98816863203048821, 
                0.15194521754896437, 
                -0.60174702200944497, 
                -1.0951195584500937, 
                -0.95549026181939523, 
                -0.97861331978408639, 
                0.99107521477837512, 
                1.0125655023508739, 
                0.81525449454607413, 
                0.99301525108212829, 
                0.42482739233633909, 
                0.10882137371173427, 
                -0.25667071858427276, 
                0.27379347254295217
            ]
        }, 
        {
            "dualCoef": -2.528274173791635, 
            "supportVector": [
                -0.27304944810053267, 
                -0.65001422471102355, 
                -0.041670504287302519, 
                0.79145770941264559, 
                1.4611977496361386, 
                0.43563018912132795, 
                0.66162707051895853, 
                0.22772053287274943, 
                0.53865088755421575, 
                0.75171339793965852, 
                -0.99602864645849498, 
                0.098786316651426537, 
                0.65178461346978922, 
                0.41246309881136423, 
                -0.72406735707348724, 
                -0.37497052010108739, 
                -0.18007317030140826, 
                0.3464629072134085, 
                0.47499939127275587, 
                1.1192773074262585, 
                0.43897713866888549, 
                0.34979994518979568, 
                -0.14888181844177603, 
                0.19967097781504184, 
                -0.091383256206013536, 
                -0.78006073543891141, 
                -0.85209544907551404, 
                -1.0051900557703526, 
                -0.82259808577773019, 
                1.1285933315066412, 
                0.77851632676280424, 
                1.5112909582457281, 
                0.78467618879577616, 
                -0.23156897292782708, 
                1.4447680895756365, 
                1.5880721637956872, 
                0.63697287207483666
            ]
        }, 
        {
            "dualCoef": -4.525483399593905, 
            "supportVector": [
                -0.097669120498222031, 
                0.88121963439317363, 
                -0.58386039767323095, 
                -0.89315799947375873, 
                -1.3896920806891599, 
                0.081444763927767255, 
                0.62024344906951978, 
                2.417246793876672, 
                0.83148517271623812, 
                -1.0187726238579264, 
                -0.01708792675168172, 
                1.6855926222280431, 
                1.5863075363216115, 
                -0.24568755902690506, 
                -1.7441809690054226, 
                -1.5294376305892432, 
                -1.6708632042993548, 
                -0.015590737549016206, 
                -0.61326658317944482, 
                -0.86563689000395028, 
                -0.41756491991124234, 
                0.17781041454634314, 
                -1.5007958905952234, 
                -2.1245058866462241, 
                -0.69458729546365738, 
                -0.64302050955585344, 
                -1.122332363712806, 
                -0.68103946792479098, 
                -1.1204148801962008, 
                2.0342438397424414, 
                2.2338961989138117, 
                1.4805349665398848, 
                2.1498260781596472, 
                -0.49520607531787403, 
                -0.17702609959366822, 
                -0.44916961636624569, 
                -0.3215865995599082
            ]
        }, 
        {
            "dualCoef": -4.525483399593905, 
            "supportVector": [
                -0.064366523187842334, 
                -0.42448531486065993, 
                -0.78361222654036211, 
                -0.59601673050022252, 
                0.64911327959800535, 
                0.34256384216564839, 
                0.082991848891961484, 
                -0.34304654170151816, 
                0.077519597398739412, 
                0.38503342492035036, 
                -0.045572254427130178, 
                3.2853538760435717, 
                -0.43972164319611834, 
                0.16918457579382173, 
                -1.9567778986419369, 
                -1.8625803151446814, 
                -1.4381782295325436, 
                0.44594459481989807, 
                -0.83011998313369451, 
                -0.74276956660993354, 
                -0.09994128022597408, 
                0.016573334249880556, 
                -1.8825572467428484, 
                -2.1059657587868479, 
                -1.1577577141880977, 
                0.33810844372159155, 
                -0.59744264147617687, 
                -0.41627405371154913, 
                -0.47949528447987116, 
                0.29568365719376366, 
                -0.42199855995335467, 
                0.0074797529489068482, 
                -0.28767794810942737, 
                0.67571862578179631, 
                0.22859836509191953, 
                -0.10813195575020867, 
                0.80619810648524615
            ]
        }, 
        {
            "dualCoef": -4.525483399593905, 
            "supportVector": [
                2.8441314807125213, 
                1.1485323455962178, 
                -1.1688909261253035, 
                -1.0098025408353566, 
                -1.5229669675553392, 
                0.20358207245932003, 
                -0.92098400255051549, 
                -0.18900373938746454, 
                -0.82110766145736203, 
                -1.0160611307457057, 
                0.86563639480464638, 
                1.3728381243999868, 
                0.047994634481799581, 
                -0.27429575693367025, 
                -0.96807289840386368, 
                -0.51320115678305167, 
                -0.64561814544835794, 
                -0.00057591444983729628, 
                -0.49574040352646898, 
                -0.34738740429079706, 
                -0.53070604923882914, 
                -0.27625926304899645, 
                -0.99047265389849193, 
                -1.1979206283737878, 
                -0.56979437923390963, 
                -0.21465239009017878, 
                -0.64102028665094279, 
                -0.21963922844177769, 
                -0.52676604329323506, 
                -0.69361249576242801, 
                -0.01620866239070335, 
                0.12086560042078891, 
                -0.10878007889137063, 
                -1.3041678940956356, 
                -0.51400189680340369, 
                -0.40643600890446036, 
                -0.98655602293747413
            ]
        }, 
        {
            "dualCoef": -4.525483399593905, 
            "supportVector": [
                -0.27901812515436919, 
                0.58764369098646529, 
                -0.54212647041151363, 
                -1.026874722884173, 
                -0.9512977627078556, 
                -1.5976892333114359, 
                -1.4786024807586924, 
                -0.70945034341853097, 
                -1.3408617372824911, 
                -1.2103257469986304, 
                1.3999725044799987, 
                1.3563771691135915, 
                0.78632037275692079, 
                -0.58074757130387544, 
                -0.87430675711277439, 
                -0.79416400045408575, 
                -0.938569153116664, 
                -0.24322040135361897, 
                -0.78994419651528291, 
                -0.59542071734505031, 
                -0.88496906793129271, 
                -0.52292657569368983, 
                -1.1059438539149251, 
                -1.4217033731856166, 
                -0.49973275437542125, 
                -0.52837553468284304, 
                0.10277996683055374, 
                -0.066947508218483956, 
                -0.13004028846381233, 
                -0.38761274824455416, 
                0.68694989465154421, 
                0.79524247038147622, 
                0.42276662789257996, 
                -1.3041716250148709, 
                -1.7028709069822809, 
                -1.5714612482210806, 
                -1.6899664771621883
            ]
        }, 
        {
            "dualCoef": -4.525483399593905, 
            "supportVector": [
                -0.16783823981608836, 
                0.36638171502979155, 
                0.052282501407949329, 
                -0.5650830404449303, 
                -0.96885667681342591, 
                0.14859357853475716, 
                0.3532675254863713, 
                0.85768279400563308, 
                0.54868179326183242, 
                0.040422872378429564, 
                -0.046646076491028254, 
                -0.60711719338359815, 
                -0.015610131696641293, 
                -0.11547075207400986, 
                -0.94299425449280294, 
                -0.34042260467576163, 
                -0.66198635411569762, 
                0.44812815321881277, 
                1.7429308685828584, 
                1.4513504461049498, 
                1.0327270583673045, 
                0.23634161530398143, 
                0.44022985573489082, 
                0.58328972707507665, 
                0.13297613485126392, 
                -0.68272806208707759, 
                -1.5583076492242323, 
                -1.1406914828464052, 
                -1.303278413067628, 
                0.45054136731513078, 
                0.77753591742250283, 
                0.72828836478458459, 
                1.0681393149478851, 
                -0.51388991712465693, 
                0.076023580435018209, 
                0.16552947060468831, 
                -0.29250358195563148
            ]
        }, 
        {
            "dualCoef": -4.525483399593905, 
            "supportVector": [
                -0.2142316316571595, 
                -0.5130305349454154, 
                -0.30010723013993817, 
                0.68239768875749618, 
                0.94248055277841658, 
                -0.219526655458058, 
                -0.041098710200336404, 
                -0.38916255307839392, 
                -0.28595303830535995, 
                0.077720445582497716, 
                0.1443159742879099, 
                -1.0840839106027587, 
                0.18918573494645319, 
                -0.74459198278773642, 
                -0.35733220832418949, 
                -0.45687937393330663, 
                0.2706491128399659, 
                -0.42915436228842285, 
                1.9108296778480438, 
                2.9270029487675138, 
                1.1066336976291629, 
                -0.52566069002808868, 
                0.96636041796177818, 
                1.2099822228765988, 
                0.73504863368975115, 
                -0.99444466002151977, 
                -1.2266781855597291, 
                -1.0501340368131122, 
                -1.244957005706175, 
                -0.33458813529729797, 
                0.68201682419039134, 
                1.1126113822337653, 
                0.33412162758454145, 
                0.49231608963762147, 
                0.54232834834478028, 
                0.75020007334169436, 
                0.40811162317293853
            ]
        }, 
        {
            "dualCoef": -4.525483399593905, 
            "supportVector": [
                -0.18987085943886819, 
                -0.28179972133835124, 
                -0.30257237824038147, 
                -0.56567338704041037, 
                -0.068319284760048074, 
                -0.56515148523456338, 
                -0.43260551840866485, 
                -0.4346502929478796, 
                -0.58068431017537603, 
                -0.33226281745715286, 
                0.49038831835965008, 
                -0.14791697662604864, 
                1.1341723848627512, 
                -0.53137173186967246, 
                -0.85848857819109647, 
                -1.0592123522999448, 
                -0.29932873596345827, 
                0.86130469129105625, 
                1.1918039511216982, 
                0.23628786698046086, 
                0.85982217167636432, 
                -0.18716330678650425, 
                0.16654516324024179, 
                0.0253458054722118, 
                -0.11867646925747048, 
                -0.55626627414072727, 
                -0.99788027771403021, 
                -0.78207239468118706, 
                -0.63075648197091427, 
                -0.090338478030153782, 
                2.2915113826940634, 
                1.544202178527571, 
                1.0023677454465341, 
                2.3860808851421722, 
                1.5187680179497445, 
                0.11456741787392442, 
                2.6618495091919514
            ]
        }, 
        {
            "dualCoef": -4.525483399593905, 
            "supportVector": [
                -0.10371692121075123, 
                -0.47925169600581008, 
                0.040330635863927808, 
                0.85469659062937942, 
                0.023403581037402772, 
                0.29347944659451136, 
                0.33910501223496475, 
                0.091380238207045009, 
                0.21145773611657501, 
                0.26323054246307298, 
                -0.1144746824553589, 
                -0.62802898942172258, 
                -0.46808337853522985, 
                -0.059508800228303183, 
                -0.95011714078525933, 
                -0.55706548433063008, 
                -0.63215687869527792, 
                1.3339412350171695, 
                1.6444232666416376, 
                2.5039113463198888, 
                1.3795732508275542, 
                0.10439625867673515, 
                0.40776004851650033, 
                1.0956523923101182, 
                0.60116484800170067, 
                -1.3706207294383999, 
                -0.81288507366332075, 
                -1.0481541166789412, 
                -1.3555237286717094, 
                0.087609067716525629, 
                0.20923200267862946, 
                0.51500330216595391, 
                0.24093918114378338, 
                -1.3307772657071477, 
                0.57498667978123563, 
                0.64921988633161443, 
                -0.35026707482459035
            ]
        }, 
        {
            "dualCoef": -0.96056912814106954, 
            "supportVector": [
                -0.13779743302190428, 
                -0.35126400682157227, 
                0.42076789543871701, 
                4.9064530577081999, 
                -0.18551898897027433, 
                0.87255348964001345, 
                0.85043364603237226, 
                -0.5516776060362838, 
                0.50556237264962223, 
                1.0587925936131648, 
                -0.5889044479099399, 
                -1.2819847357967256, 
                -0.53436820282672526, 
                2.0248040265601532, 
                0.028885048103983312, 
                -0.44016777435608295, 
                1.292550770391262, 
                2.8855853126268172, 
                2.2389580342155617, 
                4.281209750038645, 
                2.3934523922153965, 
                3.2920525240500624, 
                1.4389259996868282, 
                0.97207017661164219, 
                2.4551600936479789, 
                0.22945576479116339, 
                -0.52902474433061764, 
                -0.89583493221449495, 
                0.25880265760154214, 
                -0.24842834289447877, 
                0.085961537399162458, 
                -0.32845658335685535, 
                -0.25523102279071291, 
                0.45185207097034602, 
                1.3673556253758523, 
                1.9088132858940259, 
                0.74906053106005677
            ]
        }, 
        {
            "dualCoef": -0.50960576957983361, 
            "supportVector": [
                -0.26295870439800906, 
                1.8970271025915277, 
                -0.87880411435210515, 
                -0.55713431684216286, 
                -1.2579688951528269, 
                -0.82324289432496778, 
                -0.43689829695125237, 
                0.47457689658234131, 
                -0.3736290878461962, 
                -0.84271274109173389, 
                0.787212382798402, 
                0.76948616558301275, 
                0.70167320543862088, 
                1.5266438901905914, 
                -0.59146166992112414, 
                -0.11439411848555212, 
                -0.15365508113765289, 
                -0.28526821014666826, 
                -0.50584902709231239, 
                -0.13184312316844968, 
                -0.23725269214456596, 
                0.23586134534413247, 
                -0.72836600896992432, 
                -0.53951646234382689, 
                -0.19986357480218883, 
                -0.053977589240853982, 
                0.11198914431476845, 
                -0.12456741064658652, 
                -0.3924820875173492, 
                0.91310920906149873, 
                0.64109994111407487, 
                0.78380704954058722, 
                0.57810983708174402, 
                -0.77115163410337051, 
                -0.46900245603791091, 
                -0.36281394899690461, 
                -0.72841262736833978
            ]
        }, 
        {
            "dualCoef": -4.525483399593905, 
            "supportVector": [
                -0.27401591704711575, 
                -0.7246356098736132, 
                -0.7829364411357187, 
                -0.73938520009849984, 
                2.7754810879287488, 
                -0.24686301669590308, 
                0.098651516550719617, 
                -0.14166217500033804, 
                -0.12435336809385049, 
                -0.0009318630966102388, 
                -0.10037114085505085, 
                1.38222420530389, 
                -1.9387580587177125, 
                0.49466618807399892, 
                -1.2029705710995022, 
                -1.3828732179681977, 
                -0.5779397241291796, 
                -0.031776633557819109, 
                -0.37586695766371142, 
                -0.30635134252709451, 
                -0.225558696473288, 
                -0.29935045510624669, 
                -1.113017315833609, 
                -1.0316176371122794, 
                -0.74057132161621697, 
                0.16970769780695297, 
                -0.68958683674849508, 
                -0.69476585926478995, 
                -0.51372204301955693, 
                0.12083788514722586, 
                -0.89076561656250952, 
                -1.1652376866494851, 
                -0.60347596148686333, 
                -0.51153554872760354, 
                -1.0960723944620274, 
                -0.97069000156198915, 
                -0.98876182624526654
            ]
        }, 
        {
            "dualCoef": -2.2769601904849925, 
            "supportVector": [
                -0.28595980622766115, 
                -0.69636504162528845, 
                2.0197372085387806, 
                0.65420505143436802, 
                1.0124644373067706, 
                -0.057399141689023783, 
                0.29267271998243966, 
                -0.32077343549385984, 
                -0.021474169461804322, 
                0.43561423702576668, 
                -0.33766414077398915, 
                -0.18784771829521299, 
                -1.2108557614619651, 
                -0.94328255876393052, 
                -0.35976356243350449, 
                -0.60530888709770203, 
                -0.84717873008943001, 
                -0.36844798807000251, 
                0.34584539683722876, 
                0.42198039293951761, 
                -0.14695882166355992, 
                -0.75487002321505015, 
                -0.025534894731496737, 
                0.094511455421323429, 
                -0.45389916046866335, 
                -0.99917295074279533, 
                -1.1357896186182057, 
                -0.72877771348508369, 
                -1.1475737031276423, 
                -0.64018931355025344, 
                -0.59436661480231257, 
                -0.58068451068664884, 
                -0.64271744066389447, 
                1.8091559616015631, 
                0.0247239850598934, 
                -0.99023841082957331, 
                1.1572193770294577
            ]
        }, 
        {
            "dualCoef": -4.525483399593905, 
            "supportVector": [
                0.056334718890611757, 
                -0.11498003384373663, 
                -0.75110544767295762, 
                -0.96804698024742997, 
                -0.10754269505407454, 
                -0.16050774732491679, 
                0.023848519050016982, 
                1.4224933254417322, 
                0.10598311433570842, 
                -1.0490541208670034, 
                0.16247240986882444, 
                0.64767819130562354, 
                0.017802119324621245, 
                -0.91086408428486521, 
                -1.0943857343566215, 
                -0.9747404120587575, 
                -1.1523089138039144, 
                -0.33305613014401392, 
                0.61323687727486087, 
                0.6210516627531123, 
                0.26782859888962524, 
                -0.57036194129545936, 
                -0.34379922455297091, 
                -0.13325676055672556, 
                -0.55830506694019189, 
                -0.66647882823175408, 
                -0.96452369099192203, 
                -0.4820739549873142, 
                -0.89535509770731792, 
                0.8025370596950413, 
                0.22464491699698316, 
                -0.45556825516951177, 
                0.83614418795677714, 
                0.58477276872644057, 
                0.4607793117476075, 
                0.53850827379825272, 
                0.41329833983123443
            ]
        }, 
        {
            "dualCoef": -4.0711109337744329, 
            "supportVector": [
                -0.21220310272282586, 
                -0.4204872331907431, 
                1.6827105468623726, 
                -0.59175508723538262, 
                -0.12572192782471484, 
                0.18107751142336792, 
                0.21114371159707954, 
                -0.70256200419869241, 
                0.10019357741631213, 
                0.53785107311776736, 
                -0.68000434171319268, 
                0.20760712380189247, 
                -0.7551888205564059, 
                -0.86456084211423234, 
                -1.2094491542962504, 
                -1.0881627563475038, 
                -1.2054359825239416, 
                -0.43641350589482025, 
                0.76306373900705837, 
                0.58473369130683073, 
                0.16437781092428211, 
                -0.78779875031597435, 
                -0.31887746763564595, 
                -0.43340552893676326, 
                -0.65722710703366916, 
                -0.86342089767200625, 
                -1.2822524278675214, 
                -0.91759772626996916, 
                -1.2252450520932894, 
                -0.61324985782919239, 
                -0.94692491684389535, 
                -0.79001878209590848, 
                -0.78124919283373973, 
                0.095486786270028157, 
                0.69770380480959659, 
                0.56348618573636522, 
                0.40466308413466523
            ]
        }, 
        {
            "dualCoef": -4.525483399593905, 
            "supportVector": [
                -0.11049660099244625, 
                -0.41138442597665048, 
                -0.30449688421200832, 
                -0.46231064412088463, 
                0.50155386759415899, 
                -0.10462325631364486, 
                -0.22912249314387237, 
                -0.74246473828547199, 
                -0.45790972619381509, 
                -0.091251551828079105, 
                0.099101791294614217, 
                0.19810459759007851, 
                -0.48608745087329264, 
                -0.75189689527295189, 
                -0.78548501477390731, 
                -0.45295056644443937, 
                -1.0865328253436908, 
                -0.30959553221032821, 
                0.56105595837167088, 
                0.55468591576346293, 
                0.16104932474546216, 
                -0.97138667350443508, 
                -0.15770176959205995, 
                -0.15103572501872939, 
                -0.63190129502855386, 
                -0.40581266845625941, 
                -0.82617798329674519, 
                -1.0035342705578483, 
                -0.79635229614242964, 
                -0.51826643456199939, 
                -0.70588311393550585, 
                -0.56047844718902196, 
                -0.78640635228134292, 
                1.5935333366954483, 
                1.8399529590840273, 
                1.8754670102536224, 
                1.671654800904361
            ]
        }, 
        {
            "dualCoef": -4.525483399593905, 
            "supportVector": [
                -0.22437603748130699, 
                0.68679065792238936, 
                -0.57662127389257301, 
                -0.94656053978027577, 
                -0.84735844009599581, 
                -1.8714452385664246, 
                -1.9075892977362157, 
                0.029437141003103528, 
                -1.5403024762946618, 
                -2.0170907126524726, 
                2.5367692632364727, 
                2.6783064471229454, 
                2.188563766220188, 
                -0.76366844637408793, 
                -1.4065257135442433, 
                -1.3793543264029107, 
                -1.3314608654452156, 
                -0.089227840397172811, 
                -0.73736898928460592, 
                -0.79069546453012463, 
                -0.49010855087329547, 
                -0.2117140438237414, 
                -1.5310441636448333, 
                -1.5977902863034035, 
                -1.2944890434330429, 
                0.95803269364325327, 
                1.0593954894867714, 
                -0.29414617030991147, 
                0.60087338632053944, 
                0.58529124641814911, 
                2.7846989691233621, 
                2.2922507841534467, 
                1.7068857351565541, 
                3.3329947117332885, 
                1.7199945221192288, 
                1.7873758067310224, 
                2.3467102834786879
            ]
        }, 
        {
            "dualCoef": -4.525483399593905, 
            "supportVector": [
                -0.11323687150293496, 
                0.55318760877076079, 
                -0.88603750623951205, 
                -0.94160432104056646, 
                -0.65666172887223229, 
                -0.71255889963561125, 
                -0.77960251842757866, 
                0.79212415973881167, 
                -0.33394812614357339, 
                -0.98333137240480173, 
                0.77072903180711216, 
                -0.28944488539910218, 
                1.2847756146321461, 
                -0.7631702107236179, 
                -1.1327413393426793, 
                -1.1552359570112647, 
                -1.0363324595979517, 
                -0.038291238283884449, 
                1.0249125453141315, 
                1.2810930587687563, 
                0.34523137640934509, 
                -0.11686278166210021, 
                -0.070681263481203113, 
                0.021817715596414669, 
                0.011862034194464263, 
                -1.0221078348745043, 
                -1.2682508565199733, 
                -1.0244522968913838, 
                -1.0974822983907186, 
                2.1537277112460322, 
                3.0375211158743518, 
                2.770157395741951, 
                3.1035173289035454, 
                -0.85121595180682574, 
                -1.3356702913070646, 
                -1.2029540837839479, 
                -1.2787481207015694
            ]
        }, 
        {
            "dualCoef": -4.525483399593905, 
            "supportVector": [
                -0.19537891949541333, 
                -0.38374566793588522, 
                -0.9392701052921586, 
                -0.88810828224628546, 
                0.24323475396973526, 
                -1.4250236180027076, 
                -1.7167891004790283, 
                -0.078768026581605033, 
                -1.2180535607139433, 
                -1.6005753260736428, 
                1.758611180495963, 
                0.99481017529973492, 
                1.6419543219041852, 
                -0.90964889092763523, 
                -1.2509875519407454, 
                -1.1244687827559776, 
                -1.4481429634276792, 
                0.14182160471158153, 
                0.35373325587144255, 
                1.2363839641532997, 
                -0.01424296997230561, 
                0.39373805926388183, 
                -0.63885116170661171, 
                -0.133993783241947, 
                -0.20500865187753328, 
                -0.83818057219706943, 
                -1.0909450553419373, 
                -1.140464587602114, 
                -0.95460388208056024, 
                3.1891044731795075, 
                2.8699743504543518, 
                2.5096384651648851, 
                3.1126680489422105, 
                0.56426186140531842, 
                -0.51392356692766428, 
                -0.81771042312166797, 
                -0.049236460264028455
            ]
        }, 
        {
            "dualCoef": -4.525483399593905, 
            "supportVector": [
                -0.28124348157794715, 
                -0.64058474323656756, 
                -0.69469748553533861, 
                -0.5093704483210697, 
                0.9355509041380411, 
                -1.7834340614039619, 
                -1.5126355320006784, 
                -0.19060181924420286, 
                -1.4881042815628445, 
                -1.6239428474209199, 
                2.0392750811193543, 
                -0.72473089861697315, 
                1.1584644848844778, 
                0.34330710123524194, 
                -0.55104839622662094, 
                -0.60787492664696408, 
                -0.34784009569486246, 
                -0.069496764540716433, 
                0.59847447056117486, 
                0.36660188024906554, 
                0.23334383189644925, 
                0.21193967978472286, 
                0.041204181810989352, 
                0.5719084139082381, 
                0.045273353049107644, 
                -0.062854164686042685, 
                -0.7936579680339898, 
                -0.418549654292589, 
                -0.57365363247587919, 
                2.5865000461931396, 
                2.7873910197790139, 
                3.033935095735619, 
                2.5969777801089955, 
                -0.12903464129201672, 
                -0.43280878486356433, 
                -0.21582422744938085, 
                -0.43739356426272219
            ]
        }, 
        {
            "dualCoef": -4.525483399593905, 
            "supportVector": [
                -0.201285929040285, 
                -0.54792695479884979, 
                -0.59596141253542323, 
                -0.32590987767154195, 
                1.1425714782398508, 
                -0.98676246467552409, 
                -0.93456646503718754, 
                -0.19294451059884199, 
                -0.837929867542203, 
                -0.88335817760888158, 
                1.0039597084269964, 
                -0.5736460201428053, 
                2.5233794407842276, 
                -0.90898958219505188, 
                -0.61861654310151459, 
                -0.40585880812451808, 
                -0.8797432083245792, 
                0.50107456426333241, 
                1.6054634495676137, 
                1.369671323637865, 
                0.9820021552849999, 
                0.54283951055530044, 
                0.55662404476182004, 
                0.74241611212124659, 
                0.50931241239917513, 
                -0.69061045943283306, 
                -1.219056667563259, 
                -1.0365910571377139, 
                -1.1425571583881999, 
                3.9272461369524967, 
                4.3862241789903536, 
                4.5328474684207718, 
                4.4302720870066281, 
                0.99575269964915891, 
                1.4003864949210123, 
                1.449355167375445, 
                1.1506702636173465
            ]
        }, 
        {
            "dualCoef": -4.525483399593905, 
            "supportVector": [
                -0.075555075592164914, 
                -0.70702183202633229, 
                -0.79029952132056258, 
                -0.14930493922172672, 
                3.0271082257564412, 
                -0.71980623224623652, 
                -0.73081662355304799, 
                0.078678803770536404, 
                -0.60025710049207426, 
                -1.0379731674498764, 
                0.99659081504263858, 
                -1.3303320939631191, 
                1.495751574941506, 
                -0.7703753959369346, 
                -0.066501301691494916, 
                0.25037819903637548, 
                -0.37695368911377858, 
                0.8486711423142993, 
                1.320712400520063, 
                1.3446255257791175, 
                1.0422562036947403, 
                -0.19198001484803145, 
                0.80648625026408949, 
                0.89528519054510924, 
                0.54818963049066827, 
                -0.063681511670774474, 
                0.39368511661916877, 
                -1.0591857598573164, 
                0.076527608759587556, 
                3.1051149261799345, 
                3.1772964104016608, 
                4.3361809159345741, 
                3.1208152887803862, 
                1.4373423701910435, 
                1.4531720517499827, 
                1.037342580560634, 
                1.5158828405411389
            ]
        }, 
        {
            "dualCoef": -4.525483399593905, 
            "supportVector": [
                -0.13135935232086721, 
                -0.30397252602524211, 
                -0.55366067306736511, 
                -0.46559502528897084, 
                0.43455132489168563, 
                -0.36473280525112795, 
                -0.29996979717071676, 
                0.068895189220301259, 
                -0.33507891526002131, 
                -0.5882998505090713, 
                0.33766061945398723, 
                0.088968337861591654, 
                0.020574192151451877, 
                -1.2176998422335441, 
                -0.70006426683144463, 
                -0.70940071691061202, 
                -1.0741320689853249, 
                0.33452495117252379, 
                0.59290614960112564, 
                0.71192108317861824, 
                0.59752059955668824, 
                -0.10583708182138958, 
                -0.14762293384461217, 
                -0.72950585180960426, 
                -0.071635713926819972, 
                0.75220625043994949, 
                -0.53397182151894684, 
                -0.56329869463367832, 
                0.13348708692288816, 
                0.34013110752759756, 
                0.074032847515658307, 
                -0.74765324882614026, 
                0.52853144426794096, 
                -0.61287500726229771, 
                -0.49592716758586397, 
                -0.27042782690130579, 
                -0.57704244311725206
            ]
        }, 
        {
            "dualCoef": -4.525483399593905, 
            "supportVector": [
                -0.27424116997344478, 
                -0.38996662136387616, 
                -0.38494996981344737, 
                -0.45959464097381064, 
                0.080804765734593428, 
                -0.5274956603950447, 
                -0.30277256880034287, 
                -0.00022512015934765778, 
                -0.33427304316408935, 
                -0.35214929032166453, 
                0.12779622666789284, 
                0.38785784968218512, 
                -0.22420369051597069, 
                -0.86107449202022857, 
                -0.50200388875688329, 
                -0.57047405891698022, 
                -0.94387099465663549, 
                -0.68275887459508056, 
                0.47161501435166753, 
                0.63396908515640649, 
                -0.22596293682590021, 
                -0.70962053559943772, 
                -0.062157101207490947, 
                -0.12390251167511238, 
                -0.23363104982232488, 
                -1.0203551687994359, 
                -0.84066384503997771, 
                -0.48032138698339932, 
                -1.0412155911502272, 
                0.91456763612639635, 
                0.095733604945810749, 
                -0.58913710710659151, 
                0.52796317119936009, 
                -0.42912449493027938, 
                0.29173059746922481, 
                0.37463394522655785, 
                -0.127384199268157
            ]
        }, 
        {
            "dualCoef": -4.525483399593905, 
            "supportVector": [
                -0.057033619337216894, 
                -0.49347054374415555, 
                -0.14447751892954352, 
                0.057234772227991705, 
                0.62104692624399838, 
                0.1811057913161491, 
                0.15922354916095702, 
                0.075341624543548341, 
                -0.040608820336127782, 
                0.0089897053642765731, 
                -0.22674388366285544, 
                0.40072763050243115, 
                -0.28253746358575904, 
                -0.87850420631007997, 
                -0.70078964394854493, 
                -0.45152178777202268, 
                -0.9710428626320835, 
                -0.34852428741324415, 
                0.17833106987557654, 
                0.55376852394962883, 
                -0.032231628038365503, 
                -0.57991952697166849, 
                -0.39689164625240997, 
