{
  "bias": [0.30690624238990299],
  "intercept": -23.813929772437234,
  "kernel": {
    "parameters": [
      {
        "name": "gamma",
        "value": 0.0013810679320049757
      }
    ],
    "type": "rbf"
  },
  "modelName": "puffMarker",
  "modelType": "svc",
  "normparams": [
    {
      "mean": 2176.5451909134849,
      "std": 1562.0286209835285
    },
    {
      "mean": 2137.1981633639439,
      "std": 1346.6890736071734
    },
    {
      "mean": 4313.7433542774288,
      "std": 2230.5685021501827
    },
    {
      "mean": 1.3610869882191265,
      "std": 1.3026406720413659
    },
    {
      "mean": 1473.1609499506249,
      "std": 1090.187032154508
    },
    {
      "mean": 849.30271157295249,
      "std": 570.29608145476618
    },
    {
      "mean": -849.30271157295249,
      "std": 570.29608145476618
    },
    {
      "mean": 569.6462058965684,
      "std": 1840.9290839761973
    },
    {
      "mean": 16.837602706621556,
      "std": 2014.3383815142392
    },
    {
      "mean": 586.48380860318991,
      "std": 2832.7193119327912
    },
    {
      "mean": 304.23429525580087,
      "std": 1133.680755287103
    },
    {
      "mean": 476.06573223779606,
      "std": 1854.4290450597337
    },
    {
      "mean": 273.01933301111649,
      "std": 1712.703694881415
    },
    {
      "mean": 749.08506524891254,
      "std": 2666.5674645562067
    },
    {
      "mean": 364.90424909500626,
      "std": 1059.5938108898788
    },
    {
      "mean": 1.4730709329681932,
      "std": 0.97946004485057636
    },
    {
      "mean": 1.2505878372711638,
      "std": 0.85621099825822022
    },
    {
      "mean": 20.82578347734756,
      "std": 17.259248265850296
    },
    {
      "mean": 18.195564054821084,
      "std": 16.70309812616529
    },
    {
      "mean": 12.074079385204099,
      "std": 8.8329887482329852
    },
    {
      "mean": 15.032214967740767,
      "std": 12.536412627135038
    },
    {
      "mean": 2449.3934267762206,
      "std": 970.27052371901596
    },
    {
      "mean": -71.067022484874784,
      "std": 42.989659358113677
    },
    {
      "mean": -71.872445067302905,
      "std": 43.282134100166807
    },
    {
      "mean": 34.519433011053003,
      "std": 24.524596754404413
    },
    {
      "mean": 40.381739841007402,
      "std": 24.500754390719962
    },
    {
      "mean": 8.1508525434185852,
      "std": 13.565228588089052
    },
    {
      "mean": 9.7405456798598333,
      "std": 18.345431883349402
    },
    {
      "mean": 37.744925975638772,
      "std": 24.130817631838195
    },
    {
      "mean": 37.145039741839788,
      "std": 24.440733801897107
    },
    {
      "mean": 34.519433011053003,
      "std": 24.524596754404413
    },
    {
      "mean": 40.381739841007402,
      "std": 24.500754390719962
    },
    {
      "mean": 4.3997790790947882,
      "std": 3.9404160032051525
    },
    {
      "mean": 5.8623068299546057,
      "std": 6.640712671877961
    },
    {
      "mean": 42.581853984044706,
      "std": 28.30385873056791
    },
    {
      "mean": 43.589045857400507,
      "std": 28.83313047529208
    },
    {
      "mean": 39.690250789301494,
      "std": 28.528151696867493
    },
    {
      "mean": 46.453515880102266,
      "std": 29.750294826331938
    },
    {
      "mean": 5.4616221032508729,
      "std": 7.2162532302673679
    },
    {
      "mean": 6.7632650908008838,
      "std": 10.308916436020469
    }
  ],
  "probA": -1.9212638202473116,
  "probB": -0.72954513741032023,
  "support": [
    {
      "dualCoef": -307.20000000000005,
      "supportVector": [
        -0.67319201248142391,
        -0.19469836690783648,
        -0.58897243147252842,
        -0.58426472054371559,
        -0.23835816888237721,
        -0.42548026691766261,
        0.42548026691766261,
        0.046907724395834537,
        0.66630433576132042,
        0.50429147193624346,
        0.47888975937814698,
        -0.55977646327490438,
        -0.10510827620044386,
        -0.45679889274867336,
        0.23993937374286922,
        0.87691774353786589,
        -0.023205842447215519,
        -0.19003492814289874,
        -0.14585211137327767,
        0.0038150335116246123,
        -0.22853332480433952,
        -0.97848322047054048,
        -0.40603650243671685,
        -0.45137880465426866,
        -0.46822038110549741,
        -0.35991835782288689,
        -0.065982829063681608,
        -0.26898401140269979,
        -0.39702325258977161,
        -0.54371984979340249,
        -0.46822038110549741,
        -0.35991835782288689,
        0.92198025396775829,
        0.40125885349023982,
        0.67226649466851274,
        0.78204932030639862,
        0.65623969489941969,
        0.68901055403043421,
        0.42461893097969222,
        0.17237132207746245
      ]
    },
    {
      "dualCoef": -307.20000000000005,
      "supportVector": [
        -0.67319201248142391,
        -0.19469836690783648,
        -0.58897243147252842,
        -0.58426472054371559,
        -0.23835816888237721,
        -0.42548026691766261,
        0.42548026691766261,
        0.046907724395834537,
        0.66630433576132042,
        0.50429147193624346,
        0.47888975937814698,
        -0.55977646327490438,
        -0.10510827620044386,
        -0.45679889274867336,
        0.23993937374286922,
        0.87691774353786589,
        -0.023205842447215519,
        -0.19003492814289874,
        -0.14585211137327767,
        0.0038150335116246123,
        -0.22853332480433952,
        -0.97848322047054048,
        -0.40603650243671685,
        -0.45137880465426866,
        -0.46822038110549741,
        -0.35991835782288689,
        -0.065982829063681608,
        -0.26898401140269979,
        -0.39702325258977161,
        -0.54371984979340249,
        -0.46822038110549741,
        -0.35991835782288689,
        0.92198025396775829,
        0.40125885349023982,
        0.67226649466851274,
        0.78204932030639862,
        0.65623969489941969,
        0.68901055403043421,
        0.42461893097969222,
        0.17237132207746245
      ]
    },
    {
      "dualCoef": -307.20000000000005,
      "supportVector": [
        -1.0329805544136055,
        -0.12489754811288159,
        -0.79878441417956736,
        -0.82536578670189276,
        -1.1523122529841041,
        -1.2361274835173925,
        1.2361274835173925,
        -0.38548264138660537,
        0.29447008642484401,
        -0.041120843887533606,
        -0.42554966685581469,
        -0.58512119141384811,
        -2.0750929326728587,
        -1.7397216184894049,
        -0.73414324124772568,
        -0.9665404688836754,
        -0.30615586875592093,
        0.10027296376610599,
        0.24964670624072363,
        -0.066460266957935804,
        -0.25279258301316238,
        -0.59199307073102558,
        0.059677216916247694,
        0.068635296359072923,
        0.26598198524493732,
        0.1821954538502133,
        -0.48272171890895998,
        -0.39060539090128044,
        0.22112497922935168,
        0.24410136620124817,
        0.26598198524493732,
        0.1821954538502133,
        -0.53756104574892016,
        -0.31008341542897772,
        0.080070522935001914,
        0.034357208828485732,
        0.10303349891501883,
        0.019119141574615927,
        -0.43373177354826536,
        -0.22995192588356048
      ]
    },
    {
      "dualCoef": -307.20000000000005,
      "supportVector": [
        -0.043241967532550857,
        1.1627047900834142,
        0.67169272957916748,
        -0.60764936405552461,
        -0.28613054759415296,
        -0.47114148523946764,
        0.47114148523946764,
        -1.9901071897802329,
        1.2481330944026428,
        -0.40578810747715288,
        -1.9144231749932867,
        -0.45947604978887174,
        1.6470920658486721,
        0.73837056850116911,
        0.17535789945901201,
        -0.61157826997145848,
        2.6869532547146937,
        -0.6784229288911352,
        -0.80954710144488395,
        -0.24137699351345934,
        -0.42096449639121708,
        0.88903718307079549,
        0.066826343001008412,
        0.086823007710776556,
        0.2421479809652882,
        0.061607617928620358,
        -0.45808695654590437,
        -0.43856282356925663,
        0.16662822023059046,
        0.16929299907804932,
        0.2421479809652882,
        0.061607617928620358,
        -0.48934530993764819,
        -0.66696884678615542,
        0.12445899758576412,
        0.10605413975851996,
        0.22027056535337233,
        0.028675616987669662,
        -0.40830532657648577,
        -0.52680648608906377
      ]
    },
    {
      "dualCoef": -307.20000000000005,
      "supportVector": [
        -0.043241967532550857,
        1.1627047900834142,
        0.67169272957916748,
        -0.60764936405552461,
        -0.28613054759415296,
        -0.47114148523946764,
        0.47114148523946764,
        -0.30943408459069888,
        -0.0083588749840353138,
        -0.20703915355560817,
        -0.26835975986798327,
        -0.45947604978887174,
        1.6470920658486721,
        0.73837056850116911,
        0.17535789945901201,
        0.09158893924969401,
        3.1550477096926053,
        -0.6784229288911352,
        -0.80954710144488395,
        -0.24137699351345934,
        -0.42096449639121708,
        0.88903718307079549,
        0.066826343001008412,
        0.086823007710776556,
        0.2421479809652882,
        0.061607617928620358,
        -0.45808695654590437,
        -0.43856282356925663,
        0.16662822023059046,
        0.16929299907804932,
        0.2421479809652882,
        0.061607617928620358,
        -0.48934530993764819,
        -0.66696884678615542,
        0.12445899758576412,
        0.10605413975851996,
        0.22027056535337233,
        0.028675616987669662,
        -0.40830532657648577,
        -0.52680648608906377
      ]
    },
    {
      "dualCoef": -307.20000000000005,
      "supportVector": [
        0.10720341921845034,
        -0.47315908018558211,
        -0.21059355667607346,
        0.15474695575998326,
        -0.39681479260729907,
        -0.45158013893830551,
        0.45158013893830551,
        0.58196364185274818,
        0.10830474129643458,
        0.45522201439611071,
        0.077670493060840423,
        -0.2567182246773218,
        -0.15940838676711089,
        -0.28091734981607969,
        -0.34438125755807186,
        0.5649501399768424,
        0.20075340046336393,
        -0.045500276679142998,
        0.076167297140818865,
        -0.17158468396722643,
        -0.45757044067570724,
        -1.1073132703837121,
        -0.56588765596272572,
        -0.53354139848919069,
        -0.35110673063585601,
        -0.51516345175396783,
        -0.49680834076168462,
        -0.45608247335863222,
        -0.39627752809840056,
        -0.44074553906240127,
        -0.35110673063585601,
        -0.51516345175396783,
        0.073712132739815375,
        -0.60402285328265759,
        0.67553618171855312,
        0.69243241532956556,
        0.78776316036803662,
        0.5894317691178157,
        -0.09565818234328087,
        -0.47896964337290271
      ]
    },
    {
      "dualCoef": -307.20000000000005,
      "supportVector": [
        0.10720341921845034,
        -0.47315908018558211,
        -0.21059355667607346,
        0.15474695575998326,
        -0.39681479260729907,
        -0.45158013893830551,
        0.45158013893830551,
        0.58196364185274818,
        0.10830474129643458,
        0.45522201439611071,
        0.077670493060840423,
        0.021534535316188173,
        -0.8711485457000907,
        -0.5445521572395623,
        -0.55871733339458785,
        -0.26605590546948638,
        -0.30174838555575795,
        -0.045500276679142998,
        0.076167297140818865,
        -0.17158468396722643,
        -0.45757044067570724,
        -1.1073132703837121,
        -0.56588765596272572,
        -0.53354139848919069,
        -0.35110673063585601,
        -0.51516345175396783,
        -0.49680834076168462,
        -0.45608247335863222,
        -0.39627752809840056,
        -0.44074553906240127,
        -0.35110673063585601,
        -0.51516345175396783,
        0.073712132739815375,
        -0.60402285328265759,
        0.67553618171855312,
        0.69243241532956556,
        0.78776316036803662,
        0.5894317691178157,
        -0.09565818234328087,
        -0.47896964337290271
      ]
    },
    {
      "dualCoef": -307.20000000000005,
      "supportVector": [
        -0.58292478043082319,
        -0.40335826139062719,
        -0.65173669980369398,
        -0.4351611645861958,
        -0.73638176366215113,
        -0.39334582028930276,
        0.39334582028930276,
        -0.76735503729747889,
        -0.28735867221647821,
        -0.7030289941591078,
        0.00070948504136238643,
        -0.028615671426828162,
        0.059543671969449742,
        0.018343782934900656,
        -0.20454172352639594,
        -0.56651529550363078,
        -0.62011468220586452,
        -1.0362327613130375,
        -0.95569721313203415,
        -1.1537661042802563,
        -0.96084025324334887,
        0.30981727866117581,
        -1.0691569764543079,
        -1.0423492517311777,
        -0.25477305506407449,
        -0.46998501822512229,
        -0.56990209729197194,
        -0.49391786212836897,
        -0.38148323215595054,
        -0.35124959139660417,
        -0.25477305506407449,
        -0.46998501822512229,
        -0.9707505886099248,
        -0.79310479458350902,
        0.56572715891095671,
        0.52020057018899168,
        0.65177773254606486,
        0.4178226915205247,
        -0.67047383540736794,
        -0.59789656915938449
      ]
    },
    {
      "dualCoef": -307.20000000000005,
      "supportVector": [
        2.0879609792507807,
        -0.89122143105323759,
        0.9240947515109259,
        3.4104121796995632,
        -0.93989548485715557,
        -0.21855849396287172,
        0.21855849396287172,
        2.3642158907625292,
        0.13114102363218613,
        1.6297118362379921,
        -0.58090394891148855,
        1.9175358999231285,
        -0.32406033493700448,
        1.1253849657430384,
        -0.45603250445559684,
        -0.80279698067595717,
        -0.68239806233351352,
        -1.0386874259806131,
        -0.94170801115751779,
        -1.185586831286187,
        -1.0484276005377924,
        0.24488693350493734,
        -1.0383451794596557,
        -1.0207294797506623,
        -0.35522626356168141,
        -0.54539441266031308,
        -0.53754543517810438,
        -0.44747894351403078,
        -0.46480717244500291,
        -0.42208151487741946,
        -0.35522626356168141,
        -0.54539441266031308,
        -0.92727694640745528,
        -0.70034556681433213,
        0.65095472649051689,
        0.59073140317785833,
        0.72534406122322714,
        0.52193291166896416,
        -0.62389628073699588,
        -0.50102912768149177
      ]
    },
    {
      "dualCoef": -307.20000000000005,
      "supportVector": [
        2.0879609792507807,
        -0.89122143105323759,
        0.9240947515109259,
        3.4104121796995632,
        -0.93989548485715557,
        -0.21855849396287172,
        0.21855849396287172,
        2.3642158907625292,
        0.13114102363218613,
        1.6297118362379921,
        -0.58090394891148855,
        1.9175358999231285,
        -0.32406033493700448,
        1.1253849657430384,
        -0.45603250445559684,
        -0.80279698067595717,
        -0.68239806233351352,
        -1.0386874259806131,
        -0.94170801115751779,
        -1.185586831286187,
        -1.0484276005377924,
        0.24488693350493734,
        -1.0383451794596557,
        -1.0207294797506623,
        -0.35522626356168141,
        -0.54539441266031308,
        -0.53754543517810438,
        -0.44747894351403078,
        -0.46480717244500291,
        -0.42208151487741946,
        -0.35522626356168141,
        -0.54539441266031308,
        -0.92727694640745528,
        -0.70034556681433213,
        0.65095472649051689,
        0.59073140317785833,
        0.72534406122322714,
        0.52193291166896416,
        -0.62389628073699588,
        -0.50102912768149177
      ]
    },
    {
      "dualCoef": -307.20000000000005,
      "supportVector": [
        0.88695865778321392,
        0.71048459172035527,
        1.0500716043756224,
        -0.16107779261077981,
        -0.35444425488541526,
        -0.16477773359299683,
        0.16477773359299683,
        0.9638360377636217,
        0.50347171388900502,
        0.98439551693322513,
        0.22582437038138956,
        1.2343067392413898,
        -0.29603447141872474,
        0.66824295969862113,
        0.23563383070709062,
        0.40335346210156542,
        0.050883154768755982,
        -1.0724143552182162,
        -0.97783891442453319,
        -1.1715546841420088,
        -1.1068723385833081,
        0.30981727866117581,
        -1.0422442748792486,
        -1.0134980993017546,
        -0.32665088959150856,
        -0.55694116142782013,
        -0.56549620201858952,
        -0.51331901425882998,
        -0.46222932877646511,
        -0.43028870374669587,
        -0.32665088959150856,
        -0.55694116142782013,
        -0.99063085623370095,
        -0.84847779717789129,
        0.64755196524420011,
        0.60159877334593503,
        0.73874009567270604,
        0.49025106613349306,
        -0.67347457051368564,
        -0.62953034858625101
      ]
    },
    {
      "dualCoef": -307.20000000000005,
      "supportVector": [
        -0.64310293513122363,
        -0.47315908018558211,
        -0.73602014584840192,
        -0.44506030506268646,
        -0.73453417076243332,
        -0.6386155424242127,
        0.6386155424242127,
        -0.41101322831094544,
        -1.5676798057795926,
        -1.3818819930776343,
        -1.8778268784644934,
        -1.4953744062763381,
        0.47000579808092208,
        -0.73805935586049698,
        0.073251883961764075,
        -0.81608389603646858,
        -0.54337952219895047,
        -0.21225904162700363,
        -0.11075649910142513,
        -0.36230849354244637,
        -0.45558037498004705,
        -1.2361433202968837,
        -0.19173366188235177,
        -0.32139889457491011,
        -0.23148018156705896,
        -0.21179624697064775,
        1.3982936498913394,
        -0.33676610935439871,
        -0.078107819719130334,
        -0.30075029711697904,
        -0.23148018156705896,
        -0.21179624697064775,
        2.4044853854869017,
        0.073454507937049426,
        0.37698590083418254,
        0.57468380847096701,
        0.52945501481497736,
        0.4900086213720668,
        1.5564664391049583,
        -0.051069579360059174
      ]
    },
    {
      "dualCoef": -307.20000000000005,
      "supportVector": [
        -0.64310293513122363,
        -0.47315908018558211,
        -0.73602014584840192,
        -0.44506030506268646,
        -0.73453417076243332,
        -0.6386155424242127,
        0.6386155424242127,
        -0.30943408459069888,
        -0.0083588749840353138,
        -0.20703915355560817,
        -0.26835975986798327,
        -1.4953744062763381,
        0.47000579808092208,
        -0.73805935586049698,
        0.073251883961764075,
        -0.10453832904014153,
        1.2099792348965526,
        -0.10248447108999671,
        -0.10913693363653804,
        0.020501329014676384,
        -0.37814111146988366,
        -1.1722436155399505,
        -0.19341227129514688,
        -0.31697827782063337,
        -0.23044808045547044,
        -0.24125318451374264,
        1.3502736547801988,
        -0.31443877336757514,
        -0.087418518336137591,
        -0.29862824017093265,
        -0.23044808045547044,
        -0.24125318451374264,
        2.3300196179153714,
        -0.03903779406859828,
        0.38583415247107694,
        0.56901922850439246,
        0.55468060699020494,
        0.48945390579371728,
        1.5065766769672277,
        -0.12247790600501135
      ]
    },
    {
      "dualCoef": -110.26331019536008,
      "supportVector": [
        0.31718676753474134,
        -0.12489754811288159,
        0.14671445660920449,
        -0.003111342122986395,
        -0.53322683625696543,
        -0.25054625000141922,
        0.25054625000141922,
        0.81119572019469499,
        0.38730453852887753,
        0.80259141165863279,
        -0.64576833301618575,
        0.90644302203973448,
        0.74384183954078054,
        1.1081343240055133,
        0.063647374284952887,
        -0.83739553180613946,
        0.33987583680299782,
        1.0379605735937902,
        0.70144918178093874,
        1.6216582649893951,
        2.7084802553634066,
        0.37371698341810894,
        -0.23323993938109677,
        -0.20820758205987738,
        -0.030466213374484231,
        0.15678983789187745,
        -0.19507681602864246,
        -0.10076877774006747,
        0.065193984870092148,
        0.13042399026975571,
        -0.030466213374484231,
        0.15678983789187745,
        0.43824753150849749,
        0.69098621390807791,
        0.26996152615848168,
        0.1838698748048152,
        0.20344639376146814,
        0.32097081641599162,
        0.081659578915363532,
        0.36328035626816935
      ]
    },
    {
      "dualCoef": -307.20000000000005,
      "supportVector": [
        0.31718676753474134,
        -0.12489754811288159,
        0.14671445660920449,
        -0.003111342122986395,
        -0.53322683625696543,
        -0.25054625000141922,
        0.25054625000141922,
        0.81119572019469499,
        0.38730453852887753,
        0.80259141165863279,
        -0.64576833301618575,
        0.90644302203973448,
        0.74384183954078054,
        1.1081343240055133,
        0.063647374284952887,
        -0.83739553180613946,
        0.33987583680299782,
        1.0379605735937902,
        0.70144918178093874,
        1.6216582649893951,
        2.7084802553634066,
        0.37371698341810894,
        -0.23323993938109677,
        -0.20820758205987738,
        -0.030466213374484231,
        0.15678983789187745,
        -0.19507681602864246,
        -0.10076877774006747,
        0.065193984870092148,
        0.13042399026975571,
        -0.030466213374484231,
        0.15678983789187745,
        0.43824753150849749,
        0.69098621390807791,
        0.26996152615848168,
        0.1838698748048152,
        0.20344639376146814,
        0.32097081641599162,
        0.081659578915363532,
        0.36328035626816935
      ]
    },
    {
      "dualCoef": -307.20000000000005,
      "supportVector": [
        -0.94335351549811541,
        0.39712346904513224,
        -0.42085385558547794,
        -0.84289413757000353,
        0.67318788984982758,
        1.1041671672988309,
        -1.1041671672988309,
        -0.51313557600830562,
        -0.49735318152132402,
        -0.68714319855258998,
        0.35712453681451961,
        -1.4953744062763381,
        0.66209973761246466,
        -0.61467976604211039,
        0.59283670961691926,
        0.27183854487729892,
        0.29137950654097139,
        -0.38965872472363899,
        -0.60416210290875816,
        0.031208557782579558,
        0.4527873646672147,
        0.052157178834832577,
        0.026183425968530218,
        0.10149983842705218,
        0.22029862284584714,
        0.4619118549451422,
        0.12319853162080951,
        -0.14484818554792128,
        0.32393294703344477,
        0.20798755875037214,
        0.22029862284584714,
        0.4619118549451422,
        0.55844269190115448,
        0.89063543471381434,
        -0.011157311599731733,
        0.05335024464036689,
        -0.10956396368667125,
        0.042264650463435041,
        0.16273478160271113,
        0.42517011518956144
      ]
    },
    {
      "dualCoef": -307.20000000000005,
      "supportVector": [
        0.52717011585103235,
        -0.64766112717296942,
        -0.021852435480211471,
        0.77569704020808483,
        -0.23772952907308445,
        -0.3155078898640542,
        0.3155078898640542,
        -0.30943408459069888,
        -0.0083588749840353138,
        -0.20703915355560817,
        -0.26835975986798327,
        0.8045248599490884,
        -0.077666284838794925,
        0.50961205850355262,
        -0.23045742095457783,
        -0.15882973535833544,
        -0.22425597405782891,
        -0.92454593841143273,
        -0.79029359452819847,
        -1.1993107621651891,
        -1.0327889810594473,
        -1.4288730749669885,
        0.22103528320800864,
        0.12759958705237245,
        0.220339658559674,
        0.3577358822853659,
        -0.0041424606806288655,
        -0.0062093390313436372,
        0.30192369718676093,
        0.13896101496748942,
        0.220339658559674,
        0.3577358822853659,
        0.80348096143818426,
        0.50612906769408572,
        -0.045637177335037769,
        0.11696101991606508,
        -0.12772166969347021,
        0.04215134040774577,
        0.56432444191539999,
        0.47509144174793266
      ]
    },
    {
      "dualCoef": -307.20000000000005,
      "supportVector": [
        -0.28267420006393146,
        -0.85632102165576007,
        -0.71494928433722493,
        0.30869940001529828,
        -0.050133167134774725,
        -0.24557331796138471,
        0.24557331796138471,
        -0.61471471972855229,
        -0.42735501175304208,
        -0.70338201183925264,
        0.80900529969049317,
        -0.98955834256720565,
        -0.077666284838794925,
        -0.73805935586049698,
        0.29175089012287136,
        0.9493213607764589,
        -0.76016554729280916,
        -0.25384581022886349,
        -0.2528912674008657,
        -0.28366667574807986,
        -0.15853609246718822,
        -0.20550292099151068,
        -0.15421265021656921,
        -0.1248627719875882,
        -0.61831647337688578,
        -0.70557537997282482,
        -0.46554101104918022,
        -0.37099056647330414,
        -0.67647776261696013,
        -0.61536359506185689,
        -0.61831647337688578,
        -0.70557537997282482,
        -0.58448557886314922,
        -0.31971973756234245,
        0.90223742069758184,
        0.82639182839844771,
        0.93959172904184685,
        0.79807606167988709,
        -0.47089431310364593,
        -0.2970066999199939
      ]
    },
    {
      "dualCoef": -307.20000000000005,
      "supportVector": [
        -0.61301385778102346,
        0.50108213533549062,
        -0.12675842683373098,
        -0.71208255612275551,
        0.32824186968849867,
        0.11608054206819278,
        -0.11608054206819278,
        -0.43654381523528546,
        0.94530413299376337,
        0.38850167284873605,
        0.71012048639737502,
        -2.1273748611453183,
        0.1412857738977657,
        -1.3887085605258489,
        -1.1084586122703102,
        -0.46784373367794241,
        0.4588769667784276,
        0.89820249697369481,
        0.96231261902225396,
        1.0915276082570962,
        1.924797574039975,
        -0.9145835157136073,
        -0.44509507640636675,
        -0.54866476420872035,
        -0.30278833433852342,
        -0.29104942115145516,
        0.20019336924387149,
        0.66942518346787017,
        -0.28849301953661899,
        -0.19825880453151723,
        -0.30278833433852342,
        -0.29104942115145516,
        -0.24730501725031034,
        0.044397556853407509,
        0.57271798948852448,
        0.48113314584909883,
        0.58661976866960031,
        0.52912261120578497,
        -0.30592152837585679,
        -0.096384918095295161
      ]
    },
    {
      "dualCoef": -48.665097832093636,
      "supportVector": [
        0.61679715476652242,
        0.36222305964765478,
        0.65062186806799038,
        -0.12658633771218064,
        -0.90232027010839566,
        -1.0446476375762384,
        1.0446476375762384,
        0.65801219864865468,
        0.50347171388900502,
        0.78564656301168057,
        -0.37603637800051448,
        -0.2567182246773218,
        -0.15940838676711089,
        -0.28091734981607969,
        -0.34438125755807186,
        -0.66996244829779061,
        1.5116014399316517,
        -0.85219815688358991,
        -0.81122556925975253,
        -0.80844352268945041,
        -0.87780104403552273,
        0.76020713315762378,
        0.39522446231863906,
        0.41282316169675265,
        -1.0889518610405584,
        -1.2810189400952097,
        -0.575444617175635,
        -0.50994634022560315,
        -1.2091422915736871,
        -1.1799177531726504,
        -1.0889518610405584,
        -1.2810189400952097,
        -0.85420555379758967,
        -0.70471730601649285,
        1.3031927335328883,
        1.2543820377606447,
        1.3762616753274215,
        1.1397633984509141,
        -0.58832569341731644,
        -0.51934698912117816
      ]
    },
    {
      "dualCoef": -221.201191019807,
      "supportVector": [
        1.4279218569517076,
        -0.96102224984819251,
        0.41973902384977446,
        2.968332788841038,
        -0.98248702620529993,
        -0.83884216806599476,
        0.83884216806599476,
        1.142550146234002,
        -0.63685308013754549,
        0.28965672240818102,
        -1.264109610521944,
        0.40062695833060197,
        -1.9933508307445427,
        -1.0016941632839798,
        -0.68790636681314354,
        -0.97210852967477634,
        -1.0680351422926946,
        -0.16094990838413231,
        -0.21722414547741156,
        -0.011172587249293047,
        0.47630915468941903,
        1.2116276280533773,
        -0.067220431676183232,
        0.010996422728749733,
        0.59699673064397285,
        0.56054803480885818,
        0.37832347842036762,
        0.29770177461345226,
        0.57532482936695151,
        0.55739039944679791,
        0.59699673064397285,
        0.56054803480885818,
        -0.37733184542562187,
        -0.13662002898135978,
        -0.21553223941710886,
        -0.2297572284628705,
        -0.14921475118896055,
        -0.26498720292262273,
        -0.39749738822875008,
        -0.35179510643352929
      ]
    },
    {
      "dualCoef": -307.20000000000005,
      "supportVector": [
        -0.5233868188655334,
        -0.020196319920449231,
        -0.37871213256312397,
        -0.5504289665020311,
        -0.88944633525793981,
        -0.89169118321537622,
        0.89169118321537622,
        0.097968898244514629,
        0.13163746455252856,
        0.15727509235386622,
        -0.29855793901721206,
        -0.18122328979536176,
        -0.21370849733377792,
        -0.26329169412773873,
        -0.54211800505217922,
        -0.50047792363975618,
        -0.1128652998432275,
        0.095687660872339902,
        -0.40036891668493663,
        1.1539199013224228,
        2.147073393167942,
        -1.3010736654531221,
        -0.57766388147768166,
        -0.53978064122905933,
        -0.024987131242430311,
        -0.22477690079394189,
        -0.34574471400652995,
        -0.37902785986480003,
        -0.10064788367662288,
        -0.12097500226414534,
        -0.024987131242430311,
        -0.22477690079394189,
        -0.44901552865052513,
        -0.7370299790286976,
        0.42064270584041713,
        0.42079417347620629,
        0.53736436875520111,
        0.32242906335837079,
        -0.35668171582303709,
        -0.55657183453368198
      ]
    },
    {
      "dualCoef": -56.019248158227434,
      "supportVector": [
        -0.94335351549811541,
        -1.0300805067410734,
        -1.2825175965319073,
        -0.3253035652738599,
        -0.72616498083391767,
        -0.76656157362733868,
        0.76656157362733868,
        -0.99713031961653931,
        -0.055024321496223272,
        -0.68714319855258998,
        -0.2038051638054672,
        -0.30740768095520932,
        -0.43266055607033854,
        -0.49167519017453948,
        -0.76343211538128319,
        -0.68240712829854244,
        -0.62992683465353894,
        0.57365461869528489,
        0.36804535973872532,
        1.3237223861419114,
        1.3568868906415408,
        -0.46316302081785393,
        -0.63665343095468696,
        -0.64332910137697374,
        0.56189281271209601,
        0.44686052931363157,
        -0.011018515555191977,
        0.2622869915334598,
        0.49813374815621941,
        0.48663757692563842,
        0.56189281271209601,
        0.44686052931363157,
        -0.38244555393178897,
        -0.42642630622071881,
        -0.10343216751483117,
        -0.12263958837469713,
        -0.056015234846268719,
        -0.18939686717575674,
        -0.36529314818799763,
        -0.39156409363530875
      ]
    },
    {
      "dualCoef": -120.70861708011319,
      "supportVector": [
        -0.94335351549811541,
        -1.0300805067410734,
        -1.2825175965319073,
        -0.3253035652738599,
        -0.72616498083391767,
        -0.76656157362733868,
        0.76656157362733868,
        -0.99713031961653931,
        -0.055024321496223272,
        -0.68714319855258998,
        -0.2038051638054672,
        -0.30740768095520932,
        -0.43266055607033854,
        -0.49167519017453948,
        -0.76343211538128319,
        -0.68240712829854244,
        -0.62992683465353894,
        0.57365461869528489,
        0.36804535973872532,
        1.3237223861419114,
        1.3568868906415408,
        -0.46316302081785393,
        -0.63665343095468696,
        -0.64332910137697374,
        0.56189281271209601,
        0.44686052931363157,
        -0.011018515555191977,
        0.2622869915334598,
        0.49813374815621941,
        0.48663757692563842,
        0.56189281271209601,
        0.44686052931363157,
        -0.38244555393178897,
        -0.42642630622071881,
        -0.10343216751483117,
        -0.12263958837469713,
        -0.056015234846268719,
        -0.18939686717575674,
        -0.36529314818799763,
        -0.39156409363530875
      ]
    },
    {
      "dualCoef": -307.20000000000005,
      "supportVector": [
        1.8177994762340894,
        -0.15979795751035905,
        1.1764967734426843,
        0.95858705797318444,
        -0.11008933040475499,
        -0.05426536634515277,
        0.05426536634515277,
        2.0583920516475618,
        -1.2181853978585253,
        0.47146082768277336,
        0.3074212234487958,
        1.9682253562010159,
        0.14186964605439653,
        1.4598974098707007,
        0.22056401413113713,
        0.58893261867472413,
        -0.51214450248453047,
        -0.16614410643257532,
        -0.053692860653066984,
        -0.3735192863252938,
        -0.35487074216315079,
        -1.1722436155399505,
        -1.0972850850784386,
        -1.0879357192194397,
        -0.21858013017970984,
        -0.31937486228904383,
        -0.35796079784079848,
        -0.31419188061485731,
        -0.2793087953347394,
        -0.27466007446447471,
        -0.21858013017970984,
        -0.31937486228904383,
        -0.61358759061784196,
        -0.37109503604446298,
        0.46238751308633635,
        0.43133950535960369,
        0.52156276291294146,
        0.34696872098474796,
        -0.56342791406303627,
        -0.44202510547901336
      ]
    },
    {
      "dualCoef": -307.20000000000005,
      "supportVector": [
        -0.13350919958315158,
        -0.19469836690783648,
        -0.21104187287843895,
        -0.23911965510104621,
        0.075951251177183654,
        0.19999220976722848,
        -0.19999220976722848,
        0.22453542491198764,
        -1.4976816360113108,
        -0.91907581440774955,
        0.66755867823097248,
        0.32405352437889962,
        0.30593772206765929,
        0.42185879401266363,
        -0.20495674255382929,
        0.26493039891281944,
        -0.31407263530607782,
        -0.95138647620010874,
        -0.93049176393170396,
        -0.61592818034283381,
        -0.9975466752809603,
        1.8557778776192353,
        0.28285939708881475,
        0.2968696447204105,
        -0.58946609025641017,
        -0.75618113666115883,
        -0.46243437774149559,
        -0.49421393482927289,
        -0.64006287457874833,
        -0.65890114983242054,
        -0.58946609025641017,
        -0.75618113666115883,
        0.16764051098149937,
        -0.6129748931217871,
        0.77170234588034314,
        0.77695487210614589,
        0.88380041505253037,
        0.68883852762958087,
        0.065704806193879112,
        -0.45786024699592859
      ]
    },
    {
      "dualCoef": -143.80644055109323,
      "supportVector": [
        -0.013152890182350619,
        2.694609994062052,
        1.6176399165703048,
        -0.75782289755474652,
        1.5706802662085717,
        1.303613011765214,
        -1.303613011765214,
        -0.30943408459069888,
        -0.0083588749840353138,
        -0.20703915355560817,
        -0.26835975986798327,
        -0.48428152839294436,
        2.4131323353483189,
        1.2131382302339273,
        1.8329964350804153,
        2.4835527469606675,
        4.2829505791607234,
        -0.55745780258426891,
        -0.41459248047834474,
        -0.90243449567308853,
        -0.79615121555340718,
        0.43864732857434746,
        1.3219291897565237,
        1.2964656279245652,
        -1.8097146690623551,
        -1.8419707314849676,
        -0.24955152855432669,
        -0.18099498813899675,
        -1.791794376045079,
        -1.8603750374152126,
        -1.8097146690623551,
        -1.8419707314849676,
        1.0224211477944882,
        -0.1125105127477543,
        2.2384541968763312,
        2.5445810166635834,
        2.5521630461427467,
        2.4326880584475497,
        3.5587855940592745,
        -0.042226317274933589
      ]
    },
    {
      "dualCoef": -167.85416600509646,
      "supportVector": [
        -0.64310293513122363,
        -0.47315908018558211,
        -0.73602014584840192,
        -0.44506030506268646,
        0.5895648931363664,
        1.0224189537780568,
        -1.0224189537780568,
        -1.0731788764124459,
        -0.93918560062608236,
        -1.3652901621108267,
        -0.7586750295739616,
        -0.43359207211505685,
        0.03210168060780081,
        -0.28091734981607969,
        1.0337326062169307,
        -0.32904066375167851,
        -0.90895639957866081,
        0.74835059291182304,
        0.52137776775748168,
        0.92815614461153817,
        0.83628903998570492,
        -0.5280933659740924,
        -0.43087109307011406,
        -0.4206970149871731,
        -0.99099981277763272,
        -0.94237234361958711,
        -0.11920053368631675,
        0.21769521697529948,
        -0.96610676547856555,
        -0.90617315304553481,
        -0.99099981277763272,
        -0.94237234361958711,
        -0.014830776531085802,
        0.18296793077289372,
        1.1621609362780767,
        1.0879420803777893,
        1.1538664655633293,
        1.1192736575460809,
        -0.14845006263976396,
        0.036962539970960384
      ]
    },
    {
      "dualCoef": -7.887118754802434,
      "supportVector": [
        0.64752642525183335,
        2.45030712827971,
        1.9328062068332288,
        -0.59474131030655963,
        -0.20493425267698639,
        -0.39353342281697579,
        0.39353342281697579,
        1.1675375291812284,
        1.6204637846594616,
        1.9110669273134291,
        0.077325162180060844,
        0.62819026204622452,
        2.5497584199999328,
        2.0745452752577394,
        0.62451706374962446,
        0.039722611058533815,
        3.5572279869603567,
        0.37257477615153511,
        -0.046433346953740871,
        0.88092009583341579,
        1.1529379607068877,
        -0.46316302081785393,
        0.11515843412241289,
        0.072089970639666559,
        0.39512962518314454,
        0.27479152699611531,
        0.62082340647961687,
        0.23933272680798778,
        0.39018052938290254,
        0.3045781644793446,
        0.39512962518314454,
        0.27479152699611531,
        0.38942893408759671,
        -0.44540325081052201,
        -0.11203798243162645,
        -0.00913819048079746,
        0.026452699923801358,
        -0.086673329798272802,
        0.47167332002894807,
        -0.32333211467792822
      ]
    },
    {
      "dualCoef": -307.20000000000005,
      "supportVector": [
        -0.10342012223295133,
        -0.92537927854864099,
        -0.6311141544948824,
        0.69122434089243234,
        -0.28035044772909989,
        -0.36987549585140439,
        0.36987549585140439,
        0.37771894645802789,
        -0.19452422011244475,
        0.107146581773299,
        0.31192352967884412,
        0.34939825251784334,
        -0.24115048869542685,
        0.088096377786632915,
        0.34910432108497697,
        0.035372559100201123,
        -0.35060030516056478,
        -0.85927371109618222,
        -0.93058317497957777,
        -0.67396359702881226,
        -0.46034143032234309,
        0.8251374783138623,
        0.075929881859833945,
        0.071465950176074808,
        1.0057436977664906,
        0.8580037731709812,
        -0.34635433778698677,
        -0.31526695786610387,
        0.94516607840920241,
        0.94820172862269425,
        1.0057436977664906,
        0.8580037731709812,
        -0.75973806659223364,
        -0.54869395700015089,
        -0.53069695734974798,
        -0.55451806004410342,
        -0.44200413553046419,
        -0.58937405262009412,
        -0.53152213364097156,
        -0.47769237726822789
      ]
    },
    {
      "dualCoef": -184.86745030620062,
      "supportVector": [
        -0.85308628344751469,
        0.60578336352792295,
        -0.23166441818725048,
        -0.82545860241975921,
        -0.36468254180407789,
        -0.54622210408142657,
        0.54622210408142657,
        -0.15679376702177222,
        0.82963339855397833,
        0.48805265864958081,
        0.2533927023279311,
        -0.96421361442826192,
        0.19616975662106359,
        -0.5445521572395623,
        -2.326339619128297,
        -0.73141462251077216,
        0.43831445558460369,
        0.58201656147121539,
        0.34814761170515146,
        0.96676527139594903,
        1.1114800627988632,
        -0.33433297090468228,
        -0.51060277303851098,
        -0.3361940474178311,
        1.0883548495377704,
        1.166988247766263,
        0.75195958652448391,
        1.1295117635029308,
        1.1123547180400308,
        1.0319181138507214,
        1.0883548495377704,
        1.166988247766263,
        -0.1237704243663634,
        0.28620853192641754,
        -0.64373263161515482,
        -0.59803763285932565,
        -0.73209404522473287,
        -0.6188638526527428,
        -0.1318653421130366,
        0.23997749134153309
      ]
    },
    {
      "dualCoef": -307.20000000000005,
      "supportVector": [
        3.8280059204815098,
        0.98894530499810096,
        3.2777548139296324,
        0.76001222973606253,
        0.70270173322051055,
        1.1740976618820789,
        -1.1740976618820789,
        3.7645957437614364,
        0.34063909201668957,
        2.6887648766725105,
        -0.12432717708504387,
        3.4339055919807837,
        1.5373241004020763,
        3.3754686706376269,
        1.297343361495557,
        1.1634598210582354,
        0.59707267034254652,
        -0.36313101065219006,
        -0.4464030352587201,
        0.19931400503490923,
        -0.12699622458722465,
        0.76020713315762378,
        0.051581238021992951,
        0.052672799952660103,
        -0.44086731801343387,
        -0.64265608209419689,
        -0.26111435680367068,
        -0.25080442472639286,
        -0.56433278034823287,
        -0.52433249468386833,
        -0.44086731801343387,
        -0.64265608209419689,
        -0.86829303308958872,
        -0.74291207470991061,
        0.7656110999892618,
        0.70511740278623936,
        0.84337303867445923,
        0.63142852371204605,
        -0.55452009320276263,
        -0.51166281877442998
      ]
    },
    {
      "dualCoef": -307.20000000000005,
      "supportVector": [
        3.1378777208322362,
        0.98894530499810096,
        2.7944699477796582,
        0.5214565137380377,
        0.70270173322051055,
        1.0311150186321747,
        -1.0311150186321747,
        -0.30943408459069888,
        -0.0083588749840353138,
        -0.20703915355560817,
        -0.26835975986798327,
        2.8525945933896915,
        1.5373241004020763,
        2.9712036316582329,
        1.297343361495557,
        4.5708533275617453,
        0.72706647681836689,
        -0.6505533111828371,
        -0.65717742418836933,
        -0.68846341906876574,
        -0.26774347499560436,
        0.24488693350493734,
        0.015939912764863118,
        0.045447633871624295,
        -0.44466416219600069,
        -0.64390557564125239,
        -0.39875208453136318,
        -0.31974502067480726,
        -0.56893980938916977,
        -0.52639368974319867,
        -0.44466416219600069,
        -0.64390557564125239,
        -0.8601231306746917,
        -0.73350005207079749,
        0.77996051103724695,
        0.71896474310950331,
        0.84657906941354277,
        0.637255286382159,
        -0.60765076597535217,
        -0.50371961964601197
      ]
    },
    {
      "dualCoef": -307.20000000000005,
      "supportVector": [
        2.2076770955164711,
        0.50182469723756462,
        1.8489710769908863,
        0.49020235060162587,
        -0.095130322493415437,
        0.051723988375671701,
        -0.051723988375671701,
        1.2435860859771348,
        0.48063543155325344,
        1.1499608089211548,
        -0.39360862098979593,
        1.4877540206308271,
        0.44314767887590395,
        1.3192671783147889,
        0.40674105982169301,
        -0.28057866425636818,
        0.17902118871773787,
        -0.28185873935412464,
        -0.23999228489480229,
        -0.10719699313168493,
        0.017961409302004003,
        0.56747737848751911,
        0.024977093140633639,
        0.030289581177584381,
        -0.6197064010490142,
        -0.45225621434294722,
        -0.33047154456862227,
        -0.41129894112381538,
        -0.51071477978346513,
        -0.54601937421634572,
        -0.6197064010490142,
        -0.45225621434294722,
        0.58611802894355103,
        0.62002850687896782,
        0.72505319625622267,
        0.74592576024778612,
        0.68158009788189444,
        0.77850689522704097,
        0.2788809803701161,
        0.36052181181816761
      ]
    },
    {
      "dualCoef": -62.313303187776064,
      "supportVector": [
        0.2570086128343409,
        1.0587461237930558,
        0.81918876015740638,
        -0.48942078167226355,
        0.080328180091633949,
        0.57832512949301651,
        -0.57832512949301651,
        -2.2704004419708594,
        -0.54302574619282717,
        -1.8616330203944709,
        -0.88252824975593602,
        0.6028455339072808,
        1.4281400071121113,
        1.336517820052314,
        -0.3900984656459901,
        -0.61147170491633396,
        -0.084155426381220269,
        -0.81168839126500625,
        -0.9393498285886881,
        -0.4942267675759825,
        -0.20359500952742818,
        0.89006782347010083,
        0.2180075113110046,
        0.23702590836454604,
        -1.1626994794978922,
        -1.3305928996560983,
        -0.47191964676865733,
        -0.44998110940954761,
        -1.2387612354454345,
        -1.2538409028473427,
        -1.1626994794978922,
        -1.3305928996560983,
        -0.21554406715759789,
        -0.61526437735680728,
        1.3593401187062171,
        1.3556688283804195,
        1.4582568315880304,
        1.2343989525579995,
        -0.16846132620150356,
        -0.4731476254456759
      ]
    },
    {
      "dualCoef": -22.800640771942653,
      "supportVector": [
        2.5681058305837632,
        1.8584852923267412,
        2.9204468006443545,
        -0.02108509211593388,
        0.7189993227062107,
        1.1361330091122572,
        -1.1361330091122572,
        2.567917382180136,
        -0.63685308013754549,
        1.2159751151082399,
        -0.81042016824708873,
        1.6899725962075058,
        0.46942192592429127,
        1.47677303765741,
        0.31272997726970092,
        -0.16706350324392769,
        0.19096624682081328,
        -0.75959664570022745,
        -0.72860979981957852,
        -0.7012962371593936,
        -0.56835409234337109,
        -0.33433297090468228,
        -1.3963961070246158,
        -1.3820571066735681,
        0.49369309060106115,
        0.37459700549716568,
        -0.42035099578829399,
        -0.33955838848773012,
        0.43274621851418149,
        0.46094126698830595,
        0.49369309060106115,
        0.37459700549716568,
        -0.68829526044197387,
        -0.44117474810322349,
        -0.30530878463059624,
        -0.3453808048476561,
        -0.2189962405481557,
        -0.39992284668600742,
        -0.66241135917909033,
        -0.54809490991222631
      ]
    },
    {
      "dualCoef": -41.478504195056537,
      "supportVector": [
        3.0482506819167461,
        -0.43825867078810465,
        1.8700419385020632,
        2.3979923145071265,
        3.0815857660555315,
        2.7477484672836194,
        -2.7477484672836194,
        -0.028597628422958363,
        -0.91585287736998844,
        -0.66984533222549281,
        3.1723190253823259,
        0.72956917460199944,
        0.44256380671927315,
        0.79162254951700772,
        3.9450995504792004,
        2.6985836831102015,
        -0.79036775708991014,
        0.43595537975470899,
        0.71411886194839402,
        0.33099845816428269,
        0.75407670497718982,
        1.7269478277060637,
        -0.41218328249135538,
        -0.95140989319599545,
        0.62925056552494951,
        0.73380861201369907,
        2.0471769707147942,
        2.8581416230493177,
        0.65658924537240659,
        0.69094708922485226,
        0.62925056552494951,
        0.73380861201369907,
        0.4417785814387612,
        0.38350525336643199,
        -0.41303774925064557,
        -0.50535661769792162,
        -0.45213077271183894,
        -0.27936424763748158,
        0.36173293743045665,
        0.44498241576245484
      ]
    },
    {
      "dualCoef": -307.20000000000005,
      "supportVector": [
        -1.0028914770634052,
        0.39638090714305824,
        -0.46299557860783191,
        -0.86954762600116742,
        0.45069983993161483,
        0.5394165517953281,
        -0.5394165517953281,
        -0.43600061125817186,
        -0.21835338428888115,
        -0.43861875173062292,
        0.45927975534231369,
        -0.71184483210856686,
        1.0170940088440084,
        0.15822398658918094,
        1.1814726732331338,
        0.063837342541601852,
        -0.41529550292889261,
        -0.56268546743586667,
        -0.69529492963973649,
        0.050235041756614807,
        -0.20932683618581391,
        2.6287581770982653,
        0.18238332617424868,
        0.20520797924734963,
        -0.3558141817468185,
        -0.48253310975083058,
        -0.13499828301587946,
        0.11978351504179706,
        -0.41291028414639847,
        -0.45214442337314337,
        -0.3558141817468185,
        -0.48253310975083058,
        -0.25485111246775466,
        -0.46624903584044719,
        0.59000270763417928,
        0.55901296838817038,
        0.63501347946607478,
        0.54078542983455247,
        -0.26076780723314336,
        -0.19664868844197703
      ]
    },
    {
      "dualCoef": -307.20000000000005,
      "supportVector": [
        2.1782282113013816,
        2.2765476431943967,
        2.8998242553355431,
        -0.22171961465176895,
        0.80486725235212031,
        1.2003681925215188,
        -1.2003681925215188,
        1.982886698828769,
        2.2956234363251595,
        2.9210505102078148,
        0.62787497018396654,
        2.2971675724724134,
        1.0719779915673062,
        2.2860531435178304,
        0.79852805633821511,
        0.23996869291583786,
        1.9513935726879656,
        -0.071554019051940143,
        -0.58801733333309214,
        0.89658430775701181,
        1.6502225231966605,
        0.37474762381741433,
        -0.092772167389889443,
        0.09693192254506397,
        0.27047045390871105,
        0.34028881463892374,
        0.28770675171356025,
        0.40015811405114582,
        0.37783233727118681,
        0.19538010661258157,
        0.27047045390871105,
        0.34028881463892374,
        1.146444841355736,
        0.25662213341983159,
        -0.037494371008328704,
        0.072953133353954411,
        0.0077328550814301355,
        0.0016621100078514513,
        0.37124504651274853,
        -0.01660269545377524
      ]
    },
    {
      "dualCoef": -307.20000000000005,
      "supportVector": [
        -1.0028914770634052,
        0.39638090714305824,
        -0.46299557860783191,
        -0.86954762600116742,
        0.45069983993161483,
        0.5394165517953281,
        -0.5394165517953281,
        -0.43600061125817186,
        -0.21835338428888115,
        -0.43861875173062292,
        0.45927975534231369,
        -0.71184483210856686,
        1.0170940088440084,
        0.15822398658918094,
        1.1814726732331338,
        0.063837342541601852,
        -0.41529550292889261,
        -0.62703413566891841,
        -0.83971841671469272,
        0.047984990143602885,
        -0.15254429489177146,
        -0.076672871078339047,
        0.22829805036474726,
        0.22942200413448438,
        0.19884984951389001,
        0.13301424688481991,
        -0.037998472894694123,
        -0.46110626330788806,
        0.24134095688895249,
        0.1037246175604697,
        0.19884984951389001,
        0.13301424688481991,
        1.1199019131627062,
        -0.24361285611131617,
        0.012332425436753426,
        0.10901392819191891,
        0.1581425485467973,
        0.021254406918376829,
        0.56580438414334222,
        -0.37629461510984108
      ]
    },
    {
      "dualCoef": -307.20000000000005,
      "supportVector": [
        -1.0028914770634052,
        0.39638090714305824,
        -0.46299557860783191,
        -0.86954762600116742,
        0.45069983993161483,
        0.5394165517953281,
        -0.5394165517953281,
        -0.43600061125817186,
        -0.21835338428888115,
        -0.43861875173062292,
        0.45927975534231369,
        -0.71184483210856686,
        1.0170940088440084,
        0.15822398658918094,
        1.1814726732331338,
        0.14152471674852146,
        -0.19890508690122846,
        -0.56268546743586667,
        -0.69529492963973649,
        0.050235041756614807,
        -0.20932683618581391,
        2.6287581770982653,
        0.18238332617424868,
        0.20520797924734963,
        -0.3558141817468185,
        -0.48253310975083058,
        -0.13499828301587946,
        0.11978351504179706,
        -0.41291028414639847,
        -0.45214442337314337,
        -0.3558141817468185,
        -0.48253310975083058,
        -0.25485111246775466,
        -0.46624903584044719,
        0.59000270763417928,
        0.55901296838817038,
        0.63501347946607478,
        0.54078542983455247,
        -0.26076780723314336,
        -0.19664868844197703
      ]
    },
    {
      "dualCoef": -11.033358367650502,
      "supportVector": [
        2.1782282113013816,
        2.2765476431943967,
        2.8998242553355431,
        -0.22171961465176895,
        0.80486725235212031,
        1.2003681925215188,
        -1.2003681925215188,
        1.982886698828769,
        2.2956234363251595,
        2.9210505102078148,
        0.62787497018396654,
        2.2971675724724134,
        1.0719779915673062,
        2.2860531435178304,
        0.79852805633821511,
        0.11808211421732023,
        1.4207457724383887,
        -0.071554019051940143,
        -0.58801733333309214,
        0.89658430775701181,
        1.6502225231966605,
        0.37474762381741433,
        -0.092772167389889443,
        0.09693192254506397,
        0.27047045390871105,
        0.34028881463892374,
        0.28770675171356025,
        0.40015811405114582,
        0.37783233727118681,
        0.19538010661258157,
        0.27047045390871105,
        0.34028881463892374,
        1.146444841355736,
        0.25662213341983159,
        -0.037494371008328704,
        0.072953133353954411,
        0.0077328550814301355,
        0.0016621100078514513,
        0.37124504651274853,
        -0.01660269545377524
      ]
    },
    {
      "dualCoef": -307.20000000000005,
      "supportVector": [
        -1.0028914770634052,
        0.39638090714305824,
        -0.46299557860783191,
        -0.86954762600116742,
        0.45069983993161483,
        0.5394165517953281,
        -0.5394165517953281,
        -0.43600061125817186,
        -0.21835338428888115,
        -0.43861875173062292,
        0.45927975534231369,
        -0.71184483210856686,
        1.0170940088440084,
        0.15822398658918094,
        1.1814726732331338,
        0.14152471674852146,
        -0.19890508690122846,
        -0.62703413566891841,
        -0.83971841671469272,
        0.047984990143602885,
        -0.15254429489177146,
        -0.076672871078339047,
        0.22829805036474726,
        0.22942200413448438,
        0.19884984951389001,
        0.13301424688481991,
        -0.037998472894694123,
        -0.46110626330788806,
        0.24134095688895249,
        0.1037246175604697,
        0.19884984951389001,
        0.13301424688481991,
        1.1199019131627062,
        -0.24361285611131617,
        0.012332425436753426,
        0.10901392819191891,
        0.1581425485467973,
        0.021254406918376829,
        0.56580438414334222,
        -0.37629461510984108
      ]
    },
    {
      "dualCoef": -122.5006504970117,
      "supportVector": [
        -0.67319201248142391,
        -0.71671938406585034,
        -0.9041387217354524,
        -0.30798161450687828,
        -0.64041369570741957,
        -0.73461422343617466,
        0.73461422343617466,
        -0.029684036377185599,
        -0.4035258475766057,
        -0.30623712167630807,
        -0.43825107905483035,
        -0.029154920961699304,
        0.11384378253611678,
        0.052845066409951021,
        0.024312572359542414,
        -0.25311530991783887,
        -0.0698816715553984,
        1.2453617658569851,
        1.1805432222204297,
        1.072696459374471,
        1.1286203912891648,
        -0.46316302081785393,
        -0.68422091148114761,
        -0.45837320366200884,
        0.21640133845315102,
        0.26376747701784092,
        0.88184654731785495,
        0.52896757256780025,
        0.23930469449870487,
        0.33190948956108673,
        0.21640133845315102,
        0.26376747701784092,
        -0.087531161569757057,
        0.17397930991496149,
        0.052996366714711876,
        0.039975361665183173,
        0.056888722723542229,
        0.12030387339109361,
        0.33995571312424466,
        0.18975278367776877
      ]
    },
    {
      "dualCoef": -307.20000000000005,
      "supportVector": [
        0.01757638030296026,
        1.231763046976295,
        0.75597617562387542,
        -0.59914897125373701,
        0.21011135601487255,
        0.63505647046705527,
        -0.63505647046705527,
        0.65855540262576839,
        0.27064092224840763,
        0.62043428870389561,
        0.50776888502852557,
        -0.20602876839943435,
        1.5641822196070945,
        0.86137514436873996,
        -0.69755758065839812,
        0.17422778165463698,
        0.83267451023229522,
        0.022256717812338105,
        -0.17591870114817942,
        0.10829280458862332,
        0.45999713723376456,
        -0.65589277548795866,
        -0.82462728167301003,
        -0.77790784647420586,
        0.20996848594146894,
        0.028094168230826194,
        -0.29236313177095019,
        -0.39495755521621634,
        0.10623420851961154,
        0.13069663442292909,
        0.20996848594146894,
        0.028094168230826194,
        -0.88581136415667105,
        -0.67177490634464654,
        0.20609560776039001,
        0.16197594657133962,
        0.2793645432455184,
        0.094901915675605714,
        -0.61162878969290957,
        -0.49921775284930431
      ]
    },
    {
      "dualCoef": -307.20000000000005,
      "supportVector": [
        -1.0630696317638058,
        -0.64691856527089542,
        -1.1350215659536684,
        -0.73197779732784363,
        0.21980493919198316,
        0.012435664189685584,
        -0.012435664189685584,
        -0.46207440215962553,
        0.038803012448495072,
        -0.27270044206254834,
        0.94608768460010073,
        -0.30686843142033815,
        -0.54242852151693433,
        -0.56180279897708751,
        0.35794201047576224,
        1.1685217263124441,
        -0.48991447447279091,
        -0.11950931442314819,
        -0.063925436878758554,
        0.10190453458113607,
        0.23724397851032078,
        2.2422680273587501,
        -0.42680429596158431,
        -0.51503432823751039,
        -1.0742621108223862,
        -0.42981426172848841,
        0.19325114519782563,
        0.61697423366730986,
        -0.79328617485119579,
        -0.76033766192694241,
        -1.0742621108223862,
        -0.42981426172848841,
        1.4341041015499121,
        2.3815322537879622,
        1.0088023192931754,
        0.96428553246044035,
        0.70365729331221261,
        1.1779356428352532,
        0.65281544823052895,
        1.4521303715557443
      ]
    },
    {
      "dualCoef": -307.20000000000005,
      "supportVector": [
        0.91768792826852486,
        -0.99518009734359592,
        0.041808465255684976,
        2.4322890039250211,
        -0.74682964216172565,
        -0.5834953960498942,
        0.5834953960498942,
        1.0659583854609818,
        -2.1490121235005724,
        -0.8354106242134226,
        -0.6223979187259473,
        1.2353852383111319,
        -0.46068641958861833,
        0.56323905347020697,
        -0.11906794833444925,
        -0.44667509793736104,
        -1.0143724967945218,
        -0.76498965297565857,
        -0.87015542434837301,
        -0.27083557654877444,
        -0.8106319494910259,
        2.4999281271850933,
        0.44309970614832006,
        0.45690585423654234,
        -0.26359408397763678,
        -0.43538950038799218,
        -0.53717387312012066,
        -0.49078729369970736,
        -0.37160961695495909,
        -0.345154879283185,
        -0.26359408397763678,
        -0.43538950038799218,
        -0.43569860216177742,
        -0.63288878838330798,
        0.44434284115675915,
        0.40433484783083329,
        0.50296203100318027,
        0.3169896295983029,
        -0.35913626297557599,
        -0.47706683930427141
      ]
    },
    {
      "dualCoef": -307.20000000000005,
      "supportVector": [
        0.047025264518049857,
        -0.22959877630531395,
        -0.10568756532255398,
        -0.09997660853789872,
        0.99326946929208848,
        0.75171919424274647,
        -0.75171919424274647,
        0.2000912459418748,
        -0.98585104713827032,
        -0.57100038178493773,
        0.59291597047660571,
        -1.4953744062763381,
        -0.73452246104847685,
        -1.5117131363934198,
        1.7538263866388948,
        1.0330526190333813,
        -0.54967895946433398,
        -0.3849723268846344,
        -0.42028913686252567,
        -0.35135474976316045,
        -0.52500336967284633,
        0.24488693350493734,
        -1.1424484042518923,
        -1.2044912761454369,
        0.45732713347281295,
        0.45375146276240858,
        -0.013665625879775311,
        0.061134792832297495,
        0.45035743273776369,
        0.47814813822289065,
        0.45732713347281295,
        0.45375146276240858,
        -0.39057567446660729,
        -0.014834309894796761,
        -0.1966615071313193,
        -0.26128850482654808,
        -0.21123758065512396,
        -0.18371482919259827,
        -0.24273934891893437,
        0.054384708231853707
      ]
    },
    {
      "dualCoef": -307.20000000000005,
      "supportVector": [
        -0.70328108983162418,
        -0.43825867078810465,
        -0.7570910073595789,
        -0.5099291180526816,
        -0.55212889203281545,
        -0.72538481174266656,
        0.72538481174266656,
        -0.28444670164347247,
        -0.17119149685635077,
        -0.30659013935645291,
        -0.13326015978410033,
        -0.10518910537853053,
        0.19675362877769439,
        0.053220080360766787,
        -0.45579407037112718,
        -0.62476928156837219,
        -0.071564112124050575,
        0.31423956172373163,
        0.1976398521414662,
        0.35359176044491097,
        0.80753187748050703,
        -0.5280933659740924,
        -0.027124180364067066,
        -0.023615845008995807,
        -0.42764957298205664,
        -0.45084460042153551,
        -0.011576574703140547,
        -0.20889292077025559,
        -0.38114688475015274,
        -0.42547212619341401,
        -0.42764957298205664,
        -0.45084460042153551,
        0.9014061989475205,
        -0.08404210832608161,
        0.61907112136896991,
        0.6526029913525615,
        0.70749549032233461,
        0.61709669937709433,
        0.57307427345972839,
        -0.17700501709031546
      ]
    },
    {
      "dualCoef": -307.20000000000005,
      "supportVector": [
        -0.70328108983162418,
        -0.43825867078810465,
        -0.7570910073595789,
        -0.5099291180526816,
        -0.55212889203281545,
        -0.72538481174266656,
        0.72538481174266656,
        -0.28444670164347247,
        -0.17119149685635077,
        -0.30659013935645291,
        -0.13326015978410033,
        -0.10518910537853053,
        0.19675362877769439,
        0.053220080360766787,
        -0.45579407037112718,
        -0.62476928156837219,
        -0.071564112124050575,
        0.31423956172373163,
        0.1976398521414662,
        0.35359176044491097,
        0.80753187748050703,
        -0.5280933659740924,
        -0.027124180364067066,
        -0.023615845008995807,
        -0.42764957298205664,
        -0.45084460042153551,
        -0.011576574703140547,
        -0.20889292077025559,
        -0.38114688475015274,
        -0.42547212619341401,
        -0.42764957298205664,
        -0.45084460042153551,
        0.9014061989475205,
        -0.08404210832608161,
        0.61907112136896991,
        0.6526029913525615,
        0.70749549032233461,
        0.61709669937709433,
        0.57307427345972839,
        -0.17700501709031546
      ]
    },
    {
      "dualCoef": -102.12007428013229,
      "supportVector": [
        3.2582340302330373,
        -0.43900123269017866,
        2.0166413366755713,
        2.5630887452965765,
        -1.079867980564313,
        -0.70339534270966009,
        0.70339534270966009,
        2.8731980173179892,
        -2.7080045998061433,
        -0.058418710214630742,
        -0.96928182809038821,
        2.9787789845495389,
        -0.35150232629865341,
        1.8457867652601225,
        -0.62669327653951046,
        -1.0793212957291709,
        -0.81591200925166318,
        0.28537375417857569,
        0.16040017245423538,
        0.58196785644654658,
        0.34665075584053656,
        1.4692877278797205,
        -0.60333988310936648,
        -0.61115097939647645,
        -0.18915644970521675,
        -0.24630160435858808,
        -0.27729789538173655,
        -0.15152242608175676,
        -0.24568486927065147,
        -0.23951945821498388,
        -0.18915644970521675,
        -0.24630160435858808,
        -0.2684824398705481,
        -0.21015657970342039,
        0.54173004021182336,
        0.50504955981563238,
        0.55347857253360977,
        0.44844475165171077,
        -0.28610507769429439,
        -0.23749897658401636
      ]
    },
    {
      "dualCoef": -307.20000000000005,
      "supportVector": [
        0.40745399958534206,
        -0.89122143105323759,
        -0.25273527969842746,
        1.2597852337340585,
        -0.48895754561195603,
        -0.66500513799838579,
        0.66500513799838579,
        0.27613980273778133,
        -1.1253509457544919,
        -0.62077587468536011,
        0.23568208853029282,
        -0.0038101928227555659,
        -0.48812841095026727,
        -0.31616866119276155,
        0.1616738383023355,
        0.43455043630336532,
        -0.90467289821434294,
        -0.66781721020125728,
        -0.67636526732477553,
        -0.50048835534476221,
        -0.40975542115132141,
        1.7918781728623021,
        0.21606378584929126,
        0.23871660101679509,
        -1.0380727372288168,
        -1.1703721097584134,
        -0.51795959015372062,
        -0.41784754750153996,
        -1.1320901791086233,
        -1.1329956253977365,
        -1.0380727372288168,
        -1.1703721097584134,
        -0.61697592545452185,
        -0.48438842088203599,
        1.2592346523510018,
        1.2377385558108349,
        1.3044339150039275,
        1.1173007130783597,
        -0.46770160622924462,
        -0.38540063901735483
      ]
    },
    {
      "dualCoef": -307.20000000000005,
      "supportVector": [
        -0.67319201248142391,
        -0.71671938406585034,
        -0.9041387217354524,
        -0.30798161450687828,
        -0.74085519784095255,
        -0.81360814845964902,
        0.81360814845964902,
        -0.30943408459069888,
        -0.49685674060098162,
        -0.55440855081813034,
        -0.091924309761311163,
        -0.78787901652539805,
        -0.81568069082016192,
        -1.0718217720865277,
        -1.1096539650266566,
        -0.75285726266316422,
        -0.68693377702314407,
        -0.14005192256434257,
        0.029936359456670954,
        -0.30004782812962788,
        -0.25401221147045888,
        -0.7857534658004357,
        -1.1197921087946425,
        -1.119259009582714,
        -0.056759842453504593,
        -0.14303613233094215,
        -0.36186532044207187,
        -0.33426248763266569,
        -0.048146823916831005,
        -0.076597935523416982,
        -0.056759842453504593,
        -0.14303613233094215,
        0.11748915973603492,
        -0.3181105708984116,
        0.24892274628305006,
        0.2456686736267242,
        0.35446750507477826,
        0.20017378823937904,
        -0.18191076276751628,
        -0.40325028974267418
      ]
    },
    {
      "dualCoef": -307.20000000000005,
      "supportVector": [
        -0.67319201248142391,
        -0.71671938406585034,
        -0.9041387217354524,
        -0.30798161450687828,
        -0.74085519784095255,
        -0.81360814845964902,
        0.81360814845964902,
        -0.30943408459069888,
        -0.49685674060098162,
        -0.55440855081813034,
        -0.091924309761311163,
        -0.78787901652539805,
        -0.81568069082016192,
        -1.0718217720865277,
        -1.1096539650266566,
        -0.75285726266316422,
        -0.68693377702314407,
        -0.14005192256434257,
        0.029936359456670954,
        -0.30004782812962788,
        -0.25401221147045888,
        -0.7857534658004357,
        -1.1197921087946425,
        -1.119259009582714,
        -0.056759842453504593,
        -0.14303613233094215,
        -0.36186532044207187,
        -0.33426248763266569,
        -0.048146823916831005,
        -0.076597935523416982,
        -0.056759842453504593,
        -0.14303613233094215,
        0.11748915973603492,
        -0.3181105708984116,
        0.24892274628305006,
        0.2456686736267242,
        0.35446750507477826,
        0.20017378823937904,
        -0.18191076276751628,
        -0.40325028974267418
      ]
    },
    {
      "dualCoef": -307.20000000000005,
      "supportVector": [
        0.8575097735681243,
        -1.1347817349335056,
        -0.084616703811376981,
        3.3872057899471786,
        -0.65312696428165407,
        -0.80779648297189233,
        0.80779648297189233,
        -0.99713031961653931,
        -0.86918743085780048,
        -1.2660921939901268,
        -0.11809715821258496,
        1.0827776199425985,
        -2.7593911002441893,
        -1.0193198189723207,
        -0.44823562541456408,
        -0.75562721891648088,
        -1.1859311578029621,
        -0.86014546762628363,
        -0.90353414644514052,
        -0.36627794041248862,
        -0.87062328502402475,
        -0.26940262574844381,
        -0.42117613853126562,
        -0.41206279417285319,
        0.14622473478963688,
        -0.058607743595295012,
        -0.45524591806245818,
        -0.46019503348842505,
        0.046948213303027814,
        0.061316282333034391,
        0.14622473478963688,
        -0.058607743595295012,
        -0.78581580873977708,
        -0.75624964301281661,
        0.30104829214988699,
        0.2693005622339173,
        0.39833192987389893,
        0.18287582223820201,
        -0.56809987903671366,
        -0.57455738725929306
      ]
    },
    {
      "dualCoef": -307.20000000000005,
      "supportVector": [
        0.8575097735681243,
        -1.1347817349335056,
        -0.084616703811376981,
        3.3872057899471786,
        -0.65312696428165407,
        -0.80779648297189233,
        0.80779648297189233,
        -0.99713031961653931,
        -0.86918743085780048,
        -1.2660921939901268,
        -0.11809715821258496,
        1.0827776199425985,
        -2.7593911002441893,
        -1.0193198189723207,
        -0.44823562541456408,
        -0.75562721891648088,
        -1.1859311578029621,
        -0.86014546762628363,
        -0.90353414644514052,
        -0.36627794041248862,
        -0.87062328502402475,
        -0.26940262574844381,
        -0.42117613853126562,
        -0.41206279417285319,
        0.14622473478963688,
        -0.058607743595295012,
        -0.45524591806245818,
        -0.46019503348842505,
        0.046948213303027814,
        0.061316282333034391,
        0.14622473478963688,
        -0.058607743595295012,
        -0.78581580873977708,
        -0.75624964301281661,
        0.30104829214988699,
        0.2693005622339173,
        0.39833192987389893,
        0.18287582223820201,
        -0.56809987903671366,
        -0.57455738725929306
      ]
    },
    {
      "dualCoef": -307.20000000000005,
      "supportVector": [
        -0.37294143211453218,
        1.4062650939636823,
        0.58785759973682494,
        -0.74130313378638357,
        -0.51179936987731278,
        -0.68683753472582076,
        0.68683753472582076,
        -0.48706178510685194,
        1.2014676478904547,
        0.53782815155000319,
        0.30858714983187008,
        0.24909783903181068,
        0.25046986718773062,
        0.33410552952177464,
        -0.28708884561426046,
        0.029450413367993172,
        0.70662555460822951,
        -1.055685738530002,
        -0.99361309936820841,
        -1.0306089122673894,
        -0.9762239859825016,
        2.3710980772719217,
        0.31498313246299908,
        0.33331090729049839,
        -0.93692839279045237,
        -1.1513210903422342,
        -0.46545537908462881,
        -0.45481566437055454,
        -1.0739747070794776,
        -1.0344954870848297,
        -0.93692839279045237,
        -1.1513210903422342,
        -0.86560303581939868,
        -0.78763296905510882,
        1.1816498867132321,
        1.1270253476490923,
        1.2587859743913012,
        1.0089812611501561,
        -0.5506590227163054,
        -0.57167475111845512
      ]
    },
    {
      "dualCoef": -307.20000000000005,
      "supportVector": [
        0.52717011585103235,
        -0.5778603083780145,
        0.020289287542142515,
        0.64977130586460929,
        -0.84893515462858637,
        -0.97025642216349395,
        0.97025642216349395,
        0.91277486391494156,
        0.13114102363218613,
        0.68644859489098065,
        -0.13080973266955195,
        -0.2567182246773218,
        -0.15940838676711089,
        -0.28091734981607969,
        -0.34438125755807186,
        0.02736893866564051,
        -0.019639678058628141,
        0.099448164884725798,
        0.13644147052830069,
        -0.070775381570035142,
        -0.020897529005964584,
        -0.9145835157136073,
        -0.077009415458940439,
        -0.085891334020623017,
        -0.40693238591402886,
        -0.57592257099777355,
        -0.34178226988313692,
        -0.35016635581088967,
        -0.52108479951101239,
        -0.48571295338457104,
        -0.40693238591402886,
        -0.57592257099777355,
        -0.75400109094956402,
        -0.62202432078291725,
        0.755146235514359,
        0.70868707947875842,
        0.82099353590496993,
        0.61307375088179972,
        -0.59374246570694156,
        -0.50270106733220499
      ]
    },
    {
      "dualCoef": -307.20000000000005,
      "supportVector": [
        -0.82299720609731442,
        0.81444325801071371,
        -0.084616703811376981,
        -0.83336625935092945,
        0.54679791904762476,
        0.32497814680225084,
        -0.32497814680225084,
        -0.30889088061358527,
        -0.10168976800841124,
        -0.27305345974269318,
        0.75460774035124722,
        -0.68650010396962313,
        0.68895785681748267,
        -0.034908198080937945,
        0.58736201137171751,
        0.75696849754511564,
        0.35705719962200183,
        -0.19124228741410243,
        -0.3416979930746023,
        0.27264113283210284,
        -0.16746500861421751,
        0.18098722874800421,
        0.20606631962243244,
        0.2124369799587342,
        0.2950293574846749,
        0.15508350701229831,
        -0.22896594954794447,
        -0.44905329794905746,
        0.24792320349914293,
        0.20853484641334621,
        0.2950293574846749,
        0.15508350701229831,
        -0.15907023810015694,
        -0.51738620196790341,
        0.0042668189804305331,
        0.025374321204445511,
        0.10297470625245973,
        -0.048363617508773549,
        -0.078535641125455594,
        -0.42453636595332328
      ]
    },
    {
      "dualCoef": -307.20000000000005,
      "supportVector": [
        -0.82299720609731442,
        0.81444325801071371,
        -0.084616703811376981,
        -0.83336625935092945,
        0.54679791904762476,
        0.32497814680225084,
        -0.32497814680225084,
        -0.30889088061358527,
        -0.10168976800841124,
        -0.27305345974269318,
        0.75460774035124722,
        -0.68650010396962313,
        0.68895785681748267,
        -0.034908198080937945,
        0.58736201137171751,
        0.87073905054699341,
        0.6598736891334166,
        -0.19124228741410243,
        -0.3416979930746023,
        0.27264113283210284,
        -0.16746500861421751,
        0.18098722874800421,
        0.20606631962243244,
        0.2124369799587342,
        0.2950293574846749,
        0.15508350701229831,
        -0.22896594954794447,
        -0.44905329794905746,
        0.24792320349914293,
        0.20853484641334621,
        0.2950293574846749,
        0.15508350701229831,
        -0.15907023810015694,
        -0.51738620196790341,
        0.0042668189804305331,
        0.025374321204445511,
        0.10297470625245973,
        -0.048363617508773549,
        -0.078535641125455594,
        -0.42453636595332328
      ]
    },
    {
      "dualCoef": -182.96540554240377,
      "supportVector": [
        0.55725919320123263,
        1.4411655033611599,
        1.2603319032850269,
        -0.47127885011129256,
        2.8875706505861585,
        2.5623072817268793,
        -2.5623072817268793,
        1.0659583854609818,
        0.68963705901741446,
        1.1831444708547698,
        2.9127713187124176,
        -1.7482824381309046,
        0.03210168060780081,
        -1.1952013619049142,
        1.5601506077069374,
        2.1473166180045684,
        0.65597761296359325,
        -0.41751090678563924,
        -0.43339956855252687,
        -0.38218271881346422,
        -0.074555456659854594,
        1.5981177777928921,
        1.2455074553428138,
        1.241999905534658,
        -2.4152828403308759,
        -2.3931929432338483,
        -0.45494966239673962,
        -0.42645517503620417,
        -2.3901279571068024,
        -2.4124967044135275,
        -2.4152828403308759,
        -2.3931929432338483,
        0.40500536756271088,
        0.090171827145321792,
        3.4010534803792165,
        3.4685565423361484,
        3.4598573989689174,
        3.331032427093624,
        0.83113175600774458,
        0.038399773366032328
      ]
    },
    {
      "dualCoef": -307.20000000000005,
      "supportVector": [
        0.58734827055143279,
        -0.78652020286080515,
        -0.063545842300199995,
        1.1584490752510632,
        -0.11986636289836328,
        0.22422745286085879,
        -0.22422745286085879,
        1.1164763553325483,
        -0.14785877360025679,
        0.62043428870389561,
        -0.53955093268358023,
        0.72956917460199944,
        0.11384378253611678,
        0.58048969520773208,
        0.54813265936402666,
        -0.41291101859168261,
        -0.26692567550718882,
        0.71772805529568795,
        0.86663394775664937,
        0.77567410573048645,
        1.53444290959337,
        -1.3000430250538169,
        0.14140900408160825,
        0.14957055702862063,
        -0.39986163314269679,
        -0.55912860992953517,
        -0.37304839663722739,
        -0.37852622298693384,
        -0.47080728601932387,
        -0.48494868458620694,
        -0.39986163314269679,
        -0.55912860992953517,
        -0.19173019551495965,
        -0.58617615708787596,
        0.65932753783506748,
        0.65733164192778937,
        0.74732477156799926,
        0.56392212812742215,
        -0.13141610198972908,
        -0.44068112370781826
      ]
    },
    {
      "dualCoef": -307.20000000000005,
      "supportVector": [
        -0.88317536079771497,
        -0.43825867078810465,
        -0.88306786022427541,
        -0.64937040176416727,
        -0.79923960856761678,
        -0.80802527548468539,
        0.80802527548468539,
        -1.8629974591356464,
        -0.38019312432051172,
        -1.4810799611983338,
        -1.1939828412445448,
        -0.30740768095520932,
        -0.10452440404381302,
        -0.28091734981607969,
        -0.40545529349223369,
        -0.86484257189626335,
        -0.28334847575933692,
        0.27873784939813417,
        0.42411397491101022,
        -0.16899626881816568,
        -0.056707047846331883,
        -1.0434135656267789,
        -0.25748419130929101,
        -0.24419063133900845,
        -0.031455819857223018,
        -0.15817193861706871,
        -0.37083667926497349,
        -0.3679947958241841,
        -0.079257470547366232,
        -0.070105021055062777,
        -0.031455819857223018,
        -0.15817193861706871,
        -0.30046381201903144,
        -0.46740322542907053,
        0.39908953399554536,
        0.37292522868375438,
        0.47780652841342275,
        0.3174679220590495,
        -0.33385036485899044,
        -0.40607302146181246
      ]
    },
    {
      "dualCoef": -307.20000000000005,
      "supportVector": [
        -0.88317536079771497,
        -0.43825867078810465,
        -0.88306786022427541,
        -0.64937040176416727,
        -0.79923960856761678,
        -0.80802527548468539,
        0.80802527548468539,
        -0.30943408459069888,
        -0.0083588749840353138,
        -0.20703915355560817,
        -0.26835975986798327,
        -0.30740768095520932,
        -0.10452440404381302,
        -0.28091734981607969,
        -0.40545529349223369,
        -0.64857156237636626,
        0.21545751943043345,
        0.24467773426052356,
        0.39834561638037025,
        -0.15080846927178165,
        0.15310190795984682,
        -0.97848322047054048,
        -0.25139013282134232,
        -0.24352950149922337,
        -0.049498881841889435,
        -0.16249762433566353,
        -0.35584884247721266,
        -0.33682688097629582,
        -0.084868737998401028,
        -0.074429548095279768,
        -0.049498881841889435,
        -0.16249762433566353,
        -0.2993809451002824,
        -0.41672850531190492,
        0.40310303578810763,
        0.37599962262711828,
        0.48159787230798068,
        0.3307937390329877,
        -0.33534256665609435,
        -0.37810820558551417
      ]
    },
    {
      "dualCoef": -307.20000000000005,
      "supportVector": [
        0.16674138078374015,
        0.60578336352792295,
        0.48250329218093996,
        -0.41133718203978781,
        0.12113549741681079,
        -0.081873370530333903,
        0.081873370530333903,
        0.65801219864865468,
        -0.89301659503423692,
        -0.20739217123575301,
        0.11495328801717521,
        0.34939825251784334,
        1.0176778810006391,
        0.89662645574542188,
        0.21980135000964482,
        0.022139678215297314,
        0.26040900828649488,
        -0.948565428601295,
        -0.96979819576891402,
        -0.79889310486300014,
        -0.76544262491004045,
        1.3404576779665489,
        0.42512866651197029,
        0.43989786145862164,
        -0.61637028003394501,
        -0.80312807806680431,
        -0.54673337451069448,
        -0.49265464923903768,
        -0.70130451613649991,
        -0.69483778410664743,
        -0.61637028003394501,
        -0.80312807806680431,
        -0.39091514641280189,
        -0.68682556242631232,
        0.77417219302548723,
        0.74767481337897246,
        0.87436069264988892,
        0.66352595383588542,
        -0.28738925352305944,
        -0.50478648832295536
      ]
    },
    {
      "dualCoef": -307.20000000000005,
      "supportVector": [
        0.16674138078374015,
        0.60578336352792295,
        0.48250329218093996,
        -0.41133718203978781,
        0.12113549741681079,
        -0.081873370530333903,
        0.081873370530333903,
        0.65801219864865468,
        -0.89301659503423692,
        -0.20739217123575301,
        0.11495328801717521,
        0.34939825251784334,
        1.0176778810006391,
        0.89662645574542188,
        0.21980135000964482,
        0.022139678215297314,
        0.26040900828649488,
        -0.98689890932276891,
        -0.98993980010065641,
        -0.89563087047373935,
        -0.88570406665324475,
        1.3404576779665489,
        0.30760882135189593,
        0.31019679270055733,
        0.23213529275766406,
        0.010910754592606696,
        -0.46803272800012469,
        -0.47394396396805383,
        0.14338118669400057,
        0.13720057788763143,
        0.23213529275766406,
        0.010910754592606696,
        -0.38690045588989852,
        -0.81703621236819679,
        0.051952210387405579,
        0.049013008144463029,
        0.17412978977657495,
        -0.042538418456094046,
        -0.29143700633944214,
        -0.60463498631391854
      ]
    },
    {
      "dualCoef": -307.20000000000005,
      "supportVector": [
        0.55661900006612197,
        1.6156675503485471,
        1.3652378946385464,
        -0.50270964529232842,
        1.9892967377445312,
        1.7606578720585049,
        -1.7606578720585049,
        -0.84449000204761271,
        0.68963705901741446,
        -0.058418710214630742,
        0.64354778380180255,
        0.75383540367120094,
        1.2915139224604977,
        1.3537684617898391,
        1.2328088382003628,
        0.18550888066273225,
        1.1602616809097031,
        1.4157465586979969,
        1.630443173917413,
        0.69283302526277923,
        0.74539266511336821,
        -0.33433297090468228,
        -0.086765662261024029,
        -0.0069456033714222843,
        0.47981691299296347,
        0.56279231112759021,
        0.221842037182786,
        0.57592064545896282,
        0.50711418444082113,
        0.62679480012358568,
        0.47981691299296347,
        0.56279231112759021,
        0.80495860005440178,
        0.30441309249648363,
        -0.14415501371018036,
        -0.23740840358827248,
        -0.16498635279427554,
        -0.21626393363398563,
        0.18780323007668712,
        -0.16754040991646743
      ]
    },
    {
      "dualCoef": -40.523758099040215,
      "supportVector": [
        0.55661900006612197,
        1.6156675503485471,
        1.3652378946385464,
        -0.50270964529232842,
        1.9892967377445312,
        1.7606578720585049,
        -1.7606578720585049,
        -0.84449000204761271,
        0.68963705901741446,
        -0.058418710214630742,
        0.64354778380180255,
        0.75383540367120094,
        1.2915139224604977,
        1.3537684617898391,
        1.2328088382003628,
        0.14086835373520912,
        0.43549446303027534,
        1.4157465586979969,
        1.630443173917413,
        0.69283302526277923,
        0.74539266511336821,
        -0.33433297090468228,
        -0.086765662261024029,
        -0.0069456033714222843,
        0.47981691299296347,
        0.56279231112759021,
        0.221842037182786,
        0.57592064545896282,
        0.50711418444082113,
        0.62679480012358568,
        0.47981691299296347,
        0.56279231112759021,
        0.80495860005440178,
        0.30441309249648363,
        -0.14415501371018036,
        -0.23740840358827248,
        -0.16498635279427554,
        -0.21626393363398563,
        0.18780323007668712,
        -0.16754040991646743
      ]
    },
    {
      "dualCoef": -307.20000000000005,
      "supportVector": [
        0.61679715476652242,
        0.67558418232287787,
        0.83981130546621796,
        -0.25376542477784519,
        0.0089331882882567326,
        -0.18911722715802765,
        0.18911722715802765,
        0.47929809017827446,
        0.99246602042629373,
        1.0172261611866953,
        0.49128354207909891,
        -0.3834418653720405,
        0.85302593283074546,
        0.28122856245675182,
        0.37159192596076768,
        0.76218864360692429,
        0.9880412625828322,
        -0.059213247838400422,
        0.18322811613585954,
        -0.57062036668033889,
        -0.17128552320049867,
        -1.0434135656267789,
        0.23046848521540775,
        0.24789691698058244,
        -0.13988058533095057,
        -0.089265356987009936,
        -0.10023490972344588,
        0.034505192977846363,
        -0.11625460578340471,
        -0.097767947501491065,
        -0.13988058533095057,
        -0.089265356987009936,
        0.017627399704489805,
        0.18724592123048506,
        0.30700806688773014,
        0.27824501030001914,
        0.34298614620377582,
        0.25441759646507883,
        -0.35842822416004749,
        -0.21493648908050575
      ]
    },
    {
      "dualCoef": -307.20000000000005,
      "supportVector": [
        0.61679715476652242,
        0.67558418232287787,
        0.83981130546621796,
        -0.25376542477784519,
        0.0089331882882567326,
        -0.18911722715802765,
        0.18911722715802765,
        0.47929809017827446,
        0.99246602042629373,
        1.0172261611866953,
        0.49128354207909891,
        -0.3834418653720405,
        0.85302593283074546,
        0.28122856245675182,
        0.37159192596076768,
        0.26036277449242851,
        0.96854121898047396,
        -0.059213247838400422,
        0.18322811613585954,
        -0.57062036668033889,
        -0.17128552320049867,
        -1.0434135656267789,
        0.23046848521540775,
        0.24789691698058244,
        -0.13988058533095057,
        -0.089265356987009936,
        -0.10023490972344588,
        0.034505192977846363,
        -0.11625460578340471,
        -0.097767947501491065,
        -0.13988058533095057,
        -0.089265356987009936,
        0.017627399704489805,
        0.18724592123048506,
        0.30700806688773014,
        0.27824501030001914,
        0.34298614620377582,
        0.25441759646507883,
        -0.35842822416004749,
        -0.21493648908050575
      ]
    },
    {
      "dualCoef": -307.20000000000005,
      "supportVector": [
        -0.94271332236300476,
        0.81444325801071371,
        -0.16845183365371949,
        -0.87775542245074734,
        0.36999428145397173,
        0.15598782825520505,
        -0.15598782825520505,
        -1.6071483859151323,
        1.2481330944026428,
        -0.15691064297504098,
        1.1207944910119811,
        -1.9246170360337684,
        0.7981419501074476,
        -0.82581262035138592,
        0.87163092372204576,
        1.9857021878571359,
        1.0975414922326048,
        -0.93846805646456954,
        -0.81268249285738348,
        -1.1382198724470585,
        -1.0167417149934892,
        -0.012773166321405923,
        -0.16134240247211618,
        -0.14027546772765001,
        -0.273794744726783,
        -0.48302914641029771,
        -0.57567859978931901,
        -0.50073304952931663,
        -0.39194003555910634,
        -0.37242212048264733,
        -0.273794744726783,
        -0.48302914641029771,
        -0.90203970799931787,
        -0.77098242686213081,
        0.65712648508227578,
        0.61911939671497485,
        0.74348887905235905,
        0.512147036083342,
        -0.63486298929081753,
        -0.57948264938447414
      ]
    },
    {
      "dualCoef": -307.20000000000005,
      "supportVector": [
        -0.82299720609731442,
        -0.29939959510026887,
        -0.7570910073595789,
        -0.65040665162218647,
        -0.30415639441326919,
        -0.47772406882462382,
        0.47772406882462382,
        -0.080202006248752067,
        0.13114102363218613,
        0.041132275586214004,
        0.32996954790676009,
        -1.1162819832619244,
        -2.2666030000477706,
        -2.2321149359105039,
        -0.15893158434832644,
        -0.10907823227584487,
        -0.88831410306300274,
        -0.44682438206732183,
        -0.48338183334205442,
        -0.43282448394713013,
        -0.46288436391988075,
        -1.2361433202968837,
        0.2392497299977617,
        0.20514470598175438,
        1.0603357195028111,
        0.95044336891458658,
        -0.12205003661893361,
        -0.40308023757973849,
        1.0040725706752487,
        0.96834432844823415,
        1.0603357195028111,
        0.95044336891458658,
        -0.56558569568308115,
        -0.40925221965139336,
        -0.62820281817687207,
        -0.59345017368864583,
        -0.60423748621283824,
        -0.66102108918762725,
        -0.3491052280972321,
        -0.23550424889063795
      ]
    },
    {
      "dualCoef": -307.20000000000005,
      "supportVector": [
        1.1276712765848158,
        0.051832184580727636,
        0.82098202496686823,
        0.32490588597643244,
        -0.37466985400303182,
        -0.2343664292122998,
        0.2343664292122998,
        1.2696598768785885,
        0.20312495708183778,
        0.96956877436714195,
        -0.076486066942465347,
        1.3615696294709796,
        -0.075330796212271608,
        0.89850152549950069,
        0.026686607334348949,
        -0.16796369855310092,
        -0.013513366956336733,
        -0.27706867894411158,
        -0.25949539763703461,
        -0.31079270601661818,
        -0.0278407727831727,
        0.37371698341810894,
        -1.0293679792578234,
        -1.0036810148414168,
        0.0021481376562460961,
        -0.11485981107679684,
        -0.49574214463583771,
        -0.38466053555177759,
        -0.055183800494107288,
        -0.0084885250538452636,
        0.0021481376562460961,
        -0.11485981107679684,
        -0.56834270613764404,
        -0.43170580809649195,
        0.28961957038379771,
        0.2256248303146102,
        0.33636842655414695,
        0.22202632737634539,
        -0.42305939912968438,
        -0.29010040179100932
      ]
    },
    {
      "dualCoef": -307.20000000000005,
      "supportVector": [
        1.2172983155003059,
        -0.40335826139062719,
        0.60892846124800193,
        0.91909981523468798,
        -0.70356279838115887,
        -0.19498659822981884,
        0.19498659822981884,
        1.5999278949636684,
        0.038306571528152651,
        1.0670016540871177,
        -0.24242363919233637,
        1.1081223480815421,
        0.060127544126080568,
        0.80924820520534868,
        -0.57184105984592259,
        -0.79573844994081488,
        -0.14747665999753498,
        -0.51469724452555621,
        -0.93109951558635029,
        0.22606470911504628,
        0.50758503435662972,
        0.11708752399107107,
        0.29418725419064545,
        0.34051331843230415,
        -0.41316890033311088,
        -0.36122829853793714,
        -0.41764192956227542,
        -0.34096055838760653,
        -0.3919464681178525,
        -0.51090572822542479,
        -0.41316890033311088,
        -0.36122829853793714,
        0.43027801069191463,
        0.19311705144317196,
        0.53879651471833079,
        0.6094983024497701,
        0.53492040943795371,
        0.50670752232490701,
        0.058312847637285135,
        -0.018003095423481004
      ]
    },
    {
      "dualCoef": -307.20000000000005,
      "supportVector": [
        1.2172983155003059,
        -0.40335826139062719,
        0.60892846124800193,
        0.91909981523468798,
        -0.70356279838115887,
        -0.19498659822981884,
        0.19498659822981884,
        1.5999278949636684,
        0.038306571528152651,
        1.0670016540871177,
        -0.24242363919233637,
        1.1081223480815421,
        0.060127544126080568,
        0.80924820520534868,
        -0.57184105984592259,
        -0.79573844994081488,
        -0.14747665999753498,
        -0.56192258801091555,
        -0.87045001004679534,
        -0.056383350766189874,
        0.5913906931687325,
        0.052157178834832577,
        0.11401231564598555,
        0.15911425411932587,
        0.17536487227678066,
        0.15915936506987854,
        -0.37007063424521641,
        -0.44496296982222577,
        0.18480859621817841,
        0.091731510469541117,
        0.17536487227678066,
        0.15915936506987854,
        0.21342264665595737,
        -0.060419458684754887,
        0.094251317361434939,
        0.1561799753821187,
        0.1543545377963649,
        0.066570029268208583,
        -0.02170878633563986,
        -0.23503650330909659
      ]
    },
    {
      "dualCoef": -307.20000000000005,
      "supportVector": [
        -0.07269085174764045,
        2.1369460056044871,
        1.2392610417738499,
        -0.72907372409745175,
        -0.44413506784108259,
        -0.622163458383307,
        0.622163458383307,
        -0.054671419324412031,
        1.9927944749162805,
        1.3815404070961697,
        0.077329899731268678,
        -0.40824734397611312,
        2.1667382852501094,
        1.1077593100546974,
        -0.074148898246020056,
        -0.09062014205282086,
        2.7760664195825004,
        0.36562856318759906,
        0.48174982389019655,
        0.22243054099593493,
        0.2816841298102476,
        -0.076672871078339047,
        -0.13631396103705085,
        -0.11837039862761087,
        -0.17966201249446551,
        -0.1230377659891837,
        -0.29622090245255778,
        -0.13003411336795437,
        -0.19107984216697158,
        -0.16513054820048931,
        -0.17966201249446551,
        -0.1230377659891837,
        -0.1349378098851608,
        0.20955888200383713,
        0.47850134195499583,
        0.43608359620109421,
        0.43786393235568288,
        0.42750898879487853,
        -0.25480181468861224,
        0.022026541211577436
      ]
    },
    {
      "dualCoef": -307.20000000000005,
      "supportVector": [
        0.016936187167849618,
        0.64068377292540035,
        0.39866816233859748,
        -0.481140861281115,
        -0.68457897769658838,
        -0.84165948330053619,
        0.84165948330053619,
        0.47984129415538807,
        0.82913695763363593,
        0.90143636209918787,
        -0.10353865531059984,
        0.22375311089286695,
        0.41512181535762421,
        0.42223380796347937,
        -0.29185684438889087,
        -0.52335013031852162,
        0.6444149979514544,
        -0.0035176949872369992,
        0.21042697507112126,
        -0.46047168910551606,
        -0.2507600807676289,
