{
  "bias": [0.06],
  "intercept": -0.57776575822876419,
  "kernel": {
    "parameters": [
      {
        "name": "gamma",
        "value": 0.088388347648318447
      }
    ],
    "type": "rbf"
  },
  "modelName": "puffMarker",
  "modelType": "svc",
  "normparams": [
    {
      "mean": 2129.3240628778717,
      "std": 1275.2802504674614
    },
    {
      "mean": 1997.1051995163241,
      "std": 1824.1674269399273
    },
    {
      "mean": 4126.4292623941956,
      "std": 2259.536645690589
    },
    {
      "mean": 1.6507737383808332,
      "std": 1.808128728724647
    },
    {
      "mean": 1578.2050442417824,
      "std": 1137.547819952742
    },
    {
      "mean": 1730.8986316662129,
      "std": 1119.9808811593168
    },
    {
      "mean": -1730.8986316662129,
      "std": 1119.9808811593168
    },
    {
      "mean": 662.96311970979446,
      "std": 1603.5221372684509
    },
    {
      "mean": -165.2974607013301,
      "std": 2217.9313825463587
    },
    {
      "mean": 497.66565900846433,
      "std": 2776.8251041566587
    },
    {
      "mean": 497.0496727328977,
      "std": 1192.9382330684271
    },
    {
      "mean": 709.86880290205568,
      "std": 1502.4347685321361
    },
    {
      "mean": 330.12091898428054,
      "std": 2162.4890490900116
    },
    {
      "mean": 1039.9897218863362,
      "std": 2579.8476882978507
    },
    {
      "mean": 407.52765875603899,
      "std": 1025.80186131816
    },
    {
      "mean": 1.7186762323559437,
      "std": 1.1873189604005296
    },
    {
      "mean": 1.1968828858198388,
      "std": 0.99193341775595878
    },
    {
      "mean": 17.786014835285869,
      "std": 67.263273190418289
    },
    {
      "mean": -13.707628514949349,
      "std": 25.578807209451092
    },
    {
      "mean": 20.24353980679496,
      "std": 15.848406789075735
    },
    {
      "mean": 16.861703514894327,
      "std": 14.535209119216196
    },
    {
      "mean": 13.374228880679894,
      "std": 10.731109965088292
    },
    {
      "mean": 15.707508328714038,
      "std": 13.501409557175643
    },
    {
      "mean": 2672.7436517533251,
      "std": 1034.3156986700553
    },
    {
      "mean": -76.736767558356945,
      "std": 19.967580202887973
    },
    {
      "mean": -76.893813221054032,
      "std": 20.751275819165905
    },
    {
      "mean": 9.9510759070724131,
      "std": 15.821454019989085
    },
    {
      "mean": 11.330512295101414,
      "std": 15.968872091181026
    },
    {
      "mean": 31.675104725060496,
      "std": 17.24927858079511
    },
    {
      "mean": 31.246870834864982,
      "std": 17.325041849384547
    },
    {
      "mean": 5.2451035963608117,
      "std": 4.5678561142155436
    },
    {
      "mean": 7.1119868162829567,
      "std": 7.427037799251913
    },
    {
      "mean": 2024.3766626360339,
      "std": 1273.5138656904815
    },
    {
      "mean": 6150.8059250302294,
      "std": 2534.1307545583122
    },
    {
      "mean": -648.36698911729138,
      "std": 1360.9109151175537
    },
    {
      "mean": 3478.0622732769043,
      "std": 2550.5038014527322
    }
  ],
  "probA": -5.0932181374593615,
  "probB": -0.83203903447261152,
  "support": [
    {
      "dualCoef": -0.53807162690868371,
      "supportVector": [
        1.6386013477085883,
        -0.16999821120396333,
        0.78758215362420414,
        0.47016310313192733,
        -0.4340407192572302,
        -0.50284626588737369,
        0.50284626588737369,
        1.4873738409081401,
        0.2855351908922697,
        1.086973153791126,
        0.127831550094476,
        1.7425922588678058,
        0.23717071826631544,
        1.2136415232247539,
        0.29634315251420318,
        0.85640238340929209,
        0.18855939093502483,
        -0.13599726400199857,
        0.31627927396630773,
        0.24750693297504645,
        -0.030267240545765781,
        1.2212938910660278,
        1.308908084141015,
        -0.65042390115353843,
        0.52688354601602239,
        0.44914468515452788,
        -0.13343590676527908,
        -0.28216375886370892,
        0.41278107628031013,
        0.25714090426242037,
        0.43705180089982676,
        -0.2379720428985807,
        -0.58057998625335272,
        0.41047371888711864,
        -0.04896206661473719,
        0.6716075960159047
      ]
    },
    {
      "dualCoef": -0.81495356816392306,
      "supportVector": [
        -0.75146154151339861,
        -0.42655360907392648,
        -0.76848909076377714,
        -0.38169310932503492,
        -1.0050451243827965,
        -0.50284626588737369,
        0.50284626588737369,
        -0.18020525753516192,
        -0.47508347083710817,
        -0.48352546834822768,
        -0.40320379170696563,
        -2.5011859959640419,
        -0.3690751263319158,
        -1.7659917453856813,
        -1.030484067976535,
        -0.82583687936910533,
        -0.38087240904488551,
        -0.13599726400199857,
        0.31627927396630773,
        0.34520849736619519,
        0.21619276959361186,
        0.92544279333907642,
        1.4774327921549817,
        0.55810459900098497,
        0.69808434796425145,
        0.53687482791609076,
        0.61336064270496682,
        1.2069841861870099,
        1.253839618830167,
        1.3616366752830118,
        1.5048932882860107,
        2.5496350641738204,
        -1.3163395450956679,
        -1.346736319304513,
        -1.6559739405779128,
        -1.5644212218010494
      ]
    },
    {
      "dualCoef": -0.14184749593657536,
      "supportVector": [
        1.6386013477085883,
        -0.16999821120396333,
        0.78758215362420414,
        0.47016310313192733,
        -0.4340407192572302,
        -1.0517710056477723,
        1.0517710056477723,
        1.4873738409081401,
        0.2855351908922697,
        1.086973153791126,
        0.127831550094476,
        1.7425922588678058,
        0.23717071826631544,
        1.2136415232247539,
        0.29634315251420318,
        0.90067858913270271,
        0.88614716354522249,
        -0.24157774351933556,
        0.47916588901771417,
        -0.06453332646029368,
        -0.4640752738518612,
        0.99558352644578507,
        0.65182272628036197,
        -0.89212960118444318,
        0.58281809776198024,
        0.44981556522577287,
        -0.16206387110330719,
        -0.17091577134735247,
        0.35218174502689742,
        0.25670727286543377,
        -0.096173626102987672,
        -0.40429414658767504,
        -0.72741780642785958,
        0.33668115721143144,
        -0.002669543496456418,
        0.69630859821167324
      ]
    },
    {
      "dualCoef": -0.097691722992847368,
      "supportVector": [
        -0.71382275585635946,
        -0.63212684454665335,
        -0.91320902731521902,
        -0.11418486908089737,
        -0.88856264393155282,
        0.11432438931568993,
        -0.11432438931568993,
        -0.61799154291556502,
        -0.77040369812385534,
        -0.97221306987152578,
        -0.44093485896040169,
        -0.53437847666854155,
        -0.26132891596472441,
        -0.53025987855465906,
        -0.46456111496500219,
        -0.73695722984645218,
        -0.54057814182520281,
        -0.086878634330544505,
        0.14591157123856524,
        2.3169196466433259,
        2.0920725373124491,
        2.2641755971718061,
        2.1842896285456566,
        0.25548906256229231,
        0.51168832185179836,
        -1.5894956580684956,
        7.3954471949985994,
        2.0537001213573571,
        0.84282728893519676,
        0.79551335410047608,
        1.842876215264684,
        1.2504626270318024,
        1.2215205340701405,
        -0.20038663124102993,
        0.94889898726820388,
        -0.30270971281718856
      ]
    },
    {
      "dualCoef": -0.23410598719046588,
      "supportVector": [
        -0.71382275585635946,
        -0.63212684454665335,
        -0.91320902731521902,
        -0.11418486908089737,
        -0.88856264393155282,
        -1.1393279086857009,
        1.1393279086857009,
        -0.61799154291556502,
        -0.77040369812385534,
        -0.97221306987152578,
        -0.44093485896040169,
        -0.53437847666854155,
        -0.26132891596472441,
        -0.53025987855465906,
        -0.46456111496500219,
        -0.73695722984645218,
        -0.54057814182520281,
        -0.23317483481030005,
        0.4595791463659738,
        2.3169196466433259,
        2.0920725373124491,
        2.2641755971718061,
        2.1842896285456566,
        0.25548906256229231,
        0.51168832185179836,
        -1.5894956580684956,
        7.3954471949985994,
        2.0537001213573571,
        0.84282728893519676,
        0.79551335410047608,
        1.842876215264684,
        1.2504626270318024,
        1.2215205340701405,
        -0.20038663124102993,
        0.94889898726820388,
        -0.30270971281718856
      ]
    },
    {
      "dualCoef": -0.56923332712889663,
      "supportVector": [
        -1.1184397016695304,
        -0.86346525886529535,
        -1.3283383865973371,
        0.008352855982670937,
        -1.1091973934319532,
        -0.87989032029916547,
        0.87989032029916547,
        -0.44275230332597348,
        -0.74966365162738147,
        -0.85445268247423878,
        -0.61929874182138056,
        -0.22288408782580238,
        -1.1713913279931907,
        -1.1116895524086532,
        -0.17364376004167972,
        -0.62508473024601474,
        -1.0165215249325452,
        -0.1584283039171796,
        0.40321966807422049,
        0.41247237703483208,
        0.050839005482813573,
        1.1278868897715673,
        0.16761147304677104,
        0.85975331263955401,
        0.80447617435054231,
        0.93621877921407393,
        0.41714974440965696,
        0.83205223100487047,
        1.6450591385968272,
        1.562854498801507,
        -0.15163267725427484,
        -0.12534493985296882,
        -1.5448411796987775,
        -1.9607535704669155,
        -2.0990595189957428,
        -2.296825540875584
      ]
    },
    {
      "dualCoef": -0.041179098730136275,
      "supportVector": [
        -0.82438668872391208,
        -0.63212684454665335,
        -0.97561120179152894,
        -0.20657962434693189,
        -0.96463767598039907,
        -0.42985372294737406,
        0.42985372294737406,
        -0.44275230332597348,
        -0.073357787611929931,
        -0.31426741918393131,
        -0.38111718982865311,
        -0.81525589566776357,
        -0.044449204968103215,
        -0.51204174877390052,
        -0.5558629717529685,
        -0.68627286010076949,
        -0.66877572386521578,
        -0.090626859936311102,
        0.27342127776799613,
        0.18348567370251279,
        -0.1538358321751413,
        0.69993229285283043,
        0.88631689204821362,
        1.2232786854860347,
        -0.04552784928398923,
        1.1628804867827152,
        1.6285500124498267,
        3.8688972257858016,
        1.9219165816273442,
        2.1040952963487354,
        0.52150002286319452,
        0.52813617026590809,
        0.12141472623867469,
        -0.80887930559348808,
        -0.816095306860533,
        -1.2997676268463862
      ]
    },
    {
      "dualCoef": -0.10487750645931683,
      "supportVector": [
        -0.71382275585635946,
        0.13863573965242398,
        -0.29095755700534942,
        -0.61333905212880335,
        -0.39170246529969482,
        -0.81021838240570054,
        0.81021838240570054,
        -0.47206278112209732,
        0.7932154594798686,
        0.36096415992895298,
        -0.15861951758993026,
        0.027376361329902593,
        0.36757600291673587,
        0.324054122228143,
        0.29302160549281092,
        0.27988257816750023,
        0.78924606095161287,
        -0.22370199358376328,
        0.40195734654039744,
        1.9067414331410768,
        1.8996282424930537,
        1.6497037230271687,
        1.8134163675135335,
        -0.28786535110718142,
        -1.9940612592047711,
        -1.2349457157847188,
        1.4456914647433501,
        3.347433506259939,
        0.7242840892632636,
        0.7953532883399369,
        1.1869848832728229,
        1.4026332760776219,
        1.0228576008928665,
        0.2546017303208275,
        1.1759527911340573,
        0.36970645806762226
      ]
    },
    {
      "dualCoef": -0.16266044981609712,
      "supportVector": [
        -0.71460689722421444,
        -0.47808396676575671,
        -0.78928981558921374,
        -0.31419614250117256,
        -0.55978635615093242,
        0.088474324732416232,
        -0.088474324732416232,
        -2.5768045377586506,
        0.1588405590333751,
        -1.3611464594405471,
        -0.72084863090356843,
        -0.31739734256013774,
        -0.00098077675129639667,
        -0.18566589185052518,
        0.047742526180473817,
        -0.48348266341362439,
        -0.40025376265780488,
        -0.059866988127177515,
        0.29606818515099409,
        1.6061377402712123,
        1.3942621665011519,
        1.4940497806452395,
        1.5939031119346112,
        0.79981029903188972,
        0.066768414505435206,
        -0.053771860133793856,
        2.9522595005247063,
        2.5855578621736566,
        1.6304404048498544,
        1.6575123828953486,
        1.3854334689624963,
        1.1981408168561303,
        0.88779821549171589,
        -0.25760546248688365,
        0.22291465646088005,
        -0.58030192796963531
      ]
    },
    {
      "dualCoef": -0.099680155281187302,
      "supportVector": [
        -1.1545102045908597,
        -0.14423303235804821,
        -0.76804652215046998,
        -0.70342392364615935,
        -0.96287974882874472,
        -0.23755903491031624,
        0.23755903491031624,
        -1.1730197394804636,
        0.5181844081135849,
        -0.26349000443464238,
        -1.0488872573045662,
        -1.189315396799429,
        0.19370229004950859,
        -0.53025987855465906,
        -0.91915675213090697,
        -1.089244140777192,
        -0.13333836325330756,
        -0.18677918306651084,
        0.37588063224257251,
        1.5211828819867779,
        1.4846403340682959,
        0.92404372421679137,
        1.6623708587787693,
        0.31639889897008033,
        -0.93872399524064742,
        -0.6778452547748629,
        0.86478787078869424,
        0.40912868166854932,
        -0.18604698843657783,
        -0.11749174907980328,
        0.46718425158531379,
        0.54188232521482771,
        0.1284817871026884,
        -0.62025446879681168,
        -0.12023785617780441,
        -0.74458319654149285
      ]
    },
    {
      "dualCoef": -0.34504554921610009,
      "supportVector": [
        -0.64011346727799112,
        -0.37557144667669023,
        -0.66448546663659402,
        -0.35949406307996384,
        -0.48179347115671234,
        -0.84024602468669063,
        0.84024602468669063,
        -1.0564014554831198,
        0.24360422732331169,
        -0.41546212517364894,
        -0.44918445411252178,
        -0.097753863247949893,
        -0.84676540662937794,
        -0.76670794592195002,
        0.0090817761336382755,
        -0.40015137380242904,
        -0.27368057205995677,
        -0.14096004410957669,
        0.015347433554458279,
        3.4947841343069883,
        3.154660441416361,
        3.1644662922844913,
        1.5405938961262906,
        -1.2546881512308001,
        1.6243550204278558,
        0.66560284406692494,
        2.2179882198559016,
        2.156824051532078,
        -1.5808261061781499,
        -1.5691847761008868,
        -0.16621515278862947,
        -0.15212133836679226,
        -0.23193831696201028,
        -0.70904231038520538,
        0.73654122248751908,
        -0.19567203663552482
      ]
    },
    {
      "dualCoef": -0.61785682221321658,
      "supportVector": [
        0.20519092726968008,
        -0.76095273877622893,
        -0.49852223664640838,
        1.2583919495621647,
        -0.2980494574600544,
        -0.17615594748545368,
        0.17615594748545368,
        -0.17895800316085878,
        -1.3840385520738749,
        -1.2088142151926804,
        -0.2809699416153022,
        0.026710775028956569,
        -0.41300598463613547,
        -0.33063569053145436,
        0.21029029476000827,
        -0.56329535542018727,
        -0.84029604786831136,
        -0.12395370203517773,
        0.19607772727909689,
        0.010725470109854092,
        -0.4438291931394106,
        1.2901165275968915,
        0.76813874894077794,
        1.8874859491709608,
        0.28442440923490281,
        0.39695091944882321,
        -0.099042063905925029,
        -0.55645876350332901,
        0.78419400721487931,
        0.60864217170185986,
        0.64848260302697724,
        -0.51275441742958972,
        2.1363123014674694,
        0.62908911550920799,
        0.56459756519104765,
        -0.14038884124499518
      ]
    },
    {
      "dualCoef": -0.2085178981352985,
      "supportVector": [
        0.7564423088717328,
        0.5497822105978778,
        0.87078505292595054,
        -0.34258645151208439,
        -0.82058915954105716,
        0.7719315795095304,
        -0.7719315795095304,
        0.22951780442342049,
        -0.5170144344060662,
        -0.28041580935107202,
        -2.9691907363737955,
        -0.31673175625919175,
        -1.5399481076612229,
        -1.4752769084586841,
        -2.5786357413477337,
        -1.1732715531191498,
        -0.43385434182006477,
        -0.11501945464925653,
        0.28252528289978968,
        0.9789615445950991,
        1.2071479993231666,
        0.15592933055982708,
        0.13752900484372788,
        -1.3155979876385882,
        -0.63471839242243311,
        -2.0773471146835094,
        6.1663913513048216,
        1.2305807598177863,
        1.7378060939785551,
        1.7442182161948721,
        0.67644235926416163,
        1.0159056834714144,
        -0.31517258936039383,
        0.61803996188931898,
        0.70494473845440686,
        1.1475919875343654
      ]
    },
    {
      "dualCoef": -0.20232765061846827,
      "supportVector": [
        0.7564423088717328,
        0.5497822105978778,
        0.87078505292595054,
        -0.34258645151208439,
        -0.82058915954105716,
        0.7719315795095304,
        -0.7719315795095304,
        0.22951780442342049,
        -0.5170144344060662,
        -0.28041580935107202,
        -2.9691907363737955,
        -0.31673175625919175,
        -1.5399481076612229,
        -1.4752769084586841,
        -2.5786357413477337,
        -1.1732715531191498,
        -0.43385434182006477,
        -0.17152123345105566,
        0.28252528289978968,
        0.9789615445950991,
        1.2071479993231666,
        0.15592933055982708,
        0.13752900484372788,
        -1.3155979876385882,
        -0.63471839242243311,
        -2.0773471146835094,
        6.1663913513048216,
        1.2305807598177863,
        1.7378060939785551,
        1.7442182161948721,
        0.67644235926416163,
        1.0159056834714144,
        -0.31517258936039383,
        0.61803996188931898,
        0.70494473845440686,
        1.1475919875343654
      ]
    },
    {
      "dualCoef": -0.11558051713322896,
      "supportVector": [
        -1.2650741374584122,
        -0.16999821120396333,
        -0.85124942145221638,
        -0.74381061014193062,
        -0.99160041100043039,
        -0.11665090396987624,
        0.11665090396987624,
        -0.47143915393494573,
        0.43342073982364843,
        0.07394572336736964,
        -0.27343592668404926,
        -1.5953230403765037,
        -1.0636451176259993,
        -1.8206461347279566,
        -1.1499593612749039,
        -0.95141285270713993,
        -0.599487554674903,
        -0.17413398260366506,
        0.36497546343403897,
        1.7680739342026446,
        2.1811272952992953,
        1.6567560840640241,
        3.0605379048089567,
        0.25548906256229231,
        -0.83587068109680551,
        -1.3314690536486031,
        1.5936888591510743,
        1.5629262309065641,
        1.5735319981242004,
        1.4584762569351393,
        1.0590119161119718,
        0.62663923222335349,
        -0.55937880366131165,
        -1.0401223063525933,
        -0.71763184498990396,
        -1.1370546758742599
      ]
    },
    {
      "dualCoef": -0.66524707918858406,
      "supportVector": [
        2.2267073735998251,
        1.4236055101806153,
        2.4060555724884951,
        -0.31477046884392834,
        0.74367224260810616,
        -0.11665090396987624,
        0.11665090396987624,
        1.9837810818807911,
        1.5330940747127726,
        2.3700932158600367,
        1.3509549160661871,
        1.3685327577361404,
        1.6031891964838403,
        2.1408280431305897,
        1.6086986030454642,
        1.2438682619166213,
        0.82023690491324186,
        -0.17413398260366506,
        0.36497546343403897,
        1.0598083470057487,
        0.87139444101019414,
        0.92980152037217645,
        1.0020065090904469,
        1.1623688490782467,
        -1.8019009579557976,
        -1.7194415412758048,
        0.10754103192904653,
        0.30602461003475678,
        0.80451365723724244,
        0.80923966524404489,
        0.23792864163494634,
        0.0016899762484456303,
        -0.47378884430825685,
        1.9072394217527955,
        -1.3267826650701384,
        1.4236158850870808
      ]
    },
    {
      "dualCoef": -0.66324434937401011,
      "supportVector": [
        -1.1921489902478988,
        0.087105381960593781,
        -0.60252586077359138,
        -0.75675264939679376,
        -0.80378490463967278,
        -0.34043833154681802,
        0.34043833154681802,
        -0.67661249850781269,
        0.70845179118993196,
        0.17514042935708724,
        -0.30077204367740029,
        -1.1280814571123947,
        0.51925307158814693,
        -0.22171453162947283,
        -0.084508736696619902,
        -0.23013136937000422,
        1.8851804069879847,
        -0.20817814321323527,
        0.3930242108265643,
        1.6679909248749607,
        1.3252351239061084,
        1.7845400495122545,
        3.1100386337565347,
        1.1623688490782467,
        -0.64924983087174659,
        -0.6427343561511234,
        -0.13137370293819853,
        -0.031770017644614498,
        -0.19177377132997847,
        -0.22866777619967005,
        0.40702996295418248,
        0.27082119569926544,
        -1.3194804610352295,
        -1.2003350338409837,
        -2.1181643698064621,
        -1.6640093893839893
      ]
    },
    {
      "dualCoef": -0.84852813742385724,
      "supportVector": [
        -0.82438668872391208,
        0.62707774713562303,
        0.040968902975022009,
        -0.723162524853593,
        -1.1005444715359676,
        -0.2866344818171474,
        0.2866344818171474,
        -0.6186151701027166,
        -0.66489998333744493,
        -0.88830429230709806,
        -1.6573964851451677,
        -0.97166867639007914,
        1.1264237763612037,
        0.37832089178784911,
        -0.6477869291474595,
        -1.1704976821435789,
        0.47191190351178097,
        -0.18777433554148043,
        0.33569552094816441,
        -0.29971697064017488,
        -0.037369114481898565,
        -0.75388093896336583,
        -0.61912977086391563,
        -1.6771897148848216,
        -0.45397494861856053,
        -0.44988937864839251,
        -0.52356757390545627,
        -0.49307940649984094,
        -0.10293351068822811,
        -0.11547414150898874,
        -0.4872578095409304,
        -0.65664056779866953,
        -0.73055872236742125,
        -0.33060879890400735,
        0.59105043554435099,
        0.35167080567071185
      ]
    },
    {
      "dualCoef": -0.84852813742385724,
      "supportVector": [
        -0.82438668872391208,
        0.62707774713562303,
        0.040968902975022009,
        -0.723162524853593,
        -1.1005444715359676,
        -0.2866344818171474,
        0.2866344818171474,
        -0.6186151701027166,
        -0.66489998333744493,
        -0.88830429230709806,
        -1.6573964851451677,
        -0.97166867639007914,
        1.1264237763612037,
        0.37832089178784911,
        -0.6477869291474595,
        -1.1704976821435789,
        0.47191190351178097,
        -0.18777433554148043,
        0.33569552094816441,
        -0.29971697064017488,
        -0.037369114481898565,
        -0.75388093896336583,
        -0.61912977086391563,
        -1.6771897148848216,
        -0.45397494861856053,
        -0.44988937864839251,
        -0.52356757390545627,
        -0.49307940649984094,
        -0.10293351068822811,
        -0.11547414150898874,
        -0.4872578095409304,
        -0.65664056779866953,
        -0.73055872236742125,
        -0.33060879890400735,
        0.59105043554435099,
        0.35167080567071185
      ]
    },
    {
      "dualCoef": -0.10958335003943369,
      "supportVector": [
        -0.82438668872391208,
        0.62707774713562303,
        0.040968902975022009,
        -0.723162524853593,
        -1.1005444715359676,
        -0.2866344818171474,
        0.2866344818171474,
        -0.6186151701027166,
        -0.66489998333744493,
        -0.88830429230709806,
        -1.6573964851451677,
        -0.97166867639007914,
        1.1264237763612037,
        0.37832089178784911,
        -0.6477869291474595,
        -1.1704976821435789,
        0.47191190351178097,
        -0.18777433554148043,
        0.40682576388489294,
        -0.29971697064017488,
        -0.037369114481898565,
        -0.75388093896336583,
        -0.61912977086391563,
        -1.6771897148848216,
        -0.45397494861856053,
        -0.44988937864839251,
        -0.52356757390545627,
        -0.49307940649984094,
        -0.10293351068822811,
        -0.11547414150898874,
        -0.4872578095409304,
        -0.65664056779866953,
        -0.73055872236742125,
        -0.33060879890400735,
        0.59105043554435099,
        0.35167080567071185
      ]
    },
    {
      "dualCoef": -0.63806428702408613,
      "supportVector": [
        0.38868000734774599,
        0.6265295518410291,
        0.72517997914789434,
        -0.45062415318711191,
        0.019039776946798936,
        -0.81562026647334429,
        0.81562026647334429,
        1.2235795407430252,
        1.4902613699917939,
        1.8968909252177273,
        0.92445191016343653,
        -0.78463892582424644,
        0.58399328382594429,
        0.032564045736007276,
        0.35246527881354722,
        0.81439468080916277,
        1.0831017833945815,
        -0.23202487444380071,
        0.4200916671528383,
        -1.1591513480224294,
        -1.0866097023140742,
        -1.0307243576791443,
        -1.0753604113029542,
        -0.1061026646839411,
        -1.7101688915066497,
        -1.6416251121043239,
        -0.59680104587371718,
        -0.68397623354346881,
        1.6536669241980935,
        1.6666210224283382,
        -1.0497317945657929,
        -0.87947496204622522,
        -0.4667217834442432,
        0.41205216940424566,
        -0.35610928349475884,
        0.45243521145345028
      ]
    },
    {
      "dualCoef": -0.0078178421962563863,
      "supportVector": [
        0.38868000734774599,
        -0.7094223810843987,
        -0.35335973148165928,
        1.1521433090322923,
        -0.20971258288877298,
        0.30833291546578173,
        -0.30833291546578173,
        0.81448010597159448,
        -0.13693053882938236,
        0.36096415992895298,
        -0.16463533207895115,
        0.05799333117341969,
        -0.044449204968103215,
        -0.0034845940429403623,
        0.19917815445997755,
        -0.34719804277098432,
        -0.64658697737879089,
        -0.080135405158274428,
        0.30139438860193773,
        1.6683894426997525,
        1.4721817700314983,
        2.2964417593979385,
        2.0826617640334839,
        0.6789574490164374,
        -0.23253905264251762,
        -0.2970577402114522,
        -0.04354720035351644,
        -0.063777831689432185,
        0.55306928785190712,
        0.53816836706032156,
        1.0620001245096753,
        0.83046827252425004,
        -1.1820653886794077,
        -0.90911091343105244,
        -1.6221730506820251,
        -1.1786150922671403
      ]
    },
    {
      "dualCoef": -0.84631297183081589,
      "supportVector": [
        0.38868000734774599,
        -0.7094223810843987,
        -0.35335973148165928,
        1.1521433090322923,
        -0.20971258288877298,
        0.30833291546578173,
        -0.30833291546578173,
        0.81448010597159448,
        -0.13693053882938236,
        0.36096415992895298,
        -0.16463533207895115,
        0.05799333117341969,
        -0.044449204968103215,
        -0.0034845940429403623,
        0.19917815445997755,
        -0.34719804277098432,
        -0.64658697737879089,
        -0.080135405158274428,
        0.30139438860193773,
        1.6683894426997525,
        1.4721817700314983,
        2.2964417593979385,
        2.0826617640334839,
        0.6789574490164374,
        -0.23253905264251762,
        -0.2970577402114522,
        -0.04354720035351644,
        -0.063777831689432185,
        0.55306928785190712,
        0.53816836706032156,
        1.0620001245096753,
        0.83046827252425004,
        -1.1820653886794077,
        -0.90911091343105244,
        -1.6221730506820251,
        -1.1786150922671403
      ]
    },
    {
      "dualCoef": -0.64356717668375985,
      "supportVector": [
        0.71958766458254864,
        -0.45286698321443553,
        0.04052633436171485,
        0.52611065618659991,
        -0.23587620099604209,
        0.6369426469721241,
        -0.6369426469721241,
        -0.2675130637363819,
        -0.58103805619952886,
        -0.6185717841708045,
        -1.1075132462345298,
        0.86867744572567673,
        -0.13138606140171685,
        0.3957637820034689,
        -0.078703177838160263,
        -0.56703349366949385,
        -0.46039441966980288,
        -0.029263710471144077,
        -0.018591781397646227,
        0.17124634086094881,
        0.2217153879227749,
        0.64722555416129879,
        0.90573416213322244,
        0.86072013543967762,
        -0.00605035107987588,
        0.33610342076472721,
        0.32491753457253569,
        0.35104271883387578,
        1.0824219781125977,
        0.90782163803510441,
        1.4443740288155369,
        1.225476599140751,
        1.8622673857407159,
        0.97200749035504852,
        1.0885113585773045,
        0.61671648002530788
      ]
    },
    {
      "dualCoef": -0.59165363736503285,
      "supportVector": [
        0.71958766458254864,
        -0.45286698321443553,
        0.04052633436171485,
        0.52611065618659991,
        -0.23587620099604209,
        0.14613530142976194,
        -0.14613530142976194,
        -0.2675130637363819,
        -0.58103805619952886,
        -0.6185717841708045,
        -1.1075132462345298,
        0.86867744572567673,
        -0.13138606140171685,
        0.3957637820034689,
        -0.078703177838160263,
        -0.56703349366949385,
        -0.46039441966980288,
        -0.029263710471144077,
        -0.018591781397646227,
        0.17124634086094881,
        0.2217153879227749,
        0.64722555416129879,
        0.90573416213322244,
        0.86072013543967762,
        -0.00605035107987588,
        0.33610342076472721,
        0.32491753457253569,
        0.35104271883387578,
        1.0824219781125977,
        0.90782163803510441,
        1.4443740288155369,
        1.225476599140751,
        1.8622673857407159,
        0.97200749035504852,
        1.0885113585773045,
        0.61671648002530788
      ]
    },
    {
      "dualCoef": -0.84852813742385724,
      "supportVector": [
        0.79329695316091708,
        -0.63212684454665335,
        -0.062592152538853876,
        1.1452670430825944,
        -0.46584868857099782,
        -0.9121989832350399,
        0.9121989832350399,
        -0.23820258594025806,
        0.053787714822974945,
        -0.094592078779206279,
        -0.054928456344595276,
        0.55784864318388361,
        -0.73809433608736086,
        -0.2938118111873681,
        -0.39851048666016103,
        -0.20498426183966734,
        -0.63338671732845198,
        -0.2325109637458696,
        0.41511073010066313,
        -0.21475781109057795,
        -0.19884179793969006,
        -0.34921175171361329,
        -0.19294962497671214,
        -0.52957105113808611,
        -0.014058409937046747,
        -0.0076915780473866347,
        -0.50124279016789663,
        -0.54793748556566246,
        -0.61581203166879683,
        -0.54883006154485914,
        -0.3307373161118628,
        -0.2303636611079708,
        1.1704806500522638,
        0.53240902133517931,
        1.4977960470992473,
        0.74375020560354621
      ]
    },
    {
      "dualCoef": -0.84852813742385724,
      "supportVector": [
        -1.1184397016695304,
        0.087653577255187715,
        -0.56048184250941102,
        -0.73272333644314913,
        -0.49197874413317616,
        -0.63408503636339519,
        0.63408503636339519,
        -1.2609511728688352,
        -0.45344168318861366,
        -1.0903335807776731,
        -0.58060569452900457,
        -1.1274158708114488,
        -2.4934789479064956,
        -2.7466697952860848,
        -1.139607406438953,
        -0.64592701073958325,
        -0.57328540874478739,
        -0.13302639733774493,
        0.28292726798829687,
        -0.8688385245055914,
        -0.90903699652219616,
        -0.52629092350778328,
        -0.78639012869964997,
        0.3773087353778683,
        0.70041774569329929,
        0.69394047807672787,
        -0.52467869179245896,
        -0.52387825395454712,
        -0.16317412880062343,
        -0.1312503095307537,
        -0.9322316861408203,
        -0.77431473515217752,
        1.6714567424123461,
        0.34023267087496722,
        1.2773554608217199,
        0.18503706069925729
      ]
    },
    {
      "dualCoef": -0.10624060588903961,
      "supportVector": [
        -1.1184397016695304,
        0.087653577255187715,
        -0.56048184250941102,
        -0.73272333644314913,
        -0.49197874413317616,
        -0.65836171407047861,
        0.65836171407047861,
        -1.2609511728688352,
        -0.45344168318861366,
        -1.0903335807776731,
        -0.58060569452900457,
        -1.1274158708114488,
        -2.4934789479064956,
        -2.7466697952860848,
        -1.139607406438953,
        -0.64592701073958325,
        -0.57328540874478739,
        -0.13302639733774493,
        0.37874073945323905,
        -0.8688385245055914,
        -0.90903699652219616,
        -0.52629092350778328,
        -0.78639012869964997,
        0.3773087353778683,
        0.70041774569329929,
        0.69394047807672787,
        -0.52467869179245896,
        -0.52387825395454712,
        -0.16317412880062343,
        -0.1312503095307537,
        -0.9322316861408203,
        -0.77431473515217752,
        1.6714567424123461,
        0.34023267087496722,
        1.2773554608217199,
        0.18503706069925729
      ]
    },
    {
      "dualCoef": -0.35919577643282768,
      "supportVector": [
        -0.64011346727799112,
        -0.6584402186871624,
        -0.89285087110308958,
        -0.00070584075157827672,
        -0.99375894641136542,
        0.25539694379220224,
        -0.25539694379220224,
        -0.38413134773372576,
        -0.58103805619952886,
        -0.6859148803276629,
        -0.29316471984835557,
        -1.158698426955912,
        -1.6920876064200467,
        -2.0931428418741951,
        -0.76426977430476595,
        -0.89576934455856883,
        -0.94624197639418661,
        -0.17621808705414502,
        0.34473626748635927,
        -0.21290398098695826,
        -0.21375533281366849,
        -0.0045980547064022282,
        0.17550865791094927,
        1.5249273991246037,
        0.747764560134203,
        0.68272737500163438,
        -0.36946242458355577,
        -0.42108824816531532,
        0.69970865425510209,
        0.74081328830330939,
        -0.37659402552486776,
        -0.43127462522212934,
        0.82340943873070216,
        -0.38230305333991654,
        -0.38844056948212952,
        -0.99825856829803661
      ]
    },
    {
      "dualCoef": -0.81125511817164586,
      "supportVector": [
        -0.49347903148910938,
        0.85841616145426503,
        0.41449681260626664,
        -0.68013973456538757,
        -0.098941148202858029,
        0.25539694379220224,
        -0.25539694379220224,
        -0.85185173809740433,
        0.47625344454462692,
        -0.11151788369563591,
        0.0079068359942163439,
        -0.44119639453609821,
        0.73659521267218098,
        0.36049038178965997,
        0.76749839185539726,
        0.2507145981932587,
        0.25294295237857362,
        -0.17621808705414502,
        0.34473626748635927,
        0.36260909900206995,
        0.22626284059840349,
        0.10478028052812471,
        -0.43871031015395057,
        -0.89212960118444318,
        1.7130254510463805,
        1.7047872973082572,
        -0.40298896455009964,
        -0.40167568324213593,
        -0.57527140347820227,
        -0.56539400026978603,
        -0.33574763540558483,
        -0.45760385927149638,
        -0.83263849040317472,
        -0.048855381596838034,
        -0.10113300536708536,
        0.31324702447729413
      ]
    },
    {
      "dualCoef": -0.78908393200433924,
      "supportVector": [
        1.8228745691545092,
        -0.45286698321443553,
        0.6632203732848917,
        1.1906303491940202,
        -0.76606008532193826,
        0.25539694379220224,
        -0.25539694379220224,
        1.3121346013185486,
        -0.36957975605069771,
        0.46251898942753072,
        -0.55507333047302521,
        0.61974816917186382,
        -1.8437646750914578,
        -1.1845620715316871,
        -0.37998157254312492,
        -0.56892565853414157,
        -0.74023678275701277,
        -0.17621808705414502,
        0.34473626748635927,
        -0.20250869673582692,
        -0.2515372402905946,
        -0.20975188744712245,
        0.34327008721269231,
        0.98060616265500644,
        0.025477029348972675,
        0.25457310255955029,
        0.39826528929431065,
        0.44361755223844757,
        1.1628122412650457,
        1.1235768671131103,
        -0.30315894490880363,
        -0.25957627227602664,
        -0.85776581791966788,
        0.16028931192248932,
        -1.5479580533019242,
        -0.23840869122820374
      ]
    },
    {
      "dualCoef": -0.40162788496625457,
      "supportVector": [
        1.8228745691545092,
        -0.45286698321443553,
        0.6632203732848917,
        1.1906303491940202,
        -0.76606008532193826,
        -0.021067493189516756,
        0.021067493189516756,
        1.3121346013185486,
        -0.36957975605069771,
        0.46251898942753072,
        -0.55507333047302521,
        0.61974816917186382,
        -1.8437646750914578,
        -1.1845620715316871,
        -0.37998157254312492,
        -0.56892565853414157,
        -0.74023678275701277,
        -0.17621808705414502,
        0.34473626748635927,
        0.060521525025858967,
        -0.15785501664100268,
        0.9270996237282757,
        0.37653000737127612,
        1.1623688490782467,
        -0.17102338538493203,
        0.22408609442987715,
        0.8728222289987172,
        0.56914034700784033,
        1.1334461706709991,
        1.1174077334262098,
        -0.18135960878730092,
        -0.2014905427468929,
        -0.85776581791966788,
        0.16028931192248932,
        -1.6861008207025081,
        -0.31211961841557662
      ]
    },
    {
      "dualCoef": -0.13835144913938913,
      "supportVector": [
        -0.052791582754609177,
        -0.0154071381284727,
        -0.042233996326724428,
        -0.33379351330617801,
        -0.7959271490304437,
        -0.87360707096484136,
        0.87360707096484136,
        0.20020732662729662,
        0.43387161039965871,
        0.46215886591867056,
        -0.56942618968767134,
        0.05799333117341969,
        -0.00098077675129639667,
        0.032951665518576603,
        -0.41777104655976144,
        -0.65396056236650435,
        0.22076562763211297,
        -0.23571064063299821,
        0.47122099301744591,
        -0.85882072674755827,
        -1.0172834412018199,
        -0.52973697276832654,
        -0.30337495875289022,
        -1.3155979876385882,
        -1.7924156023405686,
        -1.7671597653324402,
        -0.47980449618610022,
        -0.54060263082569093,
        1.5999698995682492,
        1.6479503301718867,
        -0.66451019608836581,
        -0.90004730651812093,
        0.42137219846681168,
        0.17410075394735056,
        1.3941889715488094,
        0.70650266260992689
      ]
    },
    {
      "dualCoef": -0.16832660693560925,
      "supportVector": [
        0.13148163869131174,
        -0.86346525886529535,
        -0.62288401698572082,
        2.0973917196615099,
        -0.63681093886574092,
        -0.71389561528013012,
        0.71389561528013012,
        0.72654867258322287,
        -0.98186199827268639,
        -0.36468471042436001,
        -0.68677082130697709,
        0.18312355575127218,
        -1.1066511157553933,
        -0.82097471548165613,
        -0.079611035980280756,
        -0.48042787999740028,
        -1.009314458985344,
        -0.15597478180098992,
        0.3469560795907729,
        1.1637067539948356,
        0.94765829399697366,
        0.95566004852096675,
        1.4424258679595148,
        0.98060616265500644,
        0.47306952770825617,
        -0.22295974819402389,
        1.6009358489824221,
        2.618920770521719,
        1.7944175521810573,
        1.7206596980597773,
        -0.31226479088555309,
        -0.43892246246832201,
        0.38603689414674319,
        -0.36138858398798385,
        -0.384031757756579,
        -0.75673765793941072
      ]
    },
    {
      "dualCoef": -0.23429101368617397,
      "supportVector": [
        -0.41976974291074104,
        -0.96652597424895581,
        -1.017212651442402,
        2.8544383989903106,
        -0.81927504532556672,
        -0.22500094189587005,
        0.22500094189587005,
        0.17152047601832435,
        -0.83442731991731811,
        -0.56743424591265545,
        -0.38885794520326128,
        0.21374052559478926,
        -0.49948041098233625,
        -0.29419943096993739,
        -0.37353614746278446,
        -0.68504369449264368,
        -1.0388629593214938,
        0.11199868538641489,
        -0.037729165638891463,
        2.282417140866094,
        2.5666339648244025,
        1.6842671926222683,
        2.4474348733702436,
        -0.77127675116899086,
        -0.75711343481953475,
        -0.79066185370116981,
        0.2599207141538325,
        0.65748903150755189,
        0.66045159071889559,
        0.72147045190999348,
        1.5453327736334432,
        0.91230322296185518,
        -0.83656463532762682,
        -1.3274003004697073,
        -0.1966572594206806,
        -1.0061001562966934
      ]
    },
    {
      "dualCoef": -0.34749180697207027,
      "supportVector": [
        -0.67696811156717529,
        -0.63212684454665335,
        -0.89240830248978242,
        -0.083386617327396023,
        -0.90047865686678319,
        -0.2552119719314685,
        0.2552119719314685,
        -0.033029241367391063,
        -0.17886150239834037,
        -0.1619351749360646,
        -0.37180492012896715,
        -0.097753863247949893,
        -0.1091894172059006,
        -0.14845439272386957,
        -0.61679874023722236,
        -0.85682834346025982,
        -0.39991924893938358,
        -0.168045716315156,
        0.25204173401163438,
        0.63210626301000394,
        0.39711856740159079,
        1.2780785608888559,
        0.96615321040707125,
        -0.89212960118444318,
        -1.1992899207776579,
        -1.1546237225480163,
        -0.090145650906704552,
        0.20571240032743185,
        1.1202254829806801,
        1.0998142979095835,
        -0.30149748729056086,
        -0.42016494045543656,
        -1.2786485538209282,
        -1.4382864492978789,
        -0.51850051538587072,
        -1.0672645426862155
      ]
    },
    {
      "dualCoef": -0.22130476311430236,
      "supportVector": [
        0.97678603323898294,
        1.0124590392351618,
        1.3686747428965078,
        -0.42739327724078052,
        -0.24601411809958776,
        -0.64403923545513331,
        0.64403923545513331,
        1.2822004963352731,
        1.5962159553542148,
        2.0153715596327348,
        -0.15105056387069604,
        1.4623804261695299,
        1.2128982027074044,
        1.8683313359843514,
        0.47556166461044885,
        0.24114055114345384,
        2.2736353988076061,
        -0.21812988680464521,
        0.2760501499503219,
        -0.76141452934265008,
        -0.84706425612941294,
        -0.46580375058609025,
        -0.31424192018226349,
        2.2500444992173176,
        0.96213976522194278,
        0.96655084211396836,
        -0.50767540761831664,
        -0.58453520894167688,
        -0.37640791682669966,
        -0.35171787878719896,
        -0.82858336894895812,
        -0.80613015375470576,
        0.81320146192712683,
        1.6290375181091619,
        -0.94909446058130786,
        0.70611058320999409
      ]
    },
    {
      "dualCoef": -0.42416036513552291,
      "supportVector": [
        0.79329695316091708,
        0.087105381960593781,
        0.51805786812014254,
        -0.10724301389072331,
        -0.52057549671923575,
        -0.67511846708806011,
        0.67511846708806011,
        1.2822004963352731,
        -0.45389255376462395,
        0.37788996484538256,
        0.070686868803931949,
        0.68231328146079007,
        -0.60815148152435328,
        -0.11240575294492193,
        0.032185337151304838,
        0.37995475947076035,
        -0.2698494340561608,
        -0.18775731513204005,
        0.36310578363785484,
        -0.23432921660332665,
        -0.51486978289362817,
        0.1311074121034348,
        0.047129282590185353,
        -0.59048088754587413,
        1.3448311128542811,
        1.6996312931891668,
        0.43302031114029765,
        0.13907273343526028,
        1.5112332935049571,
        1.5134665567613903,
        -0.3481011618431597,
        -0.60777937465830967,
        1.0479849284093596,
        0.98858122078488209,
        1.4294594653532138,
        1.2216949941216713
      ]
    },
    {
      "dualCoef": -0.3273438247768648,
      "supportVector": [
        -0.64089760864584611,
        -0.19521519475528448,
        -0.51932296147184498,
        -0.47079681467052698,
        -1.2550512682597321,
        -0.82776632938820294,
        0.82776632938820294,
        0.053654937646677357,
        -0.5170144344060662,
        -0.38197063884964988,
        -1.2255447336182723,
        -0.44119639453609821,
        0.3458417888083325,
        0.032951665518576603,
        -0.8380088896801271,
        -1.2952869983842781,
        -0.14528822529829835,
        -0.20106310198092467,
        0.40695420054197001,
        1.0364277262259103,
        1.1594231507358208,
        -0.25110497170808954,
        -0.53622533564403108,
        -0.95303943759223109,
        0.37759173984269123,
        0.28926729980669252,
        -0.011686550316349534,
        0.43035344917653018,
        0.85218350293823841,
        0.72165769157314708,
        0.31053939154403348,
        0.48130575116732305,
        -0.1832541198988048,
        -0.55514338496532289,
        0.55284073392291289,
        -0.16508984344076374
      ]
    },
    {
      "dualCoef": -0.84852813742385724,
      "supportVector": [
        2.3733418093887071,
        -0.092154479371624076,
        1.2651136873826319,
        0.64611165878835819,
        0.10461379531557762,
        -0.3962301052022037,
        0.3962301052022037,
        2.1877071720793548,
        0.1597423001853957,
        1.3909173952691392,
        0.56075993784393297,
        2.3043470968662501,
        0.23809557844114113,
        1.5415678592784066,
        0.47766369658300667,
        0.37853983410863729,
        0.46773005171029181,
        -0.055593499415347344,
        -0.067680630248895868,
        -0.84557135748952417,
        -0.96511422163087446,
        -0.24693738473474777,
        -0.94866104003687413,
        1.8874859491709608,
        0.86100527852495545,
        0.85909480205013233,
        -0.48435524842663608,
        -0.64198503080333791,
        -0.57698945028005477,
        -0.58211526420775983,
        -0.0034074202189454425,
        -0.67717702772558175,
        -0.24136106478069522,
        1.0067334017318426,
        -1.6603827523034633,
        0.23483114449072726
      ]
    },
    {
      "dualCoef": -0.66434625941774161,
      "supportVector": [
        2.3733418093887071,
        -0.092154479371624076,
        1.2651136873826319,
        0.64611165878835819,
        0.10461379531557762,
        -0.49319597995676706,
        0.49319597995676706,
        2.1877071720793548,
        0.1597423001853957,
        1.3909173952691392,
        0.56075993784393297,
        2.3043470968662501,
        0.23809557844114113,
        1.5415678592784066,
        0.47766369658300667,
        0.37853983410863729,
        0.46773005171029181,
        -0.16654126252648108,
        0.29983686797661002,
        -0.84557135748952417,
        -0.96511422163087446,
        -0.24693738473474777,
        -0.94866104003687413,
        1.8874859491709608,
        0.86100527852495545,
        0.85909480205013233,
        -0.48435524842663608,
        -0.64198503080333791,
        -0.57698945028005477,
        -0.58211526420775983,
        -0.0034074202189454425,
        -0.67717702772558175,
        -0.24136106478069522,
        1.0067334017318426,
        -1.6603827523034633,
        0.23483114449072726
      ]
    },
    {
      "dualCoef": -0.024685491831000595,
      "supportVector": [
        2.3733418093887071,
        -0.092154479371624076,
        1.2651136873826319,
        0.64611165878835819,
        0.10461379531557762,
        -0.52928393271553442,
        0.52928393271553442,
        2.1877071720793548,
        0.1597423001853957,
        1.3909173952691392,
        0.56075993784393297,
        2.3043470968662501,
        0.23809557844114113,
        1.5415678592784066,
        0.47766369658300667,
        0.37853983410863729,
        0.46773005171029181,
        -0.19337049205863935,
        0.3795011152632109,
        -0.84557135748952417,
        -0.96511422163087446,
        -0.24693738473474777,
        -0.94866104003687413,
        1.8874859491709608,
        0.86100527852495545,
        0.85909480205013233,
        -0.48435524842663608,
        -0.64198503080333791,
        -0.57698945028005477,
        -0.58211526420775983,
        -0.0034074202189454425,
        -0.67717702772558175,
        -0.24136106478069522,
        1.0067334017318426,
        -1.6603827523034633,
        0.23483114449072726
      ]
    },
    {
      "dualCoef": -0.2020327777430557,
      "supportVector": [
        -0.45662438719992521,
        -0.45231878791984159,
        -0.62288401698572082,
        -0.18295592720556278,
        -0.8647970697888121,
        0.197455342983064,
        -0.197455342983064,
        -1.1150224110753675,
        0.30717697854076415,
        -0.3985363202572193,
        -0.76640116328340968,
        -0.19160153168133925,
        -0.54294883919914305,
        -0.56669613811617603,
        -0.78893532672683586,
        -0.96223931792728934,
        -0.53899026568774666,
        -0.17464619352807942,
        0.32671124698072596,
        2.251810546193477,
        1.3455522148112256,
        4.1249699164513132,
        0.83792742270923082,
        -0.046159651076276731,
        1.138233436000911,
        1.7696146768546039,
        1.8681409007531899,
        3.7905341371121133,
        -0.070077587204506506,
        -1.2333932888187555,
        5.768978115757637,
        7.1103393165625466,
        -1.404285191403394,
        -1.2611053787503732,
        -1.2790205380433408,
        -1.2342903670576029
      ]
    },
    {
      "dualCoef": -0.21901705698289659,
      "supportVector": [
        -0.45662438719992521,
        -0.45231878791984159,
        -0.62288401698572082,
        -0.18295592720556278,
        -0.8647970697888121,
        -0.069324583698110745,
        0.069324583698110745,
        -1.1150224110753675,
        0.30717697854076415,
        -0.3985363202572193,
        -0.76640116328340968,
        -0.19160153168133925,
        -0.54294883919914305,
        -0.56669613811617603,
        -0.78893532672683586,
        -0.96223931792728934,
        -0.53899026568774666,
        -0.18126574677535476,
        0.40181368584230814,
        2.1228310019399181,
        1.3189890713068395,
        4.1717948212407281,
        0.88009157435497087,
        -0.16701250109172908,
        1.1415427036151429,
        1.9506960671722735,
        1.9294045880713968,
        3.8595806016466327,
        -0.12359792228262695,
        -1.2515517120967448,
        5.8744914549585081,
        7.2656651348606829,
        -1.404285191403394,
        -1.2611053787503732,
        -1.1871702937610376,
        -1.1852804420659986
      ]
    },
    {
      "dualCoef": -0.58952382449970109,
      "supportVector": [
        1.1265570344992846,
        -0.91499561655712558,
        -0.10286589634980561,
        5.0998456772617455,
        -0.89675861974062887,
        -0.036685251299721264,
        0.036685251299721264,
        0.29063326876427448,
        -1.3416567179289065,
        -0.90378960318808688,
        -0.14409790002768524,
        0.90262234707392397,
        -0.62942326554534389,
        -0.001934114912663045,
        -0.81975894470445354,
        -1.0648309223820087,
        -1.0435249801993283,
        -0.19774160455249107,
        0.26929839482210821,
        -1.0070176954352212,
        -1.0400793047729846,
        -0.58923686355103611,
        -0.99571625770430272,
        2.0692486355942012,
        1.7667345132163115,
        1.6897639141285075,
        -0.55683620236242304,
        -0.6189649149917138,
        -0.47582024664489864,
        -0.44233921882487226,
        -0.83002285244747209,
        -0.89149489497574286,
        0.43943246511929113,
        0.1291149142092311,
        -1.1614522253619928,
        -0.71086436814726905
      ]
    },
    {
      "dualCoef": -0.1414327496883904,
      "supportVector": [
        1.0873499661065356,
        -0.65789202339256847,
        0.082570352625895224,
        1.5268655959559136,
        0.37956598863347568,
        0.27691838343950215,
        -0.27691838343950215,
        1.1649585851507775,
        -1.3623967644253805,
        -0.41546212517364894,
        0.37497709431402199,
        0.93190814431554903,
        -1.4530112512276092,
        -0.67522967723558824,
        0.44345316696678511,
        0.64659248783079881,
        -0.87046665175390692,
        -0.16341872220473058,
        0.26929839482210821,
        2.2624637883487941,
        2.4524952972694449,
        0.48673481619448961,
        0.98198569223015564,
        -0.89212960118444318,
        -0.15121627497989723,
        0.054998582588350428,
        0.58361677163562975,
        1.0907297840038248,
        -1.0741216026268416,
        -1.5094342085634829,
        2.5414495931058556,
        2.9665564667162845,
        0.58862597224846924,
        0.3694340054418167,
        1.2288585318406637,
        0.72885118840609853
      ]
    },
    {
      "dualCoef": -0.22310666697715617,
      "supportVector": [
        0.020917705823759184,
        3.0681913939624303,
        2.4888159031769344,
        -0.75595579450194539,
        0.65232643483862107,
        0.4367029374264943,
        -0.4367029374264943,
        0.43406752180913588,
        2.6742475025948442,
        2.3866588972676062,
        1.2925860028820573,
        -0.62889173140287691,
        1.9500117620434692,
        1.2682959125670294,
        -0.39216913276802534,
        0.70820111183973733,
        2.8016329471358481,
        -0.16341872220473058,
        0.2300518779188854,
        1.9911153091083271,
        2.0688890637252335,
        1.6086858541550759,
        2.0513197402093786,
        1.2223118626859111,
        0.38880470825073205,
        0.34707884598121708,
        -0.20788647953639108,
        -0.12053992372977007,
        -0.36996333932281672,
        -0.76602745331529654,
        3.1685274590626546,
        3.3846570789567085,
        1.3369491948490309,
        2.8910087065521974,
        0.32211292028576743,
        2.3767609063238009
      ]
    },
    {
      "dualCoef": -0.20450911826384849,
      "supportVector": [
        1.0873499661065356,
        -0.65789202339256847,
        0.082570352625895224,
        1.5268655959559136,
        0.37956598863347568,
        -0.19928027951261448,
        0.19928027951261448,
        1.1649585851507775,
        -1.3623967644253805,
        -0.41546212517364894,
        0.37497709431402199,
        0.93190814431554903,
        -1.4530112512276092,
        -0.67522967723558824,
        0.44345316696678511,
        0.64659248783079881,
        -0.87046665175390692,
        -0.16341872220473058,
        0.38428530931252469,
        2.2624637883487941,
        2.4524952972694449,
        0.48673481619448961,
        0.98198569223015564,
        -0.89212960118444318,
        -0.15121627497989723,
        0.054998582588350428,
        0.58361677163562975,
        1.0907297840038248,
        -1.0741216026268416,
        -1.5094342085634829,
        2.5414495931058556,
        2.9665564667162845,
        0.58862597224846924,
        0.3694340054418167,
        1.2288585318406637,
        0.72885118840609853
      ]
    },
    {
      "dualCoef": -0.84852813742385724,
      "supportVector": [
        -0.78753204443472791,
        -0.2209803736011996,
        -0.62288401698572082,
        -0.52264093795101907,
        1.0963412004253401,
        0.12769189894183888,
        -0.12769189894183888,
        -1.8166029966208852,
        -0.41151071961965568,
        -1.3777121408481166,
        0.77431024275346405,
        -0.65950870124639405,
        0.064221865573913822,
        -0.33024807074888507,
        1.0377283162618451,
        0.12804451291906499,
        -0.66673283602040023,
        -0.14110444549162812,
        -0.012923103741464308,
        0.85170784187653004,
        0.69090746980234763,
        0.64282663293566855,
        0.72649978347430089,
        -0.71133373756132645,
        -0.65973575166297604,
        -0.64328742547563211,
        -0.11022055074073497,
        0.30724495223480253,
        -1.0388560660276898,
        -1.0135420385139657,
        -0.040035246874718565,
        0.10398115305739121,
        0.41666082455746922,
        -0.3459986914459956,
        0.93052893841174322,
        -0.055307611459570132
      ]
    },
    {
      "dualCoef": -0.21725531107772886,
      "supportVector": [
        0.020917705823759184,
        3.0681913939624303,
        2.4888159031769344,
        -0.75595579450194539,
        0.65232643483862107,
        -0.16256689209528863,
        0.16256689209528863,
        0.43406752180913588,
        2.6742475025948442,
        2.3866588972676062,
        1.2925860028820573,
        -0.62889173140287691,
        1.9500117620434692,
        1.2682959125670294,
        -0.39216913276802534,
        0.70820111183973733,
        2.8016329471358481,
        -0.20803432922647591,
        0.2300518779188854,
        1.9911153091083271,
        2.0688890637252335,
        1.6086858541550759,
        2.0513197402093786,
        1.2223118626859111,
        0.38880470825073205,
        0.34707884598121708,
        -0.20788647953639108,
        -0.12053992372977007,
        -0.36996333932281672,
        -0.76602745331529654,
        3.1685274590626546,
        3.3846570789567085,
        1.3369491948490309,
        2.8910087065521974,
        0.32211292028576743,
        2.3767609063238009
      ]
    },
    {
      "dualCoef": -0.84852813742385724,
      "supportVector": [
        -0.78753204443472791,
        -0.2209803736011996,
        -0.62288401698572082,
        -0.52264093795101907,
        1.0963412004253401,
        0.0046207323632437725,
        -0.0046207323632437725,
        -1.8166029966208852,
        -0.41151071961965568,
        -1.3777121408481166,
        0.77431024275346405,
        -0.65950870124639405,
        0.064221865573913822,
        -0.33024807074888507,
        1.0377283162618451,
        0.12804451291906499,
        -0.66673283602040023,
        -0.14110444549162812,
        -0.012923103741464308,
        0.85170784187653004,
        0.69090746980234763,
        0.64282663293566855,
        0.72649978347430089,
        -0.71133373756132645,
        -0.65973575166297604,
        -0.64328742547563211,
        -0.11022055074073497,
        0.30724495223480253,
        -1.0388560660276898,
        -1.0135420385139657,
        -0.040035246874718565,
        0.10398115305739121,
        0.41666082455746922,
        -0.3459986914459956,
        0.93052893841174322,
        -0.055307611459570132
      ]
    },
    {
      "dualCoef": -0.39948564364856437,
      "supportVector": [
        2.2267073735998251,
        0.83210278731375609,
        1.9285240387300675,
        -0.13113998665796486,
        -0.57527554680907289,
        -0.67591426361190565,
        0.67591426361190565,
        2.276262232654878,
        0.9618410549077212,
        2.082714655789593,
        -0.12259754421711852,
        0.5259005007384745,
        1.1694297744905977,
        1.2865140423477879,
        -0.090232061793199217,
        -0.48912685207185935,
        1.4226434389443512,
        -0.14791514049561819,
        0.39464224525213781,
        1.190900430471961,
        0.25455444783481684,
        1.7452079214031255,
        2.3499280338195292,
        -0.22792233749951707,
        0.048672374027393557,
        0.37443429077636081,
        1.0658924722861358,
        0.55109940065577423,
        0.74560086372300161,
        0.76001252387755525,
        0.13963275471051562,
        -0.31643669283596199,
        -0.86404764979879112,
        1.2853299180047579,
        -0.6353340261129603,
        1.3695089278963497
      ]
    },
    {
      "dualCoef": -0.27000140659604693,
      "supportVector": [
        -0.12571672996512256,
        -0.55537950330350205,
        -0.51932296147184498,
        0.19370441728792642,
        -0.29739783871752906,
        -0.21082696921736524,
        0.21082696921736524,
        0.40538067120016363,
        -0.073808658187940232,
        0.17514042935708724,
        0.41870975780893699,
        0.27630563788371548,
        -0.17439205953111081,
        0.01473353573781812,
        0.39107646812753838,
        0.29206107232304052,
        -0.16157842315911422,
        -0.15185931562294147,
        0.014824715697033702,
        -0.93579064219803998,
        -0.98275421406903107,
        -0.73633813179034746,
        -0.74425426222134972,
        0.43725174898553265,
        0.41787632877268355,
        0.38789490173513486,
        -0.45983001325483941,
        -0.49838228797302686,
        1.6582050957473171,
        1.68305606315005,
        -0.87023316157879282,
        -0.66935938685456742,
        -0.78788043826442133,
        -0.85899510951227021,
        -1.0696019810796895,
        -1.0308011584924619
      ]
    },
    {
      "dualCoef": -0.19791484437396495,
      "supportVector": [
        -0.78753204443472791,
        -0.16945001590936939,
        -0.58128256733484762,
        -0.54437747071366238,
        -0.14164468727870824,
        -0.64411938496617416,
        0.64411938496617416,
        -0.70529934911678505,
        0.49744436161711109,
        -0.0099630541970581136,
        -0.21075992039688113,
        -0.066471307103486768,
        0.02075343735710701,
        -0.021315104041129514,
        0.30436888822345687,
        0.15150864702217223,
        0.32130943206973778,
        -0.14994879177858139,
        0.24364525301541953,
        1.5731180401420661,
        1.646808448882946,
        1.2393985082148653,
        1.5712314744360427,
        0.014750185331511251,
        0.92136041000081126,
        0.93995857078526601,
        0.074370489371014079,
        0.093781804898145887,
        -0.24416404882866455,
        -0.30990675866423456,
        2.7497064859268701,
        3.4487071512275018,
        -0.09530847359107876,
        -0.5661925385852119,
        -0.10039820341282694,
        -0.56853954597165024
      ]
    },
    {
      "dualCoef": -0.29815828058322447,
      "supportVector": [
        -0.60325882298880695,
        -0.68365720223848359,
        -0.89240830248978242,
        0.089904879208366525,
        -0.61543325823864403,
        -0.89098988906513588,
        0.89098988906513588,
        0.11289952042607664,
        0.15929142960938539,
        0.19242635778237707,
        -0.017659503896283742,
        0.027376361329902593,
        -0.17439205953111081,
        -0.13023626294311108,
        0.21402697040326996,
        0.1884570041554576,
        -0.22879638593109139,
        -0.22083197988336697,
        0.42786346985662305,
        1.2336914650046849,
        0.63919157928886228,
        1.248877635521447,
        1.7769097718493763,
        -0.046159651076276731,
        -1.6841134312198418,
        -2.665273862046766,
        3.5378777986023686,
        -0.041949820994018006,
        1.6963281824387311,
        1.511108458342052,
        1.0359760216903999,
        0.52965075332096312,
        1.6793090322612501,
        0.048219325206472402,
        1.6065467363294943,
        0.066629081919541339
      ]
    },
    {
      "dualCoef": -0.55753488273296659,
      "supportVector": [
        -0.34684459570022763,
        0.19016609734425419,
        -0.042233996326724428,
        -0.51493227555017806,
        0.35270409599561769,
        0.14505139482883547,
        -0.14505139482883547,
        0.11227589323892506,
        -0.41151071961965568,
        -0.2638501279435026,
        0.60929934378707229,
        -1.2838286515337645,
        -0.13092363131430401,
        -0.8574109750431731,
        -2.1462592599870365,
        -0.20855109147116863,
        -0.027443583099986138,
        -0.12560273274806016,
        0.26926787053520124,
        0.62157012460048899,
        0.49184048209904108,
        0.61373775083348681,
        0.93569790261430341,
        -0.52957105113808611,
        -0.69242285300766471,
        -0.44493191805674132,
        0.94205988200557744,
        1.2402932880924447,
        1.829015474111801,
        1.7684641054892127,
        -0.10749806808990073,
        -0.18308477518182553,
        1.3086809513929762,
        0.62001302503572775,
        1.6271211910487302,
        0.83079183238863541
      ]
    },
    {
      "dualCoef": -0.29030597223811105,
      "supportVector": [
        3.917316162695168,
        -0.2209803736011996,
        2.0325276628572504,
        1.5591330934427508,
        1.0773666994053328,
        0.47668476328913639,
        -0.47668476328913639,
        3.2117030133822349,
        -0.93993103470372841,
        1.1038989587075558,
        1.4481346358257015,
        2.2104994284328607,
        -0.26086648587731159,
        1.0686717245438249,
        1.9087915133414441,
        3.0675867718101602,
        -0.48112509478156645,
        -0.10229776035142543,
        0.1650875226753768,
        -0.023148136432731833,
        -0.27781804459598186,
        0.88806586839795709,
        -0.0090837250803088056,
        1.0415159990627945,
        0.44452812329623992,
        0.37351324746959957,
        -0.22469685255039953,
        -0.2972588149505519,
        -0.58548750172686759,
        -0.4055589846217072,
        0.41371910665223155,
        -0.7710730316088853,
        -0.99203997433592817,
        1.3137420273130438,
        -1.7199017105983958,
        0.8829383925797023
      ]
    },
    {
      "dualCoef": -0.380951446192278,
      "supportVector": [
        3.917316162695168,
        -0.2209803736011996,
        2.0325276628572504,
        1.5591330934427508,
        1.0773666994053328,
        -0.18930021739009856,
        0.18930021739009856,
        3.2117030133822349,
        -0.93993103470372841,
        1.1038989587075558,
        1.4481346358257015,
        2.2104994284328607,
        -0.26086648587731159,
        1.0686717245438249,
        1.9087915133414441,
        3.0675867718101602,
        -0.48112509478156645,
        -0.20259108407107726,
        0.38628899403442457,
        -0.023148136432731833,
        -0.27781804459598186,
        0.88806586839795709,
        -0.0090837250803088056,
        1.0415159990627945,
        0.44452812329623992,
        0.37351324746959957,
        -0.22469685255039953,
        -0.2972588149505519,
        -0.58548750172686759,
        -0.4055589846217072,
        0.41371910665223155,
        -0.7710730316088853,
        -0.99203997433592817,
        1.3137420273130438,
        -1.7199017105983958,
        0.8829383925797023
      ]
    },
    {
      "dualCoef": -0.84852813742385724,
      "supportVector": [
        0.53531444313662779,
        0.44726969050881127,
        0.6632203732848917,
        -0.36011220904448732,
        -0.040919717549734495,
        -0.35279888235878376,
        0.35279888235878376,
        -0.44337593051312502,
        -0.70728181748241314,
        -0.82096119615023966,
        -0.39655752849147086,
        -0.22288408782580238,
        -0.3690751263319158,
        -0.43916922965086663,
        0.35923562872408027,
        -0.24091923743847943,
        -0.38067299842370944,
        -0.19021381087842218,
        0.36286032188044809,
        -0.31770513404323114,
        -0.27276070436805094,
        -0.2192647554199707,
        -0.04774453624891635,
        0.074693198939175615,
        0.32549781429283631,
        0.31060846027119654,
        -0.38542169973241303,
        -0.49940454769661846,
        -0.38605075092094332,
        -0.51266869224795009,
        0.29528754993650425,
        0.42208842252463064,
        -0.20288484452106506,
        0.4893962447434686,
        -0.24662379231025353,
        0.4559639260528458
      ]
    },
    {
      "dualCoef": -0.84852813742385724,
      "supportVector": [
        0.53531444313662779,
        0.44726969050881127,
        0.6632203732848917,
        -0.36011220904448732,
        -0.040919717549734495,
        -0.64183810083625636,
        0.64183810083625636,
        -0.44337593051312502,
        -0.70728181748241314,
        -0.82096119615023966,
        -0.39655752849147086,
        -0.22288408782580238,
        -0.3690751263319158,
        -0.43916922965086663,
        0.35923562872408027,
        -0.24091923743847943,
        -0.38067299842370944,
        -0.21169896003298136,
        0.36780087539395617,
        -0.31770513404323114,
        -0.27276070436805094,
        -0.2192647554199707,
        -0.04774453624891635,
        0.074693198939175615,
        0.32549781429283631,
        0.31060846027119654,
        -0.38542169973241303,
        -0.49940454769661846,
        -0.38605075092094332,
        -0.51266869224795009,
        0.29528754993650425,
        0.42208842252463064,
        -0.20288484452106506,
        0.4893962447434686,
        -0.24662379231025353,
        0.4559639260528458
      ]
    },
    {
      "dualCoef": -0.51884485136619829,
      "supportVector": [
        0.53531444313662779,
        0.44726969050881127,
        0.6632203732848917,
        -0.36011220904448732,
        -0.040919717549734495,
        -0.64183810083625636,
        0.64183810083625636,
        -0.44337593051312502,
        -0.70728181748241314,
        -0.82096119615023966,
        -0.39655752849147086,
        -0.22288408782580238,
        -0.3690751263319158,
        -0.43916922965086663,
        0.35923562872408027,
        -0.24091923743847943,
        -0.38067299842370944,
        -0.22378379402253204,
        0.40433418785055575,
        -0.31770513404323114,
        -0.27276070436805094,
        -0.2192647554199707,
        -0.04774453624891635,
        0.074693198939175615,
        0.32549781429283631,
        0.31060846027119654,
        -0.38542169973241303,
        -0.49940454769661846,
        -0.38605075092094332,
        -0.51266869224795009,
        0.29528754993650425,
        0.42208842252463064,
        -0.20288484452106506,
        0.4893962447434686,
        -0.24662379231025353,
        0.4559639260528458
      ]
    },
    {
      "dualCoef": -0.55600641493021052,
      "supportVector": [
        2.6673948223343253,
        -0.11791965821753918,
        1.410276192547381,
        0.80361656539468929,
        0.42034116077694406,
        -0.079060746148234592,
        0.079060746148234592,
        -0.910472693689652,
        0.13810051253690125,
        -0.41546212517364894,
        -1.1501174536906629,
        2.5539419597210089,
        0.30283579067893851,
        1.7411920473016114,
        0.98777092772274833,
        0.0017311899604153609,
        -0.46602394698387695,
        -0.20767721481751755,
        0.3499380813536157,
        -0.94376809024393127,
        -0.9933302547279006,
        -0.72251850534234097,
        -0.62277623814583261,
        0.37634191257774469,
        0.7455367504723408,
        0.73439432939726534,
        -0.53003232036938897,
        -0.62958814886580095,
        -1.4166883050244106,
        -1.4417261846073,
        -0.33574582274559883,
        -0.8698465980893052,
        -1.4301977479047776,
        0.53872282340368738,
        -1.6243774565448004,
        0.38264507826540578
      ]
    },
    {
      "dualCoef": -0.27682348822144548,
      "supportVector": [
        2.6673948223343253,
        -0.11791965821753918,
        1.410276192547381,
        0.80361656539468929,
        0.42034116077694406,
        -0.079060746148234592,
        0.079060746148234592,
        -0.910472693689652,
        0.13810051253690125,
        -0.41546212517364894,
        -1.1501174536906629,
        2.5539419597210089,
        0.30283579067893851,
        1.7411920473016114,
        0.98777092772274833,
        0.0017311899604153609,
        -0.46602394698387695,
        -0.20767721481751755,
        0.3499380813536157,
        -0.65408374329590935,
        -0.7925129994927449,
        -0.15433815853794269,
        -0.45631503187455597,
        0.074693198939175615,
        1.0463138606968119,
        1.0508337956846898,
        -0.2317705565328908,
        -0.51181128991978486,
        1.7705941019958695,
        1.7521737038062855,
        -0.81213295023586674,
        -0.691838281709097,
        -1.5267809130462981,
        0.49018547000203211,
        -1.4854998871899581,
        0.45674808485271146
      ]
    },
    {
      "dualCoef": -0.093475120346863866,
      "supportVector": [
        -1.1552943459587146,
        -0.78616972232755011,
        -1.2867369369464636,
        -0.26855789069472907,
        -1.0452596770535585,
        -0.51251766486588823,
        0.51251766486588823,
        -1.2609511728688352,
        -0.22124333654330866,
        -0.90486997371466749,
        -0.29736047702777429,
        -0.7220738135353203,
        -0.2173980576605048,
        -0.6027447778951236,
        -0.75912575730891119,
        -1.0494763724648997,
        -0.81612532661542714,
        -0.15434146475769073,
        0.36869774420305074,
        1.205563909652732,
        1.2415107576366797,
        0.67590687848854136,
        0.79310706318770308,
        0.19554604895462796,
        0.71347956490974485,
        0.032255702034272964,
        1.1049111729706651,
        2.6236041873386964,
        1.5847574850159007,
        1.6161884923717922,
        1.0052868663481953,
        1.2305882230110141,
        -0.12593240400180478,
        -1.2105949622023093,
        -0.26646344507523101,
        -1.2821240538494088
      ]
    },
    {
      "dualCoef": -0.17033093883900066,
      "supportVector": [
        -1.1552943459587146,
        -0.78616972232755011,
        -1.2867369369464636,
        -0.26855789069472907,
        -1.0452596770535585,
        -0.51251766486588823,
        0.51251766486588823,
        -1.2609511728688352,
        -0.22124333654330866,
        -0.90486997371466749,
        -0.29736047702777429,
        -0.7220738135353203,
        -0.2173980576605048,
        -0.6027447778951236,
        -0.75912575730891119,
        -1.0494763724648997,
        -0.81612532661542714,
        -0.15434146475769073,
        0.36869774420305074,
        1.8419297293294343,
        2.0965527947456843,
        1.0876241289662414,
        1.5443574990956559,
        0.73986728542422531,
        -2.125766212998804,
        -2.572811075145351,
        3.6518871692531993,
        1.3480018861060687,
        1.5492912422664142,
        1.3943211224562297,
        1.8996931446316834,
        2.3443605003694512,
        0.80770485903289391,
        -0.74140054598630878,
        0.19352257829054306,
        -1.0366823494914543
      ]
    },
    {
      "dualCoef": -0.31297532915488929,
      "supportVector": [
        2.0800729378109435,
        -0.63267503984124729,
        0.6632203732848917,
        2.2243018776798804,
        -0.1185068067708861,
        -0.51251766486588823,
        0.51251766486588823,
        2.1010229930652864,
        -0.89800007113477054,
        0.49601047575152979,
        0.27979956442301102,
        1.2440681194592342,
        -0.24005713194373385,
        0.5232906904687783,
        0.67545712364335198,
        0.71070060391303747,
        -0.73263097372391472,
        -0.15434146475769073,
        0.18846871159371781,
        0.076974571850713172,
        0.12041206391670078,
        -0.063581409667744421,
        0.24576662947924788,
        -0.59048088754587413,
        1.3060663116748148,
        1.273990678454423,
        -0.49038658647871636,
        -0.54392475320710176,
        -1.603277567746008,
        -1.5734198792272094,
        -0.12707788146704768,
        -0.26671080171861783,
        -1.5362036608649829,
        -0.18065599977694244,
        -0.98877376611126289,
        0.059963732120683157
      ]
    },
    {
      "dualCoef": -0.017807618322793716,
      "supportVector": [
        0.57216908742581196,
        1.2180322747078884,
        1.3062725684201979,
        -0.53819453836133735,
        -0.19023332809056984,
        -0.88345633435992865,
        0.88345633435992865,
        0.63861723919485136,
        1.1313683914875945,
        1.2724367608541316,
        0.40052593324142,
        0.80677791973769653,
        1.2128982027074044,
        1.4865258501535619,
        0.61393824488161108,
        1.5496556073890819,
        0.6642040226758994,
        -0.20737230739170823,
        0.40804536327686436,
        -0.55731060633698326,
        -0.53034429948332329,
        -0.34504924405174797,
        -0.58714469558631355,
        0.98157298545513005,
        1.1080748504346489,
        1.0919667417232006,
        -0.42447395323132547,
        -0.37987596041185212,
        -0.41305373759185199,
        -0.36583219474821271,
        -0.72640168078513179,
        -0.71153120600453168,
        0.74567176922655143,
        1.5394604512622048,
        -0.048227264660478768,
        1.1315167321371193
      ]
    },
    {
      "dualCoef": -0.84852813742385724,
      "supportVector": [
        0.57216908742581196,
        1.2180322747078884,
        1.3062725684201979,
        -0.53819453836133735,
        -0.19023332809056984,
        -0.88345633435992865,
        0.88345633435992865,
        0.63861723919485136,
        1.1313683914875945,
        1.2724367608541316,
        0.40052593324142,
        0.80677791973769653,
        1.2128982027074044,
        1.4865258501535619,
        0.61393824488161108,
        1.5496556073890819,
        0.6642040226758994,
        -0.20737230739170823,
        0.40804536327686436,
        -0.55731060633698326,
        -0.53034429948332329,
        -0.34504924405174797,
        -0.58714469558631355,
        0.98157298545513005,
        1.1080748504346489,
        1.0919667417232006,
        -0.42447395323132547,
        -0.37987596041185212,
        -0.41305373759185199,
        -0.36583219474821271,
        -0.72640168078513179,
        -0.71153120600453168,
        0.74567176922655143,
        1.5394604512622048,
        -0.048227264660478768,
        1.1315167321371193
      ]
    },
    {
      "dualCoef": -0.84747003185937331,
      "supportVector": [
        0.57216908742581196,
        1.2180322747078884,
        1.3062725684201979,
        -0.53819453836133735,
        -0.19023332809056984,
        -0.88345633435992865,
        0.88345633435992865,
        0.63861723919485136,
        1.1313683914875945,
        1.2724367608541316,
        0.40052593324142,
        0.80677791973769653,
        1.2128982027074044,
        1.4865258501535619,
        0.61393824488161108,
        1.5496556073890819,
        0.6642040226758994,
        -0.20737230739170823,
        0.40804536327686436,
        -0.55731060633698326,
        -0.53034429948332329,
        -0.34504924405174797,
        -0.58714469558631355,
        0.98157298545513005,
        1.1080748504346489,
        1.0919667417232006,
        -0.42447395323132547,
        -0.37987596041185212,
        -0.41305373759185199,
        -0.36583219474821271,
        -0.72640168078513179,
        -0.71153120600453168,
        0.74567176922655143,
        1.5394604512622048,
        -0.048227264660478768,
        1.1315167321371193
      ]
    },
    {
      "dualCoef": -0.080979254563885814,
      "supportVector": [
        -0.56718832006747777,
        -0.58059648685482312,
        -0.78884724697590658,
        -0.083976231364861084,
        -1.0846386875868133,
        0.61200532540723307,
        -0.61200532540723307,
        -3.0158380775133571,
        -0.79159461519633945,
        -2.3738137663554433,
        -2.6495341292591448,
        -0.097753863247949893,
        0.02075343735710701,
        -0.039533233821887996,
        -0.56219981544678588,
        -1.2612486722083307,
        -0.64231480506546468,
        0.019667694894493812,
        -0.1103102606992596,
        0.022505548087704118,
        -0.96740866211717669,
        1.4111141328142671,
        0.99916734172516775,
        -0.046159651076276731,
        0.91139281629252533,
        0.96191377204470896,
        -0.28252690518930551,
        -0.51800266205899825,
        -0.052267917718268921,
        -0.19307699296459774,
        0.37397088411629015,
        -0.58269737838130631,
        0.72290012866472952,
        -0.34007950200676934,
        0.71155795604273264,
        -0.3191770476143676
      ]
    },
    {
      "dualCoef": -0.19084477434587052,
      "supportVector": [
        -0.56718832006747777,
        -0.58059648685482312,
        -0.78884724697590658,
        -0.083976231364861084,
        -1.0846386875868133,
        0.61200532540723307,
        -0.61200532540723307,
        -3.0158380775133571,
        -0.79159461519633945,
        -2.3738137663554433,
        -2.6495341292591448,
        -0.097753863247949893,
        0.02075343735710701,
        -0.039533233821887996,
        -0.56219981544678588,
        -1.2612486722083307,
        -0.64231480506546468,
        0.019667694894493812,
        -0.1103102606992596,
        0.43602417185355719,
        0.50011281826660525,
        1.1243841538735768,
        2.3140546936953799,
        0.43725174898553265,
        -0.0087812434286699981,
        0.44854745208278773,
        0.31429058779586283,
        0.46566662550984345,
        1.0603360051012882,
        0.63001263721754064,
        1.6670067297088851,
        1.2364311080848409,
        1.4578744585221544,
        0.029277919000948414,
        1.0319316080994059,
        -0.14823042924365185
      ]
    },
    {
      "dualCoef": -0.16326809821831084,
      "supportVector": [
        -0.56718832006747777,
        -0.58059648685482312,
        -0.78884724697590658,
        -0.083976231364861084,
        -1.0846386875868133,
        -0.18126784667615581,
        0.18126784667615581,
        -3.0158380775133571,
        -0.79159461519633945,
        -2.3738137663554433,
        -2.6495341292591448,
        -0.097753863247949893,
        0.02075343735710701,
        -0.039533233821887996,
        -0.56219981544678588,
        -1.2612486722083307,
        -0.64231480506546468,
        0.019667694894493812,
        -0.1103102606992596,
        0.43602417185355719,
        0.50011281826660525,
        1.1243841538735768,
        2.3140546936953799,
        0.43725174898553265,
        -0.0087812434286699981,
        0.44854745208278773,
        0.31429058779586283,
        0.46566662550984345,
        1.0603360051012882,
        0.63001263721754064,
        1.6670067297088851,
        1.2364311080848409,
        1.4578744585221544,
        0.029277919000948414,
        1.0319316080994059,
        -0.14823042924365185
      ]
    },
    {
      "dualCoef": -0.84338252641654921,
      "supportVector": [
        -0.56640417869962278,
        -0.76095273877622893,
        -0.93400975214065562,
        0.36478104613402784,
        -0.66701950554334011,
        -0.18126784667615581,
        0.18126784667615581,
        -1.5234982186596466,
        -0.83442731991731811,
        -1.5462499429946923,
        -1.434483469794819,
        -0.37863128224717196,
        -0.34780334231092525,
        -0.51204174877390052,
        -0.051880753048792354,
        -0.78242644195419797,
        -0.13747815109238423,
        0.032430010058221014,
        -0.1103102606992596,
        -0.76890945724050508,
        -0.8913382424795111,
        -0.43700996962445249,
        -0.45533643437004734,
        -0.4087182011226338,
        0.70741273968760388,
        0.71373828859113286,
        -0.44849451630725073,
        -0.61187861708890234,
        0.56160988793033706,
        0.47962943992716583,
        0.23434248026505969,
        -0.81806396079267829,
        0.52502242447234593,
        -0.56895482699018418,
        0.80193859641651888,
        -0.39955332460059867
      ]
    },
    {
      "dualCoef": -0.76215349610962224,
      "supportVector": [
        -0.56640417869962278,
        -0.76095273877622893,
        -0.93400975214065562,
        0.36478104613402784,
        -0.66701950554334011,
        -0.18126784667615581,
        0.18126784667615581,
        -1.5234982186596466,
        -0.83442731991731811,
        -1.5462499429946923,
        -1.434483469794819,
        -0.37863128224717196,
        -0.34780334231092525,
        -0.51204174877390052,
        -0.051880753048792354,
        -0.78242644195419797,
        -0.13747815109238423,
        0.032430010058221014,
        -0.1103102606992596,
        -0.76890945724050508,
        -0.8913382424795111,
        -0.43700996962445249,
        -0.45533643437004734,
        -0.4087182011226338,
        0.70741273968760388,
        0.71373828859113286,
        -0.44849451630725073,
        -0.61187861708890234,
        0.56160988793033706,
        0.47962943992716583,
        0.23434248026505969,
        -0.81806396079267829,
        0.52502242447234593,
        -0.56895482699018418,
        0.80193859641651888,
        -0.39955332460059867
      ]
    },
    {
      "dualCoef": -0.29255445913258354,
      "supportVector": [
        -0.75067740014554363,
        -0.47808396676575671,
        -0.80964797180134318,
        -0.33681006829109172,
        -0.67610098591084611,
        0.90294120019887514,
        -0.90294120019887514,
        -0.062963346350666499,
        -0.30555613425723493,
        -0.28041580935107202,
        -0.2827629735994463,
        -0.22288408782580238,
        -0.32606912820252182,
        -0.40312058987191896,
        -0.080560395082387076,
        -0.32386148426891753,
        -0.30183059080634578,
        -0.032510609734903231,
        0.068985596916237749,
        2.7066733606417435,
        2.8056184713016861,
        2.1212149782897898,
        2.6419547436014366,
        1.3431647127013635,
        0.1235731776302099,
        -0.91476881277890354,
        6.337776273359025,
        3.5257930785538982,
        0.87997621239298385,
        0.9136221293743837,
        1.4006738918128019,
        1.0291784899609584,
        -0.1777575170045719,
        -0.8112469813691785,
        -1.1871702937610376,
        -1.3507379488376547
      ]
    },
    {
      "dualCoef": -0.73314593088321456,
      "supportVector": [
        -1.1921489902478988,
        -0.42655360907392648,
        -1.017212651442402,
        -0.63667143404375526,
        -0.73115414851600291,
        -0.78152209020227315,
        0.78152209020227315,
        -0.50137325891822115,
        0.11690959546441709,
        -0.19614690827778408,
        -0.34467495681942206,
        -0.50376150682502441,
        -0.4560119827655294,
        -0.67561729701815754,
        -1.1329134683189965,
        -0.73242019332243102,
        -0.38087240904488551,
        -0.22790882767922785,
        0.35462178064064637,
        -0.059494501330246974,
        0.087632930944330389,
        -0.020529367819042865,
        0.22806189984433661,
        1.5858372355323918,
        -0.6421242779277091,
        -0.69342193166050581,
        0.096537980895932865,
        0.51332909215458133,
        -0.74268652377286715,
        -0.7463267241818704,
        1.0667419854524032,
        1.7069582904094007,
        1.3000434325591816,
        -0.25365933619406617,
        0.011291693634453656,
        -0.89514168611570122
      ]
    },
    {
      "dualCoef": -0.68852800021893279,
      "supportVector": [
        0.90386088602846959,
        -0.7094223810843987,
        -0.062592152538853876,
        1.6690125618919549,
        -0.50206939949611018,
        -0.63033788732665819,
        0.63033788732665819,
        0.96103249495221377,
        -2.0387026284408321,
        -1.0734077758612435,
        -0.018959949548871827,
        1.1196034811823277,
        -0.41300598463613547,
        0.30583599244738452,
        0.29812724379051286,
        0.11723299169508848,
        -0.92403364894229323,
        -0.21534429705331729,
        0.45007856593155032,
        -0.79758743474946747,
        -0.92366865820354305,
        -0.30802157473303809,
        -0.82538008453209277,
        1.7066900855478442,
        1.2350383755058205,
        1.1898792605632913,
        -0.55307958665410006,
        -0.65688371948044189,
        -0.20822679173142161,
        -0.1478504661768523,
        -0.6771862478733166,
        -0.76780538473593629,
        0.85324814015653772,
        0.37298551910535244,
        -0.49866086262089326,
        -0.32152952401396462
      ]
    },
    {
      "dualCoef": -0.7320980380869756,
      "supportVector": [
        -0.9341664802236096,
        -0.91499561655712558,
        -1.2659362121210271,
        0.66863732652039409,
        -1.0464755045007574,
        0.25286875787614538,
        -0.25286875787614538,
        -0.73460982691290888,
        -1.1513893348525595,
        -1.3438605310152574,
        -0.70121532431085687,
        -1.0022856462335963,
        -0.26132891596472441,
        -0.80275658570089758,
        -0.53801819725677336,
        -0.93472830677828755,
        -0.98090464886043394,
        -0.17640025301781009,
        0.11156409463827328,
        2.3352372322444288,
        2.2507027527905135,
        2.7225641610205722,
        2.5285563084516571,
        0.13560303534696361,
        -0.36617277509097251,
        -0.39781733840294464,
        0.0029102231425388466,
        0.0022729688854249896,
        -0.12468573485473605,
        0.016325828866327694,
        0.94208473117332714,
        0.66895506900711876,
        -0.49577525588518839,
        -1.3779107170177711,
        -0.56699744436692678,
        -1.4240567966250948
      ]
    },
    {
      "dualCoef": -0.07987617590087101,
      "supportVector": [
        1.6017467034194042,
        -1.5317153229753064,
        -0.33255900665622262,
        -3.8080273218253726,
        -0.71240566890757107,
        0.054781976930068178,
        -0.054781976930068178,
        -0.44275230332597348,
        0.66606995704496363,
        0.27633513534680482,
        -0.57923799487803163,
        -0.84653845181222676,
        0.8660756371477758,
        0.23296347332435058,
        -0.80989003334959286,
        -0.66905926543442518,
        -0.73701863914085997,
        -0.11866182716191176,
        -0.00032727715886446,
        0.31337538396783438,
        0.22125167839202664,
        0.16151600137906563,
        0.44085938870156804,
        -1.1338353012153479,
        0.19689744629588651,
        0.27285553237765292,
        -0.24351544215372128,
        -0.12520809937388258,
        -0.27888926172927214,
        -0.25974154487395029,
        0.14227203455395937,
        0.14237756801285611,
        -1.1812801596945173,
        -0.89016950722552846,
        -0.24368458449321981,
        -0.42464640619630006
      ]
    },
    {
      "dualCoef": -0.84852813742385724,
      "supportVector": [
        1.6017467034194042,
        -1.5317153229753064,
        -0.33255900665622262,
        -3.8080273218253726,
        -0.71240566890757107,
        -0.046608047533971596,
        0.046608047533971596,
        -0.44275230332597348,
        0.66606995704496363,
        0.27633513534680482,
        -0.57923799487803163,
        -0.84653845181222676,
        0.8660756371477758,
        0.23296347332435058,
        -0.80989003334959286,
        -0.66905926543442518,
        -0.73701863914085997,
        -0.11866182716191176,
        -0.00032727715886446,
        0.31337538396783438,
        0.22125167839202664,
        0.16151600137906563,
        0.44085938870156804,
        -1.1338353012153479,
        0.19689744629588651,
        0.27285553237765292,
        -0.24351544215372128,
        -0.12520809937388258,
        -0.27888926172927214,
        -0.25974154487395029,
        0.14227203455395937,
        0.14237756801285611,
        -1.1812801596945173,
        -0.89016950722552846,
        -0.24368458449321981,
        -0.42464640619630006
      ]
    },
    {
      "dualCoef": -0.84852813742385724,
      "supportVector": [
        -0.015936938465424998,
        -0.40078843022801136,
        -0.33255900665622262,
        0.008352855982670937,
        -0.78979823168674057,
        -0.046608047533971596,
        0.046608047533971596,
        0.28751513282851665,
        0.13810051253690125,
        0.27633513534680482,
        -0.54727434963638166,
        0.40077027616062194,
        -0.0005183466638835583,
        0.23296347332435058,
        -0.59116037262673227,
        -0.78460485371065425,
        -0.072131406412039939,
        -0.16552894116104239,
        -0.00032727715886446,
        0.31337538396783438,
        0.22125167839202664,
        0.16151600137906563,
        0.44085938870156804,
        -1.1338353012153479,
        0.19689744629588651,
        0.27285553237765292,
        -0.24351544215372128,
        -0.12520809937388258,
        -0.27888926172927214,
        -0.25974154487395029,
        0.14227203455395937,
        0.14237756801285611,
        -1.1812801596945173,
        -0.89016950722552846,
        -0.24368458449321981,
        -0.42464640619630006
      ]
    },
    {
      "dualCoef": -0.84852813742385724,
      "supportVector": [
        -0.015936938465424998,
        -0.40078843022801136,
        -0.33255900665622262,
        0.008352855982670937,
        -0.78979823168674057,
        -0.046608047533971596,
        0.046608047533971596,
        0.28751513282851665,
        0.13810051253690125,
        0.27633513534680482,
        -0.54727434963638166,
        0.40077027616062194,
        -0.0005183466638835583,
        0.23296347332435058,
        -0.59116037262673227,
        -0.78460485371065425,
        -0.072131406412039939,
        -0.16552894116104239,
        -0.00032727715886446,
        0.31337538396783438,
        0.22125167839202664,
        0.16151600137906563,
        0.44085938870156804,
        -1.1338353012153479,
        0.19689744629588651,
        0.27285553237765292,
        -0.24351544215372128,
        -0.12520809937388258,
        -0.27888926172927214,
        -0.25974154487395029,
        0.14227203455395937,
        0.14237756801285611,
        -1.1812801596945173,
        -0.89016950722552846,
        -0.24368458449321981,
        -0.42464640619630006
      ]
    },
    {
      "dualCoef": -0.019781150883009375,
      "supportVector": [
        -0.30998995141104346,
        0.036123219563357505,
        -0.14579505184060032,
        -0.44811534491813443,
        -1.2159464805156461,
        -0.84911888600349594,
        0.84911888600349594,
        -0.2088921081441342,
        -0.39031980254717152,
        -0.43238793009007859,
        -0.49263325687666876,
        -0.098419449548895907,
        -0.3690751263319158,
        -0.36668433031040204,
        -0.38882276760467011,
        -0.75633582573212577,
        -0.18674282352428198,
        -0.22754637119200069,
        0.47078286523149276,
        0.33001586028257546,
        0.56495453346105595,
        -0.012575605619449462,
        0.22181106858537786,
        0.73986728542422531,
        1.5000627057917015,
        1.6478300521778944,
        0.12741252296285333,
        0.87689027828282606,
        -0.97322881902732128,
        -0.87108711505947067,
        2.5629386117276383,
        3.8443653307369678,
        1.5426791888903186,
        0.6452682333097598,
        0.88129720747642881,
        0.34108466187252534
      ]
    },
    {
      "dualCoef": -0.84852813742385724,
      "supportVector": [
        0.53531444313662779,
        -0.50384914561167182,
        -0.10463617080303426,
        0.52969712234743249,
        -0.62651927600844992,
        -0.71825070871436014,
        0.71825070871436014,
        0.43406752180913588,
        -0.77085456869986557,
        -0.36504483393322018,
        -0.023017515611240106,
        0.96185952785812001,
        0.064221865573913822,
        0.61399371959000137,
        0.14737149892251303,
        0.40039677863283318,
        -0.70260850613393122,
        -0.22140501621302763,
        0.44495333025513611,
        -0.21040996789617589,
        0.017753963282475808,
        -0.24605888717665081,
        -0.057333231099758381,
        0.31639889897008033,
        1.2885061264376827,
        1.3185076100710704,
        -0.36214099930724103,
        -0.44480535331697851,
        -0.31068133246030927,
        -0.2695257840506089,
        0.16691027706115083,
        0.14591771457339317,
        1.7279932293244558,
        0.77509578834345538,
        1.3765537246466073,
        0.64180956162100922
      ]
    },
    {
      "dualCoef": -0.19616361119850009,
      "supportVector": [
        0.53531444313662779,
        -0.50384914561167182,
        -0.10463617080303426,
        0.52969712234743249,
        -0.62651927600844992,
        -0.76683613896891423,
        0.76683613896891423,
        0.43406752180913588,
        -0.77085456869986557,
        -0.36504483393322018,
        -0.023017515611240106,
        0.96185952785812001,
        0.064221865573913822,
        0.61399371959000137,
        0.14737149892251303,
        0.40039677863283318,
        -0.70260850613393122,
        -0.22140501621302763,
        0.44495333025513611,
        -0.21040996789617589,
        0.017753963282475808,
        -0.24605888717665081,
        -0.057333231099758381,
        0.31639889897008033,
        1.2885061264376827,
        1.3185076100710704,
        -0.36214099930724103,
        -0.44480535331697851,
        -0.31068133246030927,
        -0.2695257840506089,
        0.16691027706115083,
        0.14591771457339317,
        1.7279932293244558,
        0.77509578834345538,
        1.3765537246466073,
        0.64180956162100922
      ]
    },
    {
