{
  "bias": [
    0.029502314131414641,
    0.18645981160466185
  ],
  "intercept": -0.8024434889807518,
  "kernel": {
    "parameters": [
      {
        "name": "gamma",
        "value": 0.25
      }
    ],
    "type": "rbf"
  },
  "modelName": "puffMarker",
  "modelType": "svc",
  "normparams": [
    {
      "mean": 1985.2443874278383,
      "std": 1852.2125309235767
    },
    {
      "mean": 1724.9409878127005,
      "std": 2490.9608560261577
    },
    {
      "mean": 3710.1853752405386,
      "std": 2986.7365520231047
    },
    {
      "mean": 0.77075799842635606,
      "std": 2.0197293724307328
    },
    {
      "mean": 728.35107020144346,
      "std": 593.4823104987845
    },
    {
      "mean": 425.14560615779345,
      "std": 439.04916355996886
    },
    {
      "mean": -448.33162283515071,
      "std": 356.13465964326798
    },
    {
      "mean": 181.37075048107761,
      "std": 1897.0362086624525
    },
    {
      "mean": -44.259140474663248,
      "std": 2288.6081357546764
    },
    {
      "mean": 137.11161000641437,
      "std": 3097.2198047043571
    },
    {
      "mean": -17.937959074336231,
      "std": 637.10909386639844
    },
    {
      "mean": -279.76844130853112,
      "std": 1924.4554404827502
    },
    {
      "mean": -123.04169339320077,
      "std": 2527.4530403663625
    },
    {
      "mean": -402.8101347017319,
      "std": 3329.9230992936832
    },
    {
      "mean": 0.0,
      "std": 1.0
    },
    {
      "mean": 1.1318946486650054,
      "std": 0.79499970072906467
    },
    {
      "mean": 1.1105018858169409,
      "std": 2.0886045164310958
    },
    {
      "mean": 103.31109685695959,
      "std": 116.47612500411657
    },
    {
      "mean": -95.015394483643362,
      "std": 116.21876043117709
    },
    {
      "mean": 85.146673610173721,
      "std": 109.15269791488777
    },
    {
      "mean": 73.649597792644698,
      "std": 101.26134038469458
    },
    {
      "mean": 50.157670280002534,
      "std": 59.97132984054295
    },
    {
      "mean": 64.171216426547048,
      "std": 86.84049874422152
    },
    {
      "mean": 2807.0968569595893,
      "std": 1189.4103789823425
    },
    {
      "mean": -78.613217746638426,
      "std": 21.427805393681869
    },
    {
      "mean": -80.280606491361908,
      "std": 25.133227249720242
    },
    {
      "mean": 6.8451842849381652,
      "std": 22.206299075422212
    },
    {
      "mean": 7.7442008578425403,
      "std": 32.330099681945327
    },
    {
      "mean": 22.419558782140875,
      "std": 20.26491331000965
    },
    {
      "mean": 22.356621618120151,
      "std": 20.308497812168678
    },
    {
      "mean": 2.4615760383622223,
      "std": 3.3461325883335324
    },
    {
      "mean": 3.3740738862035129,
      "std": 5.0606936092208699
    },
    {
      "mean": 1435.7825529185375,
      "std": 1004.1421606002601
    },
    {
      "mean": 1435.7825529185375,
      "std": 1004.1421606002601
    },
    {
      "mean": -1371.3143040410519,
      "std": 1009.7783294016549
    },
    {
      "mean": -1371.3143040410519,
      "std": 1009.7783294016549
    }
  ],
  "probA": -5.6499537384400353,
  "probB": 1.8074798951276423,
  "support": [
    {
      "dualCoef": -0.19750868157774207,
      "supportVector": [
        1.2059931434857178,
        -0.015231466893955126,
        0.73518858677779864,
        0.85661533546589741,
        0.59858385585240459,
        -0.71779115487313383,
        -0.63646817580714521,
        1.5111094013013611,
        0.22382999189406624,
        1.0909423944859848,
        -0.069473252464585744,
        -1.5839449927335387,
        -0.28485526540284956,
        -1.1316146808608123,
        0.0,
        2.2675511777927801,
        0.42531425795140104,
        -0.42335797877218884,
        0.23245295667769106,
        1.4316100238061378,
        0.75560570718088615,
        3.4445404698018516,
        4.1304296276238759,
        -0.52050736053714908,
        0.54942824061197759,
        0.50359288522088108,
        0.40030769419653012,
        0.070056887068402213,
        0.99848646851457734,
        0.65860899379977444,
        3.6407593548998318,
        0.91933775845241872,
        -0.21190480916700027,
        -0.21190480916700027,
        0.40237970276289625,
        0.40237970276289625
      ]
    },
    {
      "dualCoef": -0.19590956828873143,
      "supportVector": [
        1.2059931434857178,
        -0.015231466893955126,
        0.73518858677779864,
        0.85661533546589741,
        0.59858385585240459,
        -0.71779115487313383,
        -0.63646817580714521,
        1.5111094013013611,
        0.22382999189406624,
        1.0909423944859848,
        -0.069473252464585744,
        -1.5839449927335387,
        -0.28485526540284956,
        -1.1316146808608123,
        0.0,
        2.2675511777927801,
        0.42531425795140104,
        -0.42335797877218884,
        0.23245295667769106,
        1.1331831697707593,
        0.99171338323578651,
        2.3433992161937494,
        2.5284406348895838,
        0.31940459723031434,
        0.71672618633355734,
        0.57067430724676782,
        0.6050101046049885,
        0.50213677910067422,
        1.5200429183945454,
        1.509839798817352,
        2.958468073021769,
        4.5572840326963364,
        1.3585899493214737,
        1.3585899493214737,
        0.97478255908334677,
        0.97478255908334677
      ]
    },
    {
      "dualCoef": -6.5455386946075302,
      "supportVector": [
        1.1044929123506566,
        -0.31591864878523679,
        0.4214682489845939,
        1.7461167888719886,
        1.316044161690572,
        -0.90911369223750937,
        -0.21527917906571145,
        1.3619293283498091,
        -0.00076066299780180489,
        0.83361483937044556,
        0.35211859512615873,
        -1.2674918355498981,
        0.15986120689096309,
        -0.61118224193524362,
        0.0,
        4.5448496079142826,
        -0.21752725085550251,
        -0.4405288796750933,
        0.20663956829813979,
        -0.45860944870607934,
        -0.4121567703438106,
        -0.47228990625286377,
        -0.44665813694059281,
        0.37237201799042469,
        0.16144175055476029,
        0.19675908456526225,
        -0.26774479521039235,
        -0.2078370267165088,
        -0.12722095677391854,
        -0.10989671546667687,
        -0.43418960750266522,
        -0.34519253758918772,
        -0.69092064862987668,
        -0.69092064862987668,
        -1.1256784413589984,
        -1.1256784413589984
      ]
    },
    {
      "dualCoef": -0.19795433071440899,
      "supportVector": [
        0.7756969508546333,
        1.7539653429790467,
        1.9438656619469226,
        -0.10358915619836633,
        2.4510400799916274,
        -0.71551350561879601,
        -2.6216723137817692,
        1.2638816478940189,
        2.0472089857924427,
        2.2868536418485408,
        1.1519816090213317,
        -1.0726315170870653,
        -1.8429455393290364,
        -2.0187222541938357,
        0.0,
        2.8031898309691221,
        1.398344151705162,
        -0.26881987064604851,
        -0.24939695974059939,
        3.0101623648475981,
        2.914693181842114,
        0.9865341546401929,
        1.1897030937067017,
        -1.8875712677742817,
        1.1036276148726931,
        0.7645823517910606,
        0.17750220707981193,
        0.38289993121433302,
        0.41244738412926185,
        0.28835795315072771,
        1.5750064141091897,
        2.2266209566332611,
        -1.101221118190594,
        -1.101221118190594,
        1.1282815949478275,
        1.1282815949478275
      ]
    },
    {
      "dualCoef": -0.075803141067057614,
      "supportVector": [
        -0.81915242559734125,
        -0.56040261910805467,
        -0.97537406614160693,
        0.3226840247439145,
        -1.1339024909367064,
        -0.0026092890110630536,
        0.64956222757669912,
        -0.71394037936471799,
        -0.67671736167040852,
        -0.93732824696422512,
        -0.49483211581935782,
        0.38908068514213162,
        0.90131909753029127,
        0.90897298359345136,
        0.0,
        -1.2961030847425814,
        -0.47614720166139057,
        -0.34608892470911867,
        0.38733328695499869,
        -0.45161017808084264,
        -0.40233280101218799,
        -0.46641500796850671,
        -0.44611846792394844,
        1.7385951725170794,
        0.16318833749722664,
        0.2183365029473808,
        -0.25921862780064309,
        -0.21074936638756631,
        -0.090277888858682487,
        -0.082044787987586992,
        -0.46352374328791651,
        -0.38351086573299409,
        0.90546685793767179,
        0.90546685793767179,
        -1.1474654012881504,
        -1.1474654012881504
      ]
    },
    {
      "dualCoef": -0.29705296651664942,
      "supportVector": [
        -0.28681610698473231,
        1.3396673834172272,
        0.93942487925789986,
        -0.23939828735162466,
        0.098484704201939652,
        -0.44675089360693498,
        -0.3612913646027418,
        0.17692295380886022,
        1.1457877386291666,
        0.95501403726686052,
        0.70182322522004514,
        -0.0011595792994350076,
        -0.13648455623009179,
        -0.10426362860208731,
        0.0,
        1.1673725688706431,
        0.61085136975572285,
        -0.46628523102945002,
        0.41314667533454996,
        -0.21794215683517357,
        -0.24423238389053303,
        -0.19866003315541902,
        0.0028820088037288609,
        -1.6765423374443185,
        0.26377616270435622,
        0.30318949414670243,
        -0.25892099970982119,
        -0.17933928777519126,
        -0.02972324405452631,
        -0.0058651843364108175,
        -0.39663377415090073,
        -0.40692418652141621,
        -1.1798952373539355,
        -1.1798952373539355,
        0.80147719601054601,
        0.80147719601054601
      ]
    },
    {
      "dualCoef": -0.14588102714805398,
      "supportVector": [
        0.59861144121473908,
        0.022504975159156327,
        0.38999577112700451,
        0.47851375146501324,
        0.2177805934770505,
        -0.025385781554441104,
        -0.038379800434309295,
        0.29974612341208134,
        -0.63608130932616003,
        -0.28642190930685107,
        -0.34226797737624398,
        -1.2674918355498981,
        0.30823191606372091,
        -0.4985670286651408,
        0.0,
        0.30374088877035277,
        -0.2259233376951045,
        0.27206350779544253,
        0.094781551986750923,
        0.15540313909037723,
        0.10585128180816779,
        0.31926132942984708,
        -0.10261027804362438,
        -1.6765423374443185,
        0.51819003855165202,
        0.85196311905460076,
        0.67005640370896224,
        0.86066109353954756,
        1.5503409854193841,
        1.6263987413620735,
        0.2517114708783677,
        0.44789136400963808,
        -1.154002489274861,
        -1.154002489274861,
        0.82722542138136212,
        0.82722542138136212
      ]
    },
    {
      "dualCoef": -0.094989020514568798,
      "supportVector": [
        -0.89473770410217424,
        0.36133005061475276,
        -0.25351595698242929,
        -0.31974858923636473,
        -1.0806574330116567,
        -0.82256302057267283,
        0.41931224269138201,
        -0.29328420192535976,
        0.98193268885397089,
        0.54593748478080273,
        0.1235863054418237,
        0.4867706581314985,
        -0.22985918920281398,
        0.10685235787493216,
        0.0,
        -1.1532928383226484,
        0.36973527542975443,
        0.023085444703327598,
        0.31849758460952865,
        0.69559879155468707,
        0.63042708289551275,
        1.0092820030977545,
        0.39116317236800435,
        0.057089751561196632,
        0.95131545461083455,
        1.0282473278243571,
        0.30750066455052072,
        0.35137605533494248,
        1.8099335790689615,
        1.7633643408107322,
        0.20638645956845025,
        0.33936026824839338,
        -0.37722004690262911,
        -0.37722004690262911,
        -0.44236015267195539,
        -0.44236015267195539
      ]
    },
    {
      "dualCoef": -0.041516170325344624,
      "supportVector": [
        -0.33756622255226298,
        0.26698894548197416,
        0.013330477618621038,
        -0.09987493585827345,
        -0.21727870893585394,
        -0.08232701291288623,
        0.81242197298338681,
        -0.66333512493592306,
        0.61314959015993087,
        0.046780144493947483,
        0.061116627355034286,
        -0.025062445030875839,
        -0.50760915677421659,
        -0.39976594822283723,
        0.0,
        -0.071731976785506274,
        0.4961999203367688,
        -0.49204158238380674,
        0.24966188226405855,
        -0.58234822377815332,
        -0.59743087662922856,
        -0.48518977515358341,
        -0.47721371269631213,
        1.6856277517569691,
        1.0513337728938328,
        0.96869076429933465,
        -0.27643824267462913,
        -0.21833359746225892,
        -1.7335633758967623,
        -1.7373562726284839,
        -0.18398086717221229,
        -0.38683465267032247,
        2.437122494307534,
        2.437122494307534,
        0.43803109173787241,
        0.43803109173787241
      ]
    },
    {
      "dualCoef": -0.17230171286689155,
      "supportVector": [
        -0.43906645368732433,
        1.88523998714253,
        1.3000191202432589,
        -0.29124293589840039,
        -0.037660886948186874,
        0.43697701707613329,
        0.78153477988901499,
        -0.31805969107279064,
        2.1695540896245884,
        1.4083238081353888,
        0.4054846517832148,
        0.58394100360496448,
        -1.9355288618528372,
        -1.1316146808608123,
        0.0,
        -0.092556703431038376,
        0.74196631126883994,
        -0.31174712290330969,
        0.40454221254136619,
        -0.66037972005902568,
        -0.60677689968834314,
        -0.68013092384589402,
        -0.59750949667614417,
        1.5813744156577043,
        1.1251055331271991,
        1.0180077682876549,
        -0.28533238176209924,
        -0.22811023470044975,
        -1.7055427111721098,
        -1.7039264175910358,
        -0.56496447672404848,
        -0.50173231106575977,
        1.489049564642964,
        1.489049564642964,
        -0.38195085468657913,
        -0.38195085468657913
      ]
    },
    {
      "dualCoef": -0.17184134154693967,
      "supportVector": [
        -0.084895434407535775,
        0.54961080936910678,
        0.40573201005579923,
        -0.089089685539247565,
        -0.22570355987336158,
        -0.83395126684436183,
        0.026202512399377206,
        0.37354545278740736,
        1.1663242382009911,
        1.0906195242788135,
        -0.069787170444921443,
        -0.41478308195654157,
        -0.69356711227073964,
        -0.7661407753949051,
        0.0,
        -0.077457427571697032,
        0.67242701610311828,
        -0.26023442019459631,
        0.36151989857544742,
        0.86920396563056768,
        0.82095407841474077,
        1.2527497610783827,
        1.313354830043161,
        -0.36328660367777404,
        -2.2596256968625714,
        -1.8732500630016842,
        -0.053041372216700897,
        -0.058186705817175659,
        1.5897695479970031,
        1.5971672155276482,
        0.92515792925551787,
        1.1281897360673687,
        0.91343385734661775,
        0.91343385734661775,
        1.3362480306351883,
        1.3362480306351883
      ]
    },
    {
      "dualCoef": -0.18397863089709171,
      "supportVector": [
        -0.84398758853464351,
        0.49300614628943956,
        -0.11222462021750679,
        -0.31085970585275829,
        -0.79733610084070627,
        0.10899552445148938,
        0.3238427367633237,
        -0.83676354896793914,
        0.22426693869346676,
        -0.34679863804788724,
        -0.094586690891435662,
        1.0708319860040962,
        -0.91552969319318533,
        -0.076034748475714869,
        0.0,
        -0.93292279883006035,
        0.21766846041166363,
        -0.15720901477716942,
        0.00013246126172958752,
        0.13006052363359868,
        -0.034420879658951589,
        0.54547918648518701,
        0.63221482063787426,
        1.4762803268479616,
        -1.4294835124389895,
        -3.875573560172147,
        6.008608313723542,
        -0.063585574032288025,
        1.6585198109209875,
        1.6605400792418274,
        0.43881663849878111,
        0.29281756318867863,
        -0.28460367877363224,
        -0.28460367877363224,
        -2.0219147475354822,
        -2.0219147475354822
      ]
    },
    {
      "dualCoef": -0.14418957909692862,
      "supportVector": [
        -0.41369139590355897,
        0.022504975159156327,
        -0.23777971805363463,
        -0.04273397202769235,
        -0.1579677583357989,
        -0.55152275930647399,
        0.20029396438583646,
        -0.095607426812879384,
        -0.63608130932616003,
        -0.52857456468533837,
        0.25574577516312202,
        0.14537538018461529,
        0.23424438908957235,
        0.26181089133459368,
        0.0,
        0.40077956854208341,
        -0.16231184042182586,
        -0.44911433012654556,
        0.46477345209365251,
        -0.17775663872639053,
        -0.28705090811861395,
        0.16300328357403027,
        -0.18350365351727252,
        -0.99385113653623014,
        -1.3984072997728367,
        -3.842978931016324,
        6.1440394501771642,
        -0.12518527702092197,
        1.5482701821644336,
        1.5131312897970979,
        0.045929631770815028,
        -0.050295576184912066,
        -1.2416394827732666,
        -1.2416394827732666,
        -0.064059302993041758,
        -0.064059302993041758
      ]
    },
    {
      "dualCoef": -1.7665471861964452,
      "supportVector": [
        0.92740740271076227,
        -0.18424255311055004,
        0.4214682489845939,
        1.066579778710798,
        0.87188602026515916,
        -0.22126361742749232,
        -0.57469378961840156,
        0.64554869534218029,
        -0.71779036081405745,
        -0.13499578214350366,
        -0.093644936950428845,
        -1.4379296607653893,
        -0.21126339365316169,
        -0.99137120193511086,
        0.0,
        3.1289479359282795,
        -0.13981177406178277,
        -0.0026709066510291189,
        0.20663956829813979,
        -0.26712190740756353,
        -0.11083836743570002,
        -0.37620436400097557,
        -0.15428152076098881,
        -0.10013100529817841,
        0.19263163993938143,
        0.23492212058039166,
        -0.27381014669362258,
        -0.21559463175121946,
        -0.23168362097958412,
        -0.23202055034878574,
        -0.52888722660861498,
        -0.37992182481554915,
        -0.21090893424088203,
        -0.21090893424088203,
        -0.091788161084689887,
        -0.091788161084689887
      ]
    },
    {
      "dualCoef": -0.5571581168373283,
      "supportVector": [
        0.7756969508546333,
        -0.25971543721677293,
        0.26444067329087667,
        1.1900797532199905,
        0.56117751768987012,
        -0.41486380404620571,
        0.11324823839260684,
        1.2881299989744832,
        -0.0011976097972023264,
        0.78809014015928991,
        -0.26598590815468709,
        -1.3163368220445815,
        -0.025305438156638615,
        -0.77995490822270441,
        0.0,
        1.6348691331807843,
        -0.12767676564936806,
        -0.21730716793733509,
        -0.43009067839745829,
        1.4309402317088458,
        1.6412790634043086,
        0.87991511437420189,
        1.0622646538685752,
        -0.15309842605828872,
        0.16890514203717238,
        0.24155717055859188,
        -0.16126056845208564,
        -0.15060132404130464,
        -0.08021744813449537,
        -0.08388755268646883,
        -0.010927069992833148,
        -0.052800243810512598,
        0.068931919998345095,
        0.068931919998345095,
        0.24888066689841559,
        0.24888066689841559
      ]
    },
    {
      "dualCoef": -0.18899241971296044,
      "supportVector": [
        -0.36294128033602829,
        -0.42912797494457117,
        -0.5829725337044287,
        0.60937193300126447,
        0.16082860113949782,
        -0.41258615479186794,
        -0.27424563860951218,
        0.39884808000180483,
        -0.32890770934759345,
        0.0012554452827918672,
        1.4528875972831621,
        0.096530393689931868,
        0.67935651660784568,
        0.57142765101852977,
        0.0,
        0.0046784943728959581,
        -0.29660183001214041,
        -0.22589261838878733,
        -0.18056125739512932,
        3.0735835843180386,
        2.8640526816540701,
        3.4750568449953576,
        4.0948573950259899,
        -0.36328660367777404,
        -1.7979994086644373,
        -0.887633055273644,
        1.1814333097807792,
        1.7861114079699667,
        1.0844205001217901,
        1.1212639263565316,
        2.4721246192489992,
        2.8665277816381587,
        -0.14020181448648658,
        -0.14020181448648658,
        0.28849332131505578,
        0.28849332131505578
      ]
    },
    {
      "dualCoef": -0.086343690955135777,
      "supportVector": [
        -0.54056668482238568,
        0.4368029347209757,
        0.029066716547415727,
        -0.20842075426968901,
        -0.76455702583636287,
        0.056609591601719876,
        0.99774513154961764,
        -0.83729068703490572,
        0.36758548889683779,
        -0.24122008030286676,
        -0.37522936531148454,
        0.7788013220677974,
        -0.80474623034419279,
        -0.16072138885483223,
        0.0,
        -0.49959632593222658,
        0.52278257967898023,
        -0.42335797877218884,
        0.43896006371410123,
        0.1573066493287032,
        0.17302308016409748,
        0.21438246776669989,
        0.38909339585397706,
        0.26727792918068199,
        0.41328168020063183,
        0.46030047402773694,
        -0.15661579543035509,
        -0.07546178238334815,
        -1.95246725561062,
        -1.8943706621709009,
        0.20077776372221096,
        0.008290149179856458,
        1.5886370572547885,
        1.5886370572547885,
        1.2649452526852361,
        1.2649452526852361
      ]
    },
    {
      "dualCoef": -0.10943912000909685,
      "supportVector": [
        -0.51519162703862031,
        -0.14650611105743858,
        -0.44168119693950619,
        -0.0062730003856855607,
        -0.78477666808638169,
        0.62829955444050889,
        0.53162930848909762,
        -0.36761066936765235,
        -0.34900726212001743,
        -0.48304986547418277,
        -0.57958997050997663,
        0.7788013220677974,
        0.45620697001201799,
        0.79635777032334853,
        0.0,
        -0.80968560909089438,
        -0.24815437847850533,
        0.55538337269336646,
        0.12919940315948594,
        0.63259946963186431,
        0.81772051772645549,
        0.62209456206761538,
        0.89257154510003234,
        1.7385951725170794,
        1.1980030988478392,
        1.0857010096040722,
        -0.22257763362419003,
        -0.18287615958691542,
        -1.4072063121122436,
        -1.3726245868482891,
        0.53395628882994473,
        0.44111166778317246,
        -0.27962430414304101,
        -0.27962430414304101,
        -2.3259418701831955,
        -2.3259418701831955
      ]
    },
    {
      "dualCoef": -0.18778390584197632,
      "supportVector": [
        -0.46444151147108964,
        0.26739039699317746,
        -0.065015903431122721,
        -0.14865534631298413,
        -0.88654886741147609,
        2.6531297415468171,
        -1.2233248446002094,
        -1.4050183851579494,
        -0.71779036081405745,
        -1.3909608880399247,
        -3.2017468602534533,
        0.19422036667929873,
        0.011490497718205315,
        0.12096679793811839,
        0.0,
        -1.13779963790524,
        -0.033259354942438923,
        0.70133603036805447,
        -0.24939695974059939,
        0.16734040847708676,
        -0.33055033888433949,
        1.1299237436769245,
        1.0304065846899688,
        0.68765428441965271,
        -2.1151522647892609,
        -1.7281606916786478,
        -0.23562682423401193,
        -0.18292017166771748,
        -0.29063828513257733,
        -0.28019477974151791,
        -0.39143149835552926,
        -0.32487987711789695,
        0.50114163793366384,
        0.50114163793366384,
        -0.31163839309704283,
        -0.31163839309704283
      ]
    },
    {
      "dualCoef": -0.24952743298567967,
      "supportVector": [
        -0.48981656925485501,
        0.079109638238823513,
        -0.23777971805363463,
        -0.10391684737626386,
        0.10589857302694669,
        -0.21898596817315452,
        0.72256832034521423,
        0.20117130488932447,
        0.61314959015993087,
        0.57628728425490638,
        0.36781449414293999,
        0.43740604412091416,
        0.011490497718205315,
        0.26151058409920674,
        0.0,
        0.31567244332886651,
        0.072229991336539651,
        -0.10569631206845599,
        0.41314667533454996,
        0.38934881096299095,
        0.49918088144096784,
        0.46013005554018227,
        0.29936385237848739,
        -1.2040393141557155,
        -0.57074960459182889,
        -0.45323809850011104,
        -0.17197808082212993,
        -0.12797879140937032,
        0.1751265631198495,
        0.09672891205745511,
        0.86906262087653063,
        0.34523072596675664,
        -0.82237613887748506,
        -0.82237613887748506,
        0.6004429748460971,
        0.6004429748460971
      ]
    },
    {
      "dualCoef": -0.074414585464045835,
      "supportVector": [
        1.6611244990541048,
        -1.2191845489926918,
        0.013330477618621038,
        -2.2918861155009429,
        -0.38746069787351217,
        -0.38525436373981425,
        0.20590981767572225,
        -0.096134564879845993,
        0.10148488806192021,
        0.016107474812672423,
        0.10757648844470676,
        -0.31761273648307559,
        0.21564859353992005,
        -0.019877295458356911,
        0.0,
        0.01875096055650842,
        -0.065520766726445093,
        -0.57789608689832916,
        0.12059494036630219,
        0.088266638586705887,
        -0.063094784043790042,
        0.77612567066069316,
        0.44986027413995999,
        0.7927483732293954,
        -0.53625714161107374,
        -0.39734569376378526,
        -0.2211864143056943,
        -0.14516312313204893,
        -0.46800239162098994,
        -0.45762447900829645,
        -0.11525117714491732,
        -0.32001598488014793,
        0.11075866689531143,
        0.11075866689531143,
        -0.82363195143211709,
        -0.82363195143211709
      ]
    },
    {
      "dualCoef": -0.071447884903296566,
      "supportVector": [
        -0.31273105961496073,
        -0.31591864878523679,
        -0.45741743586830091,
        0.36053142239361746,
        -0.45047858288607073,
        0.22287798716837962,
        0.47547077559023981,
        0.15109318852749612,
        -0.71779036081405745,
        -0.43784803647019849,
        -0.51680637444285149,
        0.80270418779923824,
        0.5863775388595841,
        0.90897298359345136,
        0.0,
        -0.5488153984959242,
        -0.3371731821344166,
        0.083183597863493275,
        0.12059494036630219,
        0.69898769508874481,
        0.87393029056718075,
        0.53851427685920483,
        0.69359404903505451,
        -0.46838069248751674,
        0.87997110907091336,
        0.70754776129990449,
        0.10993228168544561,
        0.30887046734147527,
        0.91859264842146493,
        0.93491578556748467,
        0.30342941101938964,
        0.22209589620081363,
        -0.55050228404720392,
        -0.55050228404720392,
        0.004272525875662533,
        0.004272525875662533
      ]
    },
    {
      "dualCoef": -0.013275340371493949,
      "supportVector": [
        -0.54056668482238568,
        -0.41025975391801545,
        -0.67738996727719691,
        0.31140682268504127,
        -0.89362574219898283,
        -0.16887768457772281,
        0.81242197298338681,
        -0.24426036169746462,
        -1.0048644080202003,
        -0.89212641796024073,
        0.33328351630602127,
        0.29191033966866564,
        0.4937942163357833,
        0.54349907812754428,
        0.0,
        -0.83692314474752816,
        -0.38514577298275665,
        -0.47487068148090228,
        0.47337791488683628,
        -0.14924863792733054,
        -0.067594902123837702,
        -0.37688082630601794,
        -0.44481824001316461,
        -1.8346038470141715,
        0.46234614984583916,
        0.45627637798189691,
        -0.2626052837237125,
        -0.19125298071459051,
        0.37792458719682592,
        0.39210584838212936,
        -0.19445692759537203,
        -0.18784256806500699,
        -1.3123466025276622,
        -1.3123466025276622,
        0.85594459583342619,
        0.85594459583342619
      ]
    },
    {
      "dualCoef": -0.18732408295591046,
      "supportVector": [
        0.95278246049452764,
        -1.6519492780698637,
        -0.78687401259030032,
        -1.1584698857521645,
        -0.32916072938595792,
        -0.6562946250060131,
        0.39965675617678176,
        0.52219838767199256,
        -0.77896291273013052,
        -0.255749239625576,
        -0.26441631825300899,
        2.5325441882332931,
        0.66036506583373267,
        1.9648532232139357,
        0.0,
        0.69352458558985952,
        0.94721192418706701,
        -0.39760162741783212,
        0.36151989857544742,
        0.79061051940387761,
        0.91155435019556907,
        0.45252517113580598,
        0.35062324438646669,
        -0.94172446848659774,
        0.4936855039156427,
        0.48806586288624282,
        -0.1292131856640113,
        -0.048543659155969525,
        0.98278796350892916,
        1.0162566344287687,
        0.42095518760959533,
        0.11517530478672915,
        -0.14418531419095956,
        -0.14418531419095956,
        0.96586971183960268,
        0.96586971183960268
      ]
    },
    {
      "dualCoef": -0.19650030899912141,
      "supportVector": [
        4.1165662607682485,
        -1.1818495584507838,
        1.5672003684385392,
        -4.2848656811196175,
        -0.28434052239841623,
        -0.69501466232975573,
        0.47827870223518271,
        1.7087861764138412,
        1.1457877386291666,
        1.8932748593067061,
        -0.69919272101784968,
        -1.6333096067441231,
        -0.34064265205180644,
        -1.2024871884121302,
        0.0,
        -0.073748908530501409,
        -0.24045646206940813,
        -0.46628523102945002,
        0.49919130326638755,
        2.1494204232636758,
        2.3049357807141768,
        1.5272626342822118,
        1.7899313663904264,
        -0.52050736053714908,
        0.41820183201262362,
        0.5309490411802178,
        0.20111635546108481,
        0.36080600582002692,
        0.27387988293887205,
        0.33641501456819378,
        1.68422281464952,
        1.8043621162947832,
        0.10478341733860196,
        0.10478341733860196,
        0.71730030537518563,
        0.71730030537518563
      ]
    },
    {
      "dualCoef": -0.19713751842150568,
      "supportVector": [
        0.72494683528710269,
        0.17304929186039883,
        0.59389725001287608,
        0.38264594752538855,
        1.8896080135161055,
        1.5256933606496039,
        -1.8775717528719031,
        1.0409022455671411,
        -0.0011976097972023264,
        0.63666401299594255,
        -2.1375649069156837,
        -0.56079841392469099,
        -0.60019247929801745,
        -0.77965460098731754,
        0.0,
        0.43990367863549179,
        0.17304456050890096,
        1.2851466610668068,
        -0.92914952040211629,
        2.3072809594686801,
        2.6453046493297285,
        1.1699614423236206,
        1.0449097676581642,
        -1.7295097582044288,
        0.29698089658580923,
        -2.7698441743648119,
        6.4714042952037918,
        7.5799035145791844,
        1.1365140500597426,
        1.185178597741777,
        0.89160659666883069,
        0.77366498892294144,
        -0.8373142627692588,
        -0.8373142627692588,
        1.2045359546998597,
        1.2045359546998597
      ]
    },
    {
      "dualCoef": -0.17744634600347853,
      "supportVector": [
        0.5224862678634431,
        -0.31591864878523679,
        0.060539194405005103,
        1.1771030650382042,
        0.81965194445261025,
        -0.77701003548591674,
        0.12447994497237841,
        1.0409022455671411,
        0.14255788720556925,
        0.74288831115530563,
        0.11981928967779615,
        -1.0237865305923819,
        -0.025701093381099303,
        -0.61118224193524362,
        0.0,
        1.8465394903834236,
        0.015824876609173116,
        0.83011778713983808,
        0.37872882416181491,
        0.089845061116669581,
        0.048952716665637504,
        0.50436934199130623,
        0.78789738322617142,
        -1.2561659822053479,
        -2.3421979706903264,
        -3.1614116106914003,
        4.2812349577799083,
        -0.15035876234715836,
        1.5177643090156847,
        1.5175076411974155,
        -0.54890230901481285,
        -0.46506033698688098,
        -0.41904679379959547,
        -0.41904679379959547,
        1.0629207151603712,
        1.0629207151603712
      ]
    },
    {
      "dualCoef": -0.31550130387599251,
      "supportVector": [
        0.85128222935946629,
        -0.31591864878523679,
        0.26444067329087667,
        1.4985588700611863,
        0.97433220766525397,
        0.88567392018068081,
        -0.47641635704540036,
        1.3619293283498091,
        -1.9263852079558998,
        -0.5892741636335459,
        -0.63008670668010558,
        -1.2186468490552147,
        -0.15547600700420477,
        -0.82229822841226308,
        0.0,
        1.0816292765262436,
        -0.27789303076336419,
        0.92455774210581265,
        -0.67962009939978729,
        0.49041951449226401,
        0.4600325153893518,
        0.55402906263737128,
        0.45588721112415354,
        1.4754395741374837,
        -0.59796560682149191,
        -0.35008533119073598,
        0.11164528220298917,
        0.1584209341954757,
        0.59322391636017124,
        0.60077932348767349,
        0.58272683304789374,
        0.90944879932487033,
        2.6890788506154504,
        2.6890788506154504,
        0.9361602210271226,
        0.9361602210271226
      ]
    },
    {
      "dualCoef": -0.52002349577758722,
      "supportVector": [
        -0.51519162703862031,
        -0.52306762856614653,
        -0.75573634832694059,
        0.82801685537021441,
        -0.13067124129827343,
        -0.041329326334805738,
        -0.3219803915735413,
        -0.095607426812879384,
        -0.49276275912278894,
        -0.4226731367331466,
        -1.0962071772592765,
        0.048205034711149321,
        0.030086293267857622,
        0.050694904857574205,
        0.0,
        -0.13987128633202536,
        -0.40108878523181046,
        0.33216166095560817,
        -0.017076464324637927,
        0.73740858626112327,
        0.92320493113095659,
        0.20832234345677772,
        0.34325393124797648,
        1.0029365508488808,
        -0.3726973032018735,
        -0.24751096208961182,
        0.037730001593483616,
        0.057515796658808724,
        0.6649196145934706,
        0.70330917574905372,
        0.49090927930168804,
        0.43932190988234815,
        0.35474802379428172,
        0.35474802379428172,
        -0.82858353323419709,
        -0.82858353323419709
      ]
    },
    {
      "dualCoef": -0.32730488238738281,
      "supportVector": [
        1.1044929123506566,
        -0.071434678462418993,
        0.62536972787046552,
        0.90850311721869781,
        1.5799104930533172,
        -0.58340984886720326,
        -0.70385841528577453,
        1.8316093460170624,
        0.28543949060953977,
        1.3327721796573007,
        0.54988692273760253,
        -1.4623521540127309,
        -0.22946353397835328,
        -1.0192997748260963,
        0.0,
        0.86712987535516373,
        0.28900901690915581,
        0.7356778321738634,
        -0.30962819929288571,
        0.76512863317104163,
        0.66660513824416079,
        0.0640807987241995,
        0.093952130349544472,
        0.68765428441965271,
        0.63497671540494438,
        0.13147815064199317,
        1.1109606396918592,
        0.017934869938784868,
        0.3904810054795434,
        0.19488510610734161,
        2.0999267255831753,
        1.4009503582838134,
        -0.62519290350607237,
        -0.62519290350607237,
        -1.4316861967275438,
        -1.4316861967275438
      ]
    },
    {
      "dualCoef": -0.30567096365481095,
      "supportVector": [
        -0.33756622255226298,
        -0.24084721619021721,
        -0.41020871908191686,
        0.21692554281925644,
        1.3992816889531492,
        -0.43764029658958375,
        0.029010439044320099,
        0.30027326147904798,
        -0.41061676083549098,
        -0.11949801219928048,
        0.55459569244263696,
        0.2425457256580813,
        -0.13688021145455245,
        0.03628015755900104,
        0.0,
        1.1739478396882705,
        -0.10207476253501262,
        -0.062769059811194794,
        -0.5419486947088471,
        1.1414109638010661,
        1.2373192414137961,
        1.3041312594139975,
        1.934900374772845,
        0.0049630835115642659,
        -0.25430508462628615,
        -0.2861259913975493,
        0.16906764417410744,
        0.26640279161536801,
        0.45793615501155666,
        0.47587375413571692,
        1.6129147469506506,
        1.9203655662731638,
        1.1673819635067704,
        1.1673819635067704,
        1.1550201366790596,
        1.1550201366790596
      ]
    },
    {
      "dualCoef": -0.45840338209384096,
      "supportVector": [
        -0.41369139590355897,
        -0.57967229164581369,
        -0.74000010939814598,
        1.7662367751256403,
        -0.19099317401082946,
        0.0019460094976125563,
        0.079553118653292149,
        0.34929710170694311,
        -0.84100935824500456,
        -0.40749823699609472,
        0.63024992570352245,
        0.21864285992664045,
        0.84632302133025572,
        0.76872950466774992,
        0.0,
        -0.31521816043808248,
        -0.46253248899622801,
        0.4866997690817485,
        -2.7446911697638892,
        0.54537257399862116,
        0.6574851581396427,
        0.40522511439335462,
        0.66795006816635238,
        0.057089751561196632,
        -0.65949140344138535,
        -0.47670644333171985,
        0.0015831356981068703,
        0.095352493492334753,
        0.91050195553324742,
        0.91378670226501901,
        0.82111595380975322,
        0.27085086652964102,
        -0.63813927754560962,
        -0.63813927754560962,
        -0.70182303910094856,
        -0.70182303910094856
      ]
    },
    {
      "dualCoef": -1.0803942343184818,
      "supportVector": [
        0.80107200863839867,
        -0.090302899488974714,
        0.4214682489845939,
        0.76342340181181434,
        0.87727792486516387,
        0.41875582304143083,
        0.00093117259489118457,
        1.1647796913042954,
        -0.30837120977576893,
        0.48556075603976651,
        -0.20634149189091847,
        -1.1458989968290905,
        -0.26665512507765793,
        -0.86464154860182174,
        0.0,
        0.41848140704475861,
        0.05758263185114474,
        0.49528521953320076,
        -0.50753084353611211,
        0.98449878334716312,
        1.0114955569717956,
        0.63562613964028436,
        0.47942190235405413,
        0.057089751561196632,
        -0.51925472663767913,
        -0.36530356704910366,
        -0.057303155654577137,
        -0.0043535639534269654,
        0.63493263122231425,
        0.63044047613184484,
        0.3381395579887293,
        0.53904718837690202,
        -0.093395692958929008,
        -0.093395692958929008,
        -0.16011998995339419,
        -0.16011998995339419
      ]
    },
    {
      "dualCoef": -0.66732365707746877,
      "supportVector": [
        0.5224862678634431,
        -0.31591864878523679,
        0.060539194405005103,
        1.1771030650382042,
        0.81965194445261025,
        -0.77701003548591674,
        0.12447994497237841,
        1.0409022455671411,
        0.14255788720556925,
        0.74288831115530563,
        0.11981928967779615,
        -1.0237865305923819,
        -0.025701093381099303,
        -0.61118224193524362,
        0.0,
        1.8465394903834236,
        0.015824876609173116,
        0.83011778713983808,
        0.37872882416181491,
        -0.046972375484133425,
        -0.092418337605573969,
        0.17877514656042937,
        0.42120536096848465,
        -0.25819251486803141,
        -0.27778440690608514,
        -0.17193874323576214,
        -0.21066572433243494,
        -0.11383558269644904,
        0.57387059448406419,
        0.63562671821003613,
        0.094719452960583109,
        0.43692542842444754,
        -0.27962430414304101,
        -0.27962430414304101,
        0.026059485804814628,
        0.026059485804814628
      ]
    },
    {
      "dualCoef": -0.46210848704394658,
      "supportVector": [
        0.01606490188106249,
        -0.071434678462418993,
        -0.049614478096557717,
        0.26328428810095067,
        0.52848909605233951,
        -0.9113913414918472,
        0.014970805819605642,
        0.54644673875245675,
        -0.77939985952953106,
        -0.24122008030286676,
        -0.0041783125547756881,
        -0.36593809546185813,
        -0.099688620355247851,
        -0.28715073495273435,
        0.0,
        1.1649987910877495,
        -0.13666312454308577,
        -0.39760162741783212,
        0.32710204740271237,
        0.023463478659095382,
        0.093587660738385106,
        0.18791654262632917,
        0.61469450223780475,
        0.11005717232130695,
        -1.1343518702668778,
        -0.94655315519434646,
        -0.0033490177449760463,
        0.14601182241451227,
        0.73984072442761351,
        0.73243067220519731,
        -0.38633403842840697,
        -0.28822516754071992,
        1.1992499611425544,
        1.1992499611425544,
        1.0629207151603712,
        1.0629207151603712
      ]
    },
    {
      "dualCoef": -0.74057060749284964,
      "supportVector": [
        0.95278246049452764,
        -0.22197899516366149,
        0.40573201005579923,
        1.2025872068801713,
        0.96186342827774263,
        -0.82484066982701065,
        -0.1029621132679958,
        1.4858067740869634,
        -0.021734109369026835,
        0.89399156811148173,
        -0.20383014804823335,
        -1.4379296607653893,
        -0.062497029255943227,
        -0.87845568142962105,
        0.0,
        2.1177093720196338,
        0.059444980835642307,
        -0.43194342922364104,
        0.34431097298907992,
        -0.056035387634075839,
        0.079443516846459755,
        -0.17155237803846399,
        0.15389049339096106,
        0.68765428441965271,
        -0.74492943887584251,
        -0.48511273624693307,
        0.27905055796395523,
        0.54881707684786418,
        0.69750792752679336,
        0.67905663531896709,
        0.020430778875306806,
        -0.31921259617466202,
        -0.061527695323145136,
        -0.061527695323145136,
        -0.87116713673208523,
        -0.87116713673208523
      ]
    },
    {
      "dualCoef": -0.19331798514201065,
      "supportVector": [
        -0.5907769055434533,
        -0.25971543721677293,
        -0.5829725337044287,
        0.027613904407113664,
        -0.20952784607334668,
        -0.10282585620192647,
        -0.11700174649271025,
        -0.26850871277792887,
        0.060411888918271199,
        -0.11982088240645179,
        -0.19661003450051401,
        0.072107900442590148,
        -0.062497029255943227,
        -0.0057628553951706886,
        0.0,
        -0.36192432370040067,
        -0.025433640618649174,
        -0.38043072651492765,
        0.051759238020832134,
        1.3580392211539707,
        1.5690392319827531,
        1.6964699571993727,
        1.8321820793686503,
        0.89784246203913809,
        -1.6614654724070286,
        -3.7846663662798359,
        5.7179978204024113,
        -0.097226965614840552,
        1.4084579589272657,
        1.4882266264010264,
        2.0668918926881146,
        2.7245012587453226,
        -0.88611213414905288,
        -0.88611213414905288,
        -1.9387281732605379,
        -1.9387281732605379
      ]
    },
    {
      "dualCoef": -0.26094425289351864,
      "supportVector": [
        0.7756969508546333,
        -0.25971543721677293,
        0.26444067329087667,
        1.1900797532199905,
        1.1566459819529236,
        1.3184272785048636,
        -1.1755900916361803,
        0.71987516278447294,
        -2.4590233564251354,
        -1.3761088585100441,
        -1.0928458683587237,
        -0.65848838691405787,
        0.3454235071630255,
        -0.11837806866527353,
        0.0,
        1.4530889172441048,
        -0.37095626315033908,
        -0.045598158908290311,
        -0.1891657201883131,
        -0.66876406440310388,
        -0.61134919503273433,
        -0.73047802914543192,
        -0.63497439295966318,
        0.26727792918068199,
        -1.7770001439366911,
        -1.4448560844037412,
        -0.28468195493072151,
        -0.21585650623701175,
        0.34358292045511807,
        0.34575612158792929,
        -0.64958017689927305,
        -0.60197574404621945,
        0.72919699601474219,
        0.72919699601474219,
        0.41030223364622431,
        0.41030223364622431
      ]
    },
    {
      "dualCoef": -0.23922506929925375,
      "supportVector": [
        1.9397102398290604,
        -0.33478686981179256,
        0.92368864032910525,
        2.7179995846086249,
        1.161026904440428,
        0.19099089760765037,
        -1.1615504584114658,
        2.2269628962420236,
        -1.2298920097114687,
        0.45521095656566279,
        -0.10494598424251132,
        -2.0469331094012295,
        0.17845700244061541,
        -1.0475286549524687,
        0.0,
        1.9448440593846914,
        -0.31326212430980532,
        -0.32891802380621421,
        0.017341386848097103,
        -0.56840732372522829,
        -0.53130014225544719,
        -0.61723872338582053,
        -0.55500559337475619,
        -0.10097175800865635,
        -1.7246574801427932,
        -1.4062786088993831,
        -0.25371530814190568,
        -0.1847404046928878,
        0.19998911608123815,
        0.21074742439514541,
        -0.49081243033222005,
        -0.44375945962207575,
        -1.3720990980947569,
        -1.3720990980947569,
        -1.2455067209693349,
        -1.2455067209693349
      ]
    },
    {
      "dualCoef": -0.2209304959642843,
      "supportVector": [
        0.87719718198969465,
        -0.37252331186490401,
        0.23330300902751699,
        1.8610055504321736,
        0.31854181068964432,
        -0.53102391601743382,
        -0.87514194062729089,
        1.5358848904487918,
        0.019338889774622184,
        0.95501403726686052,
        0.45006100499087381,
        -1.0243061581082826,
        0.6049733344092364,
        -0.13279281596384671,
        0.0,
        1.1002105162088691,
        -0.33193407549206472,
        -0.43194342922364104,
        -0.077307703876924233,
        -0.4362248925507457,
        -0.42632357344257921,
        -0.4668936900196341,
        -0.53782539806845775,
        -1.2561659822053479,
        -1.3759626476240472,
        -1.1072606154083315,
        -0.28026340822547863,
        -0.21095539672393818,
        0.21814680037918724,
        0.22938593555967876,
        -0.56124611803151925,
        -0.49147308255958005,
        -1.3093589777493073,
        -1.3093589777493073,
        0.1775778889484633,
        0.1775778889484633
      ]
    },
    {
      "dualCoef": -0.12419905987538074,
      "supportVector": [
        -0.43906645368732433,
        -0.10917112051553045,
        -0.36333481588976246,
        0.017749418323904424,
        -0.33724858628596538,
        -0.86128305789641546,
        0.26206835057458011,
        0.052518370004739238,
        0.18319393954981775,
        0.16753360197601982,
        1.7867237652599657,
        1.1440994657461214,
        1.7179514808171503,
        1.9651535304493226,
        0.0,
        -0.38001157181378387,
        -0.24351011925092919,
        -0.43194342922364104,
        0.39593774974818247,
        -0.22434842739095001,
        -0.16424882950260519,
        -0.37574497031343845,
        -0.41805020451747582,
        -0.62560144934689177,
        -1.6835955608627866,
        -1.3512763021619463,
        -0.11509474713794474,
        -0.025027407518456182,
        1.2067087347252434,
        1.2260441721020612,
        -0.38110305699501523,
        -0.296602695169768,
        -0.34435617434072702,
        -0.34435617434072702,
        0.39445717187956825,
        0.39445717187956825
      ]
    },
    {
      "dualCoef": -0.19632898432279533,
      "supportVector": [
        1.0537427967831259,
        -0.29705042775868107,
        0.40573201005579923,
        1.5973408914738647,
        0.61509656368992027,
        -0.80206417728363255,
        -0.25459015209491193,
        0.96657577812484841,
        -0.20568871191664639,
        0.44003605682861091,
        0.31695978132856867,
        -1.3158171945286807,
        0.10407382024200616,
        -0.68145413501578778,
        0.0,
        0.33757784912997968,
        -0.29497495552988101,
        -0.500627032835259,
        -0.49032191794974461,
        0.22278608124731711,
        0.14109906053678295,
        0.43310029040911824,
        0.19794280237468057,
        1.2652513965179983,
        -2.1355008700854867,
        -3.7640243220145342,
        5.2968510019801816,
        -0.059910204659772801,
        1.6339486686461953,
        1.6636566896076079,
        -0.16369343988754495,
        -0.080236652155913551,
        -0.73374327045296117,
        -0.73374327045296117,
        -2.2199780196186834,
        -2.2199780196186834
      ]
    },
    {
      "dualCoef": -0.13986958788535162,
      "supportVector": [
        0.14294019079988918,
        -0.39139153289145973,
        -0.23777971805363463,
        1.103733020870397,
        -0.65469696961126067,
        0.23198858418573085,
        0.24522079070492273,
        0.57174936596685422,
        -0.062370161713275335,
        0.30410769960948669,
        -0.85301253138230593,
        -0.63406589366671606,
        0.43840248491128703,
        -0.033691428286156198,
        0.0,
        -0.95546285961419963,
        -0.2371169234717567,
        0.040256345606232077,
        0.15501279153903721,
        -0.035847046971794479,
        -0.088981905612362452,
        0.19826775736510369,
        0.26846381821640714,
        0.89784246203913809,
        -2.3371001187910019,
        -1.9577383497216552,
        -0.15300457867561595,
        -0.10744778060478653,
        0.9172997192327893,
        0.97322081446828768,
        0.42537080611657463,
        0.15900262640812568,
        0.26213165566528485,
        0.26213165566528485,
        -0.79689340970088496,
        -0.79689340970088496
      ]
    },
    {
      "dualCoef": -0.14489685726162371,
      "supportVector": [
        -0.74302725224604527,
        -0.22197899516366149,
        -0.64591748941960747,
        -0.12434013609718356,
        -0.65132702923625763,
        -0.92961253552654965,
        -0.058035286948909533,
        -0.14515840510774114,
        0.10148488806192021,
        -0.013919454454260006,
        1.4436114127531272,
        1.5826650891664706,
        0.12306527101611917,
        1.008074371271142,
        0.0,
        -0.62127132100932614,
        -0.11175907143221619,
        -0.56072518599542465,
        0.34431097298907992,
        -0.32696553776912624,
        -0.39096889722170125,
        -0.20758043328063733,
        -0.30372303688039215,
        -1.2040393141557155,
        -2.1892587048276888,
        -1.7951790394519798,
        -0.23775938180602907,
        -0.18280857067279119,
        1.1268790750241717,
        1.1233460321434281,
        -0.25839959300953402,
        -0.28529468904847838,
        -0.18501618616180765,
        -0.18501618616180765,
        1.2342454455123399,
        1.2342454455123399
      ]
    },
    {
      "dualCoef": -0.12513466926748656,
      "supportVector": [
        -0.54056668482238568,
        0.32359360856164132,
        -0.065350717025352403,
        -0.18912378309688252,
        -0.38004682904850534,
        -0.034496378571792323,
        0.90227562562155927,
        -0.046583586584984252,
        0.59261309058810641,
        0.40936338714733583,
        1.3318566117536448,
        2.1916685378023106,
        -0.1922719428790487,
        1.1206895845412448,
        0.0,
        -0.52065005667409137,
        0.40842377460114027,
        -0.42335797877218884,
        0.37872882416181491,
        -0.49618128793883337,
        -0.49803554882901335,
        -0.46099983127118904,
        -0.44130311079738688,
        0.68765428441965271,
        -2.3711811982198903,
        -1.9706420171998067,
        -0.20727192742220252,
        -0.14568068620161961,
        1.3146547140795846,
        1.3105394608493977,
        -0.48821884398230769,
        -0.42306550502388057,
        0.157564788422869,
        0.157564788422869,
        -0.65329753744056429,
        -0.65329753744056429
      ]
    },
    {
      "dualCoef": -0.17778462965333158,
      "supportVector": [
        0.16831524858365451,
        0.98237553844627845,
        0.92368864032910525,
        -0.10901595915241626,
        0.033107860926878931,
        -0.59252044588455455,
        0.18625433116112203,
        0.69509967363704206,
        0.51090403910020887,
        0.80326503989634179,
        0.01999337193106732,
        -0.56131804144059183,
        -0.74895884369523591,
        -0.89287042872819422,
        0.0,
        0.19231103244179026,
        0.1214042512433564,
        -0.42335797877218884,
        0.30989312181634487,
        -0.4897560860307571,
        -0.45117219281660176,
        -0.56246947178499707,
        -0.4750084391783414,
        0.58256019560991001,
        -1.2466656103369904,
        -0.99837408877921108,
        -0.24594433404698882,
        -0.17890043070409806,
        0.45573414134119161,
        0.46052630180733278,
        -0.55390464633540959,
        -0.48643261381166786,
        0.73318049571921518,
        0.73318049571921518,
        0.042894863931886698,
        0.042894863931886698
      ]
    },
    {
      "dualCoef": -0.12135416450030001,
      "supportVector": [
        -0.69227713667851465,
        0.17304929186039883,
        -0.28498843484001868,
        -0.2201736599684482,
        -0.91890029501150627,
        -0.95466667732426547,
        0.55690064829358366,
        -0.14515840510774114,
        0.57207659101628194,
        0.33381175866924778,
        0.25292051334010124,
        0.29139071215276474,
        -0.4332259745756073,
        -0.16042108161944529,
        0.0,
        -0.85483816101610544,
        0.30703538207428038,
        -0.52638338418961572,
        0.49919130326638755,
        0.37587524279967155,
        0.32944208981334783,
        0.24464386297656632,
        0.74083934566943987,
        -1.6773830901547966,
        -0.61091262840220306,
        -0.44124236080987739,
        -0.23378062991200821,
        -0.18240689819112157,
        0.52802266107845119,
        0.51684710750247287,
        -0.33688572902847902,
        -0.31093250848821169,
        -1.0564067465152729,
        -1.0564067465152729,
        0.92526674106254658,
        0.92526674106254658
      ]
    },
    {
      "dualCoef": -0.20115144930107087,
      "supportVector": [
        -0.74302725224604527,
        0.17304929186039883,
        -0.31646091269760807,
        -0.24176034305584654,
        -0.11078859308575502,
        -0.33514608014438257,
        0.55970857493852655,
        -0.31805969107279064,
        0.63368608973175544,
        0.27343502992821161,
        -0.25845187662663194,
        0.65720848334698967,
        -0.52620495232386888,
        -0.019576988222969972,
        0.0,
        0.3944250912703795,
        0.93668017511529933,
        0.51245612043610522,
        0.27547527064360983,
        2.3687764505771307,
        2.064499670412272,
        3.1667406586404727,
        2.6642070110652969,
        0.057089751561196632,
        -0.47849364516073306,
        -0.39250922303934271,
        0.13691492720570803,
        0.13024225220853416,
        0.24791582919877123,
        0.23114113857829907,
        1.5578320388935287,
        0.73185111490936383,
        -0.96279450346015782,
        -0.96279450346015782,
        -1.024666172596566,
        -1.024666172596566
      ]
    },
    {
      "dualCoef": -0.19437207771411114,
      "supportVector": [
        -0.21123082847989935,
        -0.41025975391801545,
        -0.47315367479709558,
        0.74102369458998973,
        -0.65065304116125677,
        0.20465679313367718,
        0.34349822327792395,
        0.42362356914923571,
        -0.61554480975433545,
        -0.19537251088453983,
        -0.40065672171867017,
        -0.34151560221451643,
        -0.025701093381099303,
        -0.21687884187219017,
        0.0,
        -0.53184775927958694,
        -0.2527742463352779,
        0.32357621050415597,
        0.14640832874585347,
        2.1808343210241716,
        1.4514152199488992,
        4.1325469710392788,
        6.4067017250410361,
        -1.5722890013450539,
        -0.45678774526318738,
        -0.30598277246481748,
        -0.11117764373259592,
        -0.060741944235947164,
        0.48700360626589489,
        0.54917106308348629,
        0.41498878149577606,
        0.5480869819375197,
        -1.3840495972081759,
        -1.3840495972081759,
        0.47566311343368056,
        0.47566311343368056
      ]
    },
    {
      "dualCoef": -0.16819828336237735,
      "supportVector": [
        0.67473661456603506,
        -0.034099687920510852,
        0.38999577112700451,
        0.59503168770429737,
        -0.26951278474840229,
        -0.13699059501699354,
        0.49231833545989717,
        0.39884808000180483,
        -0.20612565871604691,
        0.091981973497931788,
        -0.37114843156712146,
        -1.0970540103344071,
        0.011886152942666001,
        -0.62499637476304293,
        0.0,
        0.20883001317619238,
        -0.057533018156574238,
        -0.38043072651492765,
        0.32710204740271237,
        -0.34970348645616467,
        -0.30130243641343579,
        -0.39273964956142271,
        -0.34545751742127345,
        -0.52134811324762709,
        -2.1678441206270795,
        -3.7622591583781455,
        5.285940066198954,
        -0.18591301063640642,
        1.362903102358821,
        1.3643950554920619,
        -0.33753465569700736,
        -0.3943005657216041,
        -0.26369030532514909,
        -0.26369030532514909,
        0.35187356838168005,
        0.35187356838168005
      ]
    },
    {
      "dualCoef": -0.19196466537290091,
      "supportVector": [
        -0.64152702111098392,
        -0.090302899488974714,
        -0.47315367479709558,
        -0.11854294360480411,
        -0.71030098579881218,
        1.500639218851888,
        -0.44272123730608565,
        -1.3064435666351926,
        -1.8036031573243532,
        -2.13291662411961,
        -1.3364462210991688,
        0.36413856437888903,
        -0.28485526540284956,
        -0.0057628553951706886,
        0.0,
        -0.95069096308087864,
        -0.21253869820857241,
        -0.29457622200040523,
        0.31849758460952865,
        1.6697400213648728,
        1.9792314827454001,
        1.2150087505376748,
        1.7374944141244808,
        0.47746610680016732,
        0.018652387769873224,
        -0.025845428446308976,
        0.18506161587856354,
        0.16148935197909872,
        1.8070301169412799,
        1.7918585154378763,
        -0.072180077132939641,
        0.019822813583552461,
        -0.81142151469018442,
        -0.81142151469018442,
        -1.3692962660213355,
        -1.3692962660213355
      ]
    },
    {
      "dualCoef": -0.16218854496080265,
      "supportVector": [
        0.16831524858365451,
        0.98237553844627845,
        0.92368864032910525,
        -0.10901595915241626,
        0.033107860926878931,
        -0.59252044588455455,
        0.18625433116112203,
        0.69509967363704206,
        0.51090403910020887,
        0.80326503989634179,
        0.01999337193106732,
        -0.56131804144059183,
        -0.74895884369523591,
        -0.89287042872819422,
        0.0,
        0.19231103244179026,
        0.1214042512433564,
        -0.42335797877218884,
        0.30989312181634487,
        1.4122955421460981,
        0.85670698775686993,
        1.8135513580931943,
        2.2724842895685606,
        0.58256019560991001,
        0.9436785938309229,
        0.76142172807017905,
        0.30384443677307016,
        0.088507579219949936,
        1.6395622755113501,
        1.6868453920511814,
        1.3807023409244812,
        0.98853155830701855,
        0.80986286503032012,
        0.80986286503032012,
        0.11914922368391903,
        0.11914922368391903
      ]
    },
    {
      "dualCoef": -0.16708208861632895,
      "supportVector": [
        -0.41369139590355897,
        0.38019827164130848,
        0.060539194405005103,
        -0.15573642086390169,
        -0.96641645429905054,
        0.4779747036542138,
        1.2083396299203344,
        -0.046056448518017636,
        -0.22622521148847088,
        -0.19537251088453983,
        0.3740928537496524,
        1.7281607936187191,
        -0.4332259745756073,
        0.66992842422544641,
        0.0,
        -1.0387227892131909,
        0.24790406796188641,
        0.01449999425187536,
        0.18082617991858851,
        1.6041623081109353,
        1.8024288770364543,
        1.2388670016480925,
        1.547080377109783,
        0.21431050842057167,
        -0.17304749625279167,
        -0.080807200705107177,
        -0.06732142305356012,
        -0.03491586200116692,
        -0.039434841330331726,
        -0.094951306891249129,
        2.0218446439709843,
        2.0014675402942399,
        0.41350464443525825,
        0.41350464443525825,
        0.1587618781005592,
        0.1587618781005592
      ]
    },
    {
      "dualCoef": -0.17132329543685867,
      "supportVector": [
        1.2308283064230201,
        -0.10876966900432714,
        0.67257844465684957,
        1.0707025970400701,
        -0.0076684176106590618,
        -0.5879651473758789,
        0.2255653041903225,
        1.5100551251674277,
        -0.51286231189521292,
        0.54593748478080273,
        0.33610877812904183,
        -1.6083674859808803,
        0.14126541134131079,
        -0.82229822841226308,
        0.0,
        1.1879382738791531,
        -0.23317135418343352,
        -0.53496883464106793,
        0.40454221254136619,
        1.324436336108884,
        1.091314247269306,
        1.706696469040957,
        1.33691297909532,
        0.53043352756027762,
        0.47567393980428768,
        0.48379474492036217,
        -0.1384597068685588,
        -0.079749264833489888,
        -0.78692720783970882,
        -0.84471102506038764,
        2.3660445447089913,
        2.2128036616112943,
        0.86563186089294197,
        0.86563186089294197,
        0.23600655421300754,
        0.23600655421300754
      ]
    },
    {
      "dualCoef": -0.088862479143568748,
      "supportVector": [
        -0.28735600183119536,
        0.13571430131849069,
        -0.065015903431122721,
        -0.032897423616233677,
        -0.93844594918652446,
        -0.32148018461835576,
        0.87700428581707335,
        0.27497063426465046,
        0.10148488806192021,
        0.24340810066127919,
        -0.15988163080124576,
        -0.12275241802024271,
        -0.30384671617696252,
        -0.30156548225130753,
        0.0,
        -0.56395656037313879,
        0.15915301874928781,
        -0.48345613193235448,
        -1.8068047253068595,
        -0.63068426054934901,
        -0.65784299944720592,
        -0.26356773404404066,
        -0.67646928355703539,
        -0.15309842605828872,
        0.90128812719843965,
        0.83392270719126516,
        -0.29255014274055235,
        -0.22227488518882188,
        -1.5961559525164111,
        -1.5883753135133507,
        -0.67087545083431155,
        -0.60481202324985017,
        -1.2506023571083309,
        -1.2506023571083309,
        -1.0632885106527901,
        -1.0632885106527901
      ]
    },
    {
      "dualCoef": -0.048723420190509653,
      "supportVector": [
        -0.74302725224604527,
        -0.033698236409307539,
        -0.4888899137258903,
        -0.19786949192643544,
        -0.85318645769894519,
        -0.51052507272839354,
        1.1044463440574475,
        -0.14515840510774114,
        0.08094838849009571,
        -0.029094354191311879,
        0.0093201605996561833,
        0.4862510306155976,
        -0.1736761473293964,
        0.14919567806449083,
        0.0,
        -0.46284038296136359,
        0.06681289974444736,
        -0.54355428509252013,
        0.63686270795732769,
        0.44091453300355726,
        0.10133254163500041,
        0.88696851418911393,
        0.71543854966170672,
        -0.41541327172740644,
        0.79575982577802562,
        0.9545258872116521,
        0.19445074422018474,
        0.43798760004969955,
        0.72175494018763831,
        0.74558972457475869,
        -0.18458589181808233,
        -0.049723494634929602,
        0.71027537241849559,
        0.71027537241849559,
        1.1956231074561157,
        1.1956231074561157
      ]
    },
    {
      "dualCoef": -0.05900595244394214,
      "supportVector": [
        0.21906536415118519,
        -0.33518832132299586,
        -0.14369709807509617,
        0.9485225504249728,
        -0.090568950835736031,
        -0.86356070715075328,
        0.73941588021487159,
        0.52272552573895925,
        -0.14495310679997389,
        0.21305830118717545,
        1.3249504161862611,
        0.5350960171102811,
        0.030481948492318309,
        0.33238309165052476,
        0.0,
        -0.26880103799117877,
        -0.2909488236184834,
        -0.52638338418961572,
        0.43035560092091746,
        0.39992989821072605,
        0.39539840243343022,
        0.37869991801461411,
        0.52256614345629993,
        -0.62560144934689177,
        0.057643254933468599,
        0.12262996909407076,
        -0.20089551434426436,
        -0.15455840232460999,
        -0.041282684659321466,
        -0.02096223132482802,
        0.43129980862343448,
        0.42148559189615775,
        -1.1340849907524961,
        -1.1340849907524961,
        -0.39086370193032322,
        -0.39086370193032322
      ]
    },
    {
      "dualCoef": -0.53937499016940826,
      "supportVector": [
        -0.51519162703862031,
        -0.35365509083834828,
        -0.61444501156201814,
        0.22320118168789885,
        0.20901874850204247,
        0.5485818305386857,
        -1.3019467906586104,
        -0.7381887304451823,
        -0.1650526595723979,
        -0.57409926389649402,
        -0.10745732808519637,
        0.51067352386293929,
        0.15986120689096309,
        0.41646911755886823,
        0.0,
        0.51039272849359663,
        -0.24671849953590155,
        -0.32033257335476195,
        -0.24079249694741564,
        0.22158636566327736,
        0.37937058061476436,
        -0.096166349965983125,
        0.16348235794758034,
        -0.57347478129725937,
        0.32350615301960978,
        0.34453983001169758,
        -0.21604450223113009,
        -0.15156052156103422,
        -0.35738432056968961,
        -0.35595735811070128,
        -0.31455757305041798,
        -0.24045369432706348,
        -1.3362476007545001,
        -1.3362476007545001,
        -0.65329753744056429,
        -0.65329753744056429
      ]
    },
    {
      "dualCoef": -0.0641615811689734,
      "supportVector": [
        -0.084355539561072682,
        -0.5046008590507941,
        -0.47315367479709558,
        1.5533574460609567,
        -0.9438378537865294,
        -0.32148018461835576,
        0.56532442822841233,
        0.34929710170694311,
        -0.14451616000057338,
        0.10715687323498366,
        -0.32322729145787493,
        -0.43972520271978416,
        0.88391026765402103,
        0.41676942479425516,
        0.0,
        -0.92012279240659312,
        -0.41721200992747298,
        -0.38043072651492765,
        0.41314667533454996,
        -0.68718967488977722,
        -0.6574920865934184,
        -0.7033953006428515,
        -0.61382820746150468,
        1.1601573077082559,
        0.8757704734073013,
        0.81382809767233155,
        -0.2934713726464705,
        -0.22763995696964295,
        -1.2393969825110667,
        -1.2337181691127359,
        -0.65703712909557987,
        -0.61729140558283058,
        -0.26369030532514909,
        -0.26369030532514909,
        -1.6287591524503287,
        -1.6287591524503287
      ]
    },
    {
      "dualCoef": -0.043332929374842677,
      "supportVector": [
        -0.0087702610562397556,
        -0.015231466893955126,
        -0.018142000238968337,
        0.19626522601206792,
        -0.16841457349830849,
        0.98361283811720646,
        0.42492809598126779,
        -0.16940675618820539,
        0.05997494211887068,
        -0.059444153665415625,
        -0.68443857594207536,
        0.4862510306155976,
        0.17885265766507608,
        0.41676942479425516,
        0.0,
        -0.1087772896035943,
        -0.12153117655876217,
        -0.31174712290330969,
        -0.25800142253378316,
        -0.66528819321222732,
        -0.64588703144694848,
        -0.64216554840318296,
        -0.60052909043424041,
        1.8958159293764545,
        0.91533535889201911,
        0.84802561665740239,
        -0.29762234361921025,
        -0.23099530264331006,
        -1.2202785912501986,
        -1.2141839239251928,
        -0.62739358759100061,
        -0.55990347860061984,
        0.54595600960898494,
        0.54595600960898494,
        -1.6901587667961209,
        -1.6901587667961209
      ]
    },
    {
      "dualCoef": -0.17131398431096612,
      "supportVector": [
        -0.38831633811979366,
        0.21078573391351027,
        -0.065015903431122721,
        -0.10302931402599383,
        -0.72074780096132196,
        0.099884927434138168,
        0.36876956308240993,
        -1.528368692828137,
        -0.43115326040731544,
        -1.2547096606136292,
        -0.28764624879784523,
        0.16979787343195701,
        -0.52660060754832949,
        -0.30156548225130753,
        0.0,
        -0.87470277061667456,
        -0.047799246376569356,
        -0.28599077154895303,
        -1.2647235693362826,
        1.8331669489540445,
        1.9706022098318479,
        1.7081763234983951,
        2.9334690555792364,
        -1.4142274917752009,
        1.1758652925013604,
        1.1267590834126466,
        0.0051076873974256476,
        0.11337577104518932,
        0.80364286542931263,
        0.78638017414625461,
        0.17623498308303931,
        0.10923463444011335,
        -0.50270028759352814,
        -0.50270028759352814,
        1.1659136166436357,
        1.1659136166436357
      ]
    },
    {
      "dualCoef": -0.21674618792523512,
      "supportVector": [
        -0.36294128033602829,
        -0.3729247633761073,
        -0.53609863051227435,
        0.43507783815277784,
        -0.47305718339859176,
        -0.95238902806992765,
        -0.32759624486342709,
        -0.070831937665448513,
        -0.61598175655373599,
        -0.49854763541840597,
        0.84873684001711791,
        0.68111134907843052,
        1.3658183310471383,
        1.4303063442251809,
        0.0,
        -0.59913307272473149,
        -0.408506708575893,
        1.5083683728045651,
        0.13780386595266972,
        0.059941923216207754,
        -0.05855725350632323,
        0.61079487949437772,
        0.61100032901164258,
        -0.62560144934689177,
        1.0739520674434955,
        0.98593545352323897,
        -0.2529637460118539,
        -0.2168812638879716,
        -0.17032033119874093,
        -0.18839608913255149,
        -0.10325208712116089,
        -0.38917666111923738,
        -0.73573502030519766,
        -0.73573502030519766,
        0.0052628422360785371,
        0.0052628422360785371
      ]
    },
    {
      "dualCoef": -0.044728771739200916,
      "supportVector": [
        -0.31219116476849762,
        0.98237553844627845,
        0.62570454146469512,
        -0.21463750648780169,
        0.92445709011520771,
        -0.843061863861713,
        -0.29951697841399821,
        -0.24373322363049801,
        1.4533982854071337,
        0.92466423779275675,
        0.51504202692034806,
        0.16927824591605614,
        -0.7861504347945405,
        -0.49886733590052773,
        0.0,
        0.65557230337822492,
        0.48316832651713637,
        0.1776235528294679,
        0.57663146840504131,
        -0.52944957830230421,
        -0.60162817813633263,
        -0.18814023024415275,
        -0.51005100028974315,
        0.10921641961082899,
        0.25667518352325586,
        0.28555779709651657,
        -0.2836671793895168,
        -0.21156232223500776,
        1.4020982044338217,
        1.3976125113841711,
        -0.49673179202198414,
        -0.57035113032053331,
        1.1773407127679529,
        1.1773407127679529,
        1.0421240715916351,
        1.0421240715916351
      ]
    },
    {
      "dualCoef": -0.089925331757574015,
      "supportVector": [
        -0.48981656925485501,
        -0.22197899516366149,
        -0.4888899137258903,
        0.07379068970873158,
        0.21339967098954657,
        -0.086882311421561831,
        -1.2654437442743529,
        -0.19470938340260288,
        -0.20612565871604691,
        -0.2715698797769705,
        -0.61393737058061715,
        0.65668885583108882,
        0.36401930271267779,
        0.65581398416226011,
        0.0,
        -0.54646066309746477,
        -0.27289695377746742,
        0.22913625553818134,
        -1.0926343134726078,
        -0.41909228748688077,
        -0.5830649204055105,
        -0.062128297453955365,
        -0.058614896582210578,
        -1.3091334029654582,
        -1.607769382554084,
        -1.3248164985459245,
        -0.23674628512806781,
        -0.2010135521762601,
        1.8151315722900101,
        1.8416893413727873,
        -0.045689702092524001,
        -0.58424750778759049,
        -1.2446271075516215,
        -1.2446271075516215,
        0.30433838308171185,
        0.30433838308171185
      ]
    },
    {
      "dualCoef": -0.010484462984371766,
      "supportVector": [
        -0.69227713667851465,
        0.15418107083384311,
        -0.30072467376881334,
        -0.21657587945388182,
        -0.44407569617356474,
        -0.36247787119643621,
        0.65237015422164202,
        -0.31805969107279064,
        -0.021734109369026835,
        -0.21087028082876302,
        0.31382060152521246,
        0.29191033966866564,
        0.1970527979902677,
        0.31826865158733858,
        0.0,
        -0.26189475819605668,
        0.0068457738507101684,
        -0.35467437516057093,
        0.40454221254136619,
        0.1954522347648068,
        -0.00079093732794511987,
        0.80766153123316187,
        0.48150700545177239,
        0.89784246203913809,
        0.57595955888362704,
        0.75429449956291783,
        0.20430692789650515,
        -0.02310037136404541,
        1.7962331012356043,
        1.772868485688043,
        0.38691253728297031,
        0.55831575678346912,
        0.077894794333409303,
        0.077894794333409303,
        -0.98010193637784571,
        -0.98010193637784571
      ]
    },
    {
      "dualCoef": -0.1994594750469377,
      "supportVector": [
        -0.36294128033602829,
        -0.3729247633761073,
        -0.53609863051227435,
        0.43507783815277784,
        -0.47305718339859176,
        -0.95238902806992765,
        -0.32759624486342709,
        -0.070831937665448513,
        -0.61598175655373599,
        -0.49854763541840597,
        0.84873684001711791,
        0.68111134907843052,
        1.3658183310471383,
        1.4303063442251809,
        0.0,
        -0.59913307272473149,
        -0.408506708575893,
        1.5083683728045651,
        0.13780386595266972,
        0.38168009690769916,
        0.36227226599603107,
        0.7483137235814652,
        0.833422801036661,
        1.1080306396586235,
        0.80280839684163718,
        0.69983492089293686,
        -0.13578107503811887,
        -0.10235606782434759,
        1.0444019705143484,
        1.0684151102780262,
        0.3305377550192472,
        0.030899141501063768,
        1.3814950726221933,
        1.3814950726221933,
        0.068643089302702812,
        0.068643089302702812
      ]
    },
    {
      "dualCoef": -0.15950695071752455,
      "supportVector": [
        1.3328684324045446,
        0.32359360856164132,
        1.096452454951617,
        0.48967983466169823,
        -0.037660886948186874,
        0.92439395750442355,
        -0.70385841528577453,
        1.3629836044837425,
        0.18319393954981775,
        0.9701889370039124,
        -0.33065301210382575,
        -1.4140267950339485,
        0.95750213940370887,
        -0.090449495774288027,
        0.0,
        -0.088854727077079518,
        -0.052954329256181321,
        -0.23447806884023956,
        -0.13753894342921053,
        0.57587969731619049,
        0.51811904591071023,
        0.81041124555921751,
        1.2493047943146589,
        0.63468686365954241,
        0.28282129705174369,
        0.38436677771548033,
        0.20776874488091657,
        0.1656278248864945,
        1.4162724450176991,
        1.396029168064483,
        0.078481839155238209,
        0.3739292310659677,
        -0.37722004690262911,
        -0.37722004690262911,
        -1.1227074922777505,
        -1.1227074922777505
      ]
    },
    {
      "dualCoef": -0.19534835378238763,
      "supportVector": [
        -0.64152702111098392,
        -0.052566457435863266,
        -0.44168119693950619,
        -0.13405657318361439,
        0.56522144613987368,
        0.1568261587925833,
        -0.52415111000942949,
        -1.133542280670143,
        0.12202138763374473,
        -0.60412619316342642,
        0.13928220445860487,
        -0.025062445030875839,
        0.51199435666097493,
        0.37412579736930957,
        0.0,
        0.014600568305098332,
        -0.094525926041622702,
        -0.0026709066510291189,
        0.36151989857544742,
        5.3032487665820671,
        5.6424574572907735,
        3.2213914595069375,
        4.5868684431268658,
        -1.7824771789645393,
        1.1468388883880043,
        1.0633827998459531,
        -0.034991226116441489,
        0.11505971168041267,
        0.21393390322688796,
        0.12005301328930756,
        1.1098504171223933,
        1.1522040538202096,
        -0.79150401616781951,
        -0.79150401616781951,
        1.3124804379852042,
        1.3124804379852042
      ]
    },
    {
      "dualCoef": -0.091558417132714218,
      "supportVector": [
        -0.46444151147108964,
        0.22965395494006602,
        -0.096488381288712108,
        -0.13912197248013491,
        -0.60549584013621494,
        -0.19620947562977648,
        0.51758967526438315,
        -0.24373322363049801,
        0.12158444083434421,
        -0.059444153665415625,
        -0.21010850765494585,
        0.096530393689931868,
        -0.74895884369523591,
        -0.51268146872832698,
        0.0,
        -0.11556243438385606,
        0.37068581285266483,
        0.76143418352822012,
        0.43896006371410123,
        1.8974983153045897,
        1.8463977159643024,
        1.9028516546655814,
        2.2984341347132831,
        -0.88875704772648745,
        0.76443539363887381,
        0.78706046396147877,
        -0.059813544090974037,
        0.06380506736132556,
        -0.61413768257384516,
        -0.64074002808434838,
        0.89294525471090025,
        1.1469554159232167,
        -1.2735074804090505,
        -1.2735074804090505,
        -0.21953897157835445,
        -0.21953897157835445
      ]
    },
    {
      "dualCoef": -0.19630324792727102,
      "supportVector": [
        0.16831524858365451,
        -0.52306762856614653,
        -0.33186233803217308,
        2.3133643682350278,
        0.20935574253954267,
        1.2022671665336355,
        -0.81336755443854736,
        0.86800095960209156,
        -1.0044274612207997,
        -0.21054741062159171,
        -0.98893901686763164,
        -0.36645772297775903,
        0.86491881687990801,
        0.44469799768524071,
        0.0,
        0.020322334874465768,
        -0.43799184273169894,
        1.2593903097124501,
        -1.1442610902317101,
        2.3308682845487581,
        2.4356260741901239,
        1.2387147803138825,
        1.4612893335910691,
        -1.4142274917752009,
        -2.1479258020528582,
        -1.7912724278392476,
        0.17441194960780068,
        0.075935586849060627,
        1.2565623686183824,
        1.1687430848572595,
        2.767111230675797,
        1.9107325639829416,
        -0.85225238666103253,
        -0.85225238666103253,
        0.81831257413761804,
        0.81831257413761804
      ]
    },
    {
      "dualCoef": -0.18436615624396274,
      "supportVector": [
        1.9904603553965909,
        0.0036367541326006005,
        1.2374089781223099,
        1.2379339687839808,
        -0.20750588184834473,
        -0.23948481146219475,
        0.74783966014970027,
        2.3012893636843161,
        0.14212094040616871,
        1.5145481062947519,
        1.3924427819584206,
        -2.2173709346167207,
        -0.414630179025955,
        -1.5961899740044099,
        0.0,
        -0.21733609295290007,
        0.07898433393359082,
        -0.5092124832867112,
        0.51640022885275505,
        -0.75769467810444568,
        -0.70523982344933389,
        -0.81276056702072474,
        -0.71372089761956115,
        0.89784246203913809,
        0.22054029904690067,
        0.25450568480077768,
        -0.30291216760848361,
        -0.23401948277541096,
        -0.40958495546582668,
        -0.4049191761394611,
        -0.69755272271215119,
        -0.62865673290830859,
        2.027817899672935,
        2.027817899672935,
        0.95893749731669065,
        0.95893749731669065
      ]
    },
    {
      "dualCoef": -0.24239595332325983,
      "supportVector": [
        0.47173615229591237,
        0.83183122174503588,
        0.98629878245005431,
        -0.0088106521839959196,
        -0.56033863911117299,
        -0.59252044588455455,
        0.87981221246201624,
        0.99135126727227929,
        0.92076013693789793,
        1.2875703506533165,
        0.071475920706109947,
        -0.60964340041937437,
        -0.80435057511973207,
        -0.9628420145733515,
        0.0,
        -0.26148929313131486,
        0.42011602601801279,
        -0.40618707786928437,
        0.48198237768002,
        -0.10536265601843862,
        -0.10383845682903485,
        -0.17999015085597031,
        -0.16087975914043393,
        -0.10097175800865635,
        -1.0805521030226855,
        -0.84244194803777162,
        -0.21255922456970935,
        -0.12838093907330225,
        -0.048426238273430587,
        -0.038411178146864865,
        -0.15072152934726188,
        -0.28087571250504756,
        -1.2018044857285368,
        -1.2018044857285368,
        -1.0761626233381982,
        -1.0761626233381982
      ]
    },
    {
      "dualCoef": -0.1185651354975544,
      "supportVector": [
        0.4209860367283817,
        -0.29705042775868107,
        0.013330477618621038,
        1.0082284430550623,
        -0.3904936442110149,
        -0.41258615479186794,
        -0.1675444261016823,
        1.0161267564197101,
        -0.10344316085692436,
        0.54593748478080273,
        0.66980359122581135,
        -0.87725157110833152,
        0.19665714276580701,
        -0.3577229352686655,
        0.0,
        -0.39238899749750017,
        -0.24421817659929798,
        -0.26881987064604851,
        0.24105741947087481,
        -0.17194015926464559,
        -0.46876412780089705,
        0.90203696761450336,
        -0.57798819401692914,
        -0.048004337248546046,
        0.80798364017964774,
        0.76492948918558079,
        -0.23943869199388845,
        -0.21506980742730442,
        0.10846242420763728,
        0.072708453928930564,
        0.17723927310845097,
        -0.55360736654172027,
        -0.10235856729399322,
        -0.10235856729399322,
        -0.045243292145137684,
        -0.045243292145137684
      ]
    },
    {
      "dualCoef": -0.26327797496589139,
      "supportVector": [
        0.4209860367283817,
        -0.29705042775868107,
        0.013330477618621038,
        1.0082284430550623,
        -0.3904936442110149,
        -0.41258615479186794,
        -0.1675444261016823,
        1.0161267564197101,
        -0.10344316085692436,
        0.54593748478080273,
        0.66980359122581135,
        -0.87725157110833152,
        0.19665714276580701,
        -0.3577229352686655,
        0.0,
        -0.39238899749750017,
        -0.24421817659929798,
        -0.26881987064604851,
        0.24105741947087481,
        0.080045151968161393,
        -0.39083175837384926,
        1.2834453485102213,
        0.32063689622614189,
        0.31940459723031434,
        0.50908374493584274,
        0.50390687247227695,
        -0.065514958654196875,
        -0.21709375324391561,
        0.97459002666189887,
        0.86367613425955081,
        0.69669315893475225,
        -0.40248937628543091,
        0.2720904049264673,
        0.2720904049264673,
        -0.10565259013051395,
        -0.10565259013051395
      ]
    },
    {
      "dualCoef": -0.19758771074466272,
      "supportVector": [
        -0.56540184775968794,
        0.88803443331349974,
        0.38999577112700451,
        -0.26365191752424516,
        1.0424050032403174,
        1.0314434724583004,
        -0.92568462023626297,
        -2.3934022607203511,
        1.309642788404362,
        -0.49822476521123465,
        1.191849192523956,
        1.4361301296824203,
        -1.0081130157169862,
        0.064809344920760431,
        0.0,
        -0.20691859585019148,
        0.79786928825223624,
        0.44377251682448732,
        -1.9961029067569021,
        0.28243099451365228,
        0.41196374366482036,
        -0.084248949593923039,
        0.18657030679025072,
        -1.3091334029654582,
        -1.1580698817945814,
        -0.94910526604332435,
        -0.21590204989255446,
        -0.1108085676145506,
        1.6964682920683278,
        1.7137202064149144,
        -0.31159960946615317,
        -0.17546663281471997,
        -1.0215511241011344,
        -1.0215511241011344,
        0.52616924781489682,
        0.52616924781489682
      ]
    },
    {
      "dualCoef": -0.19714591080814031,
      "supportVector": [
        0.16831524858365451,
        0.56807757888445909,
        0.57816101108408147,
        -0.019423065555937136,
        -0.233454422735869,
        1.5644133979733466,
        1.0314402512889322,
        0.59599771704731852,
        0.92032319013849739,
        1.0450948250676577,
        -0.20696932785158934,
        -0.56079841392469099,
        -0.89693389764353304,
        -1.0048850275275232,
        0.0,
        -0.5889200687181162,
        0.89400011163223236,
        0.16903810237801567,
        -0.042889852704189199,
        0.90334708054255175,
        0.52814844978441489,
        2.7021390236894898,
        -0.0048548040653894065,
        -1.3091334029654582,
        -1.9138933538659677,
        -3.5721856460063983,
        5.4111304084146745,
        0.017699844499497092,
        0.61408226927563736,
        0.65616934750760736,
        0.28967781562681322,
        0.19168580387170542,
        -0.84826888695655955,
        -0.84826888695655955,
        0.69848429452728156,
        0.69848429452728156
      ]
    },
    {
      "dualCoef": -0.19771561530375578,
      "supportVector": [
        -0.7176521944622799,
        -0.31591864878523679,
        -0.70852763154055654,
        -0.035350110885917101,
        -0.32983471746095849,
        -0.56291100557816309,
        0.83769331278787285,
        -0.14515840510774114,
        -0.041833662141450824,
        -0.11982088240645179,
        0.69680053753467508,
        0.34023569864744818,
        0.14126541134131079,
        0.30385390428876541,
        0.0,
        -0.28315726090025634,
        -0.21497934090198462,
        -0.31174712290330969,
        0.2840797334367936,
        3.8935769159607432,
        4.1294883672502793,
        1.6413273806448907,
        0.83510944894131844,
        -1.6244156693946863,
        -0.68274640497617423,
        -3.7853016631093612,
        6.3164265210574708,
        3.6138591547350742,
        1.2619980122885708,
        1.0627407114745195,
        2.4168421875533679,
        3.163785155917227,
        -1.1749158627233443,
        -1.1749158627233443,
        0.74502916346683379,
        0.74502916346683379
      ]
    },
    {
      "dualCoef": -0.19030894307276999,
      "supportVector": [
        -0.21123082847989935,
        -0.59854051267236941,
        -0.63018125049081275,
        2.9910976668467697,
        -0.14010707434828207,
        -0.029941080063116712,
        -0.50449562349482924,
        0.39884808000180483,
        -0.86154585781682902,
        -0.39232333725904284,
        0.041967630554561257,
        -0.39036058870919987,
        0.3454235071630255,
        0.036580464794387986,
        0.0,
        -0.28503772419942286,
        -0.4520252055330109,
        0.1776235528294679,
        0.060363700814015896,
        3.3960250083327437,
        4.0628758455155483,
        3.3746833293454812,
        3.7651614410964198,
        -0.94088371577611984,
        -0.67338491932689781,
        -0.59042000861123889,
        0.34775805020470357,
        0.3918037957823694,
        0.95996543104365917,
        1.0532474706330335,
        2.4091285347075138,
        1.5381431738608977,
        -0.59930015542699799,
        -0.59930015542699799,
        0.51230481876907275,
        0.51230481876907275
      ]
    },
    {
      "dualCoef": -0.16557199307671,
      "supportVector": [
        -0.38831633811979366,
        -0.35365509083834828,
        -0.53576381691804464,
        0.36105926443799019,
        -0.29579831967342696,
        -0.73601234890783618,
        -0.39498648434205652,
        0.22594679403675536,
        -0.22622521148847088,
        -0.028771483984140561,
        0.46512906804698384,
        -0.14717491126758445,
        0.011490497718205315,
        -0.076335055711101801,
        0.0,
        -0.54213156649642691,
        -0.1485739712725524,
        -0.071354510262647025,
        -0.025680927117821686,
        1.9622856293110997,
        1.3623774601459153,
        3.2592588416050035,
        3.1919800036587804,
        -0.52134811324762709,
        -0.86562523856041507,
        -0.68355565579019228,
        0.1990317639185176,
        0.29883605541644015,
        1.4074864174159185,
        1.368019238935875,
        0.41450659351361607,
        0.26230695823386802,
        -0.78652464153722823,
        -0.78652464153722823,
        -0.16804252083672222,
        -0.16804252083672222
      ]
    },
    {
      "dualCoef": -0.19794576020884122,
      "supportVector": [
        -0.76840231002981063,
        0.17345074337160213,
        -0.33186233803217308,
        -0.2526135180753894,
        -0.67188366552377654,
        1.9561690697194489,
        -0.17035235274662519,
        -0.41716164766251412,
        -7.2514558522500554,
        -5.613780327633572,
        -1.8110902073666333,
        0.5350960171102811,
        -0.5080048119986772,
        -0.076335055711101801,
        0.0,
        -0.94284013995505711,
        -0.41152026699698979,
        1.4740265709987561,
        -0.8258959668839112,
        0.71254821138642954,
        0.63087608427129904,
        1.3705214113305513,
        1.6621091001892287,
        -1.4142274917752009,
        -0.047555615740140056,
        -0.067375458355624335,
        -0.065478239064053326,
        -0.058156671699209309,
        1.6445143017388286,
        1.6932409942340663,
        0.49418440642992056,
        -0.26272004052656506,
        -0.33439742507954456,
        -0.33439742507954456,
        1.3332770815539403,
        1.3332770815539403
      ]
    },
    {
      "dualCoef": -0.099512637220050812,
      "supportVector": [
        -0.66690207889474928,
        -0.54193584959270225,
        -0.86555520723427382,
        0.60861718324879255,
        -0.94046791341152625,
        -0.44447324435259722,
        0.39404090288689597,
        -0.66386226300288964,
        -0.39008026126366646,
        -0.69485272137856646,
        -0.22015388302568586,
        0.12095288693727359,
        0.9021104079792126,
        0.75461506460456373,
        0.0,
        -1.1601607518109713,
        -0.44799132800430991,
        0.14328175102365895,
        0.25826634505724233,
        0.99370127115462414,
        0.93119293809574966,
        1.2758411399956853,
        1.5131099437078364,
        0.7397809524692851,
        -0.39594384506068653,
        -0.23947781928907511,
        0.25611521786326602,
        0.35363162886998811,
        1.7113889956742976,
        1.736047152970863,
        0.6618753349755806,
        0.50120682106508441,
        0.007187674579013841,
        0.007187674579013841,
        -0.8642349222091732,
        -0.8642349222091732
      ]
    },
    {
      "dualCoef": -0.095317687700768552,
      "supportVector": [
        -0.64152702111098392,
        -0.052566457435863266,
        -0.44168119693950619,
        -0.13405657318361439,
        -0.45148956499857162,
        0.26159802449212233,
        -0.17596820603651098,
        -0.76243708152564649,
        -0.39008026126366646,
        -0.75522945011960263,
        1.4310546935397024,
        0.34023569864744818,
        -0.32244251172661481,
        -0.048106175584729363,
        0.0,
        -0.80498363617513879,
        -0.018885947719673966,
        -0.38043072651492765,
        0.37872882416181491,
        -0.079529001319883386,
        0.028343419347890985,
        -0.76929968252908365,
        -0.65535880364627908,
        0.26727792918068199,
        1.0231048811638521,
        0.93827335577689486,
        -0.26876186961183707,
        -0.19228780070220619,
        -0.65978519278880388,
        -0.65528493065018789,
        -0.67035790702123532,
        -0.59479951946064669,
        1.4531980673027072,
        1.4531980673027072,
        1.1302622276686594,
        1.1302622276686594
      ]
    },
    {
      "dualCoef": -0.10763180823245434,
      "supportVector": [
        -0.79323747296711289,
        -0.20311077413710577,
        -0.66131891475417248,
        -0.17203305457624771,
        0.76606989249006052,
        1.1863236217532709,
        -0.7572090215396895,
        -0.44140999874297837,
        0.26533993783711579,
        -0.074296183195296184,
        -0.61349311238622439,
        0.65668885583108882,
        -0.0071052978314469937,
        0.37412579736930957,
        0.0,
        0.38475336222707812,
        -0.070499826306442456,
        0.89880139075145593,
        -1.1184477018521588,
        -0.29216120720590028,
        -0.19993294602319919,
        -0.81216559136597022,
        -0.71399891473112054,
        -1.4671949125353112,
        0.81387338559200317,
        0.76068147635462824,
        -0.29773579557310681,
        -0.22633635739903027,
        -0.60660669300107162,
        -0.60198011319869393,
        -0.71830337324776339,
        -0.64787937572043064,
        -0.63216402798890015,
        -0.63216402798890015,
        1.0995624204957632,
        1.0995624204957632
      ]
    },
    {
      "dualCoef": -0.16373200083394743,
      "supportVector": [
        -0.11027049219130111,
        0.097977859265379233,
        0.013330477618621038,
        0.066227715625734568,
        -0.16437064504830479,
        0.77862440522680398,
        -1.0071144929396068,
        0.37354545278740736,
        -0.9227184097329022,
        -0.45302293620725037,
        0.60388081535533022,
        -0.43920557520388331,
        -0.54480074787352117,
        -0.66733969495260159,
        0.0,
        -0.45001833374675249,
        -0.10828007563284055,
        -0.36325982561202314,
        -1.8756404276523295,
        -0.13261785665697678,
        -0.16191546445225938,
        0.12304110541781162,
        -0.22629998704328444,
        -0.62644220205736978,
        1.0730794403936437,
        0.99121056495068494,
        -0.21453125292414915,
        -0.14626590944215306,
        0.91527816340314105,
        0.91572623155218191,
        0.11688494748158716,
        -0.13102583329136125,
        -0.12526369059471287,
        -0.12526369059471287,
        0.61331708753150516,
        0.61331708753150516
      ]
    },
    {
      "dualCoef": -0.39910213911372533,
      "supportVector": [
        0.75032189307086805,
        0.8506994427715916,
        1.1747988360013608,
        0.053093091765446854,
        0.95883048194023945,
        0.14999321102956986,
        -0.23212673893536881,
        1.3376809772693448,
        1.4940343377513821,
        1.9233017885736385,
        -0.87812596980915614,
        -1.3651818085392651,
        -0.26665512507765793,
        -0.99137120193511086,
        0.0,
        1.0554582843041762,
        0.48149640197977173,
        0.35791801230996489,
        -0.28381481091333444,
        -0.52178764725133542,
        -0.55344695930428767,
        -0.2857193176429384,
        -0.54204159149687936,
        0.21515126113104963,
        1.0184717036606081,
        0.94458906874001747,
        -0.27288807922897312,
        -0.2078769552824774,
        0.14066204658695011,
        0.13802905738820148,
        -0.54637385517452375,
        -0.52851062851978292,
        -0.43597666754360564,
        -0.43597666754360564,
        -0.68696829369470847,
        -0.68696829369470847
      ]
    },
    {
      "dualCoef": -0.17739411273992309,
      "supportVector": [
        0.59807154636827597,
        1.0389802015259455,
        1.2374089781223099,
        -0.026549969443147699,
        -0.060913475535708417,
        -0.29414839356630207,
        0.11044031174766394,
        0.20011702875539125,
        1.4123252862634845,
        1.1661711527569014,
        0.15968687318042049,
        -0.95051905085035671,
        -0.4894090164490249,
        -0.92079900161917971,
        0.0,
        0.12840687128989087,
        0.39587996746786752,
        0.15186720147511118,
        0.18082617991858851,
        1.8009865411997126,
        1.70735893995499,
        1.4944329606963376,
        0.48397044903478326,
        -0.78366295891674476,
        -2.093648209704178,
        -1.6592479464096301,
        0.35371818951374706,
        0.38029171697979741,
        1.4969971718166208,
        1.4782283485575178,
        1.9045740212970219,
        1.4985394438480462,
        -0.97872850227804975,
        -0.97872850227804975,
        -0.050194873947217701,
        -0.050194873947217701
      ]
    },
    {
      "dualCoef": -0.096186518056372017,
      "supportVector": [
        -0.86936264631840887,
        0.09757640775417592,
        -0.45775224946253057,
