{
  "bias": [0.011725571305708431],
  "intercept": -0.83709489512385915,
  "kernel": {
    "parameters": [
      {
        "name": "gamma",
        "value": 0.125
      }
    ],
    "type": "rbf"
  },
  "modelName": "puffMarker",
  "modelType": "svc",
  "normparams": [
    {
      "mean": 1727.3325130283729,
      "std": 1450.9983198096868
    },
    {
      "mean": 2016.2562246670527,
      "std": 2456.6014455341742
    },
    {
      "mean": 3743.5887376954256,
      "std": 2926.1858369216493
    },
    {
      "mean": 1.0163677685682644,
      "std": 1.5037502894135772
    },
    {
      "mean": 791.59673607017919,
      "std": 692.34364088530299
    },
    {
      "mean": 471.18456861609729,
      "std": 520.83928940157591
    },
    {
      "mean": -5.393456861609728,
      "std": 611.00378442192698
    },
    {
      "mean": -81.004198031268089,
      "std": 2170.0858775884021
    },
    {
      "mean": -105.27026635784597,
      "std": 3142.4056674848125
    },
    {
      "mean": -186.27446438911406,
      "std": 3899.2391580313642
    },
    {
      "mean": 47.032640200319314,
      "std": 684.30964174003316
    },
    {
      "mean": -152.03734800231615,
      "std": 1670.0056203233116
    },
    {
      "mean": -146.31919513607411,
      "std": 2878.3436331046055
    },
    {
      "mean": -298.35654313839029,
      "std": 3416.5693453110848
    },
    {
      "mean": -47.032640200319314,
      "std": 684.30964174003316
    },
    {
      "mean": 1.1170013908654972,
      "std": 2.5203460483752993
    },
    {
      "mean": 1.161659026014342,
      "std": 2.0139355917485999
    },
    {
      "mean": 67.497539085118703,
      "std": 117.27355377698778
    },
    {
      "mean": -46.782570932252462,
      "std": 134.98877659363023
    },
    {
      "mean": 110.84340310083297,
      "std": 126.32660675408468
    },
    {
      "mean": 96.430161104136175,
      "std": 116.78253851897485
    },
    {
      "mean": 63.775765028437071,
      "std": 71.955511666534917
    },
    {
      "mean": 84.059524558264471,
      "std": 104.2913446471422
    },
    {
      "mean": 2204.9138679791545,
      "std": 1243.8773363919333
    },
    {
      "mean": -72.552861162418623,
      "std": 21.51296699602706
    },
    {
      "mean": -75.129824637894075,
      "std": 27.235795612259128
    },
    {
      "mean": 9.1997492134412227,
      "std": 26.884008633604026
    },
    {
      "mean": 11.916133416113569,
      "std": 43.091935735085819
    },
    {
      "mean": 26.343140577421725,
      "std": 22.856795298612514
    },
    {
      "mean": 26.298918426396078,
      "std": 22.976176073712061
    },
    {
      "mean": 2.9022551517817159,
      "std": 3.6352554047846612
    },
    {
      "mean": 4.1153165920976233,
      "std": 5.7521366947307841
    },
    {
      "mean": 4187.2110596409957,
      "std": 2571.8306088096879
    },
    {
      "mean": 7930.7997973364218,
      "std": 3794.4672680889958
    },
    {
      "mean": 1982.2971916618415,
      "std": 2543.979670765299
    },
    {
      "mean": 5725.8859293572668,
      "std": 3768.9009991224175
    }
  ],
  "probA": -4.3755636193499567,
  "probB": 0.55262742262982811,
  "support": [
    {
      "dualCoef": -0.0076626605645764671,
      "supportVector": [
        -0.77073315507012685,
        0.26693128286031742,
        -0.1580859055015007,
        -0.52432149968113284,
        -0.61211905626556828,
        -0.46690903233415226,
        -0.47725816201659105,
        -0.2221090911408399,
        0.49588450099922599,
        0.27602165980824322,
        -0.5006982501796815,
        0.17547087532890121,
        -0.56827155244826233,
        -0.39298001040261615,
        0.5006982501796815,
        -0.19036562616501984,
        0.50141424000004142,
        -0.1662569134913062,
        -0.046058859296610015,
        1.9197815395474902,
        1.75877570217821,
        2.366170339912224,
        3.2189643744221752,
        -0.41556659395254075,
        -0.93440398752964682,
        -2.9099021581155156,
        4.5385789680205741,
        1.1166406470946297,
        1.1865930574013872,
        1.0192425201901942,
        1.5594331142584712,
        1.452502238960337,
        -0.74157724583723816,
        -0.62454084589585135,
        -0.54650483556875351,
        -0.49162499354286787
      ]
    },
    {
      "dualCoef": -1.2063534986798881,
      "supportVector": [
        -0.091890191193233633,
        0.095149246027623743,
        0.034314725004002872,
        -0.20477025094661583,
        -0.49743612237096235,
        -0.48994876885976563,
        0.36234383895194844,
        -0.9128651646589192,
        0.25721385202464547,
        -0.30075752937477374,
        0.2577303446305701,
        0.31559016424165215,
        -0.56827155244826233,
        -0.32449025464187253,
        -0.2577303446305701,
        0.10614365164139046,
        0.11927398962004319,
        -0.57555635444863218,
        -0.090506998996863611,
        -0.73789772338849668,
        -0.67691638587126435,
        -0.76816064185050648,
        -0.68631971391334279,
        -0.51605881801908948,
        -1.8114453711930174,
        -1.3415310064472625,
        -0.31348789122712034,
        -0.26116561133340688,
        1.5160282295340737,
        1.5078765299219172,
        -0.70253509254791935,
        -0.62643280966087489,
        -0.67275467276664214,
        -0.42952005701639284,
        -0.4277931951140363,
        -0.26211511779887414
      ]
    },
    {
      "dualCoef": -0.10951038761165874,
      "supportVector": [
        -0.38341361628960507,
        -0.32453625154229843,
        -0.46257784472069019,
        -0.037070188519134475,
        -0.51679067292748271,
        -0.82210497043735831,
        0.079203203147743123,
        0.25298731432756555,
        0.12292183353494822,
        0.23986075910801855,
        -1.0183001929191633,
        1.916183579898846,
        0.21342802439243999,
        1.1164288377091571,
        1.0183001929191633,
        -0.1284469811449841,
        -0.0092693796816677807,
        -0.57555635444863218,
        0.12432567622102879,
        0.77571363024043616,
        0.6648396595716114,
        1.7638492125765857,
        1.9146626052558744,
        0.78953615705351188,
        0.43218179337306917,
        0.33750088769048514,
        0.41215841539749376,
        0.27991779339272721,
        1.1760159647188151,
        1.1629559834926422,
        2.6019484916434874,
        3.8806058788989013,
        -1.4686857861876021,
        -1.352179221701507,
        -1.8708078709725358,
        -1.6219279654150223
      ]
    },
    {
      "dualCoef": -0.25018076677973028,
      "supportVector": [
        1.7172090780218372,
        -0.13402915856196518,
        0.73898630600284543,
        0.9872127002885962,
        0.42176059211930483,
        -0.48610881277216339,
        0.36561714109997395,
        1.4418803561398703,
        0.18243038201261028,
        0.94948637781384693,
        0.9717346055636894,
        -1.9017676427836334,
        -0.24204226238007592,
        -1.1334889081576649,
        -0.9717346055636894,
        0.66547307538411149,
        0.45394840238256268,
        -0.54997513938879927,
        0.3687904445724236,
        1.033569810232754,
        0.46011230858056118,
        2.6815955226582422,
        3.2485942328678123,
        -0.013597697686345724,
        0.2655461161853509,
        0.27559806509619578,
        0.243073402486954,
        -0.044253904666456741,
        0.71360222276516549,
        0.41055841803879012,
        3.2299750919464825,
        0.67996367621187659,
        -1.1525685437785935,
        -0.21130760675667432,
        -1.1585380282442326,
        -0.20825326256646864
      ]
    },
    {
      "dualCoef": -0.12278109573940765,
      "supportVector": [
        1.7172090780218372,
        -0.13402915856196518,
        0.73898630600284543,
        0.9872127002885962,
        0.42176059211930483,
        -0.48610881277216339,
        0.36561714109997395,
        1.4418803561398703,
        0.18243038201261028,
        0.94948637781384693,
        0.9717346055636894,
        -1.9017676427836334,
        -0.24204226238007592,
        -1.1334889081576649,
        -0.9717346055636894,
        0.66547307538411149,
        0.45394840238256268,
        -0.54997513938879927,
        0.3687904445724236,
        0.77571363024043616,
        0.6648396595716114,
        1.7638492125765857,
        1.9146626052558744,
        0.78953615705351188,
        0.43218179337306917,
        0.33750088769048514,
        0.41215841539749376,
        0.27991779339272721,
        1.1760159647188151,
        1.1629559834926422,
        2.6019484916434874,
        3.8806058788989013,
        -0.53938663568633483,
        0.20429750684184755,
        -0.93133495479116468,
        -0.054892906288979172
      ]
    },
    {
      "dualCoef": -0.034440976817343469,
      "supportVector": [
        -0.93200143278301317,
        -0.36280049671356196,
        -0.76672804214502088,
        -0.45422065089119934,
        -0.74846753182792103,
        0.16476374407641425,
        -0.41342877013009383,
        -0.69674468535272893,
        -0.17557559144926047,
        -0.52926364656555536,
        -0.37677773989083879,
        0.31559016424165215,
        0.57196756363670886,
        0.63612247359214724,
        0.37677773989083879,
        -0.22992880779052652,
        -0.37483708653904957,
        0.089555237107022512,
        -0.046058859296610015,
        -0.48348534622028932,
        -0.46725952608462945,
        -0.56623045536741023,
        -0.42582347160562178,
        0.33772311765030871,
        -0.90707409125785066,
        -3.7095055952993943,
        5.3672826118347734,
        1.8610981510651488,
        1.5775747034172871,
        1.5753249290388216,
        -0.57143004224644478,
        -0.51376644538798422,
        0.83434302905047586,
        -0.025774315714594789,
        0.6783477195865405,
        -0.13741032982236884
      ]
    },
    {
      "dualCoef": -0.028751674416690669,
      "supportVector": [
        -0.5122904023251168,
        -0.17188633729523653,
        -0.39833038728723608,
        -0.26537174448883027,
        -0.36917611569790182,
        -0.042593884654106073,
        0.74368353919691854,
        0.10184122219018732,
        0.22730046401983139,
        0.23986075910801855,
        -0.43961479109862456,
        0.68025959564278604,
        0.11614985483004148,
        0.43036051504598155,
        0.43961479109862456,
        -0.012165673461889445,
        0.078799518731316104,
        -0.57555635444863218,
        0.17618183920465799,
        -0.48348534622028932,
        -0.46725952608462945,
        -0.56623045536741023,
        -0.42582347160562178,
        0.33772311765030871,
        -0.90707409125785066,
        -3.7095055952993943,
        5.3672826118347734,
        1.8610981510651488,
        1.5775747034172871,
        1.5753249290388216,
        -0.57143004224644478,
        -0.51376644538798422,
        -1.6261611652474401,
        -1.4093677503323752,
        -1.8090935413321696,
        -1.5303893444535448
      ]
    },
    {
      "dualCoef": -0.064830379108698558,
      "supportVector": [
        -0.12428168287060824,
        0.59136323394007295,
        0.43483610857851479,
        -0.37933021933961675,
        0.64332686490812796,
        0.17628361233922094,
        -0.72602912526652863,
        0.25344812558408197,
        0.67504660149614448,
        0.68507582021149449,
        1.3057939057055459,
        -0.21794097431074574,
        -0.69855481525504615,
        -0.69503739478333171,
        -1.3057939057055459,
        0.61275646443076681,
        0.99816488350566723,
        0.36242153107857317,
        -0.18681130168074642,
        1.582834780731587,
        1.3734808100596496,
        2.497689136788507,
        1.4068536939106007,
        0.28707503672076812,
        1.0642815619178401,
        2.0021477410760671,
        1.8310852902839401,
        1.8455800831925206,
        0.3239714196822589,
        -0.25629818509850427,
        6.2941268138417508,
        7.5039452478315214,
        0.79079428224874282,
        0.87132131313091465,
        0.65908655938031147,
        0.78248647850644781
      ]
    },
    {
      "dualCoef": -0.19026032147687869,
      "supportVector": [
        -0.47989891064774215,
        -0.61070395745079054,
        -0.75066617778665734,
        0.65283062875723219,
        -0.69935897071436182,
        -0.29987094252345536,
        0.52437229527921037,
        0.10184122219018732,
        -0.13038728191007321,
        -0.048400605339162912,
        -0.77484315265830039,
        0.11918363961181322,
        0.3763689584094575,
        0.37533455742623878,
        0.77484315265830039,
        -0.29276522150010037,
        -0.4357424196611982,
        0.10660938048024443,
        0.93920823739234482,
        1.8061603014741743,
        1.5779422417241138,
        1.5088132334559647,
        1.5700592852431157,
        -0.86818357114827627,
        -0.52529341327806334,
        -2.8752555307346266,
        4.722297462732941,
        2.2193082500589592,
        1.465776286092566,
        1.5481480823913754,
        1.1391296326491762,
        1.2085326769738274,
        0.59054781258005962,
        -0.17862844753903528,
        1.0215108391791501,
        0.10669265940823724
      ]
    },
    {
      "dualCoef": -0.17973023083108816,
      "supportVector": [
        -0.12428168287060824,
        0.59136323394007295,
        0.43483610857851479,
        -0.37933021933961675,
        0.64332686490812796,
        -0.1001932259681395,
        0.69458400697653611,
        0.25344812558408197,
        0.67504660149614448,
        0.68507582021149449,
        1.3057939057055459,
        -0.21794097431074574,
        -0.69855481525504615,
        -0.69503739478333171,
        -1.3057939057055459,
        0.4531099170650279,
        0.82330987330931393,
        -0.26858177373063769,
        0.61325521292381846,
        1.582834780731587,
        1.3734808100596496,
        2.497689136788507,
        1.4068536939106007,
        0.28707503672076812,
        1.0642815619178401,
        2.0021477410760671,
        1.8310852902839401,
        1.8455800831925206,
        0.3239714196822589,
        -0.25629818509850427,
        6.2941268138417508,
        7.5039452478315214,
        0.79079428224874282,
        0.87132131313091465,
        0.65908655938031147,
        0.78248647850644781
      ]
    },
    {
      "dualCoef": -0.079513848067939971,
      "supportVector": [
        -0.7376524827187656,
        -0.15316128114759694,
        -0.49435983164255848,
        -0.40948155874363534,
        0.0062940563579795307,
        -0.20195206228959853,
        0.60784150005386051,
        -0.13501576365924084,
        0.13787852753735527,
        0.035974829628028102,
        -1.8408015573728636,
        3.7676743547630598,
        1.3213568913013287,
        2.9548226664836479,
        1.8408015573728636,
        -0.1958959449861139,
        -0.33636575848891614,
        -0.57555635444863218,
        0.094693583087526387,
        1.5564427142250414,
        1.6472253926095981,
        0.22772747925276521,
        0.43611368827031277,
        -0.66719912301517881,
        0.021422471200914596,
        -2.3063585241413689,
        4.6193178152878254,
        1.8503651990496415,
        1.5846945412980542,
        1.6291699892494924,
        3.6256715320664052,
        3.6912375711189727,
        -0.98926074327209468,
        -1.0517417901845032,
        -0.67386434387116534,
        -0.83867576518812093
      ]
    },
    {
      "dualCoef": -0.3379538041573934,
      "supportVector": [
        -0.47989891064774215,
        -0.61070395745079054,
        -0.75066617778665734,
        0.65283062875723219,
        -0.69935897071436182,
        -0.094433291836736141,
        0.69949396019857435,
        0.10184122219018732,
        -0.13038728191007321,
        -0.048400605339162912,
        -0.77484315265830039,
        0.11918363961181322,
        0.3763689584094575,
        0.37533455742623878,
        0.77484315265830039,
        -0.29276522150010037,
        -0.4357424196611982,
        -0.51586685264235543,
        0.39842253770592601,
        1.582834780731587,
        1.3734808100596496,
        2.497689136788507,
        1.4068536939106007,
        0.28707503672076812,
        1.0642815619178401,
        2.0021477410760671,
        1.8310852902839401,
        1.8455800831925206,
        0.3239714196822589,
        -0.25629818509850427,
        6.2941268138417508,
        7.5039452478315214,
        -0.79484669505007233,
        -1.117627191832969,
        -0.94391367166053863,
        -1.2199540211928828
      ]
    },
    {
      "dualCoef": -0.079652714006354389,
      "supportVector": [
        -0.7376524827187656,
        -0.15316128114759694,
        -0.49435983164255848,
        -0.40948155874363534,
        0.0062940563579795307,
        -0.0022743457342826764,
        0.77805321175118625,
        -0.13501576365924084,
        0.13787852753735527,
        0.035974829628028102,
        -1.8408015573728636,
        3.7676743547630598,
        1.3213568913013287,
        2.9548226664836479,
        1.8408015573728636,
        -0.1958959449861139,
        -0.33636575848891614,
        -0.35385249059674728,
        0.53917498009006248,
        1.5564427142250414,
        1.6472253926095981,
        0.22772747925276521,
        0.43611368827031277,
        -0.66719912301517881,
        0.021422471200914596,
        -2.3063585241413689,
        4.6193178152878254,
        1.8503651990496415,
        1.5846945412980542,
        1.6291699892494924,
        3.6256715320664052,
        3.6912375711189727,
        -0.98926074327209468,
        -1.0517417901845032,
        -0.67386434387116534,
        -0.83867576518812093
      ]
    },
    {
      "dualCoef": -0.94653522963405357,
      "supportVector": [
        -0.38272443561561836,
        1.0493129766812586,
        0.69114245472261371,
        -0.50623591300795867,
        -0.10485650735139188,
        -0.33059059122427314,
        0.49818587809500642,
        -0.092621128059732286,
        -0.11543058790766617,
        -0.14457321358444142,
        0.30449280134334089,
        0.5401403067300351,
        -1.1707013596668303,
        -0.72225768232926824,
        -0.30449280134334089,
        0.087063376097085851,
        0.28455302082331674,
        -0.31974420385030344,
        0.56880707322356483,
        -0.39172827617356137,
        -0.406840461529413,
        -0.35483037409643625,
        -0.18829973969851005,
        -1.119012162418382,
        -0.018975174477642142,
        0.090665557850734796,
        -0.30145214560157579,
        -0.23136555457210334,
        -0.19801204412923379,
        -0.17676613717035769,
        -0.48631199568945765,
        -0.48687322375754105,
        1.0030944229071912,
        1.2128712352765612,
        1.5612164098557284,
        1.5904143069925298
      ]
    },
    {
      "dualCoef": -0.12132826164898651,
      "supportVector": [
        -0.18906466622535745,
        -0.36280049671356196,
        -0.39833038728723608,
        0.18300098688529701,
        0.48213523490009258,
        -0.7395459145539105,
        0.14957919933029126,
        0.12396016250297437,
        -1.8908219887465789,
        -1.4548288283181159,
        0.71921733931472709,
        0.40002101781728416,
        0.31140103802314134,
        0.45787349385585291,
        -0.71921733931472709,
        0.59367150679528358,
        -0.36777019299075947,
        -0.57555635444863218,
        0.22803800218828718,
        0.089447167596003449,
        0.10861604562400273,
        -0.020083960692745373,
        0.27855450936053855,
        -1.119012162418382,
        -1.2840883593919417,
        -0.91654218923826525,
        -0.24540044348314857,
        -0.15682580762138301,
        -0.11248410380950445,
        -0.12011847479066561,
        -0.19209537075238364,
        -0.19806221759668127,
        0.058630976644606259,
        -0.26744196896116712,
        0.6064131824898078,
        0.10005942600523166
      ]
    },
    {
      "dualCoef": -1.1331542055151069,
      "supportVector": [
        -0.93200143278301317,
        0.17127066993215861,
        -0.31836280729027722,
        -0.57355935765014066,
        -0.30764597736150112,
        0.12636418320039197,
        -0.59673369041952162,
        -1.2156181601901921,
        0.24225715802223846,
        -0.48130557258724327,
        0.15514520521692909,
        0.25990172890453322,
        -0.43764086760732723,
        -0.24165862694832363,
        -0.15514520521692909,
        -0.088697598649044349,
        0.049033126908452261,
        1.9996192949078768,
        -1.2017104915032035,
        -0.069138701808362846,
        -0.10328530949150715,
        0.076831247754632903,
        -0.27614022957228812,
        -1.119012162418382,
        0.23443157421056834,
        0.59707456531119141,
        0.46588691963158729,
        0.54890377943564272,
        1.202878335128952,
        1.26598170117977,
        0.11046839834684798,
        0.265188109832249,
        0.3751370471500588,
        0.0087496347492012575,
        0.92638429285450907,
        0.37812457025922641
      ]
    },
    {
      "dualCoef": -0.10411821802907528,
      "supportVector": [
        -0.60877569668325382,
        0.87753093984856501,
        0.43483610857851479,
        -0.54135764405121334,
        0.68434695713239524,
        -0.71074624389689378,
        -0.58200383075340689,
        0.015669517221621045,
        1.0480092689604223,
        0.85331376956856841,
        1.5416520467505836,
        -0.049678067539450768,
        -1.089057181641246,
        -0.94177613028036966,
        -1.5416520467505836,
        1.2735918138200539,
        1.4551324510190584,
        0.191880097346354,
        0.0057973036870191856,
        0.39761817850413272,
        0.35157077965206956,
        0.65192906109761961,
        0.13501117369591198,
        0.53870756578340617,
        0.66584241252561638,
        0.75974986008413881,
        0.16641442335971368,
        0.16680824878177447,
        1.4330340213252288,
        1.3870447348097437,
        0.06874822176162565,
        0.16970313583586752,
        1.7900824901099381,
        1.5486232420771424,
        1.5462791835733469,
        1.3813347901297934
      ]
    },
    {
      "dualCoef": -0.038472368729354514,
      "supportVector": [
        -0.73834166339275231,
        -0.53458253354625562,
        -0.81491363522011151,
        -0.055344360807883616,
        -0.85419537516652499,
        -0.35555030579368763,
        -0.44779844268436159,
        -0.049304869947190952,
        -0.35441946441421279,
        -0.3130676232301694,
        -0.16196270436654792,
        0.062896403894725228,
        0.13247869043515836,
        0.14235231133413645,
        0.16196270436654792,
        -0.25402115138879666,
        -0.42863350096654951,
        0.098082308793633471,
        0.050245443387272784,
        0.78012831948389572,
        0.59019100906652278,
        0.69388049860513601,
        0.21516542263078811,
        -1.1198161002109144,
        -2.3128049363330501,
        -3.7380639439547165,
        4.5950248598398176,
        -0.16671547531442685,
        0.937540430944801,
        0.75542402795051966,
        2.1359701747223565,
        1.3179459200173249,
        -1.2478314274073845,
        -1.4741989855544655,
        -0.71395900389229494,
        -1.1146182747531539
      ]
    },
    {
      "dualCoef": -0.18929235496066377,
      "supportVector": [
        -0.35102212461223042,
        -0.38152555286120154,
        -0.49435983164255848,
        0.074783171423754208,
        -0.14356560846443261,
        0.60059876001926715,
        1.2919616489911889,
        0.058524964077645979,
        -0.011051957422782964,
        0.02366473577263245,
        0.48277466756077958,
        0.091040021753269224,
        0.13213126840100695,
        0.15581610947513733,
        -0.48277466756077958,
        0.3649417676145798,
        -0.17578729772979498,
        5.0778921737744325,
        5.2580858116003197,
        -0.29819287825377255,
        -0.34190326707146046,
        0.08745837977259123,
        -0.46143168954609071,
        0.33772311765030871,
        0.84591305916005854,
        0.80645300219199989,
        -0.0589427207388451,
        -0.072208093314779745,
        1.5534747964704267,
        1.5181441826437256,
        -0.17757998199577835,
        -0.40567606409375107,
        1.424584079452536,
        0.58432450355019794,
        1.2750506010774698,
        0.47682708329594975
      ]
    },
    {
      "dualCoef": -0.16241854976278441,
      "supportVector": [
        -0.35102212461223042,
        -0.38152555286120154,
        -0.49435983164255848,
        0.074783171423754208,
        -0.14356560846443261,
        0.60059876001926715,
        1.2919616489911889,
        0.058524964077645979,
        -0.011051957422782964,
        0.02366473577263245,
        0.48277466756077958,
        0.091040021753269224,
        0.13213126840100695,
        0.15581610947513733,
        -0.48277466756077958,
        0.3649417676145798,
        -0.17578729772979498,
        5.0778921737744325,
        5.2580858116003197,
        -0.45696023300781358,
        -0.36642881991799869,
        -0.53712266076501158,
        -0.51346347581042384,
        -0.41556659395254075,
        -0.28991151214210376,
        -0.15093720085986995,
        -0.24611423935792051,
        -0.17336447333650259,
        1.6878248346442559,
        1.6869517614356382,
        -0.54610507444477996,
        -0.59688465594806495,
        -0.27653884249016042,
        -0.56867002529795241,
        -0.076375292575899992,
        -0.43537517428538042
      ]
    },
    {
      "dualCoef": -0.0435186116761773,
      "supportVector": [
        0.55456128100628499,
        -0.32494331798029058,
        0.0021909962872758101,
        0.70653350686041283,
        -0.49021427514838012,
        -0.082913423573929459,
        -0.51653778779289694,
        0.64283363734043752,
        -0.1606188974468534,
        0.22832004611858511,
        -0.20229532328131278,
        -0.83530416605880664,
        0.24643311763682521,
        -0.20068184999745137,
        0.20229532328131278,
        -0.13934978855141697,
        -0.2350268753477732,
        0.038392806987356774,
        -0.0090187428797320144,
        -0.69925565839499393,
        -0.62769437148967067,
        -0.73970888631025444,
        -0.67817994951609417,
        -1.1696602433479226,
        -2.1894345628513197,
        -3.8264698148269529,
        4.8483121839440262,
        -0.23666612795233385,
        1.6370678640697143,
        1.6268144908094397,
        -0.64373968382651725,
        -0.64389587402981041,
        0.18422245179603275,
        0.126552732896658,
        0.75814395472663176,
        0.51344253168054066
      ]
    },
    {
      "dualCoef": -0.013960314916884844,
      "supportVector": [
        0.55456128100628499,
        -0.32494331798029058,
        0.0021909962872758101,
        0.70653350686041283,
        -0.49021427514838012,
        -0.64546699040765587,
        0.22977510195691589,
        0.64283363734043752,
        -0.1606188974468534,
        0.22832004611858511,
        -0.20229532328131278,
        -0.83530416605880664,
        0.24643311763682521,
        -0.20068184999745137,
        0.20229532328131278,
        -0.13934978855141697,
        -0.2350268753477732,
        -0.20889227192436099,
        0.66511137590744762,
        -0.69925565839499393,
        -0.62769437148967067,
        -0.73970888631025444,
        -0.67817994951609417,
        -1.1696602433479226,
        -2.1894345628513197,
        -3.8264698148269529,
        4.8483121839440262,
        -0.23666612795233385,
        1.6370678640697143,
        1.6268144908094397,
        -0.64373968382651725,
        -0.64389587402981041,
        0.18422245179603275,
        0.126552732896658,
        0.75814395472663176,
        0.51344253168054066
      ]
    },
    {
      "dualCoef": -0.009256067081213815,
      "supportVector": [
        -0.51160122165113009,
        -0.095764913390701673,
        -0.33408292985378196,
        -0.30810148016060707,
        -0.35819890791957676,
        -0.60130749540023021,
        0.26741807665920908,
        -0.67554736755297473,
        0.21266199754939047,
        -0.2045849211294952,
        -0.19294283193875861,
        -0.021534449680906769,
        0.18111777521635763,
        0.14205962007020165,
        0.19294283193875861,
        0.008691249901426586,
        0.01284660209674051,
        -0.37943370565658013,
        0.51695091023993567,
        -0.61879693202481578,
        -0.62518732211813799,
        -0.50820249086136526,
        -0.62371460308951854,
        0.23723089358375996,
        -2.0217073109726562,
        -3.795038064670381,
        4.7806468840331275,
        -0.23155669106155316,
        1.6852520789568666,
        1.6988205038593178,
        -0.39672029280626164,
        -0.35844189114217873,
        1.0590856687951338,
        0.46019640684448848,
        0.9546864058106006,
        0.38502313299835222
      ]
    },
    {
      "dualCoef": -0.10708277833259559,
      "supportVector": [
        -0.57638420500587928,
        0.62962747911133643,
        0.24277721986786999,
        -0.50959099284768894,
        1.9724356277521626,
        -0.071393555311122778,
        -0.49035137060869305,
        -0.0055278005781332221,
        0.73487337750577264,
        0.58915967225487009,
        1.9145826390349308,
        0.25870412814459515,
        -0.64956830843969537,
        -0.42078568047642234,
        -1.9145826390349308,
        0.85986519803958139,
        0.44332668401299613,
        0.26862374252585264,
        -0.2090353715308732,
        1.8045896466287843,
        2.0135761055978119,
        0.63519178150489997,
        0.60830296782901772,
        -0.36572245081553256,
        -1.4965036949355657,
        -1.3660685234529779,
        1.8072723425935502,
        0.33167380138250285,
        1.5208235744180811,
        1.3503709107279338,
        3.5815749656218543,
        4.0662818539289045,
        0.3455861118203114,
        0.42145579067519062,
        0.52818928695838818,
        0.54501672267884727
      ]
    },
    {
      "dualCoef": -0.47908949256877931,
      "supportVector": [
        -0.38341361628960507,
        -0.1910184598808683,
        -0.3504865360070043,
        -0.17251457038750154,
        0.012137417654440383,
        2.8181734006095538,
        -1.1073688255114988,
        0.16635479810248291,
        -0.60804680739120032,
        -0.39744305819736037,
        0.20512258082870291,
        1.3551076238678732,
        0.44133687879577366,
        1.0341825925434778,
        -0.20512258082870291,
        -0.20678303258652031,
        -0.31564672564002022,
        1.3259806316656111,
        -1.379503050304218,
        1.175067291098336,
        1.2278538663343534,
        1.0759651441624061,
        1.0135528516424404,
        -0.66719912301517881,
        -2.1871691494376795,
        -2.1732151173679761,
        2.1932709958051433,
        0.30595686015914303,
        1.5627963739714044,
        1.4948833885722752,
        1.2269282776054327,
        0.94179970472449359,
        -1.1790088543367887,
        -1.0693990778262921,
        -0.86568977612911902,
        -0.85645283070817591
      ]
    },
    {
      "dualCoef": -0.028373688083334611,
      "supportVector": [
        -0.93200143278301317,
        -0.2292827050521318,
        -0.65463673343133499,
        -0.50425995377661659,
        -0.81968930467030177,
        -0.31139081078626202,
        -1.3708696484275511,
        -2.0146648789896249,
        0.33167909450471461,
        -0.8539423720016156,
        -0.9451022494375646,
        0.65271477816421108,
        -0.22606084880911045,
        0.12859582192920077,
        0.9451022494375646,
        -0.34465937017754589,
        0.026806337157378742,
        0.17482595397313208,
        -0.56462048913290197,
        1.4137395848906735,
        1.0916252550988212,
        1.342058075524394,
        1.1106108169438531,
        -0.91883165207781692,
        -1.3510151264560057,
        -1.0171814099543386,
        -0.0079975343034398953,
        0.014148713518803747,
        0.58597081296393727,
        0.61375573501276803,
        1.0526248055753749,
        0.39071647159413753,
        1.0808600421960002,
        0.22775270982870136,
        1.5419552496494995,
        0.53254624388119676
      ]
    },
    {
      "dualCoef": -0.11964876093888265,
      "supportVector": [
        -0.93200143278301317,
        -0.2292827050521318,
        -0.65463673343133499,
        -0.50425995377661659,
        -0.81968930467030177,
        -0.31139081078626202,
        -1.3708696484275511,
        -2.0146648789896249,
        0.33167909450471461,
        -0.8539423720016156,
        -0.9451022494375646,
        0.65271477816421108,
        -0.22606084880911045,
        0.12859582192920077,
        0.9451022494375646,
        -0.34465937017754589,
        0.026806337157378742,
        0.17482595397313208,
        -0.56462048913290197,
        2.6122576043189474,
        2.4332869313394192,
        1.7924174251761498,
        1.0011120833755258,
        -0.61735497987817067,
        1.3358689458374546,
        1.1948255664595513,
        0.20741785530408965,
        0.24353975148862109,
        0.45048571110943619,
        0.56115386210656248,
        5.2578033054737983,
        6.1409148042952779,
        0.35180736136341612,
        -0.26638780253479166,
        0.65751421977163971,
        -0.064444762389307242
      ]
    },
    {
      "dualCoef": -0.10894180165316486,
      "supportVector": [
        -0.35033294393824377,
        0.095149246027623743,
        -0.093838448068046587,
        -0.31560425566091954,
        0.49137919934499763,
        -0.24035162316562081,
        -0.88151097729773964,
        -0.0059886118346496198,
        0.54075458300644708,
        0.4324624358872296,
        0.96618156382904796,
        -0.35865906360346578,
        -0.3400152760107773,
        -0.4617624574272946,
        -0.96618156382904796,
        0.37125629162220919,
        0.40622123460529319,
        0.49032760637773753,
        -0.57943653569965314,
        2.6940041876978769,
        3.5103041662453358,
        2.7022302463314052,
        2.5306843120175238,
        -1.2195043864849306,
        -0.37646924478046512,
        -3.5523881477344008,
        5.7004051020874256,
        7.5955976727076733,
        0.76207635576697164,
        0.69661420627414461,
        1.7869577795739733,
        0.87160165215736873,
        0.63759601224978912,
        0.35978705473222672,
        1.2408522145888592,
        0.76470941298639283
      ]
    },
    {
      "dualCoef": -0.060570872487253076,
      "supportVector": [
        -0.31863063293485583,
        -0.26713988378540315,
        -0.38226852292887253,
        -0.057337119301827846,
        -0.43128400181210907,
        -0.47650892255315785,
        0.37380039647003765,
        -1.9718094321335999,
        0.22761869155179751,
        -0.91395407954666941,
        -0.40308162179177237,
        -0.077222885018025739,
        0.050487090375422483,
        0.0047874172847795658,
        0.40308162179177237,
        -0.31689305704046217,
        -0.30109552979290982,
        -0.57555635444863218,
        -0.63129269868328242,
        1.8045896466287843,
        2.0135761055978119,
        0.63519178150489997,
        0.60830296782901772,
        -0.36572245081553256,
        -1.4965036949355657,
        -1.3660685234529779,
        1.8072723425935502,
        0.33167380138250285,
        1.5208235744180811,
        1.3503709107279338,
        3.5815749656218543,
        4.0662818539289045,
        -1.5861118713137037,
        -1.3698365093432958,
        -1.4246565070119266,
        -1.2584267749303153
      ]
    },
    {
      "dualCoef": -0.097234650268289258,
      "supportVector": [
        -0.35033294393824377,
        -0.4775932322273525,
        -0.57466915343437608,
        0.28572451937435106,
        -0.22098381069051423,
        1.203471865772817,
        -0.24485370950678087,
        0.10230203344670372,
        -0.36969438594858595,
        -0.24100228211837399,
        0.14403912174764602,
        0.11918363961181322,
        -0.079101328363058401,
        -0.0083836895922865182,
        -0.14403912174764602,
        -0.19635692949486777,
        -0.31421104542172201,
        0.5073817497509594,
        -0.25348351123112683,
        -0.01150823314413113,
        -0.5827723908816913,
        2.0651761959282156,
        -0.094142623788037533,
        -0.71784720394471935,
        -1.4032237963343828,
        -3.3123789547201272,
        4.8457928337264633,
        -0.17699693813228926,
        -0.15926343324878542,
        -0.14367731136832027,
        0.60910544290613555,
        -0.47379857875320841,
        0.8685599015375518,
        0.14552772857141613,
        1.229059667523821,
        0.38343115698163088
      ]
    },
    {
      "dualCoef": -0.039732661947600167,
      "supportVector": [
        -0.28623914125748123,
        -0.40106474188482549,
        -0.47863970907905373,
        0.17036282863934821,
        -0.43648373181236827,
        -0.60898740757543468,
        0.26087147236315811,
        0.18801292715875356,
        0.10796513953254118,
        0.19164622484105226,
        -1.3228406922610834,
        -0.076624084638056728,
        0.42535546522480822,
        0.32089398233436561,
        1.3228406922610834,
        -0.26104490170173933,
        -0.20658227933104467,
        -0.19183812855113908,
        0.67992742247419879,
        1.712705934921118,
        1.5907596789624454,
        1.6738781344887497,
        1.7328995471791322,
        0.63919978984995496,
        -0.0099538857109261088,
        -0.1138653117227109,
        1.8524058942798611,
        1.0568698391960445,
        1.4200911068599642,
        1.4541236117018546,
        2.5073631690696065,
        1.9331683477356607,
        1.0567527002164694,
        0.34713705761572128,
        0.75578544531362413,
        0.13853217974266413
      ]
    },
    {
      "dualCoef": -0.038537949245682393,
      "supportVector": [
        -0.060187880189845729,
        -0.076632790805069906,
        -0.094180189862905384,
        -0.079276731221613939,
        -0.14385448235333598,
        0.58523893566885821,
        -0.70475266130436298,
        0.29630357244010691,
        0.0035865090476579721,
        0.16779541799622319,
        -0.15904005082199973,
        0.2317581110459892,
        0.50699964325039271,
        0.54041243028546704,
        0.15904005082199973,
        0.012933046148767995,
        0.0054060706808428732,
        0.60117953830367998,
        -0.43127607003214125,
        0.13300241404310309,
        0.23776809606987787,
        0.19423830445031959,
        0.058572436049254821,
        -0.66719912301517881,
        -0.85019737367510273,
        -0.60736679834166962,
        -0.22963694550910449,
        -0.19283189534110215,
        -0.016391500668707797,
        -0.086083859344159755,
        0.67871975112143157,
        0.17486792753617855,
        -0.22443587756665842,
        -0.22474822869296132,
        0.099333658693168167,
        -0.0060723084428579537
      ]
    },
    {
      "dualCoef": -0.23354025644213663,
      "supportVector": [
        1.9432603390894727,
        -1.4313498964429952,
        -0.23805348549845956,
        -2.6917375380700741,
        -0.16783101513230902,
        -0.82978488261256278,
        0.072656598851692136,
        0.21059267872805704,
        -0.1606188974468534,
        -0.012239704638938193,
        0.38924975413523799,
        0.37127859957877113,
        0.18111777521635763,
        0.33406508921143174,
        -0.38924975413523799,
        0.13051448321017253,
        0.052651079066333137,
        -0.19183812855113908,
        0.67992742247419879,
        -0.12714809782155106,
        -0.24977728764045226,
        0.45760488782371778,
        0.18388661594709849,
        1.2421531342492476,
        -0.81584145315347123,
        -0.55578921530357039,
        -0.27028322654637965,
        -0.20572458971843202,
        -0.58659184348278304,
        -0.57607334207974925,
        -0.22730860451348783,
        -0.41041193572297624,
        1.7072621055673567,
        0.97357545648933352,
        1.1186028100146306,
        0.57022300961026862
      ]
    },
    {
      "dualCoef": -0.36972500310697343,
      "supportVector": [
        2.2657968945152454,
        -1.2786999821959333,
        0.050034847567507604,
        -3.640328839759051,
        -0.62049639904376375,
        -0.73762593651010933,
        0.15121585040430402,
        0.25298731432756555,
        0.15283522153976231,
        0.26396802624150167,
        -0.39080647690467007,
        -0.41374869856061569,
        -0.046791079186976031,
        -0.24165862694832363,
        0.39080647690467007,
        -0.24061105100603872,
        -0.15112343895620195,
        -0.1662569134913062,
        0.70215149232432561,
        -0.43010443269169923,
        -0.4745398455808687,
        -0.19771367665992956,
        -0.20101343547725489,
        0.99132454297914174,
        -0.67157572794814879,
        -0.42777088766086291,
        -0.27827026934778698,
        -0.24506149945279401,
        -0.51327464895894159,
        -0.49514783755128405,
        -0.4273994715245466,
        -0.48764768086911847,
        1.3612050997321565,
        0.96118900097942195,
        0.89139973656156257,
        0.64053528368212798
      ]
    },
    {
      "dualCoef": -0.21240343656325966,
      "supportVector": [
        1.3292003585673287,
        -0.51545041096062383,
        0.22637361371464765,
        2.5657843095786665,
        -0.90937028794705321,
        -0.059873687048316096,
        -0.29067993957913779,
        1.1386665493520809,
        -0.30954938240699165,
        0.38424790162026329,
        -0.2101864878515928,
        -1.4245237399483235,
        0.84886292485539316,
        0.018836597953650055,
        0.2101864878515928,
        -0.22915141029018599,
        -0.38536707590061964,
        -0.072459124938585667,
        0.10210160637090199,
        -0.33237353602213593,
        -0.25367930924812565,
        -0.5033685155529557,
        -0.56108727088473631,
        -1.2701524674144713,
        0.1788087500868204,
        0.23193433130885913,
        -0.30449537899005696,
        -0.24030390634812696,
        0.16340992484650749,
        0.17499796061818393,
        -0.30021488295850945,
        -0.29412659667622992,
        0.27676353874971543,
        0.36215892919157144,
        0.90083377421359312,
        0.78381312518704893
      ]
    },
    {
      "dualCoef": -0.21438487794480277,
      "supportVector": [
        1.4263748335994524,
        1.0493129766812586,
        1.5882146662269601,
        -0.12625429040103647,
        0.39056221211774966,
        -0.29411100839205201,
        0.52928224850124861,
        1.4414195448833538,
        0.97354402648035321,
        1.5867901951192256,
        0.83466215432437996,
        -1.4526673578068674,
        -0.58460038805337933,
        -1.2025640464462781,
        -0.83466215432437996,
        0.78762482490218244,
        0.54855007804716494,
        -0.57555635444863218,
        0.087285559804150786,
        1.6537949845265816,
        1.8035258182852587,
        1.0836400803724258,
        1.2997265008170542,
        -0.013597697686345724,
        0.13483918271033143,
        0.30084236102895434,
        0.078540556902645026,
        0.17388315117126657,
        0.071163532272479832,
        0.12577318217935488,
        1.4290477983639813,
        1.4586025280810984,
        -1.0289212091093873,
        0.52739951652592354,
        -1.0335370293548285,
        0.53546486657851922
      ]
    },
    {
      "dualCoef": -0.12589557480660424,
      "supportVector": [
        -0.31794145226086917,
        -0.40106474188482549,
        -0.49435983164255848,
        0.14069242582439725,
        -0.31746768958421306,
        1.8293847080519801,
        2.3394183363593477,
        0.14561829155924502,
        -0.47375478890150302,
        -0.30075752937477374,
        0.55613327152893888,
        -0.16165373859365773,
        -0.14441667078352599,
        -0.20068184999745137,
        -0.55613327152893888,
        0.094357832095241859,
        -0.33139672657548186,
        -0.57555635444863218,
        -0.74241304793391638,
        -0.21859594854541661,
        -0.17325405454042866,
        -0.47031571076404738,
        -0.34573899777072747,
        -1.2195043864849306,
        -2.2528543209094232,
        -1.6739834712074408,
        -0.30150326656417969,
        -0.23058437109691798,
        0.13015213910844534,
        0.12552537240971645,
        -0.61975716462078234,
        -0.56144347413683515,
        -0.63737131599023411,
        -0.81323663621705722,
        -0.048073179619808476,
        -0.41627146208472426
      ]
    },
    {
      "dualCoef": -0.13158834096629113,
      "supportVector": [
        0.90948932810943228,
        -0.13402915856196518,
        0.33846492242833359,
        0.52521820049639723,
        0.85102719102959312,
        -0.24803153534082525,
        -1.1564683577318813,
        0.64237282608392121,
        0.25689562449267939,
        0.56453948454407876,
        -0.90840841964415198,
        -1.0317106906886455,
        0.2301042820317083,
        -0.31044107397300202,
        0.90840841964415198,
        -0.030118733847850451,
        -0.10342056955282307,
        0.51590882143757033,
        -0.3349717673482584,
        2.1722527764824497,
        2.004422633010587,
        1.9971090922614667,
        2.477934308864211,
        0.78953615705351188,
        -1.2044649819788524,
        -0.592340724746236,
        0.68162394701262929,
        0.15945570704060522,
        0.073314721170907093,
        0.043498329547857359,
        1.2824362985726563,
        1.3357474125816098,
        1.2095621421189791,
        1.0808368903730357,
        0.83676093516021921,
        0.82759246564688593
      ]
    },
    {
      "dualCoef": -0.11118678374577297,
      "supportVector": [
        1.1031490974996931,
        0.056885000856360231,
        0.59477126857243245,
        0.35061106423284005,
        1.5284364605078071,
        1.1977119316414135,
        -1.8193120427070437,
        1.030836715327244,
        0.018543203050065016,
        0.58864675167756197,
        1.7932925169361815,
        -0.72272969462463066,
        -0.51893762359876028,
        -0.79045474682607708,
        -1.7932925169361815,
        0.11967777943784479,
        0.15210970972993185,
        1.5817927822639399,
        -1.1572623518029499,
        1.7901946224472196,
        2.0986573362253305,
        0.78584735901282421,
        0.679367760330023,
        -1.1696602433479226,
        0.01409811456851261,
        -2.7451338671543333,
        5.2578235714399648,
        5.590073862747226,
        0.83597795120202967,
        0.87598998573273879,
        0.69947073658746339,
        0.55180169173134208,
        -1.3967525883454537,
        -0.48802629368023037,
        -0.84013925748820306,
        -0.10530548015182173
      ]
    },
    {
      "dualCoef": -0.40649873168461453,
      "supportVector": [
        -0.7376524827187656,
        -0.11489703597633343,
        -0.46223610292583139,
        -0.4239234662111771,
        -0.44601657014617679,
        0.36828141671933234,
        1.0939268690356465,
        -0.52394046415908002,
        0.34663578850712168,
        -0.012239704638938193,
        -0.84966308339873353,
        0.73594803097990502,
        -0.20938459116984215,
        0.18332908828500871,
        0.84966308339873353,
        -0.27435795073507729,
        -0.048183724927413414,
        -0.57555635444863218,
        -0.80167723420092118,
        2.1722527764824497,
        2.004422633010587,
        1.9971090922614667,
        2.477934308864211,
        0.78953615705351188,
        -1.2044649819788524,
        -0.592340724746236,
        0.68162394701262929,
        0.15945570704060522,
        0.073314721170907093,
        0.043498329547857359,
        1.2824362985726563,
        1.3357474125816098,
        -0.77734943071009022,
        -0.88333870357102484,
        -1.1719029149179425,
        -1.1499070764571437
      ]
    },
    {
      "dualCoef": -0.16669976486041438,
      "supportVector": [
        1.1031490974996931,
        0.056885000856360231,
        0.59477126857243245,
        0.35061106423284005,
        1.5284364605078071,
        -0.70882626585309261,
        0.17576561651449524,
        1.030836715327244,
        0.018543203050065016,
        0.58864675167756197,
        1.7932925169361815,
        -0.72272969462463066,
        -0.51893762359876028,
        -0.79045474682607708,
        -1.7932925169361815,
        0.14466924131293277,
        0.1540588049075943,
        -0.57555635444863218,
        -0.44609211659889242,
        1.7901946224472196,
        2.0986573362253305,
        0.78584735901282421,
        0.679367760330023,
        -1.1696602433479226,
        0.01409811456851261,
        -2.7451338671543333,
        5.2578235714399648,
        5.590073862747226,
        0.83597795120202967,
        0.87598998573273879,
        0.69947073658746339,
        0.55180169173134208,
        -1.3967525883454537,
        -0.48802629368023037,
        -0.84013925748820306,
        -0.10530548015182173
      ]
    },
    {
      "dualCoef": -0.12245713325599865,
      "supportVector": [
        -0.57638420500587928,
        -0.3819326192991937,
        -0.60645114035624437,
        -0.12624247367380115,
        -0.27095899347078334,
        1.8985039176288201,
        2.3983377750238066,
        -0.11381844585948656,
        0.063413285057286148,
        -0.012239704638938193,
        -0.090942223234027258,
        0.0066091681776372282,
        -0.046791079186976031,
        -0.036189359666092699,
        0.090942223234027258,
        -0.10825357549784755,
        -0.051778198514185143,
        -0.32827127553691438,
        0.5613990499401893,
        0.97000084559149991,
        1.1654349542397546,
        1.2246659439786387,
        1.3349074930596405,
        1.3426453583157962,
        -1.9365955148481078,
        -3.6816130921460051,
        4.6355067981858582,
        -0.16976007050009123,
        1.0770843559452412,
        1.1438522360591343,
        1.7812820515294339,
        2.2681351461194703,
        -1.415805165071212,
        -1.4272885795807579,
        -2.0877907369692372,
        -1.8800934094600001
      ]
    },
    {
      "dualCoef": -0.18497931507865731,
      "supportVector": [
        0.94188081978680682,
        0.40044907452174755,
        0.8032337634362996,
        0.0099521608521664136,
        -0.21231759402341555,
        1.8197848178329745,
        2.3312350809892837,
        0.51242405174629713,
        -0.38401462488706078,
        -0.024293338205679766,
        -3.3374257805181409,
        -0.049079267159481743,
        1.0931006148638438,
        0.8969103897580557,
        3.3374257805181409,
        -0.3139770031645519,
        -0.19619831036466745,
        -0.23447348698419385,
        0.64288730605732081,
        1.5657635014942834,
        1.8190172721099758,
        0.95650657066444733,
        0.81455922196764374,
        -0.46621467488208129,
        -1.2127498090802427,
        -1.9092895671349399,
        3.3533047874703565,
        0.42401067027280626,
        1.5827465987182514,
        1.6296782850060418,
        1.3866455990860103,
        1.6804743041237453,
        -0.94843379314547005,
        -0.023402441255250022,
        -0.73086165468551634,
        0.1303069703229372
      ]
    },
    {
      "dualCoef": -1.5968581010669958,
      "supportVector": [
        0.10176957819702728,
        0.28606340544594916,
        0.29062107114810176,
        -0.21730736093071568,
        0.78776380935977275,
        -0.32483065709286985,
        0.50309583131704472,
        0.46956860489027225,
        0.45133264652397098,
        0.6250641126664408,
        0.55554874082002914,
        0.5401403067300351,
        -0.45396970321244412,
        -0.11843560483177203,
        -0.55554874082002914,
        0.28454172500907082,
        0.88117320059617121,
        -0.53292099601557741,
        0.38360649113917478,
        0.35081574968160112,
        0.51501349198785851,
        0.25990473918706997,
        -0.065548408807976771,
        -0.76769134708172759,
        -1.0325914293590372,
        -0.72567625253839718,
        -0.27328484713763079,
        -0.22159916902708504,
        -0.0036811929328882517,
        0.003014605388716896,
        -0.23677101203916703,
        -0.27270655875660482,
        0.44940321357087137,
        0.52871722455889281,
        0.82968540692119641,
        0.7856704305398905
      ]
    },
    {
      "dualCoef": -0.88670615802959496,
      "supportVector": [
        0.19894405322915107,
        -0.2292827050521318,
        -0.093838448068046587,
        0.24678726606028267,
        -0.02252744901395436,
        1.4857086382115807,
        -1.0680891997351929,
        -0.13501576365924084,
        -0.50366817690631716,
        -0.48104911229858915,
        0.47196084944595135,
        -0.61075402357042374,
        -0.25871852001934426,
        -0.5164957237831026,
        -0.47196084944595135,
        -0.14876934524614305,
        -0.041493833366232892,
        0.78024804372251,
        -0.91279758345155515,
        0.83493581164964348,
        0.96331230388167255,
        0.41434126574530217,
        0.58920856760110207,
        -1.2195043864849306,
        1.0980321781500915,
        0.9600491648396976,
        -0.037743505529636269,
        -0.064551940220655024,
        1.3115381367526189,
        1.2747053961478516,
        0.17152274563641545,
        0.53667874436646346,
        0.35686212661718869,
        0.16951001477145766,
        0.95704491522360824,
        0.57314163230759108
      ]
    },
    {
      "dualCoef": -1.2046407816866274,
      "supportVector": [
        -0.77004397439614014,
        -0.076632790805069906,
        -0.44617423856746785,
        -0.45397812571626339,
        -0.62916261571086241,
        0.83099612527540079,
        -0.86187116440958667,
        -1.4957914041521616,
        0.30208393403186662,
        -0.58901889382195516,
        0.16099051230602543,
        1.494029312020686,
        -0.11210642160744362,
        0.63582978232821241,
        -0.16099051230602543,
        -0.24628776427135515,
        0.16794897079701657,
        1.2833452732325563,
        -0.32015572078150722,
        -0.53861123640553199,
        -0.51817328069302004,
        -0.53403923497647421,
        -0.35316422578864265,
        -0.81833942801126813,
        -2.2350262083078078,
        -1.6736032247425521,
        -0.31935688034278287,
        -0.25894222127868738,
        -0.029092475805743871,
        -0.0146718323978101,
        -0.47532908484708586,
        -0.45803798337774626,
        0.22310526144043724,
        -0.19285969429510388,
        0.62567434269603683,
        0.075914456418291268
      ]
    },
    {
      "dualCoef": -0.20370484494463031,
      "supportVector": [
        -0.77004397439614014,
        -0.076632790805069906,
        -0.44617423856746785,
        -0.45397812571626339,
        -0.62916261571086241,
        -0.64546699040765587,
        0.22977510195691589,
        -1.4957914041521616,
        0.30208393403186662,
        -0.58901889382195516,
        0.16099051230602543,
        1.494029312020686,
        -0.11210642160744362,
        0.63582978232821241,
        -0.16099051230602543,
        -0.24628776427135515,
        0.16794897079701657,
        -0.57555635444863218,
        0.18358986248803358,
        -0.53861123640553199,
        -0.51817328069302004,
        -0.53403923497647421,
        -0.35316422578864265,
        -0.81833942801126813,
        -2.2350262083078078,
        -1.6736032247425521,
        -0.31935688034278287,
        -0.25894222127868738,
        -0.029092475805743871,
        -0.0146718323978101,
        -0.47532908484708586,
        -0.45803798337774626,
        0.22310526144043724,
        -0.19285969429510388,
        0.62567434269603683,
        0.075914456418291268
      ]
    },
    {
      "dualCoef": -1.0965112183335763,
      "supportVector": [
        0.0045951031649034725,
        -0.3819326192991937,
        -0.31836280729027722,
        0.39379314399511428,
        0.71583421102285372,
        -0.62434723192584363,
        0.24777826377105613,
        0.53362136954605144,
        -0.42888470689428188,
        -0.048657065627816985,
        0.8810468879769543,
        -0.52572436961482272,
        -0.014480830010893668,
        -0.26917160575819499,
        -0.8810468879769543,
        0.80120024948011148,
        -0.25958184278000535,
        -0.57555635444863218,
        0.087285559804150786,
        -0.43424634642503146,
        -0.35121351273565571,
        -0.53006349804855446,
        -0.38548213551071614,
        -0.96867579521482505,
        -2.0903986103770067,
        -1.5533342848285805,
        -0.31037974647107552,
        -0.25408943375882354,
        -0.019205813977271377,
        -0.033679171743527601,
        -0.53128128593460444,
        -0.42301438769467659,
        -1.0160898819267339,
        -0.93420223364364041,
        -0.55358036380777642,
        -0.62084038023341703
      ]
    },
    {
      "dualCoef": -0.042117965989867771,
      "supportVector": [
        -0.18906466622535745,
        0.5909561675020808,
        0.40237063806692891,
        -0.39726961386603116,
        0.559553437126174,
        -0.530268307779589,
        0.32797416639768073,
        0.4045942177214602,
        -0.13102373697400543,
        0.11958088372925689,
        1.1275120394881071,
        -0.2736294096478647,
        -0.81181439838841007,
        -0.81767503437201372,
        -1.1275120394881071,
        0.66663529602515725,
        0.097228705643780722,
        -0.57555635444863218,
        0.3095262583054188,
        -0.39463560986704815,
        -0.35192059845966212,
        -0.43775012680073005,
        -0.25173117177642856,
        -1.1696602433479226,
        -2.1761790980866196,
        -1.6215511062664576,
        -0.30442067703815057,
        -0.23826444835927538,
        -0.0083040924872458816,
        -0.01967815520065477,
        -0.49232202732609154,
        -0.43238172456957363,
        -1.0584721444391347,
        -0.40711902045591447,
        -0.49815539260209718,
        -0.023849373962912961
      ]
    },
    {
      "dualCoef": -0.70393113650807415,
      "supportVector": [
        0.7806125420739205,
        -0.1910184598808683,
        0.22671535550950644,
        0.55353055164254605,
        0.57573037490475831,
        -0.86434448740098291,
        0.043196879519462682,
        0.36173877086543527,
        0.34695401603908776,
        0.48093343044284997,
        1.1584921670603177,
        -1.0885967267857026,
        -0.079448750397209819,
        -0.59903466021271667,
        -1.1584921670603177,
        0.52410814079123047,
        -0.15393802182728494,
        -0.57555635444863218,
        0.094693583087526387,
        -0.68537254312289553,
        -0.66759959819565462,
        -0.65836112307390038,
        -0.57077472853060618,
        0.48886342264639804,
        -2.0591165853488329,
        -1.5298990063044349,
        -0.31375265661088469,
        -0.25611633292408625,
        0.092198770074569433,
        0.1014286622555209,
        -0.61886382575118715,
        -0.56166594238175227,
        -0.77307232164920581,
        -0.34913986700526461,
        -1.0205652275832866,
        -0.51285134043248581
      ]
    },
    {
      "dualCoef": -0.57735558817767174,
      "supportVector": [
        2.6538056139697539,
        -0.45805404320372856,
        0.93138693650834903,
        3.4872903181197468,
        0.90389111269889533,
        0.072604797973960772,
        -1.4019660188337935,
        2.0676620424891374,
        -0.87631261683862871,
        0.44451606945397115,
        1.3084242938956392,
        -2.4352987813360314,
        0.16478893961124072,
        -1.0515353542559205,
        -1.3084242938956392,
        0.61937673359608869,
        -0.35027824660710499,
        -0.021296694818919926,
        -0.34237979063163404,
        -0.69454824002858739,
        -0.65575495133113004,
        -0.7036948337410861,
        -0.65283721191363653,
        0.3875672607873169,
        -1.9995373696025016,
        -1.4868338081109203,
        -0.29715222346438741,
        -0.23541778952885942,
        0.0056517242855177105,
        0.014696388029088131,
        -0.5730003395558132,
        -0.5192806648656012,
        -1.6055532761359059,
        -0.3699596539261798,
        -1.8126313054516809,
        -0.50038086163483531
      ]
    },
    {
      "dualCoef": -0.11845803562257805,
      "supportVector": [
        0.7806125420739205,
        -0.1910184598808683,
        0.22671535550950644,
        0.55353055164254605,
        0.57573037490475831,
        -0.86434448740098291,
        0.043196879519462682,
        0.36173877086543527,
        0.34695401603908776,
        0.48093343044284997,
        1.1584921670603177,
        -1.0885967267857026,
        -0.079448750397209819,
        -0.59903466021271667,
        -1.1584921670603177,
        0.52410814079123047,
        -0.15393802182728494,
        -0.57555635444863218,
        0.094693583087526387,
        0.25455546084417613,
        0.23610573134085236,
        0.13222264791131721,
        0.065044500181553749,
        0.9406764620496012,
        1.4844231471751965,
        1.3207534892647963,
        -0.082419943931708928,
        -0.087017508054540435,
        0.50271801633432789,
        0.52640799364965285,
        2.2307335278684901,
        2.6609959792026041,
        -0.67003287609153384,
        -0.27930134125789097,
        -1.1373114435271641,
        -0.59165415326019233
      ]
    },
    {
      "dualCoef": -0.34345752525923884,
      "supportVector": [
        1.2974980475639408,
        -0.49631828837499209,
        0.22671535550950644,
        2.3362374903959346,
        0.1817063904406713,
        -0.53602824191099241,
        -1.2350276092844932,
        1.4635384851961408,
        0.033499897052472062,
        0.84151659629048092,
        0.3673298525511266,
        -1.2568596335569975,
        0.53930989242647498,
        -0.15999776431051391,
        -0.3673298525511266,
        0.35295164705574594,
        -0.36964248135710492,
        -0.12362155505825141,
        -0.4238680467487656,
        -0.58033580806097673,
        -0.56473048652834767,
        -0.57838974762503048,
        -0.63853174165675386,
        -0.71704326615218694,
        -1.652222886464036,
        -1.2108996188186016,
        -0.31908106072889791,
        -0.2550858153687135,
        0.021750389623013032,
        0.031170851054860168,
        -0.63783222383464577,
        -0.56125880959418384,
        -1.581057106059931,
        -0.89677932550731188,
        -1.2477683010363545,
        -0.66621169670997527
      ]
    },
    {
      "dualCoef": -0.26359590716687448,
      "supportVector": [
        -0.64116718836062847,
        -0.21015058246650006,
        -0.49435983164255848,
        -0.32254985329007979,
        -0.70022559238107163,
        1.1765921731596014,
        -0.98298334388652997,
        -1.0211558099402727,
        -1.2941453663101277,
        -1.6112696043971022,
        -0.42675511550261258,
        0.34313498172022711,
        -0.24204226238007592,
        -0.036189359666092699,
        0.42675511550261258,
        -0.2939698593425733,
        -0.24582038632253403,
        0.012811591927523904,
        -0.08309897571348801,
        -0.41293585257997334,
        -0.40945437653135824,
        -0.47310270637363133,
        -0.29377663301711038,
        -1.1696602433479226,
        -1.9838379181943173,
        -1.4676058517311814,
        -0.24989580070747772,
        -0.17569032139810165,
        1.0729145246738474,
        1.085701402012007,
        -0.3852076059961641,
        -0.30666273080983897,
        -0.25048736002840943,
        -0.55101273765616365,
        0.3186750341028774,
        -0.16871919148455528
      ]
    },
    {
      "dualCoef": -0.73665255243265337,
      "supportVector": [
        -0.54399271332850463,
        -0.2292827050521318,
        -0.46223610292583139,
        -0.24658805568567452,
        -0.28800255291607735,
        -0.78946534369273946,
        0.10702627140595984,
        -0.0059886118346496198,
        0.21266199754939047,
        0.16805187828487725,
        0.28491102259486811,
        -0.16225253897362676,
        -0.17707434199375977,
        -0.22848752007125753,
        -0.28491102259486811,
        -0.044875752283463986,
        0.13911409322301274,
        -0.14920277011808428,
        0.71696753889107689,
        -0.13762612665657473,
        -0.37121574039848787,
        0.19646717441296044,
        0.43850680228993177,
        -1.1696602433479226,
        0.36160871202262668,
        0.40848324318406992,
        -0.23316362864152582,
        -0.17874760296465544,
        1.3433373455657687,
        1.3387084233871192,
        -0.6073783658321823,
        -0.53283810802953668,
        0.64848319895022233,
        0.083068367808670607,
        1.2274873279151493,
        0.46966319122070371
      ]
    },
    {
      "dualCoef": -0.3842231927006895,
      "supportVector": [
        -0.25384764958010664,
        0.076017123441991991,
        -0.062056461146178313,
        -0.2656569424608734,
        -0.24929345180303664,
        -0.54370815408619677,
        0.31651760887959152,
        -0.99995849214051824,
        0.48092780699681892,
        -0.16893694100657863,
        0.4450724368361082,
        0.62457116030566706,
        0.39304521604872583,
        0.63641516485608207,
        -0.4450724368361082,
        0.092118446069803656,
        0.20092017848213758,
        -0.24300055867080481,
        0.63547928277394528,
        -0.58033580806097673,
        -0.56473048652834767,
        -0.57838974762503048,
        -0.63853174165675386,
        -0.71704326615218694,
        -1.652222886464036,
        -1.2108996188186016,
        -0.31908106072889791,
        -0.2550858153687135,
        0.021750389623013032,
        0.031170851054860168,
        -0.63783222383464577,
        -0.56125880959418384,
        0.13250831496897478,
        0.041955877180027988,
        0.48455686281774712,
        0.27889139855026263
      ]
    },
    {
      "dualCoef": -0.31371979044224924,
      "supportVector": [
        0.94188081978680682,
        1.4881305968368126,
        1.7163678392990094,
        -0.31313787338049032,
        0.90937971658805772,
        -0.80866512413075053,
        0.090659760665832353,
        0.92300688130240705,
        1.3761018544174788,
        1.6226946355307963,
        1.5597724987267825,
        -1.2844044510355723,
        -1.3986102140701639,
        -1.8060934326798397,
        -1.5597724987267825,
        0.89335722844326904,
        1.8262408354789008,
        -0.57555635444863218,
        0.057653466670648384,
        -0.35305056013539188,
        -0.4387784992789005,
        -0.26320267770460687,
        -0.14258218328736391,
        -1.2195043864849306,
        -2.1543538262825623,
        -1.6381036667430493,
        -0.26068389286228671,
        -0.21825445607369021,
        0.97026644136435469,
        0.96236607271227093,
        -0.58350469908574876,
        -0.53622436686928965,
        -1.1070756564946402,
        0.57325575607325574,
        -0.52291974143867725,
        0.97962617524377427
      ]
    },
    {
      "dualCoef": -0.045387434631629968,
      "supportVector": [
        -0.41511592729299296,
        -0.36280049671356196,
        -0.51042169600092202,
        -0.010884632031989422,
        -0.23369426180225908,
        0.23580293169705546,
        -0.87169107085366315,
        -1.258473607046217,
        0.078051751527727087,
        -0.63748988837757548,
        0.055774984702291155,
        0.20301569280747619,
        -0.16074550638864288,
        -0.036189359666092699,
        -0.055774984702291155,
        -0.089347270884353278,
        -0.085510736505142154,
        0.92520826239489629,
        -0.060874905863361216,
        -0.010916367503779129,
        -0.072722201642810555,
        0.17171034345530509,
        -0.025878048267531081,
        1.6939661736524507,
        -2.4087543878141595,
        -3.6625645871422998,
        4.2876378352102185,
        -0.14176284594032992,
        1.2770051945843039,
        1.2989137677678961,
        -0.27189810812763682,
        -0.19945559008335073,
        0.55749742438231586,
        -0.015759734664027997,
        -0.26466296071434214,
        -0.57493840508461824
      ]
    },
    {
      "dualCoef": -0.16934930295224931,
      "supportVector": [
        -0.64116718836062847,
        -0.21015058246650006,
        -0.49435983164255848,
        -0.32254985329007979,
        -0.70022559238107163,
        -0.64546699040765587,
        0.22977510195691589,
        -1.0211558099402727,
        -1.2941453663101277,
        -1.6112696043971022,
        -0.42675511550261258,
        0.34313498172022711,
        -0.24204226238007592,
        -0.036189359666092699,
        0.42675511550261258,
        -0.2939698593425733,
        -0.24582038632253403,
        -0.57555635444863218,
        -0.053466882579985615,
        -0.41293585257997334,
        -0.40945437653135824,
        -0.47310270637363133,
        -0.29377663301711038,
        -1.1696602433479226,
        -1.9838379181943173,
        -1.4676058517311814,
        -0.24989580070747772,
        -0.17569032139810165,
        1.0729145246738474,
        1.085701402012007,
        -0.3852076059961641,
        -0.30666273080983897,
        -0.25048736002840943,
        -0.55101273765616365,
        0.3186750341028774,
        -0.16871919148455528
      ]
    },
    {
      "dualCoef": -2.2627416997969525,
      "supportVector": [
        -0.28554996058349458,
        0.018620755685096715,
        -0.12596217678477364,
        -0.25244041146372859,
        -0.27038124569297683,
        -0.75874569499192157,
        0.1332126885901638,
        -0.93452329371518994,
        -0.11574881543963228,
        -0.61338262124409237,
        -0.068730056295461125,
        -0.049678067539450768,
        -0.35599668958174274,
        -0.3241975633779377,
        0.068730056295461125,
        -0.081273438370711923,
        0.14523888699523566,
        -0.53292099601557741,
        0.38360649113917478,
        -0.59761736363976148,
        -0.54646444067720878,
        -0.64849479279346167,
        -0.64329522158484198,
        -0.96867579521482505,
        -1.4689666925263023,
        -1.0596524214301088,
        -0.29838602408065928,
        -0.25290959610245656,
        -0.026623282978723777,
        -0.032473948985347056,
        -0.57223955641046387,
        -0.50140090410744464,
        0.5512761748392111,
        0.27650790704856598,
        1.0309448768311804,
        0.59808258990289209
      ]
    },
    {
      "dualCoef": -1.4140390267639342,
      "supportVector": [
        -0.28554996058349458,
        0.018620755685096715,
        -0.12596217678477364,
        -0.25244041146372859,
        -0.27038124569297683,
        -0.76834558521092711,
        0.12502943322010007,
        -0.93452329371518994,
        -0.11574881543963228,
        -0.61338262124409237,
        -0.068730056295461125,
        -0.049678067539450768,
        -0.35599668958174274,
        -0.3241975633779377,
        0.068730056295461125,
        -0.081273438370711923,
        0.14523888699523566,
        -0.055404981565363755,
        0.7984557950082084,
        -0.59761736363976148,
        -0.54646444067720878,
        -0.64849479279346167,
        -0.64329522158484198,
        -0.96867579521482505,
        -1.4689666925263023,
        -1.0596524214301088,
        -0.29838602408065928,
        -0.25290959610245656,
        -0.026623282978723777,
        -0.032473948985347056,
        -0.57223955641046387,
        -0.50140090410744464,
        0.5512761748392111,
        0.27650790704856598,
        1.0309448768311804,
        0.59808258990289209
      ]
    },
    {
      "dualCoef": -0.10074160792466923,
      "supportVector": [
        -0.73834166339275231,
        -0.40106474188482549,
        -0.70282232650642562,
        -0.25276291584189176,
        -0.5375895929285196,
        -0.1558725892383718,
        -0.529630996384999,
        -0.43776875919051378,
        -0.1606188974468534,
        -0.37307933077522315,
        0.17268112648421813,
        -0.077222885018025739,
        0.42570288725895961,
        0.32089398233436561,
        -0.17268112648421813,
        -0.16330850286127363,
        -0.30723013369514929,
        -0.072459124938585667,
        -0.08309897571348801,
        -0.20782267011445776,
        -0.12135062045370387,
        -0.49907289698057394,
        -0.35289170776333417,
        -1.0691680192813737,
        -1.0252386733198904,
        -0.71179610102448854,
        -0.29205231306975143,
        -0.22645651738518111,
        0.42038793665276236,
        0.40302125023312829,
        -0.49960566636701015,
        -0.39411084665708285,
        0.52872414524545652,
        -0.18363573806431868,
        1.0572815652764322,
        0.167983736052009
      ]
    },
    {
      "dualCoef": -0.3918219262278354,
      "supportVector": [
        1.1355405891770678,
        -0.26713988378540315,
        0.33880666422319239,
        0.97439707164621359,
        0.51882221879081014,
        -0.88930420197039739,
        0.021920415557296964,
        1.3119315818022461,
        0.09332667306210024,
        0.80535569559025622,
        1.126050712715833,
        -0.86344778391735066,
        0.27874336681290757,
        -0.18721805185645046,
        -1.126050712715833,
        1.0630044772429432,
        -0.066865402004947519,
        -0.57555635444863218,
        0.21322195562153598,
        0.82764868758565269,
        1.0036779870803989,
        -0.34104690462440612,
        -0.1146513261615342,
        -1.3199966105514795,
        0.50492685014692151,
        0.5058934859384927,
        -0.1884522299791434,
        -0.10593498926753372,
        1.5716954888754233,
        1.5961466843502878,
        -0.23052264529164665,
        -0.39622058849460151,
        -1.3185981409602008,
        -0.63244709409366728,
        -0.68762231544704311,
        -0.20108937049122261
      ]
    },
    {
      "dualCoef": -0.046304171829089094,
      "supportVector": [
        0.32782083926466277,
        0.66789172428260002,
        0.72326618343934068,
        -0.27528601489526455,
        0.62079470157367156,
        -0.5782677588746169,
        -0.74075898493264336,
        0.8147162360210537,
        0.6604081350257035,
        0.98564727851407163,
        0.58185262272096272,
        -0.27422821002783371,
        -0.74719390003624542,
        -0.76352715054407538,
        -0.58185262272096272,
        0.55601457010153821,
        0.63355288699070433,
        0.191880097346354,
        -0.15717920854724401,
        1.8989986437469968,
        1.4494046393019759,
        2.9437330727935773,
        1.639449037868175,
        -1.0193238761443657,
        -1.2303881867280155,
        -0.92138879713176047,
        -0.089594941729429139,
        -0.099684441514101191,
        0.31502332123591126,
        0.31275580940231501,
        0.28164997142998105,
        -0.2513394479171514,
        -0.93599129405926051,
        -0.076637845787210335,
        -0.44784052512460115,
        0.25925702767736608
      ]
    },
    {
      "dualCoef": -0.24464495516648871,
      "supportVector": [
        0.32782083926466277,
        0.66789172428260002,
        0.72326618343934068,
        -0.27528601489526455,
        0.62079470157367156,
        0.52379963826722253,
        1.2264956060306791,
        0.8147162360210537,
        0.6604081350257035,
        0.98564727851407163,
        0.58185262272096272,
        -0.27422821002783371,
        -0.74719390003624542,
        -0.76352715054407538,
        -0.58185262272096272,
        0.55601457010153821,
        0.63355288699070433,
        -0.5073397809557445,
        0.40583056098930159,
        2.1609249882613537,
        2.1968182192681103,
        2.6632190850042661,
        3.2988029983479827,
        0.48886342264639804,
        -1.1451480408179393,
        -1.1314364265986596,
        0.87248446468060525,
        0.21563136988577716,
        1.4731181198189323,
        1.3194251487212831,
        1.6799389808788525,
        1.5052041265871903,
        -0.28548188870837349,
        0.36426726204432236,
        -0.52763676026469253,
        0.20539517244496058
      ]
    },
    {
      "dualCoef": -0.1211251698999677,
      "supportVector": [
        -0.091890191193233633,
        -0.53458253354625562,
        -0.49435983164255848,
        0.83195831136272969,
        -0.64909491404518938,
        0.084124666236767454,
        -0.52472104316296075,
        0.49122673394654287,
        -0.42888470689428188,
        -0.072251412183991975,
        -0.13770467994679805,
        -0.47003593427770368,
        -0.014480830010893668,
        -0.24195131821225843,
        0.13770467994679805,
        -0.16185299313340717,
        -0.28754771259965478,
        0.62676075336351278,
        -0.23125944138100002,
        1.8433298956606194,
        1.5950453115694014,
        2.4500632366784285,
        2.0277114863388648,
        0.53870756578340617,
        -0.75830662027669593,
        -0.55132611389355379,
        0.025509919382392287,
        0.00090068913647872652,
        0.048143712939717073,
        0.032722263983001154,
        1.3127092618547282,
        0.51501410892166344,
        -0.37063524182961932,
        -0.63244709409366728,
        -0.63809361777388296,
        -0.81453079560118047
      ]
    },
    {
      "dualCoef": -0.19920982537458867,
      "supportVector": [
        -0.091890191193233633,
        -0.53458253354625562,
        -0.49435983164255848,
        0.83195831136272969,
        -0.64909491404518938,
        0.084124666236767454,
        -0.52472104316296075,
        0.49122673394654287,
        -0.42888470689428188,
        -0.072251412183991975,
        -0.13770467994679805,
        -0.47003593427770368,
        -0.014480830010893668,
        -0.24195131821225843,
        0.13770467994679805,
        -0.16185299313340717,
        -0.28754771259965478,
        0.62676075336351278,
        -0.23125944138100002,
        1.6809382109624418,
        1.0634439779255624,
        3.255014623744136,
        5.1439826266679169,
        -1.0193238761443657,
        -0.73668664572897791,
        -0.47147939392400184,
        -0.17941554034847834,
        -0.14238686579349483,
        0.26011975824708855,
        0.31382691801155649,
        0.26075977244697501,
        0.35333958296822104,
        -1.6102192132932345,
        -1.4726177359149024,
        -1.1294497454838053,
        -1.1461924657514606
      ]
    },
    {
      "dualCoef": -0.48009962610311485,
      "supportVector": [
        0.32782083926466277,
        0.66789172428260002,
        0.72326618343934068,
        -0.27528601489526455,
        0.62079470157367156,
        0.52379963826722253,
        1.2264956060306791,
        0.8147162360210537,
        0.6604081350257035,
        0.98564727851407163,
        0.58185262272096272,
        -0.27422821002783371,
        -0.74719390003624542,
        -0.76352715054407538,
        -0.58185262272096272,
        0.55601457010153821,
        0.63355288699070433,
        -0.5073397809557445,
        0.40583056098930159,
        1.8989986437469968,
        1.4494046393019759,
        2.9437330727935773,
        1.639449037868175,
        -1.0193238761443657,
        -1.2303881867280155,
        -0.92138879713176047,
        -0.089594941729429139,
        -0.099684441514101191,
        0.31502332123591126,
        0.31275580940231501,
        0.28164997142998105,
        -0.2513394479171514,
        -0.93599129405926051,
        -0.076637845787210335,
        -0.44784052512460115,
        0.25925702767736608
      ]
    },
    {
      "dualCoef": -0.27365873523502643,
      "supportVector": [
        -0.83482695775088944,
        -0.13402915856196518,
        -0.52648356035928556,
        -0.47248493856805196,
        -0.49454738348192945,
        0.15324387581360754,
        0.91062194874621882,
        -0.0055278005781332221,
        0.28680901249749347,
        0.22806358582993105,
        -1.1971665898455117,
        1.101216262761008,
        0.73525591968787773,
        1.1576983059239643,
        1.1971665898455117,
        -0.20981734302929855,
        -0.27777843616121739,
        -0.57555635444863218,
        0.13914172278777998,
        2.1609249882613537,
        2.1968182192681103,
        2.6632190850042661,
        3.2988029983479827,
        0.48886342264639804,
        -1.1451480408179393,
        -1.1314364265986596,
        0.87248446468060525,
        0.21563136988577716,
        1.4731181198189323,
        1.3194251487212831,
        1.6799389808788525,
        1.5052041265871903,
        -1.1420701851746045,
        -1.1800865525957145,
        -1.3936027997406595,
        -1.3494347372195521
      ]
    },
    {
      "dualCoef": -0.042805051890021921,
      "supportVector": [
        -0.7376524827187656,
        -0.61111102388878269,
        -0.87881935085870688,
        0.17247570198166295,
        -0.58092067626401311,
        -0.67426666106467259,
        0.2052253358467247,
        -0.39445250107797242,
        -0.026326878957156116,
        -0.2407458218297199,
        -0.016414557848048791,
        0.23115931066602019,
        0.36038754483849206,
        0.41660402564104587,
        0.016414557848048791,
        -0.10676994114437832,
        -0.3902909352999116,
        -0.47323149420930066,
        0.43546265412280399,
        1.6809382109624418,
        1.0634439779255624,
        3.255014623744136,
        5.1439826266679169,
        -1.0193238761443657,
        -0.73668664572897791,
        -0.47147939392400184,
        -0.17941554034847834,
        -0.14238686579349483,
        0.26011975824708855,
        0.31382691801155649,
        0.26075977244697501,
        0.35333958296822104,
        -0.71708107576126334,
        -1.163746972986895,
        -0.22653372520405221,
        -0.83522648381855802
      ]
    },
    {
      "dualCoef": -0.47163729857057018,
      "supportVector": [
        -0.44750741897036755,
        0.45784544227864282,
        0.16246789807605233,
        -0.44765741469933873,
        -0.67191595126854931,
        2.6453753766674537,
        -1.0500860379210526,
        -0.11427925711600295,
        -0.48839325537194395,
        -0.45719830545376011,
        -0.44282970999762755,
        0.5401403067300351,
        -0.9101348340532629,
        -0.50273923437816681,
        0.44282970999762755,
        -0.3125049015607298,
        0.24992311035063561,
        1.4879949937112193,
        -3.9426791063521756,
        0.12331171623640035,
        0.31443168119605086,
        -0.3012867839312392,
        -0.23046475225519197,
        -0.81753549021873573,
        -0.61553779723303004,
        -0.40361908903288707,
        -0.26227245827126433,
        -0.19252804877824425,
        0.18272971655093798,
        0.13482370422588122,
        0.18696008884650669,
        -0.11896968976319708,
        -1.1541238561643699,
        -0.65695646350689652,
        -0.76702546568496655,
        -0.39159583382554342
      ]
    },
    {
      "dualCoef": -1.4993934521244781,
      "supportVector": [
        0.069378086519652674,
        -0.66810032520768581,
        -0.52648356035928556,
        2.5657843095786665,
        -0.30215737347233868,
        -0.49378872494736786,
        0.35907053680392292,
        0.38293608866518958,
        -0.84671745636578077,
        -0.46925193902050166,
        -0.40278935643731756,
        -0.49877835251621672,
        0.19744661082147452,
        -0.077458827880899764,
        0.40278935643731756,
        -0.20042496887327349,
        -0.50255956204168695,
        -0.21741934361097195,
        0.65770335262407209,
        0.12331171623640035,
        0.31443168119605086,
        -0.3012867839312392,
        -0.23046475225519197,
        -0.81753549021873573,
        -0.61553779723303004,
        -0.40361908903288707,
        -0.26227245827126433,
        -0.19252804877824425,
        0.18272971655093798,
        0.13482370422588122,
        0.18696008884650669,
        -0.11896968976319708,
        0.48634188273305562,
        -0.07637430418061647,
        0.89139973656156257,
        0.19292469364731005
      ]
    },
    {
      "dualCoef": -0.12555183918489701,
      "supportVector": [
        0.7151403780451846,
        0.19080985895578254,
        0.51480368857547365,
        0.064045399325770566,
        1.1124580604870702,
        -0.83170486065636395,
        -1.2988570011709903,
        0.94420419910216125,
        0.27217054602705254,
        0.74483106746789429,
        1.5217780026476562,
        -0.61075402357042374,
        0.050834512409573908,
        -0.25570780761719408,
        -1.5217780026476562,
        0.074454664848689872,
        -0.036927493083217494,
        4.2678203635463916,
        -0.77204514106741873,
        3.5109912916173993,
        4.0572903013739285,
        2.1743300883833068,
        2.4287751305321432,
        -0.71784720394471935,
        -0.61393977154432156,
        -0.35074320838661732,
        -0.073027524418259701,
        0.01726977637907564,
        0.22474423856742973,
        0.18955762177880423,
        1.9417257671903283,
        1.2480497066557232,
        -0.67119936038086603,
        -0.057926391719046066,
        -0.32755654506121218,
        0.17859690949681795
      ]
    },
    {
      "dualCoef": -0.35108831030343779,
      "supportVector": [
        0.7151403780451846,
        0.19080985895578254,
        0.51480368857547365,
        0.064045399325770566,
        1.1124580604870702,
        -0.82978488261256278,
        0.072656598851692136,
        0.94420419910216125,
        0.27217054602705254,
        0.74483106746789429,
        1.5217780026476562,
        -0.61075402357042374,
        0.050834512409573908,
        -0.25570780761719408,
        -1.5217780026476562,
        0.074454664848689872,
        -0.036927493083217494,
        -0.4220690640896349,
        0.47991079382305762,
        3.5109912916173993,
        4.0572903013739285,
        2.1743300883833068,
        2.4287751305321432,
        -0.71784720394471935,
        -0.61393977154432156,
        -0.35074320838661732,
        -0.073027524418259701,
        0.01726977637907564,
        0.22474423856742973,
        0.18955762177880423,
        1.9417257671903283,
        1.2480497066557232,
        -0.67119936038086603,
        -0.057926391719046066,
        -0.32755654506121218,
        0.17859690949681795
      ]
    },
    {
      "dualCoef": -0.47030900358297367,
      "supportVector": [
        1.7172090780218372,
        0.80140951594403009,
        1.5243089505883647,
        0.028164538008668982,
        0.77591997991473782,
        -0.43618938363333443,
        -1.0844557104753203,
        1.2902734527459756,
        0.21298022508135658,
        0.88973113055744724,
        0.77767041020569061,
        -1.1161415442642777,
        -1.0567469324651635,
        -1.4358389838023153,
        -0.77767041020569061,
        0.25832877684562788,
        0.62917022331160599,
        0.046919878673967734,
        -0.28311560436462924,
        0.55681028852532399,
        0.24102796991598494,
        0.99822494895785208,
        0.57666863643591482,
        -1.2701524674144713,
        -1.5769919828746388,
        -1.1451736027152111,
        -0.27713107868104547,
        -0.22244669244874149,
        0.15972583583053282,
        0.15469895762466054,
        0.031563495521460094,
        -0.11978753318202777,
        -1.1016320631444236,
        0.42883495565981877,
        -0.49265220397174603,
        0.85094144722546561
      ]
    },
    {
      "dualCoef": -1.4239725448266249,
      "supportVector": [
        0.32782083926466277,
        -0.49631828837499209,
        -0.2541153498568231,
        1.1622592371924405,
        -0.060658802349188544,
        0.54299941870523372,
        -1.2448475157285697,
        -0.891667846859165,
        -0.98100947485547807,
        -1.286847339249696,
        -0.56295077067855759,
        -0.52692197037476074,
        0.27909078884705901,
        -0.02243287026115701,
        0.56295077067855759,
        -0.1403379244372035,
        -0.41368488126423775,
        0.14924473891329923,
        -0.46090816316564359,
        -0.1636272756963339,
        -0.20586562102800934,
        -0.063705433280505444,
        -0.086773985851686428,
        0.63919978984995496,
        -1.0755873941030365,
        -0.74595432015069085,
        -0.20437119125581324,
        -0.20085976298730623,
        -0.028354013047536292,
        -0.054574465123059711,
        0.082508492265360167,
        -0.5102570879437337,
        0.41129806011935499,
        0.082804826202076742,
        0.10326450771484755,
        -0.12759314438592054
      ]
    },
    {
      "dualCoef": -0.053281641404429439,
      "supportVector": [
        -0.47920972997375549,
        -0.4775932322273525,
        -0.63857486907297145,
        0.13820879780032116,
        -0.25160444291426298,
        0.084124666236767454,
        -0.77512865748691107,
        -0.0055278005781332221,
        -1.0704314113379543,
        -0.86573954527970309,
        0.41935308564408419,
        0.20301569280747619,
        0.34440613126752656,
        0.38938373809510929,
        -0.41935308564408419,
        0.12294075372476919,
        -0.36162810175671956,
        0.25156959915263072,
        -0.12013909213036601,
        3.3219714575575572,
        3.0876481635931912,
        3.6100609237050825,
        3.3539950997488703,
        0.73969201391650374,
        1.4413484943868977,
        1.4878724609224947,
        0.37350530902625489,
        0.3553382588826034,
        1.4715034354890502,
        1.4063985199336646,
        2.509691736737468,
        2.5385108823088882,
        -0.50594741939214694,
        -0.83537413117094172,
        -0.87315838927030986,
        -1.085166718443809
      ]
    },
    {
      "dualCoef": -0.67549976221285202,
      "supportVector": [
        0.069378086519652674,
        -0.62983608003642222,
        -0.49435983164255848,
        1.9160673390628979,
        -0.093301551795260299,
        0.078364732105364113,
        -1.449428899980163,
        -0.32993892516567686,
        -0.040965345427597055,
        -0.21663855469623677,
        -1.492939128553787,
        -0.41374869856061569,
        0.44133687879577366,
        0.16957259888007303,
        1.492939128553787,
        -0.23100265491153779,
        -0.37535941395076522,
        1.2321828431128907,
        -0.72759700136716521,
        1.6119578166266442,
        1.2668729853806449,
        2.0635126185839989,
        2.8389229645995231,
        0.58855170892041442,
        -0.40024030919452025,
        -0.29236220302379634,
        -0.017979828925029719,
        -0.037284598923352813,
        0.55977412647848102,
        0.58258103519753113,
        1.4832365127252127,
        1.3718461725589606,
        -0.30259032495191146,
        -0.58632731293974127,
        -0.59367502382890602,
        -0.7845485806195952
      ]
    },
    {
      "dualCoef": -0.052572604572158087,
      "supportVector": [
        -0.47920972997375549,
        -0.2292827050521318,
        -0.43011237420910436,
        -0.20356645991179848,
        0.44255951212034178,
        -0.30563087665485866,
        0.51946234205717212,
        0.058985775334162376,
        -0.011051957422782964,
        0.023921196061286527,
        0.62452336447136614,
        -0.13410892111508277,
        -0.11210642160744362,
        -0.15999776431051391,
        -0.62452336447136614,
        0.069763435127429219,
        0.08539511331459021,
        -0.17478398517791716,
        0.69474346904095008,
        1.6119578166266442,
        1.2668729853806449,
        2.0635126185839989,
        2.8389229645995231,
        0.58855170892041442,
        -0.40024030919452025,
        -0.29236220302379634,
        -0.017979828925029719,
        -0.037284598923352813,
        0.55977412647848102,
        0.58258103519753113,
        1.4832365127252127,
        1.3718461725589606,
        1.5929466452128074,
        0.74798384124498685,
        1.3226138742397904,
        0.558813848157099
      ]
    },
    {
      "dualCoef": -1.4971991593118152,
      "supportVector": [
        0.90948932810943228,
        -0.34407544056592237,
        0.16212615628119353,
        1.0544847591484816,
        0.74732146491331219,
        2.3612186261848884,
        -2.0468065419948158,
        0.14515748030272863,
        -0.42920293442624802,
        -0.26510954925185715,
        0.40941606359262039,
        -1.1155427438843086,
        0.034853098838608439,
        -0.51591034125523294,
        -0.40941606359262039,
        -0.028342329582695582,
        -0.2092702230101669,
        2.6647308864635315,
        -1.2239345613533303,
        -0.13777750873665573,
        -0.33291421344398314,
        0.36423325696886166,
        -0.13158186279977657,
        0.1367386695172112,
        0.51716977958332333,
        0.56040550523605748,
        -0.15260779957543183,
        -0.23107716430538619,
        0.023973297582602787,
        -0.043991276562008859,
        0.35100424165489102,
        -0.34846910940655884,
        -0.50283679462059461,
        -0.21578781406876998,
        -0.57520003342701298,
        -0.26238044713499437
      ]
    },
    {
      "dualCoef": -0.14477578165434163,
      "supportVector": [
        -0.44750741897036755,
        -0.21015058246650006,
        -0.39833038728723608,
        -0.19797243199026079,
        0.55550920268152804,
        0.88859546658943422,
        -1.0288095739588869,
        0.036866835021375319,
        0.18274860954457639,
        0.16779541799622319,
        0.19284743594160056,
        -0.13351012073511373,
        -0.09577758600232672,
        -0.1459485836416434,
        -0.19284743594160056,
        0.022837341658541913,
        -0.095277967885129308,
        1.1383850545601701,
        -0.56462048913290197,
        2.1296677382294056,
        2.188190088069915,
        1.5770002459775072,
        0.90300367818026916,
        -0.06424577861588629,
        -1.8770205444948003,
        -3.266869743730084,
        4.1786965949392592,
        0.28016762181227617,
        1.5506888346473415,
        1.5512754215608469,
        1.0368248614656974,
        1.353210520680556,
        -0.52033405896057661,
        -0.65985542117942908,
        -0.49461762848258573,
        -0.64312804446751581
      ]
    },
    {
      "dualCoef": -1.0107985819600014,
      "supportVector": [
        0.90948932810943228,
        -0.34407544056592237,
        0.16212615628119353,
        1.0544847591484816,
        0.74732146491331219,
        2.3612186261848884,
        -2.0468065419948158,
        0.14515748030272863,
        -0.42920293442624802,
        -0.26510954925185715,
        0.40941606359262039,
        -1.1155427438843086,
        0.034853098838608439,
        -0.51591034125523294,
        -0.40941606359262039,
        -0.028342329582695582,
        -0.2092702230101669,
        2.6647308864635315,
        -1.2239345613533303,
        0.58519233060755582,
        0.5530595973761061,
        1.4238103037520458,
        1.3871615173838856,
        1.1416609101826987,
        -0.20087605176354567,
        0.19136374798054825,
        0.21832178373958291,
        0.11725558655218224,
        1.0505626566833677,
        0.9010059215375491,
        2.4604112843477379,
        2.1048976679037441,
        0.081183006238360861,
        0.18005167903521216,
        -0.47614263808069268,
        -0.19551745443269788
      ]
    },
    {
      "dualCoef": -0.76577597044611612,
      "supportVector": [
        -0.47920972997375549,
        -0.36280049671356196,
        -0.54220368292279031,
        -0.065858298370725599,
        0.2747237826675305,
        -0.54178817604239571,
        0.31815425995360425,
        -0.89120703560264858,
        0.018861430582031123,
        -0.4807926520099351,
        -0.072821771257828571,
        1.409598458445054,
        0.01817684119934012,
        0.70431953808895609,
        0.072821771257828571,
        -0.17527778611285191,
        -0.20140199149326843,
        -0.4220690640896349,
        0.47991079382305762,
        -0.13777750873665573,
        -0.33291421344398314,
        0.36423325696886166,
        -0.13158186279977657,
        0.1367386695172112,
        0.51716977958332333,
        0.56040550523605748,
        -0.15260779957543183,
        -0.23107716430538619,
        0.023973297582602787,
        -0.043991276562008859,
        0.35100424165489102,
        -0.34846910940655884,
        1.1372401161803867,
        0.35267143135419238,
        1.0828320839173482,
        0.30993493087632884
      ]
    },
    {
      "dualCoef": -0.76705615332339727,
      "supportVector": [
        -0.47920972997375549,
        -0.36280049671356196,
        -0.54220368292279031,
        -0.065858298370725599,
        0.2747237826675305,
        -0.54178817604239571,
        0.31815425995360425,
        -0.89120703560264858,
        0.018861430582031123,
        -0.4807926520099351,
        -0.072821771257828571,
        1.409598458445054,
        0.01817684119934012,
        0.70431953808895609,
        0.072821771257828571,
        -0.17527778611285191,
        -0.20140199149326843,
        -0.4220690640896349,
        0.47991079382305762,
        0.58519233060755582,
        0.5530595973761061,
        1.4238103037520458,
        1.3871615173838856,
        1.1416609101826987,
        -0.20087605176354567,
        0.19136374798054825,
        0.21832178373958291,
        0.11725558655218224,
        1.0505626566833677,
        0.9010059215375491,
        2.4604112843477379,
        2.1048976679037441,
        1.7212599170393421,
        0.74851092445817458,
        1.1818894792636685,
        0.37679792357862529
      ]
    },
    {
      "dualCoef": -0.24596128405805875,
      "supportVector": [
        -0.47920972997375549,
        -0.36280049671356196,
        -0.54220368292279031,
        -0.065858298370725599,
        0.2747237826675305,
        -0.89314415805799952,
        0.018647113409271467,
        -0.89120703560264858,
        0.018861430582031123,
        -0.4807926520099351,
        -0.072821771257828571,
        1.409598458445054,
        0.01817684119934012,
        0.70431953808895609,
        0.072821771257828571,
        -0.20463786800069478,
        -0.20140199149326843,
        -0.34532541891013629,
        0.54658300337343801,
        -0.13777750873665573,
        -0.33291421344398314,
        0.36423325696886166,
        -0.13158186279977657,
        0.1367386695172112,
        0.51716977958332333,
        0.56040550523605748,
        -0.15260779957543183,
        -0.23107716430538619,
        0.023973297582602787,
        -0.043991276562008859,
        0.35100424165489102,
        -0.34846910940655884,
        1.1372401161803867,
        0.35267143135419238,
